~o
<STREAMINFO> 1 25
<VECSIZE> 25<NULLD><MFCC_D_N_Z_0><DIAGC>
~h "a"
<BEGINHMM>
<NUMSTATES> 5
<STATE> 2
<MEAN> 25
 -8.262026e-02 3.149403e-01 -8.027756e-01 -2.309502e-01 -7.384617e-02 2.095889e-02 4.292954e-01 3.477708e-01 1.177055e-01 2.542070e-01 6.353390e-02 7.210832e-01 7.773330e-04 7.033050e-03 -8.741596e-04 1.068616e-02 5.059383e-03 -6.353682e-04 6.886792e-03 3.837092e-03 7.027065e-04 -7.914766e-04 -5.342005e-03 -7.940205e-03 -4.794258e-03
<VARIANCE> 25
 3.235537e+01 1.926359e+01 3.108034e+01 2.576196e+01 2.514608e+01 2.429686e+01 3.426375e+01 1.653752e+01 1.806232e+01 2.083272e+01 3.422319e+01 2.817144e+01 1.473933e+00 1.010217e+00 1.592107e+00 1.226942e+00 1.527022e+00 1.650804e+00 2.316555e+00 1.273747e+00 1.458746e+00 1.176761e+00 2.110648e+00 1.328941e+00 4.034204e-01
<GCONST> 8.836198e+01
<STATE> 3
<MEAN> 25
 -8.561181e-02 3.361513e-01 -7.934613e-01 -2.040833e-01 -6.219457e-02 2.850659e-02 4.577065e-01 3.618122e-01 1.195807e-01 2.555701e-01 5.375862e-02 6.948142e-01 -1.654229e-03 5.915754e-03 4.030468e-03 1.453710e-02 6.480952e-03 4.498902e-04 8.638036e-03 4.542733e-03 -2.732328e-04 1.436391e-03 8.099774e-04 -7.569618e-03 -5.970553e-03
<VARIANCE> 25
 3.203970e+01 1.923160e+01 3.057538e+01 2.557224e+01 2.525269e+01 2.400929e+01 3.431138e+01 1.652249e+01 1.804268e+01 2.075113e+01 3.414552e+01 2.803511e+01 1.455193e+00 1.006552e+00 1.575916e+00 1.219616e+00 1.525592e+00 1.637824e+00 2.319819e+00 1.269167e+00 1.448440e+00 1.177213e+00 2.100111e+00 1.329102e+00 4.004869e-01
<GCONST> 8.824486e+01
<STATE> 4
<MEAN> 25
 -1.376207e-01 3.849369e-01 -8.370232e-01 -2.273756e-01 -7.068811e-02 7.749300e-02 5.824602e-01 4.361750e-01 1.336391e-01 3.282287e-01 1.108051e-01 7.481203e-01 -3.445720e-03 3.770072e-03 1.337753e-02 1.470004e-02 7.470465e-03 4.131115e-03 7.925595e-03 1.261551e-03 -2.206485e-03 1.018726e-03 6.231404e-03 -1.167568e-02 -3.321690e-03
<VARIANCE> 25
 3.121867e+01 1.871131e+01 2.924181e+01 2.454521e+01 2.462942e+01 2.357969e+01 3.379624e+01 1.644083e+01 1.789138e+01 2.041911e+01 3.329455e+01 2.795114e+01 1.397210e+00 9.863241e-01 1.530735e+00 1.176274e+00 1.472318e+00 1.614966e+00 2.256292e+00 1.243389e+00 1.419449e+00 1.152259e+00 2.024264e+00 1.310492e+00 3.931051e-01
<GCONST> 8.765472e+01
<TRANSP> 5
 0.000000e+00 1.000000e+00 0.000000e+00 0.000000e+00 0.000000e+00
 0.000000e+00 6.409851e-01 3.590149e-01 0.000000e+00 0.000000e+00
 0.000000e+00 0.000000e+00 6.409851e-01 3.590149e-01 0.000000e+00
 0.000000e+00 0.000000e+00 0.000000e+00 7.552800e-01 2.447200e-01
 0.000000e+00 0.000000e+00 0.000000e+00 0.000000e+00 0.000000e+00
<ENDHMM>
~h "b"
<BEGINHMM>
<NUMSTATES> 5
<STATE> 2
<MEAN> 25
 -8.675895e-01 -1.793784e+00 4.475592e+00 2.458735e+00 1.076353e+00 8.230172e-01 -1.181272e+00 -1.645941e+00 -1.609973e+00 -2.146301e+00 1.761950e-01 -2.359977e+00 2.975629e-02 -5.568131e-03 2.431554e-02 1.748647e-01 8.765263e-02 -2.851254e-02 -5.407079e-02 -2.601638e-02 -2.386461e-02 -1.303678e-02 -3.847632e-02 -4.801232e-02 -8.256916e-03
<VARIANCE> 25
 4.544352e+01 2.920050e+01 4.689750e+01 4.826260e+01 3.935738e+01 2.896226e+01 5.070539e+01 1.790810e+01 1.908717e+01 1.596853e+01 5.082241e+01 1.589734e+01 3.068903e+00 1.607058e+00 2.872576e+00 2.554073e+00 2.861383e+00 1.917519e+00 4.727362e+00 1.890059e+00 1.686614e+00 1.660993e+00 3.743483e+00 1.570430e+00 4.379157e-01
<GCONST> 9.658300e+01
<STATE> 3
<MEAN> 25
 -7.789746e-01 -1.768813e+00 4.507735e+00 2.837164e+00 1.277434e+00 7.624158e-01 -1.299929e+00 -1.717822e+00 -1.695940e+00 -2.187165e+00 6.762337e-02 -2.475570e+00 4.618472e-02 2.147965e-02 4.091712e-03 1.458060e-01 7.712357e-02 -2.784856e-02 -4.613139e-02 -2.584170e-02 -3.310313e-02 -1.385447e-02 -4.956340e-02 -4.522539e-02 -1.134118e-02
<VARIANCE> 25
 4.443155e+01 2.902591e+01 4.481979e+01 4.830101e+01 3.978745e+01 2.831976e+01 5.224320e+01 1.786657e+01 1.885545e+01 1.601804e+01 5.082483e+01 1.582537e+01 3.006798e+00 1.586651e+00 2.786547e+00 2.539739e+00 2.865965e+00 1.862862e+00 4.804326e+00 1.913625e+00 1.681741e+00 1.671068e+00 3.670905e+00 1.548662e+00 4.270560e-01
<GCONST> 9.638882e+01
<STATE> 4
<MEAN> 25
 -6.497347e-01 -1.634518e+00 4.509846e+00 3.116639e+00 1.438157e+00 7.521598e-01 -1.368351e+00 -1.799533e+00 -1.849219e+00 -2.252821e+00 -7.417438e-02 -2.595667e+00 4.948011e-02 4.408492e-02 -9.123303e-03 9.428550e-02 5.513772e-02 -1.719906e-02 -2.886556e-02 -2.786681e-02 -4.214891e-02 -1.214869e-02 -5.182964e-02 -4.080702e-02 -1.292550e-02
<VARIANCE> 25
 4.335685e+01 2.897160e+01 4.291035e+01 4.708583e+01 3.958724e+01 2.779139e+01 5.304928e+01 1.796566e+01 1.849713e+01 1.623150e+01 5.065094e+01 1.577527e+01 2.936542e+00 1.567041e+00 2.723956e+00 2.480571e+00 2.832397e+00 1.815045e+00 4.831864e+00 1.939228e+00 1.666077e+00 1.687921e+00 3.567799e+00 1.521801e+00 4.185006e-01
<GCONST> 9.611117e+01
<TRANSP> 5
 0.000000e+00 1.000000e+00 0.000000e+00 0.000000e+00 0.000000e+00
 0.000000e+00 5.830771e-01 4.169229e-01 0.000000e+00 0.000000e+00
 0.000000e+00 0.000000e+00 5.830772e-01 4.169229e-01 0.000000e+00
 0.000000e+00 0.000000e+00 0.000000e+00 6.815972e-01 3.184028e-01
 0.000000e+00 0.000000e+00 0.000000e+00 0.000000e+00 0.000000e+00
<ENDHMM>
~h "d"
<BEGINHMM>
<NUMSTATES> 5
<STATE> 2
<MEAN> 25
 1.786563e+00 1.124270e+00 -6.881623e-01 2.573878e-01 1.220510e-01 -1.056533e+00 -1.149095e+00 -4.519992e-01 -9.234928e-02 -8.725929e-01 -1.503202e+00 -5.508090e-01 -4.521462e-03 1.364041e-02 -2.951665e-02 -5.492038e-02 -4.417294e-02 7.559719e-03 4.360926e-02 2.826476e-02 1.772380e-02 3.101473e-02 2.466405e-02 4.641872e-02 -1.571892e-02
<VARIANCE> 25
 3.447482e+01 2.039109e+01 3.224344e+01 3.134795e+01 3.130812e+01 2.935249e+01 4.068752e+01 1.680966e+01 2.059154e+01 1.983022e+01 3.442507e+01 2.631247e+01 1.497487e+00 1.000747e+00 1.549774e+00 1.363445e+00 1.703573e+00 1.908388e+00 2.712125e+00 1.357241e+00 1.688609e+00 1.189876e+00 2.086433e+00 1.486585e+00 5.513985e-01
<GCONST> 9.046199e+01
<STATE> 3
<MEAN> 25
 1.752397e+00 1.155685e+00 -7.658887e-01 8.767537e-02 -1.206958e-02 -1.022685e+00 -1.000285e+00 -3.689266e-01 -5.421733e-02 -7.762564e-01 -1.411754e+00 -4.076234e-01 -8.956149e-03 6.310597e-03 -2.234421e-02 -4.549626e-02 -3.785709e-02 1.222568e-02 4.450614e-02 2.496388e-02 1.270994e-02 2.949774e-02 2.811638e-02 4.382322e-02 -1.401142e-02
<VARIANCE> 25
 3.436673e+01 2.008412e+01 3.186176e+01 2.936164e+01 2.998527e+01 2.981626e+01 3.951898e+01 1.663614e+01 2.055621e+01 1.996975e+01 3.422522e+01 2.643367e+01 1.465865e+00 9.991332e-01 1.565465e+00 1.313474e+00 1.656241e+00 1.916321e+00 2.642815e+00 1.350064e+00 1.677789e+00 1.180396e+00 2.043963e+00 1.466422e+00 5.431740e-01
<GCONST> 9.013424e+01
<STATE> 4
<MEAN> 25
 1.787919e+00 1.180089e+00 -8.873291e-01 -1.781214e-01 -2.116421e-01 -9.963651e-01 -8.425801e-01 -3.162757e-01 -5.207418e-02 -6.763898e-01 -1.334162e+00 -2.708792e-01 -2.284383e-02 -5.067598e-03 -1.258649e-02 -3.648001e-02 -3.188794e-02 1.891936e-02 5.086295e-02 2.351890e-02 5.576503e-03 2.831056e-02 3.731515e-02 4.432055e-02 -1.612437e-02
<VARIANCE> 25
 3.462598e+01 1.940125e+01 3.183906e+01 2.749830e+01 2.837797e+01 3.084315e+01 3.828508e+01 1.658863e+01 2.050262e+01 1.985727e+01 3.323994e+01 2.613021e+01 1.439213e+00 1.001064e+00 1.613718e+00 1.262037e+00 1.575018e+00 1.923862e+00 2.544848e+00 1.337162e+00 1.652142e+00 1.160175e+00 1.957164e+00 1.445076e+00 5.442655e-01
<GCONST> 8.972759e+01
<TRANSP> 5
 0.000000e+00 1.000000e+00 0.000000e+00 0.000000e+00 0.000000e+00
 0.000000e+00 6.537719e-01 3.462281e-01 0.000000e+00 0.000000e+00
 0.000000e+00 0.000000e+00 6.537709e-01 3.462291e-01 0.000000e+00
 0.000000e+00 0.000000e+00 0.000000e+00 7.692335e-01 2.307665e-01
 0.000000e+00 0.000000e+00 0.000000e+00 0.000000e+00 0.000000e+00
<ENDHMM>
~h "f"
<BEGINHMM>
<NUMSTATES> 5
<STATE> 2
<MEAN> 25
 1.710508e+00 1.445959e-01 -2.498321e+00 -3.097333e+00 -2.327119e+00 -9.959207e-01 -2.706874e-01 9.769353e-01 1.567153e+00 1.213551e+00 -7.540197e-01 1.999163e-01 -1.142053e-01 -5.204818e-02 2.442962e-02 -1.248174e-02 -2.475957e-02 3.940232e-02 8.577650e-02 5.080660e-02 5.220069e-04 9.154931e-03 6.625413e-02 8.281202e-02 -5.695089e-02
<VARIANCE> 25
 3.605698e+01 1.569954e+01 5.181335e+01 1.660357e+01 1.974462e+01 2.511006e+01 3.137612e+01 1.535864e+01 1.825342e+01 1.316347e+01 2.777315e+01 2.440509e+01 2.393125e+00 1.267572e+00 3.765730e+00 1.226754e+00 1.426971e+00 1.810343e+00 2.712020e+00 1.299053e+00 1.532248e+00 1.013024e+00 2.598964e+00 1.395653e+00 4.333076e-01
<GCONST> 8.916770e+01
<STATE> 3
<MEAN> 25
 1.416270e+00 2.279241e-02 -2.425464e+00 -3.096715e+00 -2.363713e+00 -8.885309e-01 -5.113972e-02 1.094642e+00 1.550165e+00 1.225112e+00 -5.956950e-01 3.963617e-01 -1.102046e-01 -4.614656e-02 2.947293e-02 4.457473e-05 -1.513720e-02 3.664558e-02 7.826537e-02 4.168798e-02 -9.597301e-03 -8.587959e-04 5.802979e-02 7.061397e-02 -5.588183e-02
<VARIANCE> 25
 3.677560e+01 1.574554e+01 5.219612e+01 1.596221e+01 1.949246e+01 2.555256e+01 3.102612e+01 1.491577e+01 1.798373e+01 1.329642e+01 2.885569e+01 2.481862e+01 2.414760e+00 1.260866e+00 3.702235e+00 1.205372e+00 1.422105e+00 1.825058e+00 2.658776e+00 1.266354e+00 1.499445e+00 1.034736e+00 2.694305e+00 1.400527e+00 4.306037e-01
<GCONST> 8.913396e+01
<STATE> 4
<MEAN> 25
 1.096047e+00 -7.298435e-02 -2.367613e+00 -3.073189e+00 -2.360673e+00 -7.777788e-01 1.713857e-01 1.212411e+00 1.534118e+00 1.235359e+00 -4.414508e-01 6.002566e-01 -1.032903e-01 -3.524624e-02 3.328487e-02 1.713840e-02 -5.257066e-04 3.371972e-02 6.850205e-02 2.938288e-02 -2.072538e-02 -1.001191e-02 4.601160e-02 5.552479e-02 -5.603072e-02
<VARIANCE> 25
 3.714985e+01 1.570882e+01 5.200765e+01 1.530568e+01 1.918303e+01 2.606341e+01 3.056251e+01 1.437856e+01 1.762701e+01 1.362504e+01 2.976003e+01 2.518175e+01 2.419213e+00 1.241482e+00 3.587806e+00 1.174875e+00 1.410739e+00 1.846276e+00 2.611947e+00 1.227141e+00 1.452353e+00 1.060580e+00 2.767705e+00 1.401871e+00 4.280754e-01
<GCONST> 8.899632e+01
<TRANSP> 5
 0.000000e+00 1.000000e+00 0.000000e+00 0.000000e+00 0.000000e+00
 0.000000e+00 5.868782e-01 4.131218e-01 0.000000e+00 0.000000e+00
 0.000000e+00 0.000000e+00 5.868779e-01 4.131221e-01 0.000000e+00
 0.000000e+00 0.000000e+00 0.000000e+00 6.862173e-01 3.137827e-01
 0.000000e+00 0.000000e+00 0.000000e+00 0.000000e+00 0.000000e+00
<ENDHMM>
~h "g"
<BEGINHMM>
<NUMSTATES> 5
<STATE> 2
<MEAN> 25
 5.267861e-01 3.336939e-01 6.224543e-01 1.808688e+00 9.886138e-01 -6.769208e-01 -7.729634e-01 -2.697443e-01 -3.845499e-01 -1.044249e+00 -9.442352e-01 -1.287343e+00 -4.039527e-02 1.154454e-02 -4.069727e-02 -5.217130e-02 -3.817736e-02 2.093165e-02 5.578796e-02 2.595361e-02 1.173251e-02 1.812447e-02 4.416712e-02 8.744248e-02 -5.307620e-02
<VARIANCE> 25
 3.137859e+01 2.941746e+01 3.204734e+01 3.768879e+01 3.829482e+01 2.972742e+01 4.427982e+01 1.698029e+01 2.119384e+01 2.158480e+01 4.700911e+01 2.606260e+01 1.634580e+00 1.107022e+00 1.304723e+00 1.521243e+00 2.113408e+00 2.092395e+00 3.267772e+00 1.342073e+00 1.754660e+00 1.273485e+00 2.711209e+00 1.516364e+00 4.238664e-01
<GCONST> 9.237064e+01
<STATE> 3
<MEAN> 25
 4.242557e-01 3.778071e-01 5.090241e-01 1.628451e+00 8.576958e-01 -6.248034e-01 -6.216005e-01 -1.918407e-01 -3.451839e-01 -9.855246e-01 -8.231513e-01 -1.049747e+00 -3.251404e-02 2.055913e-02 -4.103417e-02 -6.839265e-02 -5.179372e-02 1.305083e-02 5.160445e-02 2.816009e-02 1.461447e-02 1.808419e-02 3.779351e-02 8.535769e-02 -4.861042e-02
<VARIANCE> 25
 3.146970e+01 2.924875e+01 3.130696e+01 3.513040e+01 3.729832e+01 2.940563e+01 4.341513e+01 1.682459e+01 2.108541e+01 2.192159e+01 4.715044e+01 2.671370e+01 1.607088e+00 1.090681e+00 1.288554e+00 1.457052e+00 2.089062e+00 2.077515e+00 3.186952e+00 1.330072e+00 1.747072e+00 1.256671e+00 2.679515e+00 1.503941e+00 4.214216e-01
<GCONST> 9.206240e+01
<STATE> 4
<MEAN> 25
 3.628838e-01 4.353153e-01 4.165779e-01 1.385667e+00 6.625030e-01 -5.984150e-01 -4.919532e-01 -1.100966e-01 -3.074446e-01 -9.621910e-01 -7.468492e-01 -8.499511e-01 -1.782770e-02 3.311260e-02 -4.278794e-02 -8.403677e-02 -6.614485e-02 8.089914e-04 4.252483e-02 3.073214e-02 1.944739e-02 1.933376e-02 2.715167e-02 8.005446e-02 -4.139251e-02
<VARIANCE> 25
 3.196444e+01 2.937693e+01 3.083170e+01 3.222696e+01 3.639983e+01 2.989908e+01 4.253527e+01 1.656206e+01 2.108208e+01 2.244064e+01 4.760465e+01 2.738027e+01 1.578871e+00 1.080195e+00 1.284237e+00 1.391926e+00 2.065145e+00 2.104017e+00 3.127685e+00 1.327522e+00 1.755821e+00 1.244315e+00 2.654191e+00 1.497987e+00 4.224391e-01
<GCONST> 9.188243e+01
<TRANSP> 5
 0.000000e+00 1.000000e+00 0.000000e+00 0.000000e+00 0.000000e+00
 0.000000e+00 6.128587e-01 3.871413e-01 0.000000e+00 0.000000e+00
 0.000000e+00 0.000000e+00 6.128592e-01 3.871407e-01 0.000000e+00
 0.000000e+00 0.000000e+00 0.000000e+00 7.181136e-01 2.818864e-01
 0.000000e+00 0.000000e+00 0.000000e+00 0.000000e+00 0.000000e+00
<ENDHMM>
~h "h"
<BEGINHMM>
<NUMSTATES> 5
<STATE> 2
<MEAN> 25
 3.032911e+00 9.146470e-01 -1.718272e+00 -1.956429e-01 1.799043e-01 -1.166326e+00 -2.065481e+00 -8.299686e-01 -4.204654e-01 -1.332904e+00 -2.094946e+00 -1.456163e+00 -1.385370e-02 2.630220e-02 -3.689965e-02 -1.221795e-01 -1.007108e-01 2.808199e-03 6.634186e-02 4.500578e-02 2.076850e-02 4.415474e-02 5.280046e-02 4.757371e-02 -2.512266e-02
<VARIANCE> 25
 3.252642e+01 1.640034e+01 3.053061e+01 3.852837e+01 4.109975e+01 3.207793e+01 4.524683e+01 2.392810e+01 2.402015e+01 1.483274e+01 2.775846e+01 2.247857e+01 1.820273e+00 1.482145e+00 2.069130e+00 1.405915e+00 1.881440e+00 2.077182e+00 3.051146e+00 1.705872e+00 2.035501e+00 1.296995e+00 2.466432e+00 1.700408e+00 6.802030e-01
<GCONST> 9.287160e+01
<STATE> 3
<MEAN> 25
 2.990777e+00 9.887146e-01 -1.830702e+00 -5.857220e-01 -1.505129e-01 -1.164548e+00 -1.867533e+00 -7.047741e-01 -3.504976e-01 -1.189594e+00 -1.932856e+00 -1.316224e+00 -2.056497e-02 2.040274e-02 -2.560997e-02 -1.234876e-01 -1.074692e-01 2.310927e-03 6.449059e-02 3.763827e-02 2.271240e-02 4.625712e-02 5.520752e-02 4.541939e-02 -2.147425e-02
<VARIANCE> 25
 3.296462e+01 1.617007e+01 3.051196e+01 3.610955e+01 3.937245e+01 3.287090e+01 4.302984e+01 2.360986e+01 2.470249e+01 1.445881e+01 2.738783e+01 2.166700e+01 1.842381e+00 1.499758e+00 2.123243e+00 1.408687e+00 1.892165e+00 2.111109e+00 2.978378e+00 1.709849e+00 2.054487e+00 1.295298e+00 2.500534e+00 1.715731e+00 6.946511e-01
<GCONST> 9.277895e+01
<STATE> 4
<MEAN> 25
 3.071919e+00 1.059278e+00 -2.008549e+00 -1.087117e+00 -6.933104e-01 -1.369799e+00 -1.695348e+00 -5.897563e-01 -3.234737e-01 -1.074459e+00 -1.785313e+00 -1.185093e+00 -2.362893e-02 1.159652e-02 -1.205554e-02 -1.098040e-01 -1.031493e-01 1.727274e-03 5.362416e-02 1.876519e-02 1.841315e-02 4.422358e-02 5.079797e-02 3.636446e-02 -1.487718e-02
<VARIANCE> 25
 3.358649e+01 1.583379e+01 3.081093e+01 3.302458e+01 3.673664e+01 3.457294e+01 3.982204e+01 2.316833e+01 2.603338e+01 1.400694e+01 2.664554e+01 2.088476e+01 1.892747e+00 1.505643e+00 2.201900e+00 1.447150e+00 1.906212e+00 2.208058e+00 2.879208e+00 1.673669e+00 2.105102e+00 1.308892e+00 2.527117e+00 1.748726e+00 7.193960e-01
<GCONST> 9.272903e+01
<TRANSP> 5
 0.000000e+00 1.000000e+00 0.000000e+00 0.000000e+00 0.000000e+00
 0.000000e+00 6.607028e-01 3.392972e-01 0.000000e+00 0.000000e+00
 0.000000e+00 0.000000e+00 6.607029e-01 3.392971e-01 0.000000e+00
 0.000000e+00 0.000000e+00 0.000000e+00 7.760204e-01 2.239795e-01
 0.000000e+00 0.000000e+00 0.000000e+00 0.000000e+00 0.000000e+00
<ENDHMM>
~h "i"
<BEGINHMM>
<NUMSTATES> 5
<STATE> 2
<MEAN> 25
 3.312403e-01 7.452881e-01 1.921546e-01 3.288196e-01 5.179371e-01 2.076888e-01 1.401456e-01 1.596966e-01 -6.157563e-01 -2.339617e-01 -1.319603e-01 -4.221990e-01 -8.362879e-02 -5.780411e-02 -3.142850e-02 -3.730747e-02 -1.524111e-02 4.337893e-02 6.697869e-02 2.492769e-02 2.145018e-02 5.340721e-02 9.498408e-02 9.670334e-02 -3.998684e-02
<VARIANCE> 25
 3.143880e+01 2.004484e+01 3.245225e+01 2.021506e+01 3.082143e+01 2.689225e+01 3.902880e+01 1.784931e+01 2.248438e+01 2.019085e+01 4.003430e+01 2.344213e+01 1.448738e+00 1.081845e+00 1.498865e+00 1.315462e+00 1.795020e+00 1.675091e+00 2.709043e+00 1.444082e+00 1.628290e+00 1.314878e+00 2.515539e+00 1.430448e+00 4.038920e-01
<GCONST> 8.983612e+01
<STATE> 3
<MEAN> 25
 1.149481e-01 5.890715e-01 9.562303e-02 2.292232e-01 4.850817e-01 3.204706e-01 3.093512e-01 2.154866e-01 -5.579566e-01 -9.760652e-02 1.132564e-01 -1.636078e-01 -8.493302e-02 -5.918802e-02 -2.785781e-02 -4.302831e-02 -2.456447e-02 3.337388e-02 6.307469e-02 2.067266e-02 2.036264e-02 4.812545e-02 9.483522e-02 9.706619e-02 -3.785772e-02
<VARIANCE> 25
 3.177836e+01 1.978732e+01 3.346994e+01 1.992831e+01 2.949280e+01 2.570784e+01 3.907390e+01 1.799725e+01 2.237291e+01 2.001954e+01 4.031692e+01 2.377355e+01 1.455903e+00 1.067335e+00 1.526150e+00 1.293825e+00 1.742405e+00 1.624807e+00 2.682294e+00 1.424004e+00 1.583809e+00 1.269011e+00 2.486892e+00 1.405857e+00 4.042626e-01
<GCONST> 8.959605e+01
<STATE> 4
<MEAN> 25
 -1.207877e-01 3.970596e-01 -8.370928e-03 4.782952e-02 3.767465e-01 4.120303e-01 4.720543e-01 2.417132e-01 -5.248845e-01 1.585847e-02 3.637605e-01 1.343624e-01 -7.640646e-02 -5.574816e-02 -2.929243e-02 -4.224515e-02 -2.458932e-02 2.613513e-02 4.623085e-02 9.505863e-03 1.798124e-02 4.245896e-02 8.432136e-02 9.925169e-02 -3.537633e-02
<VARIANCE> 25
 3.251643e+01 1.948588e+01 3.505996e+01 1.978931e+01 2.788263e+01 2.484488e+01 3.967846e+01 1.827309e+01 2.232668e+01 1.993742e+01 4.073022e+01 2.400337e+01 1.467291e+00 1.048594e+00 1.558759e+00 1.276256e+00 1.687344e+00 1.591519e+00 2.663724e+00 1.405450e+00 1.542513e+00 1.228122e+00 2.450564e+00 1.387767e+00 4.108559e-01
<GCONST> 8.945101e+01
<TRANSP> 5
 0.000000e+00 1.000000e+00 0.000000e+00 0.000000e+00 0.000000e+00
 0.000000e+00 6.338435e-01 3.661564e-01 0.000000e+00 0.000000e+00
 0.000000e+00 0.000000e+00 6.338438e-01 3.661562e-01 0.000000e+00
 0.000000e+00 0.000000e+00 0.000000e+00 7.431374e-01 2.568626e-01
 0.000000e+00 0.000000e+00 0.000000e+00 0.000000e+00 0.000000e+00
<ENDHMM>
~h "j"
<BEGINHMM>
<NUMSTATES> 5
<STATE> 2
<MEAN> 25
 1.041374e-01 -9.834824e-01 3.669125e+00 2.256728e+00 1.601826e+00 2.343904e-01 -2.243941e+00 -2.008750e+00 -7.806914e-01 -1.696937e+00 -1.063023e+00 -3.212961e+00 7.282425e-02 -4.599667e-03 -3.108695e-02 2.183402e-02 2.030281e-02 -5.614233e-02 -8.674108e-02 -2.529669e-02 1.574140e-02 -3.193318e-02 -6.036786e-02 -3.768739e-02 4.596032e-02
<VARIANCE> 25
 4.929400e+01 2.524776e+01 5.708616e+01 6.270559e+01 3.804001e+01 3.193126e+01 5.427993e+01 2.150263e+01 2.034925e+01 2.185749e+01 4.346442e+01 2.810777e+01 2.625838e+00 1.354669e+00 2.556159e+00 2.681761e+00 2.421905e+00 2.198260e+00 4.068272e+00 1.672950e+00 1.846653e+00 1.579392e+00 2.832231e+00 1.656383e+00 5.123531e-01
<GCONST> 9.735795e+01
<STATE> 3
<MEAN> 25
 3.272061e-01 -9.810588e-01 3.473683e+00 2.300473e+00 1.645278e+00 5.103249e-02 -2.467439e+00 -2.038058e+00 -7.104440e-01 -1.743651e+00 -1.215217e+00 -3.241955e+00 7.350411e-02 -4.535665e-03 -5.696106e-02 1.924452e-02 1.922376e-02 -6.026173e-02 -7.763220e-02 -1.294904e-02 2.067204e-02 -2.076684e-02 -5.354593e-02 -1.890616e-02 3.495738e-02
<VARIANCE> 25
 4.952066e+01 2.525044e+01 5.694201e+01 6.432325e+01 3.891927e+01 3.250844e+01 5.444404e+01 2.101397e+01 2.030642e+01 2.156596e+01 4.251630e+01 2.702058e+01 2.601819e+00 1.353010e+00 2.545378e+00 2.671562e+00 2.400511e+00 2.218401e+00 4.087468e+00 1.669958e+00 1.880580e+00 1.584682e+00 2.821030e+00 1.642231e+00 5.309863e-01
<GCONST> 9.735876e+01
<STATE> 4
<MEAN> 25
 7.600766e-01 -9.662781e-01 3.045259e+00 2.427335e+00 1.705509e+00 -3.205069e-01 -2.862198e+00 -2.047640e+00 -5.488933e-01 -1.781273e+00 -1.489470e+00 -3.276329e+00 7.079311e-02 2.449770e-03 -9.640993e-02 -5.201456e-04 4.242907e-03 -6.199552e-02 -5.076625e-02 9.788976e-03 2.842170e-02 2.684971e-03 -3.651513e-02 1.721546e-02 1.432579e-02
<VARIANCE> 25
 4.937494e+01 2.451204e+01 5.664954e+01 6.736893e+01 4.093852e+01 3.376685e+01 5.576352e+01 2.043879e+01 2.041919e+01 2.126501e+01 4.071847e+01 2.689014e+01 2.490471e+00 1.322331e+00 2.468895e+00 2.618106e+00 2.340776e+00 2.253975e+00 4.102430e+00 1.636434e+00 1.924797e+00 1.560938e+00 2.730410e+00 1.623493e+00 5.665471e-01
<GCONST> 9.728101e+01
<TRANSP> 5
 0.000000e+00 1.000000e+00 0.000000e+00 0.000000e+00 0.000000e+00
 0.000000e+00 6.532759e-01 3.467240e-01 0.000000e+00 0.000000e+00
 0.000000e+00 0.000000e+00 6.532767e-01 3.467233e-01 0.000000e+00
 0.000000e+00 0.000000e+00 0.000000e+00 7.709430e-01 2.290570e-01
 0.000000e+00 0.000000e+00 0.000000e+00 0.000000e+00 0.000000e+00
<ENDHMM>
~h "m"
<BEGINHMM>
<NUMSTATES> 5
<STATE> 2
<MEAN> 25
 -3.977688e-01 -2.436711e-01 -9.243106e-01 -2.484405e-01 1.958729e-01 2.832590e-01 -2.841146e-02 5.380367e-01 1.574567e+00 1.012058e+00 1.444411e-01 1.209281e+00 -4.911546e-02 -1.589387e-02 -3.270112e-02 -5.292524e-02 -3.373162e-02 3.425426e-02 7.625858e-02 1.411630e-02 1.662969e-02 6.474847e-02 5.981490e-02 4.984855e-02 -3.236879e-02
<VARIANCE> 25
 3.088778e+01 2.245117e+01 2.325169e+01 2.219284e+01 2.182018e+01 2.083100e+01 3.812668e+01 1.783390e+01 1.579343e+01 2.397683e+01 2.565370e+01 1.991482e+01 1.074768e+00 1.121086e+00 1.331084e+00 8.136339e-01 1.016925e+00 1.617563e+00 1.603683e+00 1.553233e+00 1.716697e+00 1.319062e+00 1.465161e+00 1.035660e+00 3.816762e-01
<GCONST> 8.549656e+01
<STATE> 3
<MEAN> 25
 -5.437657e-01 -2.644488e-01 -1.032977e+00 -4.199869e-01 9.680413e-02 3.890373e-01 2.243597e-01 5.887390e-01 1.610575e+00 1.211794e+00 3.427366e-01 1.350790e+00 -4.314847e-02 8.142740e-03 -3.366802e-02 -5.735279e-02 -3.218883e-02 3.617796e-02 9.097284e-02 1.766554e-02 -5.327030e-03 5.460919e-02 6.378559e-02 3.818511e-02 -4.069572e-02
<VARIANCE> 25
 3.048712e+01 2.172155e+01 2.341111e+01 2.104382e+01 2.041099e+01 2.026432e+01 3.595341e+01 1.772556e+01 1.543276e+01 2.224957e+01 2.538542e+01 1.924318e+01 1.082786e+00 1.087133e+00 1.323635e+00 7.818654e-01 9.583193e-01 1.593677e+00 1.560696e+00 1.571611e+00 1.702984e+00 1.268213e+00 1.451735e+00 1.051014e+00 3.898200e-01
<GCONST> 8.492319e+01
<STATE> 4
<MEAN> 25
 -8.592394e-01 -2.287874e-01 -1.228444e+00 -7.176338e-01 -3.486099e-02 5.645640e-01 6.607273e-01 7.204019e-01 1.646063e+00 1.511817e+00 7.283880e-01 1.656559e+00 -3.318056e-02 3.361581e-02 -3.381040e-02 -5.488403e-02 -2.537265e-02 3.658638e-02 9.404013e-02 1.735530e-02 -2.446571e-02 4.541975e-02 5.947635e-02 2.358028e-02 -4.842346e-02
<VARIANCE> 25
 2.900872e+01 1.972093e+01 2.251910e+01 1.872344e+01 1.799624e+01 1.927981e+01 3.239004e+01 1.691511e+01 1.464456e+01 1.980902e+01 2.466574e+01 1.825504e+01 1.040711e+00 9.930890e-01 1.253386e+00 7.177791e-01 8.703366e-01 1.546924e+00 1.464618e+00 1.540886e+00 1.650482e+00 1.187102e+00 1.412510e+00 1.085769e+00 3.852243e-01
<GCONST> 8.346056e+01
<TRANSP> 5
 0.000000e+00 1.000000e+00 0.000000e+00 0.000000e+00 0.000000e+00
 0.000000e+00 6.836766e-01 3.163235e-01 0.000000e+00 0.000000e+00
 0.000000e+00 0.000000e+00 6.836768e-01 3.163231e-01 0.000000e+00
 0.000000e+00 0.000000e+00 0.000000e+00 7.995781e-01 2.004219e-01
 0.000000e+00 0.000000e+00 0.000000e+00 0.000000e+00 0.000000e+00
<ENDHMM>
~h "n"
<BEGINHMM>
<NUMSTATES> 5
<STATE> 2
<MEAN> 25
 2.616043e+00 1.120662e+00 1.004485e+00 -7.720637e-02 -6.005364e-01 -1.058158e+00 -1.430002e+00 -7.215672e-01 -1.896515e-01 -1.341957e+00 -2.451787e+00 -3.190719e+00 1.585719e-02 -3.603522e-02 -3.720810e-02 -1.875631e-02 -2.402161e-02 -4.333384e-02 -1.523019e-02 1.987822e-02 3.111972e-02 4.018210e-02 1.923141e-02 -4.455509e-03 1.740047e-02
<VARIANCE> 25
 3.891663e+01 2.521148e+01 4.731360e+01 3.599478e+01 3.715781e+01 3.453863e+01 4.042181e+01 1.991200e+01 2.582355e+01 2.122789e+01 3.693978e+01 1.906504e+01 2.258167e+00 1.420487e+00 2.941113e+00 1.856715e+00 2.253693e+00 2.190012e+00 3.359926e+00 1.563856e+00 1.971706e+00 1.496256e+00 2.888724e+00 1.542395e+00 4.810648e-01
<GCONST> 9.495047e+01
<STATE> 3
<MEAN> 25
 2.651094e+00 1.035086e+00 8.971555e-01 -1.255033e-01 -6.508377e-01 -1.172137e+00 -1.457862e+00 -6.596519e-01 -1.086989e-01 -1.226208e+00 -2.394789e+00 -3.192292e+00 6.126591e-03 -3.693254e-02 -4.637425e-02 -2.373005e-02 -2.061970e-02 -3.870725e-02 -8.863452e-03 2.325961e-02 3.284256e-02 5.115442e-02 2.922574e-02 8.324577e-03 7.853498e-03
<VARIANCE> 25
 3.872971e+01 2.478105e+01 4.818294e+01 3.748673e+01 3.832158e+01 3.410911e+01 4.140270e+01 1.964679e+01 2.570564e+01 2.133920e+01 3.661142e+01 1.917838e+01 2.239814e+00 1.432784e+00 2.998402e+00 1.840217e+00 2.222083e+00 2.151194e+00 3.378547e+00 1.538562e+00 1.959373e+00 1.488908e+00 2.838566e+00 1.535207e+00 4.756123e-01
<GCONST> 9.493705e+01
<STATE> 4
<MEAN> 25
 2.673062e+00 9.036175e-01 8.678610e-01 -1.201283e-01 -6.654925e-01 -1.345577e+00 -1.518984e+00 -5.747553e-01 5.422393e-03 -1.104162e+00 -2.306545e+00 -3.265962e+00 -2.623764e-03 -2.929267e-02 -5.732388e-02 -3.282635e-02 -1.661716e-02 -3.094319e-02 1.753459e-03 2.868434e-02 3.187931e-02 5.983364e-02 3.697374e-02 2.470217e-02 -5.256571e-03
<VARIANCE> 25
 3.926579e+01 2.438853e+01 4.911084e+01 4.016859e+01 4.075438e+01 3.441009e+01 4.349495e+01 1.949441e+01 2.585505e+01 2.142837e+01 3.698410e+01 1.964247e+01 2.223242e+00 1.447797e+00 3.053705e+00 1.824481e+00 2.220281e+00 2.134597e+00 3.396304e+00 1.502095e+00 1.964155e+00 1.475913e+00 2.809150e+00 1.532959e+00 4.658701e-01
<GCONST> 9.512534e+01
<TRANSP> 5
 0.000000e+00 1.000000e+00 0.000000e+00 0.000000e+00 0.000000e+00
 0.000000e+00 6.173353e-01 3.826647e-01 0.000000e+00 0.000000e+00
 0.000000e+00 0.000000e+00 6.173356e-01 3.826644e-01 0.000000e+00
 0.000000e+00 0.000000e+00 0.000000e+00 7.244064e-01 2.755936e-01
 0.000000e+00 0.000000e+00 0.000000e+00 0.000000e+00 0.000000e+00
<ENDHMM>
~h "p"
<BEGINHMM>
<NUMSTATES> 5
<STATE> 2
<MEAN> 25
 3.008332e-01 -7.117409e-01 1.011361e+00 5.869585e-01 -3.250050e-01 -6.494398e-01 -9.174930e-01 -6.011996e-01 -4.462837e-01 -7.292719e-01 -6.014316e-01 -9.843197e-01 1.518825e-02 3.617854e-02 -3.150027e-02 3.963486e-02 3.424188e-02 -5.910026e-03 1.650870e-03 1.041812e-02 6.019277e-03 2.773388e-03 -2.505080e-02 -2.075169e-03 -2.803591e-02
<VARIANCE> 25
 4.219257e+01 2.777644e+01 4.786713e+01 4.349724e+01 3.122809e+01 3.142493e+01 4.445576e+01 2.056296e+01 2.236570e+01 2.190652e+01 4.195199e+01 3.057777e+01 2.147144e+00 1.398315e+00 2.236348e+00 1.935204e+00 2.023081e+00 2.450013e+00 3.182355e+00 1.638640e+00 1.886071e+00 1.463175e+00 2.730958e+00 1.719869e+00 6.068923e-01
<GCONST> 9.559177e+01
<STATE> 3
<MEAN> 25
 3.443106e-01 -5.939579e-01 8.822953e-01 6.774293e-01 -2.320456e-01 -6.530238e-01 -8.875200e-01 -5.554748e-01 -4.114991e-01 -7.007932e-01 -6.672225e-01 -9.606128e-01 1.819164e-02 4.002060e-02 -4.175331e-02 3.138354e-02 2.970343e-02 -5.305240e-03 7.175371e-03 1.294999e-02 8.895793e-03 6.504226e-03 -2.279959e-02 5.517153e-03 -3.041599e-02
<VARIANCE> 25
 4.109002e+01 2.776760e+01 4.577810e+01 4.322383e+01 3.152493e+01 3.094296e+01 4.422414e+01 2.033450e+01 2.207664e+01 2.196126e+01 4.153143e+01 3.053207e+01 2.072417e+00 1.366436e+00 2.147405e+00 1.876941e+00 2.013370e+00 2.412327e+00 3.119695e+00 1.620703e+00 1.876266e+00 1.452363e+00 2.686843e+00 1.705695e+00 5.966089e-01
<GCONST> 9.523443e+01
<STATE> 4
<MEAN> 25
 4.738880e-01 -4.500844e-01 6.621746e-01 7.561818e-01 -1.443276e-01 -6.751247e-01 -8.703840e-01 -4.962871e-01 -3.468045e-01 -6.699155e-01 -7.817268e-01 -9.109845e-01 1.633623e-02 4.230633e-02 -5.299700e-02 1.272180e-02 2.061258e-02 -2.684043e-05 1.881110e-02 1.778677e-02 1.390490e-02 1.408925e-02 -1.490666e-02 1.903412e-02 -3.359215e-02
<VARIANCE> 25
 3.975283e+01 2.769670e+01 4.308708e+01 4.180093e+01 3.158633e+01 3.064027e+01 4.370477e+01 2.001850e+01 2.179821e+01 2.202956e+01 4.047693e+01 3.033777e+01 1.972589e+00 1.343930e+00 2.057707e+00 1.784907e+00 1.980010e+00 2.392907e+00 3.017216e+00 1.608306e+00 1.879954e+00 1.435288e+00 2.607510e+00 1.684108e+00 5.913475e-01
<GCONST> 9.474147e+01
<TRANSP> 5
 0.000000e+00 1.000000e+00 0.000000e+00 0.000000e+00 0.000000e+00
 0.000000e+00 6.655867e-01 3.344134e-01 0.000000e+00 0.000000e+00
 0.000000e+00 0.000000e+00 6.655869e-01 3.344132e-01 0.000000e+00
 0.000000e+00 0.000000e+00 0.000000e+00 7.808138e-01 2.191862e-01
 0.000000e+00 0.000000e+00 0.000000e+00 0.000000e+00 0.000000e+00
<ENDHMM>
~h "r"
<BEGINHMM>
<NUMSTATES> 5
<STATE> 2
<MEAN> 25
 3.005582e-01 -1.519070e-01 -1.963051e+00 -2.568293e+00 -2.100903e+00 -5.390021e-01 6.056620e-01 1.209748e+00 1.091562e+00 9.277274e-01 -2.770144e-01 8.438007e-01 -2.814971e-02 2.620048e-02 2.356100e-02 7.053308e-02 5.656466e-02 4.459710e-03 8.767828e-04 -2.657470e-02 -4.842157e-02 -4.014410e-02 -1.707791e-02 -1.234860e-02 -3.458941e-02
<VARIANCE> 25
 3.628014e+01 1.695420e+01 5.048840e+01 1.597176e+01 2.026317e+01 2.708016e+01 2.846995e+01 1.302023e+01 1.763178e+01 1.642588e+01 3.388649e+01 2.766191e+01 2.379782e+00 1.188557e+00 3.045096e+00 1.135702e+00 1.420886e+00 1.898758e+00 2.530844e+00 1.116279e+00 1.330011e+00 1.231685e+00 3.050964e+00 1.486685e+00 4.409430e-01
<GCONST> 8.929416e+01
<STATE> 3
<MEAN> 25
 2.362332e-01 -8.067959e-02 -1.896648e+00 -2.386564e+00 -1.954891e+00 -5.230100e-01 6.068023e-01 1.139902e+00 9.675497e-01 8.272285e-01 -3.173996e-01 8.079045e-01 -1.853208e-02 3.271838e-02 2.323885e-02 8.255564e-02 7.311986e-02 5.087005e-03 -5.724718e-03 -2.978840e-02 -5.034276e-02 -4.098361e-02 -1.790660e-02 -2.297866e-02 -2.945982e-02
<VARIANCE> 25
 3.545081e+01 1.743511e+01 4.941505e+01 1.658709e+01 2.097971e+01 2.696173e+01 2.824986e+01 1.291696e+01 1.768283e+01 1.710903e+01 3.443822e+01 2.844792e+01 2.337669e+00 1.171523e+00 2.883603e+00 1.137778e+00 1.441008e+00 1.895639e+00 2.535319e+00 1.098464e+00 1.298093e+00 1.254426e+00 3.056434e+00 1.505670e+00 4.448871e-01
<GCONST> 8.934831e+01
<STATE> 4
<MEAN> 25
 1.301690e-01 2.050678e-02 -1.818835e+00 -2.154793e+00 -1.740051e+00 -4.689669e-01 6.384749e-01 1.081603e+00 8.410401e-01 7.366182e-01 -3.273144e-01 7.963244e-01 -1.516757e-02 3.552378e-02 3.146687e-02 9.075239e-02 8.373545e-02 6.160440e-03 -9.256893e-03 -3.061230e-02 -5.323261e-02 -4.171024e-02 -1.165714e-02 -2.750673e-02 -2.385143e-02
<VARIANCE> 25
 3.435173e+01 1.783332e+01 4.766709e+01 1.710134e+01 2.171470e+01 2.667978e+01 2.811832e+01 1.288983e+01 1.770540e+01 1.787375e+01 3.489884e+01 2.981203e+01 2.262317e+00 1.138023e+00 2.669451e+00 1.130301e+00 1.460772e+00 1.877110e+00 2.545931e+00 1.078742e+00 1.257085e+00 1.262026e+00 3.019041e+00 1.504272e+00 4.424219e-01
<GCONST> 8.925568e+01
<TRANSP> 5
 0.000000e+00 1.000000e+00 0.000000e+00 0.000000e+00 0.000000e+00
 0.000000e+00 5.868563e-01 4.131437e-01 0.000000e+00 0.000000e+00
 0.000000e+00 0.000000e+00 5.868570e-01 4.131431e-01 0.000000e+00
 0.000000e+00 0.000000e+00 0.000000e+00 6.861780e-01 3.138221e-01
 0.000000e+00 0.000000e+00 0.000000e+00 0.000000e+00 0.000000e+00
<ENDHMM>
~h "s"
<BEGINHMM>
<NUMSTATES> 5
<STATE> 2
<MEAN> 25
 9.977114e-02 -4.801785e-01 1.358858e+00 -1.826683e-01 -5.991608e-01 -1.765919e-01 -4.028075e-01 -3.680892e-01 -6.764943e-01 -8.319165e-01 -4.210670e-02 -8.690057e-01 -2.346268e-02 -6.664262e-03 2.521847e-04 1.807667e-02 1.839225e-02 1.348842e-02 -1.649474e-04 -2.490971e-03 -7.677651e-03 -5.664631e-03 1.548584e-02 2.117939e-02 -1.842899e-02
<VARIANCE> 25
 4.581280e+01 2.179755e+01 5.353074e+01 3.756679e+01 3.145040e+01 3.067735e+01 4.414947e+01 2.250041e+01 2.087040e+01 2.236985e+01 4.142646e+01 2.780017e+01 2.381631e+00 1.405661e+00 2.576260e+00 1.820660e+00 1.903558e+00 1.968862e+00 3.130133e+00 1.580433e+00 1.633249e+00 1.485709e+00 3.106320e+00 1.674680e+00 6.035008e-01
<GCONST> 9.513202e+01
<STATE> 3
<MEAN> 25
 3.129053e-02 -4.875293e-01 1.320253e+00 -1.449604e-01 -5.548065e-01 -1.454002e-01 -3.820153e-01 -3.541927e-01 -6.865314e-01 -8.300261e-01 9.478943e-03 -7.771977e-01 -2.994628e-02 -1.011346e-02 3.240474e-03 1.881533e-02 1.790188e-02 1.182726e-02 6.041126e-03 1.226792e-04 -3.466575e-03 -2.441250e-03 2.265465e-02 2.002511e-02 -1.843160e-02
<VARIANCE> 25
 4.525947e+01 2.187878e+01 5.243151e+01 3.710516e+01 3.114734e+01 3.003809e+01 4.394509e+01 2.246458e+01 2.073898e+01 2.226252e+01 4.168886e+01 2.783389e+01 2.350372e+00 1.397666e+00 2.533737e+00 1.805518e+00 1.890238e+00 1.948659e+00 3.117351e+00 1.584675e+00 1.623587e+00 1.484488e+00 3.125547e+00 1.672738e+00 5.955915e-01
<GCONST> 9.497232e+01
<STATE> 4
<MEAN> 25
 -1.144126e-02 -4.808249e-01 1.204805e+00 -1.427526e-01 -5.536178e-01 -1.699530e-01 -3.559355e-01 -3.251223e-01 -6.778835e-01 -7.848985e-01 7.527311e-02 -6.506079e-01 -2.927414e-02 -6.121599e-03 -4.499476e-03 1.762908e-02 1.622073e-02 7.800377e-03 1.401566e-02 5.724605e-03 2.600954e-03 1.054000e-03 2.300342e-02 2.240981e-02 -2.139172e-02
<VARIANCE> 25
 4.468606e+01 2.162318e+01 5.132171e+01 3.656420e+01 3.055212e+01 2.943054e+01 4.407701e+01 2.231143e+01 2.054657e+01 2.221260e+01 4.192628e+01 2.833933e+01 2.288531e+00 1.376207e+00 2.472434e+00 1.777310e+00 1.842748e+00 1.929848e+00 3.088640e+00 1.578719e+00 1.611097e+00 1.470894e+00 3.118300e+00 1.681117e+00 5.940309e-01
<GCONST> 9.473288e+01
<TRANSP> 5
 0.000000e+00 1.000000e+00 0.000000e+00 0.000000e+00 0.000000e+00
 0.000000e+00 6.530108e-01 3.469892e-01 0.000000e+00 0.000000e+00
 0.000000e+00 0.000000e+00 6.530111e-01 3.469889e-01 0.000000e+00
 0.000000e+00 0.000000e+00 0.000000e+00 7.660594e-01 2.339406e-01
 0.000000e+00 0.000000e+00 0.000000e+00 0.000000e+00 0.000000e+00
<ENDHMM>
~h "t"
<BEGINHMM>
<NUMSTATES> 5
<STATE> 2
<MEAN> 25
 7.287863e-01 7.102059e-02 -5.982555e-01 -8.641202e-01 -1.087834e+00 -8.762425e-01 -7.041080e-02 4.318837e-01 2.867574e-01 -3.532726e-01 -4.819985e-01 7.570796e-02 -1.511693e-02 1.479818e-02 -1.676026e-02 -8.322264e-03 -5.811531e-03 8.192589e-05 2.721478e-02 3.205742e-02 6.890682e-03 5.600841e-03 1.216416e-02 2.510503e-02 -2.657293e-02
<VARIANCE> 25
 3.977010e+01 1.946708e+01 4.141496e+01 3.022414e+01 2.519291e+01 2.751518e+01 3.566925e+01 1.990726e+01 1.955165e+01 2.142335e+01 3.472855e+01 2.624191e+01 2.078702e+00 1.338784e+00 2.279259e+00 1.359446e+00 1.411617e+00 1.908261e+00 2.491021e+00 1.474867e+00 1.564658e+00 1.328573e+00 2.743138e+00 1.499689e+00 6.058940e-01
<GCONST> 9.178188e+01
<STATE> 3
<MEAN> 25
 6.870313e-01 1.168141e-01 -6.461130e-01 -8.859850e-01 -1.099343e+00 -8.736421e-01 3.949507e-03 5.233128e-01 3.082620e-01 -3.353104e-01 -4.479048e-01 1.451682e-01 -1.230629e-02 1.840053e-02 -1.455454e-02 -6.613947e-03 -3.261635e-03 7.188017e-04 2.324699e-02 2.716499e-02 6.278296e-03 4.427425e-03 7.540031e-03 1.936557e-02 -2.500636e-02
<VARIANCE> 25
 3.957262e+01 1.933517e+01 4.044604e+01 2.886433e+01 2.516671e+01 2.742310e+01 3.549586e+01 1.960092e+01 1.946112e+01 2.174120e+01 3.492757e+01 2.641784e+01 2.040852e+00 1.325301e+00 2.222586e+00 1.326545e+00 1.393444e+00 1.895179e+00 2.458221e+00 1.458032e+00 1.550058e+00 1.326042e+00 2.736381e+00 1.473062e+00 5.931130e-01
<GCONST> 9.152238e+01
<STATE> 4
<MEAN> 25
 6.663184e-01 2.100725e-01 -7.177604e-01 -8.776615e-01 -1.064324e+00 -8.836834e-01 8.197670e-02 6.343256e-01 2.951183e-01 -3.623583e-01 -4.051840e-01 2.351244e-01 -1.138870e-02 1.951538e-02 -1.042814e-02 -2.413081e-03 2.965655e-03 4.213712e-03 1.859581e-02 2.113104e-02 6.020888e-03 5.201546e-03 4.793424e-03 1.381342e-02 -2.332988e-02
<VARIANCE> 25
 3.918902e+01 1.895844e+01 3.846733e+01 2.697430e+01 2.495607e+01 2.759308e+01 3.536867e+01 1.911868e+01 1.929118e+01 2.218785e+01 3.473664e+01 2.676219e+01 1.957305e+00 1.288543e+00 2.095223e+00 1.280051e+00 1.355420e+00 1.888595e+00 2.403244e+00 1.425934e+00 1.529829e+00 1.314686e+00 2.662603e+00 1.429724e+00 5.763868e-01
<GCONST> 9.101521e+01
<TRANSP> 5
 0.000000e+00 1.000000e+00 0.000000e+00 0.000000e+00 0.000000e+00
 0.000000e+00 6.576001e-01 3.423999e-01 0.000000e+00 0.000000e+00
 0.000000e+00 0.000000e+00 6.575992e-01 3.424008e-01 0.000000e+00
 0.000000e+00 0.000000e+00 0.000000e+00 7.726622e-01 2.273378e-01
 0.000000e+00 0.000000e+00 0.000000e+00 0.000000e+00 0.000000e+00
<ENDHMM>
~h "v"
<BEGINHMM>
<NUMSTATES> 5
<STATE> 2
<MEAN> 25
 -7.568238e-01 3.413394e-01 -1.518369e+00 -2.208134e-01 5.228775e-01 4.819216e-01 1.034519e+00 8.916042e-01 6.302953e-01 1.346169e+00 1.118634e+00 1.682044e+00 -3.746636e-02 -1.678508e-02 -2.263525e-02 -4.233949e-02 -3.318139e-02 -7.318038e-03 2.840591e-02 1.615919e-02 -2.059506e-04 3.068020e-02 3.153725e-02 3.801615e-02 -2.089796e-02
<VARIANCE> 25
 2.966142e+01 1.241028e+01 2.159843e+01 2.340301e+01 2.555548e+01 2.068043e+01 3.718346e+01 1.661668e+01 1.593133e+01 1.925806e+01 2.782198e+01 3.069110e+01 8.717549e-01 7.935566e-01 1.069078e+00 9.053215e-01 1.186393e+00 1.140668e+00 1.767050e+00 1.064152e+00 1.220558e+00 9.948799e-01 1.511485e+00 9.893708e-01 2.832994e-01
<GCONST> 8.312132e+01
<STATE> 3
<MEAN> 25
 -8.578182e-01 3.042807e-01 -1.581962e+00 -3.577847e-01 4.206528e-01 4.913334e-01 1.137568e+00 9.460328e-01 6.277556e-01 1.431775e+00 1.200687e+00 1.774748e+00 -3.261604e-02 -1.188331e-02 -1.977463e-02 -4.420856e-02 -3.266585e-02 4.984394e-03 3.143523e-02 1.538451e-02 -3.992957e-03 2.408665e-02 2.445720e-02 3.037194e-02 -1.767153e-02
<VARIANCE> 25
 2.951179e+01 1.219070e+01 2.135641e+01 2.231050e+01 2.472907e+01 2.025291e+01 3.591874e+01 1.653685e+01 1.594781e+01 1.888452e+01 2.730418e+01 2.983788e+01 8.632286e-01 7.831546e-01 1.067724e+00 8.994161e-01 1.173568e+00 1.110712e+00 1.734210e+00 1.057114e+00 1.204348e+00 9.761128e-01 1.513063e+00 1.010053e+00 2.799969e-01
<GCONST> 8.276449e+01
<STATE> 4
<MEAN> 25
 -9.332966e-01 3.202916e-01 -1.669382e+00 -5.461075e-01 2.669200e-01 5.350056e-01 1.301196e+00 1.000525e+00 5.710394e-01 1.484644e+00 1.246918e+00 1.874578e+00 -2.786843e-02 -4.649940e-03 -1.069374e-02 -3.701038e-02 -3.048145e-02 1.557679e-02 3.745310e-02 8.871590e-03 -1.240245e-02 1.429360e-02 1.778281e-02 2.515026e-02 -1.630174e-02
<VARIANCE> 25
 2.864657e+01 1.162414e+01 2.025891e+01 2.059513e+01 2.328187e+01 1.970381e+01 3.430368e+01 1.623512e+01 1.570440e+01 1.812190e+01 2.594068e+01 2.823374e+01 8.365279e-01 7.594753e-01 1.049027e+00 8.819935e-01 1.135696e+00 1.082198e+00 1.680125e+00 1.048856e+00 1.172931e+00 9.722937e-01 1.480783e+00 1.045061e+00 2.742033e-01
<GCONST> 8.200262e+01
<TRANSP> 5
 0.000000e+00 1.000000e+00 0.000000e+00 0.000000e+00 0.000000e+00
 0.000000e+00 6.709439e-01 3.290561e-01 0.000000e+00 0.000000e+00
 0.000000e+00 0.000000e+00 6.709439e-01 3.290561e-01 0.000000e+00
 0.000000e+00 0.000000e+00 0.000000e+00 7.876256e-01 2.123744e-01
 0.000000e+00 0.000000e+00 0.000000e+00 0.000000e+00 0.000000e+00
<ENDHMM>
~h "z"
<BEGINHMM>
<NUMSTATES> 5
<STATE> 2
<MEAN> 25
 3.227144e+00 8.726023e-01 -2.191294e+00 -2.264692e+00 -1.760798e+00 -1.452591e+00 -1.403546e+00 -8.471412e-03 8.511615e-01 2.945288e-01 -1.969552e+00 -1.302501e+00 -5.317302e-02 -4.144369e-02 -6.519309e-02 -9.146648e-02 -5.427282e-02 -5.451398e-03 3.357106e-02 6.392723e-02 8.249124e-02 9.719234e-02 7.398406e-02 7.559992e-02 -2.840412e-02
<VARIANCE> 25
 2.933889e+01 1.665557e+01 4.803848e+01 2.338425e+01 2.378004e+01 2.428007e+01 3.151781e+01 1.760556e+01 2.096129e+01 1.651764e+01 2.389126e+01 1.937040e+01 2.288999e+00 1.372688e+00 3.868085e+00 1.430055e+00 1.509558e+00 1.842868e+00 3.146299e+00 1.501713e+00 1.699304e+00 1.183715e+00 2.219190e+00 1.472980e+00 5.021019e-01
<GCONST> 9.044998e+01
<STATE> 3
<MEAN> 25
 3.083041e+00 7.808686e-01 -2.343577e+00 -2.478987e+00 -1.877347e+00 -1.450757e+00 -1.314660e+00 1.431056e-01 1.045916e+00 5.227410e-01 -1.789401e+00 -1.106666e+00 -6.479561e-02 -4.242766e-02 -5.245054e-02 -8.452167e-02 -5.114784e-02 5.518898e-03 4.551837e-02 6.529474e-02 7.456852e-02 8.758056e-02 7.529150e-02 8.381288e-02 -3.464458e-02
<VARIANCE> 25
 3.028332e+01 1.633430e+01 4.878678e+01 2.241011e+01 2.295431e+01 2.404810e+01 3.155620e+01 1.747437e+01 2.062819e+01 1.562013e+01 2.395323e+01 2.019091e+01 2.298650e+00 1.354448e+00 3.895568e+00 1.393446e+00 1.483696e+00 1.824922e+00 3.088576e+00 1.479180e+00 1.683669e+00 1.125078e+00 2.231807e+00 1.458237e+00 4.879341e-01
<GCONST> 9.017427e+01
<STATE> 4
<MEAN> 25
 2.935709e+00 6.749947e-01 -2.523393e+00 -2.762350e+00 -2.041342e+00 -1.465233e+00 -1.225246e+00 3.301386e-01 1.285233e+00 7.590417e-01 -1.597083e+00 -8.632979e-01 -7.960782e-02 -4.330850e-02 -3.623420e-02 -7.097826e-02 -4.399344e-02 1.884457e-02 5.889330e-02 6.422658e-02 6.167690e-02 7.367154e-02 7.615481e-02 9.201939e-02 -4.355022e-02
<VARIANCE> 25
 3.138791e+01 1.597812e+01 4.970768e+01 2.104082e+01 2.195078e+01 2.409889e+01 3.175374e+01 1.719533e+01 2.012963e+01 1.467752e+01 2.416264e+01 2.114117e+01 2.318489e+00 1.324611e+00 3.930936e+00 1.352786e+00 1.456541e+00 1.816419e+00 3.022726e+00 1.444549e+00 1.665119e+00 1.063793e+00 2.263124e+00 1.444723e+00 4.746518e-01
<GCONST> 8.986656e+01
<TRANSP> 5
 0.000000e+00 1.000000e+00 0.000000e+00 0.000000e+00 0.000000e+00
 0.000000e+00 5.868938e-01 4.131062e-01 0.000000e+00 0.000000e+00
 0.000000e+00 0.000000e+00 5.868942e-01 4.131058e-01 0.000000e+00
 0.000000e+00 0.000000e+00 0.000000e+00 6.862435e-01 3.137565e-01
 0.000000e+00 0.000000e+00 0.000000e+00 0.000000e+00 0.000000e+00
<ENDHMM>
~h "aa"
<BEGINHMM>
<NUMSTATES> 5
<STATE> 2
<MEAN> 25
 1.773251e+00 3.570057e-01 -1.048750e+00 -8.657582e-01 -7.910336e-01 -1.054749e+00 -1.033547e+00 -2.260824e-01 2.120402e-01 -3.394516e-01 -1.173498e+00 -4.643038e-01 -7.688869e-03 -1.751845e-04 -5.848216e-02 -4.459142e-02 -2.899086e-02 -8.196905e-03 3.124137e-02 4.284929e-02 3.047406e-02 3.651074e-02 2.915687e-02 5.154983e-02 -2.163545e-02
<VARIANCE> 25
 3.904713e+01 1.739998e+01 4.686090e+01 3.476160e+01 2.824569e+01 2.768645e+01 4.000431e+01 1.895629e+01 1.983767e+01 1.961997e+01 3.239413e+01 2.544726e+01 2.036330e+00 1.208970e+00 2.651346e+00 1.453982e+00 1.419543e+00 1.842583e+00 2.932448e+00 1.436209e+00 1.584462e+00 1.243587e+00 2.401906e+00 1.472541e+00 6.178696e-01
<GCONST> 9.194524e+01
<STATE> 3
<MEAN> 25
 1.747092e+00 3.655454e-01 -1.209829e+00 -9.901797e-01 -8.714094e-01 -1.070294e+00 -9.298174e-01 -1.034627e-01 2.857043e-01 -2.477075e-01 -1.090109e+00 -3.109904e-01 -1.219917e-02 -1.664659e-03 -5.094763e-02 -4.650147e-02 -3.211131e-02 -4.615709e-03 3.578771e-02 4.162027e-02 2.620273e-02 3.381892e-02 3.151877e-02 5.146867e-02 -2.113514e-02
<VARIANCE> 25
 3.906294e+01 1.694697e+01 4.643814e+01 3.304495e+01 2.746159e+01 2.771572e+01 3.940876e+01 1.887423e+01 1.986216e+01 1.954532e+01 3.197748e+01 2.526319e+01 2.022378e+00 1.199389e+00 2.644058e+00 1.408829e+00 1.385286e+00 1.840276e+00 2.875672e+00 1.423586e+00 1.569482e+00 1.217736e+00 2.384085e+00 1.452544e+00 6.131432e-01
<GCONST> 9.162783e+01
<STATE> 4
<MEAN> 25
 1.720841e+00 3.717169e-01 -1.381083e+00 -1.110447e+00 -9.722343e-01 -1.121326e+00 -7.954413e-01 2.236130e-02 3.075697e-01 -2.153491e-01 -9.812229e-01 -7.747975e-02 -1.796984e-02 -2.516120e-03 -4.003283e-02 -4.312722e-02 -3.078325e-02 1.222700e-03 4.007155e-02 3.721985e-02 1.803860e-02 2.889174e-02 3.307233e-02 4.963853e-02 -2.149814e-02
<VARIANCE> 25
 3.953971e+01 1.644367e+01 4.567262e+01 3.085550e+01 2.626220e+01 2.842385e+01 3.862868e+01 1.874098e+01 1.984626e+01 1.948272e+01 3.156209e+01 2.499753e+01 1.988464e+00 1.176471e+00 2.573170e+00 1.357370e+00 1.336751e+00 1.857872e+00 2.781065e+00 1.397235e+00 1.549261e+00 1.185821e+00 2.344137e+00 1.434469e+00 6.177431e-01
<GCONST> 9.121014e+01
<TRANSP> 5
 0.000000e+00 1.000000e+00 0.000000e+00 0.000000e+00 0.000000e+00
 0.000000e+00 6.462486e-01 3.537514e-01 0.000000e+00 0.000000e+00
 0.000000e+00 0.000000e+00 6.462497e-01 3.537503e-01 0.000000e+00
 0.000000e+00 0.000000e+00 0.000000e+00 7.610759e-01 2.389240e-01
 0.000000e+00 0.000000e+00 0.000000e+00 0.000000e+00 0.000000e+00
<ENDHMM>
~h "ae"
<BEGINHMM>
<NUMSTATES> 5
<STATE> 2
<MEAN> 25
 -5.272447e-01 -1.171421e+00 3.546665e+00 1.462723e+00 8.124559e-01 5.861019e-01 -1.240252e+00 -1.797380e+00 -1.018918e+00 -1.299126e+00 -2.697700e-01 -2.370402e+00 4.486274e-02 -8.887152e-03 7.677291e-02 3.573561e-02 1.665093e-02 -2.331942e-02 -8.436982e-02 -5.581224e-02 -9.283682e-03 -6.239380e-02 -6.849583e-02 -1.000626e-01 6.927317e-02
<VARIANCE> 25
 4.829097e+01 2.367576e+01 6.297638e+01 5.488452e+01 3.490329e+01 3.065947e+01 5.064488e+01 2.336113e+01 2.205134e+01 2.208487e+01 4.607581e+01 3.289154e+01 2.720730e+00 1.398873e+00 2.770033e+00 2.558224e+00 2.392452e+00 2.139614e+00 3.968565e+00 1.651416e+00 1.672892e+00 1.508780e+00 2.895303e+00 1.625589e+00 5.069264e-01
<GCONST> 9.730298e+01
<STATE> 3
<MEAN> 25
 -3.848068e-01 -1.198192e+00 3.702040e+00 1.617860e+00 8.919544e-01 4.891324e-01 -1.500186e+00 -1.935311e+00 -1.022003e+00 -1.463044e+00 -4.708655e-01 -2.622841e+00 5.391144e-02 -2.559044e-03 4.797633e-02 3.746556e-02 2.192505e-02 -3.071545e-02 -8.539117e-02 -4.783878e-02 -4.577332e-03 -5.694959e-02 -7.068743e-02 -8.624826e-02 5.960091e-02
<VARIANCE> 25
 4.921938e+01 2.412437e+01 6.274870e+01 5.758522e+01 3.619205e+01 3.134080e+01 5.142989e+01 2.295528e+01 2.173768e+01 2.184750e+01 4.639852e+01 3.150069e+01 2.759285e+00 1.413681e+00 2.794941e+00 2.624329e+00 2.428546e+00 2.166675e+00 4.035714e+00 1.674525e+00 1.718778e+00 1.540361e+00 2.952089e+00 1.650250e+00 5.207081e-01
<GCONST> 9.760627e+01
<STATE> 4
<MEAN> 25
 -6.318504e-02 -1.276769e+00 3.903332e+00 2.051408e+00 1.122991e+00 2.349771e-01 -2.058106e+00 -2.177887e+00 -1.001509e+00 -1.748987e+00 -8.816947e-01 -3.122257e+00 6.547207e-02 7.977149e-03 -7.211362e-03 3.601200e-02 2.562357e-02 -4.299499e-02 -7.949171e-02 -2.844684e-02 5.705572e-03 -4.073973e-02 -6.663917e-02 -5.258750e-02 3.796522e-02
<VARIANCE> 25
 5.029921e+01 2.414752e+01 6.215368e+01 6.424947e+01 3.939692e+01 3.303342e+01 5.467327e+01 2.223515e+01 2.133424e+01 2.151210e+01 4.658628e+01 3.020231e+01 2.742263e+00 1.395279e+00 2.754613e+00 2.729046e+00 2.480698e+00 2.210713e+00 4.183180e+00 1.675066e+00 1.793849e+00 1.564491e+00 2.965344e+00 1.670602e+00 5.458179e-01
<GCONST> 9.802840e+01
<TRANSP> 5
 0.000000e+00 1.000000e+00 0.000000e+00 0.000000e+00 0.000000e+00
 0.000000e+00 6.517735e-01 3.482265e-01 0.000000e+00 0.000000e+00
 0.000000e+00 0.000000e+00 6.517738e-01 3.482262e-01 0.000000e+00
 0.000000e+00 0.000000e+00 0.000000e+00 7.686524e-01 2.313477e-01
 0.000000e+00 0.000000e+00 0.000000e+00 0.000000e+00 0.000000e+00
<ENDHMM>
~h "ay"
<BEGINHMM>
<NUMSTATES> 5
<STATE> 2
<MEAN> 25
 9.833645e-01 6.645840e-01 2.255871e+00 8.039857e-01 1.114425e-01 -1.149422e+00 -6.718565e-01 4.774036e-02 -6.206795e-01 -7.329745e-01 -8.053468e-01 -2.853941e+00 -1.936400e-02 8.018576e-03 -7.921562e-02 -4.938870e-02 -1.474191e-02 4.767840e-02 2.014828e-02 2.197303e-02 -1.654390e-02 2.685525e-02 4.272870e-02 1.180774e-01 -5.712944e-02
<VARIANCE> 25
 4.315630e+01 2.307162e+01 3.311639e+01 3.990462e+01 5.164311e+01 4.622307e+01 5.309122e+01 2.070046e+01 2.615940e+01 2.513208e+01 4.409964e+01 2.301628e+01 1.813120e+00 1.373516e+00 1.852444e+00 1.689472e+00 2.687711e+00 1.960451e+00 3.399279e+00 1.620939e+00 1.742723e+00 1.603424e+00 2.979040e+00 1.344863e+00 3.347017e-01
<GCONST> 9.497063e+01
<STATE> 3
<MEAN> 25
 8.777310e-01 6.579925e-01 2.048450e+00 6.346166e-01 4.378973e-02 -9.852534e-01 -5.772558e-01 1.200795e-01 -6.702465e-01 -6.454943e-01 -6.437105e-01 -2.487822e+00 -3.026671e-02 2.208688e-03 -7.092412e-02 -5.301803e-02 -1.569869e-02 6.147975e-02 2.945730e-02 1.982740e-02 -1.518509e-02 2.621422e-02 4.630383e-02 1.157750e-01 -5.688632e-02
<VARIANCE> 25
 4.162306e+01 2.220278e+01 3.277722e+01 3.747220e+01 4.944981e+01 4.566579e+01 5.160303e+01 2.067584e+01 2.571218e+01 2.504718e+01 4.283283e+01 2.320261e+01 1.776453e+00 1.330129e+00 1.796541e+00 1.659215e+00 2.622730e+00 1.908207e+00 3.323444e+00 1.633129e+00 1.694694e+00 1.611149e+00 2.976707e+00 1.319683e+00 3.360274e-01
<GCONST> 9.448937e+01
<STATE> 4
<MEAN> 25
 6.601903e-01 5.901947e-01 1.816857e+00 3.460145e-01 -1.265053e-01 -7.654501e-01 -3.514192e-01 2.579890e-01 -7.237290e-01 -5.433812e-01 -3.720309e-01 -1.963737e+00 -5.103984e-02 -1.083625e-02 -5.510307e-02 -5.291895e-02 -1.217232e-02 7.667551e-02 4.377843e-02 1.552198e-02 -1.618584e-02 2.951414e-02 5.530614e-02 1.106356e-01 -5.653659e-02
<VARIANCE> 25
 4.000893e+01 2.112594e+01 3.293001e+01 3.399989e+01 4.604218e+01 4.460533e+01 4.984616e+01 2.044237e+01 2.496038e+01 2.492130e+01 4.140557e+01 2.347300e+01 1.725935e+00 1.269178e+00 1.740842e+00 1.624831e+00 2.507193e+00 1.844354e+00 3.169865e+00 1.614620e+00 1.621355e+00 1.620229e+00 2.973430e+00 1.299829e+00 3.382977e-01
<GCONST> 9.379546e+01
<TRANSP> 5
 0.000000e+00 1.000000e+00 0.000000e+00 0.000000e+00 0.000000e+00
 0.000000e+00 6.640640e-01 3.359359e-01 0.000000e+00 0.000000e+00
 0.000000e+00 0.000000e+00 6.640641e-01 3.359359e-01 0.000000e+00
 0.000000e+00 0.000000e+00 0.000000e+00 7.758487e-01 2.241512e-01
 0.000000e+00 0.000000e+00 0.000000e+00 0.000000e+00 0.000000e+00
<ENDHMM>
~h "ch"
<BEGINHMM>
<NUMSTATES> 5
<STATE> 2
<MEAN> 25
 -1.417384e-01 -7.758830e-01 -6.911028e-02 8.185840e-02 -1.134393e+00 -6.155031e-01 4.612547e-01 1.929334e-01 1.728777e-01 -7.465671e-02 -2.426274e-01 3.812170e-01 -1.070929e-02 2.686324e-02 -4.682837e-02 -1.472093e-02 9.357156e-03 4.272393e-03 3.235811e-02 1.596795e-02 6.158766e-03 2.105939e-02 9.344215e-03 3.870237e-02 -3.563384e-02
<VARIANCE> 25
 3.489370e+01 3.056074e+01 3.313585e+01 2.489644e+01 1.970423e+01 2.768233e+01 3.165991e+01 2.070257e+01 2.156157e+01 2.051608e+01 3.680340e+01 2.184618e+01 1.988028e+00 1.749125e+00 2.158131e+00 1.214267e+00 1.640655e+00 2.528299e+00 2.192893e+00 1.747406e+00 1.970603e+00 1.419948e+00 2.537698e+00 1.514054e+00 6.144704e-01
<GCONST> 9.206660e+01
<STATE> 3
<MEAN> 25
 -1.802583e-01 -6.829137e-01 -2.176804e-01 1.445716e-02 -1.102141e+00 -5.857368e-01 5.637010e-01 2.340037e-01 1.829526e-01 -2.904379e-03 -2.032421e-01 5.066705e-01 -1.172052e-02 2.746134e-02 -4.161134e-02 -1.976840e-02 6.787128e-03 6.794872e-03 2.985009e-02 1.496051e-02 9.390956e-03 2.114392e-02 6.908350e-03 3.378985e-02 -3.382793e-02
<VARIANCE> 25
 3.423447e+01 3.020885e+01 3.077360e+01 2.391414e+01 1.951789e+01 2.696995e+01 3.098270e+01 2.039671e+01 2.114071e+01 2.036818e+01 3.608042e+01 2.174321e+01 1.917487e+00 1.726600e+00 2.070264e+00 1.179674e+00 1.596316e+00 2.430730e+00 2.106655e+00 1.708588e+00 1.932188e+00 1.401399e+00 2.480729e+00 1.469971e+00 5.929277e-01
<GCONST> 9.142847e+01
<STATE> 4
<MEAN> 25
 -2.208297e-01 -5.052180e-01 -4.308671e-01 -1.372084e-01 -1.048809e+00 -4.853453e-01 7.040243e-01 3.132285e-01 2.461867e-01 1.298043e-01 -1.627184e-01 6.534383e-01 -1.278982e-02 3.058374e-02 -3.662725e-02 -2.310811e-02 9.041968e-03 1.257570e-02 2.672370e-02 1.301408e-02 1.138536e-02 2.409450e-02 6.977533e-03 2.788990e-02 -3.343517e-02
<VARIANCE> 25
 3.286231e+01 2.948594e+01 2.770544e+01 2.214445e+01 1.911333e+01 2.598805e+01 2.991156e+01 1.987366e+01 2.038367e+01 1.995549e+01 3.444918e+01 2.153170e+01 1.798654e+00 1.649426e+00 1.919205e+00 1.122002e+00 1.508936e+00 2.265996e+00 1.985099e+00 1.645699e+00 1.847393e+00 1.353824e+00 2.370372e+00 1.393829e+00 5.552108e-01
<GCONST> 9.024644e+01
<TRANSP> 5
 0.000000e+00 1.000000e+00 0.000000e+00 0.000000e+00 0.000000e+00
 0.000000e+00 6.733779e-01 3.266220e-01 0.000000e+00 0.000000e+00
 0.000000e+00 0.000000e+00 6.733780e-01 3.266221e-01 0.000000e+00
 0.000000e+00 0.000000e+00 0.000000e+00 7.880402e-01 2.119597e-01
 0.000000e+00 0.000000e+00 0.000000e+00 0.000000e+00 0.000000e+00
<ENDHMM>
~h "ee"
<BEGINHMM>
<NUMSTATES> 5
<STATE> 2
<MEAN> 25
 5.370606e-01 3.500125e-01 -1.052943e+00 2.289967e-01 9.898955e-01 3.115982e-01 -2.513014e-01 1.999366e-01 3.379222e-01 1.161885e-01 -1.858618e-01 3.606115e-01 -5.329188e-02 -4.325191e-02 -2.238042e-02 -1.247812e-02 -1.363772e-02 1.436363e-02 1.917926e-02 3.086233e-03 2.181161e-02 3.214192e-02 2.693994e-02 6.105477e-02 -2.754933e-02
<VARIANCE> 25
 3.390864e+01 1.860654e+01 2.530583e+01 2.772289e+01 2.939327e+01 1.921169e+01 4.819550e+01 2.091495e+01 1.790446e+01 2.249297e+01 3.010855e+01 2.399874e+01 1.171972e+00 1.077904e+00 1.340346e+00 1.039514e+00 1.245457e+00 1.461713e+00 2.151630e+00 1.404144e+00 1.472057e+00 1.177629e+00 1.703803e+00 1.118260e+00 4.276423e-01
<GCONST> 8.739597e+01
<STATE> 3
<MEAN> 25
 3.654487e-01 2.167240e-01 -1.122759e+00 1.822491e-01 9.316823e-01 3.509838e-01 -1.828294e-01 2.185451e-01 4.094324e-01 2.200155e-01 -9.412825e-02 5.621215e-01 -4.258921e-02 -3.907988e-02 -2.535881e-02 -7.095334e-03 -7.243604e-03 1.173078e-02 1.244631e-02 2.929820e-04 2.049848e-02 3.028836e-02 2.095312e-02 5.315772e-02 -2.262239e-02
<VARIANCE> 25
 3.356087e+01 1.853144e+01 2.515417e+01 2.780878e+01 2.902004e+01 1.887079e+01 4.821288e+01 2.109390e+01 1.779348e+01 2.259847e+01 3.028486e+01 2.395402e+01 1.167521e+00 1.077007e+00 1.332017e+00 1.010074e+00 1.217551e+00 1.447075e+00 2.110215e+00 1.415630e+00 1.458534e+00 1.165714e+00 1.685382e+00 1.103622e+00 4.254093e-01
<GCONST> 8.722703e+01
<STATE> 4
<MEAN> 25
 9.076436e-02 8.553131e-02 -1.283951e+00 5.655374e-02 8.160154e-01 4.280158e-01 1.109161e-02 3.159527e-01 5.584408e-01 4.491442e-01 9.220752e-02 9.259818e-01 -3.626284e-02 -3.266388e-02 -2.708048e-02 -8.861357e-03 -7.995430e-03 9.460859e-03 1.467159e-02 4.367714e-03 1.863702e-02 2.990557e-02 2.146106e-02 4.857382e-02 -2.045817e-02
<VARIANCE> 25
 3.245849e+01 1.785479e+01 2.399801e+01 2.708013e+01 2.781902e+01 1.816692e+01 4.713567e+01 2.075898e+01 1.717838e+01 2.221894e+01 2.971113e+01 2.372657e+01 1.114464e+00 1.045595e+00 1.282869e+00 9.429066e-01 1.148133e+00 1.398417e+00 1.999044e+00 1.394402e+00 1.414361e+00 1.123270e+00 1.613499e+00 1.064446e+00 4.096443e-01
<GCONST> 8.635319e+01
<TRANSP> 5
 0.000000e+00 1.000000e+00 0.000000e+00 0.000000e+00 0.000000e+00
 0.000000e+00 6.716493e-01 3.283507e-01 0.000000e+00 0.000000e+00
 0.000000e+00 0.000000e+00 6.716494e-01 3.283506e-01 0.000000e+00
 0.000000e+00 0.000000e+00 0.000000e+00 7.858244e-01 2.141756e-01
 0.000000e+00 0.000000e+00 0.000000e+00 0.000000e+00 0.000000e+00
<ENDHMM>
~h "ii"
<BEGINHMM>
<NUMSTATES> 5
<STATE> 2
<MEAN> 25
 -1.679414e+00 1.142301e-01 -6.430026e-01 -6.780526e-01 9.189525e-02 1.315729e+00 1.755330e+00 5.565915e-01 1.226574e-01 1.550747e+00 1.552859e+00 1.573053e+00 5.473977e-02 -2.158996e-02 1.606531e-01 5.252001e-02 2.468511e-02 -7.820480e-03 -1.012855e-01 -8.389599e-02 -4.364425e-02 -9.255784e-02 -6.445317e-02 -1.592739e-01 1.148368e-01
<VARIANCE> 25
 2.820835e+01 1.454391e+01 3.631831e+01 2.065351e+01 1.623976e+01 1.881305e+01 2.822438e+01 1.985358e+01 1.886682e+01 1.821161e+01 2.719620e+01 3.556005e+01 1.451200e+00 9.625151e-01 1.661414e+00 1.312360e+00 1.407088e+00 1.548047e+00 2.050920e+00 1.088283e+00 1.229459e+00 1.025112e+00 1.749123e+00 1.401646e+00 3.543378e-01
<GCONST> 8.613400e+01
<STATE> 3
<MEAN> 25
 -1.509532e+00 -1.056879e-02 -3.084537e-02 -4.794209e-01 1.750372e-01 1.272923e+00 1.368194e+00 2.513809e-01 -2.116535e-02 1.204713e+00 1.325719e+00 9.835841e-01 5.232914e-02 -3.481638e-02 1.854733e-01 6.144775e-02 2.596336e-02 -1.421476e-02 -1.162348e-01 -9.053102e-02 -4.086258e-02 -1.054760e-01 -7.142103e-02 -1.771497e-01 1.310232e-01
<VARIANCE> 25
 3.153670e+01 1.632050e+01 4.296872e+01 2.512770e+01 1.849809e+01 2.122690e+01 3.202332e+01 2.133279e+01 2.026484e+01 1.965062e+01 3.023560e+01 3.884188e+01 1.680493e+00 1.054415e+00 1.859703e+00 1.527599e+00 1.585142e+00 1.725824e+00 2.327338e+00 1.149763e+00 1.307406e+00 1.089894e+00 1.930517e+00 1.477221e+00 3.842192e-01
<GCONST> 8.878249e+01
<STATE> 4
<MEAN> 25
 -1.171154e+00 -3.561002e-01 1.363794e+00 3.101687e-02 3.436795e-01 1.137106e+00 5.087520e-01 -3.987311e-01 -3.379296e-01 3.941981e-01 7.884632e-01 -3.940994e-01 4.698177e-02 -5.600541e-02 2.129040e-01 8.817715e-02 3.603953e-02 -2.934472e-02 -1.409040e-01 -9.887218e-02 -3.522883e-02 -1.212641e-01 -8.024499e-02 -1.983830e-01 1.476687e-01
<VARIANCE> 25
 3.798437e+01 1.968045e+01 5.464064e+01 3.672659e+01 2.410391e+01 2.643357e+01 4.002427e+01 2.327192e+01 2.264225e+01 2.201131e+01 3.614720e+01 4.291159e+01 2.099052e+00 1.199851e+00 2.232414e+00 1.990925e+00 1.958139e+00 2.063443e+00 2.903426e+00 1.252727e+00 1.467113e+00 1.227158e+00 2.267748e+00 1.588978e+00 4.320386e-01
<GCONST> 9.315343e+01
<TRANSP> 5
 0.000000e+00 1.000000e+00 0.000000e+00 0.000000e+00 0.000000e+00
 0.000000e+00 6.744030e-01 3.255971e-01 0.000000e+00 0.000000e+00
 0.000000e+00 0.000000e+00 6.744027e-01 3.255973e-01 0.000000e+00
 0.000000e+00 0.000000e+00 0.000000e+00 7.933372e-01 2.066628e-01
 0.000000e+00 0.000000e+00 0.000000e+00 0.000000e+00 0.000000e+00
<ENDHMM>
~h "ll"
<BEGINHMM>
<NUMSTATES> 5
<STATE> 2
<MEAN> 25
 -2.031864e+00 -9.906920e-01 2.317455e+00 3.798387e-01 6.447786e-01 1.488549e+00 5.728835e-01 -5.191436e-01 -3.011578e-01 3.668425e-01 1.224293e+00 -5.021986e-01 5.869892e-02 -7.130727e-02 2.483264e-01 1.086690e-01 4.955317e-02 -3.400432e-02 -1.790264e-01 -1.332183e-01 -4.392721e-02 -1.531774e-01 -1.070492e-01 -2.353524e-01 1.802029e-01
<VARIANCE> 25
 3.806495e+01 2.003597e+01 6.358958e+01 4.389124e+01 2.385680e+01 2.526723e+01 4.327859e+01 2.489202e+01 2.086057e+01 2.367056e+01 3.932099e+01 4.780101e+01 2.322606e+00 1.207080e+00 2.354922e+00 2.222670e+00 1.959652e+00 2.112230e+00 3.160261e+00 1.251843e+00 1.386264e+00 1.229812e+00 2.363194e+00 1.554319e+00 3.908905e-01
<GCONST> 9.401968e+01
<STATE> 3
<MEAN> 25
 -1.858972e+00 -1.250281e+00 3.102505e+00 8.048732e-01 8.391308e-01 1.343693e+00 -3.054166e-02 -9.456127e-01 -4.243570e-01 -1.214970e-01 8.797987e-01 -1.249154e+00 5.743141e-02 -7.364181e-02 2.492547e-01 1.235958e-01 5.790246e-02 -4.021147e-02 -1.856505e-01 -1.350984e-01 -4.153978e-02 -1.544259e-01 -1.105426e-01 -2.379598e-01 1.788821e-01
<VARIANCE> 25
 4.204808e+01 2.116954e+01 6.673940e+01 5.211247e+01 2.755305e+01 2.805332e+01 4.815195e+01 2.569076e+01 2.173399e+01 2.460675e+01 4.315639e+01 4.787250e+01 2.553575e+00 1.279123e+00 2.515139e+00 2.511579e+00 2.167799e+00 2.255473e+00 3.507792e+00 1.329531e+00 1.475677e+00 1.323615e+00 2.565248e+00 1.626875e+00 4.203721e-01
<GCONST> 9.596387e+01
<STATE> 4
<MEAN> 25
 -1.420193e+00 -1.694518e+00 4.487515e+00 1.791625e+00 1.263828e+00 9.878528e-01 -1.224419e+00 -1.736048e+00 -6.647592e-01 -1.054195e+00 1.064852e-01 -2.747133e+00 5.743468e-02 -6.764429e-02 2.073912e-01 1.424840e-01 7.090563e-02 -5.241568e-02 -1.824681e-01 -1.212175e-01 -2.935192e-02 -1.383196e-01 -1.078294e-01 -2.113169e-01 1.526517e-01
<VARIANCE> 25
 4.821259e+01 2.248274e+01 6.788550e+01 6.789052e+01 3.511883e+01 3.317563e+01 5.661394e+01 2.541670e+01 2.244027e+01 2.503568e+01 4.912553e+01 4.462458e+01 2.829087e+00 1.352180e+00 2.715612e+00 2.973564e+00 2.510774e+00 2.447393e+00 4.108249e+00 1.437015e+00 1.633597e+00 1.472654e+00 2.832559e+00 1.696808e+00 4.630294e-01
<GCONST> 9.842650e+01
<TRANSP> 5
 0.000000e+00 1.000000e+00 0.000000e+00 0.000000e+00 0.000000e+00
 0.000000e+00 6.777532e-01 3.222468e-01 0.000000e+00 0.000000e+00
 0.000000e+00 0.000000e+00 6.777533e-01 3.222466e-01 0.000000e+00
 0.000000e+00 0.000000e+00 0.000000e+00 7.973732e-01 2.026268e-01
 0.000000e+00 0.000000e+00 0.000000e+00 0.000000e+00 0.000000e+00
<ENDHMM>
~h "mm"
<BEGINHMM>
<NUMSTATES> 5
<STATE> 2
<MEAN> 25
 2.465662e-01 4.305682e-02 -1.512179e+00 2.381102e-01 1.123489e+00 4.882643e-01 -4.097210e-02 1.519560e-01 9.627550e-02 2.157742e-01 8.798553e-02 8.742860e-01 -7.956712e-03 -2.244856e-02 -2.667140e-02 1.275539e-02 9.983129e-03 -3.928135e-03 -1.086138e-02 5.642354e-03 9.968911e-03 4.481092e-03 -3.890391e-03 2.367056e-02 -6.313887e-03
<VARIANCE> 25
 3.350311e+01 1.589910e+01 2.544603e+01 3.050248e+01 3.086020e+01 1.688291e+01 5.217772e+01 2.292686e+01 1.766447e+01 2.119993e+01 3.237225e+01 2.593616e+01 1.179233e+00 1.036231e+00 1.318168e+00 1.006608e+00 1.214087e+00 1.283252e+00 2.213538e+00 1.383717e+00 1.315482e+00 1.033829e+00 1.703767e+00 1.098071e+00 4.378868e-01
<GCONST> 8.703454e+01
<STATE> 3
<MEAN> 25
 2.099589e-01 -2.404863e-02 -1.583695e+00 2.554355e-01 1.125509e+00 4.721095e-01 -5.011122e-02 1.897681e-01 1.275768e-01 2.305894e-01 9.259953e-02 9.561326e-01 -3.372268e-03 -1.834301e-02 -2.335703e-02 5.647093e-03 -2.159161e-04 -6.692767e-03 -3.421426e-03 1.741394e-02 1.172956e-02 2.502739e-03 -2.309643e-03 1.767783e-02 -2.408210e-03
<VARIANCE> 25
 3.327662e+01 1.562993e+01 2.525917e+01 3.077831e+01 3.088637e+01 1.691140e+01 5.255774e+01 2.285555e+01 1.756215e+01 2.115896e+01 3.209359e+01 2.621333e+01 1.162363e+00 1.033632e+00 1.323577e+00 9.933690e-01 1.206747e+00 1.261882e+00 2.191547e+00 1.367979e+00 1.317671e+00 1.029424e+00 1.680238e+00 1.098891e+00 4.337766e-01
<GCONST> 8.691767e+01
<STATE> 4
<MEAN> 25
 4.493463e-02 -6.565051e-02 -1.719388e+00 1.277893e-01 9.710293e-01 4.762706e-01 1.588487e-01 3.859021e-01 2.225484e-01 3.648383e-01 2.362029e-01 1.211069e+00 -4.819590e-03 -1.204793e-02 -1.634994e-02 -1.059106e-02 -1.961529e-02 -9.503400e-03 1.191797e-02 3.230888e-02 1.398425e-02 4.841279e-03 6.935264e-03 1.429087e-02 -2.210615e-03
<VARIANCE> 25
 3.224403e+01 1.473637e+01 2.436980e+01 2.999285e+01 2.990446e+01 1.659513e+01 5.111566e+01 2.212780e+01 1.695733e+01 2.073689e+01 3.098107e+01 2.602867e+01 1.103565e+00 9.944772e-01 1.294114e+00 9.487786e-01 1.151826e+00 1.208660e+00 2.086409e+00 1.312486e+00 1.297434e+00 1.013493e+00 1.618265e+00 1.075023e+00 4.162287e-01
<GCONST> 8.608557e+01
<TRANSP> 5
 0.000000e+00 1.000000e+00 0.000000e+00 0.000000e+00 0.000000e+00
 0.000000e+00 6.660804e-01 3.339196e-01 0.000000e+00 0.000000e+00
 0.000000e+00 0.000000e+00 6.660809e-01 3.339192e-01 0.000000e+00
 0.000000e+00 0.000000e+00 0.000000e+00 7.791497e-01 2.208504e-01
 0.000000e+00 0.000000e+00 0.000000e+00 0.000000e+00 0.000000e+00
<ENDHMM>
~h "nn"
<BEGINHMM>
<NUMSTATES> 5
<STATE> 2
<MEAN> 25
 -1.427386e+00 -1.604714e-01 -1.329403e+00 -4.937178e-01 8.239900e-02 8.025789e-01 1.339663e+00 1.020739e+00 6.384103e-01 1.265323e+00 1.821607e+00 3.013987e+00 2.400551e-02 2.474865e-02 -5.379524e-02 -3.273848e-02 -1.116965e-02 1.051091e-02 2.484693e-02 5.960247e-03 2.350295e-02 4.116484e-02 1.640393e-02 3.867580e-02 -3.480821e-03
<VARIANCE> 25
 2.784737e+01 2.048581e+01 2.910827e+01 1.178463e+01 1.553179e+01 2.447539e+01 2.606209e+01 1.274871e+01 1.945309e+01 2.770866e+01 4.165183e+01 3.361055e+01 9.905638e-01 9.936507e-01 1.229657e+00 9.069483e-01 1.392333e+00 1.666583e+00 1.855885e+00 1.282122e+00 1.546543e+00 1.161342e+00 2.152495e+00 1.383276e+00 2.889233e-01
<GCONST> 8.564856e+01
<STATE> 3
<MEAN> 25
 -1.361598e+00 -8.693170e-02 -1.471287e+00 -5.813265e-01 5.403807e-02 8.289204e-01 1.404372e+00 1.043417e+00 7.069247e-01 1.372064e+00 1.854753e+00 3.108768e+00 1.515522e-02 2.355686e-02 -3.464474e-02 -2.923643e-02 -1.258534e-02 2.565485e-03 2.973632e-02 7.480645e-03 2.117512e-02 2.259460e-02 1.288988e-02 1.793878e-02 4.220714e-04
<VARIANCE> 25
 2.786054e+01 2.006043e+01 2.882765e+01 1.166325e+01 1.507058e+01 2.521887e+01 2.582557e+01 1.239279e+01 1.926425e+01 2.805534e+01 4.160305e+01 3.405727e+01 9.764537e-01 9.747488e-01 1.227708e+00 8.828838e-01 1.348671e+00 1.723633e+00 1.841207e+00 1.264585e+00 1.539636e+00 1.164490e+00 2.095469e+00 1.416353e+00 2.946148e-01
<GCONST> 8.551764e+01
<STATE> 4
<MEAN> 25
 -1.228663e+00 3.086516e-02 -1.645378e+00 -7.068003e-01 2.661924e-02 8.274278e-01 1.444231e+00 1.072161e+00 7.875444e-01 1.464698e+00 1.827503e+00 3.145833e+00 3.262838e-03 1.976176e-02 -6.914971e-03 -2.544115e-02 -1.596369e-02 -6.009661e-03 3.109939e-02 8.716926e-03 1.673518e-02 1.416354e-03 8.237961e-03 -2.061296e-03 4.995002e-03
<VARIANCE> 25
 2.800933e+01 1.930198e+01 2.791440e+01 1.148870e+01 1.468147e+01 2.672506e+01 2.588348e+01 1.188371e+01 1.870962e+01 2.749670e+01 4.072189e+01 3.401080e+01 9.519865e-01 9.416094e-01 1.235656e+00 8.568591e-01 1.308776e+00 1.834661e+00 1.840123e+00 1.237300e+00 1.527530e+00 1.158432e+00 2.010517e+00 1.462908e+00 3.077067e-01
<GCONST> 8.530508e+01
<TRANSP> 5
 0.000000e+00 1.000000e+00 0.000000e+00 0.000000e+00 0.000000e+00
 0.000000e+00 6.095044e-01 3.904956e-01 0.000000e+00 0.000000e+00
 0.000000e+00 0.000000e+00 6.095048e-01 3.904951e-01 0.000000e+00
 0.000000e+00 0.000000e+00 0.000000e+00 7.142548e-01 2.857453e-01
 0.000000e+00 0.000000e+00 0.000000e+00 0.000000e+00 0.000000e+00
<ENDHMM>
~h "oo"
<BEGINHMM>
<NUMSTATES> 5
<STATE> 2
<MEAN> 25
 3.897657e-01 -4.929753e-02 9.910559e-01 8.425298e-01 -2.382608e-01 -8.328137e-01 -4.210679e-01 -9.822554e-02 -4.188639e-02 -7.887929e-01 -7.863108e-01 -1.226274e+00 -3.761703e-03 3.049863e-02 -4.353481e-02 -3.127639e-02 -1.637992e-02 -3.711420e-03 3.364932e-02 2.460624e-02 4.067434e-03 2.155974e-02 1.726556e-02 5.216264e-02 -3.430815e-02
<VARIANCE> 25
 3.813554e+01 3.096540e+01 3.780444e+01 3.391769e+01 3.504807e+01 3.271601e+01 4.205932e+01 1.940078e+01 2.355055e+01 2.224842e+01 4.549212e+01 2.785928e+01 1.890392e+00 1.413694e+00 1.877834e+00 1.494835e+00 2.111126e+00 2.386571e+00 2.935804e+00 1.548289e+00 1.944146e+00 1.385432e+00 2.799191e+00 1.572373e+00 4.917567e-01
<GCONST> 9.424173e+01
<STATE> 3
<MEAN> 25
 3.888606e-01 5.395803e-02 8.522417e-01 7.365117e-01 -2.887350e-01 -8.439403e-01 -3.247516e-01 -2.580918e-02 -3.168523e-02 -7.190765e-01 -7.379868e-01 -1.073792e+00 2.555859e-03 3.378900e-02 -4.755164e-02 -3.481266e-02 -1.701584e-02 -4.528692e-03 3.042245e-02 2.398045e-02 4.899674e-03 2.176369e-02 1.164237e-02 5.262064e-02 -3.179091e-02
<VARIANCE> 25
 3.770992e+01 3.053683e+01 3.628427e+01 3.217016e+01 3.420845e+01 3.258684e+01 4.117341e+01 1.893339e+01 2.318203e+01 2.245942e+01 4.504540e+01 2.823245e+01 1.839001e+00 1.401034e+00 1.836394e+00 1.439822e+00 2.079380e+00 2.364586e+00 2.860657e+00 1.532344e+00 1.935582e+00 1.383971e+00 2.746178e+00 1.559580e+00 4.871364e-01
<GCONST> 9.384660e+01
<STATE> 4
<MEAN> 25
 4.476410e-01 1.605650e-01 6.877952e-01 5.801948e-01 -3.886691e-01 -8.791514e-01 -2.426823e-01 6.277363e-02 6.450357e-03 -6.471276e-01 -7.406424e-01 -9.384227e-01 7.887600e-03 3.795231e-02 -5.295889e-02 -4.093534e-02 -1.805843e-02 -2.867881e-03 2.809354e-02 2.261258e-02 4.967493e-03 2.376079e-02 8.338636e-03 5.392524e-02 -3.045093e-02
<VARIANCE> 25
 3.730756e+01 3.026892e+01 3.448383e+01 2.995318e+01 3.314400e+01 3.309949e+01 4.020868e+01 1.849893e+01 2.282325e+01 2.269668e+01 4.424559e+01 2.833000e+01 1.783046e+00 1.400568e+00 1.807452e+00 1.372800e+00 2.032775e+00 2.365001e+00 2.773311e+00 1.530753e+00 1.930183e+00 1.388071e+00 2.681883e+00 1.538725e+00 4.849145e-01
<GCONST> 9.343137e+01
<TRANSP> 5
 0.000000e+00 1.000000e+00 0.000000e+00 0.000000e+00 0.000000e+00
 0.000000e+00 6.437541e-01 3.562459e-01 0.000000e+00 0.000000e+00
 0.000000e+00 0.000000e+00 6.437541e-01 3.562458e-01 0.000000e+00
 0.000000e+00 0.000000e+00 0.000000e+00 7.552964e-01 2.447036e-01
 0.000000e+00 0.000000e+00 0.000000e+00 0.000000e+00 0.000000e+00
<ENDHMM>
~h "rr"
<BEGINHMM>
<NUMSTATES> 5
<STATE> 2
<MEAN> 25
 1.902344e+00 3.378699e-01 -8.508902e-01 1.733765e-01 6.267809e-01 -5.175285e-01 -1.241703e+00 -7.339708e-01 -3.254566e-01 -7.467835e-01 -8.998276e-01 -5.627989e-01 -9.409400e-02 -2.437648e-02 1.664408e-02 -6.238896e-02 -5.128031e-02 5.726574e-02 9.999128e-02 2.477212e-02 -1.430775e-02 4.030694e-02 7.779945e-02 5.838074e-02 -4.568065e-02
<VARIANCE> 25
 3.970715e+01 1.864789e+01 4.030093e+01 3.237133e+01 3.466740e+01 2.491890e+01 4.892712e+01 2.340610e+01 2.270735e+01 1.858100e+01 3.293460e+01 2.312348e+01 1.612486e+00 1.259857e+00 1.972031e+00 1.427587e+00 1.524736e+00 1.638979e+00 2.855883e+00 1.493491e+00 1.527747e+00 1.189516e+00 2.059659e+00 1.208164e+00 5.851960e-01
<GCONST> 9.129618e+01
<STATE> 3
<MEAN> 25
 1.589472e+00 2.641937e-01 -7.927047e-01 -1.631707e-02 4.620566e-01 -3.337397e-01 -9.165800e-01 -6.471100e-01 -3.616184e-01 -6.066220e-01 -6.504442e-01 -3.746323e-01 -8.934027e-02 -2.372375e-02 1.249699e-02 -4.791793e-02 -4.363457e-02 5.175130e-02 8.730328e-02 2.352786e-02 -9.673915e-03 3.822940e-02 6.680516e-02 5.542972e-02 -4.892239e-02
<VARIANCE> 25
 3.998340e+01 1.834692e+01 4.072195e+01 3.117305e+01 3.329646e+01 2.426550e+01 4.782408e+01 2.344572e+01 2.241684e+01 1.889974e+01 3.332685e+01 2.308928e+01 1.611466e+00 1.231046e+00 1.970240e+00 1.401822e+00 1.506973e+00 1.589443e+00 2.772913e+00 1.487258e+00 1.494502e+00 1.170706e+00 2.058021e+00 1.209048e+00 5.736240e-01
<GCONST> 9.100905e+01
<STATE> 4
<MEAN> 25
 1.226567e+00 1.966754e-01 -7.390832e-01 -2.103006e-01 3.037660e-01 -9.817941e-02 -5.295180e-01 -5.647775e-01 -3.995622e-01 -3.915783e-01 -3.725218e-01 -1.787251e-01 -8.496012e-02 -2.057213e-02 3.245340e-03 -3.393713e-02 -3.859250e-02 4.490020e-02 7.648086e-02 2.721149e-02 -1.576527e-04 3.873270e-02 5.494333e-02 5.835432e-02 -5.708395e-02
<VARIANCE> 25
 3.983037e+01 1.776485e+01 4.047393e+01 2.986819e+01 3.167266e+01 2.312994e+01 4.699128e+01 2.339015e+01 2.179331e+01 1.906603e+01 3.332261e+01 2.310668e+01 1.582281e+00 1.186118e+00 1.944908e+00 1.350751e+00 1.466571e+00 1.520867e+00 2.665357e+00 1.464844e+00 1.437496e+00 1.127626e+00 2.010445e+00 1.200870e+00 5.523179e-01
<GCONST> 9.041147e+01
<TRANSP> 5
 0.000000e+00 1.000000e+00 0.000000e+00 0.000000e+00 0.000000e+00
 0.000000e+00 6.665088e-01 3.334911e-01 0.000000e+00 0.000000e+00
 0.000000e+00 0.000000e+00 6.665091e-01 3.334909e-01 0.000000e+00
 0.000000e+00 0.000000e+00 0.000000e+00 7.795423e-01 2.204577e-01
 0.000000e+00 0.000000e+00 0.000000e+00 0.000000e+00 0.000000e+00
<ENDHMM>
~h "ss"
<BEGINHMM>
<NUMSTATES> 5
<STATE> 2
<MEAN> 25
 -2.071342e+00 5.071113e-01 -1.759159e+00 -6.369202e-01 1.570572e-01 1.109495e+00 2.504460e+00 1.501167e+00 5.681615e-01 2.038015e+00 1.800025e+00 2.717003e+00 1.575862e-02 -2.096809e-03 4.929368e-02 2.229930e-02 2.525034e-02 2.254181e-02 -9.840974e-03 -1.871075e-02 -2.885829e-02 -2.231258e-02 -5.482446e-03 -6.078276e-02 2.942581e-02
<VARIANCE> 25
 1.844685e+01 1.179938e+01 1.645448e+01 9.905591e+00 1.321036e+01 1.490570e+01 2.008518e+01 1.187979e+01 1.324562e+01 1.667653e+01 2.471975e+01 2.497555e+01 6.772492e-01 6.171471e-01 8.474163e-01 7.037821e-01 9.411132e-01 1.074657e+00 1.397777e+00 9.254188e-01 1.064393e+00 8.940648e-01 1.337827e+00 1.174406e+00 1.995786e-01
<GCONST> 7.667445e+01
<STATE> 3
<MEAN> 25
 -1.990954e+00 4.838380e-01 -1.516063e+00 -5.497817e-01 2.381367e-01 1.178473e+00 2.414539e+00 1.382070e+00 4.511159e-01 1.913144e+00 1.745397e+00 2.444522e+00 1.554027e-02 -1.244226e-02 7.264737e-02 2.305988e-02 2.243414e-02 2.503907e-02 -2.195574e-02 -3.307282e-02 -3.237674e-02 -3.184891e-02 -4.655167e-03 -7.212997e-02 4.396948e-02
<VARIANCE> 25
 1.978435e+01 1.282423e+01 2.009328e+01 1.085248e+01 1.364391e+01 1.540480e+01 2.112135e+01 1.309521e+01 1.413392e+01 1.726578e+01 2.576268e+01 2.690431e+01 8.056235e-01 6.957125e-01 9.909617e-01 7.789523e-01 9.980911e-01 1.162145e+00 1.525013e+00 9.590719e-01 1.092607e+00 9.163002e-01 1.422504e+00 1.211750e+00 2.204662e-01
<GCONST> 7.860131e+01
<STATE> 4
<MEAN> 25
 -1.806397e+00 3.710937e-01 -7.441762e-01 -4.502890e-01 2.632621e-01 1.305523e+00 2.119660e+00 1.004629e+00 1.695783e-01 1.517673e+00 1.527843e+00 1.679952e+00 1.846400e-02 -3.641737e-02 1.280237e-01 2.958926e-02 1.721410e-02 2.209454e-02 -5.356438e-02 -6.309097e-02 -4.047662e-02 -6.019549e-02 -1.681240e-02 -1.125107e-01 8.258833e-02
<VARIANCE> 25
 2.354187e+01 1.547234e+01 3.048888e+01 1.461574e+01 1.510719e+01 1.737673e+01 2.439917e+01 1.591489e+01 1.616382e+01 1.851147e+01 2.827825e+01 3.190267e+01 1.139972e+00 8.584422e-01 1.362910e+00 1.005077e+00 1.171251e+00 1.399954e+00 1.847399e+00 1.027601e+00 1.167874e+00 9.631454e-01 1.628013e+00 1.308999e+00 2.680470e-01
<GCONST> 8.296853e+01
<TRANSP> 5
 0.000000e+00 1.000000e+00 0.000000e+00 0.000000e+00 0.000000e+00
 0.000000e+00 6.602636e-01 3.397364e-01 0.000000e+00 0.000000e+00
 0.000000e+00 0.000000e+00 6.602634e-01 3.397366e-01 0.000000e+00
 0.000000e+00 0.000000e+00 0.000000e+00 7.783901e-01 2.216099e-01
 0.000000e+00 0.000000e+00 0.000000e+00 0.000000e+00 0.000000e+00
<ENDHMM>
~h "tt"
<BEGINHMM>
<NUMSTATES> 5
<STATE> 2
<MEAN> 25
 2.425401e-01 -9.681698e-02 8.641872e-01 3.341046e-01 2.725582e-02 1.801264e-01 -4.413824e-01 -8.076255e-01 -9.438852e-01 -4.922649e-01 -1.441931e-01 -7.136060e-01 1.480402e-02 3.262779e-02 -4.198781e-02 -4.168060e-02 -8.993772e-03 1.091643e-02 1.961827e-02 -1.501857e-03 -1.000728e-04 2.373246e-02 -3.349884e-03 1.929304e-02 -1.084381e-02
<VARIANCE> 25
 4.063765e+01 2.141929e+01 4.492120e+01 3.383686e+01 3.193494e+01 2.836177e+01 4.270820e+01 2.086526e+01 2.210698e+01 1.993461e+01 3.835855e+01 2.540306e+01 2.052079e+00 1.236658e+00 2.174832e+00 1.697065e+00 2.064662e+00 1.752319e+00 3.155112e+00 1.610512e+00 1.663815e+00 1.444074e+00 2.725234e+00 1.551619e+00 5.140038e-01
<GCONST> 9.341531e+01
<STATE> 3
<MEAN> 25
 2.864588e-01 -1.137780e-02 7.341528e-01 2.304641e-01 1.895472e-02 2.030736e-01 -3.943248e-01 -8.072448e-01 -9.361385e-01 -4.200289e-01 -1.486739e-01 -6.581591e-01 1.674922e-02 3.371887e-02 -4.709488e-02 -4.494204e-02 -7.914747e-03 8.438082e-03 1.942956e-02 1.392729e-03 3.956059e-03 2.601402e-02 -2.896405e-03 1.921906e-02 -1.035109e-02
<VARIANCE> 25
 4.054140e+01 2.083674e+01 4.462931e+01 3.244806e+01 3.105414e+01 2.760641e+01 4.179563e+01 2.077794e+01 2.206735e+01 1.966218e+01 3.760573e+01 2.509636e+01 2.035718e+00 1.214420e+00 2.177048e+00 1.669545e+00 2.029924e+00 1.728037e+00 3.086317e+00 1.601054e+00 1.660687e+00 1.424272e+00 2.678733e+00 1.547394e+00 5.150509e-01
<GCONST> 9.307473e+01
<STATE> 4
<MEAN> 25
 4.186361e-01 1.190603e-01 3.739781e-01 1.279310e-02 -4.382383e-02 1.376607e-01 -3.371555e-01 -7.569105e-01 -8.800528e-01 -2.876605e-01 -1.580573e-01 -4.956408e-01 1.893616e-02 3.453029e-02 -5.234222e-02 -4.027667e-02 -1.031132e-03 2.877946e-03 1.661544e-02 7.468850e-03 9.049161e-03 2.616847e-02 -2.257657e-04 1.919621e-02 -1.077621e-02
<VARIANCE> 25
 4.024958e+01 1.975498e+01 4.346777e+01 3.015178e+01 2.939927e+01 2.722242e+01 4.045281e+01 2.050811e+01 2.210138e+01 1.937520e+01 3.627246e+01 2.494643e+01 1.972377e+00 1.173786e+00 2.144713e+00 1.614003e+00 1.946848e+00 1.716598e+00 2.940275e+00 1.560125e+00 1.651793e+00 1.389100e+00 2.574830e+00 1.552771e+00 5.259042e-01
<GCONST> 9.246181e+01
<TRANSP> 5
 0.000000e+00 1.000000e+00 0.000000e+00 0.000000e+00 0.000000e+00
 0.000000e+00 6.449224e-01 3.550776e-01 0.000000e+00 0.000000e+00
 0.000000e+00 0.000000e+00 6.449221e-01 3.550779e-01 0.000000e+00
 0.000000e+00 0.000000e+00 0.000000e+00 7.587515e-01 2.412485e-01
 0.000000e+00 0.000000e+00 0.000000e+00 0.000000e+00 0.000000e+00
<ENDHMM>
~h "ur"
<BEGINHMM>
<NUMSTATES> 5
<STATE> 2
<MEAN> 25
 7.266812e-01 3.353748e-01 2.174526e-01 -5.704246e-01 -8.258467e-01 -1.072051e+00 -2.033502e-01 1.301594e+00 3.996861e-02 -1.479983e+00 -2.926780e-01 -6.229329e-01 4.542224e-02 2.598797e-02 -4.951533e-02 3.312813e-02 3.594947e-02 2.144757e-03 -3.348502e-02 -4.924594e-03 -5.629582e-03 1.779647e-02 -1.949122e-02 1.587852e-02 -1.565298e-02
<VARIANCE> 25
 4.722645e+01 1.621739e+01 4.908622e+01 3.049425e+01 2.978061e+01 2.217226e+01 4.685806e+01 2.544210e+01 1.877142e+01 3.220206e+01 4.495938e+01 2.802665e+01 2.318770e+00 1.384750e+00 2.269155e+00 1.384884e+00 1.122410e+00 1.776525e+00 3.029514e+00 1.669041e+00 1.568902e+00 1.525008e+00 3.714290e+00 1.599563e+00 6.283603e-01
<GCONST> 9.383060e+01
<STATE> 3
<MEAN> 25
 8.657500e-01 4.162381e-01 5.845926e-02 -4.676698e-01 -7.049608e-01 -1.060292e+00 -3.181120e-01 1.264433e+00 1.629120e-02 -1.415497e+00 -3.601558e-01 -5.702741e-01 4.550899e-02 2.731453e-02 -5.511726e-02 2.918151e-02 3.647631e-02 1.408263e-03 -3.666659e-02 -8.479124e-03 -5.451365e-03 2.177784e-02 -2.034573e-02 2.006991e-02 -1.748100e-02
<VARIANCE> 25
 4.624299e+01 1.617632e+01 4.708207e+01 2.987299e+01 3.007918e+01 2.213544e+01 4.669516e+01 2.524892e+01 1.932817e+01 3.141223e+01 4.417143e+01 2.838487e+01 2.235479e+00 1.359858e+00 2.221555e+00 1.355675e+00 1.147084e+00 1.800957e+00 2.979192e+00 1.648016e+00 1.585965e+00 1.493404e+00 3.584476e+00 1.621500e+00 6.197933e-01
<GCONST> 9.360431e+01
<STATE> 4
<MEAN> 25
 1.076929e+00 5.133984e-01 -1.455374e-01 -3.165248e-01 -5.204653e-01 -1.063956e+00 -5.311173e-01 1.175778e+00 -4.838428e-02 -1.393024e+00 -4.743396e-01 -4.943782e-01 3.795986e-02 2.814762e-02 -5.709254e-02 2.438892e-02 3.757957e-02 9.675339e-04 -3.229001e-02 -1.205111e-02 -7.754222e-03 2.734035e-02 -1.833905e-02 2.170383e-02 -2.066618e-02
<VARIANCE> 25
 4.514832e+01 1.628903e+01 4.464277e+01 2.934374e+01 3.027002e+01 2.228594e+01 4.672272e+01 2.510752e+01 2.022053e+01 3.050637e+01 4.347411e+01 2.876509e+01 2.137873e+00 1.345611e+00 2.174104e+00 1.337867e+00 1.178595e+00 1.852400e+00 2.955656e+00 1.637925e+00 1.619891e+00 1.460803e+00 3.425010e+00 1.652603e+00 6.150015e-01
<GCONST> 9.345360e+01
<TRANSP> 5
 0.000000e+00 1.000000e+00 0.000000e+00 0.000000e+00 0.000000e+00
 0.000000e+00 6.681886e-01 3.318113e-01 0.000000e+00 0.000000e+00
 0.000000e+00 0.000000e+00 6.681887e-01 3.318113e-01 0.000000e+00
 0.000000e+00 0.000000e+00 0.000000e+00 7.798616e-01 2.201384e-01
 0.000000e+00 0.000000e+00 0.000000e+00 0.000000e+00 0.000000e+00
<ENDHMM>
~h "yy"
<BEGINHMM>
<NUMSTATES> 5
<STATE> 2
<MEAN> 25
 -5.211548e-01 -1.529211e+00 4.462147e+00 3.342066e+00 1.585212e+00 6.824070e-01 -1.456435e+00 -1.891853e+00 -1.952596e+00 -2.264479e+00 -2.165684e-01 -2.709692e+00 4.645858e-02 5.965418e-02 -1.708972e-02 3.839673e-02 2.534823e-02 -5.606779e-03 -7.834325e-03 -2.339039e-02 -3.882853e-02 -3.297651e-03 -4.696306e-02 -3.170005e-02 -1.340093e-02
<VARIANCE> 25
 4.264033e+01 2.886642e+01 4.166843e+01 4.572914e+01 3.952375e+01 2.666406e+01 5.329990e+01 1.815235e+01 1.818476e+01 1.633597e+01 4.999323e+01 1.558817e+01 2.876214e+00 1.541301e+00 2.667683e+00 2.439667e+00 2.821973e+00 1.762068e+00 4.836942e+00 1.972396e+00 1.675384e+00 1.697062e+00 3.470314e+00 1.501631e+00 4.069645e-01
<GCONST> 9.582055e+01
<STATE> 3
<MEAN> 25
 -4.243640e-01 -1.380982e+00 4.415029e+00 3.368832e+00 1.617524e+00 6.871715e-01 -1.454999e+00 -1.954838e+00 -2.050292e+00 -2.265951e+00 -3.199459e-01 -2.780097e+00 3.751542e-02 6.707013e-02 -2.184075e-02 -1.419980e-02 -3.017716e-03 7.027208e-03 1.144616e-02 -1.949588e-02 -3.262313e-02 5.835859e-03 -3.918126e-02 -2.220461e-02 -1.352509e-02
<VARIANCE> 25
 4.228782e+01 2.883174e+01 4.122446e+01 4.397919e+01 3.901524e+01 2.598103e+01 5.264725e+01 1.832774e+01 1.788681e+01 1.652742e+01 4.936626e+01 1.549513e+01 2.833028e+00 1.523965e+00 2.656580e+00 2.374833e+00 2.779703e+00 1.732636e+00 4.784387e+00 1.994632e+00 1.678135e+00 1.705858e+00 3.388766e+00 1.485337e+00 4.000258e-01
<GCONST> 9.556197e+01
<STATE> 4
<MEAN> 25
 -3.371923e-01 -1.171960e+00 4.344604e+00 3.224836e+00 1.569627e+00 7.621961e-01 -1.389584e+00 -2.029723e+00 -2.179316e+00 -2.265439e+00 -4.226511e-01 -2.839845e+00 3.064836e-02 6.942645e-02 -3.280854e-02 -6.469616e-02 -2.976386e-02 1.548908e-02 2.534143e-02 -1.488349e-02 -2.063647e-02 1.703076e-02 -3.217469e-02 -1.034027e-02 -1.235830e-02
<VARIANCE> 25
 4.227303e+01 2.895093e+01 4.127615e+01 4.136532e+01 3.807384e+01 2.528143e+01 5.115601e+01 1.856577e+01 1.761721e+01 1.690631e+01 4.859067e+01 1.532408e+01 2.805804e+00 1.516360e+00 2.671602e+00 2.288097e+00 2.722237e+00 1.711431e+00 4.698655e+00 2.020373e+00 1.677474e+00 1.717316e+00 3.316000e+00 1.465007e+00 3.971682e-01
<GCONST> 9.529766e+01
<TRANSP> 5
 0.000000e+00 1.000000e+00 0.000000e+00 0.000000e+00 0.000000e+00
 0.000000e+00 5.830719e-01 4.169281e-01 0.000000e+00 0.000000e+00
 0.000000e+00 0.000000e+00 5.830718e-01 4.169282e-01 0.000000e+00
 0.000000e+00 0.000000e+00 0.000000e+00 6.815894e-01 3.184106e-01
 0.000000e+00 0.000000e+00 0.000000e+00 0.000000e+00 0.000000e+00
<ENDHMM>
~h "sil"
<BEGINHMM>
<NUMSTATES> 5
<STATE> 2
<MEAN> 25
 -3.701900e+00 1.811858e-01 -3.252821e+00 -1.349062e+00 1.409517e-01 2.158993e+00 4.188368e+00 2.507380e+00 1.839617e+00 3.990580e+00 3.931989e+00 5.416344e+00 -1.450342e-02 1.339211e-02 4.542504e-02 -2.188069e-02 7.690182e-02 -2.028371e-02 -1.594126e-02 -1.812230e-03 -4.705214e-03 -1.202916e-01 1.269193e-02 -5.794580e-02 5.029717e-02
<VARIANCE> 25
 2.724232e+00 2.535202e+00 3.222385e+00 4.042680e+00 4.579830e+00 5.813701e+00 5.679062e+00 6.958478e+00 6.930507e+00 7.459908e+00 8.241398e+00 7.889999e+00 1.195979e-01 1.764739e-01 2.636665e-01 3.525348e-01 4.687055e-01 5.232594e-01 5.791253e-01 7.307891e-01 8.116481e-01 8.590990e-01 7.624537e-01 7.177638e-01 9.263624e-02
<GCONST> 5.368362e+01
<STATE> 3
<MEAN> 25
 -3.787161e+00 1.478675e-01 -3.204674e+00 -1.412463e+00 2.479340e-01 2.093998e+00 4.097250e+00 2.500341e+00 1.823204e+00 3.745251e+00 3.939568e+00 5.457202e+00 -1.924948e-02 -1.643888e-02 5.931062e-03 -4.152536e-04 2.222976e-02 1.257943e-02 -3.879776e-02 -1.038716e-03 -2.321661e-03 -4.806267e-02 -2.078418e-02 6.373798e-02 -7.264533e-03
<VARIANCE> 25
 2.361457e+00 2.486705e+00 2.993972e+00 3.818389e+00 4.623020e+00 6.424112e+00 5.870396e+00 6.258911e+00 6.479342e+00 7.060850e+00 7.560874e+00 7.485792e+00 1.174671e-01 1.566106e-01 2.461157e-01 3.260734e-01 4.141800e-01 5.388111e-01 5.572001e-01 6.918771e-01 7.243408e-01 7.718399e-01 7.445157e-01 6.273679e-01 8.054673e-02
<GCONST> 5.217497e+01
<STATE> 4
<MEAN> 25
 -3.808003e+00 9.481949e-02 -3.185962e+00 -1.460040e+00 1.346924e-01 2.055547e+00 3.946445e+00 2.485906e+00 1.758500e+00 3.628572e+00 3.819002e+00 5.626662e+00 -2.072998e-02 -3.647630e-02 -3.123273e-03 6.226830e-03 -2.357174e-02 2.799594e-02 -1.869701e-02 2.155302e-02 -2.617765e-03 4.482958e-03 -1.380358e-02 8.613749e-02 -1.827677e-02
<VARIANCE> 25
 1.808933e+00 2.012288e+00 2.545786e+00 3.404694e+00 4.293600e+00 5.930261e+00 5.611049e+00 6.030193e+00 6.366474e+00 7.449135e+00 7.100901e+00 7.290937e+00 9.215449e-02 1.319454e-01 2.046343e-01 2.763704e-01 3.808134e-01 4.715203e-01 5.086745e-01 6.529934e-01 7.310514e-01 7.371951e-01 7.330007e-01 5.783186e-01 5.744518e-02
<GCONST> 4.952834e+01
<TRANSP> 5
 0.000000e+00 1.000000e+00 0.000000e+00 0.000000e+00 0.000000e+00
 0.000000e+00 6.776645e-01 3.223354e-01 0.000000e+00 0.000000e+00
 0.000000e+00 0.000000e+00 6.776638e-01 3.223361e-01 0.000000e+00
 0.000000e+00 0.000000e+00 0.000000e+00 7.971464e-01 2.028536e-01
 0.000000e+00 0.000000e+00 0.000000e+00 0.000000e+00 0.000000e+00
<ENDHMM>
