~h "sil"
<BEGINHMM>
<NUMSTATES> 5
<STATE> 2
<MEAN> 25
 -4.056572e-08 3.596030e-08 -4.155328e-08 -4.694685e-08 -8.812029e-09 5.127690e-10 -1.876355e-08 3.764104e-08 -2.214402e-08 -2.262830e-08 -3.149256e-08 9.070313e-08 -1.671009e-03 -9.888056e-04 -1.014744e-04 -1.440375e-03 1.885450e-04 -5.582995e-04 -8.621738e-04 1.136265e-03 9.911946e-04 -2.208700e-03 3.016879e-04 2.437875e-03 5.495902e-06
<VARIANCE> 25
 3.722816e+01 1.989225e+01 4.164455e+01 3.264012e+01 2.797222e+01 2.647702e+01 4.038375e+01 1.955802e+01 1.967839e+01 2.163376e+01 3.646047e+01 3.045521e+01 1.746624e+00 1.127324e+00 1.934271e+00 1.471700e+00 1.643991e+00 1.766991e+00 2.669370e+00 1.378850e+00 1.531985e+00 1.257863e+00 2.316756e+00 1.404668e+00 4.573079e-01
<GCONST> 9.126133e+01
<STATE> 3
<MEAN> 25
 -4.056572e-08 3.596030e-08 -4.155328e-08 -4.694685e-08 -8.812029e-09 5.127690e-10 -1.876355e-08 3.764104e-08 -2.214402e-08 -2.262830e-08 -3.149256e-08 9.070313e-08 -1.671009e-03 -9.888056e-04 -1.014744e-04 -1.440375e-03 1.885450e-04 -5.582995e-04 -8.621738e-04 1.136265e-03 9.911946e-04 -2.208700e-03 3.016879e-04 2.437875e-03 5.495902e-06
<VARIANCE> 25
 3.722816e+01 1.989225e+01 4.164455e+01 3.264012e+01 2.797222e+01 2.647702e+01 4.038375e+01 1.955802e+01 1.967839e+01 2.163376e+01 3.646047e+01 3.045521e+01 1.746624e+00 1.127324e+00 1.934271e+00 1.471700e+00 1.643991e+00 1.766991e+00 2.669370e+00 1.378850e+00 1.531985e+00 1.257863e+00 2.316756e+00 1.404668e+00 4.573079e-01
<GCONST> 9.126133e+01
<STATE> 4
<MEAN> 25
 -4.056572e-08 3.596030e-08 -4.155328e-08 -4.694685e-08 -8.812029e-09 5.127690e-10 -1.876355e-08 3.764104e-08 -2.214402e-08 -2.262830e-08 -3.149256e-08 9.070313e-08 -1.671009e-03 -9.888056e-04 -1.014744e-04 -1.440375e-03 1.885450e-04 -5.582995e-04 -8.621738e-04 1.136265e-03 9.911946e-04 -2.208700e-03 3.016879e-04 2.437875e-03 5.495902e-06
<VARIANCE> 25
 3.722816e+01 1.989225e+01 4.164455e+01 3.264012e+01 2.797222e+01 2.647702e+01 4.038375e+01 1.955802e+01 1.967839e+01 2.163376e+01 3.646047e+01 3.045521e+01 1.746624e+00 1.127324e+00 1.934271e+00 1.471700e+00 1.643991e+00 1.766991e+00 2.669370e+00 1.378850e+00 1.531985e+00 1.257863e+00 2.316756e+00 1.404668e+00 4.573079e-01
<GCONST> 9.126133e+01
<TRANSP> 5
 0.000000e+00 1.000000e+00 0.000000e+00 0.000000e+00 0.000000e+00
 0.000000e+00 6.000000e-01 4.000000e-01 0.000000e+00 0.000000e+00
 0.000000e+00 0.000000e+00 6.000000e-01 4.000000e-01 0.000000e+00
 0.000000e+00 0.000000e+00 0.000000e+00 7.000000e-01 3.000000e-01
 0.000000e+00 0.000000e+00 0.000000e+00 0.000000e+00 0.000000e+00
<ENDHMM>
~h "aa"
<BEGINHMM>
<NUMSTATES> 5
<STATE> 2
<MEAN> 25
 -4.056572e-08 3.596030e-08 -4.155328e-08 -4.694685e-08 -8.812029e-09 5.127690e-10 -1.876355e-08 3.764104e-08 -2.214402e-08 -2.262830e-08 -3.149256e-08 9.070313e-08 -1.671009e-03 -9.888056e-04 -1.014744e-04 -1.440375e-03 1.885450e-04 -5.582995e-04 -8.621738e-04 1.136265e-03 9.911946e-04 -2.208700e-03 3.016879e-04 2.437875e-03 5.495902e-06
<VARIANCE> 25
 3.722816e+01 1.989225e+01 4.164455e+01 3.264012e+01 2.797222e+01 2.647702e+01 4.038375e+01 1.955802e+01 1.967839e+01 2.163376e+01 3.646047e+01 3.045521e+01 1.746624e+00 1.127324e+00 1.934271e+00 1.471700e+00 1.643991e+00 1.766991e+00 2.669370e+00 1.378850e+00 1.531985e+00 1.257863e+00 2.316756e+00 1.404668e+00 4.573079e-01
<GCONST> 9.126133e+01
<STATE> 3
<MEAN> 25
 -4.056572e-08 3.596030e-08 -4.155328e-08 -4.694685e-08 -8.812029e-09 5.127690e-10 -1.876355e-08 3.764104e-08 -2.214402e-08 -2.262830e-08 -3.149256e-08 9.070313e-08 -1.671009e-03 -9.888056e-04 -1.014744e-04 -1.440375e-03 1.885450e-04 -5.582995e-04 -8.621738e-04 1.136265e-03 9.911946e-04 -2.208700e-03 3.016879e-04 2.437875e-03 5.495902e-06
<VARIANCE> 25
 3.722816e+01 1.989225e+01 4.164455e+01 3.264012e+01 2.797222e+01 2.647702e+01 4.038375e+01 1.955802e+01 1.967839e+01 2.163376e+01 3.646047e+01 3.045521e+01 1.746624e+00 1.127324e+00 1.934271e+00 1.471700e+00 1.643991e+00 1.766991e+00 2.669370e+00 1.378850e+00 1.531985e+00 1.257863e+00 2.316756e+00 1.404668e+00 4.573079e-01
<GCONST> 9.126133e+01
<STATE> 4
<MEAN> 25
 -4.056572e-08 3.596030e-08 -4.155328e-08 -4.694685e-08 -8.812029e-09 5.127690e-10 -1.876355e-08 3.764104e-08 -2.214402e-08 -2.262830e-08 -3.149256e-08 9.070313e-08 -1.671009e-03 -9.888056e-04 -1.014744e-04 -1.440375e-03 1.885450e-04 -5.582995e-04 -8.621738e-04 1.136265e-03 9.911946e-04 -2.208700e-03 3.016879e-04 2.437875e-03 5.495902e-06
<VARIANCE> 25
 3.722816e+01 1.989225e+01 4.164455e+01 3.264012e+01 2.797222e+01 2.647702e+01 4.038375e+01 1.955802e+01 1.967839e+01 2.163376e+01 3.646047e+01 3.045521e+01 1.746624e+00 1.127324e+00 1.934271e+00 1.471700e+00 1.643991e+00 1.766991e+00 2.669370e+00 1.378850e+00 1.531985e+00 1.257863e+00 2.316756e+00 1.404668e+00 4.573079e-01
<GCONST> 9.126133e+01
<TRANSP> 5
 0.000000e+00 1.000000e+00 0.000000e+00 0.000000e+00 0.000000e+00
 0.000000e+00 6.000000e-01 4.000000e-01 0.000000e+00 0.000000e+00
 0.000000e+00 0.000000e+00 6.000000e-01 4.000000e-01 0.000000e+00
 0.000000e+00 0.000000e+00 0.000000e+00 7.000000e-01 3.000000e-01
 0.000000e+00 0.000000e+00 0.000000e+00 0.000000e+00 0.000000e+00
<ENDHMM>
~h "d"
<BEGINHMM>
<NUMSTATES> 5
<STATE> 2
<MEAN> 25
 -4.056572e-08 3.596030e-08 -4.155328e-08 -4.694685e-08 -8.812029e-09 5.127690e-10 -1.876355e-08 3.764104e-08 -2.214402e-08 -2.262830e-08 -3.149256e-08 9.070313e-08 -1.671009e-03 -9.888056e-04 -1.014744e-04 -1.440375e-03 1.885450e-04 -5.582995e-04 -8.621738e-04 1.136265e-03 9.911946e-04 -2.208700e-03 3.016879e-04 2.437875e-03 5.495902e-06
<VARIANCE> 25
 3.722816e+01 1.989225e+01 4.164455e+01 3.264012e+01 2.797222e+01 2.647702e+01 4.038375e+01 1.955802e+01 1.967839e+01 2.163376e+01 3.646047e+01 3.045521e+01 1.746624e+00 1.127324e+00 1.934271e+00 1.471700e+00 1.643991e+00 1.766991e+00 2.669370e+00 1.378850e+00 1.531985e+00 1.257863e+00 2.316756e+00 1.404668e+00 4.573079e-01
<GCONST> 9.126133e+01
<STATE> 3
<MEAN> 25
 -4.056572e-08 3.596030e-08 -4.155328e-08 -4.694685e-08 -8.812029e-09 5.127690e-10 -1.876355e-08 3.764104e-08 -2.214402e-08 -2.262830e-08 -3.149256e-08 9.070313e-08 -1.671009e-03 -9.888056e-04 -1.014744e-04 -1.440375e-03 1.885450e-04 -5.582995e-04 -8.621738e-04 1.136265e-03 9.911946e-04 -2.208700e-03 3.016879e-04 2.437875e-03 5.495902e-06
<VARIANCE> 25
 3.722816e+01 1.989225e+01 4.164455e+01 3.264012e+01 2.797222e+01 2.647702e+01 4.038375e+01 1.955802e+01 1.967839e+01 2.163376e+01 3.646047e+01 3.045521e+01 1.746624e+00 1.127324e+00 1.934271e+00 1.471700e+00 1.643991e+00 1.766991e+00 2.669370e+00 1.378850e+00 1.531985e+00 1.257863e+00 2.316756e+00 1.404668e+00 4.573079e-01
<GCONST> 9.126133e+01
<STATE> 4
<MEAN> 25
 -4.056572e-08 3.596030e-08 -4.155328e-08 -4.694685e-08 -8.812029e-09 5.127690e-10 -1.876355e-08 3.764104e-08 -2.214402e-08 -2.262830e-08 -3.149256e-08 9.070313e-08 -1.671009e-03 -9.888056e-04 -1.014744e-04 -1.440375e-03 1.885450e-04 -5.582995e-04 -8.621738e-04 1.136265e-03 9.911946e-04 -2.208700e-03 3.016879e-04 2.437875e-03 5.495902e-06
<VARIANCE> 25
 3.722816e+01 1.989225e+01 4.164455e+01 3.264012e+01 2.797222e+01 2.647702e+01 4.038375e+01 1.955802e+01 1.967839e+01 2.163376e+01 3.646047e+01 3.045521e+01 1.746624e+00 1.127324e+00 1.934271e+00 1.471700e+00 1.643991e+00 1.766991e+00 2.669370e+00 1.378850e+00 1.531985e+00 1.257863e+00 2.316756e+00 1.404668e+00 4.573079e-01
<GCONST> 9.126133e+01
<TRANSP> 5
 0.000000e+00 1.000000e+00 0.000000e+00 0.000000e+00 0.000000e+00
 0.000000e+00 6.000000e-01 4.000000e-01 0.000000e+00 0.000000e+00
 0.000000e+00 0.000000e+00 6.000000e-01 4.000000e-01 0.000000e+00
 0.000000e+00 0.000000e+00 0.000000e+00 7.000000e-01 3.000000e-01
 0.000000e+00 0.000000e+00 0.000000e+00 0.000000e+00 0.000000e+00
<ENDHMM>
~h "rr"
<BEGINHMM>
<NUMSTATES> 5
<STATE> 2
<MEAN> 25
 -4.056572e-08 3.596030e-08 -4.155328e-08 -4.694685e-08 -8.812029e-09 5.127690e-10 -1.876355e-08 3.764104e-08 -2.214402e-08 -2.262830e-08 -3.149256e-08 9.070313e-08 -1.671009e-03 -9.888056e-04 -1.014744e-04 -1.440375e-03 1.885450e-04 -5.582995e-04 -8.621738e-04 1.136265e-03 9.911946e-04 -2.208700e-03 3.016879e-04 2.437875e-03 5.495902e-06
<VARIANCE> 25
 3.722816e+01 1.989225e+01 4.164455e+01 3.264012e+01 2.797222e+01 2.647702e+01 4.038375e+01 1.955802e+01 1.967839e+01 2.163376e+01 3.646047e+01 3.045521e+01 1.746624e+00 1.127324e+00 1.934271e+00 1.471700e+00 1.643991e+00 1.766991e+00 2.669370e+00 1.378850e+00 1.531985e+00 1.257863e+00 2.316756e+00 1.404668e+00 4.573079e-01
<GCONST> 9.126133e+01
<STATE> 3
<MEAN> 25
 -4.056572e-08 3.596030e-08 -4.155328e-08 -4.694685e-08 -8.812029e-09 5.127690e-10 -1.876355e-08 3.764104e-08 -2.214402e-08 -2.262830e-08 -3.149256e-08 9.070313e-08 -1.671009e-03 -9.888056e-04 -1.014744e-04 -1.440375e-03 1.885450e-04 -5.582995e-04 -8.621738e-04 1.136265e-03 9.911946e-04 -2.208700e-03 3.016879e-04 2.437875e-03 5.495902e-06
<VARIANCE> 25
 3.722816e+01 1.989225e+01 4.164455e+01 3.264012e+01 2.797222e+01 2.647702e+01 4.038375e+01 1.955802e+01 1.967839e+01 2.163376e+01 3.646047e+01 3.045521e+01 1.746624e+00 1.127324e+00 1.934271e+00 1.471700e+00 1.643991e+00 1.766991e+00 2.669370e+00 1.378850e+00 1.531985e+00 1.257863e+00 2.316756e+00 1.404668e+00 4.573079e-01
<GCONST> 9.126133e+01
<STATE> 4
<MEAN> 25
 -4.056572e-08 3.596030e-08 -4.155328e-08 -4.694685e-08 -8.812029e-09 5.127690e-10 -1.876355e-08 3.764104e-08 -2.214402e-08 -2.262830e-08 -3.149256e-08 9.070313e-08 -1.671009e-03 -9.888056e-04 -1.014744e-04 -1.440375e-03 1.885450e-04 -5.582995e-04 -8.621738e-04 1.136265e-03 9.911946e-04 -2.208700e-03 3.016879e-04 2.437875e-03 5.495902e-06
<VARIANCE> 25
 3.722816e+01 1.989225e+01 4.164455e+01 3.264012e+01 2.797222e+01 2.647702e+01 4.038375e+01 1.955802e+01 1.967839e+01 2.163376e+01 3.646047e+01 3.045521e+01 1.746624e+00 1.127324e+00 1.934271e+00 1.471700e+00 1.643991e+00 1.766991e+00 2.669370e+00 1.378850e+00 1.531985e+00 1.257863e+00 2.316756e+00 1.404668e+00 4.573079e-01
<GCONST> 9.126133e+01
<TRANSP> 5
 0.000000e+00 1.000000e+00 0.000000e+00 0.000000e+00 0.000000e+00
 0.000000e+00 6.000000e-01 4.000000e-01 0.000000e+00 0.000000e+00
 0.000000e+00 0.000000e+00 6.000000e-01 4.000000e-01 0.000000e+00
 0.000000e+00 0.000000e+00 0.000000e+00 7.000000e-01 3.000000e-01
 0.000000e+00 0.000000e+00 0.000000e+00 0.000000e+00 0.000000e+00
<ENDHMM>
~h "ae"
<BEGINHMM>
<NUMSTATES> 5
<STATE> 2
<MEAN> 25
 -4.056572e-08 3.596030e-08 -4.155328e-08 -4.694685e-08 -8.812029e-09 5.127690e-10 -1.876355e-08 3.764104e-08 -2.214402e-08 -2.262830e-08 -3.149256e-08 9.070313e-08 -1.671009e-03 -9.888056e-04 -1.014744e-04 -1.440375e-03 1.885450e-04 -5.582995e-04 -8.621738e-04 1.136265e-03 9.911946e-04 -2.208700e-03 3.016879e-04 2.437875e-03 5.495902e-06
<VARIANCE> 25
 3.722816e+01 1.989225e+01 4.164455e+01 3.264012e+01 2.797222e+01 2.647702e+01 4.038375e+01 1.955802e+01 1.967839e+01 2.163376e+01 3.646047e+01 3.045521e+01 1.746624e+00 1.127324e+00 1.934271e+00 1.471700e+00 1.643991e+00 1.766991e+00 2.669370e+00 1.378850e+00 1.531985e+00 1.257863e+00 2.316756e+00 1.404668e+00 4.573079e-01
<GCONST> 9.126133e+01
<STATE> 3
<MEAN> 25
 -4.056572e-08 3.596030e-08 -4.155328e-08 -4.694685e-08 -8.812029e-09 5.127690e-10 -1.876355e-08 3.764104e-08 -2.214402e-08 -2.262830e-08 -3.149256e-08 9.070313e-08 -1.671009e-03 -9.888056e-04 -1.014744e-04 -1.440375e-03 1.885450e-04 -5.582995e-04 -8.621738e-04 1.136265e-03 9.911946e-04 -2.208700e-03 3.016879e-04 2.437875e-03 5.495902e-06
<VARIANCE> 25
 3.722816e+01 1.989225e+01 4.164455e+01 3.264012e+01 2.797222e+01 2.647702e+01 4.038375e+01 1.955802e+01 1.967839e+01 2.163376e+01 3.646047e+01 3.045521e+01 1.746624e+00 1.127324e+00 1.934271e+00 1.471700e+00 1.643991e+00 1.766991e+00 2.669370e+00 1.378850e+00 1.531985e+00 1.257863e+00 2.316756e+00 1.404668e+00 4.573079e-01
<GCONST> 9.126133e+01
<STATE> 4
<MEAN> 25
 -4.056572e-08 3.596030e-08 -4.155328e-08 -4.694685e-08 -8.812029e-09 5.127690e-10 -1.876355e-08 3.764104e-08 -2.214402e-08 -2.262830e-08 -3.149256e-08 9.070313e-08 -1.671009e-03 -9.888056e-04 -1.014744e-04 -1.440375e-03 1.885450e-04 -5.582995e-04 -8.621738e-04 1.136265e-03 9.911946e-04 -2.208700e-03 3.016879e-04 2.437875e-03 5.495902e-06
<VARIANCE> 25
 3.722816e+01 1.989225e+01 4.164455e+01 3.264012e+01 2.797222e+01 2.647702e+01 4.038375e+01 1.955802e+01 1.967839e+01 2.163376e+01 3.646047e+01 3.045521e+01 1.746624e+00 1.127324e+00 1.934271e+00 1.471700e+00 1.643991e+00 1.766991e+00 2.669370e+00 1.378850e+00 1.531985e+00 1.257863e+00 2.316756e+00 1.404668e+00 4.573079e-01
<GCONST> 9.126133e+01
<TRANSP> 5
 0.000000e+00 1.000000e+00 0.000000e+00 0.000000e+00 0.000000e+00
 0.000000e+00 6.000000e-01 4.000000e-01 0.000000e+00 0.000000e+00
 0.000000e+00 0.000000e+00 6.000000e-01 4.000000e-01 0.000000e+00
 0.000000e+00 0.000000e+00 0.000000e+00 7.000000e-01 3.000000e-01
 0.000000e+00 0.000000e+00 0.000000e+00 0.000000e+00 0.000000e+00
<ENDHMM>
~h "s"
<BEGINHMM>
<NUMSTATES> 5
<STATE> 2
<MEAN> 25
 -4.056572e-08 3.596030e-08 -4.155328e-08 -4.694685e-08 -8.812029e-09 5.127690e-10 -1.876355e-08 3.764104e-08 -2.214402e-08 -2.262830e-08 -3.149256e-08 9.070313e-08 -1.671009e-03 -9.888056e-04 -1.014744e-04 -1.440375e-03 1.885450e-04 -5.582995e-04 -8.621738e-04 1.136265e-03 9.911946e-04 -2.208700e-03 3.016879e-04 2.437875e-03 5.495902e-06
<VARIANCE> 25
 3.722816e+01 1.989225e+01 4.164455e+01 3.264012e+01 2.797222e+01 2.647702e+01 4.038375e+01 1.955802e+01 1.967839e+01 2.163376e+01 3.646047e+01 3.045521e+01 1.746624e+00 1.127324e+00 1.934271e+00 1.471700e+00 1.643991e+00 1.766991e+00 2.669370e+00 1.378850e+00 1.531985e+00 1.257863e+00 2.316756e+00 1.404668e+00 4.573079e-01
<GCONST> 9.126133e+01
<STATE> 3
<MEAN> 25
 -4.056572e-08 3.596030e-08 -4.155328e-08 -4.694685e-08 -8.812029e-09 5.127690e-10 -1.876355e-08 3.764104e-08 -2.214402e-08 -2.262830e-08 -3.149256e-08 9.070313e-08 -1.671009e-03 -9.888056e-04 -1.014744e-04 -1.440375e-03 1.885450e-04 -5.582995e-04 -8.621738e-04 1.136265e-03 9.911946e-04 -2.208700e-03 3.016879e-04 2.437875e-03 5.495902e-06
<VARIANCE> 25
 3.722816e+01 1.989225e+01 4.164455e+01 3.264012e+01 2.797222e+01 2.647702e+01 4.038375e+01 1.955802e+01 1.967839e+01 2.163376e+01 3.646047e+01 3.045521e+01 1.746624e+00 1.127324e+00 1.934271e+00 1.471700e+00 1.643991e+00 1.766991e+00 2.669370e+00 1.378850e+00 1.531985e+00 1.257863e+00 2.316756e+00 1.404668e+00 4.573079e-01
<GCONST> 9.126133e+01
<STATE> 4
<MEAN> 25
 -4.056572e-08 3.596030e-08 -4.155328e-08 -4.694685e-08 -8.812029e-09 5.127690e-10 -1.876355e-08 3.764104e-08 -2.214402e-08 -2.262830e-08 -3.149256e-08 9.070313e-08 -1.671009e-03 -9.888056e-04 -1.014744e-04 -1.440375e-03 1.885450e-04 -5.582995e-04 -8.621738e-04 1.136265e-03 9.911946e-04 -2.208700e-03 3.016879e-04 2.437875e-03 5.495902e-06
<VARIANCE> 25
 3.722816e+01 1.989225e+01 4.164455e+01 3.264012e+01 2.797222e+01 2.647702e+01 4.038375e+01 1.955802e+01 1.967839e+01 2.163376e+01 3.646047e+01 3.045521e+01 1.746624e+00 1.127324e+00 1.934271e+00 1.471700e+00 1.643991e+00 1.766991e+00 2.669370e+00 1.378850e+00 1.531985e+00 1.257863e+00 2.316756e+00 1.404668e+00 4.573079e-01
<GCONST> 9.126133e+01
<TRANSP> 5
 0.000000e+00 1.000000e+00 0.000000e+00 0.000000e+00 0.000000e+00
 0.000000e+00 6.000000e-01 4.000000e-01 0.000000e+00 0.000000e+00
 0.000000e+00 0.000000e+00 6.000000e-01 4.000000e-01 0.000000e+00
 0.000000e+00 0.000000e+00 0.000000e+00 7.000000e-01 3.000000e-01
 0.000000e+00 0.000000e+00 0.000000e+00 0.000000e+00 0.000000e+00
<ENDHMM>
~h "v"
<BEGINHMM>
<NUMSTATES> 5
<STATE> 2
<MEAN> 25
 -4.056572e-08 3.596030e-08 -4.155328e-08 -4.694685e-08 -8.812029e-09 5.127690e-10 -1.876355e-08 3.764104e-08 -2.214402e-08 -2.262830e-08 -3.149256e-08 9.070313e-08 -1.671009e-03 -9.888056e-04 -1.014744e-04 -1.440375e-03 1.885450e-04 -5.582995e-04 -8.621738e-04 1.136265e-03 9.911946e-04 -2.208700e-03 3.016879e-04 2.437875e-03 5.495902e-06
<VARIANCE> 25
 3.722816e+01 1.989225e+01 4.164455e+01 3.264012e+01 2.797222e+01 2.647702e+01 4.038375e+01 1.955802e+01 1.967839e+01 2.163376e+01 3.646047e+01 3.045521e+01 1.746624e+00 1.127324e+00 1.934271e+00 1.471700e+00 1.643991e+00 1.766991e+00 2.669370e+00 1.378850e+00 1.531985e+00 1.257863e+00 2.316756e+00 1.404668e+00 4.573079e-01
<GCONST> 9.126133e+01
<STATE> 3
<MEAN> 25
 -4.056572e-08 3.596030e-08 -4.155328e-08 -4.694685e-08 -8.812029e-09 5.127690e-10 -1.876355e-08 3.764104e-08 -2.214402e-08 -2.262830e-08 -3.149256e-08 9.070313e-08 -1.671009e-03 -9.888056e-04 -1.014744e-04 -1.440375e-03 1.885450e-04 -5.582995e-04 -8.621738e-04 1.136265e-03 9.911946e-04 -2.208700e-03 3.016879e-04 2.437875e-03 5.495902e-06
<VARIANCE> 25
 3.722816e+01 1.989225e+01 4.164455e+01 3.264012e+01 2.797222e+01 2.647702e+01 4.038375e+01 1.955802e+01 1.967839e+01 2.163376e+01 3.646047e+01 3.045521e+01 1.746624e+00 1.127324e+00 1.934271e+00 1.471700e+00 1.643991e+00 1.766991e+00 2.669370e+00 1.378850e+00 1.531985e+00 1.257863e+00 2.316756e+00 1.404668e+00 4.573079e-01
<GCONST> 9.126133e+01
<STATE> 4
<MEAN> 25
 -4.056572e-08 3.596030e-08 -4.155328e-08 -4.694685e-08 -8.812029e-09 5.127690e-10 -1.876355e-08 3.764104e-08 -2.214402e-08 -2.262830e-08 -3.149256e-08 9.070313e-08 -1.671009e-03 -9.888056e-04 -1.014744e-04 -1.440375e-03 1.885450e-04 -5.582995e-04 -8.621738e-04 1.136265e-03 9.911946e-04 -2.208700e-03 3.016879e-04 2.437875e-03 5.495902e-06
<VARIANCE> 25
 3.722816e+01 1.989225e+01 4.164455e+01 3.264012e+01 2.797222e+01 2.647702e+01 4.038375e+01 1.955802e+01 1.967839e+01 2.163376e+01 3.646047e+01 3.045521e+01 1.746624e+00 1.127324e+00 1.934271e+00 1.471700e+00 1.643991e+00 1.766991e+00 2.669370e+00 1.378850e+00 1.531985e+00 1.257863e+00 2.316756e+00 1.404668e+00 4.573079e-01
<GCONST> 9.126133e+01
<TRANSP> 5
 0.000000e+00 1.000000e+00 0.000000e+00 0.000000e+00 0.000000e+00
 0.000000e+00 6.000000e-01 4.000000e-01 0.000000e+00 0.000000e+00
 0.000000e+00 0.000000e+00 6.000000e-01 4.000000e-01 0.000000e+00
 0.000000e+00 0.000000e+00 0.000000e+00 7.000000e-01 3.000000e-01
 0.000000e+00 0.000000e+00 0.000000e+00 0.000000e+00 0.000000e+00
<ENDHMM>
~h "a"
<BEGINHMM>
<NUMSTATES> 5
<STATE> 2
<MEAN> 25
 -4.056572e-08 3.596030e-08 -4.155328e-08 -4.694685e-08 -8.812029e-09 5.127690e-10 -1.876355e-08 3.764104e-08 -2.214402e-08 -2.262830e-08 -3.149256e-08 9.070313e-08 -1.671009e-03 -9.888056e-04 -1.014744e-04 -1.440375e-03 1.885450e-04 -5.582995e-04 -8.621738e-04 1.136265e-03 9.911946e-04 -2.208700e-03 3.016879e-04 2.437875e-03 5.495902e-06
<VARIANCE> 25
 3.722816e+01 1.989225e+01 4.164455e+01 3.264012e+01 2.797222e+01 2.647702e+01 4.038375e+01 1.955802e+01 1.967839e+01 2.163376e+01 3.646047e+01 3.045521e+01 1.746624e+00 1.127324e+00 1.934271e+00 1.471700e+00 1.643991e+00 1.766991e+00 2.669370e+00 1.378850e+00 1.531985e+00 1.257863e+00 2.316756e+00 1.404668e+00 4.573079e-01
<GCONST> 9.126133e+01
<STATE> 3
<MEAN> 25
 -4.056572e-08 3.596030e-08 -4.155328e-08 -4.694685e-08 -8.812029e-09 5.127690e-10 -1.876355e-08 3.764104e-08 -2.214402e-08 -2.262830e-08 -3.149256e-08 9.070313e-08 -1.671009e-03 -9.888056e-04 -1.014744e-04 -1.440375e-03 1.885450e-04 -5.582995e-04 -8.621738e-04 1.136265e-03 9.911946e-04 -2.208700e-03 3.016879e-04 2.437875e-03 5.495902e-06
<VARIANCE> 25
 3.722816e+01 1.989225e+01 4.164455e+01 3.264012e+01 2.797222e+01 2.647702e+01 4.038375e+01 1.955802e+01 1.967839e+01 2.163376e+01 3.646047e+01 3.045521e+01 1.746624e+00 1.127324e+00 1.934271e+00 1.471700e+00 1.643991e+00 1.766991e+00 2.669370e+00 1.378850e+00 1.531985e+00 1.257863e+00 2.316756e+00 1.404668e+00 4.573079e-01
<GCONST> 9.126133e+01
<STATE> 4
<MEAN> 25
 -4.056572e-08 3.596030e-08 -4.155328e-08 -4.694685e-08 -8.812029e-09 5.127690e-10 -1.876355e-08 3.764104e-08 -2.214402e-08 -2.262830e-08 -3.149256e-08 9.070313e-08 -1.671009e-03 -9.888056e-04 -1.014744e-04 -1.440375e-03 1.885450e-04 -5.582995e-04 -8.621738e-04 1.136265e-03 9.911946e-04 -2.208700e-03 3.016879e-04 2.437875e-03 5.495902e-06
<VARIANCE> 25
 3.722816e+01 1.989225e+01 4.164455e+01 3.264012e+01 2.797222e+01 2.647702e+01 4.038375e+01 1.955802e+01 1.967839e+01 2.163376e+01 3.646047e+01 3.045521e+01 1.746624e+00 1.127324e+00 1.934271e+00 1.471700e+00 1.643991e+00 1.766991e+00 2.669370e+00 1.378850e+00 1.531985e+00 1.257863e+00 2.316756e+00 1.404668e+00 4.573079e-01
<GCONST> 9.126133e+01
<TRANSP> 5
 0.000000e+00 1.000000e+00 0.000000e+00 0.000000e+00 0.000000e+00
 0.000000e+00 6.000000e-01 4.000000e-01 0.000000e+00 0.000000e+00
 0.000000e+00 0.000000e+00 6.000000e-01 4.000000e-01 0.000000e+00
 0.000000e+00 0.000000e+00 0.000000e+00 7.000000e-01 3.000000e-01
 0.000000e+00 0.000000e+00 0.000000e+00 0.000000e+00 0.000000e+00
<ENDHMM>
~h "ss"
<BEGINHMM>
<NUMSTATES> 5
<STATE> 2
<MEAN> 25
 -4.056572e-08 3.596030e-08 -4.155328e-08 -4.694685e-08 -8.812029e-09 5.127690e-10 -1.876355e-08 3.764104e-08 -2.214402e-08 -2.262830e-08 -3.149256e-08 9.070313e-08 -1.671009e-03 -9.888056e-04 -1.014744e-04 -1.440375e-03 1.885450e-04 -5.582995e-04 -8.621738e-04 1.136265e-03 9.911946e-04 -2.208700e-03 3.016879e-04 2.437875e-03 5.495902e-06
<VARIANCE> 25
 3.722816e+01 1.989225e+01 4.164455e+01 3.264012e+01 2.797222e+01 2.647702e+01 4.038375e+01 1.955802e+01 1.967839e+01 2.163376e+01 3.646047e+01 3.045521e+01 1.746624e+00 1.127324e+00 1.934271e+00 1.471700e+00 1.643991e+00 1.766991e+00 2.669370e+00 1.378850e+00 1.531985e+00 1.257863e+00 2.316756e+00 1.404668e+00 4.573079e-01
<GCONST> 9.126133e+01
<STATE> 3
<MEAN> 25
 -4.056572e-08 3.596030e-08 -4.155328e-08 -4.694685e-08 -8.812029e-09 5.127690e-10 -1.876355e-08 3.764104e-08 -2.214402e-08 -2.262830e-08 -3.149256e-08 9.070313e-08 -1.671009e-03 -9.888056e-04 -1.014744e-04 -1.440375e-03 1.885450e-04 -5.582995e-04 -8.621738e-04 1.136265e-03 9.911946e-04 -2.208700e-03 3.016879e-04 2.437875e-03 5.495902e-06
<VARIANCE> 25
 3.722816e+01 1.989225e+01 4.164455e+01 3.264012e+01 2.797222e+01 2.647702e+01 4.038375e+01 1.955802e+01 1.967839e+01 2.163376e+01 3.646047e+01 3.045521e+01 1.746624e+00 1.127324e+00 1.934271e+00 1.471700e+00 1.643991e+00 1.766991e+00 2.669370e+00 1.378850e+00 1.531985e+00 1.257863e+00 2.316756e+00 1.404668e+00 4.573079e-01
<GCONST> 9.126133e+01
<STATE> 4
<MEAN> 25
 -4.056572e-08 3.596030e-08 -4.155328e-08 -4.694685e-08 -8.812029e-09 5.127690e-10 -1.876355e-08 3.764104e-08 -2.214402e-08 -2.262830e-08 -3.149256e-08 9.070313e-08 -1.671009e-03 -9.888056e-04 -1.014744e-04 -1.440375e-03 1.885450e-04 -5.582995e-04 -8.621738e-04 1.136265e-03 9.911946e-04 -2.208700e-03 3.016879e-04 2.437875e-03 5.495902e-06
<VARIANCE> 25
 3.722816e+01 1.989225e+01 4.164455e+01 3.264012e+01 2.797222e+01 2.647702e+01 4.038375e+01 1.955802e+01 1.967839e+01 2.163376e+01 3.646047e+01 3.045521e+01 1.746624e+00 1.127324e+00 1.934271e+00 1.471700e+00 1.643991e+00 1.766991e+00 2.669370e+00 1.378850e+00 1.531985e+00 1.257863e+00 2.316756e+00 1.404668e+00 4.573079e-01
<GCONST> 9.126133e+01
<TRANSP> 5
 0.000000e+00 1.000000e+00 0.000000e+00 0.000000e+00 0.000000e+00
 0.000000e+00 6.000000e-01 4.000000e-01 0.000000e+00 0.000000e+00
 0.000000e+00 0.000000e+00 6.000000e-01 4.000000e-01 0.000000e+00
 0.000000e+00 0.000000e+00 0.000000e+00 7.000000e-01 3.000000e-01
 0.000000e+00 0.000000e+00 0.000000e+00 0.000000e+00 0.000000e+00
<ENDHMM>
~h "ii"
<BEGINHMM>
<NUMSTATES> 5
<STATE> 2
<MEAN> 25
 -4.056572e-08 3.596030e-08 -4.155328e-08 -4.694685e-08 -8.812029e-09 5.127690e-10 -1.876355e-08 3.764104e-08 -2.214402e-08 -2.262830e-08 -3.149256e-08 9.070313e-08 -1.671009e-03 -9.888056e-04 -1.014744e-04 -1.440375e-03 1.885450e-04 -5.582995e-04 -8.621738e-04 1.136265e-03 9.911946e-04 -2.208700e-03 3.016879e-04 2.437875e-03 5.495902e-06
<VARIANCE> 25
 3.722816e+01 1.989225e+01 4.164455e+01 3.264012e+01 2.797222e+01 2.647702e+01 4.038375e+01 1.955802e+01 1.967839e+01 2.163376e+01 3.646047e+01 3.045521e+01 1.746624e+00 1.127324e+00 1.934271e+00 1.471700e+00 1.643991e+00 1.766991e+00 2.669370e+00 1.378850e+00 1.531985e+00 1.257863e+00 2.316756e+00 1.404668e+00 4.573079e-01
<GCONST> 9.126133e+01
<STATE> 3
<MEAN> 25
 -4.056572e-08 3.596030e-08 -4.155328e-08 -4.694685e-08 -8.812029e-09 5.127690e-10 -1.876355e-08 3.764104e-08 -2.214402e-08 -2.262830e-08 -3.149256e-08 9.070313e-08 -1.671009e-03 -9.888056e-04 -1.014744e-04 -1.440375e-03 1.885450e-04 -5.582995e-04 -8.621738e-04 1.136265e-03 9.911946e-04 -2.208700e-03 3.016879e-04 2.437875e-03 5.495902e-06
<VARIANCE> 25
 3.722816e+01 1.989225e+01 4.164455e+01 3.264012e+01 2.797222e+01 2.647702e+01 4.038375e+01 1.955802e+01 1.967839e+01 2.163376e+01 3.646047e+01 3.045521e+01 1.746624e+00 1.127324e+00 1.934271e+00 1.471700e+00 1.643991e+00 1.766991e+00 2.669370e+00 1.378850e+00 1.531985e+00 1.257863e+00 2.316756e+00 1.404668e+00 4.573079e-01
<GCONST> 9.126133e+01
<STATE> 4
<MEAN> 25
 -4.056572e-08 3.596030e-08 -4.155328e-08 -4.694685e-08 -8.812029e-09 5.127690e-10 -1.876355e-08 3.764104e-08 -2.214402e-08 -2.262830e-08 -3.149256e-08 9.070313e-08 -1.671009e-03 -9.888056e-04 -1.014744e-04 -1.440375e-03 1.885450e-04 -5.582995e-04 -8.621738e-04 1.136265e-03 9.911946e-04 -2.208700e-03 3.016879e-04 2.437875e-03 5.495902e-06
<VARIANCE> 25
 3.722816e+01 1.989225e+01 4.164455e+01 3.264012e+01 2.797222e+01 2.647702e+01 4.038375e+01 1.955802e+01 1.967839e+01 2.163376e+01 3.646047e+01 3.045521e+01 1.746624e+00 1.127324e+00 1.934271e+00 1.471700e+00 1.643991e+00 1.766991e+00 2.669370e+00 1.378850e+00 1.531985e+00 1.257863e+00 2.316756e+00 1.404668e+00 4.573079e-01
<GCONST> 9.126133e+01
<TRANSP> 5
 0.000000e+00 1.000000e+00 0.000000e+00 0.000000e+00 0.000000e+00
 0.000000e+00 6.000000e-01 4.000000e-01 0.000000e+00 0.000000e+00
 0.000000e+00 0.000000e+00 6.000000e-01 4.000000e-01 0.000000e+00
 0.000000e+00 0.000000e+00 0.000000e+00 7.000000e-01 3.000000e-01
 0.000000e+00 0.000000e+00 0.000000e+00 0.000000e+00 0.000000e+00
<ENDHMM>
~h "ll"
<BEGINHMM>
<NUMSTATES> 5
<STATE> 2
<MEAN> 25
 -4.056572e-08 3.596030e-08 -4.155328e-08 -4.694685e-08 -8.812029e-09 5.127690e-10 -1.876355e-08 3.764104e-08 -2.214402e-08 -2.262830e-08 -3.149256e-08 9.070313e-08 -1.671009e-03 -9.888056e-04 -1.014744e-04 -1.440375e-03 1.885450e-04 -5.582995e-04 -8.621738e-04 1.136265e-03 9.911946e-04 -2.208700e-03 3.016879e-04 2.437875e-03 5.495902e-06
<VARIANCE> 25
 3.722816e+01 1.989225e+01 4.164455e+01 3.264012e+01 2.797222e+01 2.647702e+01 4.038375e+01 1.955802e+01 1.967839e+01 2.163376e+01 3.646047e+01 3.045521e+01 1.746624e+00 1.127324e+00 1.934271e+00 1.471700e+00 1.643991e+00 1.766991e+00 2.669370e+00 1.378850e+00 1.531985e+00 1.257863e+00 2.316756e+00 1.404668e+00 4.573079e-01
<GCONST> 9.126133e+01
<STATE> 3
<MEAN> 25
 -4.056572e-08 3.596030e-08 -4.155328e-08 -4.694685e-08 -8.812029e-09 5.127690e-10 -1.876355e-08 3.764104e-08 -2.214402e-08 -2.262830e-08 -3.149256e-08 9.070313e-08 -1.671009e-03 -9.888056e-04 -1.014744e-04 -1.440375e-03 1.885450e-04 -5.582995e-04 -8.621738e-04 1.136265e-03 9.911946e-04 -2.208700e-03 3.016879e-04 2.437875e-03 5.495902e-06
<VARIANCE> 25
 3.722816e+01 1.989225e+01 4.164455e+01 3.264012e+01 2.797222e+01 2.647702e+01 4.038375e+01 1.955802e+01 1.967839e+01 2.163376e+01 3.646047e+01 3.045521e+01 1.746624e+00 1.127324e+00 1.934271e+00 1.471700e+00 1.643991e+00 1.766991e+00 2.669370e+00 1.378850e+00 1.531985e+00 1.257863e+00 2.316756e+00 1.404668e+00 4.573079e-01
<GCONST> 9.126133e+01
<STATE> 4
<MEAN> 25
 -4.056572e-08 3.596030e-08 -4.155328e-08 -4.694685e-08 -8.812029e-09 5.127690e-10 -1.876355e-08 3.764104e-08 -2.214402e-08 -2.262830e-08 -3.149256e-08 9.070313e-08 -1.671009e-03 -9.888056e-04 -1.014744e-04 -1.440375e-03 1.885450e-04 -5.582995e-04 -8.621738e-04 1.136265e-03 9.911946e-04 -2.208700e-03 3.016879e-04 2.437875e-03 5.495902e-06
<VARIANCE> 25
 3.722816e+01 1.989225e+01 4.164455e+01 3.264012e+01 2.797222e+01 2.647702e+01 4.038375e+01 1.955802e+01 1.967839e+01 2.163376e+01 3.646047e+01 3.045521e+01 1.746624e+00 1.127324e+00 1.934271e+00 1.471700e+00 1.643991e+00 1.766991e+00 2.669370e+00 1.378850e+00 1.531985e+00 1.257863e+00 2.316756e+00 1.404668e+00 4.573079e-01
<GCONST> 9.126133e+01
<TRANSP> 5
 0.000000e+00 1.000000e+00 0.000000e+00 0.000000e+00 0.000000e+00
 0.000000e+00 6.000000e-01 4.000000e-01 0.000000e+00 0.000000e+00
 0.000000e+00 0.000000e+00 6.000000e-01 4.000000e-01 0.000000e+00
 0.000000e+00 0.000000e+00 0.000000e+00 7.000000e-01 3.000000e-01
 0.000000e+00 0.000000e+00 0.000000e+00 0.000000e+00 0.000000e+00
<ENDHMM>
~h "j"
<BEGINHMM>
<NUMSTATES> 5
<STATE> 2
<MEAN> 25
 -4.056572e-08 3.596030e-08 -4.155328e-08 -4.694685e-08 -8.812029e-09 5.127690e-10 -1.876355e-08 3.764104e-08 -2.214402e-08 -2.262830e-08 -3.149256e-08 9.070313e-08 -1.671009e-03 -9.888056e-04 -1.014744e-04 -1.440375e-03 1.885450e-04 -5.582995e-04 -8.621738e-04 1.136265e-03 9.911946e-04 -2.208700e-03 3.016879e-04 2.437875e-03 5.495902e-06
<VARIANCE> 25
 3.722816e+01 1.989225e+01 4.164455e+01 3.264012e+01 2.797222e+01 2.647702e+01 4.038375e+01 1.955802e+01 1.967839e+01 2.163376e+01 3.646047e+01 3.045521e+01 1.746624e+00 1.127324e+00 1.934271e+00 1.471700e+00 1.643991e+00 1.766991e+00 2.669370e+00 1.378850e+00 1.531985e+00 1.257863e+00 2.316756e+00 1.404668e+00 4.573079e-01
<GCONST> 9.126133e+01
<STATE> 3
<MEAN> 25
 -4.056572e-08 3.596030e-08 -4.155328e-08 -4.694685e-08 -8.812029e-09 5.127690e-10 -1.876355e-08 3.764104e-08 -2.214402e-08 -2.262830e-08 -3.149256e-08 9.070313e-08 -1.671009e-03 -9.888056e-04 -1.014744e-04 -1.440375e-03 1.885450e-04 -5.582995e-04 -8.621738e-04 1.136265e-03 9.911946e-04 -2.208700e-03 3.016879e-04 2.437875e-03 5.495902e-06
<VARIANCE> 25
 3.722816e+01 1.989225e+01 4.164455e+01 3.264012e+01 2.797222e+01 2.647702e+01 4.038375e+01 1.955802e+01 1.967839e+01 2.163376e+01 3.646047e+01 3.045521e+01 1.746624e+00 1.127324e+00 1.934271e+00 1.471700e+00 1.643991e+00 1.766991e+00 2.669370e+00 1.378850e+00 1.531985e+00 1.257863e+00 2.316756e+00 1.404668e+00 4.573079e-01
<GCONST> 9.126133e+01
<STATE> 4
<MEAN> 25
 -4.056572e-08 3.596030e-08 -4.155328e-08 -4.694685e-08 -8.812029e-09 5.127690e-10 -1.876355e-08 3.764104e-08 -2.214402e-08 -2.262830e-08 -3.149256e-08 9.070313e-08 -1.671009e-03 -9.888056e-04 -1.014744e-04 -1.440375e-03 1.885450e-04 -5.582995e-04 -8.621738e-04 1.136265e-03 9.911946e-04 -2.208700e-03 3.016879e-04 2.437875e-03 5.495902e-06
<VARIANCE> 25
 3.722816e+01 1.989225e+01 4.164455e+01 3.264012e+01 2.797222e+01 2.647702e+01 4.038375e+01 1.955802e+01 1.967839e+01 2.163376e+01 3.646047e+01 3.045521e+01 1.746624e+00 1.127324e+00 1.934271e+00 1.471700e+00 1.643991e+00 1.766991e+00 2.669370e+00 1.378850e+00 1.531985e+00 1.257863e+00 2.316756e+00 1.404668e+00 4.573079e-01
<GCONST> 9.126133e+01
<TRANSP> 5
 0.000000e+00 1.000000e+00 0.000000e+00 0.000000e+00 0.000000e+00
 0.000000e+00 6.000000e-01 4.000000e-01 0.000000e+00 0.000000e+00
 0.000000e+00 0.000000e+00 6.000000e-01 4.000000e-01 0.000000e+00
 0.000000e+00 0.000000e+00 0.000000e+00 7.000000e-01 3.000000e-01
 0.000000e+00 0.000000e+00 0.000000e+00 0.000000e+00 0.000000e+00
<ENDHMM>
~h "ee"
<BEGINHMM>
<NUMSTATES> 5
<STATE> 2
<MEAN> 25
 -4.056572e-08 3.596030e-08 -4.155328e-08 -4.694685e-08 -8.812029e-09 5.127690e-10 -1.876355e-08 3.764104e-08 -2.214402e-08 -2.262830e-08 -3.149256e-08 9.070313e-08 -1.671009e-03 -9.888056e-04 -1.014744e-04 -1.440375e-03 1.885450e-04 -5.582995e-04 -8.621738e-04 1.136265e-03 9.911946e-04 -2.208700e-03 3.016879e-04 2.437875e-03 5.495902e-06
<VARIANCE> 25
 3.722816e+01 1.989225e+01 4.164455e+01 3.264012e+01 2.797222e+01 2.647702e+01 4.038375e+01 1.955802e+01 1.967839e+01 2.163376e+01 3.646047e+01 3.045521e+01 1.746624e+00 1.127324e+00 1.934271e+00 1.471700e+00 1.643991e+00 1.766991e+00 2.669370e+00 1.378850e+00 1.531985e+00 1.257863e+00 2.316756e+00 1.404668e+00 4.573079e-01
<GCONST> 9.126133e+01
<STATE> 3
<MEAN> 25
 -4.056572e-08 3.596030e-08 -4.155328e-08 -4.694685e-08 -8.812029e-09 5.127690e-10 -1.876355e-08 3.764104e-08 -2.214402e-08 -2.262830e-08 -3.149256e-08 9.070313e-08 -1.671009e-03 -9.888056e-04 -1.014744e-04 -1.440375e-03 1.885450e-04 -5.582995e-04 -8.621738e-04 1.136265e-03 9.911946e-04 -2.208700e-03 3.016879e-04 2.437875e-03 5.495902e-06
<VARIANCE> 25
 3.722816e+01 1.989225e+01 4.164455e+01 3.264012e+01 2.797222e+01 2.647702e+01 4.038375e+01 1.955802e+01 1.967839e+01 2.163376e+01 3.646047e+01 3.045521e+01 1.746624e+00 1.127324e+00 1.934271e+00 1.471700e+00 1.643991e+00 1.766991e+00 2.669370e+00 1.378850e+00 1.531985e+00 1.257863e+00 2.316756e+00 1.404668e+00 4.573079e-01
<GCONST> 9.126133e+01
<STATE> 4
<MEAN> 25
 -4.056572e-08 3.596030e-08 -4.155328e-08 -4.694685e-08 -8.812029e-09 5.127690e-10 -1.876355e-08 3.764104e-08 -2.214402e-08 -2.262830e-08 -3.149256e-08 9.070313e-08 -1.671009e-03 -9.888056e-04 -1.014744e-04 -1.440375e-03 1.885450e-04 -5.582995e-04 -8.621738e-04 1.136265e-03 9.911946e-04 -2.208700e-03 3.016879e-04 2.437875e-03 5.495902e-06
<VARIANCE> 25
 3.722816e+01 1.989225e+01 4.164455e+01 3.264012e+01 2.797222e+01 2.647702e+01 4.038375e+01 1.955802e+01 1.967839e+01 2.163376e+01 3.646047e+01 3.045521e+01 1.746624e+00 1.127324e+00 1.934271e+00 1.471700e+00 1.643991e+00 1.766991e+00 2.669370e+00 1.378850e+00 1.531985e+00 1.257863e+00 2.316756e+00 1.404668e+00 4.573079e-01
<GCONST> 9.126133e+01
<TRANSP> 5
 0.000000e+00 1.000000e+00 0.000000e+00 0.000000e+00 0.000000e+00
 0.000000e+00 6.000000e-01 4.000000e-01 0.000000e+00 0.000000e+00
 0.000000e+00 0.000000e+00 6.000000e-01 4.000000e-01 0.000000e+00
 0.000000e+00 0.000000e+00 0.000000e+00 7.000000e-01 3.000000e-01
 0.000000e+00 0.000000e+00 0.000000e+00 0.000000e+00 0.000000e+00
<ENDHMM>
~h "mm"
<BEGINHMM>
<NUMSTATES> 5
<STATE> 2
<MEAN> 25
 -4.056572e-08 3.596030e-08 -4.155328e-08 -4.694685e-08 -8.812029e-09 5.127690e-10 -1.876355e-08 3.764104e-08 -2.214402e-08 -2.262830e-08 -3.149256e-08 9.070313e-08 -1.671009e-03 -9.888056e-04 -1.014744e-04 -1.440375e-03 1.885450e-04 -5.582995e-04 -8.621738e-04 1.136265e-03 9.911946e-04 -2.208700e-03 3.016879e-04 2.437875e-03 5.495902e-06
<VARIANCE> 25
 3.722816e+01 1.989225e+01 4.164455e+01 3.264012e+01 2.797222e+01 2.647702e+01 4.038375e+01 1.955802e+01 1.967839e+01 2.163376e+01 3.646047e+01 3.045521e+01 1.746624e+00 1.127324e+00 1.934271e+00 1.471700e+00 1.643991e+00 1.766991e+00 2.669370e+00 1.378850e+00 1.531985e+00 1.257863e+00 2.316756e+00 1.404668e+00 4.573079e-01
<GCONST> 9.126133e+01
<STATE> 3
<MEAN> 25
 -4.056572e-08 3.596030e-08 -4.155328e-08 -4.694685e-08 -8.812029e-09 5.127690e-10 -1.876355e-08 3.764104e-08 -2.214402e-08 -2.262830e-08 -3.149256e-08 9.070313e-08 -1.671009e-03 -9.888056e-04 -1.014744e-04 -1.440375e-03 1.885450e-04 -5.582995e-04 -8.621738e-04 1.136265e-03 9.911946e-04 -2.208700e-03 3.016879e-04 2.437875e-03 5.495902e-06
<VARIANCE> 25
 3.722816e+01 1.989225e+01 4.164455e+01 3.264012e+01 2.797222e+01 2.647702e+01 4.038375e+01 1.955802e+01 1.967839e+01 2.163376e+01 3.646047e+01 3.045521e+01 1.746624e+00 1.127324e+00 1.934271e+00 1.471700e+00 1.643991e+00 1.766991e+00 2.669370e+00 1.378850e+00 1.531985e+00 1.257863e+00 2.316756e+00 1.404668e+00 4.573079e-01
<GCONST> 9.126133e+01
<STATE> 4
<MEAN> 25
 -4.056572e-08 3.596030e-08 -4.155328e-08 -4.694685e-08 -8.812029e-09 5.127690e-10 -1.876355e-08 3.764104e-08 -2.214402e-08 -2.262830e-08 -3.149256e-08 9.070313e-08 -1.671009e-03 -9.888056e-04 -1.014744e-04 -1.440375e-03 1.885450e-04 -5.582995e-04 -8.621738e-04 1.136265e-03 9.911946e-04 -2.208700e-03 3.016879e-04 2.437875e-03 5.495902e-06
<VARIANCE> 25
 3.722816e+01 1.989225e+01 4.164455e+01 3.264012e+01 2.797222e+01 2.647702e+01 4.038375e+01 1.955802e+01 1.967839e+01 2.163376e+01 3.646047e+01 3.045521e+01 1.746624e+00 1.127324e+00 1.934271e+00 1.471700e+00 1.643991e+00 1.766991e+00 2.669370e+00 1.378850e+00 1.531985e+00 1.257863e+00 2.316756e+00 1.404668e+00 4.573079e-01
<GCONST> 9.126133e+01
<TRANSP> 5
 0.000000e+00 1.000000e+00 0.000000e+00 0.000000e+00 0.000000e+00
 0.000000e+00 6.000000e-01 4.000000e-01 0.000000e+00 0.000000e+00
 0.000000e+00 0.000000e+00 6.000000e-01 4.000000e-01 0.000000e+00
 0.000000e+00 0.000000e+00 0.000000e+00 7.000000e-01 3.000000e-01
 0.000000e+00 0.000000e+00 0.000000e+00 0.000000e+00 0.000000e+00
<ENDHMM>
~h "t"
<BEGINHMM>
<NUMSTATES> 5
<STATE> 2
<MEAN> 25
 -4.056572e-08 3.596030e-08 -4.155328e-08 -4.694685e-08 -8.812029e-09 5.127690e-10 -1.876355e-08 3.764104e-08 -2.214402e-08 -2.262830e-08 -3.149256e-08 9.070313e-08 -1.671009e-03 -9.888056e-04 -1.014744e-04 -1.440375e-03 1.885450e-04 -5.582995e-04 -8.621738e-04 1.136265e-03 9.911946e-04 -2.208700e-03 3.016879e-04 2.437875e-03 5.495902e-06
<VARIANCE> 25
 3.722816e+01 1.989225e+01 4.164455e+01 3.264012e+01 2.797222e+01 2.647702e+01 4.038375e+01 1.955802e+01 1.967839e+01 2.163376e+01 3.646047e+01 3.045521e+01 1.746624e+00 1.127324e+00 1.934271e+00 1.471700e+00 1.643991e+00 1.766991e+00 2.669370e+00 1.378850e+00 1.531985e+00 1.257863e+00 2.316756e+00 1.404668e+00 4.573079e-01
<GCONST> 9.126133e+01
<STATE> 3
<MEAN> 25
 -4.056572e-08 3.596030e-08 -4.155328e-08 -4.694685e-08 -8.812029e-09 5.127690e-10 -1.876355e-08 3.764104e-08 -2.214402e-08 -2.262830e-08 -3.149256e-08 9.070313e-08 -1.671009e-03 -9.888056e-04 -1.014744e-04 -1.440375e-03 1.885450e-04 -5.582995e-04 -8.621738e-04 1.136265e-03 9.911946e-04 -2.208700e-03 3.016879e-04 2.437875e-03 5.495902e-06
<VARIANCE> 25
 3.722816e+01 1.989225e+01 4.164455e+01 3.264012e+01 2.797222e+01 2.647702e+01 4.038375e+01 1.955802e+01 1.967839e+01 2.163376e+01 3.646047e+01 3.045521e+01 1.746624e+00 1.127324e+00 1.934271e+00 1.471700e+00 1.643991e+00 1.766991e+00 2.669370e+00 1.378850e+00 1.531985e+00 1.257863e+00 2.316756e+00 1.404668e+00 4.573079e-01
<GCONST> 9.126133e+01
<STATE> 4
<MEAN> 25
 -4.056572e-08 3.596030e-08 -4.155328e-08 -4.694685e-08 -8.812029e-09 5.127690e-10 -1.876355e-08 3.764104e-08 -2.214402e-08 -2.262830e-08 -3.149256e-08 9.070313e-08 -1.671009e-03 -9.888056e-04 -1.014744e-04 -1.440375e-03 1.885450e-04 -5.582995e-04 -8.621738e-04 1.136265e-03 9.911946e-04 -2.208700e-03 3.016879e-04 2.437875e-03 5.495902e-06
<VARIANCE> 25
 3.722816e+01 1.989225e+01 4.164455e+01 3.264012e+01 2.797222e+01 2.647702e+01 4.038375e+01 1.955802e+01 1.967839e+01 2.163376e+01 3.646047e+01 3.045521e+01 1.746624e+00 1.127324e+00 1.934271e+00 1.471700e+00 1.643991e+00 1.766991e+00 2.669370e+00 1.378850e+00 1.531985e+00 1.257863e+00 2.316756e+00 1.404668e+00 4.573079e-01
<GCONST> 9.126133e+01
<TRANSP> 5
 0.000000e+00 1.000000e+00 0.000000e+00 0.000000e+00 0.000000e+00
 0.000000e+00 6.000000e-01 4.000000e-01 0.000000e+00 0.000000e+00
 0.000000e+00 0.000000e+00 6.000000e-01 4.000000e-01 0.000000e+00
 0.000000e+00 0.000000e+00 0.000000e+00 7.000000e-01 3.000000e-01
 0.000000e+00 0.000000e+00 0.000000e+00 0.000000e+00 0.000000e+00
<ENDHMM>
~h "z"
<BEGINHMM>
<NUMSTATES> 5
<STATE> 2
<MEAN> 25
 -4.056572e-08 3.596030e-08 -4.155328e-08 -4.694685e-08 -8.812029e-09 5.127690e-10 -1.876355e-08 3.764104e-08 -2.214402e-08 -2.262830e-08 -3.149256e-08 9.070313e-08 -1.671009e-03 -9.888056e-04 -1.014744e-04 -1.440375e-03 1.885450e-04 -5.582995e-04 -8.621738e-04 1.136265e-03 9.911946e-04 -2.208700e-03 3.016879e-04 2.437875e-03 5.495902e-06
<VARIANCE> 25
 3.722816e+01 1.989225e+01 4.164455e+01 3.264012e+01 2.797222e+01 2.647702e+01 4.038375e+01 1.955802e+01 1.967839e+01 2.163376e+01 3.646047e+01 3.045521e+01 1.746624e+00 1.127324e+00 1.934271e+00 1.471700e+00 1.643991e+00 1.766991e+00 2.669370e+00 1.378850e+00 1.531985e+00 1.257863e+00 2.316756e+00 1.404668e+00 4.573079e-01
<GCONST> 9.126133e+01
<STATE> 3
<MEAN> 25
 -4.056572e-08 3.596030e-08 -4.155328e-08 -4.694685e-08 -8.812029e-09 5.127690e-10 -1.876355e-08 3.764104e-08 -2.214402e-08 -2.262830e-08 -3.149256e-08 9.070313e-08 -1.671009e-03 -9.888056e-04 -1.014744e-04 -1.440375e-03 1.885450e-04 -5.582995e-04 -8.621738e-04 1.136265e-03 9.911946e-04 -2.208700e-03 3.016879e-04 2.437875e-03 5.495902e-06
<VARIANCE> 25
 3.722816e+01 1.989225e+01 4.164455e+01 3.264012e+01 2.797222e+01 2.647702e+01 4.038375e+01 1.955802e+01 1.967839e+01 2.163376e+01 3.646047e+01 3.045521e+01 1.746624e+00 1.127324e+00 1.934271e+00 1.471700e+00 1.643991e+00 1.766991e+00 2.669370e+00 1.378850e+00 1.531985e+00 1.257863e+00 2.316756e+00 1.404668e+00 4.573079e-01
<GCONST> 9.126133e+01
<STATE> 4
<MEAN> 25
 -4.056572e-08 3.596030e-08 -4.155328e-08 -4.694685e-08 -8.812029e-09 5.127690e-10 -1.876355e-08 3.764104e-08 -2.214402e-08 -2.262830e-08 -3.149256e-08 9.070313e-08 -1.671009e-03 -9.888056e-04 -1.014744e-04 -1.440375e-03 1.885450e-04 -5.582995e-04 -8.621738e-04 1.136265e-03 9.911946e-04 -2.208700e-03 3.016879e-04 2.437875e-03 5.495902e-06
<VARIANCE> 25
 3.722816e+01 1.989225e+01 4.164455e+01 3.264012e+01 2.797222e+01 2.647702e+01 4.038375e+01 1.955802e+01 1.967839e+01 2.163376e+01 3.646047e+01 3.045521e+01 1.746624e+00 1.127324e+00 1.934271e+00 1.471700e+00 1.643991e+00 1.766991e+00 2.669370e+00 1.378850e+00 1.531985e+00 1.257863e+00 2.316756e+00 1.404668e+00 4.573079e-01
<GCONST> 9.126133e+01
<TRANSP> 5
 0.000000e+00 1.000000e+00 0.000000e+00 0.000000e+00 0.000000e+00
 0.000000e+00 6.000000e-01 4.000000e-01 0.000000e+00 0.000000e+00
 0.000000e+00 0.000000e+00 6.000000e-01 4.000000e-01 0.000000e+00
 0.000000e+00 0.000000e+00 0.000000e+00 7.000000e-01 3.000000e-01
 0.000000e+00 0.000000e+00 0.000000e+00 0.000000e+00 0.000000e+00
<ENDHMM>
~h "f"
<BEGINHMM>
<NUMSTATES> 5
<STATE> 2
<MEAN> 25
 -4.056572e-08 3.596030e-08 -4.155328e-08 -4.694685e-08 -8.812029e-09 5.127690e-10 -1.876355e-08 3.764104e-08 -2.214402e-08 -2.262830e-08 -3.149256e-08 9.070313e-08 -1.671009e-03 -9.888056e-04 -1.014744e-04 -1.440375e-03 1.885450e-04 -5.582995e-04 -8.621738e-04 1.136265e-03 9.911946e-04 -2.208700e-03 3.016879e-04 2.437875e-03 5.495902e-06
<VARIANCE> 25
 3.722816e+01 1.989225e+01 4.164455e+01 3.264012e+01 2.797222e+01 2.647702e+01 4.038375e+01 1.955802e+01 1.967839e+01 2.163376e+01 3.646047e+01 3.045521e+01 1.746624e+00 1.127324e+00 1.934271e+00 1.471700e+00 1.643991e+00 1.766991e+00 2.669370e+00 1.378850e+00 1.531985e+00 1.257863e+00 2.316756e+00 1.404668e+00 4.573079e-01
<GCONST> 9.126133e+01
<STATE> 3
<MEAN> 25
 -4.056572e-08 3.596030e-08 -4.155328e-08 -4.694685e-08 -8.812029e-09 5.127690e-10 -1.876355e-08 3.764104e-08 -2.214402e-08 -2.262830e-08 -3.149256e-08 9.070313e-08 -1.671009e-03 -9.888056e-04 -1.014744e-04 -1.440375e-03 1.885450e-04 -5.582995e-04 -8.621738e-04 1.136265e-03 9.911946e-04 -2.208700e-03 3.016879e-04 2.437875e-03 5.495902e-06
<VARIANCE> 25
 3.722816e+01 1.989225e+01 4.164455e+01 3.264012e+01 2.797222e+01 2.647702e+01 4.038375e+01 1.955802e+01 1.967839e+01 2.163376e+01 3.646047e+01 3.045521e+01 1.746624e+00 1.127324e+00 1.934271e+00 1.471700e+00 1.643991e+00 1.766991e+00 2.669370e+00 1.378850e+00 1.531985e+00 1.257863e+00 2.316756e+00 1.404668e+00 4.573079e-01
<GCONST> 9.126133e+01
<STATE> 4
<MEAN> 25
 -4.056572e-08 3.596030e-08 -4.155328e-08 -4.694685e-08 -8.812029e-09 5.127690e-10 -1.876355e-08 3.764104e-08 -2.214402e-08 -2.262830e-08 -3.149256e-08 9.070313e-08 -1.671009e-03 -9.888056e-04 -1.014744e-04 -1.440375e-03 1.885450e-04 -5.582995e-04 -8.621738e-04 1.136265e-03 9.911946e-04 -2.208700e-03 3.016879e-04 2.437875e-03 5.495902e-06
<VARIANCE> 25
 3.722816e+01 1.989225e+01 4.164455e+01 3.264012e+01 2.797222e+01 2.647702e+01 4.038375e+01 1.955802e+01 1.967839e+01 2.163376e+01 3.646047e+01 3.045521e+01 1.746624e+00 1.127324e+00 1.934271e+00 1.471700e+00 1.643991e+00 1.766991e+00 2.669370e+00 1.378850e+00 1.531985e+00 1.257863e+00 2.316756e+00 1.404668e+00 4.573079e-01
<GCONST> 9.126133e+01
<TRANSP> 5
 0.000000e+00 1.000000e+00 0.000000e+00 0.000000e+00 0.000000e+00
 0.000000e+00 6.000000e-01 4.000000e-01 0.000000e+00 0.000000e+00
 0.000000e+00 0.000000e+00 6.000000e-01 4.000000e-01 0.000000e+00
 0.000000e+00 0.000000e+00 0.000000e+00 7.000000e-01 3.000000e-01
 0.000000e+00 0.000000e+00 0.000000e+00 0.000000e+00 0.000000e+00
<ENDHMM>
~h "r"
<BEGINHMM>
<NUMSTATES> 5
<STATE> 2
<MEAN> 25
 -4.056572e-08 3.596030e-08 -4.155328e-08 -4.694685e-08 -8.812029e-09 5.127690e-10 -1.876355e-08 3.764104e-08 -2.214402e-08 -2.262830e-08 -3.149256e-08 9.070313e-08 -1.671009e-03 -9.888056e-04 -1.014744e-04 -1.440375e-03 1.885450e-04 -5.582995e-04 -8.621738e-04 1.136265e-03 9.911946e-04 -2.208700e-03 3.016879e-04 2.437875e-03 5.495902e-06
<VARIANCE> 25
 3.722816e+01 1.989225e+01 4.164455e+01 3.264012e+01 2.797222e+01 2.647702e+01 4.038375e+01 1.955802e+01 1.967839e+01 2.163376e+01 3.646047e+01 3.045521e+01 1.746624e+00 1.127324e+00 1.934271e+00 1.471700e+00 1.643991e+00 1.766991e+00 2.669370e+00 1.378850e+00 1.531985e+00 1.257863e+00 2.316756e+00 1.404668e+00 4.573079e-01
<GCONST> 9.126133e+01
<STATE> 3
<MEAN> 25
 -4.056572e-08 3.596030e-08 -4.155328e-08 -4.694685e-08 -8.812029e-09 5.127690e-10 -1.876355e-08 3.764104e-08 -2.214402e-08 -2.262830e-08 -3.149256e-08 9.070313e-08 -1.671009e-03 -9.888056e-04 -1.014744e-04 -1.440375e-03 1.885450e-04 -5.582995e-04 -8.621738e-04 1.136265e-03 9.911946e-04 -2.208700e-03 3.016879e-04 2.437875e-03 5.495902e-06
<VARIANCE> 25
 3.722816e+01 1.989225e+01 4.164455e+01 3.264012e+01 2.797222e+01 2.647702e+01 4.038375e+01 1.955802e+01 1.967839e+01 2.163376e+01 3.646047e+01 3.045521e+01 1.746624e+00 1.127324e+00 1.934271e+00 1.471700e+00 1.643991e+00 1.766991e+00 2.669370e+00 1.378850e+00 1.531985e+00 1.257863e+00 2.316756e+00 1.404668e+00 4.573079e-01
<GCONST> 9.126133e+01
<STATE> 4
<MEAN> 25
 -4.056572e-08 3.596030e-08 -4.155328e-08 -4.694685e-08 -8.812029e-09 5.127690e-10 -1.876355e-08 3.764104e-08 -2.214402e-08 -2.262830e-08 -3.149256e-08 9.070313e-08 -1.671009e-03 -9.888056e-04 -1.014744e-04 -1.440375e-03 1.885450e-04 -5.582995e-04 -8.621738e-04 1.136265e-03 9.911946e-04 -2.208700e-03 3.016879e-04 2.437875e-03 5.495902e-06
<VARIANCE> 25
 3.722816e+01 1.989225e+01 4.164455e+01 3.264012e+01 2.797222e+01 2.647702e+01 4.038375e+01 1.955802e+01 1.967839e+01 2.163376e+01 3.646047e+01 3.045521e+01 1.746624e+00 1.127324e+00 1.934271e+00 1.471700e+00 1.643991e+00 1.766991e+00 2.669370e+00 1.378850e+00 1.531985e+00 1.257863e+00 2.316756e+00 1.404668e+00 4.573079e-01
<GCONST> 9.126133e+01
<TRANSP> 5
 0.000000e+00 1.000000e+00 0.000000e+00 0.000000e+00 0.000000e+00
 0.000000e+00 6.000000e-01 4.000000e-01 0.000000e+00 0.000000e+00
 0.000000e+00 0.000000e+00 6.000000e-01 4.000000e-01 0.000000e+00
 0.000000e+00 0.000000e+00 0.000000e+00 7.000000e-01 3.000000e-01
 0.000000e+00 0.000000e+00 0.000000e+00 0.000000e+00 0.000000e+00
<ENDHMM>
~h "n"
<BEGINHMM>
<NUMSTATES> 5
<STATE> 2
<MEAN> 25
 -4.056572e-08 3.596030e-08 -4.155328e-08 -4.694685e-08 -8.812029e-09 5.127690e-10 -1.876355e-08 3.764104e-08 -2.214402e-08 -2.262830e-08 -3.149256e-08 9.070313e-08 -1.671009e-03 -9.888056e-04 -1.014744e-04 -1.440375e-03 1.885450e-04 -5.582995e-04 -8.621738e-04 1.136265e-03 9.911946e-04 -2.208700e-03 3.016879e-04 2.437875e-03 5.495902e-06
<VARIANCE> 25
 3.722816e+01 1.989225e+01 4.164455e+01 3.264012e+01 2.797222e+01 2.647702e+01 4.038375e+01 1.955802e+01 1.967839e+01 2.163376e+01 3.646047e+01 3.045521e+01 1.746624e+00 1.127324e+00 1.934271e+00 1.471700e+00 1.643991e+00 1.766991e+00 2.669370e+00 1.378850e+00 1.531985e+00 1.257863e+00 2.316756e+00 1.404668e+00 4.573079e-01
<GCONST> 9.126133e+01
<STATE> 3
<MEAN> 25
 -4.056572e-08 3.596030e-08 -4.155328e-08 -4.694685e-08 -8.812029e-09 5.127690e-10 -1.876355e-08 3.764104e-08 -2.214402e-08 -2.262830e-08 -3.149256e-08 9.070313e-08 -1.671009e-03 -9.888056e-04 -1.014744e-04 -1.440375e-03 1.885450e-04 -5.582995e-04 -8.621738e-04 1.136265e-03 9.911946e-04 -2.208700e-03 3.016879e-04 2.437875e-03 5.495902e-06
<VARIANCE> 25
 3.722816e+01 1.989225e+01 4.164455e+01 3.264012e+01 2.797222e+01 2.647702e+01 4.038375e+01 1.955802e+01 1.967839e+01 2.163376e+01 3.646047e+01 3.045521e+01 1.746624e+00 1.127324e+00 1.934271e+00 1.471700e+00 1.643991e+00 1.766991e+00 2.669370e+00 1.378850e+00 1.531985e+00 1.257863e+00 2.316756e+00 1.404668e+00 4.573079e-01
<GCONST> 9.126133e+01
<STATE> 4
<MEAN> 25
 -4.056572e-08 3.596030e-08 -4.155328e-08 -4.694685e-08 -8.812029e-09 5.127690e-10 -1.876355e-08 3.764104e-08 -2.214402e-08 -2.262830e-08 -3.149256e-08 9.070313e-08 -1.671009e-03 -9.888056e-04 -1.014744e-04 -1.440375e-03 1.885450e-04 -5.582995e-04 -8.621738e-04 1.136265e-03 9.911946e-04 -2.208700e-03 3.016879e-04 2.437875e-03 5.495902e-06
<VARIANCE> 25
 3.722816e+01 1.989225e+01 4.164455e+01 3.264012e+01 2.797222e+01 2.647702e+01 4.038375e+01 1.955802e+01 1.967839e+01 2.163376e+01 3.646047e+01 3.045521e+01 1.746624e+00 1.127324e+00 1.934271e+00 1.471700e+00 1.643991e+00 1.766991e+00 2.669370e+00 1.378850e+00 1.531985e+00 1.257863e+00 2.316756e+00 1.404668e+00 4.573079e-01
<GCONST> 9.126133e+01
<TRANSP> 5
 0.000000e+00 1.000000e+00 0.000000e+00 0.000000e+00 0.000000e+00
 0.000000e+00 6.000000e-01 4.000000e-01 0.000000e+00 0.000000e+00
 0.000000e+00 0.000000e+00 6.000000e-01 4.000000e-01 0.000000e+00
 0.000000e+00 0.000000e+00 0.000000e+00 7.000000e-01 3.000000e-01
 0.000000e+00 0.000000e+00 0.000000e+00 0.000000e+00 0.000000e+00
<ENDHMM>
~h "oo"
<BEGINHMM>
<NUMSTATES> 5
<STATE> 2
<MEAN> 25
 -4.056572e-08 3.596030e-08 -4.155328e-08 -4.694685e-08 -8.812029e-09 5.127690e-10 -1.876355e-08 3.764104e-08 -2.214402e-08 -2.262830e-08 -3.149256e-08 9.070313e-08 -1.671009e-03 -9.888056e-04 -1.014744e-04 -1.440375e-03 1.885450e-04 -5.582995e-04 -8.621738e-04 1.136265e-03 9.911946e-04 -2.208700e-03 3.016879e-04 2.437875e-03 5.495902e-06
<VARIANCE> 25
 3.722816e+01 1.989225e+01 4.164455e+01 3.264012e+01 2.797222e+01 2.647702e+01 4.038375e+01 1.955802e+01 1.967839e+01 2.163376e+01 3.646047e+01 3.045521e+01 1.746624e+00 1.127324e+00 1.934271e+00 1.471700e+00 1.643991e+00 1.766991e+00 2.669370e+00 1.378850e+00 1.531985e+00 1.257863e+00 2.316756e+00 1.404668e+00 4.573079e-01
<GCONST> 9.126133e+01
<STATE> 3
<MEAN> 25
 -4.056572e-08 3.596030e-08 -4.155328e-08 -4.694685e-08 -8.812029e-09 5.127690e-10 -1.876355e-08 3.764104e-08 -2.214402e-08 -2.262830e-08 -3.149256e-08 9.070313e-08 -1.671009e-03 -9.888056e-04 -1.014744e-04 -1.440375e-03 1.885450e-04 -5.582995e-04 -8.621738e-04 1.136265e-03 9.911946e-04 -2.208700e-03 3.016879e-04 2.437875e-03 5.495902e-06
<VARIANCE> 25
 3.722816e+01 1.989225e+01 4.164455e+01 3.264012e+01 2.797222e+01 2.647702e+01 4.038375e+01 1.955802e+01 1.967839e+01 2.163376e+01 3.646047e+01 3.045521e+01 1.746624e+00 1.127324e+00 1.934271e+00 1.471700e+00 1.643991e+00 1.766991e+00 2.669370e+00 1.378850e+00 1.531985e+00 1.257863e+00 2.316756e+00 1.404668e+00 4.573079e-01
<GCONST> 9.126133e+01
<STATE> 4
<MEAN> 25
 -4.056572e-08 3.596030e-08 -4.155328e-08 -4.694685e-08 -8.812029e-09 5.127690e-10 -1.876355e-08 3.764104e-08 -2.214402e-08 -2.262830e-08 -3.149256e-08 9.070313e-08 -1.671009e-03 -9.888056e-04 -1.014744e-04 -1.440375e-03 1.885450e-04 -5.582995e-04 -8.621738e-04 1.136265e-03 9.911946e-04 -2.208700e-03 3.016879e-04 2.437875e-03 5.495902e-06
<VARIANCE> 25
 3.722816e+01 1.989225e+01 4.164455e+01 3.264012e+01 2.797222e+01 2.647702e+01 4.038375e+01 1.955802e+01 1.967839e+01 2.163376e+01 3.646047e+01 3.045521e+01 1.746624e+00 1.127324e+00 1.934271e+00 1.471700e+00 1.643991e+00 1.766991e+00 2.669370e+00 1.378850e+00 1.531985e+00 1.257863e+00 2.316756e+00 1.404668e+00 4.573079e-01
<GCONST> 9.126133e+01
<TRANSP> 5
 0.000000e+00 1.000000e+00 0.000000e+00 0.000000e+00 0.000000e+00
 0.000000e+00 6.000000e-01 4.000000e-01 0.000000e+00 0.000000e+00
 0.000000e+00 0.000000e+00 6.000000e-01 4.000000e-01 0.000000e+00
 0.000000e+00 0.000000e+00 0.000000e+00 7.000000e-01 3.000000e-01
 0.000000e+00 0.000000e+00 0.000000e+00 0.000000e+00 0.000000e+00
<ENDHMM>
~h "ay"
<BEGINHMM>
<NUMSTATES> 5
<STATE> 2
<MEAN> 25
 -4.056572e-08 3.596030e-08 -4.155328e-08 -4.694685e-08 -8.812029e-09 5.127690e-10 -1.876355e-08 3.764104e-08 -2.214402e-08 -2.262830e-08 -3.149256e-08 9.070313e-08 -1.671009e-03 -9.888056e-04 -1.014744e-04 -1.440375e-03 1.885450e-04 -5.582995e-04 -8.621738e-04 1.136265e-03 9.911946e-04 -2.208700e-03 3.016879e-04 2.437875e-03 5.495902e-06
<VARIANCE> 25
 3.722816e+01 1.989225e+01 4.164455e+01 3.264012e+01 2.797222e+01 2.647702e+01 4.038375e+01 1.955802e+01 1.967839e+01 2.163376e+01 3.646047e+01 3.045521e+01 1.746624e+00 1.127324e+00 1.934271e+00 1.471700e+00 1.643991e+00 1.766991e+00 2.669370e+00 1.378850e+00 1.531985e+00 1.257863e+00 2.316756e+00 1.404668e+00 4.573079e-01
<GCONST> 9.126133e+01
<STATE> 3
<MEAN> 25
 -4.056572e-08 3.596030e-08 -4.155328e-08 -4.694685e-08 -8.812029e-09 5.127690e-10 -1.876355e-08 3.764104e-08 -2.214402e-08 -2.262830e-08 -3.149256e-08 9.070313e-08 -1.671009e-03 -9.888056e-04 -1.014744e-04 -1.440375e-03 1.885450e-04 -5.582995e-04 -8.621738e-04 1.136265e-03 9.911946e-04 -2.208700e-03 3.016879e-04 2.437875e-03 5.495902e-06
<VARIANCE> 25
 3.722816e+01 1.989225e+01 4.164455e+01 3.264012e+01 2.797222e+01 2.647702e+01 4.038375e+01 1.955802e+01 1.967839e+01 2.163376e+01 3.646047e+01 3.045521e+01 1.746624e+00 1.127324e+00 1.934271e+00 1.471700e+00 1.643991e+00 1.766991e+00 2.669370e+00 1.378850e+00 1.531985e+00 1.257863e+00 2.316756e+00 1.404668e+00 4.573079e-01
<GCONST> 9.126133e+01
<STATE> 4
<MEAN> 25
 -4.056572e-08 3.596030e-08 -4.155328e-08 -4.694685e-08 -8.812029e-09 5.127690e-10 -1.876355e-08 3.764104e-08 -2.214402e-08 -2.262830e-08 -3.149256e-08 9.070313e-08 -1.671009e-03 -9.888056e-04 -1.014744e-04 -1.440375e-03 1.885450e-04 -5.582995e-04 -8.621738e-04 1.136265e-03 9.911946e-04 -2.208700e-03 3.016879e-04 2.437875e-03 5.495902e-06
<VARIANCE> 25
 3.722816e+01 1.989225e+01 4.164455e+01 3.264012e+01 2.797222e+01 2.647702e+01 4.038375e+01 1.955802e+01 1.967839e+01 2.163376e+01 3.646047e+01 3.045521e+01 1.746624e+00 1.127324e+00 1.934271e+00 1.471700e+00 1.643991e+00 1.766991e+00 2.669370e+00 1.378850e+00 1.531985e+00 1.257863e+00 2.316756e+00 1.404668e+00 4.573079e-01
<GCONST> 9.126133e+01
<TRANSP> 5
 0.000000e+00 1.000000e+00 0.000000e+00 0.000000e+00 0.000000e+00
 0.000000e+00 6.000000e-01 4.000000e-01 0.000000e+00 0.000000e+00
 0.000000e+00 0.000000e+00 6.000000e-01 4.000000e-01 0.000000e+00
 0.000000e+00 0.000000e+00 0.000000e+00 7.000000e-01 3.000000e-01
 0.000000e+00 0.000000e+00 0.000000e+00 0.000000e+00 0.000000e+00
<ENDHMM>
~h "tt"
<BEGINHMM>
<NUMSTATES> 5
<STATE> 2
<MEAN> 25
 -4.056572e-08 3.596030e-08 -4.155328e-08 -4.694685e-08 -8.812029e-09 5.127690e-10 -1.876355e-08 3.764104e-08 -2.214402e-08 -2.262830e-08 -3.149256e-08 9.070313e-08 -1.671009e-03 -9.888056e-04 -1.014744e-04 -1.440375e-03 1.885450e-04 -5.582995e-04 -8.621738e-04 1.136265e-03 9.911946e-04 -2.208700e-03 3.016879e-04 2.437875e-03 5.495902e-06
<VARIANCE> 25
 3.722816e+01 1.989225e+01 4.164455e+01 3.264012e+01 2.797222e+01 2.647702e+01 4.038375e+01 1.955802e+01 1.967839e+01 2.163376e+01 3.646047e+01 3.045521e+01 1.746624e+00 1.127324e+00 1.934271e+00 1.471700e+00 1.643991e+00 1.766991e+00 2.669370e+00 1.378850e+00 1.531985e+00 1.257863e+00 2.316756e+00 1.404668e+00 4.573079e-01
<GCONST> 9.126133e+01
<STATE> 3
<MEAN> 25
 -4.056572e-08 3.596030e-08 -4.155328e-08 -4.694685e-08 -8.812029e-09 5.127690e-10 -1.876355e-08 3.764104e-08 -2.214402e-08 -2.262830e-08 -3.149256e-08 9.070313e-08 -1.671009e-03 -9.888056e-04 -1.014744e-04 -1.440375e-03 1.885450e-04 -5.582995e-04 -8.621738e-04 1.136265e-03 9.911946e-04 -2.208700e-03 3.016879e-04 2.437875e-03 5.495902e-06
<VARIANCE> 25
 3.722816e+01 1.989225e+01 4.164455e+01 3.264012e+01 2.797222e+01 2.647702e+01 4.038375e+01 1.955802e+01 1.967839e+01 2.163376e+01 3.646047e+01 3.045521e+01 1.746624e+00 1.127324e+00 1.934271e+00 1.471700e+00 1.643991e+00 1.766991e+00 2.669370e+00 1.378850e+00 1.531985e+00 1.257863e+00 2.316756e+00 1.404668e+00 4.573079e-01
<GCONST> 9.126133e+01
<STATE> 4
<MEAN> 25
 -4.056572e-08 3.596030e-08 -4.155328e-08 -4.694685e-08 -8.812029e-09 5.127690e-10 -1.876355e-08 3.764104e-08 -2.214402e-08 -2.262830e-08 -3.149256e-08 9.070313e-08 -1.671009e-03 -9.888056e-04 -1.014744e-04 -1.440375e-03 1.885450e-04 -5.582995e-04 -8.621738e-04 1.136265e-03 9.911946e-04 -2.208700e-03 3.016879e-04 2.437875e-03 5.495902e-06
<VARIANCE> 25
 3.722816e+01 1.989225e+01 4.164455e+01 3.264012e+01 2.797222e+01 2.647702e+01 4.038375e+01 1.955802e+01 1.967839e+01 2.163376e+01 3.646047e+01 3.045521e+01 1.746624e+00 1.127324e+00 1.934271e+00 1.471700e+00 1.643991e+00 1.766991e+00 2.669370e+00 1.378850e+00 1.531985e+00 1.257863e+00 2.316756e+00 1.404668e+00 4.573079e-01
<GCONST> 9.126133e+01
<TRANSP> 5
 0.000000e+00 1.000000e+00 0.000000e+00 0.000000e+00 0.000000e+00
 0.000000e+00 6.000000e-01 4.000000e-01 0.000000e+00 0.000000e+00
 0.000000e+00 0.000000e+00 6.000000e-01 4.000000e-01 0.000000e+00
 0.000000e+00 0.000000e+00 0.000000e+00 7.000000e-01 3.000000e-01
 0.000000e+00 0.000000e+00 0.000000e+00 0.000000e+00 0.000000e+00
<ENDHMM>
~h "i"
<BEGINHMM>
<NUMSTATES> 5
<STATE> 2
<MEAN> 25
 -4.056572e-08 3.596030e-08 -4.155328e-08 -4.694685e-08 -8.812029e-09 5.127690e-10 -1.876355e-08 3.764104e-08 -2.214402e-08 -2.262830e-08 -3.149256e-08 9.070313e-08 -1.671009e-03 -9.888056e-04 -1.014744e-04 -1.440375e-03 1.885450e-04 -5.582995e-04 -8.621738e-04 1.136265e-03 9.911946e-04 -2.208700e-03 3.016879e-04 2.437875e-03 5.495902e-06
<VARIANCE> 25
 3.722816e+01 1.989225e+01 4.164455e+01 3.264012e+01 2.797222e+01 2.647702e+01 4.038375e+01 1.955802e+01 1.967839e+01 2.163376e+01 3.646047e+01 3.045521e+01 1.746624e+00 1.127324e+00 1.934271e+00 1.471700e+00 1.643991e+00 1.766991e+00 2.669370e+00 1.378850e+00 1.531985e+00 1.257863e+00 2.316756e+00 1.404668e+00 4.573079e-01
<GCONST> 9.126133e+01
<STATE> 3
<MEAN> 25
 -4.056572e-08 3.596030e-08 -4.155328e-08 -4.694685e-08 -8.812029e-09 5.127690e-10 -1.876355e-08 3.764104e-08 -2.214402e-08 -2.262830e-08 -3.149256e-08 9.070313e-08 -1.671009e-03 -9.888056e-04 -1.014744e-04 -1.440375e-03 1.885450e-04 -5.582995e-04 -8.621738e-04 1.136265e-03 9.911946e-04 -2.208700e-03 3.016879e-04 2.437875e-03 5.495902e-06
<VARIANCE> 25
 3.722816e+01 1.989225e+01 4.164455e+01 3.264012e+01 2.797222e+01 2.647702e+01 4.038375e+01 1.955802e+01 1.967839e+01 2.163376e+01 3.646047e+01 3.045521e+01 1.746624e+00 1.127324e+00 1.934271e+00 1.471700e+00 1.643991e+00 1.766991e+00 2.669370e+00 1.378850e+00 1.531985e+00 1.257863e+00 2.316756e+00 1.404668e+00 4.573079e-01
<GCONST> 9.126133e+01
<STATE> 4
<MEAN> 25
 -4.056572e-08 3.596030e-08 -4.155328e-08 -4.694685e-08 -8.812029e-09 5.127690e-10 -1.876355e-08 3.764104e-08 -2.214402e-08 -2.262830e-08 -3.149256e-08 9.070313e-08 -1.671009e-03 -9.888056e-04 -1.014744e-04 -1.440375e-03 1.885450e-04 -5.582995e-04 -8.621738e-04 1.136265e-03 9.911946e-04 -2.208700e-03 3.016879e-04 2.437875e-03 5.495902e-06
<VARIANCE> 25
 3.722816e+01 1.989225e+01 4.164455e+01 3.264012e+01 2.797222e+01 2.647702e+01 4.038375e+01 1.955802e+01 1.967839e+01 2.163376e+01 3.646047e+01 3.045521e+01 1.746624e+00 1.127324e+00 1.934271e+00 1.471700e+00 1.643991e+00 1.766991e+00 2.669370e+00 1.378850e+00 1.531985e+00 1.257863e+00 2.316756e+00 1.404668e+00 4.573079e-01
<GCONST> 9.126133e+01
<TRANSP> 5
 0.000000e+00 1.000000e+00 0.000000e+00 0.000000e+00 0.000000e+00
 0.000000e+00 6.000000e-01 4.000000e-01 0.000000e+00 0.000000e+00
 0.000000e+00 0.000000e+00 6.000000e-01 4.000000e-01 0.000000e+00
 0.000000e+00 0.000000e+00 0.000000e+00 7.000000e-01 3.000000e-01
 0.000000e+00 0.000000e+00 0.000000e+00 0.000000e+00 0.000000e+00
<ENDHMM>
~h "p"
<BEGINHMM>
<NUMSTATES> 5
<STATE> 2
<MEAN> 25
 -4.056572e-08 3.596030e-08 -4.155328e-08 -4.694685e-08 -8.812029e-09 5.127690e-10 -1.876355e-08 3.764104e-08 -2.214402e-08 -2.262830e-08 -3.149256e-08 9.070313e-08 -1.671009e-03 -9.888056e-04 -1.014744e-04 -1.440375e-03 1.885450e-04 -5.582995e-04 -8.621738e-04 1.136265e-03 9.911946e-04 -2.208700e-03 3.016879e-04 2.437875e-03 5.495902e-06
<VARIANCE> 25
 3.722816e+01 1.989225e+01 4.164455e+01 3.264012e+01 2.797222e+01 2.647702e+01 4.038375e+01 1.955802e+01 1.967839e+01 2.163376e+01 3.646047e+01 3.045521e+01 1.746624e+00 1.127324e+00 1.934271e+00 1.471700e+00 1.643991e+00 1.766991e+00 2.669370e+00 1.378850e+00 1.531985e+00 1.257863e+00 2.316756e+00 1.404668e+00 4.573079e-01
<GCONST> 9.126133e+01
<STATE> 3
<MEAN> 25
 -4.056572e-08 3.596030e-08 -4.155328e-08 -4.694685e-08 -8.812029e-09 5.127690e-10 -1.876355e-08 3.764104e-08 -2.214402e-08 -2.262830e-08 -3.149256e-08 9.070313e-08 -1.671009e-03 -9.888056e-04 -1.014744e-04 -1.440375e-03 1.885450e-04 -5.582995e-04 -8.621738e-04 1.136265e-03 9.911946e-04 -2.208700e-03 3.016879e-04 2.437875e-03 5.495902e-06
<VARIANCE> 25
 3.722816e+01 1.989225e+01 4.164455e+01 3.264012e+01 2.797222e+01 2.647702e+01 4.038375e+01 1.955802e+01 1.967839e+01 2.163376e+01 3.646047e+01 3.045521e+01 1.746624e+00 1.127324e+00 1.934271e+00 1.471700e+00 1.643991e+00 1.766991e+00 2.669370e+00 1.378850e+00 1.531985e+00 1.257863e+00 2.316756e+00 1.404668e+00 4.573079e-01
<GCONST> 9.126133e+01
<STATE> 4
<MEAN> 25
 -4.056572e-08 3.596030e-08 -4.155328e-08 -4.694685e-08 -8.812029e-09 5.127690e-10 -1.876355e-08 3.764104e-08 -2.214402e-08 -2.262830e-08 -3.149256e-08 9.070313e-08 -1.671009e-03 -9.888056e-04 -1.014744e-04 -1.440375e-03 1.885450e-04 -5.582995e-04 -8.621738e-04 1.136265e-03 9.911946e-04 -2.208700e-03 3.016879e-04 2.437875e-03 5.495902e-06
<VARIANCE> 25
 3.722816e+01 1.989225e+01 4.164455e+01 3.264012e+01 2.797222e+01 2.647702e+01 4.038375e+01 1.955802e+01 1.967839e+01 2.163376e+01 3.646047e+01 3.045521e+01 1.746624e+00 1.127324e+00 1.934271e+00 1.471700e+00 1.643991e+00 1.766991e+00 2.669370e+00 1.378850e+00 1.531985e+00 1.257863e+00 2.316756e+00 1.404668e+00 4.573079e-01
<GCONST> 9.126133e+01
<TRANSP> 5
 0.000000e+00 1.000000e+00 0.000000e+00 0.000000e+00 0.000000e+00
 0.000000e+00 6.000000e-01 4.000000e-01 0.000000e+00 0.000000e+00
 0.000000e+00 0.000000e+00 6.000000e-01 4.000000e-01 0.000000e+00
 0.000000e+00 0.000000e+00 0.000000e+00 7.000000e-01 3.000000e-01
 0.000000e+00 0.000000e+00 0.000000e+00 0.000000e+00 0.000000e+00
<ENDHMM>
~h "g"
<BEGINHMM>
<NUMSTATES> 5
<STATE> 2
<MEAN> 25
 -4.056572e-08 3.596030e-08 -4.155328e-08 -4.694685e-08 -8.812029e-09 5.127690e-10 -1.876355e-08 3.764104e-08 -2.214402e-08 -2.262830e-08 -3.149256e-08 9.070313e-08 -1.671009e-03 -9.888056e-04 -1.014744e-04 -1.440375e-03 1.885450e-04 -5.582995e-04 -8.621738e-04 1.136265e-03 9.911946e-04 -2.208700e-03 3.016879e-04 2.437875e-03 5.495902e-06
<VARIANCE> 25
 3.722816e+01 1.989225e+01 4.164455e+01 3.264012e+01 2.797222e+01 2.647702e+01 4.038375e+01 1.955802e+01 1.967839e+01 2.163376e+01 3.646047e+01 3.045521e+01 1.746624e+00 1.127324e+00 1.934271e+00 1.471700e+00 1.643991e+00 1.766991e+00 2.669370e+00 1.378850e+00 1.531985e+00 1.257863e+00 2.316756e+00 1.404668e+00 4.573079e-01
<GCONST> 9.126133e+01
<STATE> 3
<MEAN> 25
 -4.056572e-08 3.596030e-08 -4.155328e-08 -4.694685e-08 -8.812029e-09 5.127690e-10 -1.876355e-08 3.764104e-08 -2.214402e-08 -2.262830e-08 -3.149256e-08 9.070313e-08 -1.671009e-03 -9.888056e-04 -1.014744e-04 -1.440375e-03 1.885450e-04 -5.582995e-04 -8.621738e-04 1.136265e-03 9.911946e-04 -2.208700e-03 3.016879e-04 2.437875e-03 5.495902e-06
<VARIANCE> 25
 3.722816e+01 1.989225e+01 4.164455e+01 3.264012e+01 2.797222e+01 2.647702e+01 4.038375e+01 1.955802e+01 1.967839e+01 2.163376e+01 3.646047e+01 3.045521e+01 1.746624e+00 1.127324e+00 1.934271e+00 1.471700e+00 1.643991e+00 1.766991e+00 2.669370e+00 1.378850e+00 1.531985e+00 1.257863e+00 2.316756e+00 1.404668e+00 4.573079e-01
<GCONST> 9.126133e+01
<STATE> 4
<MEAN> 25
 -4.056572e-08 3.596030e-08 -4.155328e-08 -4.694685e-08 -8.812029e-09 5.127690e-10 -1.876355e-08 3.764104e-08 -2.214402e-08 -2.262830e-08 -3.149256e-08 9.070313e-08 -1.671009e-03 -9.888056e-04 -1.014744e-04 -1.440375e-03 1.885450e-04 -5.582995e-04 -8.621738e-04 1.136265e-03 9.911946e-04 -2.208700e-03 3.016879e-04 2.437875e-03 5.495902e-06
<VARIANCE> 25
 3.722816e+01 1.989225e+01 4.164455e+01 3.264012e+01 2.797222e+01 2.647702e+01 4.038375e+01 1.955802e+01 1.967839e+01 2.163376e+01 3.646047e+01 3.045521e+01 1.746624e+00 1.127324e+00 1.934271e+00 1.471700e+00 1.643991e+00 1.766991e+00 2.669370e+00 1.378850e+00 1.531985e+00 1.257863e+00 2.316756e+00 1.404668e+00 4.573079e-01
<GCONST> 9.126133e+01
<TRANSP> 5
 0.000000e+00 1.000000e+00 0.000000e+00 0.000000e+00 0.000000e+00
 0.000000e+00 6.000000e-01 4.000000e-01 0.000000e+00 0.000000e+00
 0.000000e+00 0.000000e+00 6.000000e-01 4.000000e-01 0.000000e+00
 0.000000e+00 0.000000e+00 0.000000e+00 7.000000e-01 3.000000e-01
 0.000000e+00 0.000000e+00 0.000000e+00 0.000000e+00 0.000000e+00
<ENDHMM>
~h "m"
<BEGINHMM>
<NUMSTATES> 5
<STATE> 2
<MEAN> 25
 -4.056572e-08 3.596030e-08 -4.155328e-08 -4.694685e-08 -8.812029e-09 5.127690e-10 -1.876355e-08 3.764104e-08 -2.214402e-08 -2.262830e-08 -3.149256e-08 9.070313e-08 -1.671009e-03 -9.888056e-04 -1.014744e-04 -1.440375e-03 1.885450e-04 -5.582995e-04 -8.621738e-04 1.136265e-03 9.911946e-04 -2.208700e-03 3.016879e-04 2.437875e-03 5.495902e-06
<VARIANCE> 25
 3.722816e+01 1.989225e+01 4.164455e+01 3.264012e+01 2.797222e+01 2.647702e+01 4.038375e+01 1.955802e+01 1.967839e+01 2.163376e+01 3.646047e+01 3.045521e+01 1.746624e+00 1.127324e+00 1.934271e+00 1.471700e+00 1.643991e+00 1.766991e+00 2.669370e+00 1.378850e+00 1.531985e+00 1.257863e+00 2.316756e+00 1.404668e+00 4.573079e-01
<GCONST> 9.126133e+01
<STATE> 3
<MEAN> 25
 -4.056572e-08 3.596030e-08 -4.155328e-08 -4.694685e-08 -8.812029e-09 5.127690e-10 -1.876355e-08 3.764104e-08 -2.214402e-08 -2.262830e-08 -3.149256e-08 9.070313e-08 -1.671009e-03 -9.888056e-04 -1.014744e-04 -1.440375e-03 1.885450e-04 -5.582995e-04 -8.621738e-04 1.136265e-03 9.911946e-04 -2.208700e-03 3.016879e-04 2.437875e-03 5.495902e-06
<VARIANCE> 25
 3.722816e+01 1.989225e+01 4.164455e+01 3.264012e+01 2.797222e+01 2.647702e+01 4.038375e+01 1.955802e+01 1.967839e+01 2.163376e+01 3.646047e+01 3.045521e+01 1.746624e+00 1.127324e+00 1.934271e+00 1.471700e+00 1.643991e+00 1.766991e+00 2.669370e+00 1.378850e+00 1.531985e+00 1.257863e+00 2.316756e+00 1.404668e+00 4.573079e-01
<GCONST> 9.126133e+01
<STATE> 4
<MEAN> 25
 -4.056572e-08 3.596030e-08 -4.155328e-08 -4.694685e-08 -8.812029e-09 5.127690e-10 -1.876355e-08 3.764104e-08 -2.214402e-08 -2.262830e-08 -3.149256e-08 9.070313e-08 -1.671009e-03 -9.888056e-04 -1.014744e-04 -1.440375e-03 1.885450e-04 -5.582995e-04 -8.621738e-04 1.136265e-03 9.911946e-04 -2.208700e-03 3.016879e-04 2.437875e-03 5.495902e-06
<VARIANCE> 25
 3.722816e+01 1.989225e+01 4.164455e+01 3.264012e+01 2.797222e+01 2.647702e+01 4.038375e+01 1.955802e+01 1.967839e+01 2.163376e+01 3.646047e+01 3.045521e+01 1.746624e+00 1.127324e+00 1.934271e+00 1.471700e+00 1.643991e+00 1.766991e+00 2.669370e+00 1.378850e+00 1.531985e+00 1.257863e+00 2.316756e+00 1.404668e+00 4.573079e-01
<GCONST> 9.126133e+01
<TRANSP> 5
 0.000000e+00 1.000000e+00 0.000000e+00 0.000000e+00 0.000000e+00
 0.000000e+00 6.000000e-01 4.000000e-01 0.000000e+00 0.000000e+00
 0.000000e+00 0.000000e+00 6.000000e-01 4.000000e-01 0.000000e+00
 0.000000e+00 0.000000e+00 0.000000e+00 7.000000e-01 3.000000e-01
 0.000000e+00 0.000000e+00 0.000000e+00 0.000000e+00 0.000000e+00
<ENDHMM>
~h "ch"
<BEGINHMM>
<NUMSTATES> 5
<STATE> 2
<MEAN> 25
 -4.056572e-08 3.596030e-08 -4.155328e-08 -4.694685e-08 -8.812029e-09 5.127690e-10 -1.876355e-08 3.764104e-08 -2.214402e-08 -2.262830e-08 -3.149256e-08 9.070313e-08 -1.671009e-03 -9.888056e-04 -1.014744e-04 -1.440375e-03 1.885450e-04 -5.582995e-04 -8.621738e-04 1.136265e-03 9.911946e-04 -2.208700e-03 3.016879e-04 2.437875e-03 5.495902e-06
<VARIANCE> 25
 3.722816e+01 1.989225e+01 4.164455e+01 3.264012e+01 2.797222e+01 2.647702e+01 4.038375e+01 1.955802e+01 1.967839e+01 2.163376e+01 3.646047e+01 3.045521e+01 1.746624e+00 1.127324e+00 1.934271e+00 1.471700e+00 1.643991e+00 1.766991e+00 2.669370e+00 1.378850e+00 1.531985e+00 1.257863e+00 2.316756e+00 1.404668e+00 4.573079e-01
<GCONST> 9.126133e+01
<STATE> 3
<MEAN> 25
 -4.056572e-08 3.596030e-08 -4.155328e-08 -4.694685e-08 -8.812029e-09 5.127690e-10 -1.876355e-08 3.764104e-08 -2.214402e-08 -2.262830e-08 -3.149256e-08 9.070313e-08 -1.671009e-03 -9.888056e-04 -1.014744e-04 -1.440375e-03 1.885450e-04 -5.582995e-04 -8.621738e-04 1.136265e-03 9.911946e-04 -2.208700e-03 3.016879e-04 2.437875e-03 5.495902e-06
<VARIANCE> 25
 3.722816e+01 1.989225e+01 4.164455e+01 3.264012e+01 2.797222e+01 2.647702e+01 4.038375e+01 1.955802e+01 1.967839e+01 2.163376e+01 3.646047e+01 3.045521e+01 1.746624e+00 1.127324e+00 1.934271e+00 1.471700e+00 1.643991e+00 1.766991e+00 2.669370e+00 1.378850e+00 1.531985e+00 1.257863e+00 2.316756e+00 1.404668e+00 4.573079e-01
<GCONST> 9.126133e+01
<STATE> 4
<MEAN> 25
 -4.056572e-08 3.596030e-08 -4.155328e-08 -4.694685e-08 -8.812029e-09 5.127690e-10 -1.876355e-08 3.764104e-08 -2.214402e-08 -2.262830e-08 -3.149256e-08 9.070313e-08 -1.671009e-03 -9.888056e-04 -1.014744e-04 -1.440375e-03 1.885450e-04 -5.582995e-04 -8.621738e-04 1.136265e-03 9.911946e-04 -2.208700e-03 3.016879e-04 2.437875e-03 5.495902e-06
<VARIANCE> 25
 3.722816e+01 1.989225e+01 4.164455e+01 3.264012e+01 2.797222e+01 2.647702e+01 4.038375e+01 1.955802e+01 1.967839e+01 2.163376e+01 3.646047e+01 3.045521e+01 1.746624e+00 1.127324e+00 1.934271e+00 1.471700e+00 1.643991e+00 1.766991e+00 2.669370e+00 1.378850e+00 1.531985e+00 1.257863e+00 2.316756e+00 1.404668e+00 4.573079e-01
<GCONST> 9.126133e+01
<TRANSP> 5
 0.000000e+00 1.000000e+00 0.000000e+00 0.000000e+00 0.000000e+00
 0.000000e+00 6.000000e-01 4.000000e-01 0.000000e+00 0.000000e+00
 0.000000e+00 0.000000e+00 6.000000e-01 4.000000e-01 0.000000e+00
 0.000000e+00 0.000000e+00 0.000000e+00 7.000000e-01 3.000000e-01
 0.000000e+00 0.000000e+00 0.000000e+00 0.000000e+00 0.000000e+00
<ENDHMM>
~h "nn"
<BEGINHMM>
<NUMSTATES> 5
<STATE> 2
<MEAN> 25
 -4.056572e-08 3.596030e-08 -4.155328e-08 -4.694685e-08 -8.812029e-09 5.127690e-10 -1.876355e-08 3.764104e-08 -2.214402e-08 -2.262830e-08 -3.149256e-08 9.070313e-08 -1.671009e-03 -9.888056e-04 -1.014744e-04 -1.440375e-03 1.885450e-04 -5.582995e-04 -8.621738e-04 1.136265e-03 9.911946e-04 -2.208700e-03 3.016879e-04 2.437875e-03 5.495902e-06
<VARIANCE> 25
 3.722816e+01 1.989225e+01 4.164455e+01 3.264012e+01 2.797222e+01 2.647702e+01 4.038375e+01 1.955802e+01 1.967839e+01 2.163376e+01 3.646047e+01 3.045521e+01 1.746624e+00 1.127324e+00 1.934271e+00 1.471700e+00 1.643991e+00 1.766991e+00 2.669370e+00 1.378850e+00 1.531985e+00 1.257863e+00 2.316756e+00 1.404668e+00 4.573079e-01
<GCONST> 9.126133e+01
<STATE> 3
<MEAN> 25
 -4.056572e-08 3.596030e-08 -4.155328e-08 -4.694685e-08 -8.812029e-09 5.127690e-10 -1.876355e-08 3.764104e-08 -2.214402e-08 -2.262830e-08 -3.149256e-08 9.070313e-08 -1.671009e-03 -9.888056e-04 -1.014744e-04 -1.440375e-03 1.885450e-04 -5.582995e-04 -8.621738e-04 1.136265e-03 9.911946e-04 -2.208700e-03 3.016879e-04 2.437875e-03 5.495902e-06
<VARIANCE> 25
 3.722816e+01 1.989225e+01 4.164455e+01 3.264012e+01 2.797222e+01 2.647702e+01 4.038375e+01 1.955802e+01 1.967839e+01 2.163376e+01 3.646047e+01 3.045521e+01 1.746624e+00 1.127324e+00 1.934271e+00 1.471700e+00 1.643991e+00 1.766991e+00 2.669370e+00 1.378850e+00 1.531985e+00 1.257863e+00 2.316756e+00 1.404668e+00 4.573079e-01
<GCONST> 9.126133e+01
<STATE> 4
<MEAN> 25
 -4.056572e-08 3.596030e-08 -4.155328e-08 -4.694685e-08 -8.812029e-09 5.127690e-10 -1.876355e-08 3.764104e-08 -2.214402e-08 -2.262830e-08 -3.149256e-08 9.070313e-08 -1.671009e-03 -9.888056e-04 -1.014744e-04 -1.440375e-03 1.885450e-04 -5.582995e-04 -8.621738e-04 1.136265e-03 9.911946e-04 -2.208700e-03 3.016879e-04 2.437875e-03 5.495902e-06
<VARIANCE> 25
 3.722816e+01 1.989225e+01 4.164455e+01 3.264012e+01 2.797222e+01 2.647702e+01 4.038375e+01 1.955802e+01 1.967839e+01 2.163376e+01 3.646047e+01 3.045521e+01 1.746624e+00 1.127324e+00 1.934271e+00 1.471700e+00 1.643991e+00 1.766991e+00 2.669370e+00 1.378850e+00 1.531985e+00 1.257863e+00 2.316756e+00 1.404668e+00 4.573079e-01
<GCONST> 9.126133e+01
<TRANSP> 5
 0.000000e+00 1.000000e+00 0.000000e+00 0.000000e+00 0.000000e+00
 0.000000e+00 6.000000e-01 4.000000e-01 0.000000e+00 0.000000e+00
 0.000000e+00 0.000000e+00 6.000000e-01 4.000000e-01 0.000000e+00
 0.000000e+00 0.000000e+00 0.000000e+00 7.000000e-01 3.000000e-01
 0.000000e+00 0.000000e+00 0.000000e+00 0.000000e+00 0.000000e+00
<ENDHMM>
~h "b"
<BEGINHMM>
<NUMSTATES> 5
<STATE> 2
<MEAN> 25
 -4.056572e-08 3.596030e-08 -4.155328e-08 -4.694685e-08 -8.812029e-09 5.127690e-10 -1.876355e-08 3.764104e-08 -2.214402e-08 -2.262830e-08 -3.149256e-08 9.070313e-08 -1.671009e-03 -9.888056e-04 -1.014744e-04 -1.440375e-03 1.885450e-04 -5.582995e-04 -8.621738e-04 1.136265e-03 9.911946e-04 -2.208700e-03 3.016879e-04 2.437875e-03 5.495902e-06
<VARIANCE> 25
 3.722816e+01 1.989225e+01 4.164455e+01 3.264012e+01 2.797222e+01 2.647702e+01 4.038375e+01 1.955802e+01 1.967839e+01 2.163376e+01 3.646047e+01 3.045521e+01 1.746624e+00 1.127324e+00 1.934271e+00 1.471700e+00 1.643991e+00 1.766991e+00 2.669370e+00 1.378850e+00 1.531985e+00 1.257863e+00 2.316756e+00 1.404668e+00 4.573079e-01
<GCONST> 9.126133e+01
<STATE> 3
<MEAN> 25
 -4.056572e-08 3.596030e-08 -4.155328e-08 -4.694685e-08 -8.812029e-09 5.127690e-10 -1.876355e-08 3.764104e-08 -2.214402e-08 -2.262830e-08 -3.149256e-08 9.070313e-08 -1.671009e-03 -9.888056e-04 -1.014744e-04 -1.440375e-03 1.885450e-04 -5.582995e-04 -8.621738e-04 1.136265e-03 9.911946e-04 -2.208700e-03 3.016879e-04 2.437875e-03 5.495902e-06
<VARIANCE> 25
 3.722816e+01 1.989225e+01 4.164455e+01 3.264012e+01 2.797222e+01 2.647702e+01 4.038375e+01 1.955802e+01 1.967839e+01 2.163376e+01 3.646047e+01 3.045521e+01 1.746624e+00 1.127324e+00 1.934271e+00 1.471700e+00 1.643991e+00 1.766991e+00 2.669370e+00 1.378850e+00 1.531985e+00 1.257863e+00 2.316756e+00 1.404668e+00 4.573079e-01
<GCONST> 9.126133e+01
<STATE> 4
<MEAN> 25
 -4.056572e-08 3.596030e-08 -4.155328e-08 -4.694685e-08 -8.812029e-09 5.127690e-10 -1.876355e-08 3.764104e-08 -2.214402e-08 -2.262830e-08 -3.149256e-08 9.070313e-08 -1.671009e-03 -9.888056e-04 -1.014744e-04 -1.440375e-03 1.885450e-04 -5.582995e-04 -8.621738e-04 1.136265e-03 9.911946e-04 -2.208700e-03 3.016879e-04 2.437875e-03 5.495902e-06
<VARIANCE> 25
 3.722816e+01 1.989225e+01 4.164455e+01 3.264012e+01 2.797222e+01 2.647702e+01 4.038375e+01 1.955802e+01 1.967839e+01 2.163376e+01 3.646047e+01 3.045521e+01 1.746624e+00 1.127324e+00 1.934271e+00 1.471700e+00 1.643991e+00 1.766991e+00 2.669370e+00 1.378850e+00 1.531985e+00 1.257863e+00 2.316756e+00 1.404668e+00 4.573079e-01
<GCONST> 9.126133e+01
<TRANSP> 5
 0.000000e+00 1.000000e+00 0.000000e+00 0.000000e+00 0.000000e+00
 0.000000e+00 6.000000e-01 4.000000e-01 0.000000e+00 0.000000e+00
 0.000000e+00 0.000000e+00 6.000000e-01 4.000000e-01 0.000000e+00
 0.000000e+00 0.000000e+00 0.000000e+00 7.000000e-01 3.000000e-01
 0.000000e+00 0.000000e+00 0.000000e+00 0.000000e+00 0.000000e+00
<ENDHMM>
~h "yy"
<BEGINHMM>
<NUMSTATES> 5
<STATE> 2
<MEAN> 25
 -4.056572e-08 3.596030e-08 -4.155328e-08 -4.694685e-08 -8.812029e-09 5.127690e-10 -1.876355e-08 3.764104e-08 -2.214402e-08 -2.262830e-08 -3.149256e-08 9.070313e-08 -1.671009e-03 -9.888056e-04 -1.014744e-04 -1.440375e-03 1.885450e-04 -5.582995e-04 -8.621738e-04 1.136265e-03 9.911946e-04 -2.208700e-03 3.016879e-04 2.437875e-03 5.495902e-06
<VARIANCE> 25
 3.722816e+01 1.989225e+01 4.164455e+01 3.264012e+01 2.797222e+01 2.647702e+01 4.038375e+01 1.955802e+01 1.967839e+01 2.163376e+01 3.646047e+01 3.045521e+01 1.746624e+00 1.127324e+00 1.934271e+00 1.471700e+00 1.643991e+00 1.766991e+00 2.669370e+00 1.378850e+00 1.531985e+00 1.257863e+00 2.316756e+00 1.404668e+00 4.573079e-01
<GCONST> 9.126133e+01
<STATE> 3
<MEAN> 25
 -4.056572e-08 3.596030e-08 -4.155328e-08 -4.694685e-08 -8.812029e-09 5.127690e-10 -1.876355e-08 3.764104e-08 -2.214402e-08 -2.262830e-08 -3.149256e-08 9.070313e-08 -1.671009e-03 -9.888056e-04 -1.014744e-04 -1.440375e-03 1.885450e-04 -5.582995e-04 -8.621738e-04 1.136265e-03 9.911946e-04 -2.208700e-03 3.016879e-04 2.437875e-03 5.495902e-06
<VARIANCE> 25
 3.722816e+01 1.989225e+01 4.164455e+01 3.264012e+01 2.797222e+01 2.647702e+01 4.038375e+01 1.955802e+01 1.967839e+01 2.163376e+01 3.646047e+01 3.045521e+01 1.746624e+00 1.127324e+00 1.934271e+00 1.471700e+00 1.643991e+00 1.766991e+00 2.669370e+00 1.378850e+00 1.531985e+00 1.257863e+00 2.316756e+00 1.404668e+00 4.573079e-01
<GCONST> 9.126133e+01
<STATE> 4
<MEAN> 25
 -4.056572e-08 3.596030e-08 -4.155328e-08 -4.694685e-08 -8.812029e-09 5.127690e-10 -1.876355e-08 3.764104e-08 -2.214402e-08 -2.262830e-08 -3.149256e-08 9.070313e-08 -1.671009e-03 -9.888056e-04 -1.014744e-04 -1.440375e-03 1.885450e-04 -5.582995e-04 -8.621738e-04 1.136265e-03 9.911946e-04 -2.208700e-03 3.016879e-04 2.437875e-03 5.495902e-06
<VARIANCE> 25
 3.722816e+01 1.989225e+01 4.164455e+01 3.264012e+01 2.797222e+01 2.647702e+01 4.038375e+01 1.955802e+01 1.967839e+01 2.163376e+01 3.646047e+01 3.045521e+01 1.746624e+00 1.127324e+00 1.934271e+00 1.471700e+00 1.643991e+00 1.766991e+00 2.669370e+00 1.378850e+00 1.531985e+00 1.257863e+00 2.316756e+00 1.404668e+00 4.573079e-01
<GCONST> 9.126133e+01
<TRANSP> 5
 0.000000e+00 1.000000e+00 0.000000e+00 0.000000e+00 0.000000e+00
 0.000000e+00 6.000000e-01 4.000000e-01 0.000000e+00 0.000000e+00
 0.000000e+00 0.000000e+00 6.000000e-01 4.000000e-01 0.000000e+00
 0.000000e+00 0.000000e+00 0.000000e+00 7.000000e-01 3.000000e-01
 0.000000e+00 0.000000e+00 0.000000e+00 0.000000e+00 0.000000e+00
<ENDHMM>
~h "ur"
<BEGINHMM>
<NUMSTATES> 5
<STATE> 2
<MEAN> 25
 -4.056572e-08 3.596030e-08 -4.155328e-08 -4.694685e-08 -8.812029e-09 5.127690e-10 -1.876355e-08 3.764104e-08 -2.214402e-08 -2.262830e-08 -3.149256e-08 9.070313e-08 -1.671009e-03 -9.888056e-04 -1.014744e-04 -1.440375e-03 1.885450e-04 -5.582995e-04 -8.621738e-04 1.136265e-03 9.911946e-04 -2.208700e-03 3.016879e-04 2.437875e-03 5.495902e-06
<VARIANCE> 25
 3.722816e+01 1.989225e+01 4.164455e+01 3.264012e+01 2.797222e+01 2.647702e+01 4.038375e+01 1.955802e+01 1.967839e+01 2.163376e+01 3.646047e+01 3.045521e+01 1.746624e+00 1.127324e+00 1.934271e+00 1.471700e+00 1.643991e+00 1.766991e+00 2.669370e+00 1.378850e+00 1.531985e+00 1.257863e+00 2.316756e+00 1.404668e+00 4.573079e-01
<GCONST> 9.126133e+01
<STATE> 3
<MEAN> 25
 -4.056572e-08 3.596030e-08 -4.155328e-08 -4.694685e-08 -8.812029e-09 5.127690e-10 -1.876355e-08 3.764104e-08 -2.214402e-08 -2.262830e-08 -3.149256e-08 9.070313e-08 -1.671009e-03 -9.888056e-04 -1.014744e-04 -1.440375e-03 1.885450e-04 -5.582995e-04 -8.621738e-04 1.136265e-03 9.911946e-04 -2.208700e-03 3.016879e-04 2.437875e-03 5.495902e-06
<VARIANCE> 25
 3.722816e+01 1.989225e+01 4.164455e+01 3.264012e+01 2.797222e+01 2.647702e+01 4.038375e+01 1.955802e+01 1.967839e+01 2.163376e+01 3.646047e+01 3.045521e+01 1.746624e+00 1.127324e+00 1.934271e+00 1.471700e+00 1.643991e+00 1.766991e+00 2.669370e+00 1.378850e+00 1.531985e+00 1.257863e+00 2.316756e+00 1.404668e+00 4.573079e-01
<GCONST> 9.126133e+01
<STATE> 4
<MEAN> 25
 -4.056572e-08 3.596030e-08 -4.155328e-08 -4.694685e-08 -8.812029e-09 5.127690e-10 -1.876355e-08 3.764104e-08 -2.214402e-08 -2.262830e-08 -3.149256e-08 9.070313e-08 -1.671009e-03 -9.888056e-04 -1.014744e-04 -1.440375e-03 1.885450e-04 -5.582995e-04 -8.621738e-04 1.136265e-03 9.911946e-04 -2.208700e-03 3.016879e-04 2.437875e-03 5.495902e-06
<VARIANCE> 25
 3.722816e+01 1.989225e+01 4.164455e+01 3.264012e+01 2.797222e+01 2.647702e+01 4.038375e+01 1.955802e+01 1.967839e+01 2.163376e+01 3.646047e+01 3.045521e+01 1.746624e+00 1.127324e+00 1.934271e+00 1.471700e+00 1.643991e+00 1.766991e+00 2.669370e+00 1.378850e+00 1.531985e+00 1.257863e+00 2.316756e+00 1.404668e+00 4.573079e-01
<GCONST> 9.126133e+01
<TRANSP> 5
 0.000000e+00 1.000000e+00 0.000000e+00 0.000000e+00 0.000000e+00
 0.000000e+00 6.000000e-01 4.000000e-01 0.000000e+00 0.000000e+00
 0.000000e+00 0.000000e+00 6.000000e-01 4.000000e-01 0.000000e+00
 0.000000e+00 0.000000e+00 0.000000e+00 7.000000e-01 3.000000e-01
 0.000000e+00 0.000000e+00 0.000000e+00 0.000000e+00 0.000000e+00
<ENDHMM>
~h "h"
<BEGINHMM>
<NUMSTATES> 5
<STATE> 2
<MEAN> 25
 -4.056572e-08 3.596030e-08 -4.155328e-08 -4.694685e-08 -8.812029e-09 5.127690e-10 -1.876355e-08 3.764104e-08 -2.214402e-08 -2.262830e-08 -3.149256e-08 9.070313e-08 -1.671009e-03 -9.888056e-04 -1.014744e-04 -1.440375e-03 1.885450e-04 -5.582995e-04 -8.621738e-04 1.136265e-03 9.911946e-04 -2.208700e-03 3.016879e-04 2.437875e-03 5.495902e-06
<VARIANCE> 25
 3.722816e+01 1.989225e+01 4.164455e+01 3.264012e+01 2.797222e+01 2.647702e+01 4.038375e+01 1.955802e+01 1.967839e+01 2.163376e+01 3.646047e+01 3.045521e+01 1.746624e+00 1.127324e+00 1.934271e+00 1.471700e+00 1.643991e+00 1.766991e+00 2.669370e+00 1.378850e+00 1.531985e+00 1.257863e+00 2.316756e+00 1.404668e+00 4.573079e-01
<GCONST> 9.126133e+01
<STATE> 3
<MEAN> 25
 -4.056572e-08 3.596030e-08 -4.155328e-08 -4.694685e-08 -8.812029e-09 5.127690e-10 -1.876355e-08 3.764104e-08 -2.214402e-08 -2.262830e-08 -3.149256e-08 9.070313e-08 -1.671009e-03 -9.888056e-04 -1.014744e-04 -1.440375e-03 1.885450e-04 -5.582995e-04 -8.621738e-04 1.136265e-03 9.911946e-04 -2.208700e-03 3.016879e-04 2.437875e-03 5.495902e-06
<VARIANCE> 25
 3.722816e+01 1.989225e+01 4.164455e+01 3.264012e+01 2.797222e+01 2.647702e+01 4.038375e+01 1.955802e+01 1.967839e+01 2.163376e+01 3.646047e+01 3.045521e+01 1.746624e+00 1.127324e+00 1.934271e+00 1.471700e+00 1.643991e+00 1.766991e+00 2.669370e+00 1.378850e+00 1.531985e+00 1.257863e+00 2.316756e+00 1.404668e+00 4.573079e-01
<GCONST> 9.126133e+01
<STATE> 4
<MEAN> 25
 -4.056572e-08 3.596030e-08 -4.155328e-08 -4.694685e-08 -8.812029e-09 5.127690e-10 -1.876355e-08 3.764104e-08 -2.214402e-08 -2.262830e-08 -3.149256e-08 9.070313e-08 -1.671009e-03 -9.888056e-04 -1.014744e-04 -1.440375e-03 1.885450e-04 -5.582995e-04 -8.621738e-04 1.136265e-03 9.911946e-04 -2.208700e-03 3.016879e-04 2.437875e-03 5.495902e-06
<VARIANCE> 25
 3.722816e+01 1.989225e+01 4.164455e+01 3.264012e+01 2.797222e+01 2.647702e+01 4.038375e+01 1.955802e+01 1.967839e+01 2.163376e+01 3.646047e+01 3.045521e+01 1.746624e+00 1.127324e+00 1.934271e+00 1.471700e+00 1.643991e+00 1.766991e+00 2.669370e+00 1.378850e+00 1.531985e+00 1.257863e+00 2.316756e+00 1.404668e+00 4.573079e-01
<GCONST> 9.126133e+01
<TRANSP> 5
 0.000000e+00 1.000000e+00 0.000000e+00 0.000000e+00 0.000000e+00
 0.000000e+00 6.000000e-01 4.000000e-01 0.000000e+00 0.000000e+00
 0.000000e+00 0.000000e+00 6.000000e-01 4.000000e-01 0.000000e+00
 0.000000e+00 0.000000e+00 0.000000e+00 7.000000e-01 3.000000e-01
 0.000000e+00 0.000000e+00 0.000000e+00 0.000000e+00 0.000000e+00
<ENDHMM>
