~o
<STREAMINFO> 1 25
<VECSIZE> 25<NULLD><MFCC_D_N_Z_0><DIAGC>
~s "silst"
<MEAN> 25
 -3.424266e+00 2.087303e-01 -3.012337e+00 -4.783162e-01 7.294120e-01 2.211366e+00 3.980418e+00 2.544338e+00 1.493474e+00 3.349955e+00 2.991040e+00 4.713694e+00 -8.013531e-02 -5.320509e-02 -1.224174e-01 -1.000912e-01 -5.677355e-02 -9.741064e-03 3.553151e-02 5.540299e-02 1.191669e-01 1.695381e-01 1.266676e-01 1.889247e-01 -6.202967e-02
<VARIANCE> 25
 2.297295e+00 3.358178e+00 3.271829e+00 3.930504e+00 4.555065e+00 6.568012e+00 6.139760e+00 6.519326e+00 6.602123e+00 8.089166e+00 9.515561e+00 8.486361e+00 9.724233e-02 1.642345e-01 2.253963e-01 3.125930e-01 3.912712e-01 5.581415e-01 5.755025e-01 6.219622e-01 6.129122e-01 6.881509e-01 7.627559e-01 6.773041e-01 6.139808e-02
<GCONST> 5.234873e+01
~h "a"
<BEGINHMM>
<NUMSTATES> 5
<STATE> 2
<MEAN> 25
 4.527090e+00 2.938522e+00 -2.980494e+00 -1.265043e+00 -4.201074e-01 -1.051434e+00 -1.364149e+00 -1.311987e+00 -1.494363e+00 -2.163539e+00 -3.827533e+00 -1.000640e+00 -3.068700e-01 7.176426e-01 3.678954e-01 1.611668e-01 4.089520e-01 8.313172e-01 1.008600e+00 3.678660e-01 -1.010048e-01 -1.578018e-03 -1.498643e-01 -8.699585e-02 -4.822492e-01
<VARIANCE> 25
 1.308921e+01 8.008757e+00 9.437615e+00 1.153930e+01 1.497266e+01 1.354635e+01 1.831178e+01 1.329354e+01 1.449561e+01 2.239873e+01 2.702656e+01 1.717038e+01 1.334633e+00 7.769192e-01 1.276873e+00 8.270407e-01 8.662489e-01 1.460465e+00 1.776399e+00 9.909981e-01 1.442932e+00 1.340140e+00 2.457310e+00 1.779667e+00 4.496210e-01
<GCONST> 8.024679e+01
<STATE> 3
<MEAN> 25
 2.611376e+00 4.425001e+00 -9.698986e-01 3.770083e-02 8.181620e-01 1.029647e+00 1.107748e+00 -4.126918e-01 -1.534031e+00 -1.594106e+00 -3.562646e+00 -1.100712e+00 -5.238544e-01 2.386908e-01 6.204466e-01 6.157817e-01 4.684384e-01 5.339985e-01 6.119914e-01 2.176746e-01 -3.659990e-02 9.537320e-02 1.271098e-01 -1.634093e-02 -4.139246e-01
<VARIANCE> 25
 9.134233e+00 7.607989e+00 1.104646e+01 1.300971e+01 1.279465e+01 1.074835e+01 1.429154e+01 1.080154e+01 1.247099e+01 1.388808e+01 1.774873e+01 1.639889e+01 7.842683e-01 6.927589e-01 6.234292e-01 6.276718e-01 9.871120e-01 7.765167e-01 9.248553e-01 7.446414e-01 1.044095e+00 1.082701e+00 1.772084e+00 1.893322e+00 2.830637e-01
<GCONST> 7.383086e+01
<STATE> 4
<MEAN> 25
 1.514596e+00 3.821643e+00 -9.175187e-01 7.101770e-01 1.466854e+00 1.326960e+00 1.774263e+00 6.167291e-01 -2.602739e-01 -4.364904e-01 -2.426746e+00 -3.652029e-01 -2.600462e-01 4.059244e-02 5.506323e-01 2.016736e-01 -2.651105e-02 1.580678e-01 2.676263e-01 1.246953e-01 -1.926550e-02 8.983840e-02 1.516029e-01 -2.915115e-01 -6.806354e-02
<VARIANCE> 25
 9.374760e+00 7.001755e+00 9.849223e+00 1.279703e+01 1.217536e+01 1.014866e+01 1.393713e+01 9.764105e+00 1.187996e+01 1.363875e+01 1.580443e+01 1.712545e+01 9.468270e-01 6.532429e-01 1.261247e+00 9.997405e-01 1.069890e+00 9.752649e-01 1.181494e+00 7.713252e-01 1.113862e+00 9.020364e-01 1.697444e+00 1.465074e+00 2.419467e-01
<GCONST> 7.458412e+01
<TRANSP> 5
 0.000000e+00 1.000000e+00 0.000000e+00 0.000000e+00 0.000000e+00
 0.000000e+00 4.047531e-01 5.952470e-01 0.000000e+00 0.000000e+00
 0.000000e+00 0.000000e+00 3.284991e-01 6.715009e-01 0.000000e+00
 0.000000e+00 0.000000e+00 0.000000e+00 3.911584e-01 6.088415e-01
 0.000000e+00 0.000000e+00 0.000000e+00 0.000000e+00 0.000000e+00
<ENDHMM>
~h "b"
<BEGINHMM>
<NUMSTATES> 5
<STATE> 2
<MEAN> 25
 2.078972e+00 6.859324e+00 2.642007e+00 3.121813e+00 2.380428e+00 1.464553e+00 1.030620e+00 -7.342758e-01 -2.968304e+00 -4.140626e+00 -6.719140e+00 -3.724973e+00 9.537971e-01 1.855735e-01 -2.503109e-01 -6.192642e-01 -8.003625e-01 -1.118708e+00 -1.043717e+00 -8.528489e-02 3.984568e-02 -1.015645e+00 -1.362507e+00 -1.270531e+00 6.608358e-01
<VARIANCE> 25
 2.354191e+00 1.953957e+00 3.040790e+00 6.882268e+00 1.060966e+01 8.082782e+00 6.042489e+00 7.652883e+00 8.607863e+00 7.008812e+00 6.502120e+00 5.965432e+00 3.316946e-01 3.359496e-01 3.631044e-01 8.760497e-01 1.220121e+00 6.019931e-01 1.234546e+00 9.816425e-01 1.128903e+00 1.590961e+00 1.163626e+00 8.954327e-01 1.718373e-01
<GCONST> 6.196675e+01
<STATE> 3
<MEAN> 25
 5.630760e+00 5.594630e+00 3.003767e-01 2.220354e+00 2.659949e+00 -1.555534e+00 -3.883932e+00 -1.528469e+00 -3.503272e+00 -9.241671e+00 -1.037738e+01 -5.772478e+00 8.869054e-01 -1.336862e+00 -1.001789e+00 8.615563e-01 2.070626e+00 -4.161730e-03 -2.830932e+00 -1.187527e+00 -6.414965e-01 -1.278369e+00 2.850596e-01 4.845818e-01 8.823102e-01
<VARIANCE> 25
 1.959203e+00 2.905329e+00 3.633737e+00 6.095096e+00 1.075416e+01 3.655661e+00 9.328251e+00 6.409163e+00 7.689953e+00 6.474274e+00 5.908164e+00 7.323936e+00 2.435569e-01 3.911264e-01 2.677397e-01 8.461984e-01 1.219212e+00 7.192302e-01 7.917147e-01 1.450771e+00 8.575903e-01 1.068209e+00 1.215345e+00 8.004190e-01 1.345615e-01
<GCONST> 6.027166e+01
<STATE> 4
<MEAN> 25
 1.794935e+00 1.502146e-01 3.299672e-01 4.145424e+00 5.142998e+00 5.590116e-01 -3.895749e+00 -2.513965e+00 -5.033672e+00 -4.693547e+00 -1.503135e+00 -1.804357e+00 -1.279506e-01 -8.403711e-01 -1.592803e-01 8.003194e-01 8.470429e-01 -7.513668e-02 -9.093813e-01 -4.231153e-01 3.292768e-02 4.089722e-01 8.289042e-01 2.656908e-01 1.424810e-01
<VARIANCE> 25
 2.650757e+01 1.276560e+01 1.348433e+01 9.365435e+00 2.502194e+01 8.245624e+00 4.996689e+01 2.500265e+01 6.473794e+00 2.785895e+01 3.790025e+01 1.003862e+01 2.196413e+00 1.824303e+00 1.932049e+00 2.276181e+00 4.574750e+00 1.430379e+00 6.908434e+00 3.714483e+00 6.652011e-01 1.078439e+00 4.719043e+00 1.329400e+00 5.814213e-01
<GCONST> 8.916025e+01
<TRANSP> 5
 0.000000e+00 1.000000e+00 0.000000e+00 0.000000e+00 0.000000e+00
 0.000000e+00 7.013162e-01 2.986839e-01 0.000000e+00 0.000000e+00
 0.000000e+00 0.000000e+00 5.741724e-01 4.258276e-01 0.000000e+00
 0.000000e+00 0.000000e+00 0.000000e+00 6.402936e-01 3.597064e-01
 0.000000e+00 0.000000e+00 0.000000e+00 0.000000e+00 0.000000e+00
<ENDHMM>
~h "d"
<BEGINHMM>
<NUMSTATES> 5
<STATE> 2
<MEAN> 25
 4.538321e+00 2.737216e+00 -9.283677e-01 1.481957e+00 1.755004e+00 -7.974523e-01 -2.143732e+00 -9.182369e-01 -1.680897e+00 -3.239818e+00 -4.773627e+00 -2.731792e+00 -1.563883e-01 4.019766e-01 5.183012e-01 6.885090e-01 6.948256e-01 6.631643e-01 6.163402e-01 -1.191335e-01 -7.537560e-01 -3.644612e-01 1.540317e-01 -1.030500e-01 -2.272009e-01
<VARIANCE> 25
 1.199626e+01 2.216029e+01 2.265042e+01 2.544267e+01 2.208778e+01 2.620693e+01 2.169236e+01 1.399405e+01 1.486453e+01 1.441894e+01 2.759624e+01 2.929450e+01 1.212388e+00 1.278039e+00 1.698344e+00 1.348543e+00 9.247372e-01 2.842371e+00 3.471432e+00 1.448424e+00 2.032546e+00 1.537446e+00 3.225456e+00 3.794858e+00 6.001886e-01
<GCONST> 8.900732e+01
<STATE> 3
<MEAN> 25
 4.708501e+00 4.882535e+00 -1.136615e+00 -2.435156e-01 1.086257e-01 -4.058242e-02 4.223955e-01 -8.279835e-01 -2.995461e+00 -5.243435e+00 -6.094411e+00 -2.573108e+00 -9.383664e-01 2.787560e-01 7.118292e-01 5.201855e-01 5.515823e-01 1.100572e+00 1.380990e+00 2.469531e-01 -6.702024e-01 3.264621e-01 8.353749e-01 2.666129e-01 -7.146025e-01
<VARIANCE> 25
 6.768686e+00 9.641738e+00 1.568757e+01 2.062066e+01 1.989122e+01 1.210845e+01 1.206497e+01 1.291798e+01 1.579709e+01 1.262052e+01 2.642604e+01 2.051152e+01 3.805051e-01 7.464619e-01 4.952314e-01 1.114103e+00 9.687446e-01 1.334590e+00 1.304605e+00 1.035131e+00 1.013816e+00 8.622998e-01 1.336160e+00 1.352052e+00 2.758658e-01
<GCONST> 7.590120e+01
<STATE> 4
<MEAN> 25
 2.083107e+00 4.428163e+00 1.214233e+00 2.049971e+00 1.596923e+00 1.844130e+00 2.597770e+00 -7.939907e-01 -3.452305e+00 -2.845314e+00 -3.405738e+00 -1.775259e+00 -2.396431e-01 -4.383677e-01 4.004200e-01 6.317208e-01 2.751467e-01 -6.507336e-02 -3.323715e-01 -2.761124e-01 1.361306e-02 2.104301e-01 1.725251e-01 -5.615075e-02 4.885195e-02
<VARIANCE> 25
 6.149786e+00 7.194477e+00 8.300336e+00 1.202884e+01 1.550640e+01 1.029497e+01 1.256701e+01 1.030452e+01 1.026312e+01 1.091237e+01 1.279330e+01 1.338061e+01 6.519017e-01 1.256686e+00 8.227446e-01 1.476580e+00 1.147193e+00 1.322085e+00 2.331184e+00 1.534297e+00 1.419929e+00 1.453417e+00 1.864755e+00 1.900077e+00 4.650088e-01
<GCONST> 7.704807e+01
<TRANSP> 5
 0.000000e+00 1.000000e+00 0.000000e+00 0.000000e+00 0.000000e+00
 0.000000e+00 4.236384e-01 5.763616e-01 0.000000e+00 0.000000e+00
 0.000000e+00 0.000000e+00 1.690424e-01 8.309577e-01 0.000000e+00
 0.000000e+00 0.000000e+00 0.000000e+00 7.107012e-01 2.892989e-01
 0.000000e+00 0.000000e+00 0.000000e+00 0.000000e+00 0.000000e+00
<ENDHMM>
~h "f"
<BEGINHMM>
<NUMSTATES> 5
<STATE> 2
<MEAN> 25
 9.555943e+00 1.718832e-01 -1.080460e+01 -7.296927e+00 -5.847283e+00 -8.863736e+00 -4.146890e+00 5.054807e+00 6.369636e+00 1.760864e-01 -5.006205e+00 -1.130024e+00 -1.474788e+00 1.292658e+00 1.319627e+00 -7.985938e-01 -6.535556e-01 1.305250e+00 1.837629e+00 -1.129357e-01 -6.063162e-01 1.049995e+00 1.144483e+00 6.342767e-01 -1.250284e+00
<VARIANCE> 25
 3.167037e+00 7.706513e+00 4.512221e+00 3.444565e+00 4.866902e+00 8.565009e+00 1.144913e+01 7.766259e+00 6.020534e+00 8.665455e+00 8.068508e+00 8.274388e+00 3.445401e-01 4.113817e-01 4.549666e-01 5.068823e-01 5.631964e-01 7.014647e-01 7.098598e-01 6.601949e-01 6.483284e-01 7.269422e-01 1.146354e+00 1.109034e+00 1.369474e-01
<GCONST> 6.065113e+01
<STATE> 3
<MEAN> 25
 3.162474e+00 2.060247e+00 -7.150671e+00 -9.139558e+00 -6.764799e+00 -4.759329e+00 -9.196989e-02 4.465208e+00 4.824246e+00 2.873807e+00 -7.260705e-01 2.794424e+00 -1.508992e+00 -8.242616e-02 7.015139e-01 5.092846e-01 3.733726e-01 9.985670e-01 9.622529e-01 -1.027217e-01 -4.498503e-01 3.552421e-01 9.756551e-01 1.069143e+00 -1.019744e+00
<VARIANCE> 25
 3.747492e+00 2.638183e+00 4.774865e+00 5.369648e+00 4.055218e+00 5.428485e+00 5.589199e+00 8.473207e+00 7.254513e+00 5.569019e+00 5.699686e+00 7.055737e+00 2.743894e-01 2.672953e-01 5.208917e-01 1.021046e+00 6.057305e-01 6.113850e-01 6.647125e-01 9.261778e-01 6.957557e-01 4.037017e-01 9.124735e-01 9.104166e-01 9.876782e-02
<GCONST> 5.733204e+01
<STATE> 4
<MEAN> 25
 -1.096481e+00 3.049699e-01 -4.736739e+00 -5.341361e+00 -3.852345e+00 -1.525041e+00 2.264989e+00 3.322993e+00 3.243654e+00 3.375342e+00 2.142535e+00 4.869379e+00 -8.884003e-01 -8.568011e-01 1.007548e+00 7.094076e-01 4.266739e-01 4.620751e-01 1.764513e-01 -5.627612e-01 -2.239126e-01 -4.216250e-03 4.702508e-01 -2.870617e-01 2.934877e-02
<VARIANCE> 25
 3.149573e+00 5.295421e+00 5.730684e+00 6.574767e+00 6.485621e+00 3.833719e+00 7.638639e+00 6.185166e+00 6.488970e+00 4.494428e+00 6.585177e+00 8.756586e+00 3.693605e-01 5.973889e-01 1.092125e+00 1.094634e+00 9.574179e-01 3.774842e-01 6.554062e-01 1.167434e+00 9.505612e-01 8.896613e-01 8.858564e-01 1.291519e+00 5.128216e-01
<GCONST> 6.356759e+01
<TRANSP> 5
 0.000000e+00 1.000000e+00 0.000000e+00 0.000000e+00 0.000000e+00
 0.000000e+00 6.432136e-01 3.567864e-01 0.000000e+00 0.000000e+00
 0.000000e+00 0.000000e+00 7.275972e-01 2.724029e-01 0.000000e+00
 0.000000e+00 0.000000e+00 0.000000e+00 6.709000e-01 3.291000e-01
 0.000000e+00 0.000000e+00 0.000000e+00 0.000000e+00 0.000000e+00
<ENDHMM>
~h "g"
<BEGINHMM>
<NUMSTATES> 5
<STATE> 2
<MEAN> 25
 -2.274138e-01 -4.273954e-01 3.458714e+00 3.520380e+00 -4.590299e-01 -1.576512e+00 -1.601293e+00 1.929009e-01 -9.238937e-01 -2.866868e+00 -6.282139e-01 -1.588328e+00 1.850112e+00 1.629797e+00 -8.273395e-01 1.205631e+00 2.084416e+00 -4.538828e-01 -2.404278e+00 -1.848592e+00 -9.136456e-01 -1.017385e+00 -2.593818e+00 -1.365910e+00 3.002841e-01
<VARIANCE> 25
 2.114478e+01 4.325239e+01 7.746605e+00 1.949173e+01 2.537205e+01 1.612267e+01 3.098999e+01 1.868832e+01 1.643906e+01 1.261589e+01 4.075498e+01 1.869142e+01 2.013121e+00 2.030266e+00 9.776938e-01 1.443702e+00 3.100838e+00 5.639513e-01 2.673565e+00 2.735209e+00 1.624617e+00 1.123981e+00 4.039878e+00 1.417670e+00 2.173678e-01
<GCONST> 8.725056e+01
<STATE> 3
<MEAN> 25
 3.815264e+00 3.731668e+00 4.615556e-01 3.483161e+00 3.594788e+00 -1.177902e+00 -4.180940e+00 -3.397004e+00 -3.620318e+00 -5.404328e+00 -5.659100e+00 -3.045256e+00 2.331868e-01 7.949429e-01 -3.139594e-01 -1.235531e+00 -8.996761e-01 5.942776e-02 7.921878e-01 3.838568e-01 2.904400e-03 5.070196e-02 -2.686799e-01 3.114277e-02 -1.384271e-01
<VARIANCE> 25
 3.166031e+00 1.212671e+01 5.045370e+00 1.517460e+01 2.662594e+01 1.649957e+01 1.785992e+01 1.201882e+01 2.341453e+01 1.469942e+01 6.690225e+00 8.396460e+00 4.420866e-01 7.376715e-01 7.554622e-01 1.204219e+00 2.060677e+00 1.350262e+00 2.630472e+00 1.137470e+00 1.165362e+00 1.182437e+00 9.589533e-01 1.068973e+00 2.480347e-01
<GCONST> 7.511219e+01
<STATE> 4
<MEAN> 25
 4.085774e+00 7.228144e+00 1.700093e+00 -6.049889e-01 -3.222483e+00 -4.860327e+00 -3.286508e+00 -1.557795e+00 -1.056042e+00 -1.438870e+00 -3.652120e+00 -2.675125e+00 5.991655e-01 3.453731e-01 -2.495061e-02 -4.781675e-01 -1.244538e+00 -1.645640e+00 -1.163451e+00 8.433847e-02 9.839158e-01 6.087577e-01 9.150990e-02 -1.900511e-02 3.060467e-01
<VARIANCE> 25
 3.151047e+00 3.041253e+00 4.406461e+00 5.127375e+00 9.970203e+00 1.692517e+01 1.124458e+01 6.930852e+00 1.327835e+01 7.913124e+00 8.334378e+00 6.686596e+00 4.196829e-01 3.013752e-01 4.174578e-01 5.924441e-01 1.130585e+00 1.645848e+00 1.308218e+00 8.841820e-01 1.405797e+00 9.651070e-01 1.104706e+00 1.379393e+00 2.282428e-01
<GCONST> 6.603483e+01
<TRANSP> 5
 0.000000e+00 1.000000e+00 0.000000e+00 0.000000e+00 0.000000e+00
 0.000000e+00 4.836825e-01 5.163176e-01 0.000000e+00 0.000000e+00
 0.000000e+00 0.000000e+00 4.863375e-01 5.136625e-01 0.000000e+00
 0.000000e+00 0.000000e+00 0.000000e+00 7.558961e-01 2.441040e-01
 0.000000e+00 0.000000e+00 0.000000e+00 0.000000e+00 0.000000e+00
<ENDHMM>
~h "h"
<BEGINHMM>
<NUMSTATES> 5
<STATE> 2
<MEAN> 25
 3.672978e-01 4.328369e+00 -1.017225e+00 -1.908166e+00 -2.188991e+00 -1.325136e+00 1.594239e+00 3.013284e+00 2.756973e+00 2.315334e+00 -7.918164e-01 -2.819895e-01 2.003124e+00 1.931417e+00 1.072990e+00 7.972265e-02 -1.372408e+00 -2.619091e+00 -2.356112e+00 -1.359826e+00 -4.409484e-01 -4.978424e-01 -1.140199e+00 -1.586067e+00 9.303093e-01
<VARIANCE> 25
 1.140070e+01 1.254064e+01 8.270818e+00 6.300171e+00 8.423265e+00 2.112529e+01 1.739160e+01 8.856767e+00 6.361854e+00 5.436683e+00 8.268088e+00 1.114066e+01 3.496906e-01 2.857161e-01 6.013560e-01 9.132580e-01 1.057993e+00 1.065761e+00 9.739991e-01 1.222144e+00 1.139058e+00 6.285148e-01 9.594595e-01 9.912258e-01 1.715204e-01
<GCONST> 6.839214e+01
<STATE> 3
<MEAN> 25
 8.392799e+00 7.283558e+00 -3.346773e+00 -5.739522e+00 -9.357426e+00 -1.117240e+01 -5.802383e+00 2.489563e+00 6.596177e+00 1.944691e+00 -6.396385e+00 -6.307769e+00 1.007463e+00 -6.430829e-01 -1.497382e+00 -9.776290e-01 -4.047217e-01 -4.284059e-01 -4.248380e-01 2.145663e-01 1.077416e+00 -5.483439e-02 -8.023149e-01 -2.456531e-01 8.361210e-01
<VARIANCE> 25
 4.463482e+00 3.507410e+00 1.046002e+01 6.659637e+00 3.769735e+00 6.614965e+00 6.807248e+00 7.375474e+00 1.196432e+01 5.594440e+00 9.374466e+00 5.644943e+00 4.459891e-01 5.103619e-01 5.608555e-01 4.288435e-01 1.246573e+00 2.791056e+00 1.107333e+00 9.277790e-01 1.156611e+00 3.789074e-01 1.120923e+00 8.727163e-01 1.608468e-01
<GCONST> 6.394079e+01
<STATE> 4
<MEAN> 25
 1.076455e+01 1.278164e+00 -1.048799e+01 -7.917864e+00 -4.564236e+00 -5.653192e+00 -6.389658e+00 -6.445123e-01 5.846581e+00 5.501927e-01 -5.544012e+00 -2.276386e+00 -1.471964e-01 -1.346743e+00 -4.340847e-01 6.280889e-01 1.855742e+00 1.558554e+00 -2.323816e-01 -1.224482e+00 -2.105696e+00 -5.801055e-01 1.277622e+00 1.423089e+00 3.300036e-01
<VARIANCE> 25
 3.476809e+00 6.319135e+00 4.403476e+00 7.700611e+00 1.699937e+01 2.575413e+01 1.005532e+01 1.178192e+01 1.179919e+01 9.583558e+00 9.161573e+00 7.644511e+00 4.210057e-01 4.413839e-01 1.262484e+00 9.481162e-01 9.005482e-01 9.815075e-01 2.451866e+00 5.615562e-01 1.298425e+00 1.217278e+00 8.849592e-01 4.716337e-01 1.217269e-01
<GCONST> 6.856511e+01
<TRANSP> 5
 0.000000e+00 1.000000e+00 0.000000e+00 0.000000e+00 0.000000e+00
 0.000000e+00 7.277935e-01 2.722066e-01 0.000000e+00 0.000000e+00
 0.000000e+00 0.000000e+00 8.206589e-01 1.793412e-01 0.000000e+00
 0.000000e+00 0.000000e+00 0.000000e+00 7.605566e-01 2.394434e-01
 0.000000e+00 0.000000e+00 0.000000e+00 0.000000e+00 0.000000e+00
<ENDHMM>
~h "i"
<BEGINHMM>
<NUMSTATES> 5
<STATE> 2
<MEAN> 25
 4.712070e+00 2.089061e+00 -1.922143e-01 3.614759e+00 2.928877e+00 -1.818887e-01 -4.349129e+00 -5.329970e+00 -4.754932e+00 -4.287638e+00 -4.907777e+00 -2.466983e+00 -4.459732e-01 -3.468836e-03 3.740872e-01 -4.369003e-01 -3.673377e-01 6.112759e-01 8.359709e-01 2.740501e-01 -3.531206e-01 -2.975717e-01 7.183207e-01 5.615689e-01 -2.268573e-01
<VARIANCE> 25
 6.489697e+00 9.531555e+00 1.185582e+01 1.071963e+01 1.759747e+01 1.570046e+01 2.050076e+01 1.064654e+01 1.402141e+01 1.428308e+01 1.494588e+01 1.026350e+01 8.051373e-01 1.043543e+00 1.306322e+00 7.831644e-01 1.264825e+00 1.624766e+00 3.366515e+00 6.746636e-01 1.613949e+00 1.862399e+00 2.607377e+00 8.160509e-01 3.817532e-01
<GCONST> 7.853841e+01
<STATE> 3
<MEAN> 25
 7.384994e-01 3.897530e-02 3.791663e+00 1.634603e+00 4.785756e-01 2.039208e+00 -4.729044e-01 -3.899848e+00 -7.096348e+00 -5.119440e+00 8.468297e-01 -6.852344e-01 -1.972967e+00 -1.272573e+00 1.929987e+00 -9.896791e-01 -1.593502e+00 1.608035e-01 1.566354e+00 1.274403e+00 4.699945e-01 2.061296e-02 2.240846e+00 -4.794393e-02 6.372421e-02
<VARIANCE> 25
 1.151991e+01 1.953019e+01 2.433068e+01 1.154203e+01 1.663013e+01 1.666790e+01 1.406652e+01 7.866782e+00 2.226368e+01 1.420574e+01 2.064720e+01 1.058662e+01 1.976798e+00 1.689136e+00 2.499486e+00 6.919838e-01 1.153225e+00 1.568779e+00 1.983460e+00 5.683591e-01 1.472159e+00 1.004098e+00 3.075766e+00 8.721449e-01 2.374662e-01
<GCONST> 8.088175e+01
<STATE> 4
<MEAN> 25
 -8.098866e+00 -8.612334e+00 1.056902e+01 -5.525932e-02 -5.130252e+00 2.036273e+00 6.262557e+00 2.841989e+00 -2.137027e+00 -3.636775e+00 1.061774e+01 9.376304e-01 -2.363663e-01 -2.799848e-01 -3.096146e-01 -1.933911e-02 -1.983196e-01 -2.395100e-01 1.497492e-01 7.179138e-01 7.867652e-01 5.183530e-01 1.786799e-01 3.746807e-01 -2.187772e-01
<VARIANCE> 25
 1.579881e+01 2.700504e+01 2.080266e+01 5.627361e+00 1.091293e+01 1.261661e+01 1.768038e+01 1.328671e+01 1.926958e+01 1.427250e+01 2.535663e+01 1.420272e+01 9.793693e-01 8.503171e-01 1.187321e+00 8.763844e-01 7.669230e-01 7.206454e-01 1.228312e+00 8.930718e-01 1.232128e+00 5.028732e-01 1.760095e+00 7.926434e-01 1.023893e-01
<GCONST> 7.558479e+01
<TRANSP> 5
 0.000000e+00 1.000000e+00 0.000000e+00 0.000000e+00 0.000000e+00
 0.000000e+00 4.900604e-01 5.099396e-01 0.000000e+00 0.000000e+00
 0.000000e+00 0.000000e+00 4.667815e-01 5.332186e-01 0.000000e+00
 0.000000e+00 0.000000e+00 0.000000e+00 7.998359e-01 2.001641e-01
 0.000000e+00 0.000000e+00 0.000000e+00 0.000000e+00 0.000000e+00
<ENDHMM>
~h "j"
<BEGINHMM>
<NUMSTATES> 5
<STATE> 2
<MEAN> 25
 1.960579e+00 -3.302200e+00 8.181217e+00 1.233218e+01 4.668894e+00 -2.419412e+00 -6.713348e+00 -3.516829e+00 -1.325570e+00 -4.203311e+00 -6.056417e+00 -7.811797e+00 2.755280e+00 6.580971e-01 -1.587512e+00 2.922030e+00 3.343543e+00 -1.865248e+00 -4.445055e+00 -7.339924e-01 4.733683e-01 -1.412611e+00 -2.656285e+00 -9.107044e-01 7.307604e-01
<VARIANCE> 25
 5.238014e+00 7.906928e+00 2.511026e+01 1.525931e+01 9.277197e+00 6.991378e+00 2.333395e+01 9.706524e+00 1.152057e+01 1.102999e+01 1.520265e+01 1.298309e+01 1.283269e+00 1.347893e+00 1.084969e+00 3.709009e+00 1.296285e+00 1.346017e+00 1.595744e+00 2.827083e+00 1.897268e+00 1.240521e+00 2.858781e+00 1.312762e+00 1.446472e-01
<GCONST> 7.959241e+01
<STATE> 3
<MEAN> 25
 4.692143e+00 -3.229175e+00 3.500790e+00 1.563937e+01 9.818105e+00 -6.005076e+00 -1.165336e+01 -2.809769e+00 5.719708e-01 -5.514692e+00 -7.280714e+00 -6.922126e+00 3.595311e-01 1.735709e-01 -7.316107e-01 -4.363943e-02 5.602580e-01 -2.860122e-01 -6.739599e-01 -2.848473e-01 -3.330117e-02 -1.414395e-01 3.426538e-02 1.080615e-01 6.860561e-02
<VARIANCE> 25
 3.382885e+00 7.727588e+00 9.607031e+00 1.034299e+01 1.199567e+01 1.087168e+01 2.941143e+01 1.378270e+01 1.966429e+01 1.134391e+01 1.400329e+01 1.277714e+01 5.394353e-01 9.889636e-01 9.527803e-01 9.057159e-01 1.600515e+00 1.241214e+00 4.548346e+00 1.401048e+00 2.325954e+00 1.150405e+00 1.275789e+00 1.195471e+00 3.879301e-01
<GCONST> 7.750127e+01
<STATE> 4
<MEAN> 25
 4.398708e+00 -3.006790e-01 1.609392e+00 1.108112e+01 9.319650e+00 -3.107266e+00 -9.573109e+00 -4.939359e+00 -2.530688e+00 -4.660371e+00 -5.251941e+00 -6.119330e+00 -3.422053e-01 4.192421e-01 3.270414e-02 -1.091098e+00 -7.519862e-01 8.613692e-01 1.299930e+00 1.978222e-03 -4.138207e-01 4.798074e-01 4.971122e-01 2.645047e-01 -3.182883e-01
<VARIANCE> 25
 6.202867e+00 7.214588e+00 1.392707e+01 2.203138e+01 1.595213e+01 1.775422e+01 3.474075e+01 1.444470e+01 1.649570e+01 1.499310e+01 1.692637e+01 1.787381e+01 9.007739e-01 8.099870e-01 1.302794e+00 1.498348e+00 1.794816e+00 1.576840e+00 3.934772e+00 1.838262e+00 2.063521e+00 1.381757e+00 1.434157e+00 1.472152e+00 4.072427e-01
<GCONST> 8.283106e+01
<TRANSP> 5
 0.000000e+00 1.000000e+00 0.000000e+00 0.000000e+00 0.000000e+00
 0.000000e+00 4.179021e-01 5.820980e-01 0.000000e+00 0.000000e+00
 0.000000e+00 0.000000e+00 8.482965e-01 1.517036e-01 0.000000e+00
 0.000000e+00 0.000000e+00 0.000000e+00 8.494573e-01 1.505426e-01
 0.000000e+00 0.000000e+00 0.000000e+00 0.000000e+00 0.000000e+00
<ENDHMM>
~h "m"
<BEGINHMM>
<NUMSTATES> 5
<STATE> 2
<MEAN> 25
 4.789906e+00 5.486731e+00 -3.124708e-01 7.025138e-01 1.680981e+00 1.484099e-01 -7.460686e-01 1.090165e+00 3.125592e+00 2.844684e+00 -3.535676e+00 -6.652498e+00 -9.093902e-01 -7.514930e-02 4.182659e-01 2.924032e-01 3.154123e-01 7.953375e-01 1.075668e+00 3.467819e-02 -6.739044e-01 -3.743200e-01 -5.808917e-02 2.342599e-01 -5.577027e-01
<VARIANCE> 25
 4.439888e+00 2.004420e+00 6.388304e+00 3.633940e+00 2.999220e+00 5.444999e+00 8.498648e+00 5.368623e+00 9.856013e+00 4.781973e+00 5.087744e+00 6.520593e+00 1.710650e-01 2.194920e-01 4.226980e-01 2.695640e-01 3.741654e-01 2.825657e-01 7.306144e-01 6.095223e-01 6.426401e-01 5.810671e-01 6.101765e-01 7.629134e-01 4.904306e-02
<GCONST> 5.197118e+01
<STATE> 3
<MEAN> 25
 9.118426e-02 4.569238e+00 7.563270e-01 1.175292e+00 2.888619e+00 3.890407e+00 4.368223e+00 7.439823e-01 -1.517160e-01 5.762124e-01 -3.270134e+00 -5.415842e+00 -9.755750e-01 -7.535952e-01 -2.464906e-01 -5.129895e-02 3.603169e-01 8.386632e-01 5.070722e-01 3.568889e-01 8.938499e-04 -1.789546e-01 5.389141e-01 9.861636e-01 -5.119510e-01
<VARIANCE> 25
 1.292722e+00 1.165186e+00 1.820967e+00 2.401583e+00 3.145769e+00 3.906230e+00 4.830698e+00 7.792704e+00 8.699310e+00 3.550534e+00 5.092945e+00 3.044599e+00 1.507735e-01 1.307472e-01 2.847955e-01 2.083304e-01 3.573515e-01 3.580197e-01 3.918881e-01 3.490126e-01 4.979967e-01 7.840692e-01 3.172719e-01 6.325176e-01 8.013999e-02
<GCONST> 4.427328e+01
<STATE> 4
<MEAN> 25
 -1.044359e+00 2.757825e+00 -3.474914e-01 1.089212e+00 2.762451e+00 4.235114e+00 3.886418e+00 1.624075e+00 5.187684e-02 4.246776e-01 -1.668964e+00 -4.940353e-01 -2.110796e-01 -3.998058e-01 -1.145795e-01 -1.873619e-01 -2.437516e-01 -2.429510e-01 -1.235877e-01 2.811134e-01 1.650099e-01 -2.119707e-02 4.857501e-01 7.624149e-01 3.763732e-03
<VARIANCE> 25
 2.850413e+00 2.649287e+00 2.622556e+00 4.371552e+00 3.819915e+00 4.543303e+00 4.564044e+00 4.847908e+00 8.277700e+00 4.538777e+00 3.675294e+00 7.140010e+00 3.067812e-01 3.770490e-01 2.934671e-01 4.204407e-01 5.229604e-01 5.310731e-01 4.264424e-01 6.461813e-01 9.623868e-01 4.233917e-01 7.248330e-01 6.233200e-01 1.670132e-01
<GCONST> 5.295065e+01
<TRANSP> 5
 0.000000e+00 1.000000e+00 0.000000e+00 0.000000e+00 0.000000e+00
 0.000000e+00 8.160033e-01 1.839967e-01 0.000000e+00 0.000000e+00
 0.000000e+00 0.000000e+00 5.156022e-01 4.843978e-01 0.000000e+00
 0.000000e+00 0.000000e+00 0.000000e+00 8.218679e-01 1.781321e-01
 0.000000e+00 0.000000e+00 0.000000e+00 0.000000e+00 0.000000e+00
<ENDHMM>
~h "n"
<BEGINHMM>
<NUMSTATES> 5
<STATE> 2
<MEAN> 25
 5.889449e+00 4.863792e+00 -7.571362e-01 3.843175e+00 6.480471e+00 3.280691e+00 -8.246900e-01 -1.874296e+00 -4.871890e-01 -1.786522e+00 -7.206964e+00 -7.611311e+00 2.919272e-01 -2.249223e-01 -3.097167e-01 -4.785912e-01 -7.887901e-01 -7.280843e-01 1.165327e-01 7.116624e-01 5.871340e-01 1.923221e-01 2.377830e-02 -2.823936e-01 3.047408e-01
<VARIANCE> 25
 2.998124e+00 3.289351e+00 7.127636e+00 1.022307e+01 1.338939e+01 1.154223e+01 7.596397e+00 1.163958e+01 9.390002e+00 8.210342e+00 1.103612e+01 9.121459e+00 2.124288e-01 3.072876e-01 3.271555e-01 1.472776e+00 2.429614e+00 1.714874e+00 6.336676e-01 1.001374e+00 1.001189e+00 8.254533e-01 1.537766e+00 1.157804e+00 1.476416e-01
<GCONST> 6.698981e+01
<STATE> 3
<MEAN> 25
 7.462411e+00 4.160586e+00 -2.902261e+00 -1.374878e+00 -1.898053e-01 -1.268994e+00 -5.054380e-01 1.326969e+00 2.551815e+00 9.853438e-01 -4.079440e+00 -5.918821e+00 3.590012e-01 -1.435929e-02 -6.123599e-01 -1.686143e+00 -2.218250e+00 -1.419560e+00 7.530010e-02 1.232027e+00 1.116985e+00 8.811652e-01 1.035835e+00 1.066282e+00 2.618530e-01
<VARIANCE> 25
 4.098315e+00 3.588278e+00 6.254055e+00 9.397785e+00 1.551518e+01 2.470952e+01 8.207059e+00 1.143439e+01 9.480253e+00 1.303128e+01 9.313116e+00 8.855170e+00 2.037245e-01 2.441219e-01 5.458275e-01 1.205226e+00 1.215072e+00 1.385044e+00 9.026457e-01 7.493431e-01 1.028936e+00 8.441915e-01 1.421179e+00 9.581332e-01 1.205202e-01
<GCONST> 6.719011e+01
<STATE> 4
<MEAN> 25
 7.197711e+00 4.121203e+00 -2.542944e+00 -3.387738e+00 -2.839432e+00 -1.873342e+00 3.084817e-01 2.667483e+00 2.592757e+00 1.274227e+00 -2.353881e+00 -3.896033e+00 -2.716106e-01 -3.255778e-01 3.416122e-01 -1.187362e+00 -1.676720e+00 -5.012956e-01 2.252623e-01 6.331757e-01 5.716360e-01 4.902161e-01 8.653757e-01 9.403930e-01 7.841220e-02
<VARIANCE> 25
 5.462741e+00 3.545325e+00 1.913271e+01 8.166656e+00 1.417542e+01 2.521950e+01 1.041545e+01 6.890576e+00 1.327484e+01 1.204886e+01 7.873826e+00 1.018556e+01 1.529657e+00 8.305380e-01 3.182157e+00 1.041103e+00 1.221900e+00 3.211138e+00 9.069357e-01 9.686917e-01 1.874824e+00 8.213788e-01 9.441051e-01 1.512884e+00 1.297691e-01
<GCONST> 7.499488e+01
<TRANSP> 5
 0.000000e+00 1.000000e+00 0.000000e+00 0.000000e+00 0.000000e+00
 0.000000e+00 7.589526e-01 2.410475e-01 0.000000e+00 0.000000e+00
 0.000000e+00 0.000000e+00 3.927554e-01 6.072446e-01 0.000000e+00
 0.000000e+00 0.000000e+00 0.000000e+00 1.792941e-01 8.207060e-01
 0.000000e+00 0.000000e+00 0.000000e+00 0.000000e+00 0.000000e+00
<ENDHMM>
~h "p"
<BEGINHMM>
<NUMSTATES> 5
<STATE> 2
<MEAN> 25
 -3.386729e+00 -1.550169e-01 -1.891089e+00 -6.850917e-01 -2.415883e-01 2.087047e+00 3.229283e+00 1.415583e+00 6.809952e-01 3.106631e+00 2.708951e+00 2.819152e+00 1.902803e+00 1.170348e+00 6.293173e-01 -1.916988e-01 -1.551999e+00 -2.378155e+00 -1.825204e+00 -7.152329e-01 -2.778513e-01 -9.586418e-01 -1.436232e+00 -1.975885e+00 1.153497e+00
<VARIANCE> 25
 2.109209e+00 2.901779e+00 3.392652e+00 4.030130e+00 9.298120e+00 5.817860e+00 6.285857e+00 6.608616e+00 9.008375e+00 9.931911e+00 7.735172e+00 1.382964e+01 1.137161e+00 1.067430e+00 6.649579e-01 5.993136e-01 6.699614e-01 1.689758e+00 1.564667e+00 8.996003e-01 1.085332e+00 1.127294e+00 1.425723e+00 1.293952e+00 2.827175e-01
<GCONST> 6.654836e+01
<STATE> 3
<MEAN> 25
 2.348624e+00 4.743437e+00 8.266658e-01 -7.875789e-01 -4.038900e+00 -4.681245e+00 -2.393144e+00 -1.521581e+00 -1.186208e+00 -3.250909e-01 -1.258153e+00 -1.501841e+00 3.447183e+00 1.848804e+00 -1.657178e-01 -6.531782e-01 -1.997696e+00 -4.117701e+00 -3.335205e+00 -2.273636e-01 8.402218e-01 -1.292529e+00 -2.707479e+00 -1.981937e+00 1.776862e+00
<VARIANCE> 25
 1.063106e+01 1.118659e+01 5.701198e+00 4.910035e+00 9.169057e+00 1.975706e+01 1.795868e+01 9.683484e+00 1.086738e+01 6.615497e+00 7.265153e+00 1.100446e+01 6.369517e-01 6.933187e-01 1.453389e+00 1.208016e+00 1.030697e+00 1.344515e+00 9.437997e-01 1.147396e+00 1.671151e+00 1.245484e+00 1.281613e+00 2.121694e+00 4.137245e-01
<GCONST> 7.407408e+01
<STATE> 4
<MEAN> 25
 8.417388e+00 5.783446e+00 -3.163195e+00 -3.386448e+00 -6.966362e+00 -1.175877e+01 -7.473423e+00 1.342959e+00 3.850365e+00 -1.495377e+00 -6.989826e+00 -5.108024e+00 1.799181e+00 7.007642e-01 -5.365086e-01 -5.255591e-01 -7.847297e-01 -1.575323e+00 -1.117991e+00 2.523757e-01 6.410815e-01 -8.740997e-01 -1.874535e+00 -1.230877e+00 9.439391e-01
<VARIANCE> 25
 3.289876e+00 6.240493e+00 1.272410e+01 7.503734e+00 5.596001e+00 8.125036e+00 8.187872e+00 9.473593e+00 1.330133e+01 1.064408e+01 9.615086e+00 1.314454e+01 3.147600e+00 5.382920e-01 1.931173e+00 1.019997e+00 1.605846e+00 5.890890e+00 4.344668e+00 1.450968e+00 3.817425e+00 1.215451e+00 2.390571e+00 1.614725e+00 1.254719e+00
<GCONST> 7.989385e+01
<TRANSP> 5
 0.000000e+00 1.000000e+00 0.000000e+00 0.000000e+00 0.000000e+00
 0.000000e+00 5.074562e-01 4.925437e-01 0.000000e+00 0.000000e+00
 0.000000e+00 0.000000e+00 2.268895e-01 7.731104e-01 0.000000e+00
 0.000000e+00 0.000000e+00 0.000000e+00 4.192161e-01 5.807840e-01
 0.000000e+00 0.000000e+00 0.000000e+00 0.000000e+00 0.000000e+00
<ENDHMM>
~h "r"
<BEGINHMM>
<NUMSTATES> 5
<STATE> 2
<MEAN> 25
 5.239992e+00 2.400260e+00 -6.142009e+00 -5.160580e+00 -1.485551e+00 -2.177410e+00 -3.729995e+00 -2.485807e+00 1.784679e+00 2.038213e+00 -4.235756e+00 -3.992609e+00 -2.800651e-01 1.204438e-01 3.867183e-01 4.988539e-01 1.767427e-01 2.271102e-01 8.682413e-01 6.606187e-01 -2.082548e-01 9.773959e-02 3.292112e-01 2.182176e-01 -2.432429e-01
<VARIANCE> 25
 1.374655e+01 4.884463e+00 1.345236e+01 4.841800e+00 6.325243e+00 3.846833e+00 1.747958e+01 7.179058e+00 8.467454e+00 1.060353e+01 1.779543e+01 6.949236e+00 2.138104e+00 6.132142e-01 1.587242e+00 1.495462e+00 1.824418e+00 4.815235e-01 3.251027e+00 1.299301e+00 1.297422e+00 1.062359e+00 2.565451e+00 2.523109e+00 6.099164e-01
<GCONST> 7.580984e+01
<STATE> 3
<MEAN> 25
 2.718972e+00 6.845179e-01 -4.639440e+00 -2.969736e+00 -1.618413e+00 -2.451895e+00 -2.217100e+00 -1.451233e+00 2.828884e-01 2.526126e+00 -1.315423e+00 -1.050020e+00 -2.108267e-01 -4.040390e-01 -2.682385e-01 1.107931e+00 8.535683e-01 -4.312079e-02 -2.877200e-01 2.112471e-01 1.825975e-03 6.746998e-02 1.440762e-01 3.917423e-01 -2.726845e-01
<VARIANCE> 25
 1.234106e+01 9.290854e+00 1.440270e+01 9.047016e+00 1.058729e+01 6.305845e+00 2.136965e+01 8.457006e+00 1.142604e+01 6.519031e+00 2.505938e+01 1.588244e+01 2.869227e+00 6.397275e-01 6.907741e-01 1.222329e+00 1.337735e+00 6.337419e-01 2.573336e+00 9.287525e-01 8.412294e-01 8.870382e-01 3.536842e+00 4.035360e+00 5.366835e-01
<GCONST> 7.814144e+01
<STATE> 4
<MEAN> 25
 2.088575e+00 -3.358204e-01 -3.986015e+00 -3.116711e-01 9.531868e-02 -2.181040e+00 -2.615406e+00 -1.112130e+00 5.291736e-01 2.783619e+00 -7.482771e-01 -1.593979e+00 1.153850e-01 9.621102e-02 -3.963464e-01 7.019040e-01 7.756076e-01 6.217732e-02 -3.426086e-01 1.002196e-01 1.491002e-01 -3.369525e-01 -7.070509e-01 5.229521e-02 -2.215853e-01
<VARIANCE> 25
 8.836185e+00 1.255178e+01 7.953692e+00 1.928408e+01 1.828855e+01 1.302047e+01 1.730120e+01 8.310108e+00 1.265294e+01 1.038065e+01 1.115658e+01 1.756048e+01 2.182247e+00 9.004021e-01 9.013449e-01 1.471182e+00 1.254039e+00 3.854402e-01 1.596709e+00 4.630015e-01 7.850198e-01 1.067422e+00 3.127059e+00 3.090209e+00 3.883479e-01
<GCONST> 7.735935e+01
<TRANSP> 5
 0.000000e+00 1.000000e+00 0.000000e+00 0.000000e+00 0.000000e+00
 0.000000e+00 5.222135e-01 4.777866e-01 0.000000e+00 0.000000e+00
 0.000000e+00 0.000000e+00 7.507967e-03 9.924921e-01 0.000000e+00
 0.000000e+00 0.000000e+00 0.000000e+00 2.219121e-01 7.780880e-01
 0.000000e+00 0.000000e+00 0.000000e+00 0.000000e+00 0.000000e+00
<ENDHMM>
~h "s"
<BEGINHMM>
<NUMSTATES> 5
<STATE> 2
<MEAN> 25
 -3.833217e+00 -3.810398e+00 1.037132e+01 -9.809734e-01 -3.924543e+00 3.085737e+00 3.928158e+00 -1.855662e+00 -4.418234e+00 -1.673888e+00 3.570471e+00 -5.064475e+00 -2.526677e+00 -1.205470e+00 2.574311e+00 -1.783939e+00 -1.404763e+00 1.228131e+00 1.851337e+00 3.475945e-01 -1.923652e-01 5.210267e-01 2.245920e+00 -9.049362e-02 1.583592e-01
<VARIANCE> 25
 2.201973e+01 9.814467e+00 3.469378e+01 2.021682e+01 2.336970e+01 1.629811e+01 1.617274e+01 2.494794e+01 1.533213e+01 1.256993e+01 2.771854e+01 2.780870e+01 1.437888e+00 1.077760e+00 3.548757e+00 1.940657e+00 1.597660e+00 1.330282e+00 2.733895e+00 1.404753e+00 2.321491e+00 1.001874e+00 2.584116e+00 1.487327e+00 1.847708e-01
<GCONST> 8.669611e+01
<STATE> 3
<MEAN> 25
 -9.949882e+00 -5.401711e+00 1.301226e+01 -6.276480e+00 -4.334855e+00 6.045578e+00 6.241677e+00 4.052215e-01 -1.945458e+00 1.244896e+00 8.211681e+00 -2.842307e+00 -7.207880e-02 1.396851e-01 -7.847781e-01 2.565900e-02 3.692312e-01 -5.993067e-03 -3.296935e-02 4.165819e-01 4.109116e-01 4.789796e-01 -2.204281e-02 6.077690e-01 -4.271705e-01
<VARIANCE> 25
 3.485123e+00 8.096883e+00 1.382400e+01 8.309311e+00 1.759493e+01 1.350687e+01 1.156207e+01 1.209586e+01 1.684707e+01 1.195198e+01 1.208629e+01 1.457621e+01 6.610146e-01 6.732360e-01 1.545113e+00 1.374057e+00 1.266541e+00 1.058700e+00 8.693274e-01 1.025553e+00 1.119229e+00 9.556778e-01 1.260559e+00 1.076120e+00 2.079666e-01
<GCONST> 7.384223e+01
<STATE> 4
<MEAN> 25
 -5.141280e+00 -1.893386e+00 2.639625e+00 -1.682077e+00 -1.129350e+00 3.800715e+00 4.433560e+00 1.861888e+00 -2.160065e-01 2.233898e+00 4.147091e+00 2.493233e+00 1.173833e+00 8.410576e-01 -1.557632e+00 6.201535e-01 4.456292e-01 -4.248259e-01 -5.511485e-01 -2.088259e-01 7.685853e-02 -1.406477e-01 -1.106241e+00 4.516662e-01 -4.107695e-01
<VARIANCE> 25
 8.527864e+00 8.111911e+00 1.781117e+01 7.384197e+00 8.612647e+00 7.520150e+00 1.040137e+01 1.197271e+01 1.301431e+01 1.419735e+01 1.587394e+01 1.438731e+01 1.827594e+00 9.267451e-01 1.197747e+00 8.702652e-01 7.533797e-01 1.165996e+00 1.209006e+00 1.226195e+00 1.847211e+00 2.244677e+00 3.122080e+00 1.784283e+00 4.843726e-01
<GCONST> 7.795564e+01
<TRANSP> 5
 0.000000e+00 1.000000e+00 0.000000e+00 0.000000e+00 0.000000e+00
 0.000000e+00 6.445509e-01 3.554492e-01 0.000000e+00 0.000000e+00
 0.000000e+00 0.000000e+00 8.189741e-01 1.810260e-01 0.000000e+00
 0.000000e+00 0.000000e+00 0.000000e+00 7.938405e-01 2.061595e-01
 0.000000e+00 0.000000e+00 0.000000e+00 0.000000e+00 0.000000e+00
<ENDHMM>
~h "t"
<BEGINHMM>
<NUMSTATES> 5
<STATE> 2
<MEAN> 25
 -9.307240e-01 1.183379e-01 -1.979505e-01 -1.748143e+00 -3.082938e+00 -9.665743e-01 1.451752e+00 -6.004882e-01 -5.926757e-01 1.219741e+00 1.158198e+00 1.348811e+00 1.123302e+00 2.901595e-01 1.021130e-01 3.800964e-01 1.553566e-01 -5.774417e-01 -1.108103e+00 -8.542181e-01 -3.816356e-01 -7.368498e-01 -1.314767e+00 -1.190083e+00 7.237828e-01
<VARIANCE> 25
 9.257628e+00 1.218924e+01 1.134727e+01 1.502697e+01 1.468821e+01 1.069350e+01 1.144102e+01 1.013073e+01 1.290607e+01 1.009484e+01 1.698046e+01 1.936991e+01 3.171491e+00 1.826340e+00 1.990537e+00 1.190956e+00 1.061821e+00 1.336662e+00 2.144699e+00 1.754069e+00 1.432975e+00 1.513801e+00 3.803662e+00 2.001275e+00 5.691427e-01
<GCONST> 8.282203e+01
<STATE> 3
<MEAN> 25
 4.403664e+00 1.065258e+00 -3.556778e+00 -1.771759e+00 -2.630412e+00 -4.223456e+00 -2.732049e+00 -2.143574e+00 -1.436669e+00 -1.079528e+00 -3.400547e+00 -9.858708e-01 1.316239e+00 1.823437e-01 -1.110664e+00 -2.524408e-01 2.663311e-01 -6.609681e-01 -1.047662e+00 -3.155770e-01 1.164484e-01 -5.771059e-01 -9.826283e-01 -3.965786e-01 6.653270e-01
<VARIANCE> 25
 2.374100e+01 1.162186e+01 1.326727e+01 1.405007e+01 1.329455e+01 3.297711e+01 1.893559e+01 1.548759e+01 1.451540e+01 1.768775e+01 2.607209e+01 1.893227e+01 2.320362e+00 1.454083e+00 2.470160e+00 1.843941e+00 1.006217e+00 1.322950e+00 2.016273e+00 1.571215e+00 1.225227e+00 1.349764e+00 3.129092e+00 1.331238e+00 4.880560e-01
<GCONST> 8.569302e+01
<STATE> 4
<MEAN> 25
 4.299441e+00 1.410615e+00 -4.252389e+00 -2.359282e+00 -2.259904e+00 -3.446104e+00 -1.973432e+00 -1.049917e+00 -5.789672e-01 -1.152505e+00 -2.612638e+00 -4.032187e-01 2.844120e-01 2.827015e-01 -2.592784e-02 -2.666410e-01 -8.569607e-02 1.431676e-01 2.471756e-03 1.515416e-01 1.035176e-01 -1.991565e-01 -2.227643e-01 -3.348441e-01 1.181621e-01
<VARIANCE> 25
 2.895686e+01 6.439332e+00 1.294040e+01 1.290915e+01 1.357480e+01 1.990608e+01 2.352489e+01 2.013747e+01 1.987582e+01 2.030677e+01 3.211341e+01 2.132976e+01 1.530187e+00 8.190499e-01 1.659271e+00 1.263707e+00 9.123886e-01 1.548948e+00 1.959450e+00 1.379193e+00 1.197861e+00 1.223007e+00 2.570621e+00 1.702683e+00 6.662108e-01
<GCONST> 8.434145e+01
<TRANSP> 5
 0.000000e+00 1.000000e+00 0.000000e+00 0.000000e+00 0.000000e+00
 0.000000e+00 4.699751e-01 5.300249e-01 0.000000e+00 0.000000e+00
 0.000000e+00 0.000000e+00 3.590659e-01 6.409341e-01 0.000000e+00
 0.000000e+00 0.000000e+00 0.000000e+00 3.917482e-01 6.082518e-01
 0.000000e+00 0.000000e+00 0.000000e+00 0.000000e+00 0.000000e+00
<ENDHMM>
~h "v"
<BEGINHMM>
<NUMSTATES> 5
<STATE> 2
<MEAN> 25
 7.720396e-01 1.361019e+00 -2.648956e+00 -1.369135e+00 -6.298274e-01 -4.624774e-01 7.052236e-01 1.655370e+00 9.500777e-01 1.045812e+00 4.476221e-01 2.052625e+00 -1.588284e-01 2.179402e-01 2.932050e-01 2.277809e-01 3.533346e-01 2.736589e-01 1.504221e-01 -2.079646e-01 -3.918902e-01 -9.035039e-02 4.302092e-03 1.216523e-02 -1.680557e-01
<VARIANCE> 25
 3.488786e+01 1.127434e+01 1.560060e+01 7.369757e+00 1.597398e+01 3.236291e+01 3.150782e+01 1.209400e+01 2.386861e+01 1.595971e+01 1.970067e+01 2.567469e+01 4.481924e-01 2.457339e-01 3.878799e-01 3.913433e-01 7.745411e-01 6.364214e-01 9.521590e-01 8.154665e-01 1.400136e+00 7.633391e-01 1.429801e+00 7.940882e-01 1.564116e-01
<GCONST> 7.431255e+01
<STATE> 3
<MEAN> 25
 3.954384e-01 1.599874e+00 -2.552111e+00 -1.284317e+00 -1.939796e-01 -8.819182e-02 7.823188e-01 1.279881e+00 5.976475e-01 1.626995e+00 9.401068e-01 2.013673e+00 5.059776e-02 4.942658e-01 5.145861e-01 4.222327e-01 3.806234e-01 3.057337e-01 1.392471e-01 -3.565286e-01 -3.545900e-01 -1.525162e-01 -3.904767e-01 -4.611067e-01 -8.152701e-02
<VARIANCE> 25
 3.052095e+01 1.060974e+01 1.070201e+01 7.264284e+00 1.592539e+01 3.221240e+01 3.086319e+01 1.262389e+01 2.291522e+01 1.818535e+01 2.243279e+01 2.353030e+01 7.780148e-01 4.440706e-01 4.807960e-01 5.008512e-01 6.060275e-01 6.223890e-01 1.147083e+00 7.177673e-01 8.736258e-01 6.951988e-01 1.480468e+00 1.132647e+00 3.017373e-01
<GCONST> 7.575127e+01
<STATE> 4
<MEAN> 25
 6.188184e-01 2.901272e+00 -1.586999e+00 -6.784725e-01 6.002271e-01 7.789585e-01 1.573453e+00 1.637007e+00 5.752480e-01 8.465110e-01 9.068125e-02 1.192532e+00 5.294322e-01 5.834770e-01 6.103560e-01 6.508620e-01 4.978413e-01 8.377386e-02 -4.515850e-01 -6.224373e-01 -4.058852e-01 -3.515313e-01 -7.296798e-01 -1.015735e+00 2.404012e-01
<VARIANCE> 25
 2.110155e+01 8.337224e+00 1.143124e+01 9.634573e+00 1.564594e+01 2.981563e+01 2.266412e+01 1.177581e+01 1.921548e+01 1.746184e+01 1.715110e+01 2.783351e+01 1.077826e+00 1.025979e+00 9.109756e-01 7.172123e-01 7.371058e-01 8.195859e-01 2.599338e+00 1.498478e+00 9.411168e-01 6.644499e-01 1.614488e+00 1.809615e+00 5.930827e-01
<GCONST> 8.014575e+01
<TRANSP> 5
 0.000000e+00 1.000000e+00 0.000000e+00 0.000000e+00 0.000000e+00
 0.000000e+00 7.227158e-03 9.927729e-01 0.000000e+00 0.000000e+00
 0.000000e+00 0.000000e+00 1.405005e-02 9.859499e-01 0.000000e+00
 0.000000e+00 0.000000e+00 0.000000e+00 1.414381e-01 8.585619e-01
 0.000000e+00 0.000000e+00 0.000000e+00 0.000000e+00 0.000000e+00
<ENDHMM>
~h "z"
<BEGINHMM>
<NUMSTATES> 5
<STATE> 2
<MEAN> 25
 -1.137805e+00 -3.925300e-01 9.628362e+00 -1.943761e+00 -6.527905e+00 3.889012e+00 2.905244e+00 -1.051910e+00 -3.775099e+00 -7.614702e-01 5.829484e-01 -4.228904e+00 5.077316e-01 -1.718411e-01 -6.171623e-01 2.390998e-01 9.184793e-03 -9.421436e-01 -8.772731e-01 -2.978260e-01 5.809516e-02 -6.140275e-01 -1.027703e+00 -2.412181e-01 2.900084e-01
<VARIANCE> 25
 1.249603e+01 6.733717e+00 1.861352e+01 8.988620e+00 6.074939e+00 1.367794e+01 1.020091e+01 7.517395e+00 8.574214e+00 1.055978e+01 2.415401e+01 8.804248e+00 5.165677e+00 1.410136e+00 1.007998e+01 1.112780e+00 9.637512e-01 4.449285e+00 2.947675e+00 7.345760e-01 1.993873e+00 9.552082e-01 4.825649e+00 1.051220e+00 2.340291e-01
<GCONST> 8.157182e+01
<STATE> 3
<MEAN> 25
 8.460872e+00 5.856638e-01 -5.069631e+00 -3.081634e+00 -4.688813e+00 -6.668670e+00 -6.581764e+00 -1.897876e+00 1.360224e+00 -4.562960e+00 -8.920472e+00 -1.800404e+00 2.333769e+00 -9.536542e-01 -4.650157e+00 -9.661841e-01 7.226706e-01 -2.570713e+00 -2.470033e+00 1.022661e+00 2.126939e+00 -7.765694e-02 -6.906527e-01 1.594671e+00 1.187679e+00
<VARIANCE> 25
 3.075582e+00 9.095458e+00 1.412328e+01 4.635796e+00 5.572776e+00 5.720650e+00 1.476710e+01 7.897673e+00 1.196335e+01 3.069524e+00 3.659665e+00 8.735582e+00 7.008686e-01 5.350918e-01 1.401522e+00 4.607410e-01 5.012960e-01 1.307693e+00 1.564036e+00 7.542527e-01 8.291342e-01 8.293136e-01 1.416616e+00 4.870909e-01 7.555877e-02
<GCONST> 6.374534e+01
<STATE> 4
<MEAN> 25
 1.045754e+01 -1.963522e+00 -1.024357e+01 -4.470804e+00 -4.097300e+00 -9.121490e+00 -8.646332e+00 9.100324e-01 4.117760e+00 -3.279518e+00 -7.483144e+00 1.471364e-01 1.034887e+00 -9.304750e-01 -2.894235e+00 -1.134707e+00 4.204977e-01 -9.426703e-01 -9.092934e-01 1.225787e+00 1.514858e+00 5.989910e-01 4.816237e-01 7.533855e-01 6.522728e-01
<VARIANCE> 25
 1.691822e+00 8.767826e+00 5.776588e+00 4.076901e+00 5.292048e+00 8.529922e+00 1.000163e+01 7.789599e+00 9.126971e+00 4.789011e+00 2.228324e+00 4.510787e+00 3.448956e-01 4.941336e-01 9.758589e-01 7.624214e-01 3.317747e-01 8.335585e-01 9.459690e-01 5.446731e-01 6.354889e-01 7.718348e-01 1.056278e+00 3.146692e-01 5.755477e-02
<GCONST> 5.737111e+01
<TRANSP> 5
 0.000000e+00 1.000000e+00 0.000000e+00 0.000000e+00 0.000000e+00
 0.000000e+00 8.433859e-01 1.566141e-01 0.000000e+00 0.000000e+00
 0.000000e+00 0.000000e+00 4.988296e-01 5.011703e-01 0.000000e+00
 0.000000e+00 0.000000e+00 0.000000e+00 3.016142e-02 9.698386e-01
 0.000000e+00 0.000000e+00 0.000000e+00 0.000000e+00 0.000000e+00
<ENDHMM>
~h "aa"
<BEGINHMM>
<NUMSTATES> 5
<STATE> 2
<MEAN> 25
 5.918633e+00 1.568987e+00 -4.032791e+00 -2.696387e+00 -3.638514e+00 -5.261520e+00 -3.681643e+00 -3.797991e-01 2.506334e+00 -2.754824e-01 -3.734592e+00 -6.213483e-01 2.127209e+00 -4.278832e-01 -1.881950e+00 -1.102739e+00 -1.009665e+00 -1.775391e+00 -1.695464e+00 8.679714e-02 1.003080e+00 -3.896835e-01 -1.001038e+00 9.934320e-03 1.411946e+00
<VARIANCE> 25
 2.702935e+01 9.800653e+00 3.323372e+01 1.393674e+01 1.221043e+01 2.987806e+01 3.192157e+01 2.227549e+01 1.987036e+01 1.469778e+01 2.162641e+01 1.273149e+01 2.068734e+00 1.112793e+00 2.114409e+00 8.192334e-01 1.425211e+00 1.966114e+00 2.232107e+00 2.118828e+00 1.263737e+00 1.126496e+00 1.999753e+00 1.616333e+00 6.973094e-01
<GCONST> 8.655871e+01
<STATE> 3
<MEAN> 25
 1.102249e+01 -5.667016e-01 -1.054468e+01 -5.947162e+00 -4.856857e+00 -8.488988e+00 -6.990799e+00 1.159522e+00 5.150756e+00 -1.068289e+00 -5.455162e+00 -3.199417e-01 2.090597e-01 -3.667239e-01 -5.436719e-01 -4.358405e-01 2.372514e-02 3.574098e-01 5.450640e-02 1.245362e-02 6.200679e-02 5.238822e-02 2.698072e-01 2.926133e-01 2.265907e-01
<VARIANCE> 25
 6.472443e+00 9.887835e+00 1.496595e+01 5.405399e+00 6.439897e+00 1.800545e+01 1.872515e+01 1.237025e+01 1.476106e+01 8.245846e+00 1.160948e+01 1.101829e+01 2.660753e-01 5.866039e-01 9.769899e-01 5.747695e-01 7.665246e-01 9.808999e-01 6.502398e-01 1.473291e+00 1.010528e+00 8.301337e-01 7.980185e-01 1.096596e+00 1.471794e-01
<GCONST> 6.936265e+01
<STATE> 4
<MEAN> 25
 7.935491e+00 1.834452e+00 -7.237269e+00 -6.134776e+00 -4.268357e+00 -3.760457e+00 -3.609781e+00 -1.495952e+00 5.993490e-01 -1.117439e+00 -3.144400e+00 1.353224e+00 -1.075260e+00 3.210805e-01 1.052020e+00 2.069596e-01 7.044473e-02 8.122742e-01 8.864114e-01 -2.189920e-01 -9.095619e-01 1.212190e-01 6.820090e-01 2.253494e-01 -7.213460e-01
<VARIANCE> 25
 1.326028e+01 1.012757e+01 1.692177e+01 8.147179e+00 1.454233e+01 1.611482e+01 2.557038e+01 1.839563e+01 1.946225e+01 8.448649e+00 1.596274e+01 1.120970e+01 4.416321e-01 8.816660e-01 9.822568e-01 9.072609e-01 1.094430e+00 8.067222e-01 1.629077e+00 1.258068e+00 1.206880e+00 8.348796e-01 1.094268e+00 9.508160e-01 3.406383e-01
<GCONST> 7.617799e+01
<TRANSP> 5
 0.000000e+00 1.000000e+00 0.000000e+00 0.000000e+00 0.000000e+00
 0.000000e+00 5.342514e-01 4.657486e-01 0.000000e+00 0.000000e+00
 0.000000e+00 0.000000e+00 6.229960e-01 3.770041e-01 0.000000e+00
 0.000000e+00 0.000000e+00 0.000000e+00 8.078446e-01 1.921554e-01
 0.000000e+00 0.000000e+00 0.000000e+00 0.000000e+00 0.000000e+00
<ENDHMM>
~h "ae"
<BEGINHMM>
<NUMSTATES> 5
<STATE> 2
<MEAN> 25
 -1.111153e+01 -8.445015e+00 1.396587e+01 -4.028755e+00 -5.962678e+00 4.754962e+00 5.464671e+00 -2.739703e-01 6.313390e-01 9.864659e-01 8.682807e+00 -3.493989e+00 5.811022e-02 -6.321582e-01 -5.012443e-01 8.358270e-01 -6.040450e-01 -7.612705e-01 5.419595e-01 5.453298e-01 5.614889e-01 6.564029e-01 1.551804e-01 2.768554e-01 -2.235116e-01
<VARIANCE> 25
 8.696922e+00 6.582899e+00 9.638450e+00 1.880879e+01 1.090299e+01 1.110755e+01 1.060126e+01 1.439137e+01 1.646173e+01 9.298144e+00 1.388623e+01 9.571126e+00 1.065951e+00 5.202014e-01 1.523224e+00 1.972348e+00 9.907247e-01 1.016783e+00 1.249012e+00 7.466300e-01 7.845597e-01 8.344144e-01 1.588967e+00 8.651130e-01 9.915933e-02
<GCONST> 7.297059e+01
<STATE> 3
<MEAN> 25
 -8.937651e+00 -9.442142e+00 1.075563e+01 1.440234e-01 -5.349837e+00 2.303456e+00 5.045114e+00 2.847816e-01 4.316665e-01 1.675415e+00 7.692442e+00 -1.868922e+00 1.768020e+00 9.059618e-01 -5.874153e-01 2.357297e+00 1.346879e+00 -7.010870e-01 -1.211888e+00 -6.613452e-01 -7.796582e-01 -8.088250e-01 -1.993993e+00 -4.647962e-01 -1.798284e-01
<VARIANCE> 25
 6.282568e+00 4.884270e+00 1.680370e+01 1.390158e+01 1.030147e+01 9.745022e+00 8.602523e+00 1.688417e+01 1.813905e+01 9.372001e+00 1.796652e+01 1.682253e+01 3.193324e+00 1.239392e+00 1.844448e+00 4.446084e+00 1.807114e+00 1.000627e+00 3.073187e+00 1.300631e+00 1.055058e+00 1.486228e+00 3.660249e+00 1.511790e+00 1.508512e-01
<GCONST> 8.098583e+01
<STATE> 4
<MEAN> 25
 -5.059179e+00 -5.930444e+00 1.090437e+01 4.227355e+00 -2.317621e+00 2.096277e+00 3.236998e+00 -1.767798e+00 -2.242199e+00 -8.533279e-01 2.403568e+00 -4.507832e+00 2.821248e+00 1.459560e+00 -8.578852e-01 2.965155e+00 2.611981e+00 -1.167695e+00 -3.123366e+00 -1.172166e+00 -6.920305e-01 -1.373529e+00 -3.082605e+00 -1.358709e+00 3.512503e-01
<VARIANCE> 25
 8.191847e+00 5.663132e+00 2.866473e+01 2.405788e+01 9.536591e+00 9.438197e+00 1.226059e+01 1.240282e+01 1.280480e+01 9.570529e+00 2.389502e+01 2.313560e+01 4.029330e+00 1.146775e+00 1.246149e+00 7.385269e+00 3.154054e+00 1.813671e+00 5.553554e+00 3.335375e+00 1.285762e+00 2.042294e+00 5.530241e+00 9.816244e-01 1.446463e-01
<GCONST> 8.610474e+01
<TRANSP> 5
 0.000000e+00 1.000000e+00 0.000000e+00 0.000000e+00 0.000000e+00
 0.000000e+00 6.503153e-01 3.496847e-01 0.000000e+00 0.000000e+00
 0.000000e+00 0.000000e+00 3.658456e-01 6.341543e-01 0.000000e+00
 0.000000e+00 0.000000e+00 0.000000e+00 6.792179e-02 9.320782e-01
 0.000000e+00 0.000000e+00 0.000000e+00 0.000000e+00 0.000000e+00
<ENDHMM>
~h "ay"
<BEGINHMM>
<NUMSTATES> 5
<STATE> 2
<MEAN> 25
 8.039107e+00 7.087564e+00 3.159545e-01 -2.102020e+00 -8.542246e+00 -1.205415e+01 -6.691255e+00 3.640862e+00 8.182121e+00 2.976347e+00 -2.339866e+00 -3.276198e+00 -7.403430e-02 4.981002e-02 6.883661e-02 -2.729997e-02 -1.802462e-01 -4.714974e-01 -1.630371e-01 1.339998e-01 -2.037790e-01 -1.120658e+00 -9.792783e-01 -6.996337e-01 -2.648789e-02
<VARIANCE> 25
 2.574393e+00 1.599503e+00 2.849946e+00 4.324860e+00 6.131511e+00 1.642498e+01 1.290611e+01 4.584625e+00 8.013764e+00 1.327299e+01 1.431379e+01 5.384105e+00 1.220180e-01 5.677905e-01 5.833846e-01 1.792009e-01 7.190620e-01 8.675500e-01 7.176542e-01 2.955921e-01 7.353532e-01 9.407840e-01 1.692180e+00 9.033228e-01 1.235468e-01
<GCONST> 5.859270e+01
<STATE> 3
<MEAN> 25
 7.653432e+00 7.058563e+00 5.239429e-02 -2.047757e+00 -7.780694e+00 -1.128853e+01 -5.329699e+00 3.757228e+00 5.581692e+00 -1.828757e+00 -6.879021e+00 -5.574857e+00 1.682181e-02 -6.750689e-01 -4.024424e-01 7.128424e-02 6.720720e-01 1.050767e+00 3.014302e-01 -2.023620e-01 -8.022276e-01 -1.442601e+00 -1.148429e+00 -1.163494e-01 1.889868e-01
<VARIANCE> 25
 5.240290e+00 3.774967e+00 2.012900e+00 5.090181e+00 4.227304e+00 1.808960e+01 1.801147e+01 5.378301e+00 5.139865e+00 1.612746e+01 1.681256e+01 1.498691e+01 1.157638e-01 1.049504e+00 4.218332e-01 5.893182e-01 1.386454e+00 1.045175e+00 8.559265e-01 8.802478e-01 9.402216e-01 9.198531e-01 8.078121e-01 1.263970e+00 1.708245e-01
<GCONST> 6.481226e+01
<STATE> 4
<MEAN> 25
 7.874857e+00 1.009510e+00 -2.454021e+00 -8.324842e-01 -2.405391e+00 -3.834394e+00 -5.098388e+00 8.502891e-01 7.798970e-01 -7.578719e+00 -8.986466e+00 -1.237581e+00 -1.394602e+00 -2.018599e+00 9.806096e-01 2.599677e-01 5.684883e-01 2.984596e+00 2.247211e+00 -9.481994e-01 -2.523659e+00 -3.064218e-02 2.389498e+00 9.609125e-01 1.008555e-01
<VARIANCE> 25
 6.217507e+00 1.568151e+01 4.236936e+00 5.506835e+00 1.392663e+01 2.214560e+01 1.947748e+01 1.076952e+01 9.020188e+00 2.361476e+01 9.584310e+00 2.126121e+01 7.764380e-01 6.760974e-01 1.937862e+00 3.876504e-01 2.270661e+00 1.132138e+00 2.005079e+00 9.964712e-01 6.377868e-01 1.756561e+00 1.771206e+00 2.504160e+00 1.220701e-01
<GCONST> 7.563824e+01
<TRANSP> 5
 0.000000e+00 1.000000e+00 0.000000e+00 0.000000e+00 0.000000e+00
 0.000000e+00 5.734284e-01 4.265716e-01 0.000000e+00 0.000000e+00
 0.000000e+00 0.000000e+00 7.768190e-01 2.231809e-01 0.000000e+00
 0.000000e+00 0.000000e+00 0.000000e+00 6.217555e-01 3.782445e-01
 0.000000e+00 0.000000e+00 0.000000e+00 0.000000e+00 0.000000e+00
<ENDHMM>
~h "ch"
<BEGINHMM>
<NUMSTATES> 5
<STATE> 2
<MEAN> 25
 -1.673574e+00 -1.148477e+01 4.293350e+00 5.990223e+00 -1.094201e+00 1.836667e+00 -1.997128e+00 -6.414414e+00 4.582786e+00 -2.185622e+00 -5.800071e+00 -1.708575e+00 -2.033915e+00 -2.212275e+00 1.946331e+00 9.616503e-01 -6.462103e-01 -5.933101e-01 5.690236e-01 8.480500e-01 1.777061e+00 4.084812e-01 9.689904e-01 6.890747e-01 1.744348e-01
<VARIANCE> 25
 1.604109e+01 2.931992e+01 1.458078e+01 1.231293e+01 8.891915e+00 9.982259e+00 8.766662e+00 1.088734e+01 3.227202e+01 1.172172e+01 1.015075e+01 8.063875e+00 5.688120e-01 2.069758e+00 1.133163e+00 1.192384e+00 1.338727e+00 1.034231e+00 1.066087e+00 1.766868e+00 1.909570e+00 1.640773e+00 1.112539e+00 6.396090e-01 9.977412e-02
<GCONST> 7.659552e+01
<STATE> 3
<MEAN> 25
 -8.500531e+00 -1.273710e+01 1.032042e+01 3.292130e+00 -1.058390e+00 -1.257991e+00 1.065246e+00 3.008959e+00 5.129230e+00 -2.918679e+00 3.426681e+00 1.984615e+00 -1.352283e-01 2.127307e+00 -6.153677e-01 -1.751240e+00 2.758667e-01 -3.711356e-02 7.807941e-01 1.600922e+00 -1.901222e+00 3.692758e-01 1.785297e+00 4.668696e-01 -1.080064e+00
<VARIANCE> 25
 2.313646e+00 1.406803e+01 9.115279e+00 2.198768e+01 7.684508e+00 8.616052e+00 9.263368e+00 1.809844e+01 3.113226e+01 7.813243e+00 1.929376e+01 8.883879e+00 7.644714e-01 8.657027e-01 2.628510e+00 1.236827e+00 5.408933e-01 5.882680e-01 8.947641e-01 2.338377e+00 1.504868e+00 1.590483e+00 1.979992e+00 9.157203e-01 2.819352e-01
<GCONST> 7.524394e+01
<STATE> 4
<MEAN> 25
 -5.360215e+00 -4.565295e+00 2.183966e+00 1.513366e+00 -2.125068e+00 1.296851e-01 4.452338e+00 2.967517e+00 1.011299e+00 1.869849e+00 3.769182e+00 4.214526e+00 8.508029e-01 1.031013e+00 -7.869595e-01 2.962925e-02 -5.299419e-01 -9.655989e-02 1.418760e-01 -7.620473e-01 -6.302760e-01 3.201843e-01 -3.695101e-01 -3.892140e-01 -2.826275e-01
<VARIANCE> 25
 1.677237e+00 3.475197e+00 6.004526e+00 3.352858e+00 5.304402e+00 8.568334e+00 7.453359e+00 9.815633e+00 1.013338e+01 8.009241e+00 8.116512e+00 6.682903e+00 7.353404e-01 5.857126e-01 1.687829e+00 6.031032e-01 3.361855e-01 8.912042e-01 1.540604e+00 1.070760e+00 1.178543e+00 1.452177e+00 1.331052e+00 2.204665e+00 8.035219e-01
<GCONST> 6.707702e+01
<TRANSP> 5
 0.000000e+00 1.000000e+00 0.000000e+00 0.000000e+00 0.000000e+00
 0.000000e+00 8.413616e-01 1.586383e-01 0.000000e+00 0.000000e+00
 0.000000e+00 0.000000e+00 7.339632e-01 2.660368e-01 0.000000e+00
 0.000000e+00 0.000000e+00 0.000000e+00 8.241397e-01 1.758603e-01
 0.000000e+00 0.000000e+00 0.000000e+00 0.000000e+00 0.000000e+00
<ENDHMM>
~h "ee"
<BEGINHMM>
<NUMSTATES> 5
<STATE> 2
<MEAN> 25
 7.716313e+00 5.115542e+00 -1.972381e+00 8.946862e-01 1.712957e+00 -1.941777e+00 -2.700723e+00 -8.154063e-01 -1.760521e+00 -2.632324e+00 -3.787338e+00 -4.748146e+00 -7.301185e-02 7.419258e-01 2.462193e-01 -7.025731e-01 -8.815933e-01 2.753349e-01 1.087105e+00 8.286334e-01 9.046351e-01 5.500506e-01 -5.875097e-01 -7.996162e-01 -2.575985e-01
<VARIANCE> 25
 4.529592e+00 5.115474e+00 8.077922e+00 3.553392e+01 4.056436e+01 1.217133e+01 7.903572e+00 1.364456e+01 1.853312e+01 1.844209e+01 1.124374e+01 2.033017e+01 2.670103e-01 4.024375e-01 5.866608e-01 1.694973e+00 2.478560e+00 7.360659e-01 1.058202e+00 1.149801e+00 2.344593e+00 2.485932e+00 1.248784e+00 1.302647e+00 8.696379e-02
<GCONST> 7.526633e+01
<STATE> 3
<MEAN> 25
 6.098584e+00 5.981538e+00 7.641310e-01 4.001404e+00 4.686626e+00 7.409289e-01 -1.230894e+00 -6.167723e-01 -8.773633e-01 -2.343937e+00 -6.171169e+00 -7.006216e+00 -1.887750e-02 -2.659249e-01 -2.414922e-01 -1.690725e-01 1.224161e-01 -2.684580e-02 -2.629577e-01 -1.905627e-01 2.895563e-01 2.988225e-01 -6.341774e-02 2.117576e-01 5.160226e-02
<VARIANCE> 25
 3.915777e+00 3.400061e+00 7.204026e+00 2.180406e+01 2.036423e+01 8.308464e+00 9.092474e+00 4.779155e+00 1.808275e+01 1.908345e+01 1.095459e+01 9.267573e+00 1.743153e-01 3.193739e-01 8.394974e-01 9.645450e-01 8.453112e-01 7.382193e-01 6.110123e-01 6.835037e-01 8.672953e-01 6.447308e-01 6.708779e-01 7.551703e-01 1.145629e-01
<GCONST> 6.508733e+01
<STATE> 4
<MEAN> 25
 6.372250e+00 4.951047e+00 -9.709554e-01 3.484811e+00 5.329498e+00 4.744096e-01 -2.388562e+00 -1.510870e+00 -3.252514e-01 -1.416073e+00 -5.420319e+00 -5.447104e+00 2.384744e-01 -1.084136e+00 -1.496330e+00 -5.094747e-01 2.388518e-01 -6.863257e-01 -1.075388e+00 7.275558e-02 8.170515e-01 8.783685e-01 1.041790e+00 1.276443e+00 4.054500e-01
<VARIANCE> 25
 2.985799e+00 4.146708e+00 7.639448e+00 9.170131e+00 1.371057e+01 7.671172e+00 9.918537e+00 7.353755e+00 1.895892e+01 1.188166e+01 6.986718e+00 9.522554e+00 4.967462e-01 4.738232e-01 1.347160e+00 1.074522e+00 3.383374e-01 1.025157e+00 1.678175e+00 5.236241e-01 8.866290e-01 6.697624e-01 9.106204e-01 1.540420e+00 2.953279e-01
<GCONST> 6.760532e+01
<TRANSP> 5
 0.000000e+00 1.000000e+00 0.000000e+00 0.000000e+00 0.000000e+00
 0.000000e+00 6.872745e-01 3.127256e-01 0.000000e+00 0.000000e+00
 0.000000e+00 0.000000e+00 5.534447e-01 4.465553e-01 0.000000e+00
 0.000000e+00 0.000000e+00 0.000000e+00 2.528988e-01 7.471012e-01
 0.000000e+00 0.000000e+00 0.000000e+00 0.000000e+00 0.000000e+00
<ENDHMM>
~h "ii"
<BEGINHMM>
<NUMSTATES> 5
<STATE> 2
<MEAN> 25
 4.963764e+00 6.154421e+00 1.126752e+00 1.372900e+00 -3.161042e-01 -3.416703e+00 -2.774438e+00 -6.938138e-01 -1.132251e+00 -2.671243e+00 -5.847296e+00 -5.002825e+00 1.692088e+00 -1.197787e+00 -1.557805e+00 2.031729e-01 7.014385e-01 -1.870318e+00 -2.777314e+00 -8.985926e-01 -9.157537e-01 -1.100599e+00 -5.883962e-01 -2.619775e-02 1.498863e+00
<VARIANCE> 25
 1.472556e+01 1.008391e+01 6.234149e+00 6.034654e+00 8.807953e+00 2.030128e+01 1.567903e+01 8.765690e+00 9.457850e+00 9.024412e+00 1.647041e+01 2.070448e+01 6.371363e-01 1.616890e+00 1.561020e+00 1.242294e+00 1.466661e+00 1.653069e+00 1.800095e+00 1.099418e+00 1.340382e+00 9.933795e-01 8.894957e-01 1.969986e+00 5.202406e-01
<GCONST> 7.741724e+01
<STATE> 3
<MEAN> 25
 7.608825e+00 3.762293e+00 -2.179243e+00 1.929893e+00 1.739341e+00 -5.722613e+00 -6.386278e+00 -1.339694e+00 -2.409467e+00 -4.649479e+00 -6.739207e+00 -4.009244e+00 1.247552e+00 -2.089204e+00 -1.474771e+00 8.537388e-01 1.866780e+00 -4.858332e-01 -2.226216e+00 -1.209487e+00 -1.428767e+00 -8.800697e-01 5.328026e-01 4.965145e-01 1.516591e+00
<VARIANCE> 25
 1.698241e+01 6.749342e+00 9.471871e+00 9.105719e+00 1.011890e+01 2.893479e+01 2.197852e+01 1.322847e+01 1.202025e+01 1.122680e+01 1.456510e+01 1.449659e+01 5.422621e-01 2.460261e+00 1.534724e+00 9.813862e-01 1.421784e+00 1.347160e+00 1.696232e+00 1.068190e+00 1.437686e+00 1.330351e+00 1.724964e+00 2.600970e+00 3.851770e-01
<GCONST> 7.989273e+01
<STATE> 4
<MEAN> 25
 7.983623e+00 -3.021968e-01 -3.255992e+00 4.457397e+00 5.744169e+00 -4.707287e+00 -8.362315e+00 -4.183177e+00 -6.147969e+00 -5.565258e+00 -4.419877e+00 -3.937215e+00 1.885402e-02 -1.789151e+00 -1.663557e-01 4.866492e-01 1.253993e+00 1.257875e+00 -5.746707e-01 -1.416283e+00 -1.312397e+00 2.849604e-02 1.230176e+00 3.671568e-01 7.592319e-01
<VARIANCE> 25
 1.573397e+01 1.278451e+01 1.199313e+01 1.463656e+01 1.129369e+01 1.984230e+01 2.516158e+01 1.636173e+01 2.256369e+01 1.442221e+01 1.264429e+01 1.661525e+01 8.764645e-01 3.141069e+00 1.196957e+00 1.289556e+00 1.697060e+00 1.641296e+00 2.227334e+00 1.219782e+00 1.740773e+00 1.131814e+00 2.759578e+00 2.110329e+00 6.346501e-01
<GCONST> 8.443981e+01
<TRANSP> 5
 0.000000e+00 1.000000e+00 0.000000e+00 0.000000e+00 0.000000e+00
 0.000000e+00 1.882344e-02 9.811766e-01 0.000000e+00 0.000000e+00
 0.000000e+00 0.000000e+00 1.217990e-01 8.782011e-01 0.000000e+00
 0.000000e+00 0.000000e+00 0.000000e+00 1.442874e-01 8.557126e-01
 0.000000e+00 0.000000e+00 0.000000e+00 0.000000e+00 0.000000e+00
<ENDHMM>
~h "ll"
<BEGINHMM>
<NUMSTATES> 5
<STATE> 2
<MEAN> 25
 9.060944e+00 -2.948809e+00 -3.703663e+00 4.034378e+00 6.970709e+00 -2.859336e+00 -1.076746e+01 -6.013683e+00 -7.090212e+00 -5.313284e+00 -2.081801e+00 -3.146498e+00 -2.348362e+00 -1.741588e+00 3.103818e+00 -8.391325e-01 -1.456661e+00 3.176993e+00 2.143220e+00 -2.345852e+00 -1.316497e+00 1.218443e+00 2.504558e+00 -5.313768e-01 1.496157e-01
<VARIANCE> 25
 3.600612e+00 7.685288e+00 6.849992e+00 5.885423e+00 1.131736e+01 1.063956e+01 1.596829e+01 9.356293e+00 1.300872e+01 1.185972e+01 9.500037e+00 1.080598e+01 9.601793e-01 8.177549e-01 1.755678e+00 1.025947e+00 1.898636e+00 6.504151e-01 1.792685e+00 6.644238e-01 1.078030e+00 5.502484e-01 7.333623e-01 9.818367e-01 1.785204e-01
<GCONST> 7.059056e+01
<STATE> 3
<MEAN> 25
 8.673325e-01 -5.118479e+00 7.845286e+00 -6.600149e-01 -1.542686e+00 4.243708e+00 -1.534083e+00 -1.113516e+01 -9.372170e+00 -2.399989e+00 2.470347e+00 -5.577008e+00 -4.364792e+00 -1.246783e+00 4.932889e+00 -2.728683e+00 -3.038218e+00 2.110827e+00 3.123366e+00 -1.003222e+00 -6.551355e-02 5.903053e-01 2.445627e+00 -6.451186e-01 1.313735e-01
<VARIANCE> 25
 1.529248e+01 5.076326e+00 1.976442e+01 1.445785e+01 1.246655e+01 6.299146e+00 1.401479e+01 7.153490e+00 1.160002e+01 7.481062e+00 1.267911e+01 1.268391e+01 1.862690e-01 6.633705e-01 8.349038e-01 8.433441e-01 7.257584e-01 1.242913e+00 1.024500e+00 1.381832e+00 1.092853e+00 7.182444e-01 9.100899e-01 1.197603e+00 1.068182e-01
<GCONST> 6.987890e+01
<STATE> 4
<MEAN> 25
 -1.037471e+01 -6.105248e+00 1.674155e+01 -8.655766e+00 -3.711558e+00 8.253115e+00 1.939088e+00 -6.609114e+00 -3.837545e+00 -2.257284e+00 7.477022e+00 -5.339773e+00 -1.231379e+00 -1.038767e-01 6.363358e-01 -6.487279e-01 -1.997115e-01 3.925668e-01 4.831095e-01 1.199567e+00 1.243852e+00 3.082780e-01 4.422456e-01 1.420836e-01 -3.291304e-01
<VARIANCE> 25
 5.623099e+00 4.917617e+00 6.996534e+00 1.051306e+01 1.175002e+01 9.922440e+00 8.763594e+00 1.609565e+01 1.528668e+01 9.229847e+00 1.091323e+01 8.930481e+00 1.260495e+00 4.150065e-01 1.652436e+00 2.107499e+00 8.465904e-01 1.266514e+00 6.461331e-01 7.288632e-01 7.345135e-01 8.884847e-01 9.701712e-01 7.106341e-01 6.770942e-02
<GCONST> 6.922665e+01
<TRANSP> 5
 0.000000e+00 1.000000e+00 0.000000e+00 0.000000e+00 0.000000e+00
 0.000000e+00 3.702114e-01 6.297886e-01 0.000000e+00 0.000000e+00
 0.000000e+00 0.000000e+00 5.111075e-01 4.888925e-01 0.000000e+00
 0.000000e+00 0.000000e+00 0.000000e+00 8.569152e-01 1.430847e-01
 0.000000e+00 0.000000e+00 0.000000e+00 0.000000e+00 0.000000e+00
<ENDHMM>
~h "mm"
<BEGINHMM>
<NUMSTATES> 5
<STATE> 2
<MEAN> 25
 7.613304e+00 -6.164059e-01 -6.246758e+00 3.567807e+00 7.299492e+00 -3.530752e+00 -7.591274e+00 -5.556660e-01 1.454785e+00 -4.627694e-01 -1.171078e+00 1.715185e-01 3.951577e-01 -1.058085e+00 -1.236470e+00 -9.613854e-01 -6.712416e-01 -1.071162e+00 -8.609056e-01 5.000535e-01 5.754014e-01 5.033303e-01 1.420321e+00 1.246061e+00 6.056165e-01
<VARIANCE> 25
 3.012070e+00 9.834905e+00 5.349454e+00 6.518603e+00 4.591619e+00 1.031716e+01 1.527825e+01 6.158754e+00 8.861133e+00 6.628316e+00 9.517738e+00 8.342354e+00 1.375739e-01 8.675688e-01 8.893772e-01 4.714247e-01 5.313858e-01 7.690018e-01 1.557733e+00 5.682009e-01 1.451610e+00 8.781781e-01 9.416140e-01 1.738936e+00 1.923700e-01
<GCONST> 6.481270e+01
<STATE> 3
<MEAN> 25
 7.868167e+00 4.838424e-01 -6.935074e+00 -9.643143e-01 2.940382e+00 -2.738985e+00 -4.909764e+00 -6.964099e-02 1.023345e+00 4.258397e-01 3.846956e-01 1.526896e+00 -5.999682e-01 8.059250e-01 2.826460e-01 -1.218264e+00 -1.395379e+00 7.915860e-01 1.479776e+00 1.101592e-02 -2.053761e-01 4.840613e-01 3.442931e-01 4.588737e-01 -7.103847e-01
<VARIANCE> 25
 3.329451e+00 5.637447e+00 6.894557e+00 5.365869e+00 7.207155e+00 6.788475e+00 8.999613e+00 7.786827e+00 1.271183e+01 7.853468e+00 6.109676e+00 9.988147e+00 4.782564e-01 6.320955e-01 6.310130e-01 5.721278e-01 3.317489e-01 7.111813e-01 1.034650e+00 7.041870e-01 1.015543e+00 5.425315e-01 5.748373e-01 9.980526e-01 3.619271e-01
<GCONST> 6.320063e+01
<STATE> 4
<MEAN> 25
 2.745223e+00 2.683499e+00 -4.292295e+00 -3.317851e+00 -7.989940e-01 8.005570e-01 1.812557e+00 1.569753e+00 6.030518e-01 1.196184e+00 1.274434e+00 2.596575e+00 -1.108407e+00 4.416428e-02 5.643451e-01 -3.781490e-02 -3.459043e-01 5.617598e-01 9.840924e-01 3.986083e-01 -8.676544e-02 9.164869e-02 2.732793e-01 1.179681e-01 -7.849032e-01
<VARIANCE> 25
 7.150706e+00 3.826126e+00 3.310450e+00 5.280199e+00 6.065030e+00 4.532613e+00 1.357253e+01 1.818996e+01 9.452683e+00 8.260542e+00 7.903446e+00 9.409435e+00 3.140980e-01 3.910236e-01 4.029617e-01 3.945208e-01 4.658614e-01 5.203114e-01 7.008947e-01 1.004793e+00 8.268976e-01 7.338638e-01 7.180095e-01 9.143598e-01 1.486062e-01
<GCONST> 6.107598e+01
<TRANSP> 5
 0.000000e+00 1.000000e+00 0.000000e+00 0.000000e+00 0.000000e+00
 0.000000e+00 6.715235e-01 3.284765e-01 0.000000e+00 0.000000e+00
 0.000000e+00 0.000000e+00 6.784972e-01 3.215028e-01 0.000000e+00
 0.000000e+00 0.000000e+00 0.000000e+00 7.481334e-01 2.518667e-01
 0.000000e+00 0.000000e+00 0.000000e+00 0.000000e+00 0.000000e+00
<ENDHMM>
~h "nn"
<BEGINHMM>
<NUMSTATES> 5
<STATE> 2
<MEAN> 25
 2.571662e+00 1.915148e+00 -3.090212e+00 2.083190e+00 5.151637e+00 1.585482e+00 -1.020622e+00 -9.072094e-01 -1.791456e+00 -8.955318e-01 -7.152010e-01 1.010853e-02 -7.000837e-01 9.933667e-02 -1.964025e-01 -3.485696e-01 -4.193825e-01 2.439723e-01 5.547295e-01 8.275198e-02 8.197175e-01 1.288108e+00 5.024427e-01 8.435369e-01 -6.876379e-01
<VARIANCE> 25
 2.435628e+00 5.584203e+00 2.231707e+00 1.097399e+01 1.570736e+01 1.309152e+01 2.368017e+01 1.000356e+01 1.559684e+01 1.156794e+01 9.549520e+00 1.415178e+01 3.982227e-01 8.169231e-01 5.029659e-01 3.023676e-01 5.757316e-01 7.225938e-01 1.419741e+00 1.090972e+00 1.263147e+00 7.787064e-01 9.159462e-01 1.677809e+00 3.188931e-01
<GCONST> 6.847517e+01
<STATE> 3
<MEAN> 25
 2.417336e+00 1.417818e+00 -4.075481e+00 8.407295e-01 3.004385e+00 -2.920055e-02 -1.143109e+00 4.719918e-01 1.603645e+00 2.705903e+00 8.174490e-01 1.985234e+00 -3.256589e-01 2.238734e-01 1.872542e-01 -2.926135e-01 -3.070753e-01 3.391658e-01 5.781958e-01 1.254876e-01 2.666191e-01 2.928434e-01 -5.584582e-02 1.572597e-01 -2.989329e-01
<VARIANCE> 25
 7.221179e+00 4.597069e+00 4.238007e+00 7.389041e+00 6.714683e+00 2.275844e+01 1.955560e+01 4.924048e+00 8.180643e+00 1.223188e+01 1.107659e+01 1.446743e+01 3.626325e-01 4.043052e-01 3.267712e-01 8.067656e-01 3.318713e-01 6.265190e-01 1.042462e+00 6.485277e-01 1.336689e+00 9.079397e-01 6.954607e-01 8.873277e-01 9.331020e-02
<GCONST> 6.429648e+01
<STATE> 4
<MEAN> 25
 2.077044e+00 3.048453e+00 -1.197709e+00 2.963657e+00 3.844463e+00 1.020440e+00 -4.369128e-02 6.649747e-02 2.649190e-01 2.480438e-01 -1.795826e+00 -1.640689e+00 5.158074e-01 -1.613004e-01 2.559804e-01 7.831050e-01 4.414847e-01 -9.223164e-01 -9.837865e-01 1.892591e-01 1.757802e-01 -1.833188e-01 2.683920e-02 -5.424039e-01 4.804606e-01
<VARIANCE> 25
 5.970787e+00 4.967707e+00 4.050229e+00 7.995942e+00 1.053218e+01 1.351530e+01 1.261116e+01 5.241091e+00 5.747591e+00 7.905309e+00 1.435137e+01 2.116441e+01 6.017063e-01 5.929805e-01 1.032796e+00 8.044676e-01 1.407445e+00 1.188891e+00 1.625595e+00 6.066007e-01 8.008121e-01 7.253884e-01 1.602605e+00 3.552918e+00 4.162407e-01
<GCONST> 7.110095e+01
<TRANSP> 5
 0.000000e+00 1.000000e+00 0.000000e+00 0.000000e+00 0.000000e+00
 0.000000e+00 6.083394e-01 3.916606e-01 0.000000e+00 0.000000e+00
 0.000000e+00 0.000000e+00 5.192000e-01 4.808000e-01 0.000000e+00
 0.000000e+00 0.000000e+00 0.000000e+00 6.352556e-01 3.647443e-01
 0.000000e+00 0.000000e+00 0.000000e+00 0.000000e+00 0.000000e+00
<ENDHMM>
~h "oo"
<BEGINHMM>
<NUMSTATES> 5
<STATE> 2
<MEAN> 25
 8.071593e+00 6.986508e+00 3.037870e-02 -2.100640e+00 -8.458076e+00 -1.334658e+01 -8.792789e+00 1.864609e+00 6.321260e+00 -2.886063e-01 -6.853542e+00 -5.178495e+00 7.329815e-01 -7.090259e-01 -1.144063e+00 -6.760167e-01 -3.734906e-01 -3.785745e-01 -4.905690e-02 1.239269e+00 1.535376e+00 -6.544585e-01 -1.955173e+00 -1.146723e+00 6.626161e-01
<VARIANCE> 25
 2.139103e+00 3.678541e+00 4.618222e+00 4.542730e+00 7.905776e+00 1.712903e+01 1.169170e+01 9.642602e+00 1.209684e+01 9.665598e+00 1.204939e+01 9.716554e+00 2.397464e-01 4.580470e-01 4.728620e-01 4.421695e-01 1.265082e+00 2.904940e+00 1.260438e+00 1.272873e+00 2.403907e+00 1.381028e+00 1.758569e+00 1.687914e+00 1.372956e-01
<GCONST> 6.851378e+01
<STATE> 3
<MEAN> 25
 8.888595e+00 5.204185e+00 -2.647561e+00 -3.474610e+00 -7.494527e+00 -1.096149e+01 -6.693140e+00 3.540141e+00 6.944848e+00 -2.741688e+00 -1.079514e+01 -7.031427e+00 1.507213e-01 -1.020913e+00 -1.128639e+00 7.785988e-02 1.594165e+00 1.796040e+00 6.540065e-01 -4.747762e-01 -1.104265e+00 -1.642522e+00 -9.313297e-01 3.896250e-01 3.722529e-01
<VARIANCE> 25
 2.889433e+00 4.204228e+00 4.856030e+00 4.841371e+00 1.182250e+01 1.985376e+01 7.951684e+00 1.054614e+01 1.424415e+01 1.715368e+01 1.641295e+01 1.000813e+01 1.475118e-01 7.152927e-01 8.252980e-01 6.193277e-01 2.245420e+00 2.459583e+00 1.160108e+00 1.090185e+00 2.178434e+00 1.309931e+00 1.599347e+00 1.236210e+00 1.268508e-01
<GCONST> 7.077827e+01
<STATE> 4
<MEAN> 25
 8.548536e+00 2.355233e+00 -4.724728e+00 -1.028647e+00 -4.285763e-01 -4.298682e+00 -5.961117e+00 -1.206259e+00 5.540506e-01 -6.405647e+00 -9.946723e+00 -3.725726e+00 -7.560074e-01 -1.293766e+00 -1.526190e-02 8.980056e-01 1.905475e+00 2.759147e+00 8.544137e-01 -1.904348e+00 -1.988509e+00 -5.649671e-02 1.157031e+00 9.279197e-01 -7.760321e-02
<VARIANCE> 25
 3.966190e+00 8.012309e+00 5.808430e+00 6.989141e+00 2.923357e+01 3.363867e+01 8.793576e+00 2.272023e+01 2.474174e+01 2.225025e+01 1.413433e+01 9.816676e+00 5.550098e-01 1.299541e+00 1.357296e+00 7.426487e-01 3.100616e+00 2.479588e+00 1.429613e+00 2.062971e+00 2.367611e+00 2.283772e+00 2.000125e+00 9.430133e-01 1.476524e-01
<GCONST> 7.975298e+01
<TRANSP> 5
 0.000000e+00 1.000000e+00 0.000000e+00 0.000000e+00 0.000000e+00
 0.000000e+00 4.234336e-01 5.765665e-01 0.000000e+00 0.000000e+00
 0.000000e+00 0.000000e+00 2.943774e-01 7.056227e-01 0.000000e+00
 0.000000e+00 0.000000e+00 0.000000e+00 4.842473e-01 5.157527e-01
 0.000000e+00 0.000000e+00 0.000000e+00 0.000000e+00 0.000000e+00
<ENDHMM>
~h "rr"
<BEGINHMM>
<NUMSTATES> 5
<STATE> 2
<MEAN> 25
 4.979586e+00 -1.179189e+00 -5.958435e-01 8.379121e+00 9.498563e+00 -1.265405e+00 -1.105058e+01 -6.949716e+00 -3.822078e+00 -4.687155e+00 -4.684811e+00 -5.185698e+00 3.126724e-01 -6.457530e-01 -1.830622e-01 8.414580e-01 8.433386e-01 -5.256730e-01 -1.420393e+00 -3.322732e-01 3.331615e-01 -1.804394e-01 -2.242224e-01 -1.950845e-01 3.971543e-01
<VARIANCE> 25
 4.841261e+00 9.625772e+00 7.103066e+00 1.472348e+01 1.861061e+01 1.429389e+01 4.314304e+01 1.261511e+01 1.195250e+01 1.082981e+01 8.442582e+00 7.819191e+00 5.971701e-01 7.957542e-01 7.416331e-01 1.080470e+00 1.673283e+00 1.189352e+00 3.107754e+00 2.383184e+00 1.236268e+00 1.293463e+00 9.837034e-01 8.096111e-01 2.557477e-01
<GCONST> 7.597783e+01
<STATE> 3
<MEAN> 25
 6.555470e+00 -1.705463e+00 -9.766898e-01 9.703365e+00 9.510785e+00 -4.635787e+00 -1.363636e+01 -4.509993e+00 1.086934e+00 -2.837665e+00 -4.739727e+00 -4.140824e+00 8.785513e-04 9.369888e-01 5.543523e-02 -5.752943e-01 -3.918791e-01 8.033845e-01 1.683508e+00 2.801412e-01 -8.396472e-02 6.371011e-01 2.860884e-01 2.628822e-01 -3.593172e-01
<VARIANCE> 25
 5.356476e+00 1.134006e+01 7.783082e+00 5.213262e+00 5.435982e+00 1.196551e+01 2.496259e+01 1.583993e+01 1.841578e+01 1.520984e+01 1.198098e+01 7.728243e+00 1.803772e-01 1.152719e+00 8.171710e-01 5.483000e-01 5.179412e-01 1.297124e+00 2.015981e+00 9.688302e-01 1.813129e+00 1.064732e+00 8.148767e-01 7.882030e-01 2.122023e-01
<GCONST> 7.063818e+01
<STATE> 4
<MEAN> 25
 4.710189e+00 6.164002e-01 1.850952e+00 7.114033e+00 6.688704e+00 1.489372e+00 -5.275170e+00 -6.220361e+00 -4.751740e+00 -3.400724e+00 -3.253136e+00 -4.158992e+00 -1.397495e+00 3.196772e-01 2.033904e+00 -1.163615e+00 -1.629949e+00 1.530773e+00 3.150399e+00 2.167930e-01 -1.259867e+00 1.731234e-01 1.297375e+00 -6.610404e-01 -2.875012e-01
<VARIANCE> 25
 8.117132e+00 1.216890e+01 1.510481e+01 7.146325e+00 1.276887e+01 9.323099e+00 1.609363e+01 1.859435e+01 1.866017e+01 1.095333e+01 1.052240e+01 7.441112e+00 1.775189e+00 1.719258e+00 2.798795e+00 1.196302e+00 2.532929e+00 1.089673e+00 1.729626e+00 8.894666e-01 1.074830e+00 1.302706e+00 3.794748e+00 5.018890e-01 1.733930e-01
<GCONST> 7.838164e+01
<TRANSP> 5
 0.000000e+00 1.000000e+00 0.000000e+00 0.000000e+00 0.000000e+00
 0.000000e+00 8.831078e-01 1.168922e-01 0.000000e+00 0.000000e+00
 0.000000e+00 0.000000e+00 7.074371e-01 2.925629e-01 0.000000e+00
 0.000000e+00 0.000000e+00 0.000000e+00 3.585694e-01 6.414306e-01
 0.000000e+00 0.000000e+00 0.000000e+00 0.000000e+00 0.000000e+00
<ENDHMM>
~h "sp"
<BEGINHMM>
<NUMSTATES> 3
<STATE> 2
~s "silst"
<TRANSP> 3
 0.000000e+00 2.902445e-01 7.097555e-01
 0.000000e+00 8.320020e-01 1.679980e-01
 0.000000e+00 0.000000e+00 0.000000e+00
<ENDHMM>
~h "ss"
<BEGINHMM>
<NUMSTATES> 5
<STATE> 2
<MEAN> 25
 2.059720e+00 5.639574e+00 2.160439e+00 2.983631e+00 2.180432e+00 1.788495e+00 3.334823e+00 1.707622e+00 -3.655607e-01 -7.553670e-01 -4.128197e+00 -4.977709e+00 7.955408e-01 5.132163e-01 4.709574e-01 1.549387e-01 -4.251665e-01 -8.890614e-01 -8.223922e-01 -5.621210e-01 -5.271049e-01 -7.166532e-01 -6.097589e-01 -6.471077e-01 5.428935e-01
<VARIANCE> 25
 5.850445e+00 6.692834e+00 5.154262e+00 5.103409e+00 1.038561e+01 8.988084e+00 2.031355e+01 8.453326e+00 1.247021e+01 9.695511e+00 1.179225e+01 2.370988e+01 8.990155e-01 1.149954e+00 5.527865e-01 5.551367e-01 7.152215e-01 8.504698e-01 8.689527e-01 9.246463e-01 1.271862e+00 1.175331e+00 1.619326e+00 2.876168e+00 2.525432e-01
<GCONST> 7.169507e+01
<STATE> 3
<MEAN> 25
 2.753284e+00 5.925406e+00 2.487611e+00 3.207332e+00 1.890658e+00 8.849345e-01 1.854459e+00 1.721572e-01 -1.670362e+00 -1.976998e+00 -3.832852e+00 -3.943176e+00 1.148993e+00 3.680227e-01 4.675020e-02 -2.588001e-01 -7.332411e-01 -1.586193e+00 -1.814877e+00 -9.124224e-01 -6.553084e-01 -9.096408e-01 -6.093765e-01 -3.461398e-01 7.831950e-01
<VARIANCE> 25
 3.582925e+00 9.579455e+00 5.491223e+00 5.086355e+00 1.012690e+01 6.473376e+00 1.232035e+01 1.033782e+01 1.370804e+01 8.657121e+00 6.962218e+00 1.149589e+01 9.781178e-01 8.370664e-01 7.285067e-01 6.399258e-01 1.353860e+00 1.387316e+00 2.144748e+00 1.203294e+00 9.893918e-01 1.167805e+00 1.826504e+00 2.404517e+00 3.206167e-01
<GCONST> 7.210324e+01
<STATE> 4
<MEAN> 25
 4.297354e+00 6.730556e+00 2.318487e+00 1.898496e+00 1.669608e-01 -1.799735e+00 -1.405963e+00 -1.364995e+00 -2.206127e+00 -3.279808e+00 -6.238261e+00 -4.656979e+00 1.481456e+00 -2.747630e-01 -8.667024e-01 -4.331962e-01 -4.511509e-01 -2.038560e+00 -2.676068e+00 -9.703463e-01 -4.204552e-01 -1.067926e+00 -8.456593e-01 7.371026e-02 1.121928e+00
<VARIANCE> 25
 3.327352e+00 8.847623e+00 6.179817e+00 5.453050e+00 7.138085e+00 5.605958e+00 6.516152e+00 1.131352e+01 1.476304e+01 8.441714e+00 8.832399e+00 1.053370e+01 9.520967e-01 5.946642e-01 1.209758e+00 6.074064e-01 1.556622e+00 2.151464e+00 2.276445e+00 8.740149e-01 1.216446e+00 1.024470e+00 1.479525e+00 1.734804e+00 3.972659e-01
<GCONST> 7.145382e+01
<TRANSP> 5
 0.000000e+00 1.000000e+00 0.000000e+00 0.000000e+00 0.000000e+00
 0.000000e+00 1.050275e-01 8.949724e-01 0.000000e+00 0.000000e+00
 0.000000e+00 0.000000e+00 1.562572e-03 9.984374e-01 0.000000e+00
 0.000000e+00 0.000000e+00 0.000000e+00 5.506341e-02 9.449366e-01
 0.000000e+00 0.000000e+00 0.000000e+00 0.000000e+00 0.000000e+00
<ENDHMM>
~h "tt"
<BEGINHMM>
<NUMSTATES> 5
<STATE> 2
<MEAN> 25
 -3.538997e+00 -3.350337e+00 5.648297e+00 -2.035376e+00 -2.849925e+00 1.234871e+00 2.557039e+00 -1.786881e+00 -5.139005e+00 1.500946e+00 5.039614e+00 -1.080098e+00 -3.175443e-01 -8.150159e-01 1.251171e+00 1.169332e+00 4.907559e-02 -1.070925e-01 -2.835792e-01 4.929190e-02 -3.582786e-02 -2.461665e-01 -1.935077e-01 -8.252462e-01 3.342049e-01
<VARIANCE> 25
 1.923286e+01 1.403551e+01 2.980021e+01 3.267511e+01 2.324184e+01 1.098011e+01 2.560111e+01 1.756524e+01 1.493000e+01 1.222091e+01 2.440143e+01 2.120277e+01 5.570716e+00 3.578692e+00 6.187699e+00 3.025337e+00 5.759532e+00 8.423548e-01 7.061245e+00 3.364582e+00 1.496943e+00 2.182456e+00 6.681493e+00 1.316703e+00 3.877541e-01
<GCONST> 9.461244e+01
<STATE> 3
<MEAN> 25
 -5.357124e-01 -3.199488e+00 4.200890e+00 3.597328e+00 2.064654e+00 1.025572e+00 -2.992300e+00 -4.656410e+00 -5.049103e+00 -1.586097e+00 5.681031e-01 -2.542261e+00 -4.271902e-01 -4.090433e-02 -1.723045e-01 -7.654189e-02 -7.641438e-02 2.173069e-01 7.117491e-01 4.950129e-01 3.943747e-01 2.368803e-01 3.483107e-01 3.895645e-01 -3.485520e-01
<VARIANCE> 25
 2.634111e+01 2.326475e+01 2.532189e+01 1.677680e+01 3.277106e+01 1.282906e+01 5.738945e+01 3.140649e+01 1.133855e+01 1.894353e+01 3.751500e+01 1.041576e+01 1.837185e+00 2.236958e+00 2.963810e+00 1.513745e+00 2.936204e+00 1.056971e+00 5.096654e+00 2.085289e+00 1.524915e+00 9.658809e-01 2.415342e+00 1.291406e+00 7.944763e-01
<GCONST> 9.099768e+01
<STATE> 4
<MEAN> 25
 -3.423151e+00 -2.530524e+00 1.743180e+00 1.075431e+00 -2.733850e-01 1.793485e+00 2.928337e+00 -1.568807e-01 -2.044641e+00 1.769382e+00 3.049941e+00 1.090802e+00 -1.576961e-01 2.617902e-01 -5.275409e-01 1.260982e-02 1.229316e-01 1.754950e-01 3.145110e-01 5.028077e-01 6.754520e-01 1.310858e-01 5.073402e-02 4.589903e-01 -4.584911e-01
<VARIANCE> 25
 1.082156e+01 2.087173e+01 2.629660e+01 8.973174e+00 1.385495e+01 7.937605e+00 1.539852e+01 1.246996e+01 9.582935e+00 1.306410e+01 1.619620e+01 1.679700e+01 6.037068e-01 1.310018e+00 1.531001e+00 1.137255e+00 8.265648e-01 8.012825e-01 8.020805e-01 9.773268e-01 1.017171e+00 8.492981e-01 1.100148e+00 1.016400e+00 3.308061e-01
<GCONST> 7.574780e+01
<TRANSP> 5
 0.000000e+00 1.000000e+00 0.000000e+00 0.000000e+00 0.000000e+00
 0.000000e+00 6.914216e-01 3.085784e-01 0.000000e+00 0.000000e+00
 0.000000e+00 0.000000e+00 5.259582e-01 4.740418e-01 0.000000e+00
 0.000000e+00 0.000000e+00 0.000000e+00 6.460369e-01 3.539632e-01
 0.000000e+00 0.000000e+00 0.000000e+00 0.000000e+00 0.000000e+00
<ENDHMM>
~h "ur"
<BEGINHMM>
<NUMSTATES> 5
<STATE> 2
<MEAN> 25
 3.805948e+00 2.924609e+00 2.413397e+00 2.427124e+00 -3.051633e+00 -6.030871e+00 -2.147108e+00 4.587863e+00 5.566990e-01 -8.416258e+00 -7.659805e+00 -3.028950e+00 -1.955129e-01 -3.284706e-01 1.831325e+00 2.414972e-01 -2.477474e-01 3.613228e-01 -4.743343e-01 5.746692e-01 5.788261e-01 -1.575552e+00 -4.458650e-01 -5.230490e-01 5.121819e-01
<VARIANCE> 25
 1.432728e+01 1.028063e+01 1.546417e+01 4.545329e+00 4.351784e+00 1.830959e+01 2.308212e+01 1.212078e+01 1.902938e+01 1.661387e+01 4.916124e+01 1.572598e+01 4.608803e+00 3.397182e+00 2.041528e+00 1.478588e+00 6.687487e-01 2.423607e+00 5.922906e+00 1.511582e+00 2.470582e+00 1.092633e+00 1.550221e+01 2.854127e+00 9.062435e-02
<GCONST> 8.652297e+01
<STATE> 3
<MEAN> 25
 -6.275393e+00 -4.874189e+00 1.302688e+01 -5.611036e-01 -5.423845e+00 -2.076202e+00 3.918220e+00 7.709624e+00 -1.233219e-01 -1.214479e+01 6.074603e+00 -8.287919e-01 -1.951892e+00 -1.252326e+00 6.951810e-01 -8.174931e-01 3.737348e-02 4.551958e-01 1.606698e+00 2.501229e-01 -7.900648e-01 4.639556e-01 2.959511e+00 7.173384e-01 -5.118626e-02
<VARIANCE> 25
 6.259207e+00 1.236285e+01 4.788088e+00 1.508611e+01 5.388848e+00 8.520640e+00 1.345988e+01 9.933161e+00 1.621977e+01 1.432676e+01 2.603145e+01 3.794977e+01 1.289189e+00 1.091550e+00 1.848789e+00 8.443593e-01 6.804242e-01 8.798299e-01 1.403344e+00 1.344181e+00 1.241950e+00 1.905546e+00 2.622266e+00 9.965863e-01 1.028782e-01
<GCONST> 7.609834e+01
<STATE> 4
<MEAN> 25
 -7.039008e+00 -5.554353e+00 7.379296e+00 5.274734e-01 -2.266484e+00 3.113241e-01 5.094613e+00 8.794467e+00 1.292150e-01 -7.254503e+00 7.519036e+00 3.835685e+00 2.652080e-01 6.407103e-01 -1.584324e+00 -2.490386e-01 7.317415e-01 5.876706e-01 7.526711e-02 -5.623150e-01 2.618411e-02 1.936886e+00 -2.915590e-01 1.829514e-01 -7.257835e-01
<VARIANCE> 25
 4.398509e+00 8.332723e+00 3.219413e+01 1.586529e+01 8.203355e+00 6.921336e+00 1.572966e+01 1.986536e+01 1.193737e+01 1.933239e+01 1.681081e+01 2.770225e+01 4.429630e-01 5.691605e-01 1.232203e+00 4.970592e-01 1.349558e+00 3.579206e-01 6.247919e-01 1.251881e+00 8.849236e-01 6.414921e-01 1.432124e+00 1.020148e+00 1.657453e-01
<GCONST> 7.232710e+01
<TRANSP> 5
 0.000000e+00 1.000000e+00 0.000000e+00 0.000000e+00 0.000000e+00
 0.000000e+00 8.388032e-01 1.611968e-01 0.000000e+00 0.000000e+00
 0.000000e+00 0.000000e+00 7.415376e-01 2.584624e-01 0.000000e+00
 0.000000e+00 0.000000e+00 0.000000e+00 6.067982e-01 3.932018e-01
 0.000000e+00 0.000000e+00 0.000000e+00 0.000000e+00 0.000000e+00
<ENDHMM>
~h "yy"
<BEGINHMM>
<NUMSTATES> 5
<STATE> 2
<MEAN> 25
 6.211661e+00 -6.556461e-01 -2.181489e+00 8.651765e+00 1.099350e+01 -1.661395e+00 -1.353395e+01 -6.720959e+00 -4.271439e+00 -7.684872e+00 -4.991459e+00 -3.627609e+00 -2.808980e-01 -1.065686e+00 1.273556e-02 1.585902e+00 1.233823e+00 -2.477393e-01 -8.600571e-01 -9.028329e-01 -6.396230e-02 9.199379e-01 9.813867e-01 -4.345750e-01 2.231965e-01
<VARIANCE> 25
 1.410832e+00 3.739153e+00 2.699691e+00 5.529995e+00 7.986829e+00 1.154982e+01 6.329594e+00 5.193173e+00 8.379113e+00 8.910692e+00 7.924287e+00 5.573477e+00 5.649292e-01 3.979570e-01 7.789310e-01 5.865719e-01 9.963226e-01 7.356320e-01 2.901026e+00 1.414875e+00 7.379625e-01 1.269884e+00 1.544050e+00 7.643921e-01 1.673770e-01
<GCONST> 6.357021e+01
<STATE> 3
<MEAN> 25
 4.045903e+00 -9.367939e-01 -1.822161e-01 1.003481e+01 1.046452e+01 -1.088514e+00 -9.678957e+00 -6.736897e+00 -5.138131e+00 -5.172382e+00 -3.581665e+00 -5.170075e+00 -1.409912e+00 3.853542e-01 8.782773e-01 -5.463006e-01 -1.197725e+00 9.806041e-01 2.830741e+00 2.999461e-01 -5.502414e-01 1.506533e+00 9.402739e-01 3.499656e-02 -9.610168e-01
<VARIANCE> 25
 2.927287e+00 3.527438e+00 5.939915e+00 4.692427e+00 8.199229e+00 8.964623e+00 1.971815e+01 6.057986e+00 1.054943e+01 6.336923e+00 7.996280e+00 8.125770e+00 2.126803e-01 4.140248e-01 1.022439e+00 1.116116e+00 8.276895e-01 7.187966e-01 1.357675e+00 6.350707e-01 8.999780e-01 8.977122e-01 1.560191e+00 1.413181e+00 2.278676e-01
<GCONST> 6.519903e+01
<STATE> 4
<MEAN> 25
 -6.808643e-01 4.874220e-01 1.050653e+00 4.673741e+00 5.422463e+00 2.220635e+00 -1.099659e+00 -3.789542e+00 -4.921875e+00 -9.997797e-01 -5.227368e-01 -2.330157e+00 -1.845293e+00 -8.229222e-01 1.321467e+00 -1.795336e+00 -2.047297e+00 4.095003e-01 2.099272e+00 1.364448e+00 3.150731e-01 1.040648e+00 1.526182e+00 5.262665e-01 -3.662861e-01
<VARIANCE> 25
 4.015387e+00 4.773690e+00 1.290133e+01 8.981852e+00 7.881892e+00 4.953615e+00 1.152179e+01 1.274220e+01 9.931569e+00 7.085227e+00 1.073643e+01 1.131788e+01 3.252538e-01 1.567473e+00 2.444092e+00 6.837757e-01 1.017176e+00 6.499103e-01 9.954110e-01 7.690254e-01 8.103225e-01 8.972967e-01 1.764452e+00 1.195683e+00 6.741547e-01
<GCONST> 7.055263e+01
<TRANSP> 5
 0.000000e+00 1.000000e+00 0.000000e+00 0.000000e+00 0.000000e+00
 0.000000e+00 4.789409e-01 5.210591e-01 0.000000e+00 0.000000e+00
 0.000000e+00 0.000000e+00 5.655752e-01 4.344247e-01 0.000000e+00
 0.000000e+00 0.000000e+00 0.000000e+00 6.859773e-01 3.140227e-01
 0.000000e+00 0.000000e+00 0.000000e+00 0.000000e+00 0.000000e+00
<ENDHMM>
~h "sil"
<BEGINHMM>
<NUMSTATES> 5
<STATE> 2
<MEAN> 25
 -3.333494e+00 5.254619e-01 -2.966354e+00 -1.400744e+00 2.902209e-01 2.283237e+00 3.820062e+00 2.165474e+00 1.354222e+00 3.349601e+00 3.071140e+00 4.436744e+00 -1.145101e-01 -6.388608e-02 7.387158e-02 5.186441e-02 5.478453e-02 -4.833154e-02 3.425452e-02 8.419367e-02 3.134008e-02 -1.485864e-01 3.392911e-02 -7.126276e-02 7.205278e-03
<VARIANCE> 25
 3.841523e+00 3.419806e+00 4.937189e+00 5.460327e+00 6.797803e+00 6.897102e+00 6.974106e+00 7.142153e+00 8.138952e+00 8.486756e+00 9.685001e+00 8.758074e+00 2.236877e-01 3.075404e-01 5.094435e-01 6.026605e-01 7.244346e-01 6.912124e-01 7.301825e-01 8.927434e-01 9.547728e-01 9.686508e-01 9.055564e-01 8.734095e-01 1.560298e-01
<GCONST> 6.110084e+01
<STATE> 3
~s "silst"
<STATE> 4
<MEAN> 25
 -4.150131e+00 -1.319269e-01 -3.304929e+00 -1.701079e+00 -7.007105e-02 2.125621e+00 4.133584e+00 2.676189e+00 1.846475e+00 4.015367e+00 3.897024e+00 5.892596e+00 -3.825594e-03 6.897594e-04 -6.550178e-03 -1.033132e-02 -4.819383e-03 5.886577e-03 -1.230520e-02 -7.793945e-03 -6.554652e-03 4.952953e-03 -5.395765e-03 1.926132e-02 -8.050223e-03
<VARIANCE> 25
 1.030343e+00 1.343747e+00 2.114800e+00 2.738340e+00 3.662378e+00 4.158470e+00 4.644185e+00 5.497434e+00 5.979192e+00 6.153867e+00 5.852114e+00 6.399160e+00 4.696307e-02 9.867218e-02 1.541142e-01 2.277640e-01 3.061535e-01 3.474629e-01 4.492587e-01 5.405913e-01 5.792271e-01 6.060056e-01 5.605069e-01 4.937061e-01 2.460966e-02
<GCONST> 4.280394e+01
<TRANSP> 5
 0.000000e+00 1.000000e+00 0.000000e+00 0.000000e+00 0.000000e+00
 0.000000e+00 6.206447e-01 1.619963e-01 2.173590e-01 0.000000e+00
 0.000000e+00 0.000000e+00 8.472277e-01 1.527723e-01 0.000000e+00
 0.000000e+00 4.832658e-02 0.000000e+00 9.247251e-01 2.694838e-02
 0.000000e+00 0.000000e+00 0.000000e+00 0.000000e+00 0.000000e+00
<ENDHMM>
