~o
<STREAMINFO> 1 25
<VECSIZE> 25<NULLD><MFCC_D_N_Z_0><DIAGC>
~t "T_a"
<TRANSP> 5
 0.000000e+00 1.000000e+00 0.000000e+00 0.000000e+00 0.000000e+00
 0.000000e+00 4.290892e-01 5.709108e-01 0.000000e+00 0.000000e+00
 0.000000e+00 0.000000e+00 5.316011e-01 4.683989e-01 0.000000e+00
 0.000000e+00 0.000000e+00 0.000000e+00 2.343531e-01 7.656469e-01
 0.000000e+00 0.000000e+00 0.000000e+00 0.000000e+00 0.000000e+00
~t "T_b"
<TRANSP> 5
 0.000000e+00 1.000000e+00 0.000000e+00 0.000000e+00 0.000000e+00
 0.000000e+00 7.622126e-01 2.377874e-01 0.000000e+00 0.000000e+00
 0.000000e+00 0.000000e+00 4.348021e-01 5.651979e-01 0.000000e+00
 0.000000e+00 0.000000e+00 0.000000e+00 4.165957e-01 5.834042e-01
 0.000000e+00 0.000000e+00 0.000000e+00 0.000000e+00 0.000000e+00
~t "T_d"
<TRANSP> 5
 0.000000e+00 1.000000e+00 0.000000e+00 0.000000e+00 0.000000e+00
 0.000000e+00 3.017099e-01 6.982902e-01 0.000000e+00 0.000000e+00
 0.000000e+00 0.000000e+00 4.659008e-01 5.340992e-01 0.000000e+00
 0.000000e+00 0.000000e+00 0.000000e+00 6.625942e-01 3.374058e-01
 0.000000e+00 0.000000e+00 0.000000e+00 0.000000e+00 0.000000e+00
~t "T_f"
<TRANSP> 5
 0.000000e+00 1.000000e+00 0.000000e+00 0.000000e+00 0.000000e+00
 0.000000e+00 5.638746e-01 4.361254e-01 0.000000e+00 0.000000e+00
 0.000000e+00 0.000000e+00 7.219606e-01 2.780394e-01 0.000000e+00
 0.000000e+00 0.000000e+00 0.000000e+00 6.067460e-01 3.932540e-01
 0.000000e+00 0.000000e+00 0.000000e+00 0.000000e+00 0.000000e+00
~t "T_g"
<TRANSP> 5
 0.000000e+00 1.000000e+00 0.000000e+00 0.000000e+00 0.000000e+00
 0.000000e+00 6.359289e-01 3.640711e-01 0.000000e+00 0.000000e+00
 0.000000e+00 0.000000e+00 7.075030e-01 2.924971e-01 0.000000e+00
 0.000000e+00 0.000000e+00 0.000000e+00 7.476259e-01 2.523741e-01
 0.000000e+00 0.000000e+00 0.000000e+00 0.000000e+00 0.000000e+00
~t "T_h"
<TRANSP> 5
 0.000000e+00 1.000000e+00 0.000000e+00 0.000000e+00 0.000000e+00
 0.000000e+00 7.236845e-01 2.763154e-01 0.000000e+00 0.000000e+00
 0.000000e+00 0.000000e+00 7.898910e-01 2.101090e-01 0.000000e+00
 0.000000e+00 0.000000e+00 0.000000e+00 7.656000e-01 2.344000e-01
 0.000000e+00 0.000000e+00 0.000000e+00 0.000000e+00 0.000000e+00
~t "T_i"
<TRANSP> 5
 0.000000e+00 1.000000e+00 0.000000e+00 0.000000e+00 0.000000e+00
 0.000000e+00 5.573951e-01 4.426050e-01 0.000000e+00 0.000000e+00
 0.000000e+00 0.000000e+00 5.009816e-01 4.990184e-01 0.000000e+00
 0.000000e+00 0.000000e+00 0.000000e+00 8.231788e-01 1.768212e-01
 0.000000e+00 0.000000e+00 0.000000e+00 0.000000e+00 0.000000e+00
~t "T_j"
<TRANSP> 5
 0.000000e+00 1.000000e+00 0.000000e+00 0.000000e+00 0.000000e+00
 0.000000e+00 5.041665e-01 4.958334e-01 0.000000e+00 0.000000e+00
 0.000000e+00 0.000000e+00 8.976641e-01 1.023359e-01 0.000000e+00
 0.000000e+00 0.000000e+00 0.000000e+00 7.048989e-01 2.951011e-01
 0.000000e+00 0.000000e+00 0.000000e+00 0.000000e+00 0.000000e+00
~t "T_m"
<TRANSP> 5
 0.000000e+00 1.000000e+00 0.000000e+00 0.000000e+00 0.000000e+00
 0.000000e+00 8.158756e-01 1.841244e-01 0.000000e+00 0.000000e+00
 0.000000e+00 0.000000e+00 6.525234e-01 3.474765e-01 0.000000e+00
 0.000000e+00 0.000000e+00 0.000000e+00 8.143851e-01 1.856149e-01
 0.000000e+00 0.000000e+00 0.000000e+00 0.000000e+00 0.000000e+00
~t "T_n"
<TRANSP> 5
 0.000000e+00 1.000000e+00 0.000000e+00 0.000000e+00 0.000000e+00
 0.000000e+00 7.201774e-01 2.798226e-01 0.000000e+00 0.000000e+00
 0.000000e+00 0.000000e+00 5.311710e-01 4.688290e-01 0.000000e+00
 0.000000e+00 0.000000e+00 0.000000e+00 5.309813e-01 4.690187e-01
 0.000000e+00 0.000000e+00 0.000000e+00 0.000000e+00 0.000000e+00
~t "T_p"
<TRANSP> 5
 0.000000e+00 1.000000e+00 0.000000e+00 0.000000e+00 0.000000e+00
 0.000000e+00 4.183697e-01 5.816303e-01 0.000000e+00 0.000000e+00
 0.000000e+00 0.000000e+00 3.171977e-01 6.828023e-01 0.000000e+00
 0.000000e+00 0.000000e+00 0.000000e+00 3.539348e-01 6.460652e-01
 0.000000e+00 0.000000e+00 0.000000e+00 0.000000e+00 0.000000e+00
~t "T_r"
<TRANSP> 5
 0.000000e+00 1.000000e+00 0.000000e+00 0.000000e+00 0.000000e+00
 0.000000e+00 4.665171e-01 5.334829e-01 0.000000e+00 0.000000e+00
 0.000000e+00 0.000000e+00 1.460880e-04 9.998539e-01 0.000000e+00
 0.000000e+00 0.000000e+00 0.000000e+00 3.803285e-01 6.196715e-01
 0.000000e+00 0.000000e+00 0.000000e+00 0.000000e+00 0.000000e+00
~t "T_s"
<TRANSP> 5
 0.000000e+00 1.000000e+00 0.000000e+00 0.000000e+00 0.000000e+00
 0.000000e+00 5.939755e-01 4.060244e-01 0.000000e+00 0.000000e+00
 0.000000e+00 0.000000e+00 8.176900e-01 1.823100e-01 0.000000e+00
 0.000000e+00 0.000000e+00 0.000000e+00 7.612523e-01 2.387476e-01
 0.000000e+00 0.000000e+00 0.000000e+00 0.000000e+00 0.000000e+00
~t "T_t"
<TRANSP> 5
 0.000000e+00 1.000000e+00 0.000000e+00 0.000000e+00 0.000000e+00
 0.000000e+00 5.298316e-01 4.701684e-01 0.000000e+00 0.000000e+00
 0.000000e+00 0.000000e+00 2.834624e-01 7.165375e-01 0.000000e+00
 0.000000e+00 0.000000e+00 0.000000e+00 3.787356e-01 6.212644e-01
 0.000000e+00 0.000000e+00 0.000000e+00 0.000000e+00 0.000000e+00
~t "T_v"
<TRANSP> 5
 0.000000e+00 1.000000e+00 0.000000e+00 0.000000e+00 0.000000e+00
 0.000000e+00 5.303284e-02 9.469672e-01 0.000000e+00 0.000000e+00
 0.000000e+00 0.000000e+00 2.490596e-04 9.997510e-01 0.000000e+00
 0.000000e+00 0.000000e+00 0.000000e+00 2.992153e-03 9.970078e-01
 0.000000e+00 0.000000e+00 0.000000e+00 0.000000e+00 0.000000e+00
~t "T_z"
<TRANSP> 5
 0.000000e+00 1.000000e+00 0.000000e+00 0.000000e+00 0.000000e+00
 0.000000e+00 8.419346e-01 1.580654e-01 0.000000e+00 0.000000e+00
 0.000000e+00 0.000000e+00 6.237329e-01 3.762671e-01 0.000000e+00
 0.000000e+00 0.000000e+00 0.000000e+00 4.332870e-01 5.667130e-01
 0.000000e+00 0.000000e+00 0.000000e+00 0.000000e+00 0.000000e+00
~t "T_aa"
<TRANSP> 5
 0.000000e+00 1.000000e+00 0.000000e+00 0.000000e+00 0.000000e+00
 0.000000e+00 5.298766e-01 4.701234e-01 0.000000e+00 0.000000e+00
 0.000000e+00 0.000000e+00 7.442310e-01 2.557690e-01 0.000000e+00
 0.000000e+00 0.000000e+00 0.000000e+00 7.463287e-01 2.536714e-01
 0.000000e+00 0.000000e+00 0.000000e+00 0.000000e+00 0.000000e+00
~t "T_ae"
<TRANSP> 5
 0.000000e+00 1.000000e+00 0.000000e+00 0.000000e+00 0.000000e+00
 0.000000e+00 7.288174e-01 2.711826e-01 0.000000e+00 0.000000e+00
 0.000000e+00 0.000000e+00 2.946601e-01 7.053399e-01 0.000000e+00
 0.000000e+00 0.000000e+00 0.000000e+00 1.644384e-01 8.355616e-01
 0.000000e+00 0.000000e+00 0.000000e+00 0.000000e+00 0.000000e+00
~t "T_ay"
<TRANSP> 5
 0.000000e+00 1.000000e+00 0.000000e+00 0.000000e+00 0.000000e+00
 0.000000e+00 7.745473e-01 2.254527e-01 0.000000e+00 0.000000e+00
 0.000000e+00 0.000000e+00 6.431251e-01 3.568749e-01 0.000000e+00
 0.000000e+00 0.000000e+00 0.000000e+00 5.916241e-01 4.083759e-01
 0.000000e+00 0.000000e+00 0.000000e+00 0.000000e+00 0.000000e+00
~t "T_ch"
<TRANSP> 5
 0.000000e+00 1.000000e+00 0.000000e+00 0.000000e+00 0.000000e+00
 0.000000e+00 8.181210e-01 1.818791e-01 0.000000e+00 0.000000e+00
 0.000000e+00 0.000000e+00 7.620273e-01 2.379728e-01 0.000000e+00
 0.000000e+00 0.000000e+00 0.000000e+00 7.861199e-01 2.138802e-01
 0.000000e+00 0.000000e+00 0.000000e+00 0.000000e+00 0.000000e+00
~t "T_ee"
<TRANSP> 5
 0.000000e+00 1.000000e+00 0.000000e+00 0.000000e+00 0.000000e+00
 0.000000e+00 6.001154e-01 3.998846e-01 0.000000e+00 0.000000e+00
 0.000000e+00 0.000000e+00 6.366283e-01 3.633718e-01 0.000000e+00
 0.000000e+00 0.000000e+00 0.000000e+00 5.124621e-01 4.875378e-01
 0.000000e+00 0.000000e+00 0.000000e+00 0.000000e+00 0.000000e+00
~t "T_ii"
<TRANSP> 5
 0.000000e+00 1.000000e+00 0.000000e+00 0.000000e+00 0.000000e+00
 0.000000e+00 8.734337e-02 9.126567e-01 0.000000e+00 0.000000e+00
 0.000000e+00 0.000000e+00 9.806115e-02 9.019389e-01 0.000000e+00
 0.000000e+00 0.000000e+00 0.000000e+00 1.949156e-01 8.050844e-01
 0.000000e+00 0.000000e+00 0.000000e+00 0.000000e+00 0.000000e+00
~t "T_ll"
<TRANSP> 5
 0.000000e+00 1.000000e+00 0.000000e+00 0.000000e+00 0.000000e+00
 0.000000e+00 3.406250e-01 6.593749e-01 0.000000e+00 0.000000e+00
 0.000000e+00 0.000000e+00 5.974584e-01 4.025416e-01 0.000000e+00
 0.000000e+00 0.000000e+00 0.000000e+00 7.736849e-01 2.263151e-01
 0.000000e+00 0.000000e+00 0.000000e+00 0.000000e+00 0.000000e+00
~t "T_mm"
<TRANSP> 5
 0.000000e+00 1.000000e+00 0.000000e+00 0.000000e+00 0.000000e+00
 0.000000e+00 6.523955e-01 3.476045e-01 0.000000e+00 0.000000e+00
 0.000000e+00 0.000000e+00 7.013083e-01 2.986917e-01 0.000000e+00
 0.000000e+00 0.000000e+00 0.000000e+00 7.096705e-01 2.903295e-01
 0.000000e+00 0.000000e+00 0.000000e+00 0.000000e+00 0.000000e+00
~t "T_nn"
<TRANSP> 5
 0.000000e+00 1.000000e+00 0.000000e+00 0.000000e+00 0.000000e+00
 0.000000e+00 6.480921e-01 3.519079e-01 0.000000e+00 0.000000e+00
 0.000000e+00 0.000000e+00 3.836793e-01 6.163207e-01 0.000000e+00
 0.000000e+00 0.000000e+00 0.000000e+00 7.277439e-01 2.722562e-01
 0.000000e+00 0.000000e+00 0.000000e+00 0.000000e+00 0.000000e+00
~t "T_oo"
<TRANSP> 5
 0.000000e+00 1.000000e+00 0.000000e+00 0.000000e+00 0.000000e+00
 0.000000e+00 5.162275e-01 4.837724e-01 0.000000e+00 0.000000e+00
 0.000000e+00 0.000000e+00 4.210052e-01 5.789948e-01 0.000000e+00
 0.000000e+00 0.000000e+00 0.000000e+00 5.231484e-01 4.768516e-01
 0.000000e+00 0.000000e+00 0.000000e+00 0.000000e+00 0.000000e+00
~t "T_rr"
<TRANSP> 5
 0.000000e+00 1.000000e+00 0.000000e+00 0.000000e+00 0.000000e+00
 0.000000e+00 8.342101e-01 1.657899e-01 0.000000e+00 0.000000e+00
 0.000000e+00 0.000000e+00 8.100988e-01 1.899011e-01 0.000000e+00
 0.000000e+00 0.000000e+00 0.000000e+00 5.949625e-01 4.050376e-01
 0.000000e+00 0.000000e+00 0.000000e+00 0.000000e+00 0.000000e+00
~t "T_ss"
<TRANSP> 5
 0.000000e+00 1.000000e+00 0.000000e+00 0.000000e+00 0.000000e+00
 0.000000e+00 1.397393e-01 8.602607e-01 0.000000e+00 0.000000e+00
 0.000000e+00 0.000000e+00 7.538920e-07 9.999992e-01 0.000000e+00
 0.000000e+00 0.000000e+00 0.000000e+00 6.887412e-02 9.311259e-01
 0.000000e+00 0.000000e+00 0.000000e+00 0.000000e+00 0.000000e+00
~t "T_tt"
<TRANSP> 5
 0.000000e+00 1.000000e+00 0.000000e+00 0.000000e+00 0.000000e+00
 0.000000e+00 6.168416e-01 3.831584e-01 0.000000e+00 0.000000e+00
 0.000000e+00 0.000000e+00 5.312328e-01 4.687673e-01 0.000000e+00
 0.000000e+00 0.000000e+00 0.000000e+00 5.884621e-01 4.115379e-01
 0.000000e+00 0.000000e+00 0.000000e+00 0.000000e+00 0.000000e+00
~t "T_ur"
<TRANSP> 5
 0.000000e+00 1.000000e+00 0.000000e+00 0.000000e+00 0.000000e+00
 0.000000e+00 6.678687e-01 3.321313e-01 0.000000e+00 0.000000e+00
 0.000000e+00 0.000000e+00 6.545222e-01 3.454778e-01 0.000000e+00
 0.000000e+00 0.000000e+00 0.000000e+00 6.993302e-01 3.006698e-01
 0.000000e+00 0.000000e+00 0.000000e+00 0.000000e+00 0.000000e+00
~t "T_yy"
<TRANSP> 5
 0.000000e+00 1.000000e+00 0.000000e+00 0.000000e+00 0.000000e+00
 0.000000e+00 4.270677e-01 5.729323e-01 0.000000e+00 0.000000e+00
 0.000000e+00 0.000000e+00 4.877770e-01 5.122230e-01 0.000000e+00
 0.000000e+00 0.000000e+00 0.000000e+00 6.069205e-01 3.930795e-01
 0.000000e+00 0.000000e+00 0.000000e+00 0.000000e+00 0.000000e+00
~s "ST_yy_4_1"
<MEAN> 25
 -1.328695e-01 1.488095e+00 -2.668809e-01 4.895447e+00 6.371683e+00 2.747797e+00 -8.393813e-01 -3.891418e+00 -4.901991e+00 -1.177612e+00 -1.343369e+00 -1.622051e+00 -1.536184e+00 -1.944859e-01 3.884971e-01 -1.830444e+00 -1.551658e+00 3.450018e-01 1.947263e+00 1.444697e+00 5.461722e-01 1.155591e+00 8.841116e-01 7.910283e-01 -7.566409e-01
<VARIANCE> 25
 1.393147e+00 2.010584e+00 8.389370e+00 4.196691e+00 4.420790e+00 5.398975e+00 7.531995e+00 8.694446e+00 9.145497e+00 5.220958e+00 7.503701e+00 1.172064e+01 1.438561e-01 7.495300e-01 1.137179e+00 7.405592e-01 7.116158e-01 6.462992e-01 9.156185e-01 7.762915e-01 6.816234e-01 6.416311e-01 1.346758e+00 1.072733e+00 3.670851e-01
<GCONST> 6.125682e+01
~s "ST_f_2_1"
<MEAN> 25
 7.735210e+00 2.110707e+00 -9.177861e+00 -8.231405e+00 -6.044031e+00 -6.890276e+00 -2.084404e+00 4.599061e+00 5.606223e+00 1.428573e+00 -3.707782e+00 -9.830463e-02 -1.880704e+00 9.778981e-01 1.193990e+00 -8.433167e-01 -5.832909e-01 1.358914e+00 1.710454e+00 -4.007279e-02 -5.536782e-01 1.073819e+00 1.520493e+00 1.107589e+00 -1.425527e+00
<VARIANCE> 25
 3.491337e+00 2.957930e+00 3.403918e+00 3.244317e+00 4.145784e+00 4.889594e+00 6.274719e+00 5.218770e+00 3.826914e+00 6.623427e+00 7.693576e+00 9.306851e+00 7.088412e-02 3.925279e-01 3.323896e-01 5.382399e-01 7.976857e-01 7.114984e-01 6.614350e-01 8.139032e-01 7.377174e-01 6.853610e-01 1.038300e+00 6.656351e-01 5.944270e-02
<GCONST> 5.432272e+01
~s "ST_f_3_1"
<MEAN> 25
 2.291597e+00 1.913213e+00 -6.698352e+00 -8.866006e+00 -6.622546e+00 -4.186530e+00 5.856325e-01 4.456874e+00 4.323346e+00 2.905612e+00 -1.777829e-01 3.466898e+00 -1.343582e+00 -2.523014e-01 5.211423e-01 7.979382e-01 5.796738e-01 9.173577e-01 7.521251e-01 -2.471248e-01 -4.358766e-01 2.545060e-01 7.937586e-01 1.017920e+00 -9.188715e-01
<VARIANCE> 25
 2.326980e+00 2.446867e+00 5.581850e+00 5.908739e+00 4.413462e+00 5.821681e+00 5.525450e+00 7.766085e+00 8.529337e+00 5.965749e+00 6.280010e+00 6.859618e+00 3.024858e-01 1.776967e-01 5.187079e-01 8.134319e-01 4.085663e-01 5.102980e-01 7.819653e-01 9.836899e-01 7.209632e-01 3.651397e-01 8.575633e-01 9.754422e-01 7.776608e-02
<GCONST> 5.619643e+01
~s "ST_f_4_1"
<MEAN> 25
 -1.244892e+00 6.990901e-01 -5.341005e+00 -4.339513e+00 -2.994382e+00 -1.711000e+00 1.573597e+00 2.838074e+00 2.941088e+00 3.441693e+00 2.213421e+00 5.451507e+00 -1.079315e+00 -9.915895e-01 1.231414e+00 5.423481e-01 3.674306e-01 3.734222e-01 2.222923e-01 -4.670516e-01 -2.516090e-01 -3.463001e-02 6.833833e-01 -4.972165e-01 1.542836e-01
<VARIANCE> 25
 2.242024e+00 1.421696e+00 2.952535e+00 5.015753e+00 3.669809e+00 4.551175e+00 9.669361e+00 5.725381e+00 4.111590e+00 3.879814e+00 8.064128e+00 8.720879e+00 1.752575e-01 3.850289e-01 8.882053e-01 9.863037e-01 8.349560e-01 4.165054e-01 6.762941e-01 1.067281e+00 8.436437e-01 6.704754e-01 7.929373e-01 9.694949e-01 3.338447e-01
<GCONST> 5.751315e+01
~s "ST_aa_2_1"
<MEAN> 25
 7.567059e+00 1.215953e+00 -6.180066e+00 -3.336416e+00 -3.864063e+00 -6.609954e+00 -5.019608e+00 1.859950e-01 3.530424e+00 -7.208353e-01 -4.648108e+00 -3.540752e-01 1.739353e+00 -6.490440e-01 -1.933425e+00 -9.871493e-01 -6.498148e-01 -1.375895e+00 -1.325899e+00 2.923813e-01 9.549500e-01 -2.707083e-01 -6.448831e-01 2.057985e-01 1.193268e+00
<VARIANCE> 25
 2.253033e+01 1.077648e+01 2.644062e+01 1.234430e+01 9.786447e+00 2.649168e+01 2.974631e+01 2.381487e+01 2.045132e+01 1.398535e+01 1.891388e+01 1.287365e+01 1.415923e+00 8.853762e-01 1.728309e+00 8.054345e-01 1.418262e+00 2.171225e+00 1.985218e+00 1.415382e+00 1.171510e+00 1.057098e+00 1.506924e+00 1.196861e+00 6.206518e-01
<GCONST> 8.354051e+01
~s "ST_aa_3_1"
<MEAN> 25
 1.050410e+01 1.063389e+00 -9.895028e+00 -6.339352e+00 -3.663953e+00 -6.256690e+00 -6.744130e+00 -1.350386e+00 3.125540e+00 -4.908646e-01 -4.345329e+00 2.028197e-01 -1.447614e-01 -6.280606e-01 1.151953e-02 4.752584e-01 9.927399e-01 1.007314e+00 -2.501276e-01 -1.239664e+00 -1.246382e+00 -3.468236e-01 6.107325e-01 9.108732e-01 1.428183e-01
<VARIANCE> 25
 5.930923e+00 9.727104e+00 9.929525e+00 5.813402e+00 1.109613e+01 1.915639e+01 1.849348e+01 1.467716e+01 1.383126e+01 1.046187e+01 9.896136e+00 1.546166e+01 1.187079e-01 4.968779e-01 9.639187e-01 8.816064e-01 1.015846e+00 6.020603e-01 9.131005e-01 5.726715e-01 9.226215e-01 7.586970e-01 8.416876e-01 1.117861e+00 1.108116e-01
<GCONST> 6.827500e+01
~s "ST_aa_3_2"
<MEAN> 25
 1.134445e+01 -1.277765e+00 -1.124160e+01 -6.446323e+00 -5.431064e+00 -8.564803e+00 -7.104975e+00 1.155550e+00 5.213901e+00 -1.367604e+00 -5.612748e+00 2.283296e-01 -8.638966e-02 3.724978e-01 2.331336e-01 -4.030007e-01 -3.300857e-01 3.656244e-01 4.389675e-01 2.832887e-02 -7.750998e-02 2.801479e-02 2.785824e-02 -1.828196e-01 -1.230355e-01
<VARIANCE> 25
 2.902683e+00 7.962667e+00 7.835177e+00 5.560893e+00 6.544905e+00 1.134791e+01 1.277970e+01 1.363498e+01 1.527491e+01 7.135150e+00 1.067396e+01 8.492716e+00 1.732968e-01 5.282294e-01 9.158891e-01 5.782631e-01 5.029737e-01 8.194042e-01 6.365398e-01 1.412807e+00 1.018878e+00 8.006189e-01 7.474161e-01 5.696085e-01 1.447888e-01
<GCONST> 6.451901e+01
~s "ST_aa_4_1"
<MEAN> 25
 7.339539e+00 1.125830e+00 -6.378479e+00 -4.069821e+00 -1.218091e+00 -2.385963e+00 -4.290909e+00 -3.397058e+00 -1.705252e+00 -7.013497e-01 -1.420879e+00 1.370511e+00 -1.493411e+00 3.134734e-01 1.731667e+00 -1.403470e-01 -6.023036e-01 8.955159e-01 1.376215e+00 -1.026533e-01 -1.022675e+00 4.344347e-01 1.004354e+00 5.318396e-02 -8.454416e-01
<VARIANCE> 25
 1.028705e+01 1.073027e+01 1.586278e+01 8.675881e+00 1.415629e+01 2.176282e+01 2.988632e+01 2.904712e+01 2.838703e+01 7.651169e+00 1.761633e+01 1.561665e+01 3.490263e-01 9.365783e-01 1.197193e+00 1.107319e+00 8.799802e-01 1.000374e+00 1.536193e+00 1.074428e+00 1.234374e+00 8.462749e-01 1.061413e+00 1.267671e+00 2.454935e-01
<GCONST> 7.754340e+01
~s "ST_aa_4_2"
<MEAN> 25
 6.284613e+00 3.668474e+00 -6.102523e+00 -7.072315e+00 -6.013726e+00 -3.326665e+00 -1.136815e+00 -4.281530e-01 5.913904e-02 -1.423561e+00 -3.258330e+00 1.702846e+00 -1.397965e+00 3.872805e-01 7.595980e-01 4.045750e-01 4.203413e-01 7.377988e-01 1.267982e+00 3.829043e-01 -6.839956e-01 3.349641e-01 1.041383e+00 4.796703e-01 -1.066343e+00
<VARIANCE> 25
 1.216335e+01 3.667011e+00 5.092518e+00 5.290071e+00 5.887350e+00 5.984526e+00 1.394213e+01 8.948065e+00 9.682547e+00 9.013346e+00 1.490199e+01 9.647786e+00 1.385108e-01 9.808399e-01 4.640836e-01 7.660384e-01 6.512566e-01 8.576524e-01 1.343497e+00 1.017306e+00 1.151272e+00 7.362930e-01 8.895639e-01 7.724854e-01 2.403595e-01
<GCONST> 6.559753e+01
~s "ST_s_2_1"
<MEAN> 25
 -4.600619e+00 -4.257905e+00 1.100780e+01 -1.256854e+00 -4.120354e+00 3.448459e+00 4.382070e+00 -1.508099e+00 -4.263328e+00 -1.625053e+00 4.037599e+00 -5.004352e+00 -2.367789e+00 -1.070221e+00 2.193759e+00 -1.771699e+00 -1.266316e+00 1.086309e+00 1.668370e+00 3.324971e-01 3.176754e-02 6.022272e-01 2.041487e+00 3.008884e-02 7.932153e-02
<VARIANCE> 25
 1.589241e+01 7.776713e+00 2.578266e+01 2.057270e+01 2.394745e+01 1.458440e+01 1.404280e+01 2.623717e+01 1.546843e+01 1.330909e+01 2.409509e+01 2.909272e+01 2.217595e+00 1.420719e+00 4.793835e+00 2.072606e+00 1.668523e+00 1.323553e+00 2.881042e+00 1.269708e+00 2.026798e+00 1.025454e+00 3.131020e+00 1.766971e+00 3.200785e-01
<GCONST> 8.751836e+01
~s "ST_s_3_1"
<MEAN> 25
 -9.706991e+00 -5.077099e+00 1.241693e+01 -5.957493e+00 -4.012722e+00 5.747276e+00 6.084527e+00 6.894527e-01 -1.772528e+00 1.057426e+00 7.781824e+00 -2.495728e+00 3.911754e-02 2.114141e-01 -9.348879e-01 1.313976e-01 4.130453e-01 1.767102e-02 -3.612092e-02 3.220653e-01 3.878836e-01 4.752513e-01 -7.264291e-02 7.165596e-01 -5.041416e-01
<VARIANCE> 25
 4.297774e+00 8.882151e+00 1.668891e+01 9.783994e+00 1.911198e+01 1.413467e+01 1.215701e+01 1.201408e+01 1.661434e+01 1.273061e+01 1.314402e+01 1.539434e+01 7.951717e-01 6.996773e-01 1.704320e+00 1.440104e+00 1.264709e+00 1.111415e+00 9.064794e-01 8.995513e-01 1.085483e+00 9.485325e-01 1.357865e+00 1.111795e+00 2.448712e-01
<GCONST> 7.541375e+01
~s "ST_s_4_1"
<MEAN> 25
 -5.340810e+00 -3.709931e+00 5.747737e+00 -1.774857e+00 -2.900118e+00 4.353654e+00 3.981616e+00 1.369395e+00 -5.622063e-01 1.747702e+00 5.293097e+00 1.100150e+00 2.420591e+00 1.788993e+00 -1.869371e+00 1.311089e+00 8.830710e-01 -9.527545e-01 -1.228604e+00 -1.079025e+00 -7.452006e-01 -9.949515e-01 -2.763236e+00 -3.298892e-01 -1.205618e-01
<VARIANCE> 25
 1.308456e+01 1.500056e+01 1.330935e+01 1.249597e+01 1.161497e+01 9.087771e+00 1.144242e+01 1.628169e+01 1.428691e+01 1.345748e+01 2.409596e+01 1.418033e+01 2.316186e+00 7.978656e-01 8.244426e-01 9.269074e-01 7.695080e-01 1.651337e+00 1.675603e+00 1.212267e+00 2.416099e+00 3.238672e+00 3.272242e+00 2.112247e+00 4.737248e-01
<GCONST> 8.185651e+01
~s "ST_s_4_2"
<MEAN> 25
 -4.934987e+00 -8.365152e-01 -7.475710e-02 -1.654008e+00 -2.483139e-01 3.922209e+00 4.656217e+00 2.502036e+00 9.020314e-01 3.674628e+00 4.029450e+00 4.335133e+00 3.361512e-01 2.351774e-01 -1.001781e+00 2.095715e-01 1.375076e-01 -1.822158e-01 -1.773258e-01 1.434852e-01 3.763555e-01 2.415958e-01 -8.556169e-02 5.783042e-01 -3.816967e-01
<VARIANCE> 25
 1.487544e+00 1.869545e+00 7.151849e+00 3.571696e+00 3.874845e+00 5.365830e+00 5.954831e+00 6.872910e+00 7.037873e+00 6.677737e+00 6.795824e+00 6.717226e+00 2.171149e-01 2.456595e-01 8.512103e-01 4.179513e-01 4.927531e-01 5.746503e-01 4.620934e-01 7.628542e-01 1.180663e+00 9.350762e-01 6.687098e-01 9.927784e-01 2.163282e-01
<GCONST> 5.651688e+01
~s "ST_ur_2_1"
<MEAN> 25
 5.241414e+00 3.783445e+00 2.861448e+00 2.605425e+00 -3.378298e+00 -6.481685e+00 -4.463992e+00 5.303726e+00 2.930943e+00 -1.006051e+01 -1.135043e+01 -3.950855e+00 -1.599075e+00 -1.613240e+00 2.383459e+00 -1.838551e-01 -5.277218e-01 1.273467e+00 8.458560e-01 1.193581e+00 7.455579e-01 -1.131911e+00 2.211125e+00 3.768129e-01 3.688692e-01
<VARIANCE> 25
 9.417285e+00 5.191742e+00 1.081585e+01 5.174536e+00 1.970965e+00 1.664426e+01 1.086651e+01 9.891594e+00 7.467258e+00 1.284932e+01 1.791646e+01 1.195265e+01 1.723109e+00 1.284279e+00 1.690644e+00 9.186999e-01 4.265083e-01 1.474122e+00 3.117946e+00 4.679372e-01 2.332978e+00 9.992133e-01 6.759997e+00 2.393160e+00 7.056873e-02
<GCONST> 7.408691e+01
~s "ST_i_2_1"
<MEAN> 25
 2.638295e+00 3.501637e-01 1.114778e+00 3.570869e+00 3.502549e+00 1.841848e+00 -2.062825e+00 -5.117280e+00 -5.771686e+00 -3.105357e+00 -1.575061e+00 -1.762185e+00 -1.179897e+00 1.473041e-02 8.187069e-01 -1.010674e+00 -8.703087e-01 1.095425e+00 1.823745e+00 6.994225e-01 -1.441537e-01 8.143035e-02 1.350285e+00 5.796349e-01 -4.712921e-01
<VARIANCE> 25
 2.065825e+01 1.539153e+01 2.897052e+01 9.277015e+00 1.799918e+01 1.049182e+01 2.349266e+01 9.277773e+00 1.844545e+01 2.001122e+01 3.166669e+01 9.413092e+00 6.424627e-01 1.254480e+00 1.150293e+00 8.182880e-01 6.705043e-01 6.292744e-01 1.021270e+00 7.068611e-01 1.639532e+00 1.608421e+00 2.678506e+00 7.150772e-01 2.251916e-01
<GCONST> 7.820010e+01
~s "ST_ur_3_1"
<MEAN> 25
 -4.466615e+00 -3.493460e+00 1.291280e+01 9.189327e-02 -5.700296e+00 -2.343568e+00 2.581556e+00 7.577382e+00 5.969380e-01 -1.283005e+01 3.318517e+00 -2.164838e+00 -2.701935e+00 -1.792645e+00 1.564801e+00 -1.089411e+00 -3.499624e-01 5.658715e-01 2.180648e+00 1.353110e-01 -1.193694e+00 -1.878237e-02 3.867847e+00 9.066948e-01 1.362733e-01
<VARIANCE> 25
 9.007251e+00 1.152281e+01 4.598994e+00 1.602732e+01 5.119117e+00 8.699472e+00 1.425208e+01 9.044995e+00 1.901481e+01 1.346600e+01 2.166772e+01 3.893094e+01 8.434650e-01 1.036843e+00 1.748013e+00 8.206106e-01 5.263378e-01 1.012085e+00 1.542826e+00 1.258741e+00 1.075404e+00 2.023810e+00 1.801757e+00 9.804298e-01 1.078118e-01
<GCONST> 7.520770e+01
~s "ST_i_3_1"
<MEAN> 25
 -4.128181e+00 -4.588514e+00 9.098595e+00 3.246213e-01 -2.118853e+00 3.660615e+00 3.474328e+00 -1.981448e+00 -7.169694e+00 -6.022478e+00 6.067425e+00 -1.715364e+00 -2.203588e+00 -1.442800e+00 1.756734e+00 -1.196120e+00 -1.469308e+00 3.696977e-01 1.962198e+00 1.318647e+00 9.642486e-01 3.695396e-01 2.037210e+00 -6.943660e-02 7.829985e-02
<VARIANCE> 25
 1.797366e+01 2.145172e+01 3.355210e+01 8.288019e+00 1.745625e+01 6.454141e+00 1.541072e+01 6.484815e+00 1.660348e+01 1.607965e+01 1.840130e+01 1.575395e+01 1.157384e+00 1.728569e+00 2.338103e+00 1.230869e+00 1.239973e+00 6.826102e-01 7.855331e-01 1.066999e+00 1.305192e+00 1.451551e+00 2.352481e+00 6.763851e-01 1.558096e-01
<GCONST> 7.876675e+01
~s "ST_ur_4_1"
<MEAN> 25
 -8.069720e+00 -6.782408e+00 1.101307e+01 -5.476800e-01 -3.578146e+00 -4.797912e-01 5.277694e+00 8.906642e+00 5.049255e-02 -9.312731e+00 9.187247e+00 2.076394e+00 -1.302054e-01 1.937860e-01 -1.265660e+00 -1.720683e-01 8.842162e-01 5.884357e-01 3.013710e-01 -4.498353e-02 3.872845e-02 1.804032e+00 4.385802e-01 2.100736e-01 -5.801626e-01
<VARIANCE> 25
 2.423645e+00 6.262716e+00 1.513728e+01 1.484225e+01 8.254518e+00 7.869972e+00 1.499485e+01 1.667558e+01 1.703284e+01 1.433671e+01 1.673309e+01 2.839745e+01 6.572002e-01 6.882133e-01 1.250280e+00 7.115775e-01 1.064773e+00 6.411576e-01 8.768249e-01 1.658417e+00 1.030588e+00 1.067885e+00 2.248356e+00 8.504379e-01 1.548216e-01
<GCONST> 7.339947e+01
~s "ST_i_4_1"
<MEAN> 25
 -9.303837e+00 -9.281931e+00 1.098781e+01 -4.880224e-01 -5.744101e+00 2.612559e+00 7.535777e+00 3.282351e+00 -1.775204e+00 -2.103615e+00 1.180913e+01 7.263852e-01 1.249742e-05 -1.915013e-01 -6.062317e-01 1.836170e-01 -6.289284e-02 -3.438659e-01 -1.392338e-01 6.805723e-01 5.875452e-01 3.678154e-01 1.170715e-01 6.117677e-01 -2.865755e-01
<VARIANCE> 25
 6.865151e+00 1.470892e+01 1.343231e+01 5.834581e+00 1.138069e+01 6.804586e+00 9.431993e+00 1.139447e+01 1.128654e+01 1.393255e+01 1.712565e+01 1.559167e+01 3.177592e-01 3.878366e-01 7.065470e-01 7.413617e-01 5.880350e-01 6.084221e-01 9.303998e-01 6.553391e-01 1.013149e+00 8.548006e-01 1.055701e+00 6.755847e-01 4.509679e-02
<GCONST> 6.675160e+01
~s "ST_v_2_1"
<MEAN> 25
 9.960890e-01 1.579432e+00 -2.823052e+00 -1.445189e+00 -5.206608e-01 -3.238212e-01 6.443612e-01 2.086676e+00 1.562705e+00 9.708094e-01 -1.328272e-01 1.546201e+00 3.751992e-02 2.046110e-01 2.754673e-01 3.180063e-01 5.118542e-01 2.142667e-01 -2.451830e-01 -4.926496e-01 -5.442356e-01 -3.128298e-01 -2.555202e-01 -1.613021e-01 -2.400409e-02
<VARIANCE> 25
 3.562928e+01 1.039893e+01 1.573873e+01 8.669334e+00 1.638309e+01 3.119223e+01 2.996095e+01 1.203668e+01 2.194870e+01 1.716540e+01 2.415605e+01 2.873398e+01 2.694277e-01 2.821262e-01 3.382952e-01 3.941346e-01 7.116346e-01 7.164761e-01 4.751835e-01 7.754334e-01 1.249683e+00 6.054205e-01 1.054986e+00 9.135858e-01 7.561867e-02
<GCONST> 7.221461e+01
~s "ST_v_3_1"
<MEAN> 25
 7.668432e-01 1.637340e+00 -2.649458e+00 -1.143172e+00 3.164574e-01 -8.740512e-02 7.850781e-03 1.413853e+00 1.107155e+00 1.244022e+00 3.594676e-01 1.839236e+00 2.222740e-01 4.304103e-01 5.703945e-01 5.849056e-01 5.037601e-01 1.944395e-01 -1.708613e-01 -7.058474e-01 -6.178517e-01 -2.370903e-01 -3.546360e-01 -5.026249e-01 9.340870e-02
<VARIANCE> 25
 3.408487e+01 1.154273e+01 1.384187e+01 7.945471e+00 1.642825e+01 3.423983e+01 3.240355e+01 1.079630e+01 1.949331e+01 2.201134e+01 2.543571e+01 2.615788e+01 7.589934e-01 6.869468e-01 6.075050e-01 5.127466e-01 4.101612e-01 6.678669e-01 1.773371e+00 8.486523e-01 1.213178e+00 5.464627e-01 1.609956e+00 1.288916e+00 2.573037e-01
<GCONST> 7.763168e+01
~s "ST_v_4_1"
<MEAN> 25
 1.184905e+00 2.610400e+00 -1.882954e+00 -6.385812e-01 5.225270e-01 2.030108e-01 4.746600e-01 7.285304e-01 2.878022e-01 6.214917e-01 -3.094907e-01 1.238032e+00 4.767736e-01 5.540518e-01 6.263440e-01 6.739197e-01 4.920408e-01 1.274193e-01 -3.412075e-01 -8.592587e-01 -6.395325e-01 -2.961915e-01 -5.591970e-01 -9.362627e-01 2.338774e-01
<VARIANCE> 25
 2.707624e+01 7.758399e+00 1.224567e+01 9.340828e+00 1.941520e+01 3.636040e+01 2.747737e+01 1.416114e+01 2.179675e+01 1.794775e+01 1.800482e+01 2.733640e+01 1.308694e+00 1.247691e+00 1.185911e+00 6.976029e-01 9.410347e-01 7.981229e-01 3.753364e+00 1.487204e+00 1.235500e+00 7.847052e-01 2.184572e+00 2.123041e+00 6.586835e-01
<GCONST> 8.354521e+01
~s "ST_b_2_1"
<MEAN> 25
 1.816604e+00 6.514886e+00 2.458467e+00 3.254014e+00 2.611216e+00 1.702661e+00 1.370273e+00 -4.653587e-01 -2.522057e+00 -3.646766e+00 -5.919190e+00 -2.868959e+00 8.197656e-01 1.479957e-01 -2.069012e-01 -5.945147e-01 -7.454180e-01 -9.967145e-01 -8.866348e-01 2.438519e-02 1.201392e-01 -8.655673e-01 -1.151102e+00 -1.171791e+00 6.017618e-01
<VARIANCE> 25
 3.185300e+00 2.026031e+00 2.918368e+00 6.990247e+00 1.053792e+01 8.090833e+00 6.207732e+00 6.928643e+00 8.272464e+00 8.454728e+00 8.316208e+00 8.309069e+00 3.622699e-01 3.799214e-01 4.388081e-01 8.220487e-01 1.021687e+00 5.999001e-01 1.198298e+00 1.134046e+00 1.091182e+00 1.575214e+00 1.266301e+00 9.721521e-01 1.979893e-01
<GCONST> 6.346180e+01
~s "ST_b_3_1"
<MEAN> 25
 5.267050e+00 6.198555e+00 7.120246e-01 2.175530e+00 2.251233e+00 -1.484968e+00 -3.037053e+00 -1.405885e+00 -3.574944e+00 -8.681011e+00 -1.081615e+01 -6.284214e+00 1.033675e+00 -1.129010e+00 -9.503604e-01 8.746654e-01 2.048122e+00 -8.117516e-02 -2.863456e+00 -1.240261e+00 -7.742177e-01 -1.495168e+00 -1.929993e-01 2.488864e-01 8.888726e-01
<VARIANCE> 25
 1.893015e+00 2.407646e+00 3.178627e+00 6.194942e+00 8.742767e+00 3.678644e+00 7.043077e+00 6.107976e+00 7.303022e+00 5.325068e+00 5.187838e+00 6.960935e+00 2.346775e-01 4.163296e-01 2.907220e-01 3.453185e-01 5.102218e-01 5.674849e-01 7.041597e-01 6.680204e-01 5.798087e-01 9.787543e-01 1.037401e+00 8.124747e-01 1.407562e-01
<GCONST> 5.560735e+01
~s "ST_b_4_1"
<MEAN> 25
 6.632030e+00 2.856802e+00 -1.387515e+00 4.387620e+00 7.466996e+00 -1.325238e-01 -9.434822e+00 -4.142676e+00 -5.219238e+00 -1.062973e+01 -7.829774e+00 -3.434799e+00 2.160060e-01 -1.813674e+00 -9.182715e-01 1.740996e+00 2.697913e+00 3.875180e-01 -2.802386e+00 -1.621788e+00 -3.920650e-01 1.587411e-01 1.733656e+00 8.239592e-01 5.580577e-01
<VARIANCE> 25
 1.075849e+00 3.843759e+00 2.702096e+00 4.162052e+00 8.865035e+00 3.725577e+00 1.041487e+01 8.263361e+00 5.403998e+00 5.711767e+00 5.447270e+00 5.849527e+00 1.219058e-01 2.061352e-01 1.885123e-01 3.225027e-01 3.789676e-01 4.854102e-01 5.874028e-01 8.738332e-01 4.558898e-01 8.300233e-01 5.770401e-01 5.861874e-01 7.824601e-02
<GCONST> 5.118246e+01
~s "ST_ll_2_1"
<MEAN> 25
 8.845648e+00 -3.010214e+00 -3.422540e+00 4.030660e+00 6.656912e+00 -2.427969e+00 -1.038289e+01 -6.389726e+00 -7.197753e+00 -5.097011e+00 -1.853927e+00 -3.296628e+00 -2.562377e+00 -1.761069e+00 3.421383e+00 -9.563908e-01 -1.735138e+00 3.200417e+00 2.351771e+00 -2.320887e+00 -1.272902e+00 1.225609e+00 2.549691e+00 -6.321920e-01 1.334183e-01
<VARIANCE> 25
 3.580182e+00 7.344416e+00 7.046833e+00 6.071428e+00 1.049984e+01 1.057142e+01 1.748728e+01 9.956230e+00 1.407144e+01 1.237832e+01 9.683293e+00 1.090298e+01 8.395531e-01 8.345938e-01 1.377157e+00 1.055925e+00 1.977432e+00 6.439180e-01 1.737579e+00 6.769451e-01 1.095850e+00 5.360008e-01 7.140155e-01 7.930194e-01 1.836298e-01
<GCONST> 7.028817e+01
~s "ST_ll_3_1"
<MEAN> 25
 -7.296501e-01 -5.621438e+00 9.295993e+00 -1.594098e+00 -2.147936e+00 4.684871e+00 -8.879346e-01 -1.120416e+01 -8.994812e+00 -2.490416e+00 3.375061e+00 -5.534081e+00 -4.231368e+00 -1.122196e+00 4.552183e+00 -2.674761e+00 -2.664421e+00 1.843217e+00 2.729957e+00 -6.437019e-01 1.721112e-01 3.807541e-01 2.248716e+00 -5.170081e-01 1.290350e-01
<VARIANCE> 25
 1.913409e+01 4.913117e+00 2.076223e+01 1.455626e+01 1.233038e+01 7.415583e+00 1.442677e+01 8.588869e+00 1.123189e+01 8.816585e+00 1.482923e+01 1.192034e+01 2.630108e-01 7.165710e-01 1.281274e+00 8.983655e-01 1.071392e+00 1.373647e+00 1.400868e+00 1.758395e+00 1.088962e+00 9.110126e-01 9.863474e-01 1.308015e+00 9.682372e-02
<GCONST> 7.297859e+01
~s "ST_ll_4_1"
<MEAN> 25
 -1.004691e+01 -6.026597e+00 1.692574e+01 -8.781593e+00 -3.688334e+00 8.101641e+00 1.557690e+00 -7.614685e+00 -4.947239e+00 -2.796688e+00 7.274567e+00 -5.484527e+00 -1.408816e+00 1.197916e-01 8.902488e-01 -1.056166e+00 1.816829e-01 8.366329e-01 3.794185e-01 1.308875e+00 1.287870e+00 1.428736e-01 4.952895e-01 1.083404e-01 -4.009026e-01
<VARIANCE> 25
 4.265314e+00 5.026264e+00 7.132988e+00 9.277038e+00 1.237599e+01 1.030207e+01 9.051281e+00 1.157654e+01 1.076303e+01 8.506193e+00 1.203620e+01 9.538557e+00 7.893044e-01 3.338463e-01 1.049981e+00 1.623548e+00 5.782918e-01 7.557878e-01 6.575367e-01 6.594273e-01 8.095329e-01 8.287279e-01 8.306269e-01 6.809344e-01 5.486282e-02
<GCONST> 6.562900e+01
~s "ST_r_2_1"
<MEAN> 25
 5.946705e+00 1.334007e+00 -6.812791e+00 -3.713644e+00 -9.152197e-01 -2.922792e+00 -6.050522e+00 -4.100431e+00 8.941327e-01 1.997607e+00 -4.351933e+00 -4.599697e+00 8.561918e-01 3.678770e-01 -1.146322e+00 -1.717708e-02 7.277288e-01 1.496349e-01 -8.441153e-01 -2.268866e-01 6.021425e-01 2.414030e-01 -7.860419e-01 -5.898210e-01 8.480439e-02
<VARIANCE> 25
 8.508063e+00 6.162694e+00 8.894111e+00 1.071998e+01 5.696311e+00 4.181928e+00 8.366459e+00 4.317431e+00 6.108461e+00 7.397914e+00 9.829636e+00 8.757273e+00 1.237577e+00 1.491014e+00 9.599960e-01 2.800137e+00 2.389636e+00 3.945648e-01 1.915386e+00 9.748659e-01 9.355466e-01 1.566284e+00 2.026577e+00 1.058455e+00 2.009573e-01
<GCONST> 7.119527e+01
~s "ST_r_3_1"
<MEAN> 25
 4.360507e+00 4.490120e-01 -5.317419e+00 -1.032563e+00 1.791882e+00 -1.274164e+00 -5.330435e+00 -3.373591e+00 5.686362e-01 2.077965e+00 -3.767984e+00 -4.221808e+00 -4.121828e-02 3.500224e-01 -1.549860e-01 3.399747e-01 5.739993e-01 5.645360e-02 2.535475e-01 6.499716e-01 5.820625e-01 -1.468256e-01 -5.322163e-01 1.417265e-01 -2.719880e-01
<VARIANCE> 25
 8.059974e+00 9.196854e+00 9.700935e+00 2.504701e+01 1.332197e+01 1.844075e+00 8.465790e+00 4.571986e+00 9.237259e+00 7.300215e+00 1.556259e+01 1.381254e+01 1.889898e+00 8.971384e-01 1.026876e+00 1.059731e+00 1.494891e+00 6.360324e-01 2.715674e+00 9.408921e-01 8.884147e-01 8.099588e-01 3.373202e+00 1.285521e+00 4.430180e-01
<GCONST> 7.400861e+01
~s "ST_r_4_1"
<MEAN> 25
 4.803598e+00 1.581600e+00 -6.505445e+00 -2.519651e+00 3.665136e-01 -2.496955e+00 -4.213087e+00 -1.835820e+00 2.350046e+00 2.324421e+00 -4.469879e+00 -3.538310e+00 -2.312571e-01 4.725683e-01 2.327795e-01 -1.930002e-01 -3.663109e-01 8.106551e-02 8.194729e-01 6.970146e-01 -2.843216e-03 -5.387325e-01 -1.794927e-01 6.638318e-01 -2.893244e-01
<VARIANCE> 25
 5.656558e+00 5.634167e+00 6.813323e+00 1.414258e+01 6.267507e+00 4.535939e+00 1.336104e+01 5.729483e+00 4.817118e+00 1.344909e+01 2.756854e+01 1.401801e+01 1.471927e+00 4.967104e-01 8.771666e-01 7.520772e-01 1.023870e+00 4.490207e-01 2.013475e+00 4.597923e-01 8.453460e-01 9.064929e-01 2.523758e+00 1.784006e+00 3.529283e-01
<GCONST> 7.040371e+01
~s "ST_h_2_1"
<MEAN> 25
 2.369040e-01 4.241893e+00 -1.058359e+00 -1.893181e+00 -2.080337e+00 -1.166578e+00 1.712478e+00 3.051682e+00 2.762624e+00 2.376098e+00 -6.975452e-01 -1.956668e-01 1.991821e+00 1.954345e+00 1.116063e+00 1.051684e-01 -1.348905e+00 -2.586681e+00 -2.349349e+00 -1.402217e+00 -4.924984e-01 -5.055424e-01 -1.122781e+00 -1.581213e+00 9.160322e-01
<VARIANCE> 25
 1.088736e+01 1.248274e+01 8.295750e+00 6.316435e+00 8.014490e+00 2.041007e+01 1.702649e+01 8.850043e+00 6.409789e+00 5.412920e+00 8.097351e+00 1.110031e+01 3.221649e-01 2.563089e-01 5.044227e-01 9.010092e-01 1.075510e+00 1.021950e+00 9.435727e-01 1.172167e+00 1.031489e+00 6.269417e-01 8.808462e-01 1.004747e+00 1.557790e-01
<GCONST> 6.747066e+01
~s "ST_h_3_1"
<MEAN> 25
 8.103913e+00 7.719064e+00 -2.458785e+00 -5.050971e+00 -9.299029e+00 -1.122460e+01 -6.016399e+00 2.147129e+00 6.115860e+00 2.101448e+00 -5.795801e+00 -6.139563e+00 1.146070e+00 -5.027941e-01 -1.479532e+00 -1.067631e+00 -7.308879e-01 -8.469690e-01 -6.211993e-01 4.583988e-01 1.381488e+00 -3.973582e-02 -9.960018e-01 -4.695910e-01 8.958888e-01
<VARIANCE> 25
 4.460186e+00 2.612886e+00 7.562251e+00 4.473454e+00 3.237324e+00 5.868816e+00 5.966184e+00 7.001622e+00 1.239516e+01 5.289630e+00 8.490869e+00 6.162424e+00 4.734694e-01 4.912724e-01 6.457869e-01 3.876441e-01 8.364395e-01 2.330888e+00 1.195961e+00 6.360857e-01 7.978157e-01 3.925243e-01 1.041275e+00 7.487823e-01 1.785001e-01
<GCONST> 6.115882e+01
~s "ST_h_4_1"
<MEAN> 25
 1.085026e+01 2.358734e+00 -1.003923e+01 -8.417149e+00 -6.552874e+00 -7.796296e+00 -5.721169e+00 1.029720e+00 7.157497e+00 1.026485e+00 -6.456280e+00 -3.610461e+00 1.360599e-01 -1.459482e+00 -9.395726e-01 3.063645e-01 1.871143e+00 1.690454e+00 -3.718009e-01 -1.208994e+00 -1.580936e+00 -5.634970e-01 1.000942e+00 1.440213e+00 4.741544e-01
<VARIANCE> 25
 3.521331e+00 7.242557e+00 5.819860e+00 7.425660e+00 1.211426e+01 2.140231e+01 1.105977e+01 1.074604e+01 8.029819e+00 8.764759e+00 1.108350e+01 9.139036e+00 1.105781e-01 1.729819e-01 7.131808e-01 1.054167e+00 5.814767e-01 1.057273e+00 1.052829e+00 4.925669e-01 1.151176e+00 1.213401e+00 9.943613e-01 3.183920e-01 5.248345e-02
<GCONST> 6.301143e+01
~s "ST_mm_2_1"
<MEAN> 25
 7.481478e+00 -6.288786e-02 -5.918752e+00 3.677635e+00 7.551674e+00 -3.026025e+00 -7.364185e+00 -5.908859e-01 1.806989e+00 -2.398881e-01 -1.697151e+00 1.858897e-02 4.188668e-01 -1.247556e+00 -1.400204e+00 -9.124874e-01 -5.901734e-01 -1.220235e+00 -1.090438e+00 5.310951e-01 7.630350e-01 6.521003e-01 1.620890e+00 1.436903e+00 6.835202e-01
<VARIANCE> 25
 3.078863e+00 8.280902e+00 5.052879e+00 6.379185e+00 4.290413e+00 9.445083e+00 1.177252e+01 5.938137e+00 7.422754e+00 6.223330e+00 8.619992e+00 8.604557e+00 1.180778e-01 5.720417e-01 6.902390e-01 4.148861e-01 4.836659e-01 5.535256e-01 1.238238e+00 6.073465e-01 1.293008e+00 8.948156e-01 6.135671e-01 1.283155e+00 1.518254e-01
<GCONST> 6.122016e+01
~s "ST_mm_3_1"
<MEAN> 25
 7.991855e+00 5.840689e-03 -6.942766e+00 -4.271245e-01 3.359884e+00 -3.410910e+00 -5.618344e+00 1.367107e-01 1.160679e+00 5.213738e-02 4.431888e-01 1.314221e+00 -4.117369e-01 7.770926e-01 2.382294e-01 -1.238194e+00 -1.384182e+00 7.458897e-01 1.391873e+00 3.008891e-02 -2.626685e-01 4.341107e-01 3.133283e-01 2.672554e-01 -5.811184e-01
<VARIANCE> 25
 3.176999e+00 8.018466e+00 7.743997e+00 6.408994e+00 8.061361e+00 6.933570e+00 1.102558e+01 8.570870e+00 1.339509e+01 8.189901e+00 4.936904e+00 8.784087e+00 4.303632e-01 5.937038e-01 5.744249e-01 5.691037e-01 3.722750e-01 5.894597e-01 9.611370e-01 6.518345e-01 9.425627e-01 5.607328e-01 6.449445e-01 1.148642e+00 3.276259e-01
<GCONST> 6.360835e+01
~s "ST_mm_4_1"
<MEAN> 25
 3.574004e+00 2.705363e+00 -4.743964e+00 -3.059149e+00 -3.118005e-01 6.926036e-01 1.004231e+00 4.583380e-01 2.143517e-01 1.821242e+00 1.916205e+00 2.891543e+00 -1.330342e+00 1.283936e-01 7.362940e-01 -3.422365e-02 -3.953456e-01 6.842186e-01 1.127984e+00 1.742692e-01 -3.807922e-01 -2.891706e-02 4.068931e-01 4.600798e-01 -9.416287e-01
<VARIANCE> 25
 5.394274e+00 4.920002e+00 3.610607e+00 5.125570e+00 5.235903e+00 3.477247e+00 8.626651e+00 9.754848e+00 7.600423e+00 7.083165e+00 9.810748e+00 1.154716e+01 1.714361e-01 4.679985e-01 4.663039e-01 4.546078e-01 5.100687e-01 4.939123e-01 7.224223e-01 7.510473e-01 5.873203e-01 4.416275e-01 5.527927e-01 6.596234e-01 1.072216e-01
<GCONST> 5.753864e+01
~s "ST_a_2_1"
<MEAN> 25
 3.836420e+00 1.636969e+00 -2.730756e+00 1.001230e-01 8.551093e-01 -5.185483e-01 -1.890447e+00 -1.559424e+00 -1.171518e+00 -1.789977e+00 -3.109128e+00 -2.274927e-01 4.383176e-01 9.399536e-01 2.937799e-02 7.523954e-02 1.513231e-01 2.425620e-01 6.628994e-01 2.290242e-01 -3.768539e-01 -6.072394e-01 -8.116806e-01 -4.401164e-01 -9.583068e-02
<VARIANCE> 25
 1.488246e+01 8.831021e+00 1.277665e+01 1.277004e+01 1.181365e+01 1.195886e+01 2.998135e+01 1.630196e+01 1.406765e+01 2.485215e+01 2.995613e+01 1.729808e+01 2.096283e+00 9.693707e-01 2.038600e+00 1.200092e+00 1.215804e+00 1.699732e+00 2.457508e+00 8.646282e-01 1.040000e+00 1.793220e+00 3.577819e+00 2.163302e+00 5.196440e-01
<GCONST> 8.426814e+01
~s "ST_a_2_2"
<MEAN> 25
 8.405848e+00 3.462961e+00 -5.073705e+00 -3.381617e+00 -4.060249e+00 -6.642451e+00 -4.475090e+00 -9.704158e-01 -2.197070e-01 -3.490160e+00 -6.853312e+00 -3.262345e+00 -5.059078e-01 5.833253e-01 4.385473e-01 -1.912071e-01 1.687857e-01 1.191715e+00 1.241969e+00 2.230962e-01 -4.959166e-01 7.969195e-02 5.038701e-01 6.148095e-02 -5.437914e-01
<VARIANCE> 25
 3.134729e+00 7.847838e+00 8.930864e+00 8.553260e+00 8.019177e+00 1.956963e+01 1.111330e+01 1.332885e+01 2.492555e+01 1.834125e+01 1.457888e+01 1.614245e+01 4.636629e-01 3.347450e-01 8.678019e-01 4.884373e-01 6.047451e-01 1.280495e+00 8.975964e-01 9.348726e-01 1.342027e+00 7.507948e-01 1.167206e+00 9.140439e-01 2.321324e-01
<GCONST> 7.058494e+01
~s "ST_a_3_1"
<MEAN> 25
 2.472443e+00 2.823482e+00 -2.856690e+00 -3.995753e-01 1.582604e+00 1.233611e+00 7.950131e-01 -4.820381e-01 -7.703375e-01 5.147900e-01 -8.451815e-01 7.290165e-01 -5.035738e-01 3.686246e-01 9.296353e-01 2.811729e-01 -5.482867e-03 7.354209e-01 9.934669e-01 2.311960e-01 -2.871925e-01 -3.194077e-02 -4.216090e-02 -3.672294e-01 -3.752688e-01
<VARIANCE> 25
 1.115394e+01 6.950819e+00 1.259129e+01 1.703322e+01 1.482637e+01 1.097811e+01 2.022760e+01 1.257471e+01 1.348084e+01 1.366164e+01 1.863295e+01 1.948884e+01 1.191505e+00 9.919617e-01 9.574313e-01 7.590495e-01 1.184099e+00 9.591874e-01 1.300600e+00 1.074169e+00 1.392581e+00 1.088030e+00 2.774936e+00 2.525959e+00 4.471623e-01
<GCONST> 7.927502e+01
~s "ST_a_3_2"
<MEAN> 25
 3.696472e+00 5.319592e+00 -8.512233e-01 -1.378737e+00 -1.235548e+00 -4.599520e-02 9.574324e-01 -6.631610e-01 -2.519045e+00 -3.179204e+00 -4.777327e+00 -1.729631e+00 -1.033196e+00 2.782707e-01 6.809415e-01 6.387140e-01 7.407513e-01 9.492772e-01 9.689655e-01 2.378511e-01 -1.168180e-01 3.970514e-01 6.396168e-01 4.440815e-01 -7.860250e-01
<VARIANCE> 25
 4.933185e+00 4.003375e+00 7.381632e+00 1.059047e+01 1.044934e+01 1.023265e+01 7.196928e+00 8.573433e+00 1.165751e+01 1.193175e+01 1.437149e+01 1.252610e+01 1.645988e-01 4.658866e-01 4.984703e-01 4.805458e-01 5.117751e-01 6.023751e-01 8.623975e-01 7.254190e-01 1.036839e+00 7.619001e-01 8.645905e-01 7.683167e-01 8.766212e-02
<GCONST> 6.348969e+01
~s "ST_a_4_1"
<MEAN> 25
 1.344872e+00 3.750102e+00 -5.024043e-01 5.681162e-01 1.051298e+00 1.774757e+00 2.414982e+00 4.054787e-01 -1.148149e+00 -7.132767e-01 -2.173099e+00 -6.807656e-01 -5.066246e-01 -1.190769e-01 8.494434e-01 2.645730e-01 3.309686e-02 3.276540e-01 4.169100e-01 2.551782e-01 1.623509e-03 1.150715e-01 3.419406e-01 -3.497280e-01 -8.956706e-02
<VARIANCE> 25
 7.663344e+00 6.883272e+00 8.897717e+00 1.436743e+01 1.364200e+01 8.697504e+00 1.475650e+01 1.441448e+01 1.241549e+01 1.170762e+01 1.368024e+01 1.842189e+01 1.550347e+00 9.906796e-01 2.122983e+00 9.265872e-01 1.546457e+00 1.159834e+00 1.922487e+00 1.018984e+00 1.759299e+00 1.088984e+00 2.685637e+00 1.688478e+00 3.023278e-01
<GCONST> 7.873602e+01
~s "ST_rr_2_1"
<MEAN> 25
 4.499392e+00 -6.060007e-01 -5.983585e-01 7.105223e+00 8.160594e+00 2.679483e-02 -8.560805e+00 -7.199393e+00 -4.565276e+00 -3.866191e+00 -4.255487e+00 -4.542410e+00 4.034499e-01 -8.114586e-01 -3.762611e-01 1.179119e+00 1.465478e+00 -5.390763e-01 -2.009146e+00 -6.079828e-01 2.742282e-01 -3.530073e-01 -3.589759e-01 -3.498169e-01 4.795389e-01
<VARIANCE> 25
 4.827818e+00 8.988908e+00 7.275001e+00 1.205808e+01 1.944393e+01 1.030898e+01 3.082107e+01 1.361331e+01 1.108290e+01 9.101709e+00 8.027574e+00 9.176126e+00 7.549853e-01 1.024220e+00 7.456799e-01 1.037761e+00 8.827953e-01 1.502902e+00 2.675394e+00 2.551256e+00 1.468169e+00 1.480415e+00 1.024585e+00 8.661366e-01 2.864526e-01
<GCONST> 7.554126e+01
~s "ST_rr_3_1"
<MEAN> 25
 6.350430e+00 -2.735470e+00 -6.848434e-01 1.090690e+01 1.099043e+01 -5.029410e+00 -1.602596e+01 -5.511198e+00 -2.591241e-01 -4.769341e+00 -5.105037e+00 -5.184915e+00 6.053419e-02 3.079952e-01 1.295489e-01 -2.750848e-01 -5.430299e-01 2.644555e-02 7.639686e-01 3.989284e-01 2.997831e-01 4.734153e-01 2.325097e-01 3.273718e-01 -6.614805e-02
<VARIANCE> 25
 4.040436e+00 7.320776e+00 8.182848e+00 4.955465e+00 7.435630e+00 8.452169e+00 1.648834e+01 1.416931e+01 1.748042e+01 1.634937e+01 1.034319e+01 7.014789e+00 1.415536e-01 9.093795e-01 6.004872e-01 5.596206e-01 4.568292e-01 1.002538e+00 1.739407e+00 9.068314e-01 1.345840e+00 1.011093e+00 6.896224e-01 6.149722e-01 1.898945e-01
<GCONST> 6.689380e+01
~s "ST_rr_4_1"
<MEAN> 25
 1.276301e+00 -2.070829e+00 6.083705e+00 4.475902e+00 3.602779e+00 2.188787e+00 -3.605449e+00 -7.178897e+00 -5.588233e+00 -3.041859e+00 -2.608788e-02 -4.685382e+00 -1.991133e+00 -1.086498e-01 2.270123e+00 -1.807453e+00 -1.802371e+00 1.266606e+00 3.094385e+00 4.516194e-01 -6.775881e-01 5.820983e-01 1.914721e+00 -5.462315e-01 -1.662088e-01
<VARIANCE> 25
 2.979201e+01 9.757195e+00 4.928513e+01 2.341957e+01 2.990046e+01 1.645337e+01 3.846015e+01 1.374264e+01 2.328900e+01 9.885344e+00 2.679319e+01 7.640595e+00 2.081685e+00 1.796733e+00 2.602959e+00 1.005108e+00 1.826962e+00 1.380324e+00 1.238798e+00 9.577656e-01 1.320262e+00 6.756666e-01 2.617784e+00 7.371772e-01 2.077567e-01
<GCONST> 8.424819e+01
~s "ST_n_2_1"
<MEAN> 25
 5.499337e+00 4.971486e+00 -5.128593e-01 4.603703e+00 7.689054e+00 4.398015e+00 -1.107506e+00 -2.551678e+00 -7.813157e-01 -1.893878e+00 -7.311553e+00 -7.311182e+00 1.936840e-01 -9.517325e-02 -2.562927e-01 -2.108303e-02 -4.947390e-03 -5.640808e-02 1.116259e-01 3.293604e-01 3.830444e-01 2.475521e-02 -5.032867e-01 -6.623315e-01 1.382298e-01
<VARIANCE> 25
 2.345901e+00 3.531267e+00 8.900023e+00 1.044753e+01 9.672679e+00 4.313312e+00 9.474779e+00 1.335244e+01 1.027914e+01 9.131456e+00 1.129163e+01 9.918618e+00 1.984544e-01 3.512027e-01 3.470918e-01 8.578220e-01 1.146355e+00 5.909185e-01 5.725886e-01 6.312560e-01 8.545542e-01 6.797117e-01 9.660905e-01 6.896911e-01 1.185016e-01
<GCONST> 6.206100e+01
~s "ST_n_3_1"
<MEAN> 25
 6.546106e+00 4.197318e+00 -1.130850e+00 2.052056e+00 3.364733e+00 5.795349e-01 -6.517414e-01 -2.919795e-01 6.108232e-01 -7.338095e-01 -5.792899e+00 -7.330596e+00 5.602349e-01 -1.760815e-01 -5.549772e-01 -1.917041e+00 -2.649553e+00 -2.026062e+00 7.501170e-03 1.440881e+00 1.124110e+00 7.407888e-01 1.279122e+00 8.752852e-01 5.588130e-01
<VARIANCE> 25
 3.066301e+00 3.522751e+00 7.474201e+00 1.113374e+01 1.603486e+01 2.103637e+01 8.667129e+00 1.156127e+01 8.710521e+00 1.335878e+01 1.276262e+01 1.076885e+01 1.256737e-01 2.647647e-01 3.881710e-01 8.148758e-01 9.884118e-01 1.467059e+00 7.833376e-01 8.690981e-01 9.139937e-01 9.197873e-01 1.170268e+00 1.262097e+00 9.042393e-02
<GCONST> 6.610249e+01
~s "ST_n_4_1"
<MEAN> 25
 8.013259e+00 4.487825e+00 -5.021382e+00 -4.308663e+00 -1.714388e+00 -1.311335e+00 4.529297e-01 2.612216e+00 3.659865e+00 2.186359e+00 -2.530179e+00 -3.318876e+00 3.174683e-01 2.227349e-02 -5.785928e-01 -1.154955e+00 -1.601822e+00 -1.085152e+00 1.898752e-02 1.002393e+00 9.854010e-01 4.380603e-01 2.803305e-01 8.623884e-01 1.175593e-01
<VARIANCE> 25
 2.204840e+00 2.917384e+00 7.133624e+00 6.054064e+00 8.955167e+00 1.440967e+01 8.728071e+00 7.913320e+00 7.351248e+00 8.494793e+00 6.817538e+00 7.856152e+00 9.354209e-02 2.548813e-01 2.571306e-01 9.698404e-01 9.559056e-01 7.602113e-01 7.378511e-01 7.175890e-01 8.998190e-01 8.196663e-01 6.376954e-01 9.347380e-01 8.333071e-02
<GCONST> 5.939718e+01
~s "ST_d_2_1"
<MEAN> 25
 3.753946e+00 4.628282e+00 -3.939036e-02 1.100805e+00 1.601155e+00 9.375531e-01 -6.289534e-02 -1.618762e+00 -3.175089e+00 -4.121567e+00 -5.364639e+00 -3.026041e+00 -3.908198e-01 5.923388e-01 9.408444e-01 9.349968e-01 9.376503e-01 8.930389e-01 8.353575e-01 -1.484614e-01 -9.873221e-01 -2.753145e-01 3.209062e-01 -1.978531e-01 -3.759643e-01
<VARIANCE> 25
 1.332588e+01 1.129743e+01 1.478842e+01 2.052854e+01 1.920699e+01 1.441116e+01 1.477517e+01 1.301102e+01 9.684419e+00 1.733977e+01 2.492463e+01 2.563002e+01 1.441001e+00 8.453938e-01 5.390211e-01 7.983494e-01 6.305135e-01 1.390446e+00 2.511450e+00 1.356061e+00 9.694794e-01 1.469084e+00 3.396311e+00 2.960106e+00 4.754004e-01
<GCONST> 8.150801e+01
~s "ST_d_3_1"
<MEAN> 25
 2.965074e+00 4.988450e+00 -4.201829e-01 1.074494e-01 1.125416e+00 1.478191e+00 2.302275e+00 -3.594933e-01 -3.838482e+00 -3.873279e+00 -3.991275e+00 -1.793555e+00 -9.866125e-01 -1.166188e-01 6.757793e-01 5.301509e-01 1.919890e-01 6.727947e-01 9.836409e-01 1.338499e-01 -3.765695e-03 7.580632e-01 7.614540e-01 3.853162e-01 -6.317604e-01
<VARIANCE> 25
 5.406759e+00 6.602046e+00 7.686135e+00 1.209616e+01 1.227719e+01 8.752321e+00 7.761914e+00 1.105778e+01 1.114103e+01 9.236171e+00 1.722242e+01 1.309836e+01 2.494914e-01 9.284713e-01 6.064209e-01 1.011990e+00 6.661872e-01 7.880456e-01 9.103530e-01 1.212970e+00 8.323333e-01 7.476901e-01 8.595061e-01 1.272877e+00 2.795129e-01
<GCONST> 6.908099e+01
~s "ST_d_4_1"
<MEAN> 25
 8.358169e-01 4.118514e+00 2.261172e+00 3.035424e+00 2.032511e+00 2.585017e+00 3.243541e+00 -9.033976e-01 -3.222131e+00 -2.267421e+00 -3.299574e+00 -1.725830e+00 1.667161e-01 -3.844140e-01 3.603019e-01 6.793119e-01 1.810447e-01 -4.596108e-01 -8.528042e-01 -4.829110e-01 1.279761e-01 -1.078227e-02 -2.861429e-01 -3.718548e-01 3.338852e-01
<VARIANCE> 25
 4.981639e+00 7.063349e+00 7.746049e+00 1.074401e+01 1.379978e+01 8.277319e+00 8.338665e+00 8.388250e+00 1.027243e+01 9.633142e+00 1.049304e+01 1.014355e+01 6.029437e-01 1.175548e+00 6.858815e-01 1.948673e+00 1.756634e+00 1.364287e+00 2.056366e+00 1.392846e+00 1.625787e+00 1.483669e+00 1.373396e+00 1.740789e+00 4.417450e-01
<GCONST> 7.498460e+01
~s "ST_ay_2_1"
<MEAN> 25
 7.538175e+00 7.617233e+00 7.101231e-01 -2.108091e+00 -8.379412e+00 -1.164238e+01 -5.611112e+00 3.600776e+00 6.590118e+00 2.143131e+00 -2.356417e+00 -3.411430e+00 -1.691341e-01 7.155234e-02 4.845735e-02 -9.606560e-02 -1.078280e-01 3.000586e-02 2.890463e-01 2.453471e-01 -3.452099e-01 -8.712975e-01 -8.573611e-01 -7.779208e-01 -1.461776e-01
<VARIANCE> 25
 3.012855e+00 1.618707e+00 1.939799e+00 5.351457e+00 4.766442e+00 1.768769e+01 1.707183e+01 5.145000e+00 7.590920e+00 1.031715e+01 9.364361e+00 6.145108e+00 1.159309e-01 2.410896e-01 3.091203e-01 3.208507e-01 6.916450e-01 7.698423e-01 5.612459e-01 3.730814e-01 5.018376e-01 9.428512e-01 1.276001e+00 5.139537e-01 7.513297e-02
<GCONST> 5.535397e+01
~s "ST_ii_2_1"
<MEAN> 25
 5.526803e+00 6.013021e+00 5.728274e-01 1.191766e+00 -5.153788e-01 -4.290119e+00 -3.541600e+00 -8.284923e-01 -1.253378e+00 -3.438841e+00 -6.534873e+00 -5.204347e+00 1.446604e+00 -1.494570e+00 -1.747963e+00 4.410934e-02 7.588613e-01 -1.683510e+00 -2.583640e+00 -7.672005e-01 -8.392320e-01 -1.043360e+00 -2.357059e-01 5.136279e-01 1.407593e+00
<VARIANCE> 25
 1.458711e+01 9.517371e+00 6.311410e+00 4.729526e+00 8.919678e+00 2.222029e+01 1.408254e+01 9.188035e+00 1.185460e+01 6.551491e+00 1.459146e+01 1.642627e+01 1.017229e+00 1.083949e+00 1.063411e+00 9.507492e-01 1.248292e+00 1.617328e+00 2.700321e+00 1.256145e+00 1.522406e+00 1.333609e+00 6.307136e-01 1.218274e+00 8.819255e-01
<GCONST> 7.661190e+01
~s "ST_ay_3_1"
<MEAN> 25
 8.365405e+00 6.042025e+00 -5.457853e-01 -1.643044e+00 -7.680352e+00 -1.187542e+01 -6.495612e+00 3.903885e+00 5.860509e+00 -4.481346e+00 -9.726476e+00 -6.114364e+00 9.887467e-02 -1.365578e+00 -7.977346e-01 2.084445e-01 1.420817e+00 1.676103e+00 3.521287e-02 -5.470541e-01 -1.006940e+00 -1.755207e+00 -1.144058e+00 5.217195e-01 4.667445e-01
<VARIANCE> 25
 5.574984e+00 3.981668e+00 1.785729e+00 2.792288e+00 6.197649e+00 2.103868e+01 1.448743e+01 4.151507e+00 8.369313e+00 1.043782e+01 9.151761e+00 2.161858e+01 1.627165e-01 9.953759e-01 2.488923e-01 5.800409e-01 1.499252e+00 1.223490e+00 1.207566e+00 8.984762e-01 1.461668e+00 1.101540e+00 1.362858e+00 1.318921e+00 1.388920e-01
<GCONST> 6.539950e+01
~s "ST_ii_3_1"
<MEAN> 25
 7.619483e+00 2.948782e+00 -2.680413e+00 2.015752e+00 2.394766e+00 -5.985590e+00 -6.842337e+00 -1.625180e+00 -2.946408e+00 -4.732701e+00 -5.983061e+00 -3.402818e+00 8.394344e-01 -2.236829e+00 -1.498155e+00 6.622782e-01 1.928167e+00 2.748717e-02 -1.857521e+00 -1.225594e+00 -1.374364e+00 -5.312780e-01 1.015543e+00 9.726521e-01 1.254717e+00
<VARIANCE> 25
 2.135493e+01 8.243088e+00 1.062226e+01 8.057174e+00 9.275637e+00 2.689072e+01 2.729718e+01 1.086582e+01 9.191575e+00 1.471587e+01 1.662272e+01 1.354054e+01 6.700039e-01 1.466737e+00 8.302691e-01 1.036030e+00 1.559908e+00 1.185060e+00 2.160655e+00 1.408178e+00 1.984523e+00 1.198450e+00 6.604007e-01 1.251398e+00 7.155768e-01
<GCONST> 7.900253e+01
~s "ST_ay_4_1"
<MEAN> 25
 7.777455e+00 8.450593e-01 -2.572229e+00 -8.494382e-01 -2.277868e+00 -3.604179e+00 -5.045070e+00 6.345905e-01 4.786792e-01 -7.604607e+00 -8.699940e+00 -9.608109e-01 -1.463914e+00 -1.968974e+00 1.111179e+00 2.436577e-01 3.599458e-01 2.966630e+00 2.383253e+00 -9.372145e-01 -2.533774e+00 6.512740e-02 2.525931e+00 9.214982e-01 7.083917e-02
<VARIANCE> 25
 5.973405e+00 1.628160e+01 4.224262e+00 5.934731e+00 1.470603e+01 2.165418e+01 1.962219e+01 1.092555e+01 7.926987e+00 2.488497e+01 7.008478e+00 2.098845e+01 7.056860e-01 6.669090e-01 1.600515e+00 4.152294e-01 1.564644e+00 1.160236e+00 1.797203e+00 1.059513e+00 6.172256e-01 1.697327e+00 1.538916e+00 2.650047e+00 1.111779e-01
<GCONST> 7.448640e+01
~s "ST_ii_4_1"
<MEAN> 25
 7.134108e+00 -4.452591e-01 -3.477929e+00 4.130481e+00 6.004348e+00 -3.706355e+00 -7.540603e+00 -4.659182e+00 -6.981991e+00 -5.261313e+00 -3.235666e+00 -2.444602e+00 -3.907584e-01 -1.654817e+00 1.509632e-02 1.521669e-01 7.742722e-01 1.422530e+00 -4.609085e-02 -1.061505e+00 -9.565271e-01 4.062570e-01 1.547349e+00 5.879444e-01 4.531344e-01
<VARIANCE> 25
 2.226103e+01 1.113096e+01 7.819627e+00 1.416864e+01 1.061800e+01 1.852522e+01 3.392313e+01 1.796402e+01 2.203346e+01 1.419467e+01 1.485539e+01 2.313169e+01 5.046085e-01 2.773074e+00 1.020776e+00 1.359984e+00 1.592802e+00 1.491590e+00 2.026497e+00 2.129458e+00 2.375688e+00 1.021111e+00 1.658648e+00 1.471452e+00 7.765589e-01
<GCONST> 8.396339e+01
~s "ST_g_2_1"
<MEAN> 25
 -1.717803e+00 -2.818038e+00 3.718283e+00 4.472239e+00 4.388965e-01 -5.247638e-01 -8.308719e-01 4.930181e-01 -1.421857e+00 -2.362931e+00 2.095104e+00 -5.117929e-01 2.085997e+00 1.939895e+00 -1.141923e+00 1.217379e+00 2.417036e+00 -1.460499e-01 -2.341437e+00 -2.141973e+00 -1.072497e+00 -9.272895e-01 -2.851000e+00 -1.295224e+00 2.096740e-01
<VARIANCE> 25
 2.219326e+01 3.709993e+01 9.269505e+00 1.620522e+01 2.599423e+01 5.973665e+00 3.505937e+01 2.487201e+01 1.157071e+01 1.442724e+01 5.535353e+01 2.329714e+01 1.803113e+00 1.453256e+00 9.291410e-01 1.238836e+00 1.624622e+00 6.967610e-01 2.805475e+00 1.842019e+00 1.025857e+00 1.550367e+00 3.813571e+00 1.687471e+00 2.496354e-01
<GCONST> 8.557655e+01
~s "ST_g_3_1"
<MEAN> 25
 3.122983e+00 3.869457e+00 1.725619e-01 2.751329e+00 3.227859e+00 2.130906e-01 -2.168154e+00 -3.082137e+00 -3.851006e+00 -4.696744e+00 -4.987451e+00 -2.651820e+00 6.587371e-03 8.834693e-01 -1.074658e-02 -1.139198e+00 -1.206466e+00 -2.248573e-01 8.646896e-01 6.169021e-01 3.469019e-01 4.622490e-01 -2.989275e-02 1.425154e-01 -2.874159e-01
<VARIANCE> 25
 2.916794e+00 7.718228e+00 4.209916e+00 1.006331e+01 1.274375e+01 6.490073e+00 1.607395e+01 1.107794e+01 1.315070e+01 1.255474e+01 5.762418e+00 5.607336e+00 2.516649e-01 5.574405e-01 5.316873e-01 1.161827e+00 1.204445e+00 9.073538e-01 1.730052e+00 1.175233e+00 1.250392e+00 1.130189e+00 1.097535e+00 8.554769e-01 1.268227e-01
<GCONST> 6.755732e+01
~s "ST_g_4_1"
<MEAN> 25
 3.664597e+00 7.385415e+00 1.915291e+00 -5.625322e-01 -3.465622e+00 -4.928172e+00 -3.340950e+00 -1.588356e+00 -7.891053e-01 -8.531365e-01 -2.869968e+00 -1.730279e+00 7.191329e-01 4.174187e-01 9.201849e-02 -3.694574e-01 -1.329170e+00 -1.953248e+00 -1.529429e+00 -7.131347e-02 9.091866e-01 5.304630e-01 1.373419e-01 1.147800e-01 3.707780e-01
<VARIANCE> 25
 2.537507e+00 2.247951e+00 3.152513e+00 4.222310e+00 6.114509e+00 9.305045e+00 8.409772e+00 6.275075e+00 8.200251e+00 6.085227e+00 5.897661e+00 6.404390e+00 3.587030e-01 1.679920e-01 2.757786e-01 4.499840e-01 6.189365e-01 8.219203e-01 6.869153e-01 6.203468e-01 9.272076e-01 7.008290e-01 7.622389e-01 1.383394e+00 1.532892e-01
<GCONST> 5.714734e+01
~s "ST_nn_2_1"
<MEAN> 25
 3.465375e+00 1.008076e+00 -2.509464e+00 5.049187e+00 6.169896e+00 -1.738285e+00 -3.763056e+00 1.308121e+00 5.979815e-01 3.332846e-02 -1.301892e+00 -2.402204e+00 -9.670053e-03 -6.933249e-01 -7.870742e-01 3.764366e-02 8.817916e-02 -6.863354e-01 -9.338057e-01 3.799008e-01 1.244509e+00 7.713414e-01 6.442761e-01 1.162380e+00 6.954698e-02
<VARIANCE> 25
 2.659436e+00 6.597424e+00 4.778141e+00 9.131898e+00 1.589497e+01 1.422908e+01 1.282391e+01 8.512019e+00 1.037277e+01 1.555722e+01 8.943639e+00 2.710927e+01 2.065922e-01 9.311723e-01 5.145430e-01 5.813790e-01 6.770315e-01 1.198274e+00 9.177397e-01 1.103824e+00 7.467138e-01 9.466270e-01 1.723986e+00 2.503757e+00 2.058638e-01
<GCONST> 6.975976e+01
~s "ST_nn_3_1"
<MEAN> 25
 1.964839e+00 1.284380e+00 -2.979375e+00 2.923762e+00 5.668978e+00 1.561655e+00 -6.080261e-01 6.545842e-01 1.018198e+00 7.447937e-01 -6.186556e-01 8.635989e-01 1.450805e-02 3.490931e-01 5.959100e-01 1.143959e-01 -4.651284e-01 4.572174e-02 2.489122e-01 -2.861241e-01 2.633322e-01 8.015339e-01 5.008285e-02 -7.299135e-01 -9.269685e-02
<VARIANCE> 25
 4.853710e+00 4.621329e+00 5.208439e+00 7.066967e+00 9.782192e+00 1.272651e+01 1.600673e+01 5.508249e+00 4.745428e+00 8.729500e+00 8.544780e+00 1.677917e+01 3.632544e-01 5.288593e-01 1.089681e+00 1.579862e+00 1.151887e+00 1.270856e+00 2.527011e+00 8.208398e-01 9.960653e-01 7.851490e-01 1.140008e+00 2.291974e+00 2.903706e-01
<GCONST> 7.013819e+01
~s "ST_t_2_1"
<MEAN> 25
 -2.864215e+00 -1.303303e+00 -1.268973e+00 -1.857646e+00 -3.010668e+00 -8.612301e-01 3.499734e+00 1.648580e+00 6.924629e-01 2.290764e+00 3.481942e+00 3.704921e+00 3.684202e-01 -1.441912e-01 1.042222e+00 6.908148e-01 -9.991880e-02 -4.342593e-01 -5.760113e-01 -7.331294e-01 -5.612292e-01 -5.856938e-01 -5.597027e-01 -1.228286e+00 6.208099e-01
<VARIANCE> 25
 4.202408e+00 8.278210e+00 7.301122e+00 1.167587e+01 1.201842e+01 1.662286e+01 1.124536e+01 1.359558e+01 1.203883e+01 1.011420e+01 9.419501e+00 1.043663e+01 1.228027e+00 1.348108e+00 8.937402e-01 1.430421e+00 1.194975e+00 1.314933e+00 1.273243e+00 1.905687e+00 1.210399e+00 1.324280e+00 2.008966e+00 1.819907e+00 3.140792e-01
<GCONST> 7.635704e+01
~s "ST_nn_4_1"
<MEAN> 25
 4.292587e+00 3.136790e-01 -1.262010e+00 4.846219e+00 4.560223e+00 -2.575130e+00 -4.675098e+00 1.218444e+00 1.887627e+00 -8.126125e-04 -1.685816e+00 -2.371774e+00 5.526799e-01 -5.122394e-01 -5.997475e-01 2.365242e-02 -6.284645e-02 -9.663544e-01 -9.008795e-01 1.996069e-01 2.971013e-01 -1.075150e-01 5.459331e-01 7.406156e-01 4.705082e-01
<VARIANCE> 25
 2.171770e+00 1.688388e+01 1.893513e+01 7.229387e+00 6.868093e+00 2.178718e+01 1.543968e+01 8.121099e+00 8.356726e+00 1.471296e+01 1.910460e+01 2.637103e+01 2.056105e-01 7.686421e-01 2.275601e+00 1.319143e+00 7.886078e-01 2.392110e+00 1.564508e+00 8.769188e-01 4.987067e-01 8.286299e-01 1.541011e+00 3.846066e+00 3.600135e-01
<GCONST> 7.542101e+01
~s "ST_t_3_1"
<MEAN> 25
 -8.295572e-01 2.507459e-01 2.348558e+00 -1.448031e-01 -2.630470e+00 -9.725739e-01 1.148322e+00 -1.363512e+00 -2.268064e+00 -3.034993e-01 3.332591e-01 -8.975471e-01 2.744786e+00 1.292747e+00 -4.896239e-01 4.618638e-02 6.082761e-02 -1.054095e+00 -2.347146e+00 -1.252493e+00 -3.173992e-01 -1.461150e+00 -3.084908e+00 -1.884463e+00 1.290804e+00
<VARIANCE> 25
 9.413522e+00 1.375643e+01 4.125329e+00 1.297124e+01 1.411674e+01 7.407526e+00 1.122043e+01 1.101896e+01 1.094019e+01 1.317013e+01 1.414318e+01 9.276899e+00 1.357825e+00 1.052862e+00 1.677823e+00 1.426691e+00 1.230204e+00 1.239683e+00 1.737358e+00 2.180659e+00 1.758465e+00 1.199052e+00 2.373841e+00 1.379136e+00 4.973595e-01
<GCONST> 7.832259e+01
~s "ST_t_4_1"
<MEAN> 25
 5.976413e+00 2.063125e+00 -2.610970e+00 -8.895870e-01 -2.656039e+00 -4.944097e+00 -4.207223e+00 -2.374972e+00 -1.060263e+00 -2.712367e+00 -6.347192e+00 -2.700305e+00 2.075377e+00 4.286882e-01 -1.592011e+00 -2.386867e-01 2.552087e-01 -7.874615e-01 -1.527357e+00 -1.705198e-01 4.118675e-01 -8.044071e-01 -1.869378e+00 -6.577185e-01 8.676040e-01
<VARIANCE> 25
 1.246599e+01 1.116373e+01 9.926044e+00 1.044285e+01 1.207687e+01 2.525896e+01 8.358902e+00 1.418422e+01 1.199198e+01 1.710704e+01 2.222676e+01 1.243690e+01 1.637720e+00 1.188710e+00 1.897750e+00 1.714236e+00 1.262809e+00 1.448636e+00 1.613860e+00 1.164852e+00 1.509015e+00 1.301108e+00 2.637276e+00 1.238012e+00 4.613123e-01
<GCONST> 8.113055e+01
~s "ST_sil_2_1"
<MEAN> 25
 -4.034986e+00 -3.983158e-01 -2.950655e+00 -1.051922e+00 2.857491e-01 1.824695e+00 4.132102e+00 2.304408e+00 1.519001e+00 3.819561e+00 4.254753e+00 4.609257e+00 4.856290e-03 6.184863e-02 1.319171e-01 1.050842e-01 1.333008e-01 -3.964803e-02 -5.924160e-02 -1.012242e-01 -1.480612e-01 -3.628821e-01 -1.268557e-01 -1.818240e-01 4.926428e-02
<VARIANCE> 25
 3.501547e+00 4.754414e+00 5.093548e+00 6.861713e+00 7.600409e+00 9.403141e+00 7.939432e+00 7.735157e+00 8.288630e+00 9.019072e+00 1.098525e+01 9.053749e+00 2.167444e-01 3.307971e-01 5.174298e-01 6.023967e-01 7.242350e-01 8.920982e-01 8.470842e-01 8.773298e-01 9.845032e-01 1.026767e+00 1.263312e+00 1.027378e+00 1.676622e-01
<GCONST> 6.356504e+01
~s "silst"
<MEAN> 25
 -2.907449e+00 8.710860e-01 -2.657982e+00 -1.094362e+00 1.955855e-01 2.190029e+00 3.709697e+00 2.280874e+00 1.087268e+00 2.676871e+00 2.133725e+00 4.227539e+00 -1.071887e-01 -6.792475e-02 -9.450804e-02 -8.669204e-02 -4.621392e-02 6.057485e-03 4.542854e-02 8.529261e-02 1.178883e-01 1.489627e-01 1.089837e-01 1.431608e-01 -6.600107e-02
<VARIANCE> 25
 1.397855e+00 1.498567e+00 2.488350e+00 3.751219e+00 4.749692e+00 5.121223e+00 5.107158e+00 5.407183e+00 6.070086e+00 6.029488e+00 5.909725e+00 6.035439e+00 8.613320e-02 1.307953e-01 1.968950e-01 2.775348e-01 3.729323e-01 4.436686e-01 4.946338e-01 6.050991e-01 6.127979e-01 6.005945e-01 5.968445e-01 5.405353e-01 4.412755e-02
<GCONST> 4.695448e+01
~s "ST_ss_2_1"
<MEAN> 25
 2.256121e+00 4.999249e+00 2.852749e+00 3.845994e+00 2.750125e+00 1.844872e+00 1.999424e+00 6.240849e-01 -1.246133e+00 -9.649401e-01 -3.586756e+00 -5.191210e+00 6.843852e-01 3.227170e-01 6.145282e-01 -6.844189e-02 -6.408603e-01 -9.198737e-01 -7.604395e-01 -4.722283e-01 -6.176621e-01 -8.700364e-01 -4.733406e-01 -7.516053e-01 6.165300e-01
<VARIANCE> 25
 5.199411e+00 1.320040e+01 5.042340e+00 6.266780e+00 8.225156e+00 7.253852e+00 2.001760e+01 1.656857e+01 2.230516e+01 1.166427e+01 1.640713e+01 2.137769e+01 2.132611e+00 1.508152e+00 1.331244e+00 6.779862e-01 1.423585e+00 1.101693e+00 3.875564e+00 1.535928e+00 1.078901e+00 1.062094e+00 2.559198e+00 2.801412e+00 2.638476e-01
<GCONST> 7.901631e+01
~s "ST_sil_3_1"
<MEAN> 25
 -2.959878e+00 8.178613e-01 -2.664266e+00 -1.187589e+00 1.207538e-01 2.173389e+00 3.736343e+00 2.317456e+00 1.106749e+00 2.712734e+00 2.216142e+00 4.236905e+00 -1.000187e-01 -5.849142e-02 -9.243596e-02 -7.345977e-02 -3.173413e-02 1.084506e-02 3.997489e-02 6.467286e-02 1.038329e-01 1.386547e-01 9.343493e-02 1.370440e-01 -6.697508e-02
<VARIANCE> 25
 1.377372e+00 1.508218e+00 2.490893e+00 3.792745e+00 4.722635e+00 5.085297e+00 5.186509e+00 5.754925e+00 6.131831e+00 6.158074e+00 6.047515e+00 6.080053e+00 8.639288e-02 1.310689e-01 1.991936e-01 2.753272e-01 3.701567e-01 4.361219e-01 4.956587e-01 6.152108e-01 6.268111e-01 6.172225e-01 5.935022e-01 5.391039e-01 4.323646e-02
<GCONST> 4.710878e+01
~s "ST_ss_3_1"
<MEAN> 25
 2.363299e+00 4.657665e+00 3.448562e+00 3.238579e+00 1.667058e+00 1.002712e+00 1.464627e+00 -2.735766e-01 -2.581945e+00 -2.411410e+00 -3.336376e+00 -4.210720e+00 8.271689e-01 -2.245721e-02 1.152006e-01 -5.864629e-01 -9.456166e-01 -1.552038e+00 -1.481635e+00 -6.104881e-01 -4.551640e-01 -9.566935e-01 -4.468159e-01 -3.009688e-01 8.493040e-01
<VARIANCE> 25
 8.606583e+00 2.684784e+01 1.072856e+01 4.724169e+00 8.050457e+00 5.660659e+00 9.334286e+00 1.504809e+01 2.063133e+01 9.560243e+00 2.086269e+01 1.105534e+01 2.649238e+00 1.252657e+00 1.674942e+00 8.049715e-01 1.984689e+00 2.155751e+00 5.433657e+00 1.913995e+00 1.149621e+00 1.262520e+00 2.862503e+00 1.905926e+00 2.729834e-01
<GCONST> 8.086939e+01
~s "ST_sil_4_1"
<MEAN> 25
 -4.515795e+00 -4.679226e-01 -3.644348e+00 -1.599348e+00 1.540819e-01 2.224097e+00 4.296740e+00 2.851246e+00 2.186255e+00 4.535345e+00 4.434969e+00 6.488452e+00 -7.613621e-03 -9.240925e-03 -5.230325e-03 -1.065397e-02 -1.469600e-02 -6.105867e-03 -6.383489e-03 1.453915e-02 1.654903e-02 3.046152e-02 2.743032e-02 4.355928e-02 -5.320929e-03
<VARIANCE> 25
 7.522120e-01 1.315297e+00 2.092218e+00 2.765880e+00 3.387552e+00 4.233198e+00 4.689985e+00 5.663131e+00 5.889838e+00 5.961757e+00 5.498195e+00 6.136518e+00 4.993143e-02 1.093534e-01 1.619227e-01 2.454455e-01 3.133204e-01 3.437974e-01 4.540452e-01 5.431892e-01 5.676571e-01 6.155531e-01 5.536237e-01 5.138047e-01 2.701730e-02
<GCONST> 4.272796e+01
~s "ST_ss_4_1"
<MEAN> 25
 3.617770e+00 4.696847e+00 3.060068e+00 2.223664e+00 -4.558659e-02 -1.901764e+00 -1.453556e+00 -1.445716e+00 -2.978256e+00 -4.050179e+00 -4.972886e+00 -4.869049e+00 1.041288e+00 -5.856287e-01 -7.677699e-01 -6.144778e-01 -5.318708e-01 -1.691065e+00 -1.919944e+00 -6.257494e-01 -2.636660e-01 -1.011126e+00 -4.800920e-01 1.633055e-01 1.062832e+00
<VARIANCE> 25
 1.716792e+01 3.243319e+01 1.780952e+01 4.970285e+00 6.778184e+00 7.190044e+00 1.052464e+01 1.389847e+01 1.515530e+01 8.999197e+00 3.342915e+01 1.172389e+01 2.441346e+00 4.953877e-01 1.707948e+00 1.047262e+00 1.706702e+00 3.132162e+00 5.027839e+00 1.179062e+00 1.463326e+00 1.119839e+00 2.008903e+00 1.365211e+00 4.658277e-01
<GCONST> 8.147727e+01
~s "ST_j_2_1"
<MEAN> 25
 1.978339e+00 -3.561971e+00 8.217254e+00 1.262583e+01 4.845041e+00 -2.754441e+00 -7.162837e+00 -3.715747e+00 -1.273985e+00 -4.188557e+00 -6.103568e+00 -7.923838e+00 2.786994e+00 6.144648e-01 -1.645099e+00 2.907395e+00 3.367201e+00 -1.854962e+00 -4.542130e+00 -7.511580e-01 4.829990e-01 -1.422910e+00 -2.590991e+00 -8.130589e-01 7.334706e-01
<VARIANCE> 25
 5.354519e+00 6.081359e+00 2.539633e+01 1.448705e+01 1.063247e+01 7.459599e+00 2.418440e+01 8.659539e+00 1.079999e+01 9.401541e+00 1.211935e+01 1.173234e+01 1.208632e+00 1.062746e+00 9.873123e-01 3.711224e+00 1.207748e+00 1.224493e+00 1.454399e+00 2.726121e+00 1.769397e+00 1.259374e+00 2.921880e+00 1.407273e+00 1.554414e-01
<GCONST> 7.830466e+01
~s "ST_j_3_1"
<MEAN> 25
 4.744569e+00 -2.479495e+00 3.259101e+00 1.515647e+01 9.856884e+00 -5.870120e+00 -1.137008e+01 -3.202963e+00 -2.762583e-01 -5.656602e+00 -7.087518e+00 -7.077179e+00 1.833038e-01 2.145521e-01 -4.722811e-01 -2.100097e-01 3.032407e-01 -1.016907e-02 -2.630149e-01 -2.872325e-01 -1.976753e-01 -1.959040e-02 1.222372e-01 6.178000e-02 -1.895834e-02
<VARIANCE> 25
 3.423596e+00 8.636355e+00 8.820413e+00 9.920890e+00 1.356589e+01 1.048887e+01 3.150699e+01 1.352946e+01 2.048040e+01 1.168342e+01 1.317384e+01 1.285323e+01 4.548835e-01 9.633716e-01 9.703954e-01 9.768207e-01 1.506931e+00 1.499159e+00 4.757957e+00 1.651313e+00 2.296448e+00 1.199753e+00 1.118027e+00 1.176170e+00 4.130683e-01
<GCONST> 7.782873e+01
~s "ST_j_4_1"
<MEAN> 25
 3.769654e+00 1.736363e-01 -9.060398e-02 7.845482e+00 8.710065e+00 -7.510825e-01 -8.307744e+00 -5.691362e+00 -2.822711e+00 -3.102487e+00 -3.606892e+00 -4.488770e+00 -6.545154e-01 3.993958e-01 1.718103e-01 -1.637177e+00 -1.320749e+00 1.258682e+00 2.094128e+00 2.815975e-01 -3.119636e-01 7.867620e-01 9.369516e-01 6.349353e-01 -4.244676e-01
<VARIANCE> 25
 9.585300e+00 6.336120e+00 1.656127e+01 1.606427e+01 1.425142e+01 1.531382e+01 3.624162e+01 1.663097e+01 1.407150e+01 1.474361e+01 1.676702e+01 1.952253e+01 1.176999e+00 6.681277e-01 1.651867e+00 1.049997e+00 1.399687e+00 1.168766e+00 1.884641e+00 1.333431e+00 1.844318e+00 1.207933e+00 1.289999e+00 1.484321e+00 3.834612e-01
<GCONST> 8.076630e+01
~s "ST_ae_2_1"
<MEAN> 25
 -1.176578e+01 -7.502953e+00 1.548607e+01 -6.465880e+00 -5.273066e+00 6.469331e+00 4.603498e+00 -1.745595e+00 3.079869e-02 3.722188e-01 8.256187e+00 -4.432907e+00 -4.391679e-03 -6.204924e-01 -6.241941e-01 8.963540e-01 -6.348413e-01 -7.644295e-01 5.384026e-01 8.139160e-01 9.074966e-01 7.397960e-01 -1.305537e-04 2.680491e-01 -2.521077e-01
<VARIANCE> 25
 3.660477e+00 7.101963e+00 7.715155e+00 1.561756e+01 1.019786e+01 1.275468e+01 8.419547e+00 1.167828e+01 1.675039e+01 8.767626e+00 9.754257e+00 7.880725e+00 3.544856e-01 4.000833e-01 4.052891e-01 1.087216e+00 6.477467e-01 9.337237e-01 6.378145e-01 9.297823e-01 7.408730e-01 6.566959e-01 9.157161e-01 7.276512e-01 7.732451e-02
<GCONST> 6.530021e+01
~s "ST_ae_3_1"
<MEAN> 25
 -9.572969e+00 -9.415795e+00 1.143529e+01 -6.317834e-01 -5.360994e+00 2.909515e+00 5.663566e+00 5.596656e-01 5.491775e-01 1.963026e+00 7.519551e+00 -3.027097e+00 1.796837e+00 7.950774e-01 -1.151074e+00 2.449095e+00 1.222656e+00 -7.396569e-01 -8.899467e-01 -2.980219e-01 -4.740663e-01 -5.378224e-01 -2.038290e+00 -1.353642e-01 -4.092488e-01
<VARIANCE> 25
 4.873806e+00 3.985786e+00 1.217550e+01 1.361077e+01 9.630385e+00 1.198860e+01 7.758366e+00 9.633751e+00 2.035596e+01 9.303762e+00 1.446335e+01 1.161279e+01 8.797013e-01 6.238391e-01 1.033942e+00 2.408080e+00 6.671801e-01 8.465191e-01 1.304496e+00 1.401589e+00 1.219689e+00 1.121761e+00 1.248122e+00 1.593660e+00 2.056249e-01
<GCONST> 7.321800e+01
~s "ST_ae_4_1"
<MEAN> 25
 -6.145850e+00 -6.751343e+00 9.538736e+00 2.960195e+00 -3.396531e+00 2.125155e+00 4.776379e+00 3.167886e-01 -7.953598e-01 6.752677e-01 3.410674e+00 -3.192893e+00 3.165479e+00 1.700776e+00 -1.322340e+00 3.181843e+00 2.757030e+00 -1.253826e+00 -3.322396e+00 -1.166662e+00 -7.265260e-01 -1.319657e+00 -3.397490e+00 -9.832590e-01 1.111174e-01
<VARIANCE> 25
 6.740016e+00 7.671919e+00 2.857979e+01 1.675973e+01 8.496286e+00 8.731063e+00 7.661424e+00 1.021963e+01 9.804425e+00 9.695251e+00 1.501714e+01 2.168991e+01 1.209516e+00 4.376212e-01 1.186215e+00 5.099198e+00 1.355458e+00 1.278461e+00 2.799920e+00 2.036549e+00 1.504603e+00 1.915790e+00 2.765515e+00 1.894193e+00 3.709926e-01
<GCONST> 8.024921e+01
~s "ST_ee_2_1"
<MEAN> 25
 8.002853e+00 3.990641e+00 -2.464124e+00 1.714906e+00 2.794140e+00 -2.224467e+00 -4.128169e+00 -2.079368e+00 -3.141747e+00 -3.518065e+00 -3.290858e+00 -3.854103e+00 4.784850e-02 1.238579e+00 1.536594e-01 -1.299720e+00 -1.465278e+00 5.520373e-01 1.923109e+00 1.097152e+00 6.844213e-01 5.598959e-01 -5.686574e-01 -9.122255e-01 -3.436986e-01
<VARIANCE> 25
 4.508170e+00 5.905247e+00 6.270849e+00 3.050598e+01 3.483641e+01 9.395577e+00 1.034994e+01 1.557850e+01 1.415760e+01 1.109053e+01 1.194134e+01 2.032374e+01 3.443000e-01 3.228474e-01 7.111279e-01 1.433825e+00 2.431798e+00 1.512442e+00 1.011027e+00 7.812050e-01 3.398615e+00 2.695630e+00 1.142105e+00 1.079762e+00 1.378727e-01
<GCONST> 7.523662e+01
~s "ST_ee_3_1"
<MEAN> 25
 6.461634e+00 6.194195e+00 3.598945e-01 3.540536e+00 4.202940e+00 1.915573e-01 -1.614083e+00 -4.955723e-01 -7.603947e-01 -1.893174e+00 -5.237668e+00 -6.848627e+00 -2.626777e-01 2.159225e-01 4.559003e-01 8.675589e-02 6.948718e-02 3.623004e-01 4.056251e-01 1.120020e-01 9.938245e-02 -1.277705e-01 -5.615762e-01 -3.544993e-01 -1.957379e-01
<VARIANCE> 25
 4.123188e+00 2.946759e+00 6.261932e+00 3.362294e+01 3.744318e+01 1.143124e+01 8.608331e+00 6.825368e+00 1.605646e+01 2.172744e+01 1.160095e+01 1.016451e+01 9.477005e-02 3.182216e-01 3.447470e-01 6.850638e-01 9.536051e-01 4.830471e-01 9.476007e-01 9.337747e-01 1.104440e+00 1.070666e+00 8.564787e-01 7.613969e-01 7.109326e-02
<GCONST> 6.580553e+01
~s "ST_ee_4_1"
<MEAN> 25
 6.028041e+00 5.302248e+00 9.124053e-02 4.392229e+00 5.463889e+00 9.232328e-01 -1.378088e+00 -1.190446e+00 -1.302022e+00 -2.520466e+00 -6.398009e+00 -6.167043e+00 2.426338e-01 -9.383893e-01 -1.391266e+00 -6.414124e-01 8.545425e-02 -6.422288e-01 -9.531955e-01 -7.657180e-02 8.221630e-01 9.229811e-01 7.971427e-01 1.194903e+00 3.636785e-01
<VARIANCE> 25
 3.068883e+00 3.456808e+00 6.933068e+00 1.273421e+01 1.390340e+01 7.489263e+00 7.865196e+00 6.856896e+00 1.677206e+01 1.189148e+01 7.168450e+00 9.582914e+00 4.165929e-01 3.754854e-01 8.748734e-01 8.422620e-01 4.177248e-01 1.018846e+00 1.184572e+00 5.264553e-01 8.105819e-01 4.801251e-01 6.926221e-01 9.589315e-01 2.170479e-01
<GCONST> 6.458015e+01
~s "ST_m_2_1"
<MEAN> 25
 5.633167e+00 5.084718e+00 -1.338743e+00 1.126443e-01 1.389609e+00 -6.905819e-01 -1.843214e+00 8.568257e-01 3.886931e+00 3.331828e+00 -3.166466e+00 -6.380162e+00 -7.626370e-01 -7.335864e-03 5.602884e-01 4.981078e-01 5.063815e-01 8.666297e-01 9.642507e-01 3.328275e-02 -5.828371e-01 -3.769419e-01 -2.094031e-01 -4.132727e-02 -4.842448e-01
<VARIANCE> 25
 4.823988e+00 1.606704e+00 7.713927e+00 5.154766e+00 3.245991e+00 5.281808e+00 7.878480e+00 5.409676e+00 9.449296e+00 3.245583e+00 6.920027e+00 7.539334e+00 1.775079e-01 2.184826e-01 4.234008e-01 3.460716e-01 4.118529e-01 2.992821e-01 7.896539e-01 6.338839e-01 7.146135e-01 5.878137e-01 7.467983e-01 1.014979e+00 3.708799e-02
<GCONST> 5.325472e+01
~s "ST_m_3_1"
<MEAN> 25
 1.160737e+00 5.365175e+00 1.092408e+00 1.220263e+00 2.611626e+00 3.316882e+00 3.753439e+00 1.496508e+00 4.903789e-01 5.811617e-01 -3.740738e+00 -5.888045e+00 -1.058735e+00 -6.407325e-01 -2.178285e-01 -7.275686e-02 2.334820e-01 7.688758e-01 6.240844e-01 2.034907e-01 -2.519454e-01 -2.808892e-01 6.310942e-01 9.048954e-01 -5.726258e-01
<VARIANCE> 25
 3.494064e+00 2.365729e+00 1.688134e+00 1.913767e+00 3.651595e+00 3.782819e+00 5.023156e+00 6.818235e+00 8.394550e+00 4.321332e+00 3.492570e+00 2.487544e+00 1.181979e-01 1.877588e-01 2.337097e-01 1.955656e-01 3.591193e-01 3.080880e-01 4.579934e-01 5.299348e-01 4.980105e-01 5.547292e-01 3.469046e-01 5.809268e-01 1.065218e-01
<GCONST> 4.550560e+01
~s "ST_m_4_1"
<MEAN> 25
 -8.276894e-01 2.826492e+00 -2.111003e-01 1.335741e+00 2.894435e+00 4.194675e+00 3.794580e+00 1.404390e+00 -9.949854e-02 3.127146e-01 -1.802016e+00 -8.376916e-01 -2.052591e-01 -4.152193e-01 -1.122256e-01 -1.676177e-01 -2.433396e-01 -2.193542e-01 -1.153453e-01 2.160131e-01 6.448954e-02 -6.341922e-02 4.368280e-01 7.431837e-01 4.541948e-03
<VARIANCE> 25
 2.789107e+00 2.886934e+00 2.898363e+00 3.952853e+00 3.307149e+00 4.709520e+00 4.950676e+00 5.194667e+00 8.281501e+00 5.004796e+00 2.961108e+00 6.312583e+00 3.129366e-01 3.862082e-01 3.155270e-01 4.169679e-01 5.646273e-01 4.988960e-01 4.175450e-01 6.821762e-01 9.710223e-01 4.930034e-01 7.327865e-01 7.047461e-01 1.784649e-01
<GCONST> 5.333179e+01
~s "ST_z_2_1"
<MEAN> 25
 -1.587873e+00 -4.887616e-01 9.907075e+00 -2.671014e+00 -6.439311e+00 4.720152e+00 3.532666e+00 -3.897625e-01 -3.328533e+00 -1.137247e-01 1.871474e+00 -3.710442e+00 -5.520509e-01 -5.369974e-01 1.005112e+00 3.209792e-01 -2.273781e-01 7.907322e-02 -1.761208e-01 -3.347332e-01 -4.480192e-01 -4.563536e-01 -2.277366e-01 -4.536207e-01 6.327178e-02
<VARIANCE> 25
 1.093996e+01 6.885436e+00 1.837140e+01 1.051278e+01 6.896298e+00 9.646281e+00 6.781960e+00 6.517321e+00 9.578179e+00 9.769753e+00 1.580462e+01 1.036486e+01 3.740786e+00 1.462723e+00 5.996067e+00 9.731022e-01 1.028622e+00 3.630198e+00 1.743856e+00 5.690399e-01 1.103733e+00 1.074283e+00 4.352873e+00 9.138057e-01 8.966379e-02
<GCONST> 7.706853e+01
~s "ST_z_3_1"
<MEAN> 25
 5.365899e+00 1.364110e+00 9.714224e-01 -1.844925e+00 -6.114270e+00 -3.374831e+00 -2.732163e+00 -2.460431e+00 -1.564979e+00 -3.743180e+00 -7.419285e+00 -4.128852e+00 3.010063e+00 -1.308093e-01 -5.134009e+00 -8.133481e-01 6.516445e-01 -3.080393e+00 -2.950076e+00 3.864655e-01 2.122527e+00 -5.052869e-01 -2.051253e+00 1.215604e+00 1.152160e+00
<VARIANCE> 25
 8.235073e+00 7.242187e+00 3.246412e+01 5.528114e+00 5.100228e+00 1.381991e+01 2.186487e+01 6.767135e+00 1.635539e+01 5.421433e+00 8.334385e+00 7.285105e+00 6.253282e-01 8.374687e-01 9.826286e-01 8.695798e-01 5.922585e-01 1.587670e+00 1.498694e+00 1.056479e+00 1.030289e+00 8.299323e-01 1.791987e+00 9.017150e-01 9.204710e-02
<GCONST> 7.060045e+01
~s "ST_z_4_1"
<MEAN> 25
 1.048910e+01 -1.844352e+00 -9.942971e+00 -4.153327e+00 -3.737950e+00 -9.049363e+00 -9.040535e+00 1.124939e-01 3.859988e+00 -3.838242e+00 -7.826524e+00 2.022443e-01 1.165744e+00 -1.158414e+00 -3.141680e+00 -9.727832e-01 4.399237e-01 -1.340517e+00 -1.008352e+00 1.408309e+00 1.528815e+00 5.119373e-01 5.089403e-01 9.925902e-01 7.693196e-01
<VARIANCE> 25
 1.185759e+00 7.514812e+00 4.689137e+00 4.001609e+00 4.870872e+00 6.597009e+00 8.199544e+00 9.256483e+00 8.358937e+00 4.628374e+00 3.100180e+00 5.790911e+00 3.185423e-01 4.410187e-01 8.997899e-01 5.484008e-01 3.372820e-01 7.959781e-01 1.067507e+00 5.559032e-01 6.045422e-01 7.103783e-01 8.110425e-01 5.013888e-01 8.812534e-02
<GCONST> 5.672881e+01
~s "ST_ch_2_1"
<MEAN> 25
 -8.144112e-01 -1.041558e+01 3.511029e+00 5.451691e+00 -9.202881e-01 2.326527e+00 -2.123707e+00 -6.840587e+00 3.565215e+00 -2.350114e+00 -6.029471e+00 -2.060580e+00 -2.127885e+00 -2.586429e+00 2.007818e+00 1.270343e+00 -7.270388e-01 -6.187737e-01 5.628158e-01 5.982515e-01 2.050034e+00 6.621865e-01 8.288941e-01 5.670854e-01 2.367894e-01
<VARIANCE> 25
 1.449207e+01 2.948705e+01 1.410535e+01 1.191539e+01 9.859626e+00 9.723386e+00 8.289964e+00 8.979968e+00 3.198432e+01 1.236963e+01 1.018746e+01 6.663342e+00 5.732569e-01 1.379748e+00 1.177721e+00 6.517742e-01 1.411834e+00 1.163793e+00 1.082020e+00 1.481636e+00 1.500906e+00 1.314265e+00 9.525769e-01 5.582024e-01 8.158839e-02
<GCONST> 7.421139e+01
~s "ST_ch_3_1"
<MEAN> 25
 -8.069021e+00 -1.428603e+01 1.027658e+01 4.883175e+00 -1.355095e+00 -9.318722e-01 3.853966e-01 1.412172e+00 6.671722e+00 -2.842817e+00 1.530133e+00 1.610162e+00 -5.310164e-01 1.658694e+00 8.820555e-02 -1.757320e+00 1.891139e-01 -1.261948e-01 7.492611e-01 1.960259e+00 -1.613309e+00 -3.015313e-02 2.048258e+00 6.083903e-01 -8.389478e-01
<VARIANCE> 25
 3.055185e+00 1.026682e+01 7.892217e+00 2.302989e+01 7.060117e+00 7.398097e+00 9.882084e+00 2.624841e+01 2.709868e+01 7.253973e+00 2.630135e+01 9.836912e+00 7.384473e-01 1.519128e+00 2.400079e+00 9.674238e-01 5.912610e-01 5.235087e-01 9.336047e-01 1.786141e+00 1.916037e+00 1.782104e+00 1.345373e+00 1.032755e+00 3.221470e-01
<GCONST> 7.566634e+01
~s "ST_ch_4_1"
<MEAN> 25
 -5.802428e+00 -4.891422e+00 2.697711e+00 1.458013e+00 -1.482121e+00 -1.188086e-01 3.892459e+00 3.370763e+00 1.387627e+00 1.427838e+00 3.626114e+00 4.632216e+00 5.998791e-01 1.055027e+00 -1.335943e+00 5.670319e-02 -4.784547e-01 1.153286e-01 6.436117e-01 -4.207394e-01 -3.966725e-01 8.106982e-01 -1.379898e-01 2.404803e-01 -7.464539e-01
<VARIANCE> 25
 2.199958e+00 3.720867e+00 7.578074e+00 3.810758e+00 5.275681e+00 1.092318e+01 7.480610e+00 1.002646e+01 9.691090e+00 8.335966e+00 8.390422e+00 7.112816e+00 2.862486e-01 7.188712e-01 1.582347e+00 6.465697e-01 3.773571e-01 8.074990e-01 7.541289e-01 7.780474e-01 1.097972e+00 9.436736e-01 7.621706e-01 1.472633e+00 5.393748e-01
<GCONST> 6.451868e+01
~s "ST_oo_2_1"
<MEAN> 25
 7.684643e+00 7.450915e+00 6.664279e-01 -1.669884e+00 -8.326816e+00 -1.324064e+01 -8.754888e+00 1.229532e+00 5.589411e+00 -1.077160e-01 -6.190964e+00 -4.795304e+00 8.419856e-01 -5.855166e-01 -1.074735e+00 -7.091262e-01 -6.415538e-01 -8.063891e-01 -2.972331e-01 1.355066e+00 1.918586e+00 -4.671078e-01 -2.078879e+00 -1.387931e+00 7.154505e-01
<VARIANCE> 25
 2.532364e+00 3.473380e+00 3.398205e+00 4.284661e+00 5.528983e+00 1.319790e+01 9.989362e+00 1.000142e+01 1.410094e+01 8.227386e+00 1.017528e+01 9.291890e+00 2.430570e-01 4.000375e-01 3.927543e-01 3.858256e-01 7.132985e-01 2.196826e+00 1.335763e+00 8.231192e-01 1.354906e+00 1.238200e+00 1.529545e+00 1.171789e+00 1.194639e-01
<GCONST> 6.429919e+01
~s "ST_oo_3_1"
<MEAN> 25
 8.874816e+00 5.452783e+00 -2.583022e+00 -3.644207e+00 -7.537142e+00 -1.099763e+01 -6.558574e+00 3.563413e+00 7.133725e+00 -2.709984e+00 -1.109974e+01 -7.280148e+00 1.979792e-01 -1.042627e+00 -1.235239e+00 -3.916038e-03 1.597199e+00 1.922405e+00 7.792478e-01 -4.341165e-01 -1.144286e+00 -1.735488e+00 -1.099159e+00 3.099215e-01 3.847423e-01
<VARIANCE> 25
 2.724103e+00 3.564218e+00 4.407594e+00 3.823988e+00 6.887267e+00 1.249899e+01 7.629121e+00 7.203947e+00 1.060472e+01 1.560544e+01 1.463877e+01 8.656536e+00 1.004573e-01 5.911887e-01 6.096491e-01 6.093895e-01 1.994443e+00 2.001112e+00 1.023770e+00 1.122284e+00 1.861156e+00 1.451295e+00 1.500093e+00 1.249225e+00 1.133588e-01
<GCONST> 6.661109e+01
~s "ST_oo_4_1"
<MEAN> 25
 8.503117e+00 2.256473e+00 -4.941942e+00 -1.174739e+00 -3.686101e-01 -4.018688e+00 -5.734689e+00 -1.309497e+00 3.423372e-01 -6.608228e+00 -1.003722e+01 -3.669591e+00 -8.088945e-01 -1.175367e+00 5.436139e-02 8.933480e-01 1.941816e+00 2.825363e+00 9.898641e-01 -1.812475e+00 -2.160208e+00 -8.175477e-02 1.341736e+00 9.833791e-01 -1.514535e-01
<VARIANCE> 25
 3.221736e+00 7.333057e+00 4.768901e+00 6.869902e+00 2.748891e+01 3.008467e+01 9.823368e+00 2.215880e+01 2.141547e+01 2.079476e+01 1.225876e+01 9.145354e+00 4.788695e-01 1.385507e+00 1.191582e+00 7.023426e-01 2.857528e+00 2.200064e+00 1.657333e+00 1.993472e+00 2.270148e+00 1.981692e+00 1.593570e+00 8.388641e-01 1.638001e-01
<GCONST> 7.794778e+01
~s "ST_p_2_1"
<MEAN> 25
 -3.951799e+00 -2.681830e-01 -2.461934e+00 -9.812577e-01 1.125761e-01 2.524237e+00 3.925464e+00 2.106679e+00 1.125702e+00 3.669763e+00 3.443201e+00 4.281913e+00 1.437940e+00 7.748395e-01 5.671644e-01 -1.765458e-01 -1.300514e+00 -1.799148e+00 -1.391040e+00 -7.256848e-01 -2.982159e-01 -6.706474e-01 -1.125436e+00 -1.892637e+00 9.874820e-01
<VARIANCE> 25
 1.252096e+00 1.591221e+00 2.804951e+00 3.121779e+00 5.658305e+00 4.338329e+00 5.596652e+00 5.162610e+00 8.627111e+00 1.029152e+01 7.397313e+00 9.095452e+00 7.609698e-01 8.645596e-01 4.528099e-01 5.058653e-01 7.543327e-01 1.377522e+00 1.030107e+00 7.799358e-01 9.724103e-01 9.692810e-01 9.772760e-01 9.713469e-01 1.737428e-01
<GCONST> 6.013099e+01
~s "ST_p_3_1"
<MEAN> 25
 -1.969521e-01 2.371595e+00 2.005279e-01 -3.822488e-01 -2.566825e+00 -1.505199e+00 2.756396e-01 -8.067537e-01 -1.100000e+00 5.250951e-01 8.529653e-02 -7.446486e-01 3.281436e+00 1.972365e+00 2.268540e-01 -4.367335e-01 -1.897923e+00 -3.921691e+00 -3.235375e+00 -5.078801e-01 3.888282e-01 -1.476357e+00 -2.592575e+00 -2.155437e+00 1.708640e+00
<VARIANCE> 25
 7.171652e+00 1.148249e+01 4.358854e+00 3.570187e+00 8.984401e+00 1.103590e+01 1.259304e+01 9.977456e+00 9.299098e+00 6.677444e+00 6.092437e+00 1.162779e+01 5.903377e-01 6.597304e-01 1.527942e+00 1.143549e+00 9.897726e-01 1.329977e+00 8.960770e-01 1.142809e+00 1.643120e+00 1.008727e+00 1.213903e+00 1.962675e+00 3.695417e-01
<GCONST> 7.121359e+01
~s "ST_p_4_1"
<MEAN> 25
 7.735008e+00 6.117307e+00 -2.228651e+00 -3.093169e+00 -7.037271e+00 -1.132221e+01 -7.240907e+00 5.620733e-01 2.922732e+00 -8.072883e-01 -5.510516e+00 -4.128394e+00 3.009730e+00 9.354919e-01 -1.101933e+00 -9.212133e-01 -1.505342e+00 -3.136882e+00 -2.531477e+00 2.950536e-01 1.369616e+00 -9.744887e-01 -2.596042e+00 -1.627518e+00 1.635692e+00
<VARIANCE> 25
 4.112391e+00 6.419396e+00 1.544537e+01 8.556126e+00 4.746591e+00 8.618706e+00 8.358981e+00 1.209036e+01 1.775988e+01 9.597672e+00 1.004425e+01 1.156311e+01 1.018845e+00 7.523947e-01 1.276495e+00 8.740649e-01 1.131198e+00 2.465170e+00 1.751238e+00 1.332139e+00 2.189467e+00 1.260798e+00 8.909600e-01 1.448583e+00 4.136502e-01
<GCONST> 7.442875e+01
~s "ST_tt_2_1"
<MEAN> 25
 -4.365997e+00 -3.065548e+00 5.163210e+00 -3.936666e+00 -3.140503e+00 1.338922e+00 3.405077e+00 -1.491013e+00 -4.615789e+00 2.382761e+00 5.683366e+00 -3.961655e-01 -1.063846e+00 -1.423705e+00 2.070256e+00 9.106079e-01 -7.333769e-01 5.901049e-02 6.281088e-01 6.168333e-01 -6.675416e-02 -4.923418e-04 5.791166e-01 -8.515254e-01 3.499774e-01
<VARIANCE> 25
 1.581948e+01 1.404245e+01 2.957448e+01 2.070630e+01 2.594721e+01 9.979379e+00 2.107728e+01 1.461683e+01 1.491705e+01 9.022837e+00 1.894873e+01 1.709109e+01 3.313927e+00 2.432455e+00 3.986103e+00 3.352151e+00 3.340071e+00 7.510334e-01 3.102025e+00 2.213427e+00 1.277485e+00 1.793304e+00 5.193499e+00 1.020926e+00 2.671658e-01
<GCONST> 8.844005e+01
~s "ST_tt_3_1"
<MEAN> 25
 -3.437293e-01 -1.881383e+00 4.593142e+00 3.691544e+00 1.850088e+00 1.427151e+00 -2.259303e+00 -4.591930e+00 -5.734565e+00 -1.603831e+00 -3.977850e-01 -3.322487e+00 4.081759e-01 2.621204e-01 -5.185535e-01 5.540208e-01 8.045505e-01 -1.379462e-01 -6.495042e-01 -1.546859e-01 2.738052e-01 -2.153072e-01 -5.319477e-01 -1.930249e-02 -6.161844e-02
<VARIANCE> 25
 1.913400e+01 1.639975e+01 1.745504e+01 1.770258e+01 2.446165e+01 1.221651e+01 4.293789e+01 2.979676e+01 1.041803e+01 1.718081e+01 3.592636e+01 1.139167e+01 4.030217e+00 3.057087e+00 4.288952e+00 2.330762e+00 5.222448e+00 9.327397e-01 7.943313e+00 3.737032e+00 1.576062e+00 1.829469e+00 5.459334e+00 1.643244e+00 9.302937e-01
<GCONST> 9.445290e+01
~s "ST_tt_4_1"
<MEAN> 25
 -3.729355e+00 -3.748724e+00 2.849916e+00 1.200850e+00 -9.025933e-01 1.378318e+00 3.045050e+00 6.710418e-02 -2.532135e+00 1.839044e+00 3.743886e+00 5.382205e-01 -2.227024e-01 1.366326e-01 -5.085866e-01 4.922685e-02 4.216344e-02 1.509514e-01 3.640075e-01 5.445697e-01 6.666120e-01 1.520765e-01 2.159036e-01 5.430542e-01 -4.516459e-01
<VARIANCE> 25
 1.319045e+01 2.030263e+01 2.841466e+01 1.084756e+01 1.594260e+01 1.036575e+01 1.996991e+01 1.676596e+01 8.720510e+00 1.398519e+01 1.967635e+01 1.576173e+01 5.950842e-01 1.862873e+00 2.328764e+00 8.668757e-01 1.241009e+00 8.553708e-01 8.523175e-01 9.288393e-01 1.163353e+00 7.420511e-01 9.908271e-01 1.046513e+00 5.241254e-01
<GCONST> 7.860460e+01
~s "ST_yy_2_1"
<MEAN> 25
 6.259325e+00 -3.350890e-01 -2.380259e+00 8.320820e+00 1.181470e+01 -8.840669e-01 -1.379903e+01 -6.460120e+00 -3.853358e+00 -7.807456e+00 -4.575655e+00 -3.536112e+00 -7.296513e-01 -1.035248e+00 4.749202e-01 1.619784e+00 8.616567e-01 -2.528686e-01 -2.111234e-02 -5.708945e-01 -2.254159e-01 1.564458e+00 1.478665e+00 -6.584015e-01 -2.313313e-02
<VARIANCE> 25
 1.295074e+00 2.693592e+00 2.182122e+00 4.872301e+00 8.318904e+00 5.509083e+00 8.412615e+00 5.178284e+00 9.170159e+00 8.332730e+00 9.055676e+00 6.463431e+00 1.556750e-01 3.037050e-01 5.277231e-01 3.808834e-01 1.066222e+00 6.033961e-01 3.213053e+00 1.223748e+00 1.148327e+00 5.574714e-01 9.559776e-01 8.010611e-01 1.088021e-01
<GCONST> 5.890591e+01
~s "ST_yy_3_1"
<MEAN> 25
 3.871737e+00 -3.993714e-01 2.273398e-01 1.004185e+01 1.039030e+01 -5.384506e-01 -8.629148e+00 -7.073003e+00 -6.056871e+00 -4.883483e+00 -3.220245e+00 -5.355795e+00 -1.633645e+00 4.895620e-01 8.450217e-01 -7.837098e-01 -1.378960e+00 1.147843e+00 3.240556e+00 2.284922e-01 -4.747683e-01 1.806627e+00 8.960145e-01 2.367241e-01 -1.157564e+00
<VARIANCE> 25
 2.440491e+00 3.877678e+00 8.262617e+00 4.615838e+00 5.962982e+00 8.476492e+00 1.571780e+01 8.627015e+00 1.074173e+01 6.577051e+00 8.997506e+00 7.891442e+00 6.561709e-02 3.901582e-01 1.033556e+00 9.967028e-01 9.992526e-01 8.717106e-01 7.697020e-01 9.072495e-01 7.461867e-01 5.709743e-01 1.412427e+00 1.260265e+00 1.318972e-01
<GCONST> 6.275375e+01
~h "a"
<BEGINHMM>
<NUMSTATES> 5
<STATE> 2
~s "ST_a_2_1"
<STATE> 3
~s "ST_a_3_1"
<STATE> 4
~s "ST_a_4_1"
~t "T_a"
<ENDHMM>
~h "b"
<BEGINHMM>
<NUMSTATES> 5
<STATE> 2
~s "ST_b_2_1"
<STATE> 3
~s "ST_b_3_1"
<STATE> 4
~s "ST_b_4_1"
~t "T_b"
<ENDHMM>
~h "d"
<BEGINHMM>
<NUMSTATES> 5
<STATE> 2
~s "ST_d_2_1"
<STATE> 3
~s "ST_d_3_1"
<STATE> 4
~s "ST_d_4_1"
~t "T_d"
<ENDHMM>
~h "f"
<BEGINHMM>
<NUMSTATES> 5
<STATE> 2
~s "ST_f_2_1"
<STATE> 3
~s "ST_f_3_1"
<STATE> 4
~s "ST_f_4_1"
~t "T_f"
<ENDHMM>
~h "g"
<BEGINHMM>
<NUMSTATES> 5
<STATE> 2
~s "ST_g_2_1"
<STATE> 3
~s "ST_g_3_1"
<STATE> 4
~s "ST_g_4_1"
~t "T_g"
<ENDHMM>
~h "h"
<BEGINHMM>
<NUMSTATES> 5
<STATE> 2
~s "ST_h_2_1"
<STATE> 3
~s "ST_h_3_1"
<STATE> 4
~s "ST_h_4_1"
~t "T_h"
<ENDHMM>
~h "i"
<BEGINHMM>
<NUMSTATES> 5
<STATE> 2
~s "ST_i_2_1"
<STATE> 3
~s "ST_i_3_1"
<STATE> 4
~s "ST_i_4_1"
~t "T_i"
<ENDHMM>
~h "j"
<BEGINHMM>
<NUMSTATES> 5
<STATE> 2
~s "ST_j_2_1"
<STATE> 3
~s "ST_j_3_1"
<STATE> 4
~s "ST_j_4_1"
~t "T_j"
<ENDHMM>
~h "m"
<BEGINHMM>
<NUMSTATES> 5
<STATE> 2
~s "ST_m_2_1"
<STATE> 3
~s "ST_m_3_1"
<STATE> 4
~s "ST_m_4_1"
~t "T_m"
<ENDHMM>
~h "n"
<BEGINHMM>
<NUMSTATES> 5
<STATE> 2
~s "ST_n_2_1"
<STATE> 3
~s "ST_n_3_1"
<STATE> 4
~s "ST_n_4_1"
~t "T_n"
<ENDHMM>
~h "p"
<BEGINHMM>
<NUMSTATES> 5
<STATE> 2
~s "ST_p_2_1"
<STATE> 3
~s "ST_p_3_1"
<STATE> 4
~s "ST_p_4_1"
~t "T_p"
<ENDHMM>
~h "r"
<BEGINHMM>
<NUMSTATES> 5
<STATE> 2
~s "ST_r_2_1"
<STATE> 3
~s "ST_r_3_1"
<STATE> 4
~s "ST_r_4_1"
~t "T_r"
<ENDHMM>
~h "s"
<BEGINHMM>
<NUMSTATES> 5
<STATE> 2
~s "ST_s_2_1"
<STATE> 3
~s "ST_s_3_1"
<STATE> 4
~s "ST_s_4_1"
~t "T_s"
<ENDHMM>
~h "t"
<BEGINHMM>
<NUMSTATES> 5
<STATE> 2
~s "ST_t_2_1"
<STATE> 3
~s "ST_t_3_1"
<STATE> 4
~s "ST_t_4_1"
~t "T_t"
<ENDHMM>
~h "v"
<BEGINHMM>
<NUMSTATES> 5
<STATE> 2
~s "ST_v_2_1"
<STATE> 3
~s "ST_v_3_1"
<STATE> 4
~s "ST_v_4_1"
~t "T_v"
<ENDHMM>
~h "z"
<BEGINHMM>
<NUMSTATES> 5
<STATE> 2
~s "ST_z_2_1"
<STATE> 3
~s "ST_z_3_1"
<STATE> 4
~s "ST_z_4_1"
~t "T_z"
<ENDHMM>
~h "aa"
<BEGINHMM>
<NUMSTATES> 5
<STATE> 2
~s "ST_aa_2_1"
<STATE> 3
~s "ST_aa_3_1"
<STATE> 4
~s "ST_aa_4_1"
~t "T_aa"
<ENDHMM>
~h "ae"
<BEGINHMM>
<NUMSTATES> 5
<STATE> 2
~s "ST_ae_2_1"
<STATE> 3
~s "ST_ae_3_1"
<STATE> 4
~s "ST_ae_4_1"
~t "T_ae"
<ENDHMM>
~h "ay"
<BEGINHMM>
<NUMSTATES> 5
<STATE> 2
~s "ST_ay_2_1"
<STATE> 3
~s "ST_ay_3_1"
<STATE> 4
~s "ST_ay_4_1"
~t "T_ay"
<ENDHMM>
~h "ch"
<BEGINHMM>
<NUMSTATES> 5
<STATE> 2
~s "ST_ch_2_1"
<STATE> 3
~s "ST_ch_3_1"
<STATE> 4
~s "ST_ch_4_1"
~t "T_ch"
<ENDHMM>
~h "ee"
<BEGINHMM>
<NUMSTATES> 5
<STATE> 2
~s "ST_ee_2_1"
<STATE> 3
~s "ST_ee_3_1"
<STATE> 4
~s "ST_ee_4_1"
~t "T_ee"
<ENDHMM>
~h "ii"
<BEGINHMM>
<NUMSTATES> 5
<STATE> 2
~s "ST_ii_2_1"
<STATE> 3
~s "ST_ii_3_1"
<STATE> 4
~s "ST_ii_4_1"
~t "T_ii"
<ENDHMM>
~h "ll"
<BEGINHMM>
<NUMSTATES> 5
<STATE> 2
~s "ST_ll_2_1"
<STATE> 3
~s "ST_ll_3_1"
<STATE> 4
~s "ST_ll_4_1"
~t "T_ll"
<ENDHMM>
~h "mm"
<BEGINHMM>
<NUMSTATES> 5
<STATE> 2
~s "ST_mm_2_1"
<STATE> 3
~s "ST_mm_3_1"
<STATE> 4
~s "ST_mm_4_1"
~t "T_mm"
<ENDHMM>
~h "nn"
<BEGINHMM>
<NUMSTATES> 5
<STATE> 2
~s "ST_nn_2_1"
<STATE> 3
~s "ST_nn_3_1"
<STATE> 4
~s "ST_nn_4_1"
~t "T_nn"
<ENDHMM>
~h "oo"
<BEGINHMM>
<NUMSTATES> 5
<STATE> 2
~s "ST_oo_2_1"
<STATE> 3
~s "ST_oo_3_1"
<STATE> 4
~s "ST_oo_4_1"
~t "T_oo"
<ENDHMM>
~h "rr"
<BEGINHMM>
<NUMSTATES> 5
<STATE> 2
~s "ST_rr_2_1"
<STATE> 3
~s "ST_rr_3_1"
<STATE> 4
~s "ST_rr_4_1"
~t "T_rr"
<ENDHMM>
~h "sp"
<BEGINHMM>
<NUMSTATES> 3
<STATE> 2
~s "ST_sil_3_1"
<TRANSP> 3
 0.000000e+00 3.009132e-01 6.990867e-01
 0.000000e+00 8.672109e-01 1.327890e-01
 0.000000e+00 0.000000e+00 0.000000e+00
<ENDHMM>
~h "ss"
<BEGINHMM>
<NUMSTATES> 5
<STATE> 2
~s "ST_ss_2_1"
<STATE> 3
~s "ST_ss_3_1"
<STATE> 4
~s "ST_ss_4_1"
~t "T_ss"
<ENDHMM>
~h "tt"
<BEGINHMM>
<NUMSTATES> 5
<STATE> 2
~s "ST_tt_2_1"
<STATE> 3
~s "ST_tt_3_1"
<STATE> 4
~s "ST_tt_4_1"
~t "T_tt"
<ENDHMM>
~h "ur"
<BEGINHMM>
<NUMSTATES> 5
<STATE> 2
~s "ST_ur_2_1"
<STATE> 3
~s "ST_ur_3_1"
<STATE> 4
~s "ST_ur_4_1"
~t "T_ur"
<ENDHMM>
~h "yy"
<BEGINHMM>
<NUMSTATES> 5
<STATE> 2
~s "ST_yy_2_1"
<STATE> 3
~s "ST_yy_3_1"
<STATE> 4
~s "ST_yy_4_1"
~t "T_yy"
<ENDHMM>
~h "s+p"
<BEGINHMM>
<NUMSTATES> 5
<STATE> 2
~s "ST_s_2_1"
<STATE> 3
~s "ST_s_3_1"
<STATE> 4
~s "ST_s_4_2"
~t "T_s"
<ENDHMM>
~h "t-a"
<BEGINHMM>
<NUMSTATES> 5
<STATE> 2
~s "ST_a_2_2"
<STATE> 3
~s "ST_a_3_2"
<STATE> 4
~s "ST_a_4_1"
~t "T_a"
<ENDHMM>
~h "sil"
<BEGINHMM>
<NUMSTATES> 5
<STATE> 2
~s "ST_sil_2_1"
<STATE> 3
~s "ST_sil_3_1"
<STATE> 4
~s "ST_sil_4_1"
<TRANSP> 5
 0.000000e+00 1.000000e+00 0.000000e+00 0.000000e+00 0.000000e+00
 0.000000e+00 6.203953e-01 2.651298e-01 1.144749e-01 0.000000e+00
 0.000000e+00 0.000000e+00 8.888304e-01 1.111696e-01 0.000000e+00
 0.000000e+00 4.673859e-02 0.000000e+00 9.193512e-01 3.391026e-02
 0.000000e+00 0.000000e+00 0.000000e+00 0.000000e+00 0.000000e+00
<ENDHMM>
~h "d-aa+t"
<BEGINHMM>
<NUMSTATES> 5
<STATE> 2
~s "ST_aa_2_1"
<STATE> 3
~s "ST_aa_3_2"
<STATE> 4
~s "ST_aa_4_2"
~t "T_aa"
<ENDHMM>
~h "s-a+b"
<BEGINHMM>
<NUMSTATES> 5
<STATE> 2
~s "ST_a_2_1"
<STATE> 3
~s "ST_a_3_2"
<STATE> 4
~s "ST_a_4_1"
~t "T_a"
<ENDHMM>
~h "z-aa+f"
<BEGINHMM>
<NUMSTATES> 5
<STATE> 2
~s "ST_aa_2_1"
<STATE> 3
~s "ST_aa_3_2"
<STATE> 4
~s "ST_aa_4_1"
~t "T_aa"
<ENDHMM>
