~o
<STREAMINFO> 1 25
<VECSIZE> 25<NULLD><MFCC_D_N_Z_0><DIAGC>
~t "T_a"
<TRANSP> 5
 0.000000e+00 1.000000e+00 0.000000e+00 0.000000e+00 0.000000e+00
 0.000000e+00 4.506900e-01 5.493100e-01 0.000000e+00 0.000000e+00
 0.000000e+00 0.000000e+00 5.336457e-01 4.663543e-01 0.000000e+00
 0.000000e+00 0.000000e+00 0.000000e+00 3.316029e-01 6.683971e-01
 0.000000e+00 0.000000e+00 0.000000e+00 0.000000e+00 0.000000e+00
~t "T_b"
<TRANSP> 5
 0.000000e+00 1.000000e+00 0.000000e+00 0.000000e+00 0.000000e+00
 0.000000e+00 7.241777e-01 2.758223e-01 0.000000e+00 0.000000e+00
 0.000000e+00 0.000000e+00 4.636648e-01 5.363352e-01 0.000000e+00
 0.000000e+00 0.000000e+00 0.000000e+00 3.820896e-01 6.179104e-01
 0.000000e+00 0.000000e+00 0.000000e+00 0.000000e+00 0.000000e+00
~t "T_d"
<TRANSP> 5
 0.000000e+00 1.000000e+00 0.000000e+00 0.000000e+00 0.000000e+00
 0.000000e+00 3.932211e-01 6.067789e-01 0.000000e+00 0.000000e+00
 0.000000e+00 0.000000e+00 4.891321e-01 5.108679e-01 0.000000e+00
 0.000000e+00 0.000000e+00 0.000000e+00 6.624284e-01 3.375716e-01
 0.000000e+00 0.000000e+00 0.000000e+00 0.000000e+00 0.000000e+00
~t "T_f"
<TRANSP> 5
 0.000000e+00 1.000000e+00 0.000000e+00 0.000000e+00 0.000000e+00
 0.000000e+00 5.165703e-01 4.834297e-01 0.000000e+00 0.000000e+00
 0.000000e+00 0.000000e+00 7.307286e-01 2.692714e-01 0.000000e+00
 0.000000e+00 0.000000e+00 0.000000e+00 6.310833e-01 3.689167e-01
 0.000000e+00 0.000000e+00 0.000000e+00 0.000000e+00 0.000000e+00
~t "T_g"
<TRANSP> 5
 0.000000e+00 1.000000e+00 0.000000e+00 0.000000e+00 0.000000e+00
 0.000000e+00 6.374444e-01 3.625556e-01 0.000000e+00 0.000000e+00
 0.000000e+00 0.000000e+00 7.170178e-01 2.829822e-01 0.000000e+00
 0.000000e+00 0.000000e+00 0.000000e+00 7.498420e-01 2.501580e-01
 0.000000e+00 0.000000e+00 0.000000e+00 0.000000e+00 0.000000e+00
~t "T_h"
<TRANSP> 5
 0.000000e+00 1.000000e+00 0.000000e+00 0.000000e+00 0.000000e+00
 0.000000e+00 7.228389e-01 2.771611e-01 0.000000e+00 0.000000e+00
 0.000000e+00 0.000000e+00 7.918497e-01 2.081503e-01 0.000000e+00
 0.000000e+00 0.000000e+00 0.000000e+00 7.623735e-01 2.376264e-01
 0.000000e+00 0.000000e+00 0.000000e+00 0.000000e+00 0.000000e+00
~t "T_i"
<TRANSP> 5
 0.000000e+00 1.000000e+00 0.000000e+00 0.000000e+00 0.000000e+00
 0.000000e+00 5.065548e-01 4.934452e-01 0.000000e+00 0.000000e+00
 0.000000e+00 0.000000e+00 5.042694e-01 4.957306e-01 0.000000e+00
 0.000000e+00 0.000000e+00 0.000000e+00 8.363973e-01 1.636027e-01
 0.000000e+00 0.000000e+00 0.000000e+00 0.000000e+00 0.000000e+00
~t "T_j"
<TRANSP> 5
 0.000000e+00 1.000000e+00 0.000000e+00 0.000000e+00 0.000000e+00
 0.000000e+00 4.902250e-01 5.097750e-01 0.000000e+00 0.000000e+00
 0.000000e+00 0.000000e+00 8.967724e-01 1.032276e-01 0.000000e+00
 0.000000e+00 0.000000e+00 0.000000e+00 7.101601e-01 2.898399e-01
 0.000000e+00 0.000000e+00 0.000000e+00 0.000000e+00 0.000000e+00
~t "T_m"
<TRANSP> 5
 0.000000e+00 1.000000e+00 0.000000e+00 0.000000e+00 0.000000e+00
 0.000000e+00 7.971619e-01 2.028381e-01 0.000000e+00 0.000000e+00
 0.000000e+00 0.000000e+00 6.506780e-01 3.493220e-01 0.000000e+00
 0.000000e+00 0.000000e+00 0.000000e+00 8.105566e-01 1.894434e-01
 0.000000e+00 0.000000e+00 0.000000e+00 0.000000e+00 0.000000e+00
~t "T_n"
<TRANSP> 5
 0.000000e+00 1.000000e+00 0.000000e+00 0.000000e+00 0.000000e+00
 0.000000e+00 7.329674e-01 2.670325e-01 0.000000e+00 0.000000e+00
 0.000000e+00 0.000000e+00 5.268922e-01 4.731078e-01 0.000000e+00
 0.000000e+00 0.000000e+00 0.000000e+00 3.865340e-01 6.134660e-01
 0.000000e+00 0.000000e+00 0.000000e+00 0.000000e+00 0.000000e+00
~t "T_p"
<TRANSP> 5
 0.000000e+00 1.000000e+00 0.000000e+00 0.000000e+00 0.000000e+00
 0.000000e+00 4.537005e-01 5.462995e-01 0.000000e+00 0.000000e+00
 0.000000e+00 0.000000e+00 3.314064e-01 6.685936e-01 0.000000e+00
 0.000000e+00 0.000000e+00 0.000000e+00 3.140710e-01 6.859290e-01
 0.000000e+00 0.000000e+00 0.000000e+00 0.000000e+00 0.000000e+00
~t "T_r"
<TRANSP> 5
 0.000000e+00 1.000000e+00 0.000000e+00 0.000000e+00 0.000000e+00
 0.000000e+00 4.036258e-01 5.963742e-01 0.000000e+00 0.000000e+00
 0.000000e+00 0.000000e+00 8.895107e-05 9.999110e-01 0.000000e+00
 0.000000e+00 0.000000e+00 0.000000e+00 1.311368e-01 8.688632e-01
 0.000000e+00 0.000000e+00 0.000000e+00 0.000000e+00 0.000000e+00
~t "T_s"
<TRANSP> 5
 0.000000e+00 1.000000e+00 0.000000e+00 0.000000e+00 0.000000e+00
 0.000000e+00 6.096630e-01 3.903370e-01 0.000000e+00 0.000000e+00
 0.000000e+00 0.000000e+00 8.141426e-01 1.858574e-01 0.000000e+00
 0.000000e+00 0.000000e+00 0.000000e+00 7.776011e-01 2.223989e-01
 0.000000e+00 0.000000e+00 0.000000e+00 0.000000e+00 0.000000e+00
~t "T_t"
<TRANSP> 5
 0.000000e+00 1.000000e+00 0.000000e+00 0.000000e+00 0.000000e+00
 0.000000e+00 5.646952e-01 4.353048e-01 0.000000e+00 0.000000e+00
 0.000000e+00 0.000000e+00 2.485767e-01 7.514233e-01 0.000000e+00
 0.000000e+00 0.000000e+00 0.000000e+00 3.934639e-01 6.065361e-01
 0.000000e+00 0.000000e+00 0.000000e+00 0.000000e+00 0.000000e+00
~t "T_v"
<TRANSP> 5
 0.000000e+00 1.000000e+00 0.000000e+00 0.000000e+00 0.000000e+00
 0.000000e+00 8.934227e-02 9.106577e-01 0.000000e+00 0.000000e+00
 0.000000e+00 0.000000e+00 3.194002e-03 9.968060e-01 0.000000e+00
 0.000000e+00 0.000000e+00 0.000000e+00 9.866898e-02 9.013310e-01
 0.000000e+00 0.000000e+00 0.000000e+00 0.000000e+00 0.000000e+00
~t "T_z"
<TRANSP> 5
 0.000000e+00 1.000000e+00 0.000000e+00 0.000000e+00 0.000000e+00
 0.000000e+00 8.377477e-01 1.622523e-01 0.000000e+00 0.000000e+00
 0.000000e+00 0.000000e+00 6.384838e-01 3.615162e-01 0.000000e+00
 0.000000e+00 0.000000e+00 0.000000e+00 3.766877e-01 6.233123e-01
 0.000000e+00 0.000000e+00 0.000000e+00 0.000000e+00 0.000000e+00
~t "T_aa"
<TRANSP> 5
 0.000000e+00 1.000000e+00 0.000000e+00 0.000000e+00 0.000000e+00
 0.000000e+00 5.624912e-01 4.375088e-01 0.000000e+00 0.000000e+00
 0.000000e+00 0.000000e+00 7.219029e-01 2.780971e-01 0.000000e+00
 0.000000e+00 0.000000e+00 0.000000e+00 7.555488e-01 2.444512e-01
 0.000000e+00 0.000000e+00 0.000000e+00 0.000000e+00 0.000000e+00
~t "T_ae"
<TRANSP> 5
 0.000000e+00 1.000000e+00 0.000000e+00 0.000000e+00 0.000000e+00
 0.000000e+00 7.301002e-01 2.698999e-01 0.000000e+00 0.000000e+00
 0.000000e+00 0.000000e+00 2.782180e-01 7.217820e-01 0.000000e+00
 0.000000e+00 0.000000e+00 0.000000e+00 1.120599e-01 8.879401e-01
 0.000000e+00 0.000000e+00 0.000000e+00 0.000000e+00 0.000000e+00
~t "T_ay"
<TRANSP> 5
 0.000000e+00 1.000000e+00 0.000000e+00 0.000000e+00 0.000000e+00
 0.000000e+00 7.238463e-01 2.761537e-01 0.000000e+00 0.000000e+00
 0.000000e+00 0.000000e+00 6.481839e-01 3.518161e-01 0.000000e+00
 0.000000e+00 0.000000e+00 0.000000e+00 5.740753e-01 4.259247e-01
 0.000000e+00 0.000000e+00 0.000000e+00 0.000000e+00 0.000000e+00
~t "T_ch"
<TRANSP> 5
 0.000000e+00 1.000000e+00 0.000000e+00 0.000000e+00 0.000000e+00
 0.000000e+00 8.220885e-01 1.779116e-01 0.000000e+00 0.000000e+00
 0.000000e+00 0.000000e+00 7.544433e-01 2.455567e-01 0.000000e+00
 0.000000e+00 0.000000e+00 0.000000e+00 7.963157e-01 2.036843e-01
 0.000000e+00 0.000000e+00 0.000000e+00 0.000000e+00 0.000000e+00
~t "T_ee"
<TRANSP> 5
 0.000000e+00 1.000000e+00 0.000000e+00 0.000000e+00 0.000000e+00
 0.000000e+00 5.748891e-01 4.251108e-01 0.000000e+00 0.000000e+00
 0.000000e+00 0.000000e+00 6.074508e-01 3.925492e-01 0.000000e+00
 0.000000e+00 0.000000e+00 0.000000e+00 5.413224e-01 4.586776e-01
 0.000000e+00 0.000000e+00 0.000000e+00 0.000000e+00 0.000000e+00
~t "T_ii"
<TRANSP> 5
 0.000000e+00 1.000000e+00 0.000000e+00 0.000000e+00 0.000000e+00
 0.000000e+00 9.069367e-02 9.093063e-01 0.000000e+00 0.000000e+00
 0.000000e+00 0.000000e+00 4.379160e-02 9.562084e-01 0.000000e+00
 0.000000e+00 0.000000e+00 0.000000e+00 2.435577e-01 7.564423e-01
 0.000000e+00 0.000000e+00 0.000000e+00 0.000000e+00 0.000000e+00
~t "T_ll"
<TRANSP> 5
 0.000000e+00 1.000000e+00 0.000000e+00 0.000000e+00 0.000000e+00
 0.000000e+00 3.244238e-01 6.755762e-01 0.000000e+00 0.000000e+00
 0.000000e+00 0.000000e+00 5.918196e-01 4.081804e-01 0.000000e+00
 0.000000e+00 0.000000e+00 0.000000e+00 7.885550e-01 2.114450e-01
 0.000000e+00 0.000000e+00 0.000000e+00 0.000000e+00 0.000000e+00
~t "T_mm"
<TRANSP> 5
 0.000000e+00 1.000000e+00 0.000000e+00 0.000000e+00 0.000000e+00
 0.000000e+00 6.484133e-01 3.515867e-01 0.000000e+00 0.000000e+00
 0.000000e+00 0.000000e+00 7.001845e-01 2.998155e-01 0.000000e+00
 0.000000e+00 0.000000e+00 0.000000e+00 6.363283e-01 3.636716e-01
 0.000000e+00 0.000000e+00 0.000000e+00 0.000000e+00 0.000000e+00
~t "T_nn"
<TRANSP> 5
 0.000000e+00 1.000000e+00 0.000000e+00 0.000000e+00 0.000000e+00
 0.000000e+00 5.836362e-01 4.163638e-01 0.000000e+00 0.000000e+00
 0.000000e+00 0.000000e+00 3.191847e-01 6.808153e-01 0.000000e+00
 0.000000e+00 0.000000e+00 0.000000e+00 7.420930e-01 2.579070e-01
 0.000000e+00 0.000000e+00 0.000000e+00 0.000000e+00 0.000000e+00
~t "T_oo"
<TRANSP> 5
 0.000000e+00 1.000000e+00 0.000000e+00 0.000000e+00 0.000000e+00
 0.000000e+00 5.094306e-01 4.905694e-01 0.000000e+00 0.000000e+00
 0.000000e+00 0.000000e+00 4.543776e-01 5.456225e-01 0.000000e+00
 0.000000e+00 0.000000e+00 0.000000e+00 4.740781e-01 5.259219e-01
 0.000000e+00 0.000000e+00 0.000000e+00 0.000000e+00 0.000000e+00
~t "T_rr"
<TRANSP> 5
 0.000000e+00 1.000000e+00 0.000000e+00 0.000000e+00 0.000000e+00
 0.000000e+00 8.226767e-01 1.773233e-01 0.000000e+00 0.000000e+00
 0.000000e+00 0.000000e+00 8.123190e-01 1.876810e-01 0.000000e+00
 0.000000e+00 0.000000e+00 0.000000e+00 6.034883e-01 3.965117e-01
 0.000000e+00 0.000000e+00 0.000000e+00 0.000000e+00 0.000000e+00
~t "T_ss"
<TRANSP> 5
 0.000000e+00 1.000000e+00 0.000000e+00 0.000000e+00 0.000000e+00
 0.000000e+00 1.492396e-01 8.507604e-01 0.000000e+00 0.000000e+00
 0.000000e+00 0.000000e+00 1.213067e-05 9.999878e-01 0.000000e+00
 0.000000e+00 0.000000e+00 0.000000e+00 8.061610e-02 9.193839e-01
 0.000000e+00 0.000000e+00 0.000000e+00 0.000000e+00 0.000000e+00
~t "T_tt"
<TRANSP> 5
 0.000000e+00 1.000000e+00 0.000000e+00 0.000000e+00 0.000000e+00
 0.000000e+00 6.400039e-01 3.599961e-01 0.000000e+00 0.000000e+00
 0.000000e+00 0.000000e+00 5.062372e-01 4.937628e-01 0.000000e+00
 0.000000e+00 0.000000e+00 0.000000e+00 6.141608e-01 3.858392e-01
 0.000000e+00 0.000000e+00 0.000000e+00 0.000000e+00 0.000000e+00
~t "T_ur"
<TRANSP> 5
 0.000000e+00 1.000000e+00 0.000000e+00 0.000000e+00 0.000000e+00
 0.000000e+00 6.229707e-01 3.770293e-01 0.000000e+00 0.000000e+00
 0.000000e+00 0.000000e+00 6.806527e-01 3.193473e-01 0.000000e+00
 0.000000e+00 0.000000e+00 0.000000e+00 6.025100e-01 3.974900e-01
 0.000000e+00 0.000000e+00 0.000000e+00 0.000000e+00 0.000000e+00
~t "T_yy"
<TRANSP> 5
 0.000000e+00 1.000000e+00 0.000000e+00 0.000000e+00 0.000000e+00
 0.000000e+00 4.097384e-01 5.902616e-01 0.000000e+00 0.000000e+00
 0.000000e+00 0.000000e+00 5.072431e-01 4.927569e-01 0.000000e+00
 0.000000e+00 0.000000e+00 0.000000e+00 5.752252e-01 4.247748e-01
 0.000000e+00 0.000000e+00 0.000000e+00 0.000000e+00 0.000000e+00
~s "ST_yy_4_1"
<MEAN> 25
 -3.345102e-02 1.497219e+00 -1.695758e-01 4.989514e+00 6.494407e+00 2.726756e+00 -1.035897e+00 -4.204950e+00 -5.239302e+00 -1.302598e+00 -1.440974e+00 -1.893880e+00 -1.521903e+00 -8.794010e-02 2.502355e-01 -1.893653e+00 -1.531193e+00 4.261166e-01 2.020014e+00 1.414501e+00 6.036415e-01 1.187229e+00 7.774497e-01 8.880766e-01 -8.387926e-01
<VARIANCE> 25
 1.356855e+00 2.069330e+00 8.625910e+00 4.525318e+00 4.115280e+00 5.294293e+00 7.705274e+00 8.182976e+00 7.864555e+00 5.242467e+00 7.663049e+00 1.190108e+01 1.489966e-01 6.253043e-01 9.326963e-01 6.843991e-01 7.915006e-01 6.341677e-01 9.100466e-01 7.631040e-01 6.339892e-01 7.044125e-01 1.250095e+00 9.786282e-01 2.929942e-01
<GCONST> 6.039304e+01
~s "ST_f_2_1"
<MEAN> 25
 8.152356e+00 1.941361e+00 -9.404285e+00 -8.047706e+00 -5.936043e+00 -7.230978e+00 -2.307345e+00 4.697572e+00 5.645793e+00 1.067941e+00 -4.048216e+00 -4.343902e-01 -1.860070e+00 1.094867e+00 1.197254e+00 -8.925912e-01 -5.535755e-01 1.448830e+00 1.779606e+00 -8.208622e-02 -5.739362e-01 1.066998e+00 1.411533e+00 1.077494e+00 -1.452522e+00
<VARIANCE> 25
 3.038918e+00 3.301619e+00 3.284363e+00 3.239311e+00 4.545250e+00 5.319485e+00 6.118927e+00 4.904503e+00 3.978868e+00 7.250443e+00 6.990290e+00 7.887805e+00 8.743620e-02 3.948795e-01 3.620532e-01 5.322295e-01 7.812862e-01 7.066994e-01 7.004552e-01 7.887619e-01 7.499470e-01 7.331443e-01 1.085766e+00 7.139995e-01 5.358481e-02
<GCONST> 5.459708e+01
~s "ST_f_3_1"
<MEAN> 25
 2.577800e+00 1.960162e+00 -6.882070e+00 -8.940833e+00 -6.672215e+00 -4.293242e+00 4.493833e-01 4.520383e+00 4.492486e+00 2.916199e+00 -3.423005e-01 3.270710e+00 -1.395624e+00 -2.017168e-01 5.796645e-01 6.947214e-01 4.635057e-01 9.157684e-01 8.222646e-01 -2.199028e-01 -4.671433e-01 3.017113e-01 8.752986e-01 1.031032e+00 -9.495462e-01
<VARIANCE> 25
 2.532942e+00 2.508685e+00 5.056480e+00 5.707237e+00 4.309090e+00 5.680223e+00 5.648148e+00 7.884611e+00 8.050453e+00 5.656417e+00 5.833199e+00 6.744253e+00 3.089787e-01 1.973194e-01 5.351335e-01 9.289834e-01 5.021057e-01 5.265744e-01 7.544745e-01 1.001556e+00 7.155547e-01 3.971893e-01 9.326333e-01 9.544590e-01 8.242518e-02
<GCONST> 5.666613e+01
~s "ST_f_4_1"
<MEAN> 25
 -1.182699e+00 7.754220e-01 -5.239708e+00 -4.514795e+00 -3.149549e+00 -1.760342e+00 1.632889e+00 2.876646e+00 2.883411e+00 3.442142e+00 2.264540e+00 5.538876e+00 -1.074660e+00 -9.643368e-01 1.185993e+00 5.641210e-01 4.139503e-01 3.956472e-01 2.001279e-01 -4.646715e-01 -2.462246e-01 -2.931313e-02 6.779979e-01 -4.236755e-01 1.151014e-01
<VARIANCE> 25
 2.268560e+00 1.581430e+00 3.215502e+00 5.451006e+00 3.970672e+00 4.658551e+00 9.448549e+00 5.669518e+00 4.279768e+00 4.034121e+00 7.987261e+00 8.728003e+00 1.745239e-01 3.833369e-01 9.039948e-01 9.548533e-01 8.648599e-01 4.202572e-01 6.666487e-01 1.044691e+00 8.501714e-01 6.803993e-01 7.780299e-01 1.082305e+00 3.560666e-01
<GCONST> 5.810242e+01
~s "ST_aa_2_1"
<MEAN> 25
 7.534296e+00 1.243811e+00 -6.259105e+00 -3.342006e+00 -3.707178e+00 -6.505663e+00 -4.842471e+00 4.341449e-01 3.616990e+00 -6.478218e-01 -4.687015e+00 -5.354791e-01 1.624833e+00 -6.329702e-01 -1.819801e+00 -9.349678e-01 -6.666008e-01 -1.333750e+00 -1.254448e+00 2.997428e-01 9.531021e-01 -2.004290e-01 -5.709376e-01 2.244166e-01 1.125799e+00
<VARIANCE> 25
 2.294229e+01 1.110964e+01 2.761501e+01 1.218977e+01 9.792959e+00 2.714912e+01 3.041677e+01 2.319291e+01 1.918727e+01 1.412466e+01 1.938048e+01 1.332650e+01 1.462622e+00 8.776661e-01 1.699546e+00 7.960447e-01 1.421796e+00 2.131780e+00 2.026663e+00 1.494773e+00 1.096295e+00 1.106153e+00 1.521774e+00 1.208155e+00 6.637698e-01
<GCONST> 8.376593e+01
~s "ST_aa_3_1"
<MEAN> 25
 1.039961e+01 1.328724e+00 -9.662282e+00 -6.434973e+00 -3.890659e+00 -6.003905e+00 -6.089224e+00 -7.943754e-01 3.317794e+00 -4.469125e-01 -4.319477e+00 4.580546e-02 -1.343915e-01 -5.782086e-01 1.449434e-02 3.907863e-01 8.425707e-01 1.025813e+00 -9.580858e-02 -1.165881e+00 -1.274810e+00 -3.650268e-01 6.366358e-01 1.007677e+00 1.262952e-01
<VARIANCE> 25
 6.436699e+00 1.033798e+01 1.122708e+01 5.707050e+00 9.777254e+00 2.116251e+01 2.108223e+01 1.244263e+01 1.341892e+01 1.054235e+01 8.910240e+00 1.386368e+01 1.014552e-01 5.307958e-01 8.863340e-01 7.973454e-01 9.851227e-01 6.087790e-01 6.421567e-01 6.178319e-01 9.315797e-01 7.620692e-01 8.062791e-01 9.110178e-01 1.092561e-01
<GCONST> 6.740561e+01
~s "ST_aa_3_2"
<MEAN> 25
 1.133756e+01 -1.270736e+00 -1.115757e+01 -6.328126e+00 -5.345171e+00 -8.500487e+00 -7.096127e+00 9.366114e-01 5.114287e+00 -1.308800e+00 -5.483689e+00 2.723316e-01 -2.649670e-02 2.754631e-01 1.261193e-01 -4.197685e-01 -3.020201e-01 3.341721e-01 3.470351e-01 3.810674e-02 -8.672349e-03 3.727913e-02 1.575925e-02 -1.882785e-01 -6.176372e-02
<VARIANCE> 25
 2.954651e+00 7.390961e+00 7.935715e+00 5.573639e+00 6.560560e+00 1.133147e+01 1.214783e+01 1.259108e+01 1.610972e+01 6.651190e+00 1.055536e+01 8.480259e+00 1.683798e-01 4.955659e-01 8.406861e-01 6.029079e-01 4.895940e-01 8.125057e-01 5.690903e-01 1.428381e+00 9.168890e-01 7.839566e-01 8.109735e-01 5.814999e-01 1.356825e-01
<GCONST> 6.395602e+01
~s "ST_aa_4_1"
<MEAN> 25
 7.773707e+00 8.134020e-01 -7.002323e+00 -4.064131e+00 -1.468669e+00 -3.168755e+00 -4.754921e+00 -3.057869e+00 -9.338059e-01 -6.890007e-01 -1.845614e+00 1.324239e+00 -1.340397e+00 3.257163e-01 1.654485e+00 4.743560e-03 -4.629919e-01 8.976074e-01 1.201680e+00 -2.361091e-01 -1.022926e+00 3.928333e-01 8.699040e-01 -7.273741e-02 -7.903684e-01
<VARIANCE> 25
 1.031634e+01 1.174138e+01 1.864083e+01 8.131769e+00 1.551751e+01 2.373184e+01 3.094771e+01 3.285001e+01 2.930935e+01 7.937462e+00 1.666283e+01 1.548213e+01 3.437538e-01 9.140573e-01 1.139676e+00 1.123021e+00 1.201618e+00 9.699726e-01 1.975273e+00 1.043074e+00 1.183606e+00 8.347365e-01 1.130888e+00 1.249485e+00 2.522288e-01
<GCONST> 7.852169e+01
~s "ST_aa_4_2"
<MEAN> 25
 6.596390e+00 3.462477e+00 -6.367637e+00 -7.257702e+00 -6.180624e+00 -3.588817e+00 -1.469818e+00 -4.282951e-01 3.243953e-01 -1.534669e+00 -3.449020e+00 1.706907e+00 -1.362328e+00 4.408819e-01 7.672139e-01 3.380640e-01 3.570023e-01 7.517445e-01 1.256195e+00 2.940381e-01 -7.534635e-01 2.712778e-01 9.749760e-01 4.784432e-01 -1.049700e+00
<VARIANCE> 25
 1.284569e+01 4.164263e+00 5.481766e+00 5.392178e+00 5.654819e+00 6.386070e+00 1.603418e+01 9.010540e+00 1.068398e+01 9.153381e+00 1.564786e+01 9.918270e+00 1.636485e-01 1.005361e+00 4.923518e-01 7.867699e-01 7.112080e-01 8.335257e-01 1.351212e+00 1.074682e+00 1.184405e+00 7.998962e-01 8.751467e-01 7.074530e-01 2.529479e-01
<GCONST> 6.668920e+01
~s "ST_s_2_1"
<MEAN> 25
 -4.321300e+00 -4.084565e+00 1.054997e+01 -1.033558e+00 -3.836384e+00 3.351031e+00 4.224185e+00 -1.315643e+00 -4.198255e+00 -1.594154e+00 3.932074e+00 -4.714912e+00 -2.344706e+00 -1.075541e+00 2.228658e+00 -1.728326e+00 -1.258857e+00 1.134689e+00 1.693668e+00 2.833937e-01 -3.980451e-02 5.668749e-01 1.976032e+00 -1.450930e-02 8.969574e-02
<VARIANCE> 25
 1.680312e+01 8.147774e+00 2.873569e+01 2.144536e+01 2.418686e+01 1.512849e+01 1.470750e+01 2.859360e+01 1.516171e+01 1.443009e+01 2.478007e+01 3.094394e+01 2.254092e+00 1.447657e+00 4.719932e+00 2.130067e+00 1.797717e+00 1.345196e+00 2.820891e+00 1.207214e+00 2.039296e+00 1.053098e+00 3.360153e+00 1.643620e+00 3.158203e-01
<GCONST> 8.818384e+01
~s "ST_s_3_1"
<MEAN> 25
 -9.826714e+00 -5.254379e+00 1.267904e+01 -6.069969e+00 -4.178786e+00 5.841557e+00 6.095441e+00 6.991460e-01 -1.744975e+00 1.006022e+00 7.991568e+00 -2.590992e+00 -1.076988e-02 1.948552e-01 -8.617785e-01 9.325367e-02 3.995742e-01 2.919418e-02 -2.478214e-02 3.417739e-01 3.785496e-01 4.946019e-01 -2.727729e-02 6.728488e-01 -4.753557e-01
<VARIANCE> 25
 3.953354e+00 8.400778e+00 1.567180e+01 9.584801e+00 1.888163e+01 1.417783e+01 1.226607e+01 1.256740e+01 1.666046e+01 1.309617e+01 1.260246e+01 1.533694e+01 7.769116e-01 7.035021e-01 1.664768e+00 1.464232e+00 1.209997e+00 1.108607e+00 9.136624e-01 9.436789e-01 1.125146e+00 9.687233e-01 1.368686e+00 1.103801e+00 2.307116e-01
<GCONST> 7.520372e+01
~s "ST_s_4_1"
<MEAN> 25
 -5.642803e+00 -3.349759e+00 4.786526e+00 -1.849294e+00 -2.228921e+00 3.964088e+00 4.490530e+00 2.033844e+00 -1.715211e-01 2.131848e+00 5.534000e+00 1.962461e+00 1.799497e+00 1.481626e+00 -1.663846e+00 9.618583e-01 7.026828e-01 -6.871367e-01 -9.076880e-01 -8.847370e-01 -4.014417e-01 -3.997279e-01 -2.088534e+00 -6.632095e-02 -2.921407e-01
<VARIANCE> 25
 7.761271e+00 1.218936e+01 1.471352e+01 1.079523e+01 1.106565e+01 8.894958e+00 1.057509e+01 1.427346e+01 1.306274e+01 1.041187e+01 1.521892e+01 1.365225e+01 2.651737e+00 8.717313e-01 8.389761e-01 1.132225e+00 6.608490e-01 1.401466e+00 1.570617e+00 1.190126e+00 2.374648e+00 2.898803e+00 3.535233e+00 1.900785e+00 3.737813e-01
<GCONST> 7.960538e+01
~s "ST_s_4_2"
<MEAN> 25
 -5.052333e+00 -9.197686e-01 3.910061e-01 -1.685285e+00 -3.298539e-01 3.890950e+00 4.735568e+00 2.358017e+00 6.227051e-01 3.365847e+00 3.908227e+00 3.915174e+00 4.202269e-01 2.579187e-01 -1.145092e+00 2.715657e-01 1.992072e-01 -1.576009e-01 -1.910784e-01 1.677747e-01 4.405126e-01 2.599425e-01 -1.377636e-01 7.031852e-01 -4.512221e-01
<VARIANCE> 25
 1.907480e+00 2.203643e+00 1.024701e+01 4.040958e+00 4.783585e+00 5.386015e+00 6.152809e+00 7.373829e+00 8.613365e+00 8.431922e+00 7.343186e+00 8.724135e+00 3.331544e-01 3.149390e-01 1.048204e+00 4.805023e-01 5.901380e-01 6.238056e-01 5.108771e-01 7.628021e-01 1.158516e+00 9.331601e-01 7.434765e-01 1.091200e+00 2.694725e-01
<GCONST> 6.029080e+01
~s "ST_ur_2_1"
<MEAN> 25
 5.117757e+00 3.567050e+00 3.100195e+00 2.688459e+00 -3.354278e+00 -6.318421e+00 -4.497560e+00 5.566547e+00 3.215148e+00 -1.021443e+01 -1.109199e+01 -3.815747e+00 -1.832934e+00 -1.788142e+00 2.625685e+00 -2.021466e-01 -5.569560e-01 1.450480e+00 1.058463e+00 1.195925e+00 6.277663e-01 -1.164517e+00 2.609484e+00 4.861023e-01 3.672769e-01
<VARIANCE> 25
 1.008116e+01 5.393800e+00 1.080942e+01 5.141039e+00 2.059767e+00 1.762426e+01 1.178306e+01 9.367994e+00 7.225478e+00 1.399527e+01 1.896369e+01 1.235521e+01 1.410563e+00 1.187704e+00 1.355020e+00 9.444208e-01 4.130418e-01 1.320721e+00 2.863689e+00 4.614642e-01 2.306715e+00 1.002843e+00 6.013649e+00 2.567748e+00 7.626961e-02
<GCONST> 7.376689e+01
~s "ST_i_2_1"
<MEAN> 25
 2.777757e+00 1.666809e-01 1.282495e+00 3.735152e+00 3.402809e+00 1.702924e+00 -1.939267e+00 -5.044147e+00 -5.994138e+00 -3.269462e+00 -1.426025e+00 -1.771455e+00 -1.301891e+00 -8.722018e-02 9.666998e-01 -1.014328e+00 -9.097223e-01 1.093417e+00 1.929168e+00 7.094032e-01 -2.997740e-01 8.021018e-02 1.494659e+00 5.681207e-01 -4.727309e-01
<VARIANCE> 25
 2.003581e+01 1.660503e+01 3.102577e+01 7.507908e+00 1.479088e+01 9.972941e+00 2.036564e+01 9.794889e+00 1.858981e+01 2.080201e+01 3.284097e+01 9.613111e+00 7.509924e-01 1.348101e+00 1.188155e+00 9.003805e-01 7.509149e-01 6.099780e-01 1.142287e+00 6.944239e-01 1.448508e+00 1.517186e+00 2.704276e+00 6.883744e-01 2.661770e-01
<GCONST> 7.835958e+01
~s "ST_ur_3_1"
<MEAN> 25
 -4.662302e+00 -3.753760e+00 1.295543e+01 9.567378e-02 -5.688468e+00 -2.295955e+00 2.517551e+00 7.569046e+00 7.707459e-01 -1.286421e+01 3.593134e+00 -1.626312e+00 -2.574723e+00 -1.663194e+00 1.457090e+00 -1.110671e+00 -3.046648e-01 5.483952e-01 2.128118e+00 2.116907e-01 -1.125823e+00 6.732132e-02 3.786889e+00 8.027105e-01 1.132748e-01
<VARIANCE> 25
 9.375105e+00 1.185933e+01 4.626465e+00 1.487105e+01 4.932877e+00 8.505609e+00 1.344518e+01 9.016747e+00 1.839798e+01 1.393733e+01 2.218543e+01 4.064821e+01 1.014264e+00 1.172908e+00 1.808922e+00 8.334162e-01 5.319763e-01 1.079630e+00 1.555983e+00 1.270594e+00 1.165507e+00 2.054395e+00 1.823210e+00 1.049853e+00 1.089828e-01
<GCONST> 7.579189e+01
~s "ST_i_3_1"
<MEAN> 25
 -3.958591e+00 -4.590666e+00 8.976593e+00 7.247425e-01 -1.802535e+00 3.663460e+00 3.277912e+00 -2.210955e+00 -7.480586e+00 -6.084067e+00 5.860928e+00 -1.657848e+00 -2.249481e+00 -1.424753e+00 1.792605e+00 -1.247071e+00 -1.512725e+00 4.300602e-01 1.995728e+00 1.270452e+00 9.439146e-01 2.943425e-01 2.065786e+00 -2.092126e-02 7.117309e-02
<VARIANCE> 25
 1.797292e+01 2.219148e+01 3.266530e+01 7.469999e+00 1.907445e+01 6.540904e+00 1.549374e+01 8.914562e+00 1.640637e+01 1.506711e+01 2.119720e+01 1.374261e+01 1.059918e+00 1.726741e+00 2.224145e+00 1.259122e+00 1.215402e+00 6.610210e-01 7.969096e-01 9.897839e-01 1.309198e+00 1.367588e+00 2.328135e+00 7.751009e-01 1.658403e-01
<GCONST> 7.892588e+01
~s "ST_ur_4_1"
<MEAN> 25
 -8.150129e+00 -7.220071e+00 1.112179e+01 -3.532068e-01 -3.781114e+00 -4.325063e-01 5.053019e+00 9.112947e+00 4.183396e-01 -9.830185e+00 9.470726e+00 2.525279e+00 -1.442353e-01 1.740435e-01 -1.373929e+00 -1.443882e-01 9.950615e-01 6.394758e-01 2.863450e-01 1.836672e-02 3.229121e-02 1.747056e+00 3.540120e-01 2.107784e-01 -5.991476e-01
<VARIANCE> 25
 1.984497e+00 5.560825e+00 1.316070e+01 1.415610e+01 7.584545e+00 8.819422e+00 1.388363e+01 1.825330e+01 1.496180e+01 1.093544e+01 1.933151e+01 2.479519e+01 6.482958e-01 7.167097e-01 1.299065e+00 6.162409e-01 1.051794e+00 5.773270e-01 8.612143e-01 1.680884e+00 9.259777e-01 1.071498e+00 2.163827e+00 9.816066e-01 1.348474e-01
<GCONST> 7.220739e+01
~s "ST_i_4_1"
<MEAN> 25
 -8.944386e+00 -8.719848e+00 1.052964e+01 -5.747842e-01 -5.407411e+00 2.624726e+00 7.176123e+00 2.919173e+00 -1.908092e+00 -2.075409e+00 1.119934e+01 5.546580e-01 -5.011573e-02 -1.684109e-01 -5.764347e-01 1.108221e-01 -8.667880e-02 -3.031716e-01 -7.327472e-02 7.248658e-01 6.491516e-01 4.012337e-01 1.132897e-01 5.702133e-01 -2.910141e-01
<VARIANCE> 25
 9.473785e+00 1.992558e+01 1.834669e+01 6.135552e+00 1.327240e+01 7.001749e+00 1.092469e+01 1.273579e+01 1.091779e+01 1.323817e+01 2.373679e+01 1.663750e+01 3.645791e-01 4.071043e-01 6.935732e-01 8.040483e-01 6.160271e-01 6.403137e-01 9.809586e-01 7.623320e-01 1.013768e+00 8.916429e-01 1.018812e+00 6.890289e-01 4.340922e-02
<GCONST> 6.902599e+01
~s "ST_v_2_1"
<MEAN> 25
 1.139205e+00 1.613792e+00 -3.030856e+00 -1.489175e+00 -4.011147e-01 -2.625628e-01 5.541469e-01 2.079442e+00 1.549085e+00 1.007202e+00 -2.301412e-01 1.515391e+00 8.103180e-03 1.936708e-01 2.586239e-01 2.799560e-01 5.076296e-01 2.072026e-01 -2.776715e-01 -5.439165e-01 -5.247566e-01 -3.242309e-01 -2.238989e-01 -1.191888e-01 -4.168852e-02
<VARIANCE> 25
 3.632100e+01 1.112576e+01 1.623639e+01 9.008923e+00 1.664101e+01 3.068907e+01 3.113997e+01 1.212269e+01 2.173680e+01 1.792516e+01 2.422195e+01 2.932918e+01 3.267865e-01 3.339223e-01 3.224660e-01 3.568739e-01 6.397074e-01 6.566470e-01 5.006940e-01 7.447523e-01 1.177932e+00 5.813808e-01 1.158717e+00 8.699366e-01 6.470374e-02
<GCONST> 7.229468e+01
~s "ST_v_3_1"
<MEAN> 25
 8.254941e-01 1.818311e+00 -2.506220e+00 -1.139587e+00 1.006807e-01 -1.922717e-01 -4.117906e-02 1.348925e+00 1.028828e+00 1.059155e+00 1.987043e-01 1.615265e+00 1.319492e-01 3.376132e-01 4.967235e-01 4.957337e-01 4.975137e-01 2.484937e-01 -1.195993e-01 -7.324948e-01 -6.581585e-01 -2.277685e-01 -2.231458e-01 -3.421087e-01 5.127224e-02
<VARIANCE> 25
 3.338382e+01 1.095135e+01 1.320578e+01 7.975973e+00 1.708019e+01 3.485830e+01 3.382685e+01 1.107170e+01 1.836793e+01 2.122940e+01 2.333261e+01 2.728783e+01 7.398849e-01 5.215009e-01 5.288127e-01 4.408643e-01 4.157380e-01 7.176422e-01 1.981857e+00 1.025663e+00 1.271681e+00 5.071150e-01 1.248036e+00 9.054928e-01 2.774206e-01
<GCONST> 7.673553e+01
~s "ST_v_4_1"
<MEAN> 25
 1.399244e+00 2.781119e+00 -1.767775e+00 -6.522136e-01 3.393034e-01 -2.478963e-01 -2.689606e-01 9.786156e-02 -1.050247e-02 4.773751e-01 -3.005056e-01 1.003250e+00 4.789894e-01 3.412307e-01 4.527664e-01 6.650337e-01 6.174534e-01 1.480786e-01 -5.119990e-01 -1.013143e+00 -6.679114e-01 -2.774455e-01 -4.246730e-01 -7.780626e-01 2.957408e-01
<VARIANCE> 25
 2.730608e+01 8.698689e+00 1.187021e+01 8.377069e+00 1.676756e+01 3.787238e+01 2.560285e+01 1.224429e+01 2.406438e+01 1.940007e+01 2.056282e+01 2.953692e+01 1.237685e+00 1.431262e+00 1.340878e+00 6.897757e-01 1.088321e+00 8.027973e-01 4.172450e+00 1.607274e+00 1.149705e+00 7.539899e-01 1.777381e+00 1.882761e+00 7.379151e-01
<GCONST> 8.379616e+01
~s "ST_b_2_1"
<MEAN> 25
 1.905321e+00 6.550176e+00 2.413452e+00 3.017884e+00 2.353897e+00 1.585834e+00 1.309024e+00 -4.607224e-01 -2.603628e+00 -3.707200e+00 -6.078741e+00 -3.224360e+00 9.535989e-01 1.709986e-01 -2.481385e-01 -7.131100e-01 -8.918149e-01 -1.127673e+00 -9.858177e-01 4.740722e-02 9.537893e-02 -1.024236e+00 -1.297162e+00 -1.205144e+00 6.871246e-01
<VARIANCE> 25
 3.339509e+00 2.236488e+00 3.133710e+00 7.058743e+00 1.102254e+01 8.794296e+00 6.845551e+00 7.539117e+00 8.413546e+00 8.391266e+00 7.651505e+00 8.010733e+00 2.697272e-01 4.154457e-01 4.474955e-01 7.885118e-01 1.002884e+00 5.556750e-01 1.235196e+00 1.246804e+00 1.228668e+00 1.538272e+00 1.226342e+00 9.900831e-01 1.551657e-01
<GCONST> 6.352867e+01
~s "ST_b_3_1"
<MEAN> 25
 5.290732e+00 6.183050e+00 7.170415e-01 2.118122e+00 2.205951e+00 -1.467295e+00 -3.058667e+00 -1.388204e+00 -3.497578e+00 -8.697735e+00 -1.081588e+01 -6.216005e+00 1.017767e+00 -1.141363e+00 -9.582816e-01 8.664106e-01 2.039222e+00 -6.468033e-02 -2.855011e+00 -1.246656e+00 -7.688854e-01 -1.493693e+00 -1.582905e-01 2.809593e-01 8.868640e-01
<VARIANCE> 25
 1.837227e+00 2.313053e+00 3.061701e+00 6.187245e+00 8.786406e+00 3.533351e+00 6.810285e+00 6.560946e+00 8.350506e+00 5.613091e+00 5.160080e+00 6.800522e+00 2.396203e-01 4.048576e-01 2.878956e-01 4.399025e-01 5.910869e-01 5.784797e-01 6.878681e-01 7.874591e-01 5.862333e-01 1.064220e+00 1.083108e+00 8.863157e-01 1.453547e-01
<GCONST> 5.644886e+01
~s "ST_b_4_1"
<MEAN> 25
 6.655371e+00 2.778253e+00 -1.433569e+00 4.414284e+00 7.613533e+00 -7.994020e-02 -9.588648e+00 -4.101722e+00 -5.214640e+00 -1.064159e+01 -7.817540e+00 -3.450313e+00 2.152423e-01 -1.830920e+00 -9.214662e-01 1.722308e+00 2.703746e+00 3.975515e-01 -2.803255e+00 -1.594458e+00 -3.778142e-01 1.701022e-01 1.762551e+00 8.122028e-01 5.641500e-01
<VARIANCE> 25
 1.074200e+00 3.687258e+00 2.629470e+00 4.007301e+00 8.545666e+00 3.806773e+00 9.694611e+00 7.877840e+00 5.517054e+00 5.875916e+00 5.484150e+00 5.844472e+00 1.235557e-01 2.066789e-01 1.837815e-01 2.986004e-01 3.689070e-01 4.626403e-01 5.798788e-01 8.583128e-01 4.334217e-01 7.854445e-01 5.841148e-01 5.294521e-01 7.841912e-02
<GCONST> 5.060932e+01
~s "ST_ll_2_1"
<MEAN> 25
 8.886084e+00 -3.009212e+00 -3.495753e+00 4.076193e+00 6.789084e+00 -2.498395e+00 -1.048031e+01 -6.317119e+00 -7.206962e+00 -5.136649e+00 -1.829478e+00 -3.306960e+00 -2.531868e+00 -1.755812e+00 3.386820e+00 -9.448383e-01 -1.710972e+00 3.207100e+00 2.334777e+00 -2.330860e+00 -1.277797e+00 1.244517e+00 2.546959e+00 -6.358316e-01 1.360656e-01
<VARIANCE> 25
 3.579849e+00 7.514744e+00 6.969587e+00 6.166908e+00 1.041506e+01 1.001451e+01 1.697909e+01 9.948170e+00 1.429847e+01 1.230660e+01 9.684104e+00 1.101338e+01 8.377948e-01 8.464046e-01 1.340397e+00 1.048994e+00 1.675726e+00 6.410961e-01 1.677589e+00 6.975269e-01 1.114951e+00 5.386733e-01 7.304811e-01 8.129832e-01 1.859009e-01
<GCONST> 7.012882e+01
~s "ST_ll_3_1"
<MEAN> 25
 -4.661370e-01 -5.547250e+00 9.014065e+00 -1.422132e+00 -2.027230e+00 4.590924e+00 -9.795991e-01 -1.119008e+01 -9.102460e+00 -2.531823e+00 3.201453e+00 -5.551475e+00 -4.244998e+00 -1.156717e+00 4.600523e+00 -2.652126e+00 -2.730119e+00 1.867825e+00 2.784336e+00 -6.974447e-01 1.362705e-01 4.003522e-01 2.266776e+00 -5.290450e-01 1.306269e-01
<VARIANCE> 25
 1.905529e+01 4.986176e+00 2.091009e+01 1.451119e+01 1.247562e+01 7.021473e+00 1.441305e+01 8.617432e+00 1.084591e+01 8.737875e+00 1.471034e+01 1.180645e+01 2.518673e-01 6.889722e-01 1.242588e+00 8.846684e-01 1.061619e+00 1.372885e+00 1.374995e+00 1.682946e+00 1.121296e+00 8.885176e-01 9.851179e-01 1.303100e+00 9.749483e-02
<GCONST> 7.269645e+01
~s "ST_ll_4_1"
<MEAN> 25
 -1.008529e+01 -6.063214e+00 1.692156e+01 -8.758698e+00 -3.709923e+00 8.120096e+00 1.642148e+00 -7.524568e+00 -4.878716e+00 -2.679142e+00 7.332729e+00 -5.508279e+00 -1.385653e+00 1.052669e-01 8.551880e-01 -1.015411e+00 1.259715e-01 7.842002e-01 3.984683e-01 1.319823e+00 1.291211e+00 1.494471e-01 4.978134e-01 1.315734e-01 -3.939905e-01
<VARIANCE> 25
 4.421066e+00 4.994514e+00 6.985901e+00 9.165939e+00 1.211102e+01 1.013900e+01 9.110634e+00 1.170280e+01 1.079131e+01 8.565186e+00 1.164733e+01 9.368124e+00 8.584825e-01 3.276961e-01 1.144803e+00 1.716780e+00 6.309157e-01 8.339248e-01 6.570289e-01 6.940181e-01 7.937703e-01 8.364673e-01 8.462411e-01 6.865299e-01 5.474764e-02
<GCONST> 6.602198e+01
~s "ST_r_2_1"
<MEAN> 25
 6.177000e+00 1.545343e+00 -7.063000e+00 -4.028270e+00 -1.077075e+00 -3.002522e+00 -6.116321e+00 -3.966078e+00 1.250257e+00 2.524416e+00 -4.505724e+00 -4.815088e+00 5.307646e-01 3.430299e-01 -7.670976e-01 2.530333e-01 7.180709e-01 1.965689e-01 -2.997400e-01 1.867622e-01 4.733658e-01 2.491823e-01 -5.519096e-01 -3.981786e-01 -6.413267e-02
<VARIANCE> 25
 8.138134e+00 7.012653e+00 8.009933e+00 1.119608e+01 5.788340e+00 3.339523e+00 7.753971e+00 4.750241e+00 7.590886e+00 6.560063e+00 1.036116e+01 7.830082e+00 1.403124e+00 1.054498e+00 1.164742e+00 2.193552e+00 2.045673e+00 4.378242e-01 2.931705e+00 1.091851e+00 8.650380e-01 1.575541e+00 2.035545e+00 1.065577e+00 2.674315e-01
<GCONST> 7.150755e+01
~s "ST_r_3_1"
<MEAN> 25
 4.002882e+00 7.081798e-01 -5.019839e+00 -1.092827e+00 1.346877e+00 -1.294676e+00 -4.263060e+00 -2.716303e+00 2.530188e-01 1.975507e+00 -3.068320e+00 -4.067001e+00 -1.753457e-01 2.406455e-01 -1.258444e-01 4.455500e-01 7.135018e-01 1.293355e-01 1.628830e-01 6.291220e-01 6.067460e-01 -3.808992e-02 -4.158401e-01 2.077473e-01 -3.339254e-01
<VARIANCE> 25
 6.300621e+00 9.062728e+00 8.138704e+00 2.084024e+01 1.150614e+01 3.045384e+00 9.448059e+00 5.460124e+00 9.158672e+00 8.837248e+00 1.322094e+01 1.195692e+01 1.997584e+00 1.029847e+00 1.130150e+00 1.032277e+00 1.813229e+00 5.892330e-01 3.320163e+00 1.110341e+00 1.046740e+00 6.849962e-01 3.544723e+00 1.454555e+00 4.345746e-01
<GCONST> 7.480228e+01
~s "ST_r_4_1"
<MEAN> 25
 3.932502e+00 7.348034e-01 -5.417803e+00 -7.135216e-01 1.255060e+00 -2.198072e+00 -4.098423e+00 -1.755898e+00 1.809414e+00 2.452620e+00 -3.893102e+00 -3.662207e+00 -1.116407e-01 4.090127e-01 -4.841894e-05 -4.637192e-02 -4.032502e-02 -1.052324e-01 3.150516e-01 5.040082e-01 3.887606e-01 -3.683140e-01 -4.882383e-01 4.211311e-01 -2.373074e-01
<VARIANCE> 25
 4.486932e+00 6.267073e+00 6.061163e+00 1.546333e+01 8.559412e+00 5.133707e+00 1.841585e+01 6.484452e+00 3.883482e+00 1.212338e+01 3.137017e+01 1.681152e+01 1.668677e+00 6.767790e-01 7.799558e-01 7.665557e-01 1.054841e+00 3.875788e-01 2.040831e+00 4.688174e-01 8.241139e-01 7.970799e-01 2.318596e+00 1.974300e+00 3.811642e-01
<GCONST> 7.131407e+01
~s "ST_h_2_1"
<MEAN> 25
 2.595235e-01 4.262154e+00 -1.045543e+00 -1.888166e+00 -2.087623e+00 -1.189788e+00 1.692081e+00 3.036552e+00 2.759446e+00 2.365689e+00 -7.083650e-01 -2.149021e-01 1.999007e+00 1.957781e+00 1.113909e+00 9.711149e-02 -1.361096e+00 -2.599779e+00 -2.350683e+00 -1.392882e+00 -4.840633e-01 -5.048268e-01 -1.125767e+00 -1.590362e+00 9.210547e-01
<VARIANCE> 25
 1.085710e+01 1.245161e+01 8.319665e+00 6.329195e+00 8.053480e+00 2.052111e+01 1.703092e+01 8.841923e+00 6.399266e+00 5.420327e+00 8.107967e+00 1.111615e+01 3.112516e-01 2.534051e-01 5.094440e-01 8.936834e-01 1.051355e+00 1.003229e+00 9.460878e-01 1.174637e+00 1.037907e+00 6.297750e-01 8.812784e-01 9.945877e-01 1.524669e-01
<GCONST> 6.738136e+01
~s "ST_h_3_1"
<MEAN> 25
 8.116376e+00 7.705623e+00 -2.498155e+00 -5.110890e+00 -9.338679e+00 -1.122856e+01 -5.987106e+00 2.191463e+00 6.143881e+00 2.094159e+00 -5.822442e+00 -6.148332e+00 1.140647e+00 -5.097732e-01 -1.485071e+00 -1.064470e+00 -7.132363e-01 -8.216782e-01 -6.068815e-01 4.459839e-01 1.362614e+00 -4.006774e-02 -9.905753e-01 -4.526578e-01 8.922780e-01
<VARIANCE> 25
 4.426765e+00 2.616287e+00 7.584015e+00 4.766605e+00 3.310501e+00 5.836838e+00 6.154537e+00 7.211465e+00 1.234124e+01 5.268765e+00 8.449585e+00 6.107506e+00 4.706415e-01 4.892918e-01 6.410177e-01 3.859135e-01 8.540739e-01 2.343131e+00 1.193230e+00 6.441637e-01 8.225256e-01 3.903899e-01 1.037656e+00 7.585884e-01 1.775538e-01
<GCONST> 6.131808e+01
~s "ST_h_4_1"
<MEAN> 25
 1.087419e+01 2.316988e+00 -1.008868e+01 -8.396492e+00 -6.485594e+00 -7.761562e+00 -5.753699e+00 9.733983e-01 7.145986e+00 1.026029e+00 -6.446358e+00 -3.587363e+00 1.306180e-01 -1.464934e+00 -9.296288e-01 3.179685e-01 1.881982e+00 1.696158e+00 -3.825611e-01 -1.214541e+00 -1.593717e+00 -5.693163e-01 1.020118e+00 1.445820e+00 4.728990e-01
<VARIANCE> 25
 3.479614e+00 7.143098e+00 5.662910e+00 7.405586e+00 1.180801e+01 2.148083e+01 1.090981e+01 1.043272e+01 8.083939e+00 8.856321e+00 1.117270e+01 9.012598e+00 1.068680e-01 1.725974e-01 7.098781e-01 1.055291e+00 5.717170e-01 1.065436e+00 1.058476e+00 4.955997e-01 1.146330e+00 1.225111e+00 9.761149e-01 3.196135e-01 5.285348e-02
<GCONST> 6.286170e+01
~s "ST_mm_2_1"
<MEAN> 25
 7.549759e+00 -4.381457e-01 -6.176399e+00 3.610334e+00 7.476580e+00 -3.345425e+00 -7.696106e+00 -5.467412e-01 1.795138e+00 -3.238831e-01 -1.411836e+00 1.462485e-01 4.091174e-01 -1.192793e+00 -1.353842e+00 -9.028797e-01 -5.938233e-01 -1.179587e+00 -9.886863e-01 5.508898e-01 6.739293e-01 6.067302e-01 1.569398e+00 1.330648e+00 6.630127e-01
<VARIANCE> 25
 2.898354e+00 9.661610e+00 5.077637e+00 6.517528e+00 4.370079e+00 9.231768e+00 1.279802e+01 5.779953e+00 7.483706e+00 6.896643e+00 9.010722e+00 8.445864e+00 1.209999e-01 6.982471e-01 7.184213e-01 4.004179e-01 4.860958e-01 6.113993e-01 1.403518e+00 6.010345e-01 1.421006e+00 9.538065e-01 7.529874e-01 1.608299e+00 1.601478e-01
<GCONST> 6.261886e+01
~s "ST_mm_3_1"
<MEAN> 25
 7.972760e+00 2.921195e-01 -6.872147e+00 -5.907892e-01 3.204097e+00 -3.207094e+00 -5.299143e+00 5.682331e-02 1.110623e+00 2.168806e-01 3.790390e-01 1.282362e+00 -4.671066e-01 7.962255e-01 2.940379e-01 -1.213725e+00 -1.409862e+00 7.676393e-01 1.415016e+00 -3.214302e-03 -2.676195e-01 4.423645e-01 3.154713e-01 3.293479e-01 -6.243975e-01
<VARIANCE> 25
 3.234325e+00 6.501655e+00 7.503296e+00 6.197541e+00 7.958582e+00 6.735899e+00 9.629347e+00 8.612524e+00 1.331562e+01 7.760181e+00 4.524950e+00 8.774114e+00 4.258989e-01 6.021230e-01 5.808205e-01 5.830581e-01 3.179092e-01 5.875360e-01 9.840288e-01 6.327429e-01 9.328179e-01 5.383369e-01 6.091148e-01 1.003413e+00 3.263336e-01
<GCONST> 6.265518e+01
~s "ST_mm_4_1"
<MEAN> 25
 3.850735e+00 2.567076e+00 -4.973387e+00 -2.941976e+00 -8.831686e-02 5.767753e-01 8.434551e-01 4.747613e-01 2.837218e-01 1.786087e+00 1.707184e+00 2.855797e+00 -1.364805e+00 1.689199e-01 8.076392e-01 -9.597495e-02 -5.124272e-01 6.424800e-01 1.213774e+00 2.171009e-01 -3.720669e-01 -1.288035e-02 4.475194e-01 4.549406e-01 -9.599379e-01
<VARIANCE> 25
 4.894333e+00 5.603566e+00 3.731171e+00 5.332560e+00 5.314179e+00 3.635337e+00 8.839798e+00 9.719709e+00 7.079607e+00 6.906498e+00 1.096486e+01 1.272784e+01 1.912131e-01 4.432052e-01 4.732786e-01 4.287282e-01 4.496297e-01 4.620672e-01 7.202809e-01 8.186991e-01 6.028486e-01 4.378473e-01 4.946806e-01 6.969436e-01 1.158502e-01
<GCONST> 5.777670e+01
~s "ST_a_2_1"
<MEAN> 25
 3.945095e+00 1.454339e+00 -3.046621e+00 -1.026768e-01 8.649476e-01 -6.893533e-01 -2.238200e+00 -1.699667e+00 -8.862920e-01 -1.334986e+00 -2.725841e+00 1.346969e-02 4.612775e-01 9.815750e-01 -5.742607e-02 -1.060804e-02 1.496994e-01 2.771385e-01 6.324677e-01 1.512102e-01 -4.116698e-01 -5.925896e-01 -8.004680e-01 -3.250152e-01 -1.120612e-01
<VARIANCE> 25
 1.416730e+01 8.254425e+00 1.418001e+01 1.364497e+01 1.270949e+01 1.276878e+01 2.975303e+01 1.664462e+01 1.550399e+01 2.475595e+01 3.106135e+01 1.776832e+01 2.262727e+00 9.832115e-01 2.007698e+00 1.271030e+00 1.160848e+00 1.900840e+00 2.522241e+00 9.060237e-01 1.069862e+00 2.007209e+00 3.720360e+00 2.273744e+00 5.526652e-01
<GCONST> 8.519263e+01
~s "ST_a_2_2"
<MEAN> 25
 8.382354e+00 3.501655e+00 -5.052207e+00 -3.312182e+00 -3.916378e+00 -6.708389e+00 -4.633761e+00 -9.301558e-01 -1.293721e-01 -3.537566e+00 -6.766752e+00 -3.248331e+00 -5.269565e-01 5.951020e-01 5.011660e-01 -1.826165e-01 1.390557e-01 1.246217e+00 1.235931e+00 1.409074e-01 -5.043978e-01 1.011265e-01 5.111750e-01 1.003855e-01 -5.451888e-01
<VARIANCE> 25
 2.986183e+00 6.552277e+00 8.540369e+00 7.524332e+00 7.896091e+00 1.517324e+01 1.113333e+01 1.201233e+01 2.442921e+01 1.757338e+01 1.388766e+01 1.745796e+01 4.989417e-01 3.661864e-01 8.303283e-01 4.594066e-01 6.338031e-01 1.215427e+00 1.011864e+00 1.051227e+00 1.344455e+00 8.100281e-01 1.239481e+00 8.554328e-01 2.696171e-01
<GCONST> 7.028872e+01
~s "ST_a_3_1"
<MEAN> 25
 2.380298e+00 3.069942e+00 -2.794623e+00 -2.846666e-01 1.787524e+00 1.609696e+00 9.083382e-01 -5.266014e-01 -8.905655e-01 3.815743e-01 -9.425958e-01 7.589313e-01 -5.023004e-01 3.115109e-01 9.495684e-01 4.124549e-01 6.962492e-02 6.541229e-01 8.643518e-01 2.390149e-01 -2.358148e-01 -9.349068e-02 -1.086251e-01 -3.930289e-01 -3.413369e-01
<VARIANCE> 25
 1.039226e+01 6.353265e+00 1.151184e+01 1.656125e+01 1.367916e+01 1.075458e+01 2.042959e+01 1.201289e+01 1.302460e+01 1.333836e+01 1.686913e+01 1.718598e+01 1.154914e+00 9.315926e-01 8.497251e-01 7.059927e-01 1.109865e+00 7.297629e-01 1.135223e+00 9.408228e-01 1.215312e+00 1.193968e+00 2.867822e+00 2.461947e+00 4.027571e-01
<GCONST> 7.754321e+01
~s "ST_a_3_2"
<MEAN> 25
 3.810930e+00 5.186144e+00 -1.152808e+00 -1.716640e+00 -1.508387e+00 -1.901583e-01 9.128318e-01 -6.031675e-01 -2.282037e+00 -2.963080e+00 -4.640100e+00 -1.574307e+00 -1.053245e+00 2.624351e-01 6.797054e-01 6.086855e-01 7.100345e-01 9.548674e-01 9.907405e-01 2.493683e-01 -1.250625e-01 3.977399e-01 6.384288e-01 4.215436e-01 -7.933043e-01
<VARIANCE> 25
 5.639389e+00 4.333681e+00 7.921213e+00 1.109430e+01 1.065209e+01 1.057520e+01 8.225199e+00 9.362926e+00 1.260335e+01 1.330218e+01 1.558325e+01 1.350710e+01 1.597219e-01 4.380171e-01 5.239794e-01 4.972492e-01 5.131524e-01 6.459557e-01 8.529088e-01 7.393775e-01 1.169998e+00 7.423354e-01 8.724328e-01 8.508549e-01 7.938766e-02
<GCONST> 6.461626e+01
~s "ST_a_4_1"
<MEAN> 25
 1.131409e+00 3.640630e+00 -4.889063e-01 5.357553e-01 9.920363e-01 1.662505e+00 2.436673e+00 6.565351e-01 -9.469289e-01 -7.226477e-01 -2.157781e+00 -5.604451e-01 -4.745319e-01 -1.122774e-01 7.837874e-01 2.664293e-01 3.131947e-02 3.019839e-01 3.835052e-01 2.282938e-01 1.826470e-02 1.239554e-01 2.887069e-01 -3.518578e-01 -9.187546e-02
<VARIANCE> 25
 7.898098e+00 7.334902e+00 8.788168e+00 1.552567e+01 1.460712e+01 9.622008e+00 1.599933e+01 1.688860e+01 1.277136e+01 1.308258e+01 1.438232e+01 1.790149e+01 1.425672e+00 9.469757e-01 2.021649e+00 7.929024e-01 1.431898e+00 1.161588e+00 1.796973e+00 1.026383e+00 1.572709e+00 1.053209e+00 2.512693e+00 1.710749e+00 2.882908e-01
<GCONST> 7.874831e+01
~s "ST_rr_2_1"
<MEAN> 25
 4.557234e+00 -9.361093e-01 -7.460665e-01 7.444100e+00 8.586356e+00 -3.691073e-02 -9.058075e+00 -7.336513e+00 -4.432739e+00 -3.947938e+00 -4.326927e+00 -4.570100e+00 3.697245e-01 -7.543582e-01 -3.395405e-01 1.200823e+00 1.455127e+00 -5.883412e-01 -1.964514e+00 -4.923060e-01 3.423692e-01 -3.363903e-01 -3.950607e-01 -3.652680e-01 4.375453e-01
<VARIANCE> 25
 5.033298e+00 7.773843e+00 7.067840e+00 1.141592e+01 1.772025e+01 1.077093e+01 2.993494e+01 1.335516e+01 1.179847e+01 9.318111e+00 8.235537e+00 9.526476e+00 7.120850e-01 9.334136e-01 7.335425e-01 1.017862e+00 9.093335e-01 1.516323e+00 2.701921e+00 2.452605e+00 1.448398e+00 1.530395e+00 9.849929e-01 8.426693e-01 2.672304e-01
<GCONST> 7.511105e+01
~s "ST_rr_3_1"
<MEAN> 25
 6.281378e+00 -2.819061e+00 -5.860038e-01 1.082338e+01 1.089336e+01 -4.835545e+00 -1.591465e+01 -5.602762e+00 -4.305940e-01 -4.936529e+00 -5.143046e+00 -5.115321e+00 4.207285e-02 2.840518e-01 1.751409e-01 -3.036081e-01 -5.940460e-01 4.067183e-02 7.572922e-01 3.453782e-01 2.752373e-01 4.919908e-01 2.854176e-01 3.309812e-01 -4.986840e-02
<VARIANCE> 25
 4.037006e+00 6.994823e+00 8.884635e+00 5.319122e+00 7.545067e+00 1.012317e+01 1.754451e+01 1.494558e+01 1.810869e+01 1.603484e+01 1.019033e+01 7.226950e+00 1.579078e-01 9.125881e-01 7.101753e-01 5.749427e-01 5.506836e-01 9.486433e-01 1.727014e+00 9.878729e-01 1.430317e+00 1.021415e+00 7.560574e-01 6.101194e-01 1.755414e-01
<GCONST> 6.793591e+01
~s "ST_rr_4_1"
<MEAN> 25
 2.800161e+00 -9.374182e-01 4.171612e+00 5.403627e+00 4.784768e+00 1.303728e+00 -4.446501e+00 -6.616929e+00 -4.681154e+00 -2.493495e+00 -8.513134e-01 -4.600823e+00 -1.763169e+00 1.690100e-01 2.081172e+00 -1.645851e+00 -1.593002e+00 1.503111e+00 3.282931e+00 4.962654e-01 -8.104615e-01 4.164551e-01 1.559746e+00 -6.124031e-01 -2.759084e-01
<VARIANCE> 25
 2.555151e+01 1.086204e+01 4.477151e+01 1.676460e+01 2.901088e+01 1.625778e+01 2.945920e+01 1.573313e+01 2.573797e+01 8.794112e+00 2.454531e+01 7.798824e+00 2.295900e+00 2.129868e+00 2.907221e+00 1.151401e+00 2.025537e+00 1.290949e+00 7.823286e-01 6.637547e-01 1.014281e+00 8.065668e-01 3.123498e+00 5.831277e-01 2.501343e-01
<GCONST> 8.327959e+01
~s "ST_n_2_1"
<MEAN> 25
 5.462401e+00 5.032802e+00 -3.889707e-01 4.625604e+00 7.596267e+00 4.462637e+00 -9.313051e-01 -2.426124e+00 -7.138556e-01 -1.912538e+00 -7.512665e+00 -7.600401e+00 2.157762e-01 -1.187259e-01 -2.513713e-01 -8.311108e-02 -1.520569e-01 -2.069092e-01 1.270962e-01 3.853301e-01 3.930808e-01 3.029965e-02 -4.150731e-01 -6.086927e-01 1.761427e-01
<VARIANCE> 25
 2.392380e+00 3.459465e+00 8.693295e+00 9.986958e+00 9.724037e+00 4.166702e+00 9.679442e+00 1.289136e+01 9.759545e+00 8.819126e+00 1.147826e+01 9.865376e+00 2.144963e-01 3.722971e-01 3.119254e-01 8.631242e-01 1.399406e+00 8.927329e-01 5.690711e-01 6.476703e-01 8.540996e-01 6.705332e-01 1.149316e+00 8.963113e-01 1.224763e-01
<GCONST> 6.299433e+01
~s "ST_n_3_1"
<MEAN> 25
 6.647344e+00 4.127342e+00 -1.658867e+00 1.282394e+00 2.930495e+00 3.690459e-01 -4.106171e-01 -8.240020e-02 8.265330e-01 -1.867392e-01 -4.887589e+00 -6.731188e+00 5.988368e-01 -1.103794e-01 -6.685441e-01 -2.073029e+00 -2.625148e+00 -1.856784e+00 8.053538e-02 1.450920e+00 1.157791e+00 7.851402e-01 1.237263e+00 9.389727e-01 5.566210e-01
<VARIANCE> 25
 2.811333e+00 3.339880e+00 8.530198e+00 1.242300e+01 1.468359e+01 1.629189e+01 9.013775e+00 1.074180e+01 8.975131e+00 1.326269e+01 1.146876e+01 1.025749e+01 1.257262e-01 2.529154e-01 3.742006e-01 6.914034e-01 1.050619e+00 1.603580e+00 7.928120e-01 8.577251e-01 8.035781e-01 8.341005e-01 1.115494e+00 1.262768e+00 1.007082e-01
<GCONST> 6.542964e+01
~s "ST_n_4_1"
<MEAN> 25
 8.017154e+00 4.480680e+00 -4.550953e+00 -4.073095e+00 -2.013685e+00 -1.636720e+00 2.457681e-01 2.720544e+00 3.544001e+00 1.752296e+00 -2.785083e+00 -3.363268e+00 3.634373e-01 1.032438e-03 -6.777217e-01 -1.184887e+00 -1.643968e+00 -1.215682e+00 1.084690e-03 1.074473e+00 1.048619e+00 4.374413e-01 2.032950e-01 8.763201e-01 1.326909e-01
<VARIANCE> 25
 2.417633e+00 2.913187e+00 7.926285e+00 7.191681e+00 8.242819e+00 1.864938e+01 9.368915e+00 8.328533e+00 7.251869e+00 1.035175e+01 7.911378e+00 7.401171e+00 9.142260e-02 2.873916e-01 1.801135e-01 8.934172e-01 9.857194e-01 7.493224e-01 7.843502e-01 7.826786e-01 9.995290e-01 9.008203e-01 7.294334e-01 9.959301e-01 7.339681e-02
<GCONST> 6.042936e+01
~s "ST_d_2_1"
<MEAN> 25
 4.291458e+00 4.152877e+00 -9.633117e-01 6.003805e-01 1.144136e+00 5.369355e-01 -7.279499e-01 -1.995979e+00 -2.745876e+00 -3.850771e+00 -5.553417e+00 -2.457462e+00 -4.924242e-01 5.382953e-01 9.010465e-01 9.014015e-01 9.939146e-01 1.003920e+00 9.890396e-01 -6.749760e-02 -1.087642e+00 -2.165346e-01 5.803114e-01 -7.268815e-02 -4.340147e-01
<VARIANCE> 25
 1.436493e+01 1.090896e+01 1.566539e+01 2.050380e+01 1.901683e+01 1.483522e+01 1.724328e+01 1.290798e+01 1.003842e+01 1.714396e+01 2.418536e+01 2.150156e+01 1.375186e+00 8.343611e-01 5.548766e-01 7.382683e-01 6.857066e-01 1.626769e+00 2.531654e+00 1.304500e+00 1.115011e+00 1.394476e+00 3.723649e+00 2.750669e+00 4.569339e-01
<GCONST> 8.175662e+01
~s "ST_d_3_1"
<MEAN> 25
 3.224332e+00 5.239712e+00 -1.117564e-01 4.927008e-01 1.240251e+00 1.231521e+00 2.090496e+00 -4.965003e-01 -4.051869e+00 -4.258547e+00 -4.410281e+00 -2.283639e+00 -9.888772e-01 -4.853996e-02 7.271705e-01 5.748157e-01 3.043653e-01 7.315171e-01 1.061292e+00 2.120405e-01 -1.255127e-01 5.961337e-01 7.488744e-01 3.236277e-01 -6.362840e-01
<VARIANCE> 25
 5.125451e+00 7.797619e+00 9.295113e+00 1.502763e+01 1.333111e+01 8.043105e+00 8.477428e+00 1.051952e+01 1.011224e+01 8.738510e+00 1.641136e+01 1.554015e+01 2.367721e-01 8.402348e-01 5.741628e-01 9.562171e-01 6.747895e-01 7.557996e-01 9.796730e-01 1.135721e+00 8.684359e-01 7.509644e-01 9.214463e-01 1.165609e+00 2.758978e-01
<GCONST> 6.933809e+01
~s "ST_d_4_1"
<MEAN> 25
 9.523879e-01 4.120852e+00 2.127542e+00 2.897993e+00 1.979202e+00 2.501583e+00 3.124939e+00 -9.426285e-01 -3.332375e+00 -2.358272e+00 -3.262440e+00 -1.635760e+00 9.347982e-02 -4.353898e-01 3.866911e-01 6.946279e-01 2.134615e-01 -3.663901e-01 -7.848629e-01 -4.982567e-01 8.786090e-02 7.095025e-02 -1.870436e-01 -3.957193e-01 2.935075e-01
<VARIANCE> 25
 5.049673e+00 7.101246e+00 7.529472e+00 1.030421e+01 1.431041e+01 8.103420e+00 8.777247e+00 9.723547e+00 1.104320e+01 9.629537e+00 1.091197e+01 1.027775e+01 5.980004e-01 1.287123e+00 6.626449e-01 1.842290e+00 1.668476e+00 1.278981e+00 2.014330e+00 1.322884e+00 1.567762e+00 1.534744e+00 1.502196e+00 1.814898e+00 4.467677e-01
<GCONST> 7.521545e+01
~s "ST_ay_2_1"
<MEAN> 25
 7.290740e+00 7.844749e+00 7.581063e-01 -2.119400e+00 -8.219661e+00 -1.168243e+01 -5.450563e+00 3.479856e+00 6.192755e+00 1.894953e+00 -2.700583e+00 -3.659580e+00 -1.449154e-01 5.686469e-03 -6.243587e-03 -1.253874e-01 -2.100585e-01 1.090422e-02 3.339311e-01 3.465022e-01 -3.174239e-01 -1.017695e+00 -1.065931e+00 -8.539666e-01 -1.109993e-01
<VARIANCE> 25
 2.727543e+00 1.553783e+00 2.203714e+00 4.509587e+00 3.970505e+00 1.859546e+01 1.693785e+01 4.612713e+00 7.440651e+00 9.343077e+00 7.504920e+00 6.065608e+00 1.329543e-01 2.028382e-01 3.291687e-01 3.236252e-01 5.758501e-01 8.552349e-01 5.419073e-01 3.576815e-01 5.379260e-01 9.064760e-01 1.164372e+00 5.128520e-01 7.801297e-02
<GCONST> 5.442114e+01
~s "ST_ii_2_1"
<MEAN> 25
 5.484126e+00 5.958673e+00 5.792249e-01 1.291810e+00 -3.947293e-01 -4.276815e+00 -3.490609e+00 -7.400197e-01 -1.173841e+00 -3.375555e+00 -6.545210e+00 -5.207965e+00 1.453894e+00 -1.473099e+00 -1.714417e+00 3.112632e-03 7.294168e-01 -1.650885e+00 -2.574404e+00 -7.629132e-01 -7.954029e-01 -1.062697e+00 -2.523443e-01 4.459440e-01 1.426627e+00
<VARIANCE> 25
 1.459835e+01 9.718159e+00 6.629850e+00 4.999350e+00 9.375010e+00 2.189828e+01 1.429703e+01 9.495398e+00 1.180345e+01 7.044166e+00 1.496917e+01 1.597194e+01 1.020951e+00 1.052877e+00 1.103838e+00 9.552147e-01 1.230247e+00 1.807716e+00 2.737427e+00 1.205934e+00 1.585430e+00 1.226631e+00 5.936198e-01 1.161881e+00 8.260257e-01
<GCONST> 7.675676e+01
~s "ST_ay_3_1"
<MEAN> 25
 8.316600e+00 6.092501e+00 -5.154448e-01 -1.662951e+00 -7.657510e+00 -1.182168e+01 -6.397971e+00 3.940849e+00 5.826861e+00 -4.442645e+00 -9.682868e+00 -6.147980e+00 9.664214e-02 -1.350576e+00 -7.855847e-01 2.124180e-01 1.413987e+00 1.663455e+00 2.997148e-02 -5.520687e-01 -9.956507e-01 -1.746324e+00 -1.154973e+00 4.963953e-01 4.604196e-01
<VARIANCE> 25
 5.639519e+00 4.017448e+00 1.778444e+00 2.771719e+00 6.073177e+00 2.083989e+01 1.458000e+01 4.213765e+00 8.112190e+00 1.028583e+01 9.133499e+00 2.129350e+01 1.603358e-01 9.908873e-01 2.542364e-01 5.794502e-01 1.482437e+00 1.198241e+00 1.192273e+00 8.866537e-01 1.457397e+00 1.086185e+00 1.339824e+00 1.331365e+00 1.395453e-01
<GCONST> 6.525983e+01
~s "ST_ii_3_1"
<MEAN> 25
 7.388740e+00 3.178591e+00 -2.558531e+00 1.866358e+00 2.107994e+00 -5.629920e+00 -6.278410e+00 -1.432087e+00 -2.680909e+00 -4.658761e+00 -6.052456e+00 -3.453815e+00 8.775560e-01 -2.231375e+00 -1.498481e+00 6.695954e-01 1.876424e+00 -6.228156e-02 -1.916555e+00 -1.177931e+00 -1.312492e+00 -6.270098e-01 9.786237e-01 9.250414e-01 1.278714e+00
<VARIANCE> 25
 2.117651e+01 7.940723e+00 9.771901e+00 8.347869e+00 9.014004e+00 2.870602e+01 3.170179e+01 1.220691e+01 1.092542e+01 1.464472e+01 1.595779e+01 1.296904e+01 6.941982e-01 1.612532e+00 8.918674e-01 1.098061e+00 1.526066e+00 1.100498e+00 2.230893e+00 1.464956e+00 1.939288e+00 1.194119e+00 8.064486e-01 1.310595e+00 7.463267e-01
<GCONST> 7.979238e+01
~s "ST_ay_4_1"
<MEAN> 25
 7.833407e+00 7.873863e-01 -2.725522e+00 -6.818496e-01 -1.961322e+00 -3.789939e+00 -5.495911e+00 6.448712e-01 6.372514e-01 -7.654324e+00 -8.845968e+00 -1.038956e+00 -1.397666e+00 -1.900125e+00 1.015525e+00 2.041157e-01 4.178468e-01 3.090708e+00 2.352168e+00 -1.040082e+00 -2.534282e+00 1.186692e-01 2.515700e+00 9.913646e-01 5.266242e-02
<VARIANCE> 25
 6.172428e+00 1.691043e+01 3.846228e+00 5.529263e+00 1.291626e+01 2.194727e+01 1.580946e+01 1.140502e+01 7.724209e+00 2.593661e+01 6.823875e+00 2.187863e+01 6.467810e-01 5.821428e-01 1.485749e+00 3.899023e-01 1.567735e+00 8.590956e-01 1.859791e+00 8.548790e-01 6.467957e-01 1.699385e+00 1.608738e+00 2.654056e+00 1.079269e-01
<GCONST> 7.335831e+01
~s "ST_ii_4_1"
<MEAN> 25
 7.330067e+00 -4.880601e-01 -3.626761e+00 3.891903e+00 5.862023e+00 -3.923965e+00 -7.843703e+00 -4.457173e+00 -6.551812e+00 -5.273874e+00 -3.455206e+00 -2.591004e+00 -3.385769e-01 -1.678110e+00 -4.716723e-02 1.857684e-01 9.166227e-01 1.451761e+00 -1.495400e-01 -1.158572e+00 -1.092226e+00 3.005870e-01 1.511187e+00 6.184168e-01 4.863521e-01
<VARIANCE> 25
 2.268947e+01 1.061801e+01 7.972204e+00 1.444978e+01 1.045913e+01 2.222828e+01 3.218334e+01 1.837154e+01 2.417823e+01 1.452547e+01 1.507382e+01 2.051122e+01 5.494319e-01 2.710950e+00 1.120249e+00 1.305528e+00 1.785014e+00 1.458181e+00 1.986814e+00 1.943306e+00 2.321651e+00 9.841241e-01 1.588197e+00 1.489960e+00 7.492621e-01
<GCONST> 8.408949e+01
~s "ST_g_2_1"
<MEAN> 25
 -1.623603e+00 -2.268907e+00 3.694712e+00 4.293592e+00 2.941981e-01 -5.312155e-01 -4.794883e-01 6.007807e-01 -1.393097e+00 -2.362536e+00 1.916220e+00 -5.339499e-01 1.975150e+00 1.860381e+00 -1.010813e+00 1.329833e+00 2.401162e+00 -1.225824e-01 -2.249649e+00 -2.137887e+00 -1.143870e+00 -9.216894e-01 -2.748548e+00 -1.269877e+00 1.825110e-01
<VARIANCE> 25
 2.126292e+01 4.006096e+01 8.977385e+00 1.505280e+01 2.234783e+01 5.981063e+00 3.058908e+01 2.339102e+01 1.132267e+01 1.299872e+01 5.258027e+01 2.221433e+01 2.161194e+00 1.682076e+00 9.715396e-01 9.016744e-01 1.620320e+00 6.794585e-01 3.219546e+00 1.804768e+00 8.445772e-01 1.503677e+00 4.131107e+00 1.705160e+00 2.603320e-01
<GCONST> 8.498318e+01
~s "ST_g_3_1"
<MEAN> 25
 3.169242e+00 3.874436e+00 2.919773e-01 2.776062e+00 3.178925e+00 1.138273e-01 -2.433630e+00 -3.047369e+00 -3.751877e+00 -4.599998e+00 -5.024995e+00 -2.830535e+00 4.125170e-02 8.567944e-01 -1.034156e-01 -1.160351e+00 -1.117786e+00 -2.169639e-01 7.618169e-01 5.415543e-01 3.087150e-01 4.200601e-01 -3.590683e-02 2.444095e-01 -2.734965e-01
<VARIANCE> 25
 2.829526e+00 9.301348e+00 4.452924e+00 1.129579e+01 1.446803e+01 6.737482e+00 1.798531e+01 1.128294e+01 1.338998e+01 1.347795e+01 5.543871e+00 5.641587e+00 2.899551e-01 5.550439e-01 6.417223e-01 1.022787e+00 1.206597e+00 8.521352e-01 1.834357e+00 1.213141e+00 1.217469e+00 1.152809e+00 1.223347e+00 1.009925e+00 1.306059e-01
<GCONST> 6.876086e+01
~s "ST_g_4_1"
<MEAN> 25
 3.693249e+00 7.301905e+00 1.859113e+00 -5.502520e-01 -3.390480e+00 -4.900198e+00 -3.269557e+00 -1.621093e+00 -8.291104e-01 -8.788120e-01 -2.968985e+00 -1.788850e+00 7.238974e-01 4.369611e-01 9.784908e-02 -3.818677e-01 -1.370708e+00 -1.985447e+00 -1.525205e+00 -2.372575e-02 9.977973e-01 5.853578e-01 1.339336e-01 1.336938e-02 3.768293e-01
<VARIANCE> 25
 2.608562e+00 2.251614e+00 3.221886e+00 4.327558e+00 6.817137e+00 1.090676e+01 9.364993e+00 6.289382e+00 8.252775e+00 6.305326e+00 6.368643e+00 6.625042e+00 3.776451e-01 1.798866e-01 3.059233e-01 4.914801e-01 6.247110e-01 8.028970e-01 7.708821e-01 6.376966e-01 9.157684e-01 6.959221e-01 7.742477e-01 1.230432e+00 1.628927e-01
<GCONST> 5.813343e+01
~s "ST_nn_2_1"
<MEAN> 25
 3.306073e+00 1.134430e+00 -2.346648e+00 4.641889e+00 6.310879e+00 -8.283902e-01 -3.143441e+00 8.313078e-01 -2.535197e-01 -2.025849e-01 -1.284716e+00 -2.910597e+00 -1.092021e-01 -6.663117e-01 -8.058266e-01 -4.505325e-02 3.385012e-02 -5.781937e-01 -7.919358e-01 4.357552e-01 1.300638e+00 8.723181e-01 7.754438e-01 1.176495e+00 -4.194379e-03
<VARIANCE> 25
 2.418940e+00 6.297026e+00 4.492367e+00 1.244530e+01 1.614131e+01 1.539238e+01 1.823321e+01 8.882466e+00 1.058313e+01 1.803531e+01 8.464824e+00 2.628150e+01 2.954165e-01 1.124251e+00 4.135756e-01 4.777471e-01 7.294902e-01 1.313781e+00 1.342949e+00 1.195901e+00 8.291188e-01 1.055894e+00 1.308485e+00 2.310102e+00 2.812105e-01
<GCONST> 7.136495e+01
~s "ST_nn_3_1"
<MEAN> 25
 1.757874e+00 1.404114e+00 -2.829462e+00 2.167034e+00 4.925064e+00 1.790042e+00 -6.499022e-01 9.197642e-01 1.005806e+00 7.657876e-01 -9.654476e-01 -1.288642e-01 -3.451869e-03 3.303677e-01 3.954477e-01 4.249965e-01 -3.283181e-01 -1.055376e-01 2.501228e-01 -1.879143e-01 4.253983e-01 6.059829e-01 -1.096749e-02 -1.848390e-01 -1.431088e-01
<VARIANCE> 25
 7.113831e+00 4.733202e+00 4.468227e+00 1.083255e+01 8.715210e+00 1.470396e+01 1.838457e+01 4.439392e+00 3.659672e+00 6.543837e+00 9.355966e+00 1.849990e+01 2.514102e-01 4.528114e-01 4.475369e-01 1.161684e+00 8.958613e-01 1.017643e+00 1.653771e+00 1.049639e+00 1.424611e+00 7.835386e-01 1.567614e+00 1.581723e+00 1.696598e-01
<GCONST> 6.780403e+01
~s "ST_t_2_1"
<MEAN> 25
 -2.885706e+00 -1.386841e+00 -7.263246e-01 -1.756682e+00 -3.249201e+00 -1.028691e+00 3.481357e+00 1.416433e+00 3.886089e-01 2.124538e+00 3.534537e+00 3.201590e+00 6.999254e-01 5.119102e-02 9.390369e-01 6.109422e-01 -1.487034e-01 -5.840600e-01 -8.808009e-01 -9.475208e-01 -6.093385e-01 -7.178037e-01 -8.584800e-01 -1.329814e+00 7.525796e-01
<VARIANCE> 25
 4.089684e+00 8.158568e+00 8.603411e+00 1.119685e+01 1.178905e+01 1.470148e+01 1.096382e+01 1.295641e+01 1.205916e+01 9.474586e+00 9.558222e+00 1.131223e+01 1.969916e+00 1.595920e+00 1.019606e+00 1.468838e+00 1.181632e+00 1.373127e+00 1.695592e+00 2.088483e+00 1.109986e+00 1.330463e+00 2.418067e+00 1.802297e+00 4.151098e-01
<GCONST> 7.783577e+01
~s "ST_nn_4_1"
<MEAN> 25
 3.494226e+00 8.454781e-01 -8.802599e-01 4.801151e+00 4.682573e+00 -1.560819e+00 -3.338068e+00 1.245688e+00 1.460579e+00 -8.325253e-02 -2.038809e+00 -2.695822e+00 5.729038e-01 -5.686297e-01 -4.610956e-01 3.069165e-01 5.832159e-02 -1.198107e+00 -1.142303e+00 2.905322e-01 4.877911e-01 3.427662e-03 4.731209e-01 4.763585e-01 5.251693e-01
<VARIANCE> 25
 3.452309e+00 1.429321e+01 1.592361e+01 6.674820e+00 7.922256e+00 2.343834e+01 1.473884e+01 9.289746e+00 8.578795e+00 1.238017e+01 1.549839e+01 2.097256e+01 2.278069e-01 7.706463e-01 2.774417e+00 1.154819e+00 8.367773e-01 1.928575e+00 1.458782e+00 9.023513e-01 5.339152e-01 9.133294e-01 1.701855e+00 4.598931e+00 3.077388e-01
<GCONST> 7.544358e+01
~s "ST_t_3_1"
<MEAN> 25
 9.078317e-01 1.326198e+00 1.733711e+00 -2.173592e-01 -2.526669e+00 -1.568865e+00 -3.984499e-01 -2.224457e+00 -2.433540e+00 -1.210120e+00 -1.741772e+00 -1.469616e+00 2.747725e+00 1.165783e+00 -8.269994e-01 6.620104e-02 2.480218e-01 -1.052272e+00 -2.291597e+00 -9.659581e-01 -5.278479e-02 -1.418032e+00 -3.149344e+00 -1.689507e+00 1.255344e+00
<VARIANCE> 25
 1.248589e+01 1.353028e+01 5.407189e+00 1.317546e+01 1.357808e+01 8.184874e+00 1.160007e+01 1.197638e+01 1.069202e+01 1.384591e+01 1.652537e+01 9.067978e+00 1.399863e+00 1.096865e+00 2.024155e+00 1.576565e+00 1.236887e+00 1.243105e+00 1.812505e+00 1.948021e+00 1.971057e+00 1.311290e+00 2.507535e+00 1.521941e+00 4.731710e-01
<GCONST> 7.981591e+01
~s "ST_t_4_1"
<MEAN> 25
 6.330081e+00 1.887248e+00 -3.289582e+00 -1.088557e+00 -2.672760e+00 -5.372727e+00 -4.279290e+00 -1.979396e+00 -1.086826e+00 -2.897140e+00 -6.337319e+00 -2.755681e+00 1.750447e+00 3.653587e-01 -1.473235e+00 -3.258864e-01 2.152094e-01 -5.780427e-01 -1.246256e+00 -2.053935e-02 4.268414e-01 -6.373654e-01 -1.486749e+00 -5.643997e-01 6.806507e-01
<VARIANCE> 25
 1.350263e+01 1.193609e+01 1.198583e+01 1.316850e+01 1.280940e+01 3.000380e+01 8.779787e+00 1.503694e+01 1.316296e+01 1.884110e+01 2.433094e+01 1.300559e+01 1.671223e+00 1.229098e+00 1.919945e+00 1.805487e+00 1.250225e+00 1.436125e+00 1.554979e+00 1.203766e+00 1.487576e+00 1.278607e+00 2.610805e+00 1.236060e+00 4.744002e-01
<GCONST> 8.243993e+01
~s "ST_sil_2_1"
<MEAN> 25
 -4.059811e+00 -3.912435e-01 -2.985291e+00 -1.111022e+00 2.513911e-01 1.736788e+00 4.079688e+00 2.253379e+00 1.483183e+00 3.776643e+00 4.245163e+00 4.637572e+00 1.066853e-02 3.971800e-02 1.419293e-01 1.127105e-01 1.424027e-01 -2.484245e-02 -4.449041e-02 -9.879278e-02 -1.631145e-01 -3.769625e-01 -1.173550e-01 -1.856421e-01 6.867030e-02
<VARIANCE> 25
 3.455709e+00 4.679294e+00 5.152464e+00 6.846279e+00 7.611933e+00 9.281735e+00 8.071447e+00 7.724805e+00 8.333688e+00 9.054991e+00 1.107522e+01 9.380617e+00 2.075147e-01 3.159299e-01 5.157368e-01 6.139641e-01 7.341821e-01 9.060432e-01 8.355080e-01 8.606184e-01 9.831756e-01 1.034870e+00 1.281061e+00 1.030224e+00 1.602421e-01
<GCONST> 6.350226e+01
~s "silst"
<MEAN> 25
 -2.907449e+00 8.710860e-01 -2.657982e+00 -1.094362e+00 1.955855e-01 2.190029e+00 3.709697e+00 2.280874e+00 1.087268e+00 2.676871e+00 2.133725e+00 4.227539e+00 -1.071887e-01 -6.792475e-02 -9.450804e-02 -8.669204e-02 -4.621392e-02 6.057485e-03 4.542854e-02 8.529261e-02 1.178883e-01 1.489627e-01 1.089837e-01 1.431608e-01 -6.600107e-02
<VARIANCE> 25
 1.397855e+00 1.498567e+00 2.488350e+00 3.751219e+00 4.749692e+00 5.121223e+00 5.107158e+00 5.407183e+00 6.070086e+00 6.029488e+00 5.909725e+00 6.035439e+00 8.613320e-02 1.307953e-01 1.968950e-01 2.775348e-01 3.729323e-01 4.436686e-01 4.946338e-01 6.050991e-01 6.127979e-01 6.005945e-01 5.968445e-01 5.405353e-01 4.412755e-02
<GCONST> 4.695448e+01
~s "ST_ss_2_1"
<MEAN> 25
 2.335942e+00 4.993076e+00 2.680412e+00 3.977575e+00 2.994938e+00 1.790266e+00 1.838550e+00 6.253449e-01 -9.574227e-01 -1.003777e+00 -3.833503e+00 -5.265757e+00 7.174742e-01 3.787197e-01 5.890462e-01 -7.154353e-02 -6.015904e-01 -8.220749e-01 -7.648181e-01 -5.163465e-01 -6.500639e-01 -8.673917e-01 -5.065534e-01 -7.325048e-01 5.818154e-01
<VARIANCE> 25
 4.818040e+00 1.238120e+01 4.011828e+00 6.938865e+00 9.840114e+00 8.768614e+00 2.371838e+01 1.491279e+01 1.953417e+01 1.173550e+01 1.368287e+01 2.154366e+01 1.855789e+00 1.349323e+00 1.340730e+00 6.123038e-01 1.354723e+00 1.208061e+00 3.656271e+00 1.423028e+00 1.032449e+00 1.002110e+00 2.383676e+00 2.740836e+00 2.882373e-01
<GCONST> 7.833841e+01
~s "ST_sil_3_1"
<MEAN> 25
 -2.907449e+00 8.710860e-01 -2.657982e+00 -1.094362e+00 1.955855e-01 2.190029e+00 3.709697e+00 2.280874e+00 1.087268e+00 2.676871e+00 2.133725e+00 4.227539e+00 -1.071887e-01 -6.792475e-02 -9.450804e-02 -8.669204e-02 -4.621392e-02 6.057485e-03 4.542854e-02 8.529261e-02 1.178883e-01 1.489627e-01 1.089837e-01 1.431608e-01 -6.600107e-02
<VARIANCE> 25
 1.397855e+00 1.498567e+00 2.488350e+00 3.751219e+00 4.749692e+00 5.121223e+00 5.107158e+00 5.407183e+00 6.070086e+00 6.029488e+00 5.909725e+00 6.035439e+00 8.613320e-02 1.307953e-01 1.968950e-01 2.775348e-01 3.729323e-01 4.436686e-01 4.946338e-01 6.050991e-01 6.127979e-01 6.005945e-01 5.968445e-01 5.405353e-01 4.412755e-02
<GCONST> 4.695448e+01
~s "ST_ss_3_1"
<MEAN> 25
 2.651265e+00 4.966055e+00 3.093347e+00 3.427498e+00 2.138867e+00 1.141437e+00 1.098984e+00 -5.359610e-01 -2.490144e+00 -2.447719e+00 -3.645973e+00 -3.920920e+00 8.267733e-01 1.381350e-02 1.663961e-01 -5.643982e-01 -9.052436e-01 -1.466326e+00 -1.436854e+00 -6.129196e-01 -5.474574e-01 -9.158059e-01 -3.838010e-01 -2.439397e-01 8.144594e-01
<VARIANCE> 25
 6.732157e+00 2.015032e+01 8.481825e+00 4.928289e+00 6.314913e+00 5.554995e+00 1.053626e+01 1.720160e+01 1.996737e+01 1.014088e+01 1.979469e+01 1.075150e+01 2.550341e+00 1.271111e+00 1.920888e+00 7.412124e-01 2.001960e+00 2.091238e+00 5.669942e+00 1.937063e+00 1.045269e+00 1.337356e+00 2.988837e+00 1.951077e+00 2.929004e-01
<GCONST> 8.024651e+01
~s "ST_sil_4_1"
<MEAN> 25
 -4.460012e+00 -4.266779e-01 -3.594813e+00 -1.617528e+00 1.225786e-01 2.212642e+00 4.268602e+00 2.818778e+00 2.137065e+00 4.475195e+00 4.370367e+00 6.382747e+00 -6.345533e-03 -5.961553e-03 -3.914853e-03 -9.774426e-03 -1.676322e-02 -7.976136e-03 -8.813993e-03 5.112813e-03 8.258636e-03 2.423965e-02 2.221854e-02 4.142763e-02 -6.299793e-03
<VARIANCE> 25
 7.885323e-01 1.333616e+00 2.115506e+00 2.787245e+00 3.444711e+00 4.244537e+00 4.718781e+00 5.666669e+00 5.900474e+00 5.991619e+00 5.540953e+00 6.247173e+00 4.956875e-02 1.079566e-01 1.607309e-01 2.448890e-01 3.114578e-01 3.432587e-01 4.555263e-01 5.446750e-01 5.707427e-01 6.151065e-01 5.558301e-01 5.140817e-01 2.650615e-02
<GCONST> 4.282506e+01
~s "ST_ss_4_1"
<MEAN> 25
 3.724451e+00 4.984173e+00 3.120590e+00 2.238142e+00 -2.530227e-02 -1.719084e+00 -1.455172e+00 -1.526870e+00 -3.210447e+00 -3.881017e+00 -5.024053e+00 -5.029174e+00 1.005822e+00 -6.396481e-01 -7.167436e-01 -6.140198e-01 -6.416496e-01 -1.705412e+00 -1.816568e+00 -5.631289e-01 -2.989344e-01 -1.026173e+00 -4.323413e-01 1.101703e-01 1.060260e+00
<VARIANCE> 25
 1.385446e+01 3.092942e+01 1.576861e+01 5.467100e+00 7.206322e+00 6.980679e+00 1.099745e+01 1.523950e+01 1.648222e+01 8.771401e+00 2.682994e+01 1.195551e+01 2.611110e+00 5.990266e-01 1.887243e+00 1.032463e+00 1.829842e+00 3.212256e+00 5.340823e+00 1.265237e+00 1.432893e+00 1.110315e+00 2.270663e+00 1.411468e+00 4.388750e-01
<GCONST> 8.184990e+01
~s "ST_j_2_1"
<MEAN> 25
 1.962914e+00 -3.427003e+00 8.297587e+00 1.273331e+01 4.860802e+00 -2.660834e+00 -6.918419e+00 -3.455469e+00 -1.183534e+00 -4.282471e+00 -6.343823e+00 -7.862320e+00 2.734704e+00 5.808843e-01 -1.595835e+00 2.955010e+00 3.350979e+00 -1.892630e+00 -4.518058e+00 -6.501614e-01 5.244642e-01 -1.435923e+00 -2.541977e+00 -7.563347e-01 7.174200e-01
<VARIANCE> 25
 5.124602e+00 6.842466e+00 2.311719e+01 1.408987e+01 1.056106e+01 7.481312e+00 2.479465e+01 8.975999e+00 1.096394e+01 9.824545e+00 1.248142e+01 1.238290e+01 1.330602e+00 1.209678e+00 1.071996e+00 3.435091e+00 1.189800e+00 1.196154e+00 1.443409e+00 2.751554e+00 1.838185e+00 1.233374e+00 2.959804e+00 1.352061e+00 1.423662e-01
<GCONST> 7.855253e+01
~s "ST_j_3_1"
<MEAN> 25
 4.738427e+00 -2.508698e+00 3.275313e+00 1.515927e+01 9.818137e+00 -5.874772e+00 -1.135241e+01 -3.197278e+00 -2.908791e-01 -5.612664e+00 -7.043968e+00 -7.091510e+00 2.045013e-01 2.179171e-01 -4.923593e-01 -1.983377e-01 3.283367e-01 -2.597420e-02 -3.006683e-01 -3.041756e-01 -1.972173e-01 -2.866414e-02 1.010656e-01 5.083933e-02 -9.736325e-03
<VARIANCE> 25
 3.429052e+00 8.602836e+00 8.854609e+00 1.006639e+01 1.351382e+01 1.053940e+01 3.160316e+01 1.350758e+01 2.056469e+01 1.177674e+01 1.317675e+01 1.278698e+01 4.909877e-01 9.658035e-01 9.795206e-01 9.645293e-01 1.535427e+00 1.473903e+00 4.841875e+00 1.686851e+00 2.291401e+00 1.204699e+00 1.152794e+00 1.212964e+00 4.261708e-01
<GCONST> 7.806506e+01
~s "ST_j_4_1"
<MEAN> 25
 3.892811e+00 1.789668e-01 -1.250079e-01 7.941454e+00 8.848595e+00 -9.489359e-01 -8.475685e+00 -5.555957e+00 -2.768401e+00 -3.345350e+00 -3.741397e+00 -4.447919e+00 -5.934751e-01 3.946218e-01 1.281438e-01 -1.662801e+00 -1.368208e+00 1.216003e+00 2.046126e+00 2.432213e-01 -3.154043e-01 8.012116e-01 8.957414e-01 6.010653e-01 -3.982954e-01
<VARIANCE> 25
 9.470821e+00 6.221878e+00 1.541866e+01 1.631884e+01 1.470461e+01 1.517470e+01 3.549107e+01 1.545033e+01 1.448798e+01 1.481471e+01 1.727825e+01 1.983685e+01 1.182992e+00 6.620329e-01 1.670505e+00 1.007718e+00 1.494493e+00 1.185677e+00 2.072328e+00 1.380345e+00 1.846709e+00 1.162159e+00 1.315276e+00 1.495946e+00 3.978250e-01
<GCONST> 8.089001e+01
~s "ST_ae_2_1"
<MEAN> 25
 -1.164711e+01 -7.564486e+00 1.529476e+01 -6.189461e+00 -5.240140e+00 6.217243e+00 4.607382e+00 -1.623935e+00 1.196144e-01 4.343045e-01 8.198524e+00 -4.356494e+00 -2.011473e-02 -6.336812e-01 -5.987829e-01 8.734754e-01 -6.351624e-01 -7.549255e-01 5.608116e-01 7.381995e-01 8.478425e-01 7.310712e-01 3.578448e-03 2.224822e-01 -2.473965e-01
<VARIANCE> 25
 4.166840e+00 7.368614e+00 8.311203e+00 1.680176e+01 1.040478e+01 1.306880e+01 7.950603e+00 1.238170e+01 1.679474e+01 8.763579e+00 9.408287e+00 8.049728e+00 5.214887e-01 3.866155e-01 4.976310e-01 1.251661e+00 6.506233e-01 9.237209e-01 6.522945e-01 8.798096e-01 7.544540e-01 6.714837e-01 1.092180e+00 7.539024e-01 7.919471e-02
<GCONST> 6.658177e+01
~s "ST_ae_3_1"
<MEAN> 25
 -9.513968e+00 -9.451340e+00 1.150621e+01 -5.681703e-01 -5.522566e+00 2.975712e+00 5.739469e+00 2.795287e-01 8.075965e-01 2.112708e+00 7.241065e+00 -2.882690e+00 1.915367e+00 8.889634e-01 -9.861573e-01 2.616289e+00 1.308406e+00 -7.916676e-01 -1.058454e+00 -3.764410e-01 -6.359299e-01 -7.197402e-01 -2.113422e+00 -2.902184e-01 -3.337935e-01
<VARIANCE> 25
 4.773720e+00 3.992676e+00 1.314926e+01 1.356647e+01 8.988966e+00 1.240127e+01 8.453102e+00 9.561684e+00 1.754535e+01 8.309577e+00 1.391736e+01 1.156940e+01 1.066681e+00 6.407899e-01 9.200940e-01 2.508454e+00 8.270407e-01 8.792133e-01 1.561733e+00 1.613127e+00 1.259469e+00 1.287033e+00 1.613569e+00 1.352310e+00 1.629707e-01
<GCONST> 7.375860e+01
~s "ST_ae_4_1"
<MEAN> 25
 -6.074641e+00 -6.663304e+00 9.937778e+00 3.133340e+00 -3.345891e+00 2.184111e+00 4.825877e+00 -4.845648e-02 -1.447385e+00 4.498900e-01 3.546596e+00 -3.902867e+00 3.150656e+00 1.632706e+00 -1.380325e+00 3.255727e+00 2.817235e+00 -1.304135e+00 -3.396639e+00 -1.062961e+00 -6.052249e-01 -1.287769e+00 -3.433211e+00 -9.820529e-01 1.148518e-01
<VARIANCE> 25
 6.715897e+00 6.158665e+00 2.854588e+01 1.829197e+01 7.658261e+00 9.872395e+00 8.636513e+00 1.052854e+01 1.305045e+01 9.900472e+00 2.030138e+01 2.196758e+01 1.440843e+00 4.404953e-01 1.163217e+00 5.215314e+00 1.468217e+00 1.342608e+00 3.012287e+00 2.253508e+00 1.391251e+00 1.761434e+00 2.818863e+00 2.042530e+00 3.736535e-01
<GCONST> 8.132895e+01
~s "ST_ee_2_1"
<MEAN> 25
 7.931624e+00 4.405735e+00 -2.351012e+00 1.115020e+00 2.015035e+00 -2.148391e+00 -3.408151e+00 -1.517009e+00 -2.811632e+00 -3.425004e+00 -3.504479e+00 -4.203190e+00 -1.261517e-02 1.098866e+00 2.335840e-01 -1.092521e+00 -1.322539e+00 4.165753e-01 1.638049e+00 1.119964e+00 8.817326e-01 6.054059e-01 -5.853164e-01 -9.615317e-01 -3.349144e-01
<VARIANCE> 25
 5.005226e+00 5.759441e+00 7.228169e+00 3.281416e+01 3.467051e+01 1.040117e+01 8.679420e+00 1.572882e+01 1.369198e+01 1.183066e+01 9.719841e+00 1.955592e+01 3.118432e-01 3.111409e-01 6.782233e-01 1.395448e+00 2.313877e+00 1.164587e+00 9.690232e-01 7.914666e-01 3.302145e+00 3.007074e+00 1.266672e+00 1.178822e+00 8.405853e-02
<GCONST> 7.447465e+01
~s "ST_ee_3_1"
<MEAN> 25
 6.454855e+00 6.159692e+00 3.337266e-01 3.522704e+00 4.170551e+00 2.237772e-01 -1.570535e+00 -4.260767e-01 -6.002913e-01 -1.849714e+00 -5.409039e+00 -6.923289e+00 -2.338038e-01 1.206857e-01 3.649977e-01 7.605953e-02 9.537307e-02 2.928211e-01 2.524943e-01 3.406695e-02 1.394086e-01 -6.483619e-02 -5.047538e-01 -2.458348e-01 -1.611410e-01
<VARIANCE> 25
 4.162876e+00 3.168400e+00 6.616945e+00 3.266195e+01 3.704985e+01 1.190084e+01 8.826871e+00 6.443337e+00 1.727970e+01 2.265853e+01 1.167511e+01 9.495743e+00 9.529929e-02 2.838880e-01 3.885723e-01 7.197050e-01 9.763564e-01 4.916111e-01 7.527630e-01 9.281055e-01 9.772099e-01 8.908345e-01 8.556480e-01 7.540405e-01 6.551743e-02
<GCONST> 6.543129e+01
~s "ST_ee_4_1"
<MEAN> 25
 6.149651e+00 5.311362e+00 -2.158558e-01 3.831426e+00 5.111005e+00 6.959695e-01 -1.643033e+00 -1.128407e+00 -8.279633e-01 -1.949085e+00 -5.852704e+00 -6.015059e+00 2.215288e-01 -9.556245e-01 -1.350025e+00 -5.249081e-01 1.563582e-01 -6.319532e-01 -9.560016e-01 -5.203494e-02 7.571274e-01 8.580886e-01 8.327762e-01 1.155421e+00 3.569998e-01
<VARIANCE> 25
 3.337650e+00 3.568193e+00 7.800729e+00 1.351594e+01 1.423975e+01 7.611480e+00 8.381713e+00 6.939129e+00 1.921164e+01 1.402149e+01 1.066038e+01 1.046437e+01 4.477153e-01 3.453498e-01 9.433516e-01 1.042355e+00 4.931154e-01 9.755063e-01 1.185604e+00 5.793363e-01 8.549324e-01 4.810381e-01 6.685502e-01 1.088176e+00 2.347756e-01
<GCONST> 6.649502e+01
~s "ST_m_2_1"
<MEAN> 25
 5.410496e+00 5.154473e+00 -1.043682e+00 3.566453e-01 1.632662e+00 -3.203602e-01 -1.514018e+00 8.722857e-01 3.672918e+00 3.242743e+00 -3.433618e+00 -6.573586e+00 -8.126633e-01 5.580882e-02 6.244576e-01 4.227166e-01 4.211044e-01 9.140560e-01 1.115740e+00 5.927668e-02 -6.697774e-01 -4.435247e-01 -2.744305e-01 -3.045018e-02 -5.180022e-01
<VARIANCE> 25
 4.257669e+00 1.689800e+00 7.203308e+00 4.704996e+00 3.063768e+00 5.172209e+00 7.460071e+00 5.207952e+00 8.785285e+00 3.225666e+00 5.492969e+00 7.655586e+00 1.612597e-01 1.677056e-01 3.848861e-01 3.303295e-01 4.116963e-01 2.761934e-01 7.141775e-01 5.963958e-01 6.777384e-01 5.941594e-01 7.090095e-01 1.027858e+00 3.935808e-02
<GCONST> 5.178782e+01
~s "ST_m_3_1"
<MEAN> 25
 9.017311e-01 5.187014e+00 1.036453e+00 1.212840e+00 2.608262e+00 3.359530e+00 3.814350e+00 1.337792e+00 2.970983e-01 5.407823e-01 -3.504285e+00 -5.720280e+00 -1.030201e+00 -6.736008e-01 -2.213117e-01 -6.357359e-02 2.856433e-01 7.910899e-01 5.427448e-01 1.592148e-01 -1.925177e-01 -2.362037e-01 6.609620e-01 9.090792e-01 -5.422664e-01
<VARIANCE> 25
 3.133934e+00 2.520088e+00 1.658705e+00 1.910356e+00 3.725414e+00 3.854189e+00 5.000490e+00 7.784046e+00 8.586438e+00 4.192131e+00 3.769260e+00 2.257919e+00 1.279213e-01 1.729660e-01 2.481890e-01 1.969188e-01 3.391419e-01 3.051095e-01 3.977300e-01 4.861419e-01 5.301470e-01 5.952138e-01 3.337999e-01 5.846689e-01 1.059400e-01
<GCONST> 4.544407e+01
~s "ST_m_4_1"
<MEAN> 25
 -7.723789e-01 2.812679e+00 -2.392609e-01 1.329698e+00 2.894278e+00 4.163078e+00 3.742250e+00 1.468475e+00 -6.778003e-02 2.329422e-01 -1.838485e+00 -7.895995e-01 -1.988195e-01 -4.023157e-01 -9.706198e-02 -1.661010e-01 -2.635319e-01 -2.385803e-01 -1.173597e-01 2.034567e-01 3.601662e-02 -8.787032e-02 4.211700e-01 7.245486e-01 8.150765e-03
<VARIANCE> 25
 2.864432e+00 3.007455e+00 2.968126e+00 3.969875e+00 3.300808e+00 4.899113e+00 5.214191e+00 4.762093e+00 8.215364e+00 4.963389e+00 2.885089e+00 6.065318e+00 3.166927e-01 3.993730e-01 3.140341e-01 4.213204e-01 5.555220e-01 4.796008e-01 4.231381e-01 6.967663e-01 9.697663e-01 4.919120e-01 7.520559e-01 7.312869e-01 1.809096e-01
<GCONST> 5.345047e+01
~s "ST_z_2_1"
<MEAN> 25
 -1.730841e+00 -6.226436e-01 1.020360e+01 -2.635928e+00 -6.472147e+00 4.833307e+00 3.535150e+00 -3.959757e-01 -3.415956e+00 -1.328207e-01 1.954086e+00 -3.819134e+00 -4.944604e-01 -5.120405e-01 9.012544e-01 3.052531e-01 -1.992626e-01 1.517290e-02 -2.087352e-01 -3.413628e-01 -4.038434e-01 -4.601723e-01 -2.789029e-01 -4.141583e-01 7.536008e-02
<VARIANCE> 25
 1.046405e+01 6.413091e+00 1.621602e+01 1.080708e+01 6.912159e+00 9.365776e+00 6.993425e+00 6.670862e+00 9.760806e+00 1.010840e+01 1.593793e+01 1.006934e+01 3.889013e+00 1.500513e+00 6.196276e+00 9.968818e-01 1.021915e+00 3.712348e+00 1.780872e+00 5.722268e-01 1.106837e+00 1.068306e+00 4.485923e+00 8.834755e-01 9.598697e-02
<GCONST> 7.714052e+01
~s "ST_z_3_1"
<MEAN> 25
 5.703859e+00 1.270185e+00 4.041279e-01 -1.989969e+00 -6.012473e+00 -3.692838e+00 -3.199716e+00 -2.479422e+00 -1.291340e+00 -3.767772e+00 -7.474744e+00 -3.874077e+00 2.952604e+00 -1.761912e-01 -5.093440e+00 -8.399824e-01 6.799520e-01 -3.027616e+00 -2.956503e+00 4.441258e-01 2.152230e+00 -4.518418e-01 -1.917673e+00 1.251842e+00 1.149564e+00
<VARIANCE> 25
 8.141708e+00 7.484075e+00 3.275683e+01 5.587728e+00 5.144325e+00 1.413521e+01 2.201504e+01 7.153477e+00 1.628312e+01 5.226908e+00 7.727592e+00 8.156528e+00 6.705246e-01 8.242801e-01 1.035309e+00 8.401240e-01 5.988885e-01 1.583206e+00 1.403740e+00 9.811155e-01 9.232044e-01 8.471583e-01 1.893662e+00 8.626571e-01 8.787012e-02
<GCONST> 7.054734e+01
~s "ST_z_4_1"
<MEAN> 25
 1.058317e+01 -1.777868e+00 -1.008303e+01 -4.112728e+00 -3.600169e+00 -9.086331e+00 -9.197497e+00 2.105272e-01 4.095223e+00 -3.728520e+00 -8.009695e+00 1.680810e-01 1.128812e+00 -1.151340e+00 -3.085531e+00 -9.961704e-01 4.419928e-01 -1.276021e+00 -9.233266e-01 1.374166e+00 1.496355e+00 4.407292e-01 4.738599e-01 9.483554e-01 7.629406e-01
<VARIANCE> 25
 1.116692e+00 7.246984e+00 3.104797e+00 4.182892e+00 4.804964e+00 6.535408e+00 9.406982e+00 8.377357e+00 8.121113e+00 4.457140e+00 3.321098e+00 5.970767e+00 2.542939e-01 5.103744e-01 8.422699e-01 5.899457e-01 2.603221e-01 7.964011e-01 8.614649e-01 5.292732e-01 6.210063e-01 6.414123e-01 7.502350e-01 4.742208e-01 7.699686e-02
<GCONST> 5.537380e+01
~s "ST_ch_2_1"
<MEAN> 25
 -9.678854e-01 -1.063266e+01 3.640851e+00 5.583287e+00 -9.411951e-01 2.234859e+00 -2.061484e+00 -6.744282e+00 3.755391e+00 -2.338669e+00 -6.027194e+00 -2.035707e+00 -2.107678e+00 -2.516490e+00 1.992573e+00 1.226848e+00 -7.110396e-01 -6.261533e-01 5.687913e-01 6.253548e-01 1.997839e+00 6.172106e-01 8.311197e-01 5.814015e-01 2.278675e-01
<VARIANCE> 25
 1.468961e+01 2.940813e+01 1.402644e+01 1.246190e+01 9.584967e+00 9.747021e+00 8.261296e+00 9.133911e+00 3.221282e+01 1.223494e+01 1.025501e+01 6.639241e+00 5.772934e-01 1.512755e+00 1.167651e+00 6.929517e-01 1.421810e+00 1.111100e+00 1.066364e+00 1.489179e+00 1.606404e+00 1.345170e+00 9.503363e-01 5.736806e-01 8.399920e-02
<GCONST> 7.449654e+01
~s "ST_ch_3_1"
<MEAN> 25
 -8.154305e+00 -1.416483e+01 1.036785e+01 4.672862e+00 -1.378360e+00 -9.724127e-01 3.951195e-01 1.614193e+00 6.554342e+00 -2.896668e+00 1.804449e+00 1.727672e+00 -4.949487e-01 1.725898e+00 2.401725e-02 -1.809118e+00 1.974549e-01 -1.127495e-01 7.430233e-01 1.977644e+00 -1.664179e+00 6.429985e-03 2.077973e+00 5.924200e-01 -8.685611e-01
<VARIANCE> 25
 2.892265e+00 1.042700e+01 7.815910e+00 2.247873e+01 7.039105e+00 7.532784e+00 1.015189e+01 2.598477e+01 2.740682e+01 7.321012e+00 2.483358e+01 9.491611e+00 7.473364e-01 1.450958e+00 2.433025e+00 9.100802e-01 5.738135e-01 5.356675e-01 9.504255e-01 1.772141e+00 1.892097e+00 1.813221e+00 1.344316e+00 1.026132e+00 3.147398e-01
<GCONST> 7.544817e+01
~s "ST_ch_4_1"
<MEAN> 25
 -5.757225e+00 -4.796066e+00 2.558083e+00 1.482184e+00 -1.439077e+00 -1.339820e-02 3.978565e+00 3.376743e+00 1.331273e+00 1.492422e+00 3.651857e+00 4.630786e+00 5.820915e-01 1.022298e+00 -1.212302e+00 4.047522e-02 -5.003784e-01 6.895176e-02 6.047174e-01 -4.558195e-01 -4.350444e-01 7.574818e-01 -9.631412e-02 1.323352e-01 -6.749504e-01
<VARIANCE> 25
 2.139175e+00 3.759211e+00 7.764904e+00 3.888009e+00 5.245866e+00 1.060826e+01 7.524881e+00 9.836600e+00 9.587793e+00 8.232794e+00 8.223075e+00 7.011189e+00 2.855176e-01 7.018669e-01 1.760547e+00 6.419278e-01 3.805206e-01 8.212622e-01 7.633481e-01 7.802405e-01 1.082847e+00 9.555635e-01 7.946754e-01 1.646559e+00 5.993928e-01
<GCONST> 6.481026e+01
~s "ST_oo_2_1"
<MEAN> 25
 7.761288e+00 7.363063e+00 5.438962e-01 -1.758848e+00 -8.383081e+00 -1.314593e+01 -8.597393e+00 1.399549e+00 5.773619e+00 -1.278878e-01 -6.397460e+00 -4.897290e+00 8.016710e-01 -6.085953e-01 -1.078385e+00 -7.012461e-01 -5.847108e-01 -7.279205e-01 -2.464677e-01 1.345201e+00 1.881668e+00 -4.976743e-01 -2.065017e+00 -1.333238e+00 6.989530e-01
<VARIANCE> 25
 2.598831e+00 3.478798e+00 3.302041e+00 4.249663e+00 5.168297e+00 1.377124e+01 1.081356e+01 9.783781e+00 1.209823e+01 8.699734e+00 1.079462e+01 9.493225e+00 2.264332e-01 4.126740e-01 4.095837e-01 3.547621e-01 7.526107e-01 2.231212e+00 1.244674e+00 8.348513e-01 1.266095e+00 1.355793e+00 1.636549e+00 1.317199e+00 1.200972e-01
<GCONST> 6.444904e+01
~s "ST_oo_3_1"
<MEAN> 25
 8.832304e+00 5.312403e+00 -2.548485e+00 -3.619811e+00 -7.591357e+00 -1.077477e+01 -6.315733e+00 3.604529e+00 7.204106e+00 -2.527271e+00 -1.070438e+01 -6.912753e+00 1.752303e-01 -1.012579e+00 -1.212988e+00 2.761045e-02 1.607620e+00 1.864468e+00 6.494375e-01 -5.044861e-01 -1.137303e+00 -1.586277e+00 -9.031339e-01 3.589843e-01 3.505830e-01
<VARIANCE> 25
 2.636368e+00 3.293919e+00 4.276071e+00 3.679536e+00 7.163960e+00 1.358312e+01 9.230316e+00 7.584866e+00 1.074469e+01 1.768453e+01 1.813564e+01 1.021265e+01 9.816765e-02 6.310307e-01 6.114624e-01 6.516357e-01 2.429692e+00 2.269782e+00 1.135646e+00 1.078599e+00 2.020948e+00 1.466616e+00 1.535642e+00 1.283085e+00 1.127670e-01
<GCONST> 6.795034e+01
~s "ST_oo_4_1"
<MEAN> 25
 8.532351e+00 2.506537e+00 -4.920262e+00 -1.320037e+00 -5.940111e-01 -4.241170e+00 -5.807867e+00 -1.126660e+00 7.283064e-01 -6.162158e+00 -9.804221e+00 -3.724461e+00 -7.804105e-01 -1.241616e+00 8.581911e-02 8.974459e-01 1.844633e+00 2.794228e+00 8.529520e-01 -1.957618e+00 -2.086495e+00 -9.090277e-02 1.160397e+00 9.325346e-01 -1.079111e-01
<VARIANCE> 25
 3.434120e+00 6.722539e+00 4.990288e+00 7.027013e+00 2.816705e+01 3.170161e+01 9.357899e+00 2.319841e+01 2.468202e+01 2.682982e+01 1.481451e+01 9.144056e+00 5.014426e-01 1.377131e+00 1.134908e+00 7.276901e-01 2.900748e+00 2.447741e+00 1.517144e+00 1.828308e+00 2.327373e+00 2.024209e+00 1.434453e+00 8.715149e-01 1.308614e-01
<GCONST> 7.838087e+01
~s "ST_p_2_1"
<MEAN> 25
 -3.928845e+00 -3.538805e-01 -2.390833e+00 -9.493006e-01 -2.772234e-02 2.429251e+00 3.859093e+00 2.114147e+00 1.152858e+00 3.745219e+00 3.425888e+00 4.098260e+00 1.519652e+00 8.537151e-01 5.660411e-01 -1.571736e-01 -1.289825e+00 -1.861378e+00 -1.450561e+00 -7.357512e-01 -3.058711e-01 -7.335919e-01 -1.209193e+00 -1.912262e+00 1.008258e+00
<VARIANCE> 25
 1.360198e+00 1.764107e+00 2.842760e+00 3.107407e+00 5.815658e+00 4.371470e+00 5.905046e+00 5.638401e+00 8.646860e+00 9.722106e+00 7.217852e+00 1.019213e+01 8.302042e-01 8.735700e-01 5.007548e-01 5.225457e-01 8.112789e-01 1.441932e+00 1.079969e+00 7.639956e-01 1.028529e+00 9.206084e-01 9.575171e-01 9.293492e-01 1.926150e-01
<GCONST> 6.095591e+01
~s "ST_p_3_1"
<MEAN> 25
 5.204822e-01 3.069098e+00 3.627791e-01 -5.681969e-01 -2.971631e+00 -2.370160e+00 -4.088292e-01 -1.096959e+00 -1.320309e+00 2.874425e-01 -2.488184e-01 -9.942562e-01 3.389935e+00 1.943387e+00 9.953388e-02 -4.790876e-01 -1.907368e+00 -4.008471e+00 -3.306605e+00 -4.964691e-01 4.501258e-01 -1.507003e+00 -2.690757e+00 -2.131963e+00 1.769038e+00
<VARIANCE> 25
 9.032636e+00 1.180615e+01 4.389064e+00 3.536543e+00 9.564607e+00 1.447699e+01 1.491027e+01 9.969718e+00 9.039000e+00 6.242183e+00 5.402069e+00 1.234681e+01 6.559105e-01 6.700423e-01 1.705568e+00 1.173695e+00 1.030409e+00 1.284571e+00 8.321352e-01 1.176238e+00 1.734509e+00 1.067083e+00 1.267927e+00 2.027195e+00 4.072967e-01
<GCONST> 7.231626e+01
~s "ST_p_4_1"
<MEAN> 25
 7.928328e+00 6.225826e+00 -2.381906e+00 -3.214459e+00 -7.214062e+00 -1.175713e+01 -7.343264e+00 8.915237e-01 3.342607e+00 -9.033985e-01 -5.751158e+00 -4.283202e+00 2.815435e+00 8.865609e-01 -1.053917e+00 -9.291520e-01 -1.483015e+00 -3.014086e+00 -2.294878e+00 5.362596e-01 1.480847e+00 -9.244987e-01 -2.522858e+00 -1.646203e+00 1.521972e+00
<VARIANCE> 25
 4.105083e+00 6.381279e+00 1.689552e+01 9.419322e+00 4.403255e+00 7.793427e+00 8.234287e+00 1.133921e+01 1.676098e+01 8.560038e+00 9.071564e+00 1.012407e+01 1.107434e+00 6.434329e-01 1.150074e+00 8.142987e-01 1.002119e+00 2.355802e+00 2.165013e+00 1.071956e+00 2.091997e+00 1.398071e+00 9.555469e-01 1.315660e+00 4.527462e-01
<GCONST> 7.364680e+01
~s "ST_tt_2_1"
<MEAN> 25
 -3.938222e+00 -2.951607e+00 5.025832e+00 -3.063830e+00 -2.838122e+00 1.605615e+00 3.142015e+00 -1.514737e+00 -4.798067e+00 2.061228e+00 5.145130e+00 -7.094443e-01 -6.974673e-01 -1.058191e+00 1.776418e+00 1.018706e+00 -4.219103e-01 -1.327655e-02 2.006883e-01 3.487548e-01 -1.715725e-01 -1.169308e-01 2.011664e-01 -8.790976e-01 3.234501e-01
<VARIANCE> 25
 1.663156e+01 1.354315e+01 2.979023e+01 2.690077e+01 2.534365e+01 9.702358e+00 2.051385e+01 1.478176e+01 1.508787e+01 9.638108e+00 1.961680e+01 1.839646e+01 4.937449e+00 3.241970e+00 4.926463e+00 3.756287e+00 4.709134e+00 7.801002e-01 5.024851e+00 2.887713e+00 1.379220e+00 2.110729e+00 6.478805e+00 1.114587e+00 2.673542e-01
<GCONST> 9.153150e+01
~s "ST_tt_3_1"
<MEAN> 25
 -2.571197e-01 -1.912578e+00 4.279147e+00 3.106990e+00 1.623692e+00 1.178490e+00 -2.389636e+00 -4.689184e+00 -5.634990e+00 -1.321330e+00 -1.852216e-02 -2.880975e+00 -1.677330e-02 -2.087713e-02 -2.888332e-01 3.373593e-01 4.910332e-01 -5.368387e-02 -1.305888e-01 2.130378e-01 3.742014e-01 -5.070814e-02 -9.029178e-02 1.666697e-01 -1.409675e-01
<VARIANCE> 25
 1.946851e+01 1.737552e+01 1.919784e+01 1.978431e+01 2.709782e+01 1.335949e+01 4.401336e+01 2.965445e+01 1.020655e+01 1.924089e+01 4.149296e+01 1.240810e+01 3.073370e+00 3.107682e+00 4.157626e+00 1.872145e+00 4.510904e+00 9.428486e-01 6.531737e+00 3.443207e+00 1.459811e+00 1.635261e+00 4.439428e+00 1.435845e+00 9.965475e-01
<GCONST> 9.388853e+01
~s "ST_tt_4_1"
<MEAN> 25
 -3.653293e+00 -3.538128e+00 2.608791e+00 1.310305e+00 -5.777608e-01 1.313251e+00 2.754259e+00 9.073354e-02 -2.477416e+00 1.892236e+00 3.608163e+00 6.763178e-01 -1.731702e-01 1.723649e-01 -5.602918e-01 4.704378e-02 8.325654e-02 1.088406e-01 3.448926e-01 5.331250e-01 6.448848e-01 1.253968e-01 2.263241e-01 5.439847e-01 -4.331737e-01
<VARIANCE> 25
 1.403111e+01 1.975542e+01 2.751188e+01 1.153275e+01 1.729321e+01 9.148284e+00 2.318070e+01 1.611173e+01 9.219751e+00 1.513157e+01 2.046443e+01 1.745551e+01 5.497108e-01 1.796393e+00 2.103464e+00 8.200086e-01 1.199747e+00 8.172471e-01 9.094191e-01 9.173084e-01 1.065109e+00 7.613596e-01 1.069044e+00 1.041344e+00 4.900321e-01
<GCONST> 7.865069e+01
~s "ST_yy_2_1"
<MEAN> 25
 6.311969e+00 -2.563548e-01 -2.441878e+00 8.255542e+00 1.173173e+01 -8.344933e-01 -1.372010e+01 -6.586397e+00 -4.041003e+00 -7.829384e+00 -4.610700e+00 -3.449186e+00 -6.969795e-01 -1.074669e+00 4.199014e-01 1.670694e+00 9.437345e-01 -2.957959e-01 -2.328968e-01 -6.213908e-01 -1.219777e-01 1.491340e+00 1.447891e+00 -5.834841e-01 3.013978e-03
<VARIANCE> 25
 1.308689e+00 2.724054e+00 2.177066e+00 5.020638e+00 8.606873e+00 5.571800e+00 8.625397e+00 5.383957e+00 8.892534e+00 8.515278e+00 9.321575e+00 6.478516e+00 1.554373e-01 2.866518e-01 5.334482e-01 4.015350e-01 1.056407e+00 6.041369e-01 2.761186e+00 1.223993e+00 9.561929e-01 4.592903e-01 9.526331e-01 7.264074e-01 1.007932e-01
<GCONST> 5.837703e+01
~s "ST_yy_3_1"
<MEAN> 25
 3.938282e+00 -4.193866e-01 1.159432e-01 9.990387e+00 1.049641e+01 -6.167169e-01 -8.855127e+00 -6.928720e+00 -5.813699e+00 -5.031558e+00 -3.285869e+00 -5.272388e+00 -1.606449e+00 4.625812e-01 8.285541e-01 -6.972510e-01 -1.307445e+00 1.101692e+00 3.241017e+00 2.305524e-01 -5.362671e-01 1.831985e+00 9.172792e-01 1.541834e-01 -1.134682e+00
<VARIANCE> 25
 2.455854e+00 3.858734e+00 7.882153e+00 4.525642e+00 5.984581e+00 8.260041e+00 1.690906e+01 8.724232e+00 1.160906e+01 6.602556e+00 8.724821e+00 7.801661e+00 7.053137e-02 4.104101e-01 9.301974e-01 1.057128e+00 9.170346e-01 8.583392e-01 8.037910e-01 8.981211e-01 8.760637e-01 6.004772e-01 1.389929e+00 1.409788e+00 1.480592e-01
<GCONST> 6.322030e+01
~h "a"
<BEGINHMM>
<NUMSTATES> 5
<STATE> 2
~s "ST_a_2_1"
<STATE> 3
~s "ST_a_3_1"
<STATE> 4
~s "ST_a_4_1"
~t "T_a"
<ENDHMM>
~h "b"
<BEGINHMM>
<NUMSTATES> 5
<STATE> 2
~s "ST_b_2_1"
<STATE> 3
~s "ST_b_3_1"
<STATE> 4
~s "ST_b_4_1"
~t "T_b"
<ENDHMM>
~h "d"
<BEGINHMM>
<NUMSTATES> 5
<STATE> 2
~s "ST_d_2_1"
<STATE> 3
~s "ST_d_3_1"
<STATE> 4
~s "ST_d_4_1"
~t "T_d"
<ENDHMM>
~h "f"
<BEGINHMM>
<NUMSTATES> 5
<STATE> 2
~s "ST_f_2_1"
<STATE> 3
~s "ST_f_3_1"
<STATE> 4
~s "ST_f_4_1"
~t "T_f"
<ENDHMM>
~h "g"
<BEGINHMM>
<NUMSTATES> 5
<STATE> 2
~s "ST_g_2_1"
<STATE> 3
~s "ST_g_3_1"
<STATE> 4
~s "ST_g_4_1"
~t "T_g"
<ENDHMM>
~h "h"
<BEGINHMM>
<NUMSTATES> 5
<STATE> 2
~s "ST_h_2_1"
<STATE> 3
~s "ST_h_3_1"
<STATE> 4
~s "ST_h_4_1"
~t "T_h"
<ENDHMM>
~h "i"
<BEGINHMM>
<NUMSTATES> 5
<STATE> 2
~s "ST_i_2_1"
<STATE> 3
~s "ST_i_3_1"
<STATE> 4
~s "ST_i_4_1"
~t "T_i"
<ENDHMM>
~h "j"
<BEGINHMM>
<NUMSTATES> 5
<STATE> 2
~s "ST_j_2_1"
<STATE> 3
~s "ST_j_3_1"
<STATE> 4
~s "ST_j_4_1"
~t "T_j"
<ENDHMM>
~h "m"
<BEGINHMM>
<NUMSTATES> 5
<STATE> 2
~s "ST_m_2_1"
<STATE> 3
~s "ST_m_3_1"
<STATE> 4
~s "ST_m_4_1"
~t "T_m"
<ENDHMM>
~h "n"
<BEGINHMM>
<NUMSTATES> 5
<STATE> 2
~s "ST_n_2_1"
<STATE> 3
~s "ST_n_3_1"
<STATE> 4
~s "ST_n_4_1"
~t "T_n"
<ENDHMM>
~h "p"
<BEGINHMM>
<NUMSTATES> 5
<STATE> 2
~s "ST_p_2_1"
<STATE> 3
~s "ST_p_3_1"
<STATE> 4
~s "ST_p_4_1"
~t "T_p"
<ENDHMM>
~h "r"
<BEGINHMM>
<NUMSTATES> 5
<STATE> 2
~s "ST_r_2_1"
<STATE> 3
~s "ST_r_3_1"
<STATE> 4
~s "ST_r_4_1"
~t "T_r"
<ENDHMM>
~h "s"
<BEGINHMM>
<NUMSTATES> 5
<STATE> 2
~s "ST_s_2_1"
<STATE> 3
~s "ST_s_3_1"
<STATE> 4
~s "ST_s_4_1"
~t "T_s"
<ENDHMM>
~h "t"
<BEGINHMM>
<NUMSTATES> 5
<STATE> 2
~s "ST_t_2_1"
<STATE> 3
~s "ST_t_3_1"
<STATE> 4
~s "ST_t_4_1"
~t "T_t"
<ENDHMM>
~h "v"
<BEGINHMM>
<NUMSTATES> 5
<STATE> 2
~s "ST_v_2_1"
<STATE> 3
~s "ST_v_3_1"
<STATE> 4
~s "ST_v_4_1"
~t "T_v"
<ENDHMM>
~h "z"
<BEGINHMM>
<NUMSTATES> 5
<STATE> 2
~s "ST_z_2_1"
<STATE> 3
~s "ST_z_3_1"
<STATE> 4
~s "ST_z_4_1"
~t "T_z"
<ENDHMM>
~h "aa"
<BEGINHMM>
<NUMSTATES> 5
<STATE> 2
~s "ST_aa_2_1"
<STATE> 3
~s "ST_aa_3_1"
<STATE> 4
~s "ST_aa_4_1"
~t "T_aa"
<ENDHMM>
~h "ae"
<BEGINHMM>
<NUMSTATES> 5
<STATE> 2
~s "ST_ae_2_1"
<STATE> 3
~s "ST_ae_3_1"
<STATE> 4
~s "ST_ae_4_1"
~t "T_ae"
<ENDHMM>
~h "ay"
<BEGINHMM>
<NUMSTATES> 5
<STATE> 2
~s "ST_ay_2_1"
<STATE> 3
~s "ST_ay_3_1"
<STATE> 4
~s "ST_ay_4_1"
~t "T_ay"
<ENDHMM>
~h "ch"
<BEGINHMM>
<NUMSTATES> 5
<STATE> 2
~s "ST_ch_2_1"
<STATE> 3
~s "ST_ch_3_1"
<STATE> 4
~s "ST_ch_4_1"
~t "T_ch"
<ENDHMM>
~h "ee"
<BEGINHMM>
<NUMSTATES> 5
<STATE> 2
~s "ST_ee_2_1"
<STATE> 3
~s "ST_ee_3_1"
<STATE> 4
~s "ST_ee_4_1"
~t "T_ee"
<ENDHMM>
~h "ii"
<BEGINHMM>
<NUMSTATES> 5
<STATE> 2
~s "ST_ii_2_1"
<STATE> 3
~s "ST_ii_3_1"
<STATE> 4
~s "ST_ii_4_1"
~t "T_ii"
<ENDHMM>
~h "ll"
<BEGINHMM>
<NUMSTATES> 5
<STATE> 2
~s "ST_ll_2_1"
<STATE> 3
~s "ST_ll_3_1"
<STATE> 4
~s "ST_ll_4_1"
~t "T_ll"
<ENDHMM>
~h "mm"
<BEGINHMM>
<NUMSTATES> 5
<STATE> 2
~s "ST_mm_2_1"
<STATE> 3
~s "ST_mm_3_1"
<STATE> 4
~s "ST_mm_4_1"
~t "T_mm"
<ENDHMM>
~h "nn"
<BEGINHMM>
<NUMSTATES> 5
<STATE> 2
~s "ST_nn_2_1"
<STATE> 3
~s "ST_nn_3_1"
<STATE> 4
~s "ST_nn_4_1"
~t "T_nn"
<ENDHMM>
~h "oo"
<BEGINHMM>
<NUMSTATES> 5
<STATE> 2
~s "ST_oo_2_1"
<STATE> 3
~s "ST_oo_3_1"
<STATE> 4
~s "ST_oo_4_1"
~t "T_oo"
<ENDHMM>
~h "rr"
<BEGINHMM>
<NUMSTATES> 5
<STATE> 2
~s "ST_rr_2_1"
<STATE> 3
~s "ST_rr_3_1"
<STATE> 4
~s "ST_rr_4_1"
~t "T_rr"
<ENDHMM>
~h "sp"
<BEGINHMM>
<NUMSTATES> 3
<STATE> 2
~s "ST_sil_3_1"
<TRANSP> 3
 0.000000e+00 3.179788e-01 6.820212e-01
 0.000000e+00 8.593883e-01 1.406117e-01
 0.000000e+00 0.000000e+00 0.000000e+00
<ENDHMM>
~h "ss"
<BEGINHMM>
<NUMSTATES> 5
<STATE> 2
~s "ST_ss_2_1"
<STATE> 3
~s "ST_ss_3_1"
<STATE> 4
~s "ST_ss_4_1"
~t "T_ss"
<ENDHMM>
~h "tt"
<BEGINHMM>
<NUMSTATES> 5
<STATE> 2
~s "ST_tt_2_1"
<STATE> 3
~s "ST_tt_3_1"
<STATE> 4
~s "ST_tt_4_1"
~t "T_tt"
<ENDHMM>
~h "ur"
<BEGINHMM>
<NUMSTATES> 5
<STATE> 2
~s "ST_ur_2_1"
<STATE> 3
~s "ST_ur_3_1"
<STATE> 4
~s "ST_ur_4_1"
~t "T_ur"
<ENDHMM>
~h "yy"
<BEGINHMM>
<NUMSTATES> 5
<STATE> 2
~s "ST_yy_2_1"
<STATE> 3
~s "ST_yy_3_1"
<STATE> 4
~s "ST_yy_4_1"
~t "T_yy"
<ENDHMM>
~h "s+p"
<BEGINHMM>
<NUMSTATES> 5
<STATE> 2
~s "ST_s_2_1"
<STATE> 3
~s "ST_s_3_1"
<STATE> 4
~s "ST_s_4_2"
~t "T_s"
<ENDHMM>
~h "t-a"
<BEGINHMM>
<NUMSTATES> 5
<STATE> 2
~s "ST_a_2_2"
<STATE> 3
~s "ST_a_3_2"
<STATE> 4
~s "ST_a_4_1"
~t "T_a"
<ENDHMM>
~h "sil"
<BEGINHMM>
<NUMSTATES> 5
<STATE> 2
~s "ST_sil_2_1"
<STATE> 3
~s "ST_sil_3_1"
<STATE> 4
~s "ST_sil_4_1"
<TRANSP> 5
 0.000000e+00 1.000000e+00 0.000000e+00 0.000000e+00 0.000000e+00
 0.000000e+00 6.146547e-01 2.587732e-01 1.265721e-01 0.000000e+00
 0.000000e+00 0.000000e+00 8.766362e-01 1.233638e-01 0.000000e+00
 0.000000e+00 4.352419e-02 0.000000e+00 9.243600e-01 3.211583e-02
 0.000000e+00 0.000000e+00 0.000000e+00 0.000000e+00 0.000000e+00
<ENDHMM>
~h "d-aa+t"
<BEGINHMM>
<NUMSTATES> 5
<STATE> 2
~s "ST_aa_2_1"
<STATE> 3
~s "ST_aa_3_2"
<STATE> 4
~s "ST_aa_4_2"
~t "T_aa"
<ENDHMM>
~h "s-a+b"
<BEGINHMM>
<NUMSTATES> 5
<STATE> 2
~s "ST_a_2_1"
<STATE> 3
~s "ST_a_3_2"
<STATE> 4
~s "ST_a_4_1"
~t "T_a"
<ENDHMM>
~h "z-aa+f"
<BEGINHMM>
<NUMSTATES> 5
<STATE> 2
~s "ST_aa_2_1"
<STATE> 3
~s "ST_aa_3_2"
<STATE> 4
~s "ST_aa_4_1"
~t "T_aa"
<ENDHMM>
