~o
<STREAMINFO> 1 25
<VECSIZE> 25<NULLD><MFCC_D_N_Z_0><DIAGC>
~h "a"
<BEGINHMM>
<NUMSTATES> 5
<STATE> 2
<MEAN> 25
 1.979946e+00 2.422576e+00 -1.898055e+00 -5.096093e-01 4.684405e-01 5.669858e-01 7.774584e-01 6.597072e-03 -7.721086e-01 -3.739616e-01 -1.555622e+00 -1.311165e-01 -1.407471e-01 4.144368e-01 3.571722e-01 2.236291e-01 2.076457e-01 3.350476e-01 4.518218e-01 2.864085e-01 1.728255e-01 9.725711e-02 -1.247688e-01 -2.579781e-01 -2.236185e-01
<VARIANCE> 25
 1.944356e+01 1.044140e+01 1.505760e+01 1.299007e+01 1.581044e+01 1.422315e+01 1.784274e+01 1.365874e+01 1.304452e+01 1.740192e+01 2.498760e+01 1.968776e+01 1.161347e+00 9.351151e-01 1.274104e+00 1.154461e+00 1.193880e+00 1.175143e+00 1.717607e+00 9.104772e-01 1.168343e+00 1.109505e+00 1.936751e+00 2.271919e+00 4.859204e-01
<GCONST> 8.134467e+01
<STATE> 3
<MEAN> 25
 1.632487e+00 2.979858e+00 -1.231146e+00 2.221809e-02 9.485081e-01 1.055574e+00 1.241385e+00 3.923496e-01 -2.656699e-01 -1.032413e-01 -1.737300e+00 -4.944557e-01 -1.448141e-01 2.513888e-01 3.379850e-01 2.235045e-01 1.196701e-01 1.398998e-01 2.024292e-01 1.528249e-01 1.738292e-01 5.787925e-02 -1.069793e-01 -1.912697e-01 -1.603073e-01
<VARIANCE> 25
 1.687992e+01 1.153223e+01 1.564398e+01 1.422282e+01 1.484466e+01 1.231310e+01 1.503162e+01 1.211185e+01 1.375427e+01 1.558561e+01 2.321263e+01 1.963643e+01 1.004013e+00 8.389574e-01 9.907717e-01 9.158139e-01 1.095298e+00 1.264163e+00 1.287781e+00 9.003681e-01 1.042908e+00 1.103492e+00 1.626948e+00 1.905315e+00 4.035208e-01
<GCONST> 7.909450e+01
<STATE> 4
<MEAN> 25
 8.663645e-01 3.041305e+00 -1.103085e+00 1.440174e-01 1.128626e+00 1.362485e+00 1.830152e+00 8.466453e-01 1.530725e-01 3.617638e-01 -1.308009e+00 1.111808e-01 -6.643362e-03 1.415740e-01 2.938390e-01 8.015592e-02 -1.259277e-01 -6.098983e-02 -2.682491e-03 1.112213e-03 -7.472094e-05 -1.093548e-01 -1.461184e-01 -2.208857e-01 -2.468507e-03
<VARIANCE> 25
 1.658814e+01 1.076345e+01 1.261814e+01 1.224462e+01 1.256493e+01 1.115802e+01 1.332112e+01 9.732807e+00 1.255243e+01 1.414175e+01 2.249579e+01 2.007722e+01 9.031869e-01 5.927145e-01 7.884066e-01 7.495350e-01 9.971795e-01 1.288095e+00 1.302273e+00 8.944198e-01 1.012597e+00 1.084003e+00 1.477898e+00 1.432679e+00 3.247958e-01
<GCONST> 7.624263e+01
<TRANSP> 5
 0.000000e+00 1.000000e+00 0.000000e+00 0.000000e+00 0.000000e+00
 0.000000e+00 3.798038e-01 6.201963e-01 0.000000e+00 0.000000e+00
 0.000000e+00 0.000000e+00 3.949574e-01 6.050426e-01 0.000000e+00
 0.000000e+00 0.000000e+00 0.000000e+00 6.135010e-01 3.864990e-01
 0.000000e+00 0.000000e+00 0.000000e+00 0.000000e+00 0.000000e+00
<ENDHMM>
~h "b"
<BEGINHMM>
<NUMSTATES> 5
<STATE> 2
<MEAN> 25
 1.728955e+00 4.126079e+00 2.802501e+00 2.331831e+00 1.973426e+00 1.379012e+00 -9.641254e-02 -7.950962e-01 -2.673965e+00 -4.932938e+00 -5.371718e+00 -3.254216e+00 9.425798e-01 -1.243903e-01 -2.780724e-01 7.094183e-02 2.036356e-01 -6.001334e-01 -1.529624e+00 -7.224600e-01 -5.388908e-01 -1.199151e+00 -1.039139e+00 -6.988949e-01 6.035686e-01
<VARIANCE> 25
 1.848101e+01 1.964822e+01 1.912474e+01 1.463914e+01 1.934867e+01 1.455070e+01 2.143300e+01 8.164679e+00 1.023003e+01 1.374230e+01 3.673817e+01 1.114957e+01 2.282740e+00 1.042822e+00 2.204384e+00 1.458448e+00 2.823218e+00 2.096663e+00 3.313668e+00 1.176834e+00 1.479710e+00 1.875701e+00 4.063155e+00 1.834105e+00 2.962520e-01
<GCONST> 8.622942e+01
<STATE> 3
<MEAN> 25
 3.700014e+00 3.829519e+00 1.119771e+00 3.137540e+00 3.660575e+00 7.319295e-02 -3.398421e+00 -2.237304e+00 -3.846793e+00 -6.884253e+00 -6.922236e+00 -3.850308e+00 6.848522e-01 -5.733986e-01 -5.822792e-01 3.871073e-01 8.371704e-01 -4.369878e-01 -1.652881e+00 -7.672285e-01 -4.404196e-01 -7.174785e-01 -1.770290e-01 -1.699337e-01 5.624406e-01
<VARIANCE> 25
 1.381841e+01 1.709980e+01 1.489567e+01 1.219616e+01 2.387926e+01 1.167900e+01 3.038059e+01 9.963498e+00 1.018570e+01 1.513503e+01 2.988923e+01 1.112893e+01 2.264236e+00 1.228546e+00 1.859613e+00 1.765986e+00 3.275707e+00 1.664863e+00 4.431871e+00 1.656819e+00 1.151113e+00 2.451183e+00 4.360323e+00 1.568035e+00 4.664910e-01
<GCONST> 8.690206e+01
<STATE> 4
<MEAN> 25
 2.756896e+00 1.358961e+00 5.725157e-01 4.113451e+00 5.095049e+00 6.327003e-02 -4.394587e+00 -3.025516e+00 -4.334606e+00 -5.626937e+00 -4.128509e+00 -3.161915e+00 -4.099094e-02 -7.003942e-01 -1.440006e-01 4.041046e-01 5.425491e-01 -4.445712e-02 -6.999790e-01 -3.853404e-01 -1.538740e-01 1.284384e-01 6.305777e-01 1.235854e-01 2.134409e-01
<VARIANCE> 25
 2.314662e+01 1.862916e+01 1.628398e+01 1.474462e+01 3.091188e+01 9.171700e+00 4.645493e+01 1.783561e+01 9.641195e+00 2.445558e+01 4.385721e+01 1.236542e+01 2.156222e+00 1.662458e+00 2.230360e+00 2.128817e+00 4.291456e+00 1.241700e+00 6.826696e+00 2.555262e+00 9.916310e-01 2.007838e+00 3.183211e+00 1.114636e+00 6.668926e-01
<GCONST> 9.053669e+01
<TRANSP> 5
 0.000000e+00 1.000000e+00 0.000000e+00 0.000000e+00 0.000000e+00
 0.000000e+00 4.318649e-01 5.681351e-01 0.000000e+00 0.000000e+00
 0.000000e+00 0.000000e+00 4.538907e-01 5.461093e-01 0.000000e+00
 0.000000e+00 0.000000e+00 0.000000e+00 6.647432e-01 3.352567e-01
 0.000000e+00 0.000000e+00 0.000000e+00 0.000000e+00 0.000000e+00
<ENDHMM>
~h "d"
<BEGINHMM>
<NUMSTATES> 5
<STATE> 2
<MEAN> 25
 5.175142e+00 3.872531e+00 -1.100139e+00 -8.851525e-02 -9.188912e-01 -2.895424e+00 -3.315247e+00 -1.587326e+00 -3.677305e-01 -2.867694e+00 -5.170572e+00 -2.526860e+00 2.500271e-01 3.647885e-01 3.894240e-02 -1.627093e-01 -1.648684e-01 5.341699e-02 9.304808e-02 -1.025689e-01 -2.341723e-01 -2.500597e-01 -2.354007e-01 2.178803e-03 4.457419e-02
<VARIANCE> 25
 1.574700e+01 1.570818e+01 1.924780e+01 2.193229e+01 3.080776e+01 2.688131e+01 2.169513e+01 1.316406e+01 2.204423e+01 1.253329e+01 1.857747e+01 2.025718e+01 1.769135e+00 8.220870e-01 1.014907e+00 1.290991e+00 1.683517e+00 2.964219e+00 3.239256e+00 1.513706e+00 2.070152e+00 1.661700e+00 2.284926e+00 1.871869e+00 8.776559e-01
<GCONST> 8.782921e+01
<STATE> 3
<MEAN> 25
 5.334721e+00 4.372334e+00 -1.285234e+00 -7.320532e-01 -1.497200e+00 -2.782816e+00 -2.586324e+00 -1.108870e+00 -4.406561e-01 -2.879341e+00 -5.170394e+00 -2.134224e+00 -1.801896e-01 1.232426e-01 6.712459e-02 -4.048139e-02 8.096795e-02 3.985823e-01 4.962806e-01 1.176358e-01 -2.362905e-01 -2.236336e-02 1.391251e-01 1.766595e-01 -1.773333e-01
<VARIANCE> 25
 1.371789e+01 1.440030e+01 1.766044e+01 1.791820e+01 2.660478e+01 2.781146e+01 2.375900e+01 1.218806e+01 2.156113e+01 1.427100e+01 2.040155e+01 1.857325e+01 1.067789e+00 7.567467e-01 9.526898e-01 1.100580e+00 1.626151e+00 2.559749e+00 2.389323e+00 1.306136e+00 2.089864e+00 1.340471e+00 1.840465e+00 1.500360e+00 6.369675e-01
<GCONST> 8.492468e+01
<STATE> 4
<MEAN> 25
 4.398583e+00 4.392498e+00 -9.937152e-01 -3.915666e-01 -7.928725e-01 -1.583890e+00 -1.021864e+00 -4.227976e-01 -8.138667e-01 -2.622205e+00 -4.432400e+00 -1.757482e+00 -2.733366e-01 -1.075386e-01 1.100010e-01 1.734090e-01 2.094802e-01 3.837331e-01 4.273480e-01 1.108869e-02 -2.409630e-01 5.653029e-02 2.348844e-01 1.360883e-01 -1.409912e-01
<VARIANCE> 25
 1.469298e+01 1.087197e+01 1.428992e+01 1.329630e+01 2.423248e+01 3.684902e+01 2.808663e+01 1.211121e+01 2.352896e+01 1.385430e+01 1.996133e+01 1.649756e+01 8.428444e-01 8.697411e-01 9.678971e-01 1.102020e+00 1.570844e+00 2.309560e+00 2.287967e+00 1.456800e+00 2.158846e+00 1.344136e+00 1.794768e+00 1.716482e+00 5.390056e-01
<GCONST> 8.429434e+01
<TRANSP> 5
 0.000000e+00 1.000000e+00 0.000000e+00 0.000000e+00 0.000000e+00
 0.000000e+00 6.024302e-01 3.975697e-01 0.000000e+00 0.000000e+00
 0.000000e+00 0.000000e+00 5.938712e-01 4.061288e-01 0.000000e+00
 0.000000e+00 0.000000e+00 0.000000e+00 7.644819e-01 2.355181e-01
 0.000000e+00 0.000000e+00 0.000000e+00 0.000000e+00 0.000000e+00
<ENDHMM>
~h "f"
<BEGINHMM>
<NUMSTATES> 5
<STATE> 2
<MEAN> 25
 5.246434e+00 -4.237986e-02 -7.498591e+00 -6.824116e+00 -5.792118e+00 -5.983707e+00 -2.185663e+00 3.899326e+00 4.701560e+00 8.225420e-01 -2.290049e+00 1.240207e+00 -5.310838e-01 1.377571e-01 -6.342713e-02 6.532904e-03 -3.180731e-02 1.408406e-01 5.230069e-01 8.258434e-02 1.684893e-02 4.185920e-01 4.660243e-01 4.806575e-01 -4.689544e-01
<VARIANCE> 25
 2.335965e+01 9.777038e+00 3.964769e+01 7.400114e+00 5.933821e+00 2.265698e+01 1.812358e+01 1.215350e+01 1.223070e+01 1.016057e+01 1.630481e+01 1.141150e+01 3.006747e+00 8.502064e-01 5.462013e+00 1.094451e+00 8.472779e-01 2.926356e+00 2.273682e+00 1.147513e+00 1.339158e+00 7.762715e-01 2.531629e+00 1.362136e+00 8.060420e-01
<GCONST> 8.305878e+01
<STATE> 3
<MEAN> 25
 3.344914e+00 1.368250e-01 -7.058944e+00 -6.704342e+00 -5.490679e+00 -5.104118e+00 -8.635657e-01 3.815885e+00 4.396420e+00 1.983967e+00 -6.716013e-01 2.351599e+00 -7.843456e-01 -1.103649e-01 4.890630e-01 2.703848e-01 2.470137e-01 5.708033e-01 5.482510e-01 -1.762566e-01 -2.179581e-01 3.239561e-01 5.336932e-01 2.188019e-01 -4.018969e-01
<VARIANCE> 25
 2.487940e+01 9.210879e+00 2.366170e+01 7.787526e+00 6.360888e+00 1.648489e+01 1.471089e+01 1.001746e+01 9.423419e+00 8.421541e+00 1.359178e+01 1.348574e+01 1.473183e+00 1.115936e+00 2.652275e+00 1.064459e+00 9.321524e-01 1.492195e+00 1.498298e+00 1.241937e+00 1.048409e+00 7.497994e-01 1.537945e+00 1.688594e+00 6.848613e-01
<GCONST> 7.864948e+01
<STATE> 4
<MEAN> 25
 1.066193e+00 -4.185411e-01 -5.061954e+00 -5.506627e+00 -4.475321e+00 -3.236393e+00 5.368214e-01 2.867754e+00 3.378858e+00 2.691508e+00 6.842949e-01 2.449692e+00 -4.588033e-01 -3.020084e-01 6.268442e-01 5.339463e-01 5.223740e-01 5.304314e-01 1.147942e-01 -4.511975e-01 -3.481112e-01 8.388606e-02 1.197875e-01 -3.248154e-01 -7.972348e-02
<VARIANCE> 25
 2.334776e+01 1.020504e+01 2.305568e+01 9.509899e+00 9.205448e+00 1.423218e+01 1.345581e+01 1.118191e+01 1.133933e+01 7.472963e+00 1.445405e+01 1.792446e+01 1.539982e+00 1.418508e+00 1.841471e+00 1.164594e+00 1.148068e+00 1.105756e+00 1.720354e+00 1.045325e+00 1.043257e+00 1.000915e+00 1.735819e+00 1.919805e+00 7.252272e-01
<GCONST> 7.999174e+01
<TRANSP> 5
 0.000000e+00 1.000000e+00 0.000000e+00 0.000000e+00 0.000000e+00
 0.000000e+00 6.083629e-01 3.916371e-01 0.000000e+00 0.000000e+00
 0.000000e+00 0.000000e+00 5.714560e-01 4.285440e-01 0.000000e+00
 0.000000e+00 0.000000e+00 0.000000e+00 6.664109e-01 3.335890e-01
 0.000000e+00 0.000000e+00 0.000000e+00 0.000000e+00 0.000000e+00
<ENDHMM>
~h "g"
<BEGINHMM>
<NUMSTATES> 5
<STATE> 2
<MEAN> 25
 2.348826e+00 2.683823e+00 7.081087e-01 6.249541e-01 -1.365105e+00 -3.639972e+00 -2.708491e+00 1.611212e-02 2.409494e-01 -2.332962e+00 -3.557950e+00 -3.007950e+00 4.272366e-01 1.870004e-01 -1.753735e-01 8.409664e-02 2.393725e-01 -1.454784e-01 -2.667423e-01 -1.304599e-01 -1.477013e-01 -3.106988e-01 -5.515786e-01 -3.782429e-01 1.833616e-01
<VARIANCE> 25
 2.632249e+01 2.733271e+01 1.671517e+01 1.753993e+01 2.927403e+01 3.526667e+01 2.793194e+01 1.558788e+01 2.556384e+01 1.260665e+01 4.633107e+01 1.797863e+01 1.680487e+00 1.506063e+00 9.165648e-01 1.120928e+00 2.637875e+00 3.503093e+00 3.288893e+00 2.070661e+00 2.801279e+00 1.287259e+00 3.523821e+00 2.038854e+00 4.571822e-01
<GCONST> 9.129204e+01
<STATE> 3
<MEAN> 25
 2.533980e+00 3.074733e+00 6.620384e-01 7.533385e-01 -5.560733e-01 -2.900029e+00 -2.108980e+00 -3.389982e-01 -5.313429e-01 -2.592387e+00 -3.969714e+00 -3.039917e+00 1.593813e-01 3.236867e-02 -7.974514e-02 -1.274346e-01 -9.158126e-02 -1.147896e-01 4.106057e-02 5.257831e-02 -9.407028e-02 2.828239e-02 -4.027183e-02 -1.314346e-02 9.110007e-02
<VARIANCE> 25
 2.309407e+01 2.596373e+01 1.595176e+01 1.848204e+01 3.030734e+01 3.096182e+01 3.152925e+01 1.673258e+01 2.823390e+01 1.239445e+01 4.375139e+01 1.751769e+01 1.318698e+00 9.403666e-01 8.937548e-01 1.017315e+00 2.442533e+00 3.453006e+00 2.709982e+00 1.570768e+00 2.513340e+00 1.272697e+00 2.807775e+00 1.752251e+00 4.948651e-01
<GCONST> 8.939485e+01
<STATE> 4
<MEAN> 25
 2.640245e+00 3.261519e+00 7.154390e-01 4.241880e-01 -1.144053e+00 -2.683846e+00 -1.422638e+00 -5.608149e-01 -1.207929e+00 -2.620779e+00 -3.785422e+00 -2.580419e+00 2.358752e-01 -5.783323e-02 -5.291797e-02 -1.702430e-01 -3.659090e-01 -3.873526e-01 -2.024797e-01 1.107674e-01 1.208936e-01 6.802112e-02 1.158595e-01 3.691553e-02 1.969611e-01
<VARIANCE> 25
 2.102171e+01 2.686494e+01 1.514026e+01 1.510573e+01 2.612945e+01 2.878468e+01 3.049211e+01 1.437085e+01 2.443237e+01 1.294712e+01 4.360954e+01 1.720345e+01 1.610540e+00 8.324201e-01 1.074343e+00 1.177442e+00 2.372937e+00 3.887187e+00 3.160784e+00 1.309702e+00 2.343959e+00 1.326164e+00 2.820501e+00 1.574897e+00 6.066650e-01
<GCONST> 8.909457e+01
<TRANSP> 5
 0.000000e+00 1.000000e+00 0.000000e+00 0.000000e+00 0.000000e+00
 0.000000e+00 4.311665e-01 5.688335e-01 0.000000e+00 0.000000e+00
 0.000000e+00 0.000000e+00 3.974688e-01 6.025313e-01 0.000000e+00
 0.000000e+00 0.000000e+00 0.000000e+00 5.390030e-01 4.609970e-01
 0.000000e+00 0.000000e+00 0.000000e+00 0.000000e+00 0.000000e+00
<ENDHMM>
~h "h"
<BEGINHMM>
<NUMSTATES> 5
<STATE> 2
<MEAN> 25
 2.906034e+00 4.316902e+00 -4.747987e-01 -3.096865e-01 -8.640736e-01 -2.142209e+00 -1.495894e+00 6.265906e-01 3.487068e-01 -5.648526e-01 -2.937961e+00 -2.788355e+00 1.067063e+00 6.078622e-01 8.933743e-02 -3.699076e-01 -1.171129e+00 -1.547787e+00 -1.030714e+00 -5.915539e-01 -4.144031e-01 -3.686770e-01 -3.643653e-01 -5.026209e-01 5.928026e-01
<VARIANCE> 25
 1.283529e+01 1.528966e+01 1.570259e+01 2.023951e+01 3.723227e+01 3.403511e+01 2.390435e+01 1.360810e+01 2.682269e+01 1.013462e+01 1.174382e+01 1.351890e+01 1.897067e+00 1.987442e+00 2.023178e+00 1.065073e+00 1.417040e+00 4.041776e+00 4.857350e+00 2.162560e+00 3.036551e+00 9.181666e-01 2.031973e+00 2.471676e+00 7.027104e-01
<GCONST> 8.906802e+01
<STATE> 3
<MEAN> 25
 5.292212e+00 4.511806e+00 -2.022597e+00 -2.617283e+00 -4.248685e+00 -5.699398e+00 -3.419992e+00 6.244028e-01 1.789756e+00 -1.874965e-01 -3.644804e+00 -3.364585e+00 8.472809e-01 -6.823575e-02 -6.934931e-01 -6.832400e-01 -7.866468e-01 -9.559733e-01 -6.365504e-01 -1.217975e-01 3.588317e-01 1.079184e-01 -2.205966e-01 -1.527861e-01 5.724931e-01
<VARIANCE> 25
 1.550364e+01 1.762189e+01 1.820974e+01 1.936092e+01 3.021546e+01 4.103073e+01 1.762910e+01 1.343475e+01 3.040123e+01 1.274082e+01 1.410833e+01 1.207730e+01 1.430264e+00 1.519680e+00 1.911950e+00 8.427241e-01 2.197012e+00 4.559650e+00 2.885310e+00 1.500195e+00 2.579777e+00 1.103527e+00 1.597684e+00 1.915916e+00 7.815998e-01
<GCONST> 8.805129e+01
<STATE> 4
<MEAN> 25
 6.829508e+00 1.293886e+00 -4.499737e+00 -4.050298e+00 -3.939752e+00 -4.538491e+00 -4.646267e+00 -2.310143e+00 3.925449e-02 -1.050274e+00 -2.790140e+00 -1.094961e+00 -1.399819e-01 -1.780894e-01 -1.472294e-01 2.259589e-02 3.025836e-01 4.037590e-01 1.332032e-01 -2.821459e-01 -3.575663e-01 -7.462002e-02 1.764717e-01 3.212933e-01 -5.096012e-02
<VARIANCE> 25
 2.473711e+01 1.667680e+01 3.512313e+01 2.768356e+01 2.827467e+01 3.737741e+01 2.557088e+01 2.164040e+01 3.989743e+01 1.604346e+01 2.334968e+01 1.712089e+01 2.254825e+00 1.618459e+00 2.708792e+00 2.086360e+00 2.825427e+00 2.672821e+00 3.616519e+00 1.453412e+00 2.602096e+00 1.603500e+00 2.951920e+00 1.681993e+00 9.558603e-01
<GCONST> 9.427399e+01
<TRANSP> 5
 0.000000e+00 1.000000e+00 0.000000e+00 0.000000e+00 0.000000e+00
 0.000000e+00 5.456601e-01 4.543399e-01 0.000000e+00 0.000000e+00
 0.000000e+00 0.000000e+00 6.111732e-01 3.888268e-01 0.000000e+00
 0.000000e+00 0.000000e+00 0.000000e+00 9.349805e-01 6.501950e-02
 0.000000e+00 0.000000e+00 0.000000e+00 0.000000e+00 0.000000e+00
<ENDHMM>
~h "i"
<BEGINHMM>
<NUMSTATES> 5
<STATE> 2
<MEAN> 25
 1.851388e+00 2.487687e+00 6.314951e-01 1.054721e+00 6.894556e-01 2.557952e-01 -1.011824e+00 -2.472831e+00 -3.135979e+00 -2.069721e+00 -2.440190e+00 -1.774491e+00 1.925953e-01 4.738351e-02 -1.722698e-01 -2.210502e-01 -4.361975e-01 -3.602247e-01 -3.174600e-01 1.400170e-01 2.164189e-01 -1.797920e-01 -3.959976e-03 3.065605e-01 4.090122e-02
<VARIANCE> 25
 2.044841e+01 1.534931e+01 1.230226e+01 1.420317e+01 2.078879e+01 2.448063e+01 2.344095e+01 1.575471e+01 2.155097e+01 1.921206e+01 2.703131e+01 1.302626e+01 1.696560e+00 1.084961e+00 1.388187e+00 9.476591e-01 1.822143e+00 2.776608e+00 4.115487e+00 1.908752e+00 2.166145e+00 1.830870e+00 2.867996e+00 1.736101e+00 7.105563e-01
<GCONST> 8.810112e+01
<STATE> 3
<MEAN> 25
 4.205682e-01 1.478281e+00 1.078823e+00 3.436508e-01 -2.970355e-01 3.569874e-01 -1.155047e-01 -1.242596e+00 -2.406708e+00 -1.420040e+00 -2.593659e-01 -3.587393e-01 -3.013898e-01 -2.650642e-01 2.622525e-02 -3.311442e-01 -5.912755e-01 -4.096841e-01 2.479102e-01 7.263760e-01 6.781037e-01 1.581366e-01 3.257226e-01 2.159150e-01 -3.685822e-02
<VARIANCE> 25
 2.306754e+01 2.246017e+01 1.665806e+01 1.165174e+01 2.010114e+01 2.967762e+01 2.468884e+01 1.624927e+01 2.528577e+01 1.823996e+01 3.153440e+01 1.237026e+01 2.070944e+00 1.163363e+00 1.783117e+00 7.202855e-01 1.350698e+00 2.108674e+00 3.203577e+00 1.427208e+00 1.822377e+00 1.310882e+00 3.164789e+00 1.533892e+00 5.594105e-01
<GCONST> 8.751735e+01
<STATE> 4
<MEAN> 25
 -2.604118e+00 -1.416830e+00 2.715156e+00 -3.341897e-01 -1.798182e+00 6.461865e-01 2.769905e+00 1.616337e+00 -7.210060e-01 -6.957425e-01 3.075318e+00 8.145162e-01 -7.243504e-02 -1.951256e-01 -1.013106e-01 -6.041075e-02 -2.775777e-01 -4.164708e-01 -1.384651e-02 6.377621e-01 7.506953e-01 1.502800e-01 2.796003e-02 1.406510e-01 -8.949952e-03
<VARIANCE> 25
 2.955748e+01 3.617498e+01 3.615722e+01 8.970574e+00 1.745981e+01 2.477409e+01 3.061057e+01 1.832557e+01 2.712371e+01 2.136893e+01 5.000956e+01 1.405841e+01 1.747052e+00 1.345621e+00 1.522242e+00 6.713392e-01 1.163928e+00 1.543572e+00 2.398847e+00 1.309902e+00 1.739739e+00 1.123284e+00 2.523431e+00 1.327502e+00 3.750523e-01
<GCONST> 8.752612e+01
<TRANSP> 5
 0.000000e+00 1.000000e+00 0.000000e+00 0.000000e+00 0.000000e+00
 0.000000e+00 4.558392e-01 5.441608e-01 0.000000e+00 0.000000e+00
 0.000000e+00 0.000000e+00 4.053566e-01 5.946435e-01 0.000000e+00
 0.000000e+00 0.000000e+00 0.000000e+00 5.576860e-01 4.423141e-01
 0.000000e+00 0.000000e+00 0.000000e+00 0.000000e+00 0.000000e+00
<ENDHMM>
~h "j"
<BEGINHMM>
<NUMSTATES> 5
<STATE> 2
<MEAN> 25
 2.017396e+00 -3.260204e+00 5.639225e+00 1.077678e+01 5.291674e+00 -2.241976e+00 -6.662453e+00 -3.198877e+00 -7.906840e-01 -3.655838e+00 -4.623945e+00 -6.175490e+00 1.438044e+00 3.619855e-01 -1.062572e+00 1.444760e+00 1.781437e+00 -8.993000e-01 -2.173817e+00 -4.643792e-01 2.033061e-01 -5.820168e-01 -1.205033e+00 -3.874311e-01 3.310448e-01
<VARIANCE> 25
 1.896128e+01 1.457257e+01 2.687177e+01 4.082588e+01 2.678060e+01 1.752277e+01 5.685719e+01 1.639273e+01 2.109606e+01 1.420239e+01 3.081962e+01 1.867691e+01 2.412690e+00 1.613184e+00 1.685714e+00 4.353801e+00 3.009728e+00 1.811548e+00 6.077952e+00 2.172749e+00 2.226105e+00 1.731128e+00 3.939811e+00 1.780627e+00 3.458015e-01
<GCONST> 9.347948e+01
<STATE> 3
<MEAN> 25
 3.938882e+00 -2.917330e+00 3.823734e+00 1.278082e+01 8.076374e+00 -3.849011e+00 -9.971274e+00 -3.603081e+00 -3.981718e-01 -4.550932e+00 -5.787120e+00 -6.403066e+00 6.756973e-01 2.990715e-01 -8.233330e-01 2.458108e-01 8.170049e-01 -4.106663e-01 -8.878394e-01 -1.404054e-01 3.100504e-02 -2.211526e-01 -2.273551e-01 5.067191e-02 1.428457e-01
<VARIANCE> 25
 8.886811e+00 1.085805e+01 2.015059e+01 2.964123e+01 1.708992e+01 1.512862e+01 3.886565e+01 1.721885e+01 2.263351e+01 1.369012e+01 2.131275e+01 1.620839e+01 1.560188e+00 1.275546e+00 1.538538e+00 2.981180e+00 2.718583e+00 1.692671e+00 6.453466e+00 1.896070e+00 2.387987e+00 1.432891e+00 2.644514e+00 1.537105e+00 3.982804e-01
<GCONST> 8.850504e+01
<STATE> 4
<MEAN> 25
 4.099376e+00 -1.342924e+00 3.200255e+00 1.143581e+01 8.302304e+00 -3.652164e+00 -9.322677e+00 -4.361393e+00 -1.508367e+00 -4.775953e+00 -5.528916e+00 -6.935360e+00 -2.032479e-01 2.419576e-01 -5.216213e-02 -8.400507e-01 -4.111373e-01 3.680199e-01 5.499115e-01 -4.648907e-02 -1.067536e-01 2.083764e-01 3.051586e-01 1.105499e-01 -7.182206e-02
<VARIANCE> 25
 1.759195e+01 1.167648e+01 2.562297e+01 3.956719e+01 2.621029e+01 2.393206e+01 4.365482e+01 1.532030e+01 1.858303e+01 1.396781e+01 1.963033e+01 1.559616e+01 1.339670e+00 1.083654e+00 1.583889e+00 2.003333e+00 2.375343e+00 1.932294e+00 5.189744e+00 1.796703e+00 2.371253e+00 1.473573e+00 1.577206e+00 1.337274e+00 4.700281e-01
<GCONST> 8.894978e+01
<TRANSP> 5
 0.000000e+00 1.000000e+00 0.000000e+00 0.000000e+00 0.000000e+00
 0.000000e+00 4.661737e-01 5.338263e-01 0.000000e+00 0.000000e+00
 0.000000e+00 0.000000e+00 5.344511e-01 4.655490e-01 0.000000e+00
 0.000000e+00 0.000000e+00 0.000000e+00 9.182459e-01 8.175413e-02
 0.000000e+00 0.000000e+00 0.000000e+00 0.000000e+00 0.000000e+00
<ENDHMM>
~h "m"
<BEGINHMM>
<NUMSTATES> 5
<STATE> 2
<MEAN> 25
 2.308378e+00 3.404758e+00 6.782025e-01 8.333078e-02 1.710474e+00 1.708315e+00 1.175236e+00 1.303414e+00 1.188669e+00 2.079494e+00 -1.791231e+00 -5.114040e+00 -7.388608e-01 -4.080000e-01 1.754532e-01 -1.503935e-01 8.279525e-02 5.972728e-01 6.323725e-01 1.068089e-01 -3.534355e-01 1.215081e-02 4.635217e-01 5.206602e-01 -2.847550e-01
<VARIANCE> 25
 2.360643e+01 1.371052e+01 2.440454e+01 6.775408e+00 7.464445e+00 9.707388e+00 1.920198e+01 1.415840e+01 1.953742e+01 8.006561e+00 2.169145e+01 9.220333e+00 4.376957e-01 4.994495e-01 1.375837e+00 6.817043e-01 6.370482e-01 7.027940e-01 1.252658e+00 1.153885e+00 2.315826e+00 1.273678e+00 1.161821e+00 7.792798e-01 2.127859e-01
<GCONST> 7.448898e+01
<STATE> 3
<MEAN> 25
 -2.325539e-01 1.982972e+00 1.787943e+00 -8.370372e-01 1.313359e+00 3.351701e+00 3.175948e+00 1.774427e+00 8.426857e-02 2.058115e+00 -3.596287e-01 -3.830422e+00 -6.862080e-01 -2.882513e-01 4.572983e-02 -1.923124e-01 -1.205347e-01 4.144613e-01 5.410675e-01 1.725405e-01 -1.525184e-01 -3.356954e-02 3.012891e-01 6.361730e-01 -3.516095e-01
<VARIANCE> 25
 3.076219e+01 1.973807e+01 3.289174e+01 9.016596e+00 1.023344e+01 7.996568e+00 1.883739e+01 1.339986e+01 1.677266e+01 8.150178e+00 3.000382e+01 1.338901e+01 5.064142e-01 4.608172e-01 1.274266e+00 6.044572e-01 7.950107e-01 9.862359e-01 1.166914e+00 1.034326e+00 2.018179e+00 1.153919e+00 1.236913e+00 1.012296e+00 1.848827e-01
<GCONST> 7.650816e+01
<STATE> 4
<MEAN> 25
 -2.510933e+00 1.076815e+00 8.764958e-02 -9.612873e-01 1.009078e+00 3.776075e+00 4.362597e+00 2.298745e+00 6.820858e-01 2.405751e+00 1.330003e+00 1.113493e+00 -2.128336e-01 -9.201026e-02 -2.386564e-01 -3.976702e-02 -2.861928e-01 -2.236890e-01 3.799779e-02 -3.128210e-02 1.714244e-02 8.894964e-02 2.655161e-01 5.163267e-01 -2.057424e-01
<VARIANCE> 25
 1.548589e+01 1.157847e+01 1.664209e+01 5.923840e+00 6.376910e+00 6.242747e+00 8.631581e+00 8.124368e+00 9.119167e+00 6.610718e+00 2.277392e+01 2.350054e+01 5.992376e-01 4.082924e-01 7.351707e-01 4.179733e-01 7.681280e-01 1.308320e+00 8.276206e-01 8.954374e-01 9.193242e-01 7.774849e-01 1.055910e+00 1.338832e+00 2.520645e-01
<GCONST> 6.979279e+01
<TRANSP> 5
 0.000000e+00 1.000000e+00 0.000000e+00 0.000000e+00 0.000000e+00
 0.000000e+00 5.990593e-01 4.009407e-01 0.000000e+00 0.000000e+00
 0.000000e+00 0.000000e+00 6.146603e-01 3.853396e-01 0.000000e+00
 0.000000e+00 0.000000e+00 0.000000e+00 8.300860e-01 1.699140e-01
 0.000000e+00 0.000000e+00 0.000000e+00 0.000000e+00 0.000000e+00
<ENDHMM>
~h "n"
<BEGINHMM>
<NUMSTATES> 5
<STATE> 2
<MEAN> 25
 6.077785e+00 4.960371e+00 1.892850e-01 7.844302e-01 -3.405226e-01 -2.160992e+00 -2.127557e+00 -2.849773e-01 6.207365e-01 -2.158642e+00 -5.721515e+00 -4.932137e+00 4.315475e-02 -2.345855e-01 2.367066e-01 -1.895268e-01 -7.673367e-01 -4.821799e-01 -3.588564e-02 2.653403e-01 1.996830e-01 -3.976023e-02 -6.860689e-02 -1.403809e-01 1.909853e-01
<VARIANCE> 25
 8.592506e+00 6.463914e+00 1.147015e+01 1.606108e+01 4.445729e+01 5.751682e+01 2.956885e+01 1.535887e+01 2.448410e+01 1.634893e+01 1.948577e+01 1.635384e+01 1.072287e+00 7.816216e-01 1.861468e+00 1.146863e+00 2.389329e+00 3.631085e+00 2.337598e+00 1.741118e+00 2.977023e+00 1.461470e+00 2.491625e+00 1.896279e+00 3.200948e-01
<GCONST> 8.693159e+01
<STATE> 3
<MEAN> 25
 5.937765e+00 4.066501e+00 4.371016e-01 4.068851e-01 -1.729812e+00 -2.423915e+00 -1.494041e+00 3.550022e-01 1.118636e+00 -1.648313e+00 -5.360428e+00 -4.797171e+00 -1.576312e-01 -2.953323e-01 3.015302e-01 -2.499593e-01 -6.767900e-01 -1.865975e-01 1.283808e-01 1.386535e-01 6.380726e-02 1.167677e-01 2.297931e-01 -1.641510e-02 9.800719e-02
<VARIANCE> 25
 1.315214e+01 8.756306e+00 1.818928e+01 1.471853e+01 4.400457e+01 6.063721e+01 2.864163e+01 1.689107e+01 2.813569e+01 2.078998e+01 2.498701e+01 1.272535e+01 1.281381e+00 1.047483e+00 2.409107e+00 1.412589e+00 2.423518e+00 2.974293e+00 1.987728e+00 1.660353e+00 2.441718e+00 1.636227e+00 2.483701e+00 1.600967e+00 2.654890e-01
<GCONST> 8.861504e+01
<STATE> 4
<MEAN> 25
 6.015307e+00 3.297105e+00 1.144743e+00 -5.337126e-01 -4.338090e+00 -4.622029e+00 -2.386761e+00 7.253878e-01 1.336669e+00 -2.338178e+00 -4.928806e+00 -4.420679e+00 -4.474515e-01 -4.740624e-01 3.940049e-01 -4.244215e-01 -4.708915e-01 2.239654e-01 4.763912e-01 -7.989131e-03 -2.855555e-01 -3.329188e-02 5.768215e-01 1.187047e-01 1.081279e-01
<VARIANCE> 25
 1.817694e+01 1.952041e+01 2.491968e+01 1.132936e+01 3.580444e+01 6.573571e+01 3.942339e+01 1.460547e+01 3.464120e+01 2.355924e+01 3.189891e+01 1.212428e+01 2.173189e+00 1.527141e+00 3.219217e+00 1.535447e+00 2.878614e+00 2.891733e+00 3.319891e+00 1.210556e+00 2.556220e+00 2.178769e+00 4.318027e+00 1.647321e+00 2.434969e-01
<GCONST> 9.281773e+01
<TRANSP> 5
 0.000000e+00 1.000000e+00 0.000000e+00 0.000000e+00 0.000000e+00
 0.000000e+00 6.308023e-01 3.691977e-01 0.000000e+00 0.000000e+00
 0.000000e+00 0.000000e+00 5.955742e-01 4.044258e-01 0.000000e+00
 0.000000e+00 0.000000e+00 0.000000e+00 7.665887e-01 2.334113e-01
 0.000000e+00 0.000000e+00 0.000000e+00 0.000000e+00 0.000000e+00
<ENDHMM>
~h "p"
<BEGINHMM>
<NUMSTATES> 5
<STATE> 2
<MEAN> 25
 -9.563141e-01 -8.692031e-01 1.467553e+00 1.560682e-01 -1.641694e+00 -2.870854e-01 5.124583e-01 -2.454965e-01 -9.806005e-01 -4.476228e-01 1.420501e+00 -4.532863e-01 8.562630e-01 5.107269e-01 3.684504e-02 -1.602853e-02 -5.625216e-01 -1.153415e+00 -8.568346e-01 -1.555426e-01 7.205252e-02 -2.616872e-01 -6.480283e-01 -6.866340e-01 4.009070e-01
<VARIANCE> 25
 3.905215e+01 2.912728e+01 4.022099e+01 2.020725e+01 3.005007e+01 3.451693e+01 4.200834e+01 2.062202e+01 2.332926e+01 2.409093e+01 4.344336e+01 2.310286e+01 4.030119e+00 2.447650e+00 2.838864e+00 1.715104e+00 2.723953e+00 4.708778e+00 4.907902e+00 1.720867e+00 2.238839e+00 1.592506e+00 3.814934e+00 2.712861e+00 1.096410e+00
<GCONST> 9.889265e+01
<STATE> 3
<MEAN> 25
 1.217367e+00 6.920463e-01 2.874125e-01 2.523596e-01 -1.778534e+00 -2.650952e+00 -1.763208e+00 -5.135317e-01 -5.590448e-01 -5.924760e-01 -5.743814e-01 -1.283578e+00 1.018433e+00 5.971811e-01 -3.540801e-01 -1.513981e-01 -3.920172e-01 -1.007550e+00 -8.215906e-01 -1.039016e-01 2.872674e-01 -2.556519e-01 -9.652708e-01 -5.364305e-01 3.753543e-01
<VARIANCE> 25
 4.354058e+01 3.180770e+01 3.111810e+01 2.551995e+01 3.566040e+01 4.508140e+01 4.309985e+01 2.294239e+01 2.946387e+01 1.911629e+01 4.178393e+01 2.714762e+01 3.380537e+00 2.066079e+00 2.406404e+00 1.527303e+00 2.742834e+00 5.122490e+00 4.033936e+00 1.646706e+00 2.345810e+00 1.601597e+00 3.105017e+00 3.040331e+00 1.188428e+00
<GCONST> 9.902684e+01
<STATE> 4
<MEAN> 25
 2.689377e+00 1.728831e+00 -8.203850e-01 -1.040935e-01 -2.013364e+00 -3.795388e+00 -2.799505e+00 -7.367202e-01 -2.694058e-02 -8.167880e-01 -2.333791e+00 -1.825351e+00 6.590317e-01 3.578642e-01 -3.818842e-01 -3.453943e-01 -3.654988e-01 -4.464926e-01 -2.886526e-01 8.641873e-02 4.849618e-01 -1.061128e-01 -7.207235e-01 -2.995104e-01 2.545284e-01
<VARIANCE> 25
 3.933426e+01 2.835757e+01 2.153329e+01 2.205029e+01 3.421670e+01 5.033903e+01 3.583345e+01 2.000776e+01 2.948668e+01 1.979632e+01 3.703385e+01 2.615256e+01 3.020388e+00 1.852909e+00 2.352191e+00 1.414971e+00 2.225927e+00 4.654397e+00 3.511951e+00 1.578947e+00 2.566737e+00 1.566995e+00 2.881576e+00 2.884401e+00 1.115224e+00
<GCONST> 9.699256e+01
<TRANSP> 5
 0.000000e+00 1.000000e+00 0.000000e+00 0.000000e+00 0.000000e+00
 0.000000e+00 4.903974e-01 5.096026e-01 0.000000e+00 0.000000e+00
 0.000000e+00 0.000000e+00 4.112724e-01 5.887276e-01 0.000000e+00
 0.000000e+00 0.000000e+00 0.000000e+00 4.672556e-01 5.327445e-01
 0.000000e+00 0.000000e+00 0.000000e+00 0.000000e+00 0.000000e+00
<ENDHMM>
~h "r"
<BEGINHMM>
<NUMSTATES> 5
<STATE> 2
<MEAN> 25
 2.281751e+00 1.093510e+00 -3.919037e+00 -4.820000e+00 -3.183269e+00 -1.983827e+00 -9.482818e-01 -5.264512e-01 1.431935e+00 2.230292e+00 -1.376341e+00 -5.558690e-01 -8.152840e-01 -3.035252e-01 1.037490e+00 1.706085e-01 -1.771180e-01 2.092105e-01 4.191842e-01 6.759566e-02 -3.712310e-01 6.847896e-03 7.462333e-01 1.798993e-01 -1.339871e-01
<VARIANCE> 25
 1.821476e+01 7.512722e+00 2.992167e+01 7.325015e+00 9.845214e+00 6.859871e+00 1.686580e+01 1.079724e+01 1.215592e+01 1.077769e+01 2.237924e+01 2.391822e+01 3.000081e+00 1.181217e+00 3.319370e+00 1.031664e+00 1.481999e+00 7.938043e-01 2.956563e+00 1.421047e+00 1.076345e+00 9.239975e-01 3.588535e+00 2.586588e+00 5.932176e-01
<GCONST> 8.262539e+01
<STATE> 3
<MEAN> 25
 7.749878e-01 2.943627e-01 -2.394530e+00 -4.488832e+00 -3.205821e+00 -1.621552e+00 -5.112916e-01 -4.824835e-01 9.842611e-01 2.226099e+00 4.117331e-02 -2.446500e-01 -4.817654e-01 -3.192856e-01 5.746827e-01 4.286230e-01 1.660491e-01 2.508447e-01 1.436887e-01 2.255725e-03 -2.288152e-01 -8.014591e-02 2.963428e-01 2.138630e-02 -7.045935e-02
<VARIANCE> 25
 2.047999e+01 1.068020e+01 3.996527e+01 7.203830e+00 1.192733e+01 9.747299e+00 1.848896e+01 9.641501e+00 1.194059e+01 9.699427e+00 2.101352e+01 1.712267e+01 2.942584e+00 1.051664e+00 2.457251e+00 1.211403e+00 1.359254e+00 8.987909e-01 2.492588e+00 1.115873e+00 1.070511e+00 1.093659e+00 3.853982e+00 3.520224e+00 5.991784e-01
<GCONST> 8.327081e+01
<STATE> 4
<MEAN> 25
 4.940597e-01 -1.378369e-01 -2.242904e+00 -3.699626e+00 -2.763321e+00 -1.264221e+00 -5.782185e-01 -7.004256e-01 7.099053e-01 2.076872e+00 -1.522876e-01 -3.524587e-01 -7.727551e-02 -1.508548e-01 3.897412e-02 7.201328e-01 5.161613e-01 3.281087e-01 -5.563042e-02 -8.487407e-03 -2.136535e-02 -7.892632e-02 -1.921347e-01 2.221441e-02 -1.455025e-01
<VARIANCE> 25
 2.519744e+01 1.243512e+01 4.582457e+01 9.322983e+00 1.477162e+01 1.463940e+01 2.090793e+01 8.660929e+00 1.046541e+01 9.737466e+00 2.668307e+01 1.588147e+01 2.314545e+00 8.042056e-01 1.507446e+00 1.299861e+00 1.265353e+00 8.701990e-01 1.967009e+00 9.142272e-01 1.017482e+00 1.252424e+00 3.537199e+00 3.307936e+00 4.774082e-01
<GCONST> 8.293994e+01
<TRANSP> 5
 0.000000e+00 1.000000e+00 0.000000e+00 0.000000e+00 0.000000e+00
 0.000000e+00 4.306712e-01 5.693288e-01 0.000000e+00 0.000000e+00
 0.000000e+00 0.000000e+00 3.910631e-01 6.089370e-01 0.000000e+00
 0.000000e+00 0.000000e+00 0.000000e+00 4.239560e-01 5.760440e-01
 0.000000e+00 0.000000e+00 0.000000e+00 0.000000e+00 0.000000e+00
<ENDHMM>
~h "s"
<BEGINHMM>
<NUMSTATES> 5
<STATE> 2
<MEAN> 25
 -5.149682e+00 -3.731449e+00 9.237247e+00 -2.794201e+00 -3.698954e+00 3.611710e+00 4.087304e+00 -1.110698e-01 -2.259647e+00 -8.993078e-01 4.338123e+00 -2.611287e+00 -6.398329e-01 -3.891798e-01 6.659024e-01 -3.698034e-01 -4.264150e-01 4.109655e-01 4.500547e-01 1.928075e-01 -9.647167e-02 1.261571e-01 6.321767e-01 2.204142e-01 -7.741482e-02
<VARIANCE> 25
 3.919704e+01 1.573219e+01 5.182755e+01 1.860136e+01 1.829961e+01 2.320771e+01 2.015596e+01 1.657273e+01 1.863497e+01 1.836749e+01 3.977277e+01 2.014540e+01 3.816355e+00 1.926234e+00 6.119146e+00 1.992816e+00 2.129248e+00 1.983229e+00 3.314309e+00 1.613677e+00 2.191853e+00 1.533440e+00 5.074680e+00 1.788469e+00 4.707689e-01
<GCONST> 9.390437e+01
<STATE> 3
<MEAN> 25
 -6.567279e+00 -4.328467e+00 9.563743e+00 -3.518602e+00 -3.796588e+00 4.292073e+00 4.563847e+00 4.381163e-01 -1.871188e+00 -7.179141e-02 5.521969e+00 -1.642154e+00 1.716421e-01 2.058724e-01 -5.638639e-01 1.853743e-02 1.974575e-01 -7.194216e-02 -2.098105e-01 7.419813e-02 1.377822e-01 1.947552e-01 -1.437169e-01 3.123401e-01 -2.544471e-01
<VARIANCE> 25
 2.703529e+01 1.515884e+01 4.013851e+01 1.874150e+01 1.945740e+01 1.924319e+01 1.961608e+01 1.517143e+01 1.891908e+01 1.822275e+01 3.260236e+01 1.755465e+01 3.461000e+00 1.741216e+00 3.824714e+00 1.801438e+00 1.683216e+00 1.659894e+00 2.410295e+00 1.526367e+00 1.727590e+00 1.726647e+00 4.253602e+00 1.578429e+00 4.922209e-01
<GCONST> 9.074400e+01
<STATE> 4
<MEAN> 25
 -4.965167e+00 -2.752193e+00 6.076167e+00 -2.696689e+00 -2.587699e+00 3.416470e+00 3.717381e+00 5.820559e-01 -1.631749e+00 5.579216e-01 4.088779e+00 -4.676497e-01 8.140604e-01 6.595463e-01 -1.042846e+00 3.922202e-01 4.291504e-01 -3.929718e-01 -4.407652e-01 -1.033565e-01 -3.823920e-02 -1.109265e-01 -8.154827e-01 8.659375e-02 -2.029546e-01
<VARIANCE> 25
 3.311608e+01 1.671196e+01 4.251579e+01 1.726109e+01 1.686750e+01 1.761883e+01 2.477252e+01 1.466278e+01 1.691003e+01 2.134411e+01 4.148164e+01 1.831517e+01 2.712888e+00 1.542845e+00 2.298158e+00 1.510723e+00 1.501020e+00 1.514599e+00 2.234151e+00 1.517376e+00 1.542165e+00 2.161036e+00 4.159706e+00 1.755305e+00 5.318384e-01
<GCONST> 9.025139e+01
<TRANSP> 5
 0.000000e+00 1.000000e+00 0.000000e+00 0.000000e+00 0.000000e+00
 0.000000e+00 6.612423e-01 3.387578e-01 0.000000e+00 0.000000e+00
 0.000000e+00 0.000000e+00 6.474812e-01 3.525188e-01 0.000000e+00
 0.000000e+00 0.000000e+00 0.000000e+00 7.561056e-01 2.438945e-01
 0.000000e+00 0.000000e+00 0.000000e+00 0.000000e+00 0.000000e+00
<ENDHMM>
~h "t"
<BEGINHMM>
<NUMSTATES> 5
<STATE> 2
<MEAN> 25
 1.145502e+00 6.409550e-01 -1.727768e+00 -3.103765e+00 -2.978044e+00 -2.025730e+00 1.377769e-01 1.114497e-01 -2.261731e-02 5.086185e-01 -4.851074e-01 4.334034e-01 6.008412e-01 2.512306e-01 -4.576964e-01 2.018276e-01 1.709410e-01 -2.066670e-01 -4.761669e-01 -2.183271e-01 -1.709203e-01 -1.715663e-01 -5.375558e-01 -2.282772e-01 7.563917e-02
<VARIANCE> 25
 3.527098e+01 1.598393e+01 2.758268e+01 1.952602e+01 1.828697e+01 2.429525e+01 2.179490e+01 1.598040e+01 1.604466e+01 1.533006e+01 2.930859e+01 2.108832e+01 3.165264e+00 1.423327e+00 2.426398e+00 1.390196e+00 1.349335e+00 1.792508e+00 2.789763e+00 1.727802e+00 1.436223e+00 1.544387e+00 3.364617e+00 2.416836e+00 1.069012e+00
<GCONST> 9.058808e+01
<STATE> 3
<MEAN> 25
 2.211521e+00 9.910261e-01 -2.993335e+00 -2.904256e+00 -2.555505e+00 -2.193168e+00 -5.470381e-01 -1.096952e-01 -9.941050e-02 2.046133e-01 -1.320156e+00 3.438541e-01 4.258636e-01 1.643355e-01 -4.042838e-01 1.128464e-01 1.187471e-01 -1.281971e-01 -2.271178e-01 -7.522344e-02 -2.541649e-02 -1.848860e-01 -3.321274e-01 -1.006347e-01 7.091160e-02
<VARIANCE> 25
 3.269641e+01 1.202509e+01 2.233237e+01 1.680698e+01 1.537571e+01 2.701296e+01 2.342531e+01 1.729384e+01 1.551334e+01 1.758301e+01 2.877607e+01 2.203625e+01 2.488339e+00 1.278091e+00 2.059878e+00 1.501390e+00 1.102137e+00 1.565850e+00 2.152159e+00 1.573993e+00 1.353061e+00 1.380768e+00 2.895159e+00 1.791218e+00 8.064568e-01
<GCONST> 8.805079e+01
<STATE> 4
<MEAN> 25
 2.074406e+00 1.027099e+00 -3.331956e+00 -2.666645e+00 -2.488817e+00 -2.049500e+00 -3.385538e-02 1.682240e-01 -9.827983e-02 8.487895e-02 -1.007512e+00 8.688899e-01 1.253000e-01 8.027235e-02 8.032262e-02 8.651271e-02 -5.765394e-02 -2.932104e-02 3.676553e-02 -4.151863e-02 -1.328936e-02 -1.706062e-01 -1.159168e-01 -1.020075e-01 7.019642e-02
<VARIANCE> 25
 3.135561e+01 9.794469e+00 1.662503e+01 1.228277e+01 1.197267e+01 2.393461e+01 2.420962e+01 1.707711e+01 1.611474e+01 1.873349e+01 2.774989e+01 2.219017e+01 2.221952e+00 1.035103e+00 1.752847e+00 1.268520e+00 1.041477e+00 1.718122e+00 2.189995e+00 1.631834e+00 1.272363e+00 1.343600e+00 2.566504e+00 1.618708e+00 8.788658e-01
<GCONST> 8.612735e+01
<TRANSP> 5
 0.000000e+00 1.000000e+00 0.000000e+00 0.000000e+00 0.000000e+00
 0.000000e+00 4.972994e-01 5.027006e-01 0.000000e+00 0.000000e+00
 0.000000e+00 0.000000e+00 4.976769e-01 5.023232e-01 0.000000e+00
 0.000000e+00 0.000000e+00 0.000000e+00 6.418803e-01 3.581198e-01
 0.000000e+00 0.000000e+00 0.000000e+00 0.000000e+00 0.000000e+00
<ENDHMM>
~h "v"
<BEGINHMM>
<NUMSTATES> 5
<STATE> 2
<MEAN> 25
 -5.032008e-01 1.824322e+00 -1.921910e+00 -1.815375e+00 -2.134324e-01 6.418484e-01 1.828805e+00 1.080862e+00 2.431688e-01 1.523141e+00 6.862096e-01 1.401501e+00 -2.529862e-01 1.315924e-01 7.497193e-02 1.249272e-01 2.692718e-01 1.629098e-01 2.735948e-01 2.246521e-01 1.464673e-01 1.575310e-01 -8.771909e-02 1.192265e-01 -2.511861e-01
<VARIANCE> 25
 2.576852e+01 8.431175e+00 1.265342e+01 1.336453e+01 1.427326e+01 1.430118e+01 1.730377e+01 1.490082e+01 2.030364e+01 1.463384e+01 1.834766e+01 2.587462e+01 4.689186e-01 3.216791e-01 5.565193e-01 4.175978e-01 7.673341e-01 5.821732e-01 9.720814e-01 9.107028e-01 9.350373e-01 5.531847e-01 9.180570e-01 8.779531e-01 2.407417e-01
<GCONST> 7.260911e+01
<STATE> 3
<MEAN> 25
 -7.845061e-01 1.866617e+00 -1.661024e+00 -1.587821e+00 1.927430e-01 9.691290e-01 2.069727e+00 1.177593e+00 4.925357e-01 1.918593e+00 8.983920e-01 1.785129e+00 -8.405346e-02 1.770507e-01 3.579829e-01 3.304151e-01 3.161385e-01 2.425207e-01 2.072788e-01 1.580503e-01 2.670518e-02 -5.830542e-02 -2.669397e-01 -2.657520e-01 -1.011657e-01
<VARIANCE> 25
 2.252413e+01 8.431146e+00 1.253351e+01 1.210069e+01 1.527271e+01 1.619182e+01 1.718592e+01 1.263930e+01 2.112291e+01 1.618179e+01 1.827930e+01 2.548518e+01 4.800234e-01 3.951173e-01 4.276722e-01 5.448585e-01 6.845399e-01 4.678673e-01 7.092091e-01 9.157780e-01 8.165351e-01 5.452361e-01 1.018112e+00 1.163115e+00 1.868187e-01
<GCONST> 7.207764e+01
<STATE> 4
<MEAN> 25
 -7.811108e-01 2.141388e+00 -1.008786e+00 -6.054585e-01 8.887283e-01 1.437265e+00 2.653499e+00 1.912223e+00 5.542061e-01 1.253935e+00 4.224893e-01 1.338570e+00 2.622658e-01 2.664326e-01 5.482816e-01 4.578014e-01 2.376521e-01 7.209419e-02 -1.303324e-01 -7.299907e-02 -1.051331e-01 -2.127995e-01 -3.937865e-01 -7.309737e-01 1.913590e-01
<VARIANCE> 25
 1.860631e+01 8.991307e+00 1.095485e+01 1.142014e+01 1.538463e+01 1.631824e+01 1.572510e+01 1.052835e+01 1.625374e+01 1.570676e+01 1.629394e+01 2.428273e+01 6.934841e-01 7.903308e-01 8.561136e-01 7.699631e-01 8.355397e-01 5.334081e-01 9.720649e-01 1.017148e+00 8.705848e-01 7.120572e-01 1.535413e+00 1.777395e+00 2.319866e-01
<GCONST> 7.528091e+01
<TRANSP> 5
 0.000000e+00 1.000000e+00 0.000000e+00 0.000000e+00 0.000000e+00
 0.000000e+00 2.064503e-01 7.935496e-01 0.000000e+00 0.000000e+00
 0.000000e+00 0.000000e+00 2.195800e-01 7.804200e-01 0.000000e+00
 0.000000e+00 0.000000e+00 0.000000e+00 3.965203e-01 6.034797e-01
 0.000000e+00 0.000000e+00 0.000000e+00 0.000000e+00 0.000000e+00
<ENDHMM>
~h "z"
<BEGINHMM>
<NUMSTATES> 5
<STATE> 2
<MEAN> 25
 5.803283e+00 2.143158e+00 -3.151286e-01 -3.082108e+00 -5.025463e+00 -2.030742e+00 -1.517429e+00 -8.535033e-01 -2.584356e-01 -1.526807e+00 -4.644679e+00 -3.565224e+00 9.273610e-01 -1.184809e-01 -1.483731e+00 -3.713657e-01 -2.245291e-01 -1.156152e+00 -1.064017e+00 1.289026e-02 5.793763e-01 -2.812761e-01 -8.428289e-01 2.104789e-01 3.682894e-01
<VARIANCE> 25
 1.754765e+01 1.025487e+01 5.961017e+01 7.811852e+00 8.031260e+00 2.382080e+01 2.300617e+01 9.904367e+00 2.277992e+01 1.123604e+01 1.555475e+01 1.163604e+01 3.660734e+00 9.361135e-01 1.031265e+01 1.094236e+00 9.874520e-01 3.595173e+00 3.195557e+00 1.165391e+00 2.923737e+00 1.006530e+00 2.898176e+00 1.355872e+00 4.010209e-01
<GCONST> 8.648019e+01
<STATE> 3
<MEAN> 25
 6.981391e+00 1.054160e+00 -3.137815e+00 -4.183486e+00 -5.247581e+00 -3.959827e+00 -3.413634e+00 -7.867305e-02 1.343846e+00 -1.568750e+00 -5.079021e+00 -2.476379e+00 3.234656e-01 -4.351644e-01 -9.584379e-01 -4.751383e-01 -8.128631e-02 -6.219209e-01 -5.876291e-01 3.520171e-01 5.999723e-01 2.608787e-02 -7.127322e-02 3.151287e-01 2.744545e-01
<VARIANCE> 25
 2.012691e+01 1.188116e+01 7.113875e+01 7.870821e+00 7.328761e+00 3.219101e+01 3.085242e+01 8.958640e+00 2.187325e+01 9.597750e+00 1.995879e+01 1.326642e+01 3.017234e+00 9.058013e-01 9.496594e+00 8.307500e-01 8.683690e-01 3.052270e+00 2.908948e+00 1.091478e+00 2.587710e+00 7.952815e-01 2.020432e+00 1.284601e+00 4.469111e-01
<GCONST> 8.583382e+01
<STATE> 4
<MEAN> 25
 6.449607e+00 -6.452510e-01 -3.443320e+00 -5.350767e+00 -5.622087e+00 -4.331934e+00 -4.167818e+00 1.406827e+00 2.992628e+00 -1.113125e+00 -4.188460e+00 -1.850037e+00 -3.110200e-02 -3.221678e-01 -5.047964e-01 -4.113780e-01 -3.093739e-02 -2.780558e-01 -1.976043e-01 4.951033e-01 4.644563e-01 1.056273e-01 1.769960e-01 2.313910e-01 7.392658e-02
<VARIANCE> 25
 3.127489e+01 1.162206e+01 1.066480e+02 8.039900e+00 7.804601e+00 4.642354e+01 3.761211e+01 9.863029e+00 2.391986e+01 8.310391e+00 2.576248e+01 1.321442e+01 3.374375e+00 1.058652e+00 8.874447e+00 8.879932e-01 8.334702e-01 3.798221e+00 3.561326e+00 9.034797e-01 2.348197e+00 8.949319e-01 2.630021e+00 1.184894e+00 5.407625e-01
<GCONST> 8.845078e+01
<TRANSP> 5
 0.000000e+00 1.000000e+00 0.000000e+00 0.000000e+00 0.000000e+00
 0.000000e+00 6.133104e-01 3.866896e-01 0.000000e+00 0.000000e+00
 0.000000e+00 0.000000e+00 5.728105e-01 4.271896e-01 0.000000e+00
 0.000000e+00 0.000000e+00 0.000000e+00 7.116807e-01 2.883193e-01
 0.000000e+00 0.000000e+00 0.000000e+00 0.000000e+00 0.000000e+00
<ENDHMM>
~h "aa"
<BEGINHMM>
<NUMSTATES> 5
<STATE> 2
<MEAN> 25
 5.918201e+00 1.093501e+00 -4.309380e+00 -3.837681e+00 -4.088208e+00 -4.213833e+00 -3.378795e+00 -3.802124e-01 2.227719e+00 -2.142338e-01 -3.527793e+00 -6.310993e-01 9.680864e-01 -1.293007e-01 -9.786131e-01 -6.771119e-01 -3.494294e-01 -5.833926e-01 -6.673909e-01 -1.565924e-02 2.835884e-01 -1.941739e-01 -3.755242e-01 1.057060e-01 6.063063e-01
<VARIANCE> 25
 3.826901e+01 9.970115e+00 4.660367e+01 1.529580e+01 1.487623e+01 3.484299e+01 3.402294e+01 1.678736e+01 1.944172e+01 1.276606e+01 2.397013e+01 1.478034e+01 3.616712e+00 1.014831e+00 3.141671e+00 1.074132e+00 1.438535e+00 2.871089e+00 3.330475e+00 1.787053e+00 1.828796e+00 1.201010e+00 2.734463e+00 1.762577e+00 1.310151e+00
<GCONST> 9.079126e+01
<STATE> 3
<MEAN> 25
 7.463193e+00 5.490814e-01 -6.478805e+00 -5.108429e+00 -4.289680e+00 -4.885585e+00 -4.221421e+00 -1.132676e-01 2.498719e+00 -5.229769e-01 -3.675510e+00 -1.057040e-01 2.488719e-01 -8.259805e-02 -4.321537e-01 -3.691206e-01 -7.726026e-02 -7.306246e-02 -6.259792e-02 4.929920e-02 -5.701248e-02 -5.419317e-02 5.899377e-02 1.695063e-01 1.558014e-01
<VARIANCE> 25
 3.347540e+01 9.447987e+00 4.581525e+01 1.139169e+01 1.142080e+01 3.035654e+01 3.145264e+01 1.855044e+01 2.164075e+01 1.173775e+01 2.214586e+01 1.343540e+01 2.474759e+00 9.639738e-01 3.027073e+00 9.845178e-01 1.094555e+00 2.257716e+00 2.464108e+00 1.357256e+00 1.557262e+00 1.099112e+00 2.071238e+00 1.239317e+00 9.219714e-01
<GCONST> 8.688375e+01
<STATE> 4
<MEAN> 25
 7.220086e+00 7.710213e-01 -6.734906e+00 -5.525232e+00 -4.342820e+00 -4.687742e+00 -3.769307e+00 -5.761037e-01 1.436465e+00 -5.341585e-01 -2.839931e+00 5.370892e-01 -3.720912e-01 1.575518e-01 3.268506e-01 -8.207171e-02 -7.247420e-02 3.133711e-01 3.804109e-01 -1.219169e-01 -3.666881e-01 6.242283e-02 2.605138e-01 1.020480e-01 -2.491478e-01
<VARIANCE> 25
 2.759299e+01 1.035666e+01 3.689695e+01 1.184069e+01 1.147450e+01 2.737582e+01 2.642708e+01 1.745550e+01 2.523052e+01 1.071019e+01 2.216462e+01 1.415158e+01 1.929944e+00 1.132005e+00 2.581312e+00 1.006793e+00 9.826993e-01 1.892872e+00 2.187240e+00 1.290968e+00 1.378417e+00 9.811463e-01 1.963337e+00 1.200060e+00 8.107533e-01
<GCONST> 8.525755e+01
<TRANSP> 5
 0.000000e+00 1.000000e+00 0.000000e+00 0.000000e+00 0.000000e+00
 0.000000e+00 5.342369e-01 4.657631e-01 0.000000e+00 0.000000e+00
 0.000000e+00 0.000000e+00 5.587224e-01 4.412776e-01 0.000000e+00
 0.000000e+00 0.000000e+00 0.000000e+00 7.583311e-01 2.416689e-01
 0.000000e+00 0.000000e+00 0.000000e+00 0.000000e+00 0.000000e+00
<ENDHMM>
~h "ae"
<BEGINHMM>
<NUMSTATES> 5
<STATE> 2
<MEAN> 25
 -6.820340e+00 -6.333696e+00 1.072063e+01 -1.282848e+00 -2.547638e+00 3.654308e+00 1.840848e+00 -2.522481e+00 -1.790119e+00 -1.153119e+00 4.882965e+00 -3.648954e+00 -2.860052e-02 -5.260695e-01 9.228943e-02 9.260683e-01 2.693076e-02 -4.067229e-01 -5.216514e-02 3.433413e-01 3.808672e-01 9.519219e-02 -4.567820e-02 -5.063604e-02 -1.448202e-02
<VARIANCE> 25
 4.505171e+01 1.528704e+01 4.164105e+01 4.532895e+01 2.896248e+01 1.982789e+01 3.317200e+01 2.389060e+01 2.149466e+01 1.508182e+01 3.771328e+01 1.158547e+01 2.690125e+00 1.746151e+00 2.899320e+00 3.316106e+00 3.007833e+00 1.637303e+00 3.690627e+00 1.757740e+00 1.775786e+00 1.409870e+00 3.063183e+00 1.093824e+00 2.908828e-01
<GCONST> 9.308051e+01
<STATE> 3
<MEAN> 25
 -6.317772e+00 -6.856515e+00 1.048365e+01 7.906889e-01 -2.308544e+00 2.749794e+00 1.633118e+00 -2.128308e+00 -1.137906e+00 -7.843243e-01 4.323412e+00 -3.693724e+00 7.910895e-01 1.160437e-01 -2.601761e-01 1.354726e+00 5.952069e-01 -5.676815e-01 -6.998222e-01 -1.853001e-01 2.642141e-02 -1.358315e-01 -8.440573e-01 -2.914446e-01 -2.089884e-03
<VARIANCE> 25
 4.102583e+01 1.319567e+01 3.434678e+01 4.630127e+01 3.243504e+01 1.843980e+01 4.124778e+01 2.205927e+01 2.359963e+01 1.694768e+01 4.007210e+01 1.497313e+01 4.117926e+00 1.726339e+00 2.715053e+00 4.971038e+00 3.844908e+00 1.697978e+00 5.878921e+00 2.187108e+00 1.800726e+00 1.891828e+00 4.795419e+00 1.357212e+00 2.404471e-01
<GCONST> 9.587558e+01
<STATE> 4
<MEAN> 25
 -3.081486e+00 -5.515912e+00 9.755549e+00 4.786411e+00 3.296117e-01 1.194560e+00 -1.411789e+00 -3.578815e+00 -2.015913e+00 -2.115197e+00 8.133690e-01 -5.278769e+00 1.070743e+00 4.407207e-01 -3.723734e-01 1.307280e+00 1.068008e+00 -6.390970e-01 -1.216700e+00 -3.026041e-01 -8.552270e-02 -4.145879e-01 -1.119458e+00 -5.237595e-01 1.231095e-01
<VARIANCE> 25
 4.087640e+01 1.121224e+01 3.381259e+01 5.862896e+01 3.810863e+01 2.144896e+01 6.315921e+01 1.988194e+01 2.379837e+01 1.691833e+01 5.064861e+01 1.811329e+01 5.669470e+00 1.439154e+00 3.291648e+00 7.210048e+00 5.661701e+00 2.277537e+00 9.359594e+00 2.400449e+00 1.849431e+00 2.328136e+00 6.707965e+00 1.567155e+00 3.112138e-01
<GCONST> 9.990785e+01
<TRANSP> 5
 0.000000e+00 1.000000e+00 0.000000e+00 0.000000e+00 0.000000e+00
 0.000000e+00 5.360461e-01 4.639540e-01 0.000000e+00 0.000000e+00
 0.000000e+00 0.000000e+00 5.338784e-01 4.661216e-01 0.000000e+00
 0.000000e+00 0.000000e+00 0.000000e+00 6.468434e-01 3.531567e-01
 0.000000e+00 0.000000e+00 0.000000e+00 0.000000e+00 0.000000e+00
<ENDHMM>
~h "ay"
<BEGINHMM>
<NUMSTATES> 5
<STATE> 2
<MEAN> 25
 3.208339e+00 2.753815e+00 1.621216e+00 2.564736e+00 2.462349e+00 -1.654631e+00 -4.317144e+00 -1.216686e+00 -9.137149e-01 -1.439018e+00 -2.682479e+00 -4.921734e+00 2.728844e-01 7.569122e-02 -5.513866e-02 2.998196e-01 2.568454e-01 -9.253772e-02 -3.297642e-01 -1.792005e-01 -1.382861e-01 -4.538437e-01 -5.101254e-01 -4.684500e-01 1.519932e-01
<VARIANCE> 25
 3.203322e+01 1.735604e+01 1.286253e+01 3.710998e+01 7.991569e+01 5.037770e+01 5.951839e+01 2.926101e+01 3.871209e+01 2.146390e+01 3.804492e+01 9.562279e+00 1.245989e+00 1.248498e+00 1.014933e+00 1.133136e+00 2.196038e+00 1.355893e+00 2.784261e+00 1.581662e+00 1.533230e+00 1.862796e+00 3.032807e+00 1.349645e+00 1.866834e-01
<GCONST> 9.075373e+01
<STATE> 3
<MEAN> 25
 3.348080e+00 3.370939e+00 1.760114e+00 -2.383136e-01 -9.274351e-01 -3.765648e+00 -2.390977e+00 1.143329e+00 1.249894e+00 -7.646986e-01 -2.807635e+00 -5.262500e+00 -2.155434e-01 -5.981638e-01 2.034330e-01 1.012408e-01 -6.324281e-02 4.587274e-01 3.645215e-01 -2.549150e-02 -4.796318e-01 -3.268426e-01 7.456291e-03 -1.510154e-02 1.386877e-01
<VARIANCE> 25
 4.518874e+01 2.192245e+01 2.185110e+01 3.686071e+01 6.927225e+01 5.490568e+01 4.965434e+01 1.914263e+01 2.517131e+01 1.799009e+01 5.340424e+01 1.188552e+01 5.734587e-01 1.355136e+00 1.317367e+00 9.979882e-01 2.093379e+00 2.235042e+00 1.885374e+00 1.458721e+00 1.690375e+00 1.616501e+00 2.132577e+00 1.729016e+00 2.260738e-01
<GCONST> 9.060548e+01
<STATE> 4
<MEAN> 25
 1.960925e+00 1.437556e+00 2.307786e+00 -1.682981e+00 -2.016486e+00 -2.691586e+00 3.475525e-01 1.705701e+00 -2.968121e-01 -9.459441e-01 -1.373580e+00 -3.831228e+00 -4.174725e-01 -1.051825e+00 2.595662e-01 2.215598e-01 1.031005e-01 8.057490e-01 4.690687e-01 -1.639116e-01 -6.322865e-01 -2.293789e-01 5.470722e-01 5.036408e-01 1.278743e-01
<VARIANCE> 25
 5.640418e+01 2.789653e+01 3.712012e+01 2.267538e+01 4.110042e+01 4.269867e+01 4.055557e+01 9.805538e+00 2.276114e+01 2.505243e+01 5.647855e+01 1.687154e+01 1.245683e+00 1.421295e+00 2.009478e+00 1.556443e+00 2.336219e+00 2.476251e+00 1.910656e+00 1.080104e+00 2.028392e+00 1.488119e+00 3.298233e+00 1.615235e+00 2.628161e-01
<GCONST> 9.233736e+01
<TRANSP> 5
 0.000000e+00 1.000000e+00 0.000000e+00 0.000000e+00 0.000000e+00
 0.000000e+00 7.905055e-01 2.094945e-01 0.000000e+00 0.000000e+00
 0.000000e+00 0.000000e+00 6.239672e-01 3.760328e-01 0.000000e+00
 0.000000e+00 0.000000e+00 0.000000e+00 6.419538e-01 3.580462e-01
 0.000000e+00 0.000000e+00 0.000000e+00 0.000000e+00 0.000000e+00
<ENDHMM>
~h "ch"
<BEGINHMM>
<NUMSTATES> 5
<STATE> 2
<MEAN> 25
 -3.179653e+00 -1.104446e+01 5.338418e+00 4.844819e+00 -1.192282e+00 7.399811e-01 -1.117590e+00 -3.434620e+00 4.478529e+00 -2.088836e+00 -3.026711e+00 -2.384827e-01 -1.412718e+00 -9.644594e-01 1.095853e+00 2.049958e-01 -3.251649e-01 -2.348267e-01 6.979867e-01 8.491345e-01 5.981673e-01 4.494100e-01 1.127051e+00 6.197590e-01 -2.096415e-01
<VARIANCE> 25
 2.600987e+01 3.402560e+01 2.766080e+01 1.616456e+01 1.055448e+01 9.935351e+00 1.215885e+01 3.228661e+01 3.248578e+01 1.400528e+01 2.723577e+01 1.138417e+01 1.479897e+00 5.355325e+00 2.791779e+00 2.498976e+00 1.464006e+00 1.503259e+00 9.724340e-01 2.959020e+00 4.459683e+00 1.868877e+00 1.600403e+00 7.779511e-01 4.451032e-01
<GCONST> 8.870618e+01
<STATE> 3
<MEAN> 25
 -6.485464e+00 -9.908586e+00 6.298424e+00 3.394393e+00 -1.346571e+00 -6.023371e-01 1.883642e+00 1.476969e+00 3.793767e+00 -5.460168e-01 1.880688e+00 2.496992e+00 -7.606502e-02 1.057421e+00 -6.148027e-01 -5.310403e-01 -1.233564e-01 -8.979119e-02 6.624178e-01 6.527213e-01 -5.696591e-01 4.712182e-01 7.568629e-01 5.385373e-01 -7.788628e-01
<VARIANCE> 25
 6.288002e+00 2.531950e+01 1.870695e+01 1.722188e+01 6.888212e+00 1.083436e+01 1.224966e+01 2.420146e+01 2.082491e+01 1.259019e+01 2.443433e+01 1.039650e+01 1.333853e+00 2.741105e+00 3.160976e+00 1.967424e+00 6.434229e-01 8.447321e-01 9.819092e-01 2.409207e+00 2.901605e+00 1.511247e+00 2.224640e+00 1.023894e+00 5.061862e-01
<GCONST> 8.289913e+01
<STATE> 4
<MEAN> 25
 -5.198466e+00 -4.757143e+00 2.414821e+00 1.421686e+00 -2.187614e+00 -1.248169e-01 4.001966e+00 2.443392e+00 9.251591e-01 1.576374e+00 3.529143e+00 3.647105e+00 8.007609e-01 1.056230e+00 -5.206685e-01 -2.324118e-01 -3.173100e-01 -2.539419e-01 -1.514518e-01 -5.843233e-01 -8.521413e-01 -4.795672e-03 -2.812935e-01 -4.944025e-01 -1.130390e-01
<VARIANCE> 25
 5.263655e+00 1.251405e+01 1.273956e+01 5.959221e+00 6.357963e+00 1.018196e+01 8.562163e+00 1.283508e+01 1.423738e+01 9.311989e+00 1.181528e+01 8.614646e+00 1.151237e+00 7.923825e-01 1.521594e+00 8.026910e-01 5.384765e-01 9.203966e-01 1.780484e+00 1.958682e+00 1.506785e+00 1.394668e+00 1.938357e+00 1.769965e+00 7.565088e-01
<GCONST> 7.519584e+01
<TRANSP> 5
 0.000000e+00 1.000000e+00 0.000000e+00 0.000000e+00 0.000000e+00
 0.000000e+00 8.261638e-01 1.738362e-01 0.000000e+00 0.000000e+00
 0.000000e+00 0.000000e+00 6.839395e-01 3.160605e-01 0.000000e+00
 0.000000e+00 0.000000e+00 0.000000e+00 7.515270e-01 2.484730e-01
 0.000000e+00 0.000000e+00 0.000000e+00 0.000000e+00 0.000000e+00
<ENDHMM>
~h "ee"
<BEGINHMM>
<NUMSTATES> 5
<STATE> 2
<MEAN> 25
 5.612925e+00 3.555792e+00 -1.514805e+00 1.594915e+00 2.711990e+00 -1.288722e+00 -2.721131e+00 -1.110898e-01 8.943484e-01 3.174543e-03 -2.655063e+00 -3.624506e+00 -2.600482e-01 2.795472e-01 9.836558e-02 -2.361340e-01 -1.517520e-01 3.426182e-01 5.523046e-01 2.814287e-01 4.156513e-01 4.160164e-01 -7.645720e-02 -1.002077e-01 -2.849396e-01
<VARIANCE> 25
 1.555986e+01 1.598896e+01 1.372444e+01 3.342975e+01 3.546014e+01 1.197189e+01 2.290348e+01 1.070942e+01 1.499927e+01 1.491514e+01 1.670397e+01 1.804130e+01 3.853294e-01 8.333522e-01 8.763770e-01 1.076337e+00 1.218056e+00 1.016486e+00 1.950671e+00 9.883348e-01 1.716733e+00 1.445926e+00 1.281719e+00 1.571705e+00 2.354906e-01
<GCONST> 8.010336e+01
<STATE> 3
<MEAN> 25
 4.841198e+00 3.291994e+00 -1.559285e+00 1.275204e+00 2.751848e+00 -4.889923e-01 -1.705953e+00 2.107534e-01 1.133989e+00 4.804524e-01 -2.469754e+00 -3.225728e+00 -2.605698e-01 -1.353651e-01 -1.931177e-01 -1.366331e-01 6.614806e-02 2.525156e-01 2.640150e-01 8.709855e-02 1.273957e-01 2.464224e-01 1.282211e-01 2.366738e-01 -2.009165e-01
<VARIANCE> 25
 1.571061e+01 1.787090e+01 1.506108e+01 2.311969e+01 2.402941e+01 1.189508e+01 2.226608e+01 1.056623e+01 1.612219e+01 1.371875e+01 1.792777e+01 2.173352e+01 4.720914e-01 8.104821e-01 1.247971e+00 1.110352e+00 1.102428e+00 1.120800e+00 1.683770e+00 8.206674e-01 1.236564e+00 1.054915e+00 1.385273e+00 1.231409e+00 3.085167e-01
<GCONST> 7.944185e+01
<STATE> 4
<MEAN> 25
 3.949882e+00 2.584674e+00 -2.110231e+00 6.147309e-01 2.593469e+00 7.558149e-02 -8.933756e-01 5.456558e-01 1.007066e+00 9.148883e-01 -1.477910e+00 -1.969826e+00 -3.214041e-01 -1.471332e-01 -2.083976e-01 -2.480511e-01 -5.601682e-02 2.211486e-01 2.828715e-01 1.155353e-01 -2.445111e-02 1.659645e-01 3.059221e-01 3.858845e-01 -2.148988e-01
<VARIANCE> 25
 1.704853e+01 1.593176e+01 1.631971e+01 1.483872e+01 1.525501e+01 1.212017e+01 2.475716e+01 1.178080e+01 1.644865e+01 1.210684e+01 1.782747e+01 2.587512e+01 5.202101e-01 8.663641e-01 1.322087e+00 9.665056e-01 9.193300e-01 1.119550e+00 1.543541e+00 9.165863e-01 1.205277e+00 8.423905e-01 1.101159e+00 1.038682e+00 3.321073e-01
<GCONST> 7.823551e+01
<TRANSP> 5
 0.000000e+00 1.000000e+00 0.000000e+00 0.000000e+00 0.000000e+00
 0.000000e+00 6.213174e-01 3.786826e-01 0.000000e+00 0.000000e+00
 0.000000e+00 0.000000e+00 5.414011e-01 4.585989e-01 0.000000e+00
 0.000000e+00 0.000000e+00 0.000000e+00 5.908186e-01 4.091814e-01
 0.000000e+00 0.000000e+00 0.000000e+00 0.000000e+00 0.000000e+00
<ENDHMM>
~h "ii"
<BEGINHMM>
<NUMSTATES> 5
<STATE> 2
<MEAN> 25
 1.121734e+00 3.940862e+00 4.507866e-01 1.294613e+00 1.461262e+00 3.441436e-01 7.149997e-01 2.098255e-01 -1.514434e+00 -1.103589e+00 -2.406777e+00 -1.241520e+00 4.516508e-01 -6.501877e-01 -4.530403e-01 -4.382727e-02 8.774072e-02 -6.874862e-01 -9.877547e-01 -3.225435e-01 -1.472983e-01 -1.167825e-01 1.030057e-01 -9.876487e-02 5.856793e-01
<VARIANCE> 25
 2.053242e+01 1.107412e+01 7.284218e+00 7.917764e+00 7.587486e+00 1.594925e+01 2.008675e+01 8.943073e+00 1.073805e+01 1.210521e+01 2.032956e+01 2.653145e+01 1.590971e+00 1.354557e+00 1.629639e+00 8.480166e-01 1.359639e+00 2.820604e+00 3.418061e+00 1.686742e+00 1.342102e+00 1.368207e+00 1.841489e+00 1.708756e+00 8.138195e-01
<GCONST> 8.230847e+01
<STATE> 3
<MEAN> 25
 4.288293e+00 3.520252e+00 -4.732856e-01 1.559793e+00 1.596276e+00 -2.181512e+00 -3.148025e+00 -1.012686e+00 -1.938805e+00 -2.625978e+00 -3.880427e+00 -3.147649e+00 8.297715e-01 -1.236606e+00 -2.647228e-01 2.485735e-01 4.580004e-01 -6.132772e-01 -1.595510e+00 -1.116586e+00 -8.679455e-01 -6.040298e-01 3.287756e-02 -3.011227e-01 1.209156e+00
<VARIANCE> 25
 2.800106e+01 1.533202e+01 1.075597e+01 9.675560e+00 1.297837e+01 2.535715e+01 3.541606e+01 1.888031e+01 1.430928e+01 1.798047e+01 2.721380e+01 2.717657e+01 2.794269e+00 2.675498e+00 4.331509e+00 1.019404e+00 1.939662e+00 3.489253e+00 3.477260e+00 1.073116e+00 1.385940e+00 1.337350e+00 3.298499e+00 2.232738e+00 5.943255e-01
<GCONST> 8.993138e+01
<STATE> 4
<MEAN> 25
 4.459188e+00 1.282361e+00 7.904226e-01 1.869208e+00 2.416434e+00 -1.988477e+00 -4.287979e+00 -2.526803e+00 -3.561513e+00 -3.350251e+00 -2.937040e+00 -3.791686e+00 1.986869e-01 -1.364735e+00 3.104373e-01 8.235119e-02 3.081131e-01 7.351252e-02 -8.255964e-01 -1.161365e+00 -9.581212e-01 -3.550116e-01 4.322691e-01 -2.240296e-01 1.077270e+00
<VARIANCE> 25
 4.508516e+01 2.214611e+01 3.915570e+01 1.821173e+01 2.414964e+01 3.855638e+01 3.599812e+01 1.852607e+01 2.114630e+01 1.996185e+01 4.623413e+01 1.602836e+01 4.468190e+00 3.134536e+00 5.874960e+00 1.843812e+00 3.479296e+00 4.215184e+00 4.582901e+00 1.314029e+00 1.578787e+00 1.552641e+00 4.362342e+00 2.618990e+00 5.728417e-01
<GCONST> 9.769336e+01
<TRANSP> 5
 0.000000e+00 1.000000e+00 0.000000e+00 0.000000e+00 0.000000e+00
 0.000000e+00 4.322446e-01 5.677553e-01 0.000000e+00 0.000000e+00
 0.000000e+00 0.000000e+00 1.214026e-01 8.785974e-01 0.000000e+00
 0.000000e+00 0.000000e+00 0.000000e+00 2.245056e-01 7.754944e-01
 0.000000e+00 0.000000e+00 0.000000e+00 0.000000e+00 0.000000e+00
<ENDHMM>
~h "ll"
<BEGINHMM>
<NUMSTATES> 5
<STATE> 2
<MEAN> 25
 3.931761e+00 -1.777739e+00 2.515547e+00 4.463590e-01 2.101304e+00 -1.272638e+00 -5.461764e+00 -5.030296e+00 -5.689865e+00 -4.053708e+00 -1.109481e+00 -3.929434e+00 -1.352431e+00 -1.617103e+00 1.398531e+00 -8.875652e-01 -2.332496e-01 1.379787e+00 1.758897e-01 -1.041795e+00 -6.657003e-01 2.015875e-01 1.529891e+00 9.112638e-02 5.820969e-01
<VARIANCE> 25
 6.659468e+01 1.790963e+01 8.012693e+01 2.917958e+01 2.505693e+01 4.074019e+01 3.705791e+01 2.057099e+01 1.987973e+01 1.360055e+01 4.806989e+01 1.268046e+01 4.623394e+00 2.021419e+00 7.004476e+00 3.295289e+00 4.288464e+00 3.368156e+00 5.377223e+00 2.278064e+00 1.913372e+00 1.155258e+00 1.918335e+00 1.464065e+00 6.287324e-01
<GCONST> 9.827680e+01
<STATE> 3
<MEAN> 25
 -6.749144e-01 -3.848128e+00 6.832551e+00 -2.574158e+00 5.170712e-01 1.838753e+00 -3.787307e+00 -5.869680e+00 -5.536003e+00 -3.107245e+00 2.495132e+00 -4.039754e+00 -1.760931e+00 -1.081653e+00 1.747027e+00 -9.883391e-01 -7.776831e-01 1.343507e+00 8.598633e-01 -5.504612e-01 -1.054787e-02 4.258738e-01 1.297099e+00 -1.340743e-01 1.239194e-01
<VARIANCE> 25
 9.046287e+01 1.143791e+01 9.621115e+01 4.275658e+01 3.217844e+01 4.004309e+01 4.354841e+01 2.264990e+01 2.452603e+01 1.287093e+01 3.958690e+01 1.200149e+01 3.354915e+00 1.396230e+00 5.804834e+00 3.155675e+00 3.102985e+00 2.834152e+00 3.482010e+00 2.656449e+00 2.214778e+00 9.420408e-01 2.047817e+00 1.297241e+00 3.630898e-01
<GCONST> 9.673454e+01
<STATE> 4
<MEAN> 25
 -7.160057e+00 -6.174735e+00 1.340164e+01 -5.809423e+00 -3.035275e+00 6.198328e+00 7.590685e-01 -6.301967e+00 -3.804428e+00 -1.956786e+00 5.674435e+00 -5.221436e+00 -1.357778e+00 -4.437317e-01 1.180564e+00 -4.532200e-01 -6.475797e-01 5.756027e-01 8.773206e-01 3.692686e-01 6.585286e-01 3.415494e-01 6.371028e-01 -6.116800e-02 -1.715358e-01
<VARIANCE> 25
 5.201756e+01 8.250628e+00 4.854575e+01 3.105017e+01 2.315400e+01 2.401114e+01 2.924554e+01 2.342987e+01 2.496743e+01 1.213559e+01 2.555837e+01 9.642920e+00 3.608574e+00 8.402581e-01 4.541605e+00 3.781753e+00 2.671745e+00 2.798188e+00 2.745565e+00 2.126341e+00 1.486793e+00 1.128595e+00 2.484319e+00 9.751573e-01 1.751529e-01
<GCONST> 9.078740e+01
<TRANSP> 5
 0.000000e+00 1.000000e+00 0.000000e+00 0.000000e+00 0.000000e+00
 0.000000e+00 2.052066e-01 7.947934e-01 0.000000e+00 0.000000e+00
 0.000000e+00 0.000000e+00 4.198581e-01 5.801419e-01 0.000000e+00
 0.000000e+00 0.000000e+00 0.000000e+00 8.801246e-01 1.198754e-01
 0.000000e+00 0.000000e+00 0.000000e+00 0.000000e+00 0.000000e+00
<ENDHMM>
~h "mm"
<BEGINHMM>
<NUMSTATES> 5
<STATE> 2
<MEAN> 25
 3.601486e+00 1.502304e+00 -4.071943e+00 4.838130e-02 3.041595e+00 2.592734e-02 -9.664729e-01 6.714977e-01 5.172673e-01 5.514139e-01 -8.296701e-02 1.110249e+00 -2.429564e-01 -5.344019e-02 -2.734898e-01 -3.786905e-01 -3.746184e-01 -2.348934e-02 2.165569e-01 3.149788e-01 1.773804e-01 2.663565e-01 3.136765e-01 3.350639e-01 -2.073641e-01
<VARIANCE> 25
 1.833285e+01 1.175492e+01 1.123773e+01 1.615339e+01 1.710718e+01 1.308980e+01 3.480767e+01 1.178826e+01 1.054061e+01 1.131347e+01 1.383613e+01 1.330874e+01 5.007179e-01 9.404714e-01 1.087128e+00 7.666480e-01 7.702186e-01 1.180555e+00 1.998045e+00 1.230100e+00 1.090285e+00 7.298133e-01 1.021176e+00 1.143718e+00 4.201072e-01
<GCONST> 7.687488e+01
<STATE> 3
<MEAN> 25
 3.124067e+00 1.328122e+00 -4.570585e+00 -7.787259e-01 2.152466e+00 -4.303795e-02 -5.826694e-01 1.310427e+00 8.434671e-01 1.034105e+00 6.423697e-01 1.875853e+00 -3.406804e-01 2.977792e-02 -5.800970e-02 -2.759190e-01 -4.465567e-01 6.685684e-02 4.203484e-01 4.153043e-01 1.586116e-01 2.596110e-01 2.180580e-01 1.733262e-01 -3.018966e-01
<VARIANCE> 25
 2.001213e+01 1.105861e+01 9.918318e+00 1.180498e+01 1.421077e+01 1.417306e+01 3.637630e+01 1.116025e+01 7.695508e+00 1.066879e+01 1.011664e+01 9.949281e+00 5.150308e-01 7.377298e-01 8.650668e-01 7.621699e-01 7.852706e-01 9.559131e-01 1.674961e+00 1.319820e+00 1.125889e+00 6.816808e-01 9.402767e-01 1.085795e+00 3.411679e-01
<GCONST> 7.424360e+01
<STATE> 4
<MEAN> 25
 1.455741e+00 1.581674e+00 -4.203988e+00 -1.302618e+00 1.022263e+00 7.349749e-01 1.253773e+00 2.091418e+00 9.298123e-01 1.935008e+00 1.352231e+00 2.710194e+00 -4.837938e-01 6.913802e-02 1.876534e-01 -1.032447e-01 -3.519918e-01 1.868362e-01 5.894110e-01 3.882783e-01 1.447472e-01 1.995260e-01 4.506396e-02 2.884999e-02 -4.059393e-01
<VARIANCE> 25
 1.956040e+01 7.123207e+00 8.267367e+00 7.287888e+00 9.192725e+00 1.211214e+01 2.873811e+01 1.293112e+01 6.707226e+00 9.102676e+00 6.976656e+00 9.668926e+00 5.600330e-01 5.441161e-01 6.484027e-01 6.449741e-01 6.599618e-01 6.784152e-01 1.146466e+00 9.623522e-01 1.070090e+00 7.532788e-01 7.090191e-01 7.280256e-01 2.529714e-01
<GCONST> 6.891930e+01
<TRANSP> 5
 0.000000e+00 1.000000e+00 0.000000e+00 0.000000e+00 0.000000e+00
 0.000000e+00 4.298466e-01 5.701534e-01 0.000000e+00 0.000000e+00
 0.000000e+00 0.000000e+00 4.346214e-01 5.653787e-01 0.000000e+00
 0.000000e+00 0.000000e+00 0.000000e+00 6.316398e-01 3.683602e-01
 0.000000e+00 0.000000e+00 0.000000e+00 0.000000e+00 0.000000e+00
<ENDHMM>
~h "nn"
<BEGINHMM>
<NUMSTATES> 5
<STATE> 2
<MEAN> 25
 1.997729e+00 2.062919e+00 -1.809220e+00 8.980858e-01 2.182324e+00 1.154896e+00 9.599591e-01 -1.091555e-01 -1.296491e+00 1.039402e-01 2.135178e-01 6.860511e-01 -5.301177e-01 9.892272e-03 7.713976e-02 -1.257966e-01 -2.338580e-01 9.768151e-02 4.477152e-01 3.310920e-01 6.990944e-01 8.726777e-01 3.616362e-01 3.914033e-01 -4.039916e-01
<VARIANCE> 25
 1.129527e+01 1.233376e+01 1.583007e+01 6.394452e+00 9.798911e+00 2.116718e+01 2.378036e+01 8.822748e+00 1.470329e+01 1.666160e+01 2.031546e+01 1.499822e+01 4.437120e-01 6.205813e-01 3.977933e-01 7.330161e-01 4.855032e-01 6.624541e-01 1.137621e+00 9.029462e-01 1.120875e+00 7.994356e-01 8.854989e-01 1.225001e+00 2.548074e-01
<GCONST> 7.237715e+01
<STATE> 3
<MEAN> 25
 1.352394e+00 1.914274e+00 -1.819331e+00 7.030712e-01 1.942510e+00 1.181838e+00 1.337791e+00 4.596661e-01 -3.194772e-01 1.047329e+00 5.084540e-01 1.075296e+00 -2.970435e-01 7.000190e-02 2.438745e-01 1.377598e-01 -1.489914e-01 9.880936e-03 1.972932e-01 1.725262e-01 3.538389e-01 2.781005e-01 -5.219806e-02 -2.124305e-02 -2.089706e-01
<VARIANCE> 25
 1.343372e+01 1.118447e+01 1.590288e+01 6.443686e+00 1.173472e+01 2.048250e+01 2.604743e+01 7.229164e+00 1.136148e+01 1.291784e+01 1.966098e+01 1.720363e+01 4.437886e-01 5.125200e-01 3.805617e-01 8.847626e-01 4.476835e-01 8.584018e-01 1.214931e+00 7.352347e-01 1.487766e+00 1.050826e+00 9.631831e-01 9.110883e-01 2.454431e-01
<GCONST> 7.239452e+01
<STATE> 4
<MEAN> 25
 1.236611e+00 2.245804e+00 -1.609723e+00 7.996388e-01 1.455358e+00 1.110454e+00 1.425845e+00 2.086477e-01 -5.538276e-01 5.556530e-01 -2.403855e-02 1.069909e+00 1.334410e-02 2.271674e-01 3.975529e-01 4.520868e-01 1.575437e-01 -1.399564e-01 -2.316075e-01 -1.482764e-01 -9.212586e-02 -1.736581e-01 -3.007285e-01 -4.415927e-01 -2.196141e-02
<VARIANCE> 25
 1.299348e+01 9.762778e+00 1.450936e+01 5.940360e+00 1.364902e+01 1.952246e+01 2.054046e+01 6.562551e+00 1.022931e+01 1.012362e+01 1.906410e+01 1.842542e+01 6.151602e-01 5.184000e-01 5.947932e-01 1.097847e+00 8.326538e-01 1.357406e+00 1.901038e+00 6.425094e-01 1.274339e+00 7.595824e-01 1.118488e+00 1.712948e+00 3.772691e-01
<GCONST> 7.463342e+01
<TRANSP> 5
 0.000000e+00 1.000000e+00 0.000000e+00 0.000000e+00 0.000000e+00
 0.000000e+00 2.583708e-01 7.416292e-01 0.000000e+00 0.000000e+00
 0.000000e+00 0.000000e+00 2.635338e-01 7.364661e-01 0.000000e+00
 0.000000e+00 0.000000e+00 0.000000e+00 3.484545e-01 6.515455e-01
 0.000000e+00 0.000000e+00 0.000000e+00 0.000000e+00 0.000000e+00
<ENDHMM>
~h "oo"
<BEGINHMM>
<NUMSTATES> 5
<STATE> 2
<MEAN> 25
 1.241647e+00 -5.488171e-01 3.225872e+00 -2.833155e-01 -3.896555e+00 -3.160202e+00 -1.066049e+00 2.336794e-01 -3.223563e-01 -3.303192e+00 -1.591335e+00 -2.940472e+00 -9.851705e-03 -4.341006e-01 -4.772567e-02 -1.275121e-01 -3.946777e-02 -4.918689e-02 1.549221e-02 2.284645e-01 3.131674e-01 -9.667727e-02 -7.184810e-02 -1.038752e-01 2.630174e-01
<VARIANCE> 25
 5.109270e+01 5.715425e+01 4.419616e+01 1.765753e+01 2.776753e+01 4.994051e+01 4.926821e+01 1.669439e+01 3.592570e+01 1.813427e+01 8.124901e+01 2.151853e+01 2.746840e+00 2.206908e+00 2.456109e+00 1.560502e+00 3.571203e+00 4.672170e+00 3.338763e+00 1.962097e+00 3.057038e+00 1.912004e+00 4.583886e+00 2.124311e+00 5.368948e-01
<GCONST> 9.973827e+01
<STATE> 3
<MEAN> 25
 1.753585e+00 -6.554180e-01 2.145072e+00 -1.020422e-01 -3.004582e+00 -3.199711e+00 -1.456429e+00 6.699714e-01 7.802291e-01 -2.870775e+00 -2.306427e+00 -2.908978e+00 1.493490e-01 -1.480345e-01 -3.276586e-01 3.719112e-02 4.904312e-01 2.716902e-01 -9.325858e-02 -1.681434e-01 -4.419350e-02 2.804152e-02 -1.410363e-01 1.624788e-02 1.068288e-01
<VARIANCE> 25
 5.248774e+01 5.630569e+01 4.251080e+01 2.243681e+01 3.274158e+01 4.488501e+01 4.396272e+01 1.842933e+01 3.060764e+01 2.146128e+01 7.834035e+01 2.150609e+01 2.070374e+00 2.361618e+00 2.008295e+00 1.700699e+00 4.085636e+00 4.792433e+00 3.076012e+00 2.693861e+00 3.340631e+00 2.136536e+00 4.376192e+00 2.476599e+00 5.538284e-01
<GCONST> 1.003677e+02
<STATE> 4
<MEAN> 25
 2.905463e+00 -1.580144e-01 8.091890e-01 3.273568e-01 -1.738235e+00 -3.162074e+00 -2.419287e+00 -1.720034e-02 3.937922e-01 -3.028084e+00 -3.423686e+00 -3.104518e+00 5.627029e-02 -1.897550e-01 -2.682101e-01 2.315567e-01 6.878822e-01 5.695737e-01 -6.143562e-02 -4.483338e-01 -2.803308e-01 4.701360e-02 -6.986175e-03 1.671381e-01 1.501705e-02
<VARIANCE> 25
 4.300961e+01 4.576565e+01 3.452163e+01 2.196818e+01 3.735756e+01 4.482045e+01 3.525854e+01 2.357120e+01 3.067898e+01 2.323538e+01 6.050634e+01 1.923555e+01 2.150904e+00 2.762073e+00 2.365992e+00 1.695504e+00 4.102637e+00 4.971504e+00 3.373093e+00 3.282531e+00 3.254197e+00 2.282089e+00 4.430191e+00 2.406605e+00 4.913860e-01
<GCONST> 1.001898e+02
<TRANSP> 5
 0.000000e+00 1.000000e+00 0.000000e+00 0.000000e+00 0.000000e+00
 0.000000e+00 6.170441e-01 3.829559e-01 0.000000e+00 0.000000e+00
 0.000000e+00 0.000000e+00 5.299126e-01 4.700874e-01 0.000000e+00
 0.000000e+00 0.000000e+00 0.000000e+00 6.077236e-01 3.922764e-01
 0.000000e+00 0.000000e+00 0.000000e+00 0.000000e+00 0.000000e+00
<ENDHMM>
~h "rr"
<BEGINHMM>
<NUMSTATES> 5
<STATE> 2
<MEAN> 25
 5.755227e+00 -4.296145e-02 -1.136810e+00 7.490467e+00 8.687952e+00 -1.987888e+00 -1.025194e+01 -5.257836e+00 -2.473487e+00 -4.309239e+00 -4.949556e+00 -4.996351e+00 2.217871e-01 -2.802140e-01 -8.491845e-02 3.590893e-01 3.248958e-01 -3.063675e-01 -5.840837e-01 -1.190392e-01 1.181222e-01 -1.321848e-02 2.572672e-02 -1.543004e-02 2.447868e-01
<VARIANCE> 25
 6.406060e+00 1.582993e+01 9.943127e+00 2.594307e+01 2.718176e+01 1.785370e+01 5.783220e+01 1.839340e+01 1.463870e+01 1.152594e+01 1.099259e+01 1.089051e+01 6.248468e-01 1.304332e+00 1.039107e+00 1.167284e+00 1.464245e+00 1.857112e+00 4.305994e+00 1.973708e+00 1.383213e+00 1.263010e+00 1.146767e+00 1.196846e+00 4.387688e-01
<GCONST> 8.236608e+01
<STATE> 3
<MEAN> 25
 5.991590e+00 8.133510e-01 -1.931530e+00 4.738758e+00 5.667664e+00 -2.118574e+00 -6.525990e+00 -3.000388e+00 -1.839527e+00 -2.620782e+00 -3.280998e+00 -2.552398e+00 -1.451188e-01 -7.859146e-02 -3.345982e-03 -8.945441e-02 1.876351e-02 3.558162e-01 4.751012e-01 1.459664e-02 -1.114764e-01 2.697171e-01 3.383583e-01 2.445592e-01 -8.111037e-02
<VARIANCE> 25
 9.176207e+00 1.496414e+01 1.663224e+01 3.314482e+01 2.718152e+01 1.660498e+01 4.143485e+01 1.716109e+01 1.972641e+01 8.912167e+00 1.352808e+01 1.505758e+01 6.271670e-01 1.956224e+00 1.710068e+00 1.590083e+00 1.273603e+00 1.785647e+00 3.492733e+00 1.305678e+00 1.564119e+00 9.097777e-01 1.298940e+00 1.581217e+00 4.830736e-01
<GCONST> 8.423521e+01
<STATE> 4
<MEAN> 25
 4.092498e+00 5.379664e-01 -6.170455e-01 2.607652e+00 3.682409e+00 -1.992504e-01 -3.428194e+00 -2.506689e+00 -2.517796e+00 -1.430870e+00 -1.259325e+00 -1.588804e+00 -5.369843e-01 -1.437007e-01 4.677841e-01 -1.091372e-01 -2.703790e-01 4.948937e-01 7.152749e-01 1.081541e-01 -7.579014e-02 1.147117e-01 3.162147e-01 6.137006e-02 -1.985317e-01
<VARIANCE> 25
 2.360055e+01 1.411161e+01 2.634125e+01 3.382142e+01 3.283889e+01 1.477170e+01 3.685107e+01 1.771118e+01 1.669739e+01 1.039703e+01 2.299122e+01 1.244489e+01 8.165473e-01 1.973291e+00 1.652248e+00 2.061482e+00 1.485291e+00 1.412006e+00 2.920223e+00 1.228545e+00 1.705039e+00 8.631819e-01 1.113012e+00 1.276733e+00 4.834342e-01
<GCONST> 8.575773e+01
<TRANSP> 5
 0.000000e+00 1.000000e+00 0.000000e+00 0.000000e+00 0.000000e+00
 0.000000e+00 8.873940e-01 1.126060e-01 0.000000e+00 0.000000e+00
 0.000000e+00 0.000000e+00 5.821309e-01 4.178691e-01 0.000000e+00
 0.000000e+00 0.000000e+00 0.000000e+00 5.518340e-01 4.481660e-01
 0.000000e+00 0.000000e+00 0.000000e+00 0.000000e+00 0.000000e+00
<ENDHMM>
~h "ss"
<BEGINHMM>
<NUMSTATES> 5
<STATE> 2
<MEAN> 25
 1.003375e-01 3.814288e+00 1.521244e-01 5.711522e-01 9.807423e-01 1.886363e+00 2.964201e+00 1.357387e+00 1.342043e-01 4.504992e-01 -1.504882e+00 -5.368865e-01 1.994999e-01 1.373813e-01 1.374729e-01 -7.482409e-03 -1.894570e-01 -3.848153e-01 -3.247776e-01 -1.360139e-01 -3.071954e-01 -3.877638e-01 -1.096394e-01 8.661737e-02 1.183914e-01
<VARIANCE> 25
 1.283156e+01 1.345861e+01 1.148803e+01 8.827974e+00 8.552892e+00 1.101443e+01 1.125469e+01 6.979328e+00 7.293284e+00 1.459653e+01 2.811056e+01 3.221034e+01 6.982962e-01 5.164417e-01 3.888524e-01 4.441404e-01 4.688951e-01 8.816580e-01 1.250888e+00 7.072054e-01 9.341078e-01 1.340350e+00 1.157104e+00 1.371932e+00 2.679709e-01
<GCONST> 7.169112e+01
<STATE> 3
<MEAN> 25
 1.602740e+00 5.178219e+00 1.220291e+00 1.275524e+00 1.166106e+00 1.237032e+00 2.220695e+00 1.052295e+00 -5.490398e-01 -1.270218e+00 -3.190718e+00 -1.983694e+00 5.677391e-01 1.086066e-02 2.676324e-02 -8.561462e-02 -3.723359e-01 -7.584656e-01 -8.833153e-01 -5.638748e-01 -4.867499e-01 -3.794076e-01 -4.370733e-02 1.115321e-02 4.557331e-01
<VARIANCE> 25
 1.526636e+01 1.370481e+01 1.120317e+01 8.324814e+00 9.677004e+00 1.580945e+01 1.766399e+01 9.439539e+00 1.089316e+01 1.571155e+01 2.237678e+01 2.433278e+01 4.669575e-01 6.575037e-01 5.465707e-01 6.542965e-01 5.719069e-01 8.820995e-01 1.195773e+00 7.087181e-01 1.108851e+00 1.258441e+00 1.058728e+00 1.457575e+00 2.716189e-01
<GCONST> 7.381979e+01
<STATE> 4
<MEAN> 25
 2.438444e+00 5.306220e+00 1.847539e+00 1.599530e+00 8.476439e-01 2.891731e-02 9.310293e-01 2.212960e-01 -1.320905e+00 -1.483907e+00 -3.188858e+00 -2.796990e+00 1.028707e+00 -2.601771e-01 -3.537304e-01 -5.254245e-02 -2.929339e-01 -1.360041e+00 -1.747408e+00 -7.833068e-01 -5.415374e-01 -5.323447e-01 -2.936462e-01 -3.580615e-01 8.553012e-01
<VARIANCE> 25
 1.698197e+01 1.632454e+01 1.051099e+01 6.444595e+00 8.374197e+00 1.318096e+01 1.842727e+01 9.729805e+00 9.013633e+00 1.511680e+01 2.648937e+01 2.447541e+01 6.131481e-01 1.271503e+00 1.061712e+00 9.498363e-01 1.557610e+00 2.250219e+00 1.924909e+00 1.229668e+00 1.412861e+00 1.285248e+00 1.414198e+00 1.984509e+00 3.166260e-01
<GCONST> 7.942306e+01
<TRANSP> 5
 0.000000e+00 1.000000e+00 0.000000e+00 0.000000e+00 0.000000e+00
 0.000000e+00 3.451937e-01 6.548063e-01 0.000000e+00 0.000000e+00
 0.000000e+00 0.000000e+00 9.401037e-02 9.059896e-01 0.000000e+00
 0.000000e+00 0.000000e+00 0.000000e+00 6.425975e-02 9.357403e-01
 0.000000e+00 0.000000e+00 0.000000e+00 0.000000e+00 0.000000e+00
<ENDHMM>
~h "tt"
<BEGINHMM>
<NUMSTATES> 5
<STATE> 2
<MEAN> 25
 -2.052223e+00 -2.900223e+00 4.203172e+00 -6.112337e-01 -1.461229e+00 1.601494e+00 8.421412e-01 -2.580117e+00 -3.965626e+00 4.256629e-01 3.216596e+00 -1.317086e+00 -2.054737e-01 -1.307280e-01 2.076259e-01 5.398217e-01 3.121787e-01 1.474456e-01 1.627055e-01 6.664670e-02 4.072505e-02 -8.311704e-02 -1.827740e-01 -6.883837e-02 -8.774307e-02
<VARIANCE> 25
 3.242319e+01 2.040145e+01 4.874451e+01 3.125819e+01 3.523787e+01 1.605146e+01 4.083711e+01 2.308967e+01 1.680806e+01 1.495298e+01 4.149297e+01 1.710484e+01 3.168522e+00 2.544459e+00 4.317028e+00 3.259479e+00 4.048726e+00 1.122847e+00 5.168200e+00 2.665792e+00 1.724136e+00 1.768058e+00 4.264723e+00 1.612201e+00 6.031061e-01
<GCONST> 9.645438e+01
<STATE> 3
<MEAN> 25
 -1.806356e+00 -2.418844e+00 3.345197e+00 5.870141e-01 6.885180e-02 1.828837e+00 6.557449e-01 -2.307174e+00 -3.724915e+00 -3.437513e-02 2.207292e+00 -1.069869e+00 -1.200795e-01 1.571402e-01 -3.331884e-01 2.702043e-01 2.754696e-01 1.267143e-01 2.866634e-01 3.136254e-01 1.157158e-01 -2.422212e-02 -9.896652e-02 3.017614e-01 -3.582113e-01
<VARIANCE> 25
 3.140664e+01 2.247840e+01 4.100567e+01 2.347030e+01 3.228712e+01 1.379589e+01 4.058524e+01 2.573609e+01 1.303977e+01 1.577292e+01 4.148148e+01 1.576628e+01 1.861513e+00 1.823317e+00 2.793024e+00 2.170968e+00 2.540323e+00 1.007223e+00 3.476528e+00 1.987280e+00 1.412786e+00 1.378810e+00 2.907664e+00 1.569944e+00 6.291655e-01
<GCONST> 9.185415e+01
<STATE> 4
<MEAN> 25
 -2.361126e+00 -1.229594e+00 1.221032e+00 6.260785e-01 3.375191e-01 2.026893e+00 2.058494e+00 -6.116687e-01 -2.522030e+00 9.082865e-01 2.453317e+00 1.103515e+00 -2.051450e-01 1.285735e-01 -1.298849e-01 8.633182e-02 -4.595968e-02 8.658253e-02 3.506953e-01 3.903310e-01 2.694691e-01 1.049678e-01 9.887264e-02 2.331196e-01 -3.239953e-01
<VARIANCE> 25
 2.045827e+01 1.789770e+01 2.752772e+01 1.480983e+01 1.896567e+01 1.045650e+01 2.242032e+01 1.893916e+01 1.417345e+01 1.415892e+01 2.590790e+01 1.997190e+01 1.160345e+00 1.498513e+00 2.532586e+00 1.348035e+00 1.376600e+00 7.868797e-01 1.852784e+00 1.423116e+00 1.034325e+00 1.000270e+00 1.882626e+00 1.910492e+00 5.400709e-01
<GCONST> 8.428065e+01
<TRANSP> 5
 0.000000e+00 1.000000e+00 0.000000e+00 0.000000e+00 0.000000e+00
 0.000000e+00 4.824303e-01 5.175697e-01 0.000000e+00 0.000000e+00
 0.000000e+00 0.000000e+00 4.451029e-01 5.548971e-01 0.000000e+00
 0.000000e+00 0.000000e+00 0.000000e+00 6.134246e-01 3.865754e-01
 0.000000e+00 0.000000e+00 0.000000e+00 0.000000e+00 0.000000e+00
<ENDHMM>
~h "ur"
<BEGINHMM>
<NUMSTATES> 5
<STATE> 2
<MEAN> 25
 -1.860279e-02 4.493151e-01 4.854819e+00 9.015262e-01 -3.186124e+00 -4.261049e+00 1.631686e-01 5.411449e+00 2.379270e-01 -8.359533e+00 -2.335960e+00 -2.279487e+00 -3.834525e-01 -2.706855e-01 1.159462e+00 6.808124e-02 3.142444e-02 2.092919e-01 -1.058846e-01 3.789407e-01 1.329329e-01 -8.798979e-01 1.198379e-01 -3.403701e-01 2.808443e-01
<VARIANCE> 25
 3.518673e+01 2.020209e+01 3.549261e+01 1.232025e+01 5.818483e+00 2.139684e+01 3.105077e+01 1.357926e+01 1.814063e+01 2.229043e+01 8.173935e+01 2.688532e+01 3.986624e+00 2.586034e+00 2.688702e+00 1.787628e+00 7.019237e-01 1.731417e+00 5.276133e+00 1.455629e+00 2.442007e+00 2.832230e+00 1.359050e+01 2.504745e+00 2.350425e-01
<GCONST> 9.330994e+01
<STATE> 3
<MEAN> 25
 -3.112528e+00 -1.481066e+00 6.825777e+00 1.809497e-01 -2.723269e+00 -2.316505e+00 1.993741e+00 6.001946e+00 -2.563651e-02 -7.842834e+00 2.133318e+00 -9.180832e-01 -5.509422e-01 -3.689978e-01 3.610697e-01 -1.157108e-01 3.730640e-02 4.476066e-01 4.213034e-01 9.234465e-02 -8.349590e-02 3.299034e-01 8.278705e-01 2.493285e-01 -7.481839e-02
<VARIANCE> 25
 3.701011e+01 2.171966e+01 3.236530e+01 1.419805e+01 8.873056e+00 2.120340e+01 3.183832e+01 1.335286e+01 1.648854e+01 3.037278e+01 8.586790e+01 3.396904e+01 3.036770e+00 2.037189e+00 3.469497e+00 1.153618e+00 8.080127e-01 1.408812e+00 3.956577e+00 1.487492e+00 1.966895e+00 2.802349e+00 8.122290e+00 1.532149e+00 2.969450e-01
<GCONST> 9.237588e+01
<STATE> 4
<MEAN> 25
 -2.886633e+00 -9.497670e-01 4.110758e+00 -1.140257e-01 -2.147242e+00 -7.783151e-01 2.407356e+00 4.802320e+00 4.518355e-02 -4.213465e+00 2.304776e+00 6.198964e-01 -7.678232e-02 -1.896769e-01 2.506601e-02 -6.323019e-02 3.851542e-02 4.900825e-01 2.973230e-01 -2.079834e-01 -1.008991e-01 2.261141e-01 1.058675e-01 4.293645e-02 1.859025e-02
<VARIANCE> 25
 3.187107e+01 1.978021e+01 3.954668e+01 1.023757e+01 1.288207e+01 2.045588e+01 2.540549e+01 1.664340e+01 1.489372e+01 4.476403e+01 7.598412e+01 3.308920e+01 2.431341e+00 2.006294e+00 2.249232e+00 7.366638e-01 1.282475e+00 2.304072e+00 2.214385e+00 1.787903e+00 1.631674e+00 2.469885e+00 5.579478e+00 2.364316e+00 3.922209e-01
<GCONST> 9.193665e+01
<TRANSP> 5
 0.000000e+00 1.000000e+00 0.000000e+00 0.000000e+00 0.000000e+00
 0.000000e+00 8.482515e-01 1.517486e-01 0.000000e+00 0.000000e+00
 0.000000e+00 0.000000e+00 7.185796e-01 2.814203e-01 0.000000e+00
 0.000000e+00 0.000000e+00 0.000000e+00 7.549525e-01 2.450474e-01
 0.000000e+00 0.000000e+00 0.000000e+00 0.000000e+00 0.000000e+00
<ENDHMM>
~h "yy"
<BEGINHMM>
<NUMSTATES> 5
<STATE> 2
<MEAN> 25
 3.045218e+00 7.401466e-02 4.874029e-01 5.515771e+00 6.396447e+00 -1.852348e-01 -6.478572e+00 -4.065243e+00 -4.472919e+00 -5.540208e+00 -3.286994e+00 -3.187905e+00 -2.246822e-01 -6.278744e-01 4.053538e-02 5.821021e-01 5.380665e-01 6.620440e-02 -3.952096e-01 -3.699796e-01 -1.272449e-01 4.063839e-01 6.843207e-01 -1.078160e-02 7.886628e-02
<VARIANCE> 25
 2.187046e+01 1.629458e+01 1.584802e+01 1.787994e+01 3.389265e+01 8.777607e+00 5.464857e+01 1.881151e+01 9.054155e+00 2.248134e+01 3.612619e+01 1.119279e+01 1.939750e+00 1.663377e+00 2.096286e+00 2.034639e+00 4.084905e+00 1.097764e+00 7.245993e+00 2.319906e+00 9.357045e-01 1.757243e+00 2.954788e+00 1.154798e+00 6.180068e-01
<GCONST> 8.960645e+01
<STATE> 3
<MEAN> 25
 2.292006e+00 -1.004552e+00 1.213275e+00 6.558753e+00 6.703340e+00 -2.421415e-02 -6.436296e+00 -4.627727e+00 -4.823586e+00 -4.643442e+00 -1.914987e+00 -3.535009e+00 -7.397535e-01 -4.054166e-01 5.321326e-01 4.349517e-02 -3.342064e-01 3.013966e-01 8.080786e-01 3.982233e-02 -1.475617e-01 7.038944e-01 8.415735e-01 -6.322908e-02 -2.061308e-01
<VARIANCE> 25
 2.087779e+01 1.526367e+01 1.943293e+01 1.804719e+01 3.273257e+01 1.022029e+01 5.474509e+01 1.757285e+01 9.489857e+00 1.726268e+01 2.941517e+01 1.100725e+01 1.837498e+00 1.454394e+00 2.118423e+00 2.280456e+00 3.897485e+00 1.033001e+00 6.530961e+00 2.201121e+00 9.616047e-01 1.667343e+00 2.781923e+00 1.210918e+00 6.170173e-01
<GCONST> 8.895176e+01
<STATE> 4
<MEAN> 25
 -8.800105e-01 -2.591476e+00 4.290859e+00 5.195499e+00 3.509898e+00 1.053779e+00 -2.491532e+00 -3.794175e+00 -5.213669e+00 -2.838471e+00 1.277741e+00 -3.710871e+00 -1.148012e+00 -5.184922e-01 8.521227e-01 -7.998561e-01 -1.185239e+00 3.762417e-01 1.537434e+00 5.677840e-01 1.562775e-01 7.047274e-01 1.056212e+00 1.720941e-01 -1.952696e-01
<VARIANCE> 25
 2.934007e+01 2.199823e+01 3.226627e+01 1.982799e+01 3.724831e+01 1.184332e+01 5.540234e+01 1.947218e+01 1.068443e+01 1.358880e+01 3.884393e+01 1.154312e+01 1.860342e+00 1.620838e+00 2.327543e+00 2.112052e+00 3.001296e+00 1.000405e+00 4.908805e+00 2.189699e+00 1.327085e+00 1.438709e+00 2.378579e+00 1.241232e+00 6.231100e-01
<GCONST> 9.046133e+01
<TRANSP> 5
 0.000000e+00 1.000000e+00 0.000000e+00 0.000000e+00 0.000000e+00
 0.000000e+00 5.900405e-01 4.099595e-01 0.000000e+00 0.000000e+00
 0.000000e+00 0.000000e+00 6.168155e-01 3.831845e-01 0.000000e+00
 0.000000e+00 0.000000e+00 0.000000e+00 7.651905e-01 2.348095e-01
 0.000000e+00 0.000000e+00 0.000000e+00 0.000000e+00 0.000000e+00
<ENDHMM>
~h "sil"
<BEGINHMM>
<NUMSTATES> 5
<STATE> 2
<MEAN> 25
 -3.449756e+00 1.433430e-01 -3.383165e+00 -1.028593e+00 4.513102e-01 2.280457e+00 3.829201e+00 2.433371e+00 1.664916e+00 3.876925e+00 3.470836e+00 4.964862e+00 -1.040001e-01 -3.422291e-02 2.309434e-02 -1.140146e-02 3.992482e-02 -2.200892e-02 2.206562e-02 4.074457e-02 2.088781e-02 -9.409876e-02 4.878445e-02 1.991156e-02 -1.300622e-02
<VARIANCE> 25
 3.979356e+00 3.998204e+00 4.538552e+00 5.014031e+00 5.325028e+00 5.384478e+00 6.108969e+00 6.421542e+00 7.439176e+00 8.030329e+00 9.158404e+00 9.130692e+00 1.815642e-01 2.801938e-01 4.180942e-01 4.608120e-01 5.464655e-01 4.709595e-01 6.564082e-01 7.245314e-01 8.357695e-01 8.367100e-01 6.625492e-01 7.353362e-01 1.167634e-01
<GCONST> 5.743032e+01
<STATE> 3
<MEAN> 25
 -3.694352e+00 -1.020658e-01 -3.286518e+00 -7.776490e-01 6.957346e-01 2.061238e+00 3.937348e+00 2.554874e+00 1.831723e+00 3.742578e+00 3.507990e+00 4.977997e+00 -1.036095e-01 -7.146102e-02 -5.262455e-02 -5.236681e-02 -2.449625e-02 -3.615678e-02 6.913312e-03 1.418742e-02 3.771545e-02 5.018584e-02 4.253256e-02 1.677070e-01 -5.746202e-02
<VARIANCE> 25
 2.537372e+00 4.214148e+00 3.715714e+00 4.399584e+00 4.544655e+00 6.803700e+00 6.274932e+00 5.853508e+00 6.082212e+00 7.501058e+00 9.041034e+00 8.446639e+00 1.200150e-01 1.815014e-01 2.780719e-01 3.541676e-01 4.260522e-01 5.830004e-01 5.857770e-01 6.384957e-01 5.858835e-01 6.552535e-01 7.240887e-01 6.466076e-01 6.646162e-02
<GCONST> 5.335349e+01
<STATE> 4
<MEAN> 25
 -3.988428e+00 -3.530681e-04 -3.253543e+00 -1.554242e+00 9.107918e-03 2.091349e+00 4.089161e+00 2.588509e+00 1.726884e+00 3.843809e+00 3.667620e+00 5.672044e+00 -1.381898e-02 -1.086808e-02 -1.366831e-02 -9.735107e-03 -6.581189e-03 2.948103e-03 -4.746789e-03 5.690783e-03 6.433538e-03 1.246809e-02 2.325051e-02 3.906025e-02 -9.844962e-03
<VARIANCE> 25
 1.308838e+00 1.550511e+00 2.247555e+00 3.034129e+00 3.868955e+00 4.637593e+00 4.872246e+00 5.611454e+00 6.228960e+00 6.534503e+00 6.675867e+00 6.939069e+00 5.561638e-02 1.097877e-01 1.690170e-01 2.458045e-01 3.268994e-01 4.067898e-01 4.597341e-01 5.629172e-01 5.926310e-01 6.235659e-01 6.305507e-01 5.455725e-01 3.371594e-02
<GCONST> 4.521083e+01
<TRANSP> 5
 0.000000e+00 1.000000e+00 0.000000e+00 0.000000e+00 0.000000e+00
 0.000000e+00 8.603210e-01 1.396790e-01 0.000000e+00 0.000000e+00
 0.000000e+00 0.000000e+00 8.081264e-01 1.918736e-01 0.000000e+00
 0.000000e+00 0.000000e+00 0.000000e+00 9.757460e-01 2.425396e-02
 0.000000e+00 0.000000e+00 0.000000e+00 0.000000e+00 0.000000e+00
<ENDHMM>
