~o
<STREAMINFO> 1 25
<VECSIZE> 25<NULLD><MFCC_D_N_Z_0><DIAGC>
~s "silst"
<MEAN> 25
 -3.160630e+00 4.881343e-01 -2.777102e+00 -5.011765e-01 6.638236e-01 2.379496e+00 3.975537e+00 2.436518e+00 1.186075e+00 2.992801e+00 2.481442e+00 4.379094e+00 -1.006505e-01 -5.621520e-02 -1.389450e-01 -1.266561e-01 -8.839031e-02 -2.224952e-02 4.537538e-02 9.301285e-02 1.663014e-01 1.965704e-01 1.471364e-01 2.195394e-01 -8.274932e-02
<VARIANCE> 25
 2.089816e+00 3.010554e+00 3.022209e+00 3.958654e+00 4.763763e+00 5.849316e+00 6.007395e+00 6.434539e+00 6.401080e+00 7.552092e+00 7.924190e+00 7.647316e+00 9.715293e-02 1.568185e-01 2.198272e-01 3.075327e-01 3.904995e-01 5.038129e-01 5.716376e-01 6.431563e-01 6.184911e-01 6.672801e-01 6.657355e-01 6.188025e-01 5.507107e-02
<GCONST> 5.105692e+01
~h "a"
<BEGINHMM>
<NUMSTATES> 5
<STATE> 2
<MEAN> 25
 4.885825e+00 2.707961e+00 -3.356253e+00 -1.354720e+00 -5.842116e-01 -1.544555e+00 -1.841189e+00 -1.328841e+00 -1.179307e+00 -2.222843e+00 -4.022255e+00 -9.258959e-01 -2.364491e-01 7.274440e-01 2.603519e-01 1.113510e-02 3.208011e-01 8.726721e-01 1.033823e+00 2.746936e-01 -2.311901e-01 -4.724961e-02 -1.638884e-01 -9.012368e-02 -4.501500e-01
<VARIANCE> 25
 1.267409e+01 8.346060e+00 9.545888e+00 1.296289e+01 1.583503e+01 1.421748e+01 2.033778e+01 1.434934e+01 1.650127e+01 2.409776e+01 2.740505e+01 1.745590e+01 1.526776e+00 7.867858e-01 1.374861e+00 9.002901e-01 9.344841e-01 1.661569e+00 1.684634e+00 1.056060e+00 1.455192e+00 1.551221e+00 2.743316e+00 1.660518e+00 4.662175e-01
<GCONST> 8.165546e+01
<STATE> 3
<MEAN> 25
 2.714459e+00 4.538491e+00 -9.949766e-01 -1.426174e-01 6.697474e-01 1.047733e+00 1.062897e+00 -6.285419e-01 -1.865572e+00 -1.752155e+00 -3.606118e+00 -1.053160e+00 -6.147119e-01 2.307588e-01 6.743389e-01 6.196981e-01 5.192138e-01 6.498601e-01 6.958956e-01 1.780765e-01 -1.341483e-01 1.195438e-01 2.236190e-01 -6.255750e-03 -4.576735e-01
<VARIANCE> 25
 8.352082e+00 7.285654e+00 9.959532e+00 1.344928e+01 1.261313e+01 1.035103e+01 1.506937e+01 1.078250e+01 1.239851e+01 1.438539e+01 1.779428e+01 1.569993e+01 7.268541e-01 6.457250e-01 5.450291e-01 5.803292e-01 9.230809e-01 6.446722e-01 9.284689e-01 7.694134e-01 9.902233e-01 1.105927e+00 1.676428e+00 1.695954e+00 2.853313e-01
<GCONST> 7.285032e+01
<STATE> 4
<MEAN> 25
 1.303371e+00 3.711676e+00 -5.843529e-01 6.487534e-01 1.260359e+00 1.575096e+00 2.104975e+00 5.042374e-01 -7.673005e-01 -5.939789e-01 -2.299734e+00 -5.348903e-01 -3.319682e-01 -3.846391e-02 6.873065e-01 3.055181e-01 3.772042e-02 2.083054e-01 3.037583e-01 1.642655e-01 -1.927422e-02 7.050674e-02 2.023925e-01 -3.440863e-01 -5.180755e-02
<VARIANCE> 25
 9.896776e+00 8.058290e+00 9.052330e+00 1.329652e+01 1.362815e+01 9.996130e+00 1.631032e+01 1.177308e+01 1.151448e+01 1.329189e+01 1.725147e+01 1.803860e+01 1.174943e+00 7.847220e-01 1.406336e+00 8.404754e-01 1.159558e+00 9.833335e-01 1.443637e+00 8.352734e-01 1.258382e+00 9.477354e-01 2.096163e+00 1.660050e+00 2.790171e-01
<GCONST> 7.661050e+01
<TRANSP> 5
 0.000000e+00 1.000000e+00 0.000000e+00 0.000000e+00 0.000000e+00
 0.000000e+00 4.267721e-01 5.732278e-01 0.000000e+00 0.000000e+00
 0.000000e+00 0.000000e+00 4.166401e-01 5.833599e-01 0.000000e+00
 0.000000e+00 0.000000e+00 0.000000e+00 3.029372e-01 6.970628e-01
 0.000000e+00 0.000000e+00 0.000000e+00 0.000000e+00 0.000000e+00
<ENDHMM>
~h "b"
<BEGINHMM>
<NUMSTATES> 5
<STATE> 2
<MEAN> 25
 1.942280e+00 6.610674e+00 2.546021e+00 3.475744e+00 2.743419e+00 1.660172e+00 1.274513e+00 -5.771739e-01 -2.819280e+00 -4.006181e+00 -6.289021e+00 -3.347252e+00 9.269316e-01 1.480052e-01 -2.564515e-01 -6.777606e-01 -8.493362e-01 -1.145915e+00 -1.033011e+00 -2.245137e-02 9.827125e-02 -9.416946e-01 -1.279953e+00 -1.226415e+00 6.639039e-01
<VARIANCE> 25
 2.655223e+00 2.428323e+00 3.125504e+00 6.736288e+00 1.081213e+01 9.159524e+00 6.738319e+00 7.895483e+00 8.754877e+00 7.001475e+00 7.073377e+00 6.398460e+00 3.386324e-01 4.134521e-01 4.066759e-01 8.622603e-01 1.174544e+00 5.966290e-01 1.164385e+00 1.184283e+00 1.206176e+00 1.440576e+00 1.354745e+00 1.094792e+00 1.814724e-01
<GCONST> 6.354722e+01
<STATE> 3
<MEAN> 25
 5.657246e+00 5.487715e+00 2.525262e-01 2.201184e+00 2.869997e+00 -1.598919e+00 -4.165759e+00 -1.251976e+00 -3.134139e+00 -9.018656e+00 -1.022581e+01 -5.706338e+00 9.384278e-01 -1.299472e+00 -1.013915e+00 8.829029e-01 2.105841e+00 -4.876710e-02 -2.912632e+00 -1.186562e+00 -6.740087e-01 -1.452590e+00 1.625622e-01 4.970328e-01 9.044928e-01
<VARIANCE> 25
 1.770426e+00 3.730630e+00 3.067780e+00 6.926838e+00 1.109970e+01 3.332920e+00 8.719936e+00 6.288639e+00 9.116487e+00 7.291606e+00 6.200460e+00 8.020062e+00 2.507158e-01 4.026558e-01 2.650392e-01 6.786456e-01 9.869952e-01 6.575401e-01 6.025569e-01 1.256630e+00 7.629243e-01 8.025378e-01 1.359918e+00 1.035107e+00 1.076583e-01
<GCONST> 5.951301e+01
<STATE> 4
<MEAN> 25
 6.691136e+00 2.354808e+00 -1.827840e+00 4.653282e+00 8.084562e+00 -1.281306e-01 -1.002139e+01 -4.458521e+00 -4.904252e+00 -1.040299e+01 -7.355596e+00 -2.566541e+00 2.443226e-01 -1.785414e+00 -9.165363e-01 1.816145e+00 2.591428e+00 2.369175e-01 -2.766492e+00 -1.519772e+00 -2.832217e-01 3.315752e-01 1.703427e+00 8.848422e-01 5.365207e-01
<VARIANCE> 25
 1.011761e+00 3.315307e+00 2.357167e+00 4.040047e+00 6.484884e+00 3.810332e+00 7.245647e+00 6.247983e+00 7.158513e+00 6.844471e+00 5.885159e+00 6.220185e+00 1.473174e-01 3.126729e-01 1.843112e-01 3.989313e-01 8.494537e-01 4.969531e-01 8.669188e-01 8.481597e-01 3.401914e-01 4.790967e-01 5.897471e-01 6.588902e-01 8.398750e-02
<GCONST> 5.182849e+01
<TRANSP> 5
 0.000000e+00 1.000000e+00 0.000000e+00 0.000000e+00 0.000000e+00
 0.000000e+00 6.988209e-01 3.011791e-01 0.000000e+00 0.000000e+00
 0.000000e+00 0.000000e+00 5.625982e-01 4.374019e-01 0.000000e+00
 0.000000e+00 0.000000e+00 0.000000e+00 4.723639e-03 9.952764e-01
 0.000000e+00 0.000000e+00 0.000000e+00 0.000000e+00 0.000000e+00
<ENDHMM>
~h "d"
<BEGINHMM>
<NUMSTATES> 5
<STATE> 2
<MEAN> 25
 4.246781e+00 2.924665e+00 -8.970675e-01 1.176420e+00 1.527219e+00 -4.374861e-01 -1.631859e+00 -1.138849e+00 -1.836309e+00 -3.061120e+00 -4.374707e+00 -2.392540e+00 -2.273843e-01 4.969575e-01 6.646007e-01 7.523400e-01 7.424358e-01 7.288983e-01 7.035241e-01 -1.672531e-01 -8.671679e-01 -2.841782e-01 2.617156e-01 -1.083180e-01 -2.782217e-01
<VARIANCE> 25
 1.344080e+01 2.255032e+01 2.358308e+01 2.019644e+01 1.866622e+01 2.517476e+01 2.265144e+01 1.438361e+01 1.312359e+01 1.720090e+01 3.264570e+01 3.048384e+01 1.318032e+00 1.166057e+00 1.606837e+00 1.214121e+00 9.138597e-01 2.575474e+00 3.246831e+00 1.386870e+00 1.609742e+00 1.517027e+00 3.578294e+00 3.780628e+00 5.997896e-01
<GCONST> 8.853333e+01
<STATE> 3
<MEAN> 25
 4.085325e+00 5.116778e+00 -7.798399e-01 -1.569604e-01 3.883798e-01 6.399586e-01 1.661319e+00 -5.303696e-01 -3.904828e+00 -4.945869e+00 -5.235920e+00 -2.575672e+00 -1.010639e+00 2.409293e-01 8.021715e-01 5.614173e-01 4.654742e-01 9.842722e-01 1.323577e+00 2.485278e-01 -4.955653e-01 4.809865e-01 8.220306e-01 2.917430e-01 -7.503844e-01
<VARIANCE> 25
 6.367661e+00 8.609736e+00 1.178813e+01 1.698448e+01 1.654661e+01 1.156891e+01 7.582080e+00 1.225419e+01 1.310132e+01 1.142618e+01 2.360100e+01 1.737584e+01 3.249768e-01 7.188545e-01 4.866468e-01 8.261344e-01 7.704493e-01 1.055982e+00 1.069447e+00 1.072548e+00 7.726946e-01 7.099860e-01 1.023216e+00 1.115610e+00 2.320740e-01
<GCONST> 7.169843e+01
<STATE> 4
<MEAN> 25
 1.642277e+00 4.307698e+00 1.823540e+00 2.513577e+00 1.631328e+00 1.918478e+00 2.742943e+00 -1.026370e+00 -3.518940e+00 -2.491820e+00 -3.244545e+00 -1.871173e+00 -1.210699e-01 -5.448027e-01 3.799695e-01 6.881838e-01 2.648442e-01 -2.339527e-01 -6.004023e-01 -3.449659e-01 1.010190e-01 1.287635e-01 4.038939e-02 -1.672769e-01 1.750995e-01
<VARIANCE> 25
 5.865588e+00 7.385586e+00 7.034142e+00 1.097447e+01 1.436856e+01 9.728311e+00 1.103200e+01 1.056457e+01 1.022181e+01 9.704569e+00 1.132102e+01 1.209001e+01 6.193017e-01 1.358290e+00 7.742883e-01 1.669604e+00 1.299480e+00 1.299181e+00 2.182616e+00 1.521032e+00 1.387810e+00 1.534633e+00 1.801783e+00 1.866045e+00 4.208806e-01
<GCONST> 7.618712e+01
<TRANSP> 5
 0.000000e+00 1.000000e+00 0.000000e+00 0.000000e+00 0.000000e+00
 0.000000e+00 3.977827e-01 6.022173e-01 0.000000e+00 0.000000e+00
 0.000000e+00 0.000000e+00 2.703955e-01 7.296045e-01 0.000000e+00
 0.000000e+00 0.000000e+00 0.000000e+00 7.047436e-01 2.952564e-01
 0.000000e+00 0.000000e+00 0.000000e+00 0.000000e+00 0.000000e+00
<ENDHMM>
~h "f"
<BEGINHMM>
<NUMSTATES> 5
<STATE> 2
<MEAN> 25
 9.390191e+00 4.832768e-01 -1.052919e+01 -7.381958e+00 -5.738642e+00 -8.600779e+00 -4.040253e+00 4.937398e+00 6.256058e+00 1.228252e-01 -5.063787e+00 -1.193850e+00 -1.567213e+00 1.296371e+00 1.301478e+00 -8.076987e-01 -6.079497e-01 1.359659e+00 1.846045e+00 -1.418784e-01 -6.235418e-01 1.091706e+00 1.193867e+00 7.630689e-01 -1.325778e+00
<VARIANCE> 25
 3.058231e+00 6.693285e+00 3.690162e+00 3.269165e+00 4.959870e+00 8.167071e+00 1.257732e+01 7.082113e+00 5.807922e+00 8.429667e+00 8.122610e+00 8.215161e+00 2.779862e-01 4.331430e-01 4.548048e-01 5.285493e-01 6.293092e-01 6.830854e-01 7.414603e-01 6.715996e-01 6.884771e-01 7.204135e-01 1.087730e+00 9.803160e-01 9.106877e-02
<GCONST> 5.962165e+01
<STATE> 3
<MEAN> 25
 3.058898e+00 2.044321e+00 -7.137673e+00 -9.141573e+00 -6.767250e+00 -4.715850e+00 -1.628923e-02 4.484375e+00 4.776777e+00 2.870193e+00 -6.691964e-01 2.914821e+00 -1.485040e+00 -1.090980e-01 6.813822e-01 5.418492e-01 3.702050e-01 9.727182e-01 9.246194e-01 -1.389669e-01 -4.675051e-01 3.585960e-01 9.829234e-01 1.061877e+00 -1.005010e+00
<VARIANCE> 25
 3.260524e+00 2.568543e+00 4.874594e+00 5.429691e+00 4.019157e+00 5.343891e+00 5.700181e+00 8.455777e+00 7.423833e+00 5.464335e+00 5.500005e+00 6.980182e+00 2.773687e-01 2.355060e-01 5.197036e-01 1.011133e+00 5.901416e-01 5.899936e-01 7.290049e-01 1.004292e+00 6.811318e-01 3.898341e-01 8.992885e-01 8.996654e-01 9.309249e-02
<GCONST> 5.699045e+01
<STATE> 4
<MEAN> 25
 -9.568643e-01 6.154747e-01 -4.902876e+00 -5.341636e+00 -3.776868e+00 -1.670646e+00 1.974536e+00 3.283622e+00 3.128399e+00 3.347105e+00 2.333728e+00 5.107025e+00 -9.825747e-01 -8.833471e-01 1.128965e+00 6.797007e-01 4.163597e-01 4.812351e-01 1.860943e-01 -5.530297e-01 -2.003188e-01 -4.299627e-02 5.442683e-01 -3.178271e-01 4.002620e-02
<VARIANCE> 25
 2.738323e+00 3.461395e+00 4.999360e+00 6.323525e+00 6.045901e+00 4.524218e+00 8.910958e+00 5.494716e+00 5.755736e+00 4.579126e+00 7.036007e+00 8.526551e+00 2.445140e-01 5.516704e-01 1.086905e+00 9.961736e-01 8.746210e-01 3.700848e-01 6.303931e-01 1.086445e+00 8.824180e-01 8.122805e-01 7.994609e-01 1.157824e+00 4.600852e-01
<GCONST> 6.159847e+01
<TRANSP> 5
 0.000000e+00 1.000000e+00 0.000000e+00 0.000000e+00 0.000000e+00
 0.000000e+00 6.231881e-01 3.768119e-01 0.000000e+00 0.000000e+00
 0.000000e+00 0.000000e+00 7.285670e-01 2.714330e-01 0.000000e+00
 0.000000e+00 0.000000e+00 0.000000e+00 6.786255e-01 3.213745e-01
 0.000000e+00 0.000000e+00 0.000000e+00 0.000000e+00 0.000000e+00
<ENDHMM>
~h "g"
<BEGINHMM>
<NUMSTATES> 5
<STATE> 2
<MEAN> 25
 -1.512958e+00 -2.193343e+00 3.901767e+00 4.312537e+00 1.874851e-01 -5.533031e-01 -6.533973e-01 5.435655e-01 -1.605105e+00 -2.661148e+00 1.550756e+00 -8.775004e-01 2.113273e+00 1.920982e+00 -1.048053e+00 1.346155e+00 2.420048e+00 -3.277034e-01 -2.517517e+00 -2.162024e+00 -1.044216e+00 -9.906902e-01 -2.857284e+00 -1.371815e+00 2.501457e-01
<VARIANCE> 25
 2.176862e+01 4.054136e+01 9.172034e+00 1.703727e+01 2.316677e+01 6.630536e+00 3.222152e+01 2.289797e+01 1.162972e+01 1.166019e+01 4.882697e+01 2.176288e+01 1.959219e+00 1.599285e+00 9.530738e-01 1.117722e+00 2.011452e+00 5.521227e-01 2.752744e+00 2.073854e+00 1.210957e+00 1.433824e+00 3.722775e+00 1.486334e+00 2.367190e-01
<GCONST> 8.517148e+01
<STATE> 3
<MEAN> 25
 3.663494e+00 3.405786e+00 2.455366e-01 3.475707e+00 3.925928e+00 -1.353136e-01 -3.515098e+00 -3.788693e+00 -4.266869e+00 -5.553288e+00 -5.189429e+00 -2.918316e+00 1.457742e-01 1.020130e+00 -1.899620e-01 -1.353932e+00 -1.204033e+00 -5.436061e-02 9.773372e-01 5.891231e-01 2.623563e-01 2.462183e-01 -3.224470e-01 3.164080e-02 -2.740034e-01
<VARIANCE> 25
 2.366199e+00 1.009085e+01 4.623206e+00 1.209993e+01 1.640966e+01 8.147852e+00 1.912919e+01 1.064331e+01 1.554790e+01 1.159552e+01 5.905906e+00 6.491210e+00 3.663014e-01 5.742322e-01 7.413644e-01 1.012077e+00 1.517135e+00 1.073693e+00 2.006138e+00 1.255822e+00 1.330078e+00 1.300004e+00 1.193945e+00 9.918243e-01 1.698232e-01
<GCONST> 7.070618e+01
<STATE> 4
<MEAN> 25
 3.847436e+00 7.378001e+00 1.834089e+00 -4.919993e-01 -3.314884e+00 -4.906981e+00 -3.289836e+00 -1.513783e+00 -8.862468e-01 -1.156941e+00 -3.444646e+00 -2.224044e+00 6.212317e-01 3.468425e-01 4.534482e-02 -3.945454e-01 -1.285159e+00 -1.858659e+00 -1.351832e+00 1.019522e-02 9.783100e-01 6.164098e-01 1.417959e-01 1.150518e-01 3.379692e-01
<VARIANCE> 25
 2.716805e+00 2.335180e+00 3.410997e+00 4.409615e+00 8.382046e+00 1.426945e+01 1.029405e+01 6.625368e+00 9.660888e+00 7.317362e+00 6.670596e+00 6.781244e+00 4.004314e-01 1.963595e-01 3.514507e-01 5.078764e-01 6.710324e-01 9.180123e-01 9.972293e-01 6.358391e-01 1.052203e+00 6.632461e-01 9.866704e-01 1.434113e+00 1.800672e-01
<GCONST> 6.064885e+01
<TRANSP> 5
 0.000000e+00 1.000000e+00 0.000000e+00 0.000000e+00 0.000000e+00
 0.000000e+00 5.865442e-01 4.134559e-01 0.000000e+00 0.000000e+00
 0.000000e+00 0.000000e+00 6.157567e-01 3.842434e-01 0.000000e+00
 0.000000e+00 0.000000e+00 0.000000e+00 7.721837e-01 2.278163e-01
 0.000000e+00 0.000000e+00 0.000000e+00 0.000000e+00 0.000000e+00
<ENDHMM>
~h "h"
<BEGINHMM>
<NUMSTATES> 5
<STATE> 2
<MEAN> 25
 2.748058e-01 4.267473e+00 -1.031405e+00 -1.885505e+00 -2.106501e+00 -1.226038e+00 1.680645e+00 3.028098e+00 2.759802e+00 2.358284e+00 -7.187946e-01 -2.384437e-01 1.997268e+00 1.948968e+00 1.105877e+00 9.471565e-02 -1.362808e+00 -2.606761e+00 -2.352047e+00 -1.382536e+00 -4.715146e-01 -5.006708e-01 -1.124847e+00 -1.593161e+00 9.228168e-01
<VARIANCE> 25
 1.084274e+01 1.239575e+01 8.333142e+00 6.304657e+00 8.070275e+00 2.067620e+01 1.697896e+01 8.855755e+00 6.397585e+00 5.409926e+00 8.080649e+00 1.115218e+01 3.117214e-01 2.654184e-01 5.184150e-01 8.926169e-01 1.049478e+00 1.011170e+00 9.418928e-01 1.191680e+00 1.062030e+00 6.293591e-01 8.764115e-01 9.929888e-01 1.531645e-01
<GCONST> 6.747894e+01
<STATE> 3
<MEAN> 25
 8.260101e+00 7.462726e+00 -2.973627e+00 -5.451218e+00 -9.337229e+00 -1.121619e+01 -5.806207e+00 2.469405e+00 6.379969e+00 1.946771e+00 -6.190259e+00 -6.279835e+00 1.069450e+00 -5.875182e-01 -1.496730e+00 -1.011502e+00 -5.322996e-01 -6.348526e-01 -5.005862e-01 3.261197e-01 1.204077e+00 -6.080176e-02 -9.208282e-01 -3.365944e-01 8.691649e-01
<VARIANCE> 25
 4.321786e+00 3.286483e+00 9.239600e+00 5.744374e+00 3.886845e+00 6.056644e+00 6.573569e+00 7.791308e+00 1.213800e+01 5.530359e+00 9.232542e+00 5.973903e+00 4.825010e-01 5.141526e-01 5.934488e-01 4.091241e-01 1.143842e+00 2.516336e+00 1.186991e+00 7.651383e-01 1.019616e+00 3.880703e-01 1.060816e+00 8.160919e-01 1.722713e-01
<GCONST> 6.320502e+01
<STATE> 4
<MEAN> 25
 1.091011e+01 1.690616e+00 -1.046116e+01 -8.167979e+00 -5.529354e+00 -6.751252e+00 -6.105638e+00 2.308403e-01 6.651384e+00 8.086912e-01 -5.952272e+00 -2.809644e+00 5.026352e-02 -1.370632e+00 -7.439722e-01 4.723806e-01 1.991073e+00 1.731566e+00 -4.958197e-01 -1.286761e+00 -1.801895e+00 -6.177038e-01 1.147001e+00 1.471958e+00 4.114127e-01
<VARIANCE> 25
 3.416884e+00 7.350557e+00 4.938443e+00 7.390594e+00 1.436301e+01 2.372186e+01 1.024526e+01 8.711720e+00 9.152227e+00 9.460919e+00 1.010161e+01 8.885550e+00 1.248237e-01 2.798361e-01 7.807664e-01 1.015709e+00 5.446364e-01 9.440877e-01 9.952314e-01 4.856637e-01 1.078789e+00 1.206887e+00 8.028567e-01 3.455702e-01 5.983495e-02
<GCONST> 6.323559e+01
<TRANSP> 5
 0.000000e+00 1.000000e+00 0.000000e+00 0.000000e+00 0.000000e+00
 0.000000e+00 7.244304e-01 2.755696e-01 0.000000e+00 0.000000e+00
 0.000000e+00 0.000000e+00 8.092868e-01 1.907132e-01 0.000000e+00
 0.000000e+00 0.000000e+00 0.000000e+00 7.580348e-01 2.419652e-01
 0.000000e+00 0.000000e+00 0.000000e+00 0.000000e+00 0.000000e+00
<ENDHMM>
~h "i"
<BEGINHMM>
<NUMSTATES> 5
<STATE> 2
<MEAN> 25
 3.775837e+00 1.006169e+00 4.143018e-01 4.467622e+00 3.901160e+00 4.820026e-01 -4.081377e+00 -5.524064e+00 -5.284732e+00 -4.210237e+00 -3.751806e+00 -2.719534e+00 -7.630514e-01 -4.129518e-02 5.376537e-01 -6.732125e-01 -6.016999e-01 8.315635e-01 1.357406e+00 4.279137e-01 -2.698069e-01 -1.319054e-01 1.030895e+00 6.195863e-01 -3.052232e-01
<VARIANCE> 25
 1.180561e+01 1.133158e+01 2.085622e+01 1.066741e+01 1.638984e+01 1.436874e+01 2.398252e+01 9.834352e+00 1.144298e+01 1.459385e+01 2.491401e+01 1.012854e+01 9.968237e-01 1.182008e+00 1.197133e+00 1.021770e+00 1.174601e+00 8.519585e-01 2.776341e+00 1.063051e+00 1.522271e+00 1.604265e+00 2.463494e+00 6.124249e-01 3.332860e-01
<GCONST> 7.947548e+01
<STATE> 3
<MEAN> 25
 -7.995902e-01 -1.944673e+00 5.439341e+00 1.994636e+00 1.328929e-01 2.537428e+00 7.048422e-01 -3.559214e+00 -7.890234e+00 -5.460865e+00 2.686666e+00 -1.166373e+00 -2.337839e+00 -1.553515e+00 2.216118e+00 -1.186133e+00 -1.782690e+00 4.195604e-01 2.022323e+00 1.382135e+00 3.071964e-01 6.986964e-02 2.518698e+00 2.166258e-02 8.626886e-02
<VARIANCE> 25
 1.520823e+01 2.080611e+01 3.040514e+01 1.195620e+01 1.717410e+01 8.059035e+00 1.282607e+01 1.031481e+01 1.763766e+01 1.243345e+01 2.299702e+01 1.205975e+01 1.239340e+00 1.550934e+00 2.015462e+00 7.282640e-01 1.028121e+00 9.479169e-01 1.263826e+00 6.217180e-01 1.274733e+00 1.009014e+00 2.210578e+00 8.208158e-01 2.087046e-01
<GCONST> 7.848178e+01
<STATE> 4
<MEAN> 25
 -9.052369e+00 -9.204384e+00 1.114303e+01 -2.475540e-01 -5.541083e+00 2.533122e+00 7.064477e+00 2.766254e+00 -2.197139e+00 -2.684619e+00 1.149950e+01 4.384919e-01 -1.952543e-01 -2.387312e-01 -3.775666e-01 1.141147e-02 -1.611566e-01 -1.769084e-01 1.202230e-01 6.790074e-01 7.137294e-01 4.824243e-01 2.850149e-01 5.350192e-01 -2.594158e-01
<VARIANCE> 25
 8.082400e+00 1.511119e+01 1.483583e+01 6.197273e+00 1.089288e+01 7.449930e+00 1.151488e+01 1.180935e+01 1.482401e+01 1.638392e+01 1.641083e+01 1.650134e+01 7.445402e-01 6.682132e-01 1.052829e+00 9.525136e-01 7.424889e-01 7.745926e-01 1.246548e+00 8.008534e-01 1.134471e+00 8.493864e-01 1.356895e+00 6.858432e-01 6.848203e-02
<GCONST> 7.163567e+01
<TRANSP> 5
 0.000000e+00 1.000000e+00 0.000000e+00 0.000000e+00 0.000000e+00
 0.000000e+00 5.145381e-01 4.854620e-01 0.000000e+00 0.000000e+00
 0.000000e+00 0.000000e+00 4.954519e-01 5.045481e-01 0.000000e+00
 0.000000e+00 0.000000e+00 0.000000e+00 8.409117e-01 1.590883e-01
 0.000000e+00 0.000000e+00 0.000000e+00 0.000000e+00 0.000000e+00
<ENDHMM>
~h "j"
<BEGINHMM>
<NUMSTATES> 5
<STATE> 2
<MEAN> 25
 2.073952e+00 -3.395427e+00 8.289522e+00 1.260753e+01 4.829720e+00 -2.515564e+00 -7.088651e+00 -3.731659e+00 -1.218830e+00 -4.279528e+00 -6.272590e+00 -8.011778e+00 2.797384e+00 6.344326e-01 -1.620760e+00 2.954214e+00 3.363151e+00 -1.932966e+00 -4.518855e+00 -6.380020e-01 5.259324e-01 -1.464469e+00 -2.652519e+00 -8.368170e-01 7.413165e-01
<VARIANCE> 25
 4.358102e+00 7.121457e+00 2.497473e+01 1.447873e+01 9.132822e+00 7.605729e+00 2.118814e+01 8.811621e+00 1.090331e+01 1.012617e+01 1.200363e+01 1.181039e+01 1.210433e+00 1.102739e+00 1.036892e+00 3.685552e+00 1.249562e+00 1.202727e+00 1.603349e+00 2.602657e+00 1.844631e+00 1.335586e+00 2.869346e+00 1.379837e+00 1.506517e-01
<GCONST> 7.825164e+01
<STATE> 3
<MEAN> 25
 4.761718e+00 -2.863210e+00 3.436398e+00 1.549925e+01 9.895924e+00 -5.988680e+00 -1.160315e+01 -3.123983e+00 3.426015e-02 -5.655808e+00 -7.224244e+00 -7.217291e+00 2.593186e-01 1.809346e-01 -5.924872e-01 -8.941017e-02 4.570549e-01 -1.700262e-01 -4.754052e-01 -2.636434e-01 -1.092568e-01 -9.821153e-02 5.344354e-02 9.295163e-02 2.079251e-02
<VARIANCE> 25
 3.389288e+00 7.983653e+00 9.032414e+00 1.003021e+01 1.236449e+01 1.056572e+01 3.052179e+01 1.386014e+01 2.038870e+01 1.177039e+01 1.315102e+01 1.254145e+01 5.081801e-01 9.537485e-01 9.799774e-01 9.194666e-01 1.615630e+00 1.359362e+00 4.915773e+00 1.528992e+00 2.355860e+00 1.222826e+00 1.220767e+00 1.151370e+00 4.006802e-01
<GCONST> 7.771661e+01
<STATE> 4
<MEAN> 25
 4.244569e+00 5.890533e-02 8.795242e-01 9.706291e+00 9.050394e+00 -2.265622e+00 -9.095641e+00 -5.090148e+00 -2.648463e+00 -4.140448e+00 -4.676655e+00 -5.235441e+00 -4.344283e-01 4.451247e-01 8.059992e-02 -1.358118e+00 -1.037241e+00 1.043826e+00 1.642715e+00 7.984257e-02 -4.190398e-01 6.301547e-01 6.658022e-01 3.702246e-01 -3.666245e-01
<VARIANCE> 25
 6.975002e+00 7.077158e+00 1.448768e+01 1.952393e+01 1.660949e+01 1.689574e+01 3.406120e+01 1.493992e+01 1.581208e+01 1.462849e+01 1.745018e+01 1.805838e+01 9.272136e-01 7.617078e-01 1.358317e+00 1.250345e+00 1.432473e+00 1.447691e+00 2.828287e+00 1.752902e+00 1.915117e+00 1.266758e+00 1.312268e+00 1.615056e+00 4.253515e-01
<GCONST> 8.185175e+01
<TRANSP> 5
 0.000000e+00 1.000000e+00 0.000000e+00 0.000000e+00 0.000000e+00
 0.000000e+00 4.401972e-01 5.598028e-01 0.000000e+00 0.000000e+00
 0.000000e+00 0.000000e+00 8.790991e-01 1.209009e-01 0.000000e+00
 0.000000e+00 0.000000e+00 0.000000e+00 7.946293e-01 2.053706e-01
 0.000000e+00 0.000000e+00 0.000000e+00 0.000000e+00 0.000000e+00
<ENDHMM>
~h "m"
<BEGINHMM>
<NUMSTATES> 5
<STATE> 2
<MEAN> 25
 5.220730e+00 5.356000e+00 -7.700366e-01 5.052000e-01 1.625054e+00 -8.245499e-02 -1.092417e+00 1.067741e+00 3.625323e+00 3.192847e+00 -3.533112e+00 -6.612407e+00 -8.572416e-01 -3.992429e-02 4.760413e-01 3.615055e-01 3.521776e-01 7.845256e-01 1.034692e+00 5.020552e-02 -6.499985e-01 -3.879540e-01 -9.245776e-02 1.757765e-01 -5.391593e-01
<VARIANCE> 25
 4.380742e+00 2.054551e+00 7.504985e+00 3.837224e+00 2.743455e+00 5.770720e+00 9.402140e+00 5.244041e+00 9.176942e+00 3.663830e+00 5.169412e+00 6.712396e+00 1.703335e-01 1.946339e-01 3.946647e-01 2.930750e-01 3.829149e-01 2.811916e-01 7.228506e-01 5.908614e-01 6.357492e-01 5.630419e-01 7.409850e-01 8.894182e-01 4.548689e-02
<GCONST> 5.204877e+01
<STATE> 3
<MEAN> 25
 2.457843e-01 4.703490e+00 8.975428e-01 1.238105e+00 2.847472e+00 3.523880e+00 3.923944e+00 7.633742e-01 -1.911248e-01 3.110851e-01 -3.281299e+00 -5.408490e+00 -9.877077e-01 -7.558619e-01 -2.592269e-01 -8.586086e-02 3.821303e-01 8.776409e-01 5.526434e-01 2.727327e-01 -6.502062e-02 -1.876708e-01 5.682194e-01 9.013322e-01 -5.034721e-01
<VARIANCE> 25
 1.381608e+00 1.442423e+00 1.711745e+00 2.176328e+00 3.373227e+00 4.166256e+00 5.721331e+00 8.096684e+00 9.027364e+00 4.004353e+00 4.555327e+00 2.534142e+00 1.384743e-01 1.199565e-01 2.759924e-01 2.209790e-01 3.531476e-01 3.160909e-01 4.214224e-01 4.303519e-01 5.873907e-01 7.035488e-01 3.135892e-01 6.645776e-01 9.413496e-02
<GCONST> 4.485437e+01
<STATE> 4
<MEAN> 25
 -9.405245e-01 2.756320e+00 -2.653533e-01 1.195165e+00 2.857570e+00 4.227064e+00 3.836548e+00 1.587634e+00 -4.464091e-02 2.806451e-01 -1.769115e+00 -5.492720e-01 -1.958909e-01 -3.758490e-01 -1.032848e-01 -2.120408e-01 -2.709705e-01 -2.361380e-01 -1.188366e-01 2.467430e-01 1.061348e-01 -6.273234e-02 4.659702e-01 7.288723e-01 4.799994e-03
<VARIANCE> 25
 2.935351e+00 2.826232e+00 2.827964e+00 4.064860e+00 3.339641e+00 4.713272e+00 5.026891e+00 4.701164e+00 8.064098e+00 4.623616e+00 2.913695e+00 6.950422e+00 3.023879e-01 3.966853e-01 3.015372e-01 4.255465e-01 5.291358e-01 5.158276e-01 4.218111e-01 6.753638e-01 9.841862e-01 4.577960e-01 7.300232e-01 6.620877e-01 1.710117e-01
<GCONST> 5.303189e+01
<TRANSP> 5
 0.000000e+00 1.000000e+00 0.000000e+00 0.000000e+00 0.000000e+00
 0.000000e+00 8.208669e-01 1.791331e-01 0.000000e+00 0.000000e+00
 0.000000e+00 0.000000e+00 5.708498e-01 4.291502e-01 0.000000e+00
 0.000000e+00 0.000000e+00 0.000000e+00 8.209229e-01 1.790771e-01
 0.000000e+00 0.000000e+00 0.000000e+00 0.000000e+00 0.000000e+00
<ENDHMM>
~h "n"
<BEGINHMM>
<NUMSTATES> 5
<STATE> 2
<MEAN> 25
 5.617623e+00 4.859949e+00 -7.738383e-01 4.308504e+00 7.343458e+00 4.055594e+00 -8.884865e-01 -2.127446e+00 -3.701158e-01 -1.737233e+00 -7.552375e+00 -7.783813e+00 2.507826e-01 -2.171257e-01 -2.841560e-01 -3.702984e-01 -5.938507e-01 -5.779794e-01 1.090281e-01 5.830441e-01 5.445153e-01 1.827474e-01 -4.438341e-02 -3.657606e-01 2.729816e-01
<VARIANCE> 25
 2.331527e+00 3.201454e+00 7.340492e+00 8.645816e+00 8.672364e+00 5.311754e+00 8.021798e+00 1.179927e+01 9.251083e+00 7.340635e+00 1.094102e+01 9.312262e+00 1.908066e-01 3.045352e-01 3.118600e-01 1.324503e+00 2.248914e+00 1.507452e+00 6.046923e-01 8.794784e-01 8.791883e-01 7.927096e-01 1.594462e+00 1.014561e+00 1.380769e-01
<GCONST> 6.432958e+01
<STATE> 3
<MEAN> 25
 7.374806e+00 4.243770e+00 -2.622167e+00 -1.010073e+00 4.767680e-01 -8.850226e-01 -2.493119e-01 8.829757e-01 1.838114e+00 5.839022e-01 -3.934967e+00 -5.751522e+00 5.286290e-01 -7.907531e-02 -7.953426e-01 -1.882577e+00 -2.418088e+00 -1.653927e+00 9.705570e-02 1.471117e+00 1.230297e+00 8.132597e-01 9.614500e-01 1.004707e+00 3.773255e-01
<VARIANCE> 25
 3.173527e+00 3.084584e+00 8.934155e+00 1.176385e+01 1.227722e+01 2.172954e+01 7.482428e+00 1.139878e+01 8.841668e+00 1.499924e+01 9.199337e+00 8.937778e+00 1.109595e-01 2.436052e-01 3.077917e-01 1.087421e+00 1.173220e+00 1.299320e+00 9.230875e-01 7.164473e-01 8.270240e-01 7.033319e-01 1.264431e+00 9.390346e-01 1.165802e-01
<GCONST> 6.499595e+01
<STATE> 4
<MEAN> 25
 7.914994e+00 4.320933e+00 -4.385083e+00 -3.937635e+00 -2.429925e+00 -2.354049e+00 3.002269e-01 3.258352e+00 3.614968e+00 1.712199e+00 -2.535074e+00 -3.333911e+00 3.020105e-01 -2.919573e-02 -5.517980e-01 -1.202918e+00 -1.746256e+00 -1.292090e+00 -1.302613e-01 8.888673e-01 1.032283e+00 5.291702e-01 4.687372e-01 1.117991e+00 1.515558e-01
<VARIANCE> 25
 2.731332e+00 2.575119e+00 9.344613e+00 7.282261e+00 1.046240e+01 1.944539e+01 1.070795e+01 6.796286e+00 6.557078e+00 9.380939e+00 6.969412e+00 7.489332e+00 1.461469e-01 3.507631e-01 1.586815e-01 8.882647e-01 9.696714e-01 1.117618e+00 7.011251e-01 8.307174e-01 1.028375e+00 1.129615e+00 8.887123e-01 1.258817e+00 1.102944e-01
<GCONST> 6.246203e+01
<TRANSP> 5
 0.000000e+00 1.000000e+00 0.000000e+00 0.000000e+00 0.000000e+00
 0.000000e+00 7.377197e-01 2.622803e-01 0.000000e+00 0.000000e+00
 0.000000e+00 0.000000e+00 4.719664e-01 5.280336e-01 0.000000e+00
 0.000000e+00 0.000000e+00 0.000000e+00 8.923177e-02 9.107683e-01
 0.000000e+00 0.000000e+00 0.000000e+00 0.000000e+00 0.000000e+00
<ENDHMM>
~h "p"
<BEGINHMM>
<NUMSTATES> 5
<STATE> 2
<MEAN> 25
 -3.618401e+00 -3.384264e-01 -2.128230e+00 -8.596861e-01 -2.987728e-01 2.075953e+00 3.408440e+00 1.699232e+00 8.704048e-01 3.382400e+00 3.097525e+00 3.364277e+00 1.839858e+00 1.075163e+00 5.970150e-01 -1.813357e-01 -1.464249e+00 -2.252244e+00 -1.758491e+00 -7.650975e-01 -3.274874e-01 -9.187247e-01 -1.409492e+00 -2.026713e+00 1.152366e+00
<VARIANCE> 25
 1.604145e+00 2.120182e+00 3.025550e+00 3.374378e+00 7.895832e+00 5.052481e+00 6.206805e+00 6.404856e+00 8.679351e+00 1.028801e+01 7.204444e+00 1.273718e+01 9.908084e-01 9.545618e-01 6.179222e-01 5.543609e-01 6.654631e-01 1.626009e+00 1.347373e+00 8.514596e-01 1.084188e+00 9.868280e-01 1.221595e+00 1.027915e+00 2.303142e-01
<GCONST> 6.379049e+01
<STATE> 3
<MEAN> 25
 1.925054e+00 4.399753e+00 8.410056e-01 -7.222326e-01 -3.800483e+00 -3.996649e+00 -1.738479e+00 -1.481108e+00 -1.397140e+00 -1.844104e-01 -1.024742e+00 -1.447799e+00 3.447919e+00 1.909196e+00 -7.376190e-02 -6.041113e-01 -1.962972e+00 -4.104259e+00 -3.374354e+00 -2.875311e-01 7.427316e-01 -1.376899e+00 -2.729543e+00 -2.017859e+00 1.773293e+00
<VARIANCE> 25
 1.042519e+01 1.124383e+01 4.813255e+00 4.391987e+00 9.407097e+00 1.864156e+01 1.748116e+01 9.350519e+00 9.782393e+00 6.572240e+00 6.771690e+00 1.075579e+01 6.452553e-01 7.127287e-01 1.664065e+00 1.195948e+00 1.073379e+00 1.320481e+00 8.460953e-01 1.162304e+00 1.721551e+00 1.204261e+00 1.229345e+00 2.135499e+00 4.327020e-01
<GCONST> 7.357727e+01
<STATE> 4
<MEAN> 25
 8.458124e+00 5.814884e+00 -3.305601e+00 -3.527695e+00 -7.050852e+00 -1.200976e+01 -7.547954e+00 1.518345e+00 4.152853e+00 -1.290309e+00 -6.954681e+00 -5.206460e+00 1.983180e+00 7.468278e-01 -6.227932e-01 -5.686818e-01 -9.120641e-01 -1.874227e+00 -1.342450e+00 2.840818e-01 7.889640e-01 -8.917666e-01 -1.934629e+00 -1.289301e+00 1.047070e+00
<VARIANCE> 25
 3.329247e+00 5.963502e+00 1.346288e+01 7.629883e+00 5.243750e+00 7.009062e+00 7.704449e+00 9.215752e+00 1.211389e+01 8.893150e+00 9.465558e+00 1.224407e+01 2.835839e+00 5.395867e-01 1.888723e+00 1.074314e+00 1.534876e+00 4.986814e+00 3.876940e+00 1.331963e+00 3.472444e+00 1.201965e+00 2.172682e+00 1.553035e+00 1.139575e+00
<GCONST> 7.845219e+01
<TRANSP> 5
 0.000000e+00 1.000000e+00 0.000000e+00 0.000000e+00 0.000000e+00
 0.000000e+00 4.885947e-01 5.114053e-01 0.000000e+00 0.000000e+00
 0.000000e+00 0.000000e+00 2.807051e-01 7.192950e-01 0.000000e+00
 0.000000e+00 0.000000e+00 0.000000e+00 3.989140e-01 6.010860e-01
 0.000000e+00 0.000000e+00 0.000000e+00 0.000000e+00 0.000000e+00
<ENDHMM>
~h "r"
<BEGINHMM>
<NUMSTATES> 5
<STATE> 2
<MEAN> 25
 5.806093e+00 2.401176e+00 -6.437982e+00 -4.801340e+00 -1.388310e+00 -2.485566e+00 -4.658020e+00 -2.840361e+00 1.718989e+00 2.109861e+00 -4.716864e+00 -4.231119e+00 -1.536028e-01 1.127481e-01 8.640072e-02 3.836711e-01 3.909724e-01 2.989843e-01 6.108042e-01 5.732997e-01 4.922257e-02 2.104283e-01 2.509923e-01 1.411584e-01 -2.152971e-01
<VARIANCE> 25
 1.084453e+01 4.020568e+00 1.120097e+01 6.969632e+00 7.082544e+00 4.409713e+00 1.469915e+01 6.441120e+00 9.709651e+00 8.708499e+00 1.502388e+01 7.015956e+00 1.969521e+00 6.303676e-01 1.756412e+00 1.200150e+00 2.083540e+00 4.018655e-01 3.511315e+00 1.221171e+00 1.040577e+00 1.036194e+00 2.544057e+00 1.730762e+00 4.483677e-01
<GCONST> 7.416256e+01
<STATE> 3
<MEAN> 25
 3.291667e+00 7.360982e-01 -4.816699e+00 -2.287774e+00 -1.008643e+00 -1.974607e+00 -1.933376e+00 -1.734146e+00 -2.754091e-01 2.604201e+00 -1.506355e+00 -1.723189e+00 -4.673432e-01 -3.330821e-01 -3.042894e-01 9.134278e-01 1.100947e+00 1.585203e-01 -2.341206e-01 3.765790e-01 3.010133e-01 -1.042575e-03 1.384524e-01 6.051384e-01 -4.439824e-01
<VARIANCE> 25
 9.778296e+00 8.637470e+00 9.865726e+00 1.009266e+01 9.163214e+00 5.823388e+00 1.988557e+01 8.945888e+00 1.226447e+01 8.275978e+00 2.133467e+01 1.963144e+01 2.152722e+00 8.012307e-01 8.260436e-01 1.018568e+00 1.359305e+00 5.644475e-01 3.002812e+00 9.892785e-01 8.684754e-01 8.890324e-01 3.506120e+00 2.744283e+00 3.993687e-01
<GCONST> 7.708366e+01
<STATE> 4
<MEAN> 25
 1.888190e+00 -6.452919e-01 -4.594434e+00 -2.695979e-01 1.592712e+00 -1.668923e+00 -3.434373e+00 -1.324111e+00 1.580662e+00 3.251776e+00 -7.960229e-01 -1.804987e+00 1.211543e-02 2.108464e-01 -2.748519e-01 4.200461e-01 5.015327e-01 -2.660349e-02 -2.155312e-01 1.842810e-01 2.840266e-01 -3.871869e-01 -7.557899e-01 1.133706e-01 -2.376588e-01
<VARIANCE> 25
 7.998121e+00 1.311582e+01 8.459988e+00 2.061509e+01 1.253083e+01 4.242466e+00 1.969398e+01 7.166315e+00 7.950479e+00 8.261312e+00 1.388364e+01 1.696002e+01 2.123461e+00 9.011016e-01 8.350777e-01 1.385172e+00 1.094669e+00 3.906437e-01 1.543757e+00 5.110630e-01 9.268167e-01 9.620327e-01 3.473567e+00 3.254158e+00 4.069288e-01
<GCONST> 7.545000e+01
<TRANSP> 5
 0.000000e+00 1.000000e+00 0.000000e+00 0.000000e+00 0.000000e+00
 0.000000e+00 5.123234e-01 4.876766e-01 0.000000e+00 0.000000e+00
 0.000000e+00 0.000000e+00 1.664155e-03 9.983358e-01 0.000000e+00
 0.000000e+00 0.000000e+00 0.000000e+00 2.147851e-01 7.852150e-01
 0.000000e+00 0.000000e+00 0.000000e+00 0.000000e+00 0.000000e+00
<ENDHMM>
~h "s"
<BEGINHMM>
<NUMSTATES> 5
<STATE> 2
<MEAN> 25
 -3.929585e+00 -3.833035e+00 1.038761e+01 -1.015185e+00 -3.966002e+00 3.118146e+00 3.994911e+00 -1.818960e+00 -4.337960e+00 -1.576950e+00 3.598215e+00 -5.122702e+00 -2.508541e+00 -1.194502e+00 2.515194e+00 -1.730097e+00 -1.345562e+00 1.205672e+00 1.793171e+00 3.417235e-01 -1.274410e-01 5.275980e-01 2.161446e+00 -1.245883e-01 1.473285e-01
<VARIANCE> 25
 2.070657e+01 9.202960e+00 3.361758e+01 2.114154e+01 2.416426e+01 1.558857e+01 1.642379e+01 2.662010e+01 1.400487e+01 1.302397e+01 2.841006e+01 2.909180e+01 1.572438e+00 1.160369e+00 3.922924e+00 2.162913e+00 1.664521e+00 1.366784e+00 2.807982e+00 1.434511e+00 2.182116e+00 9.926699e-01 2.777762e+00 1.554665e+00 2.085620e-01
<GCONST> 8.732166e+01
<STATE> 3
<MEAN> 25
 -9.936438e+00 -5.364421e+00 1.301081e+01 -6.298275e+00 -4.342132e+00 6.063790e+00 6.165820e+00 4.436531e-01 -1.784413e+00 1.206703e+00 8.088249e+00 -2.907112e+00 -8.149421e-02 1.537177e-01 -7.703128e-01 1.672075e-02 3.898508e-01 1.211778e-03 -1.687859e-02 4.244699e-01 3.874701e-01 4.751279e-01 1.024906e-02 6.253251e-01 -4.295514e-01
<VARIANCE> 25
 3.969766e+00 8.352407e+00 1.440789e+01 8.697482e+00 1.819717e+01 1.343410e+01 1.186408e+01 1.210852e+01 1.685269e+01 1.237682e+01 1.272397e+01 1.508895e+01 6.794736e-01 6.811701e-01 1.538173e+00 1.441763e+00 1.239158e+00 1.093186e+00 8.796025e-01 9.805256e-01 1.108425e+00 9.613227e-01 1.276800e+00 1.029050e+00 2.011791e-01
<GCONST> 7.425784e+01
<STATE> 4
<MEAN> 25
 -5.263546e+00 -1.843543e+00 2.504416e+00 -1.693088e+00 -1.044811e+00 3.814532e+00 4.575295e+00 2.027399e+00 -1.171368e-01 2.415521e+00 4.284519e+00 2.589806e+00 1.073370e+00 7.635478e-01 -1.496548e+00 5.878937e-01 4.034305e-01 -3.873850e-01 -5.060895e-01 -1.762335e-01 1.333996e-01 -4.925716e-02 -9.919220e-01 4.946871e-01 -4.335136e-01
<VARIANCE> 25
 6.686321e+00 7.808907e+00 1.812235e+01 7.076207e+00 8.407721e+00 7.224806e+00 9.278161e+00 1.117537e+01 1.291058e+01 1.264654e+01 1.320703e+01 1.382196e+01 1.711100e+00 8.767080e-01 1.262800e+00 8.355478e-01 7.182921e-01 1.103369e+00 1.141276e+00 1.228562e+00 1.827594e+00 1.956330e+00 2.828667e+00 1.648777e+00 4.445009e-01
<GCONST> 7.637440e+01
<TRANSP> 5
 0.000000e+00 1.000000e+00 0.000000e+00 0.000000e+00 0.000000e+00
 0.000000e+00 6.195961e-01 3.804039e-01 0.000000e+00 0.000000e+00
 0.000000e+00 0.000000e+00 8.117475e-01 1.882525e-01 0.000000e+00
 0.000000e+00 0.000000e+00 0.000000e+00 7.934316e-01 2.065683e-01
 0.000000e+00 0.000000e+00 0.000000e+00 0.000000e+00 0.000000e+00
<ENDHMM>
~h "t"
<BEGINHMM>
<NUMSTATES> 5
<STATE> 2
<MEAN> 25
 -1.964091e+00 -6.125423e-01 -7.806317e-02 -1.659280e+00 -3.101340e+00 -8.189394e-01 2.336725e+00 7.145131e-02 -2.917137e-01 1.599167e+00 2.096363e+00 1.779289e+00 1.110230e+00 3.079405e-01 4.443061e-01 4.516288e-01 -3.788501e-02 -7.068689e-01 -1.117803e+00 -9.966465e-01 -5.041803e-01 -7.798045e-01 -1.305280e+00 -1.406750e+00 8.156452e-01
<VARIANCE> 25
 5.934525e+00 1.201793e+01 1.021534e+01 1.457076e+01 1.402888e+01 9.785428e+00 1.058709e+01 9.603519e+00 1.349401e+01 9.118072e+00 1.294440e+01 1.659195e+01 2.731848e+00 1.929584e+00 1.545545e+00 1.424894e+00 1.282293e+00 1.276874e+00 2.099445e+00 1.916586e+00 1.210025e+00 1.288370e+00 3.476120e+00 1.841820e+00 4.922714e-01
<GCONST> 8.087189e+01
<STATE> 3
<MEAN> 25
 4.301755e+00 1.352548e+00 -2.067220e+00 -8.838595e-01 -2.889627e+00 -4.354099e+00 -2.570554e+00 -2.679122e+00 -2.014059e+00 -1.524936e+00 -3.688536e+00 -1.892408e+00 1.941327e+00 4.619079e-01 -1.333928e+00 -2.472101e-01 2.181112e-01 -8.886899e-01 -1.493217e+00 -5.364169e-01 3.629541e-02 -8.331255e-01 -1.666623e+00 -7.331948e-01 9.184303e-01
<VARIANCE> 25
 1.851841e+01 1.209835e+01 1.442968e+01 1.216843e+01 1.313387e+01 2.867054e+01 1.764162e+01 1.507214e+01 1.304553e+01 1.569958e+01 2.563370e+01 1.409166e+01 2.376625e+00 1.419647e+00 2.280672e+00 2.004967e+00 1.058631e+00 1.408540e+00 2.158962e+00 1.875954e+00 1.591232e+00 1.520592e+00 3.189358e+00 1.416634e+00 5.145409e-01
<GCONST> 8.551432e+01
<STATE> 4
<MEAN> 25
 5.450960e+00 1.665016e+00 -4.263397e+00 -2.232468e+00 -2.502255e+00 -4.329843e+00 -2.948314e+00 -1.558995e+00 -6.738210e-01 -1.678930e+00 -4.104074e+00 -1.593322e+00 7.473979e-01 4.067442e-01 -4.974854e-01 -3.653498e-01 4.401308e-02 8.057752e-02 -2.763653e-01 2.425636e-01 2.674932e-01 -3.236157e-01 -6.459805e-01 -3.470257e-01 2.366793e-01
<VARIANCE> 25
 2.424932e+01 7.032007e+00 1.592461e+01 1.423405e+01 1.471116e+01 2.431379e+01 1.953908e+01 1.944429e+01 1.801755e+01 1.889932e+01 2.956126e+01 1.757356e+01 1.851515e+00 8.107846e-01 2.045705e+00 1.279774e+00 8.532785e-01 1.334651e+00 2.059378e+00 1.203113e+00 1.197428e+00 1.353184e+00 2.906035e+00 1.693414e+00 6.331208e-01
<GCONST> 8.443732e+01
<TRANSP> 5
 0.000000e+00 1.000000e+00 0.000000e+00 0.000000e+00 0.000000e+00
 0.000000e+00 5.274954e-01 4.725046e-01 0.000000e+00 0.000000e+00
 0.000000e+00 0.000000e+00 3.561528e-01 6.438472e-01 0.000000e+00
 0.000000e+00 0.000000e+00 0.000000e+00 3.147914e-01 6.852086e-01
 0.000000e+00 0.000000e+00 0.000000e+00 0.000000e+00 0.000000e+00
<ENDHMM>
~h "v"
<BEGINHMM>
<NUMSTATES> 5
<STATE> 2
<MEAN> 25
 9.314227e-01 1.406835e+00 -2.979806e+00 -1.551431e+00 -5.620614e-01 -4.761166e-01 5.195571e-01 1.862581e+00 1.289826e+00 9.962013e-01 2.850108e-01 2.004215e+00 -5.690638e-02 2.280694e-01 3.320839e-01 3.198975e-01 4.664255e-01 2.163918e-01 -5.216572e-02 -3.443477e-01 -4.768305e-01 -2.328500e-01 -1.412780e-01 -9.127313e-02 -9.433305e-02
<VARIANCE> 25
 3.633600e+01 1.031133e+01 1.567545e+01 8.332184e+00 1.650004e+01 3.312050e+01 3.242999e+01 1.336502e+01 2.061465e+01 1.628920e+01 2.103581e+01 2.484127e+01 3.373918e-01 2.822255e-01 3.842266e-01 4.283992e-01 5.991012e-01 7.056994e-01 7.091562e-01 8.543364e-01 1.497828e+00 6.435336e-01 1.329353e+00 8.868582e-01 1.018553e-01
<GCONST> 7.352155e+01
<STATE> 3
<MEAN> 25
 6.446435e-01 1.692455e+00 -2.621224e+00 -1.123322e+00 2.010418e-01 1.241712e-01 2.226622e-01 1.256851e+00 1.049947e+00 1.520699e+00 5.839145e-01 2.027156e+00 1.202715e-01 4.989605e-01 5.544904e-01 4.853458e-01 4.400555e-01 2.126386e-01 5.637577e-02 -5.076270e-01 -5.001394e-01 -1.690579e-01 -3.531225e-01 -4.716116e-01 -1.450647e-02
<VARIANCE> 25
 3.310145e+01 1.089962e+01 1.200960e+01 7.059749e+00 1.594417e+01 3.495256e+01 3.284023e+01 1.182103e+01 2.025988e+01 1.902708e+01 2.263818e+01 2.426275e+01 8.407357e-01 5.862435e-01 5.293486e-01 5.317932e-01 5.454906e-01 6.172957e-01 1.517665e+00 6.846697e-01 1.135132e+00 6.632872e-01 1.696870e+00 1.229342e+00 3.016120e-01
<GCONST> 7.705067e+01
<STATE> 4
<MEAN> 25
 8.873165e-01 2.877142e+00 -1.488640e+00 -5.147678e-01 6.196155e-01 3.646196e-01 1.124684e+00 1.279328e+00 3.803068e-01 7.240053e-01 -8.233231e-02 9.737604e-01 4.800434e-01 5.316439e-01 6.090661e-01 6.372960e-01 4.518700e-01 8.816443e-02 -3.613512e-01 -7.413654e-01 -5.724509e-01 -3.378759e-01 -6.466334e-01 -9.586874e-01 2.323901e-01
<VARIANCE> 25
 2.259167e+01 8.132540e+00 1.126985e+01 9.183064e+00 1.593291e+01 3.014067e+01 2.254965e+01 1.211706e+01 1.969162e+01 1.763069e+01 1.725995e+01 2.791090e+01 1.252183e+00 1.193399e+00 1.023513e+00 7.349738e-01 8.610306e-01 8.065188e-01 3.415355e+00 1.436025e+00 1.105949e+00 7.481331e-01 1.829719e+00 1.970849e+00 6.719446e-01
<GCONST> 8.164980e+01
<TRANSP> 5
 0.000000e+00 1.000000e+00 0.000000e+00 0.000000e+00 0.000000e+00
 0.000000e+00 2.053714e-03 9.979463e-01 0.000000e+00 0.000000e+00
 0.000000e+00 0.000000e+00 3.147613e-03 9.968523e-01 0.000000e+00
 0.000000e+00 0.000000e+00 0.000000e+00 9.828704e-02 9.017130e-01
 0.000000e+00 0.000000e+00 0.000000e+00 0.000000e+00 0.000000e+00
<ENDHMM>
~h "z"
<BEGINHMM>
<NUMSTATES> 5
<STATE> 2
<MEAN> 25
 -1.079311e+00 -2.597307e-01 9.590829e+00 -2.405190e+00 -6.546589e+00 4.146931e+00 3.133869e+00 -7.536150e-01 -3.521313e+00 -5.083720e-01 9.400219e-01 -4.062994e+00 4.391253e-03 -3.735043e-01 1.357233e-01 2.021983e-01 -1.326479e-01 -4.176110e-01 -5.545285e-01 -3.253028e-01 -1.390092e-01 -5.005354e-01 -6.297528e-01 -2.892905e-01 1.967982e-01
<VARIANCE> 25
 1.182890e+01 6.921089e+00 1.813554e+01 1.020657e+01 6.606424e+00 1.170836e+01 8.359050e+00 7.119924e+00 9.292174e+00 1.047420e+01 2.069113e+01 9.811207e+00 5.202498e+00 1.500157e+00 9.657316e+00 1.086308e+00 9.820003e-01 4.765184e+00 2.681383e+00 6.124983e-01 1.700852e+00 1.039941e+00 4.973720e+00 9.981734e-01 1.959420e-01
<GCONST> 8.088605e+01
<STATE> 3
<MEAN> 25
 7.880840e+00 8.095592e-01 -3.763255e+00 -2.654444e+00 -5.105101e+00 -6.144027e+00 -5.852145e+00 -1.926255e+00 8.178633e-01 -4.427241e+00 -8.804903e+00 -2.481756e+00 2.576827e+00 -7.644895e-01 -4.960270e+00 -9.715571e-01 7.861799e-01 -2.816992e+00 -2.768962e+00 9.487330e-01 2.263296e+00 -2.248663e-01 -1.026075e+00 1.608130e+00 1.221151e+00
<VARIANCE> 25
 3.683680e+00 8.873945e+00 1.503134e+01 4.842219e+00 5.416159e+00 6.729038e+00 1.760445e+01 8.638268e+00 1.404823e+01 3.917731e+00 3.991713e+00 9.119896e+00 5.903581e-01 6.388247e-01 1.227940e+00 4.970271e-01 6.222298e-01 1.264296e+00 1.317222e+00 8.109104e-01 8.354765e-01 7.851321e-01 1.569712e+00 6.713793e-01 6.068543e-02
<GCONST> 6.513015e+01
<STATE> 4
<MEAN> 25
 1.051555e+01 -2.137633e+00 -1.039798e+01 -4.323648e+00 -3.806504e+00 -9.243034e+00 -8.883630e+00 5.833731e-01 4.098203e+00 -3.389457e+00 -7.446249e+00 2.835342e-01 1.019096e+00 -1.043990e+00 -2.921088e+00 -1.093440e+00 3.947113e-01 -1.038220e+00 -7.897367e-01 1.322361e+00 1.441259e+00 6.216964e-01 5.170197e-01 8.006896e-01 6.723273e-01
<VARIANCE> 25
 1.294858e+00 7.727146e+00 4.274068e+00 4.006986e+00 4.440160e+00 7.116546e+00 8.035527e+00 7.727174e+00 8.325790e+00 3.775279e+00 2.232408e+00 5.071980e+00 2.416138e-01 4.198546e-01 6.636404e-01 6.260984e-01 2.661205e-01 5.530770e-01 8.517330e-01 5.355065e-01 6.141700e-01 6.959488e-01 8.717571e-01 2.663442e-01 5.940245e-02
<GCONST> 5.354583e+01
<TRANSP> 5
 0.000000e+00 1.000000e+00 0.000000e+00 0.000000e+00 0.000000e+00
 0.000000e+00 8.616484e-01 1.383516e-01 0.000000e+00 0.000000e+00
 0.000000e+00 0.000000e+00 5.164260e-01 4.835740e-01 0.000000e+00
 0.000000e+00 0.000000e+00 0.000000e+00 2.192168e-01 7.807831e-01
 0.000000e+00 0.000000e+00 0.000000e+00 0.000000e+00 0.000000e+00
<ENDHMM>
~h "aa"
<BEGINHMM>
<NUMSTATES> 5
<STATE> 2
<MEAN> 25
 6.469003e+00 1.571035e+00 -4.796591e+00 -2.689960e+00 -3.400214e+00 -5.651845e+00 -4.153376e+00 -1.035206e-01 2.900420e+00 -5.214234e-01 -4.210695e+00 -5.605978e-01 1.977145e+00 -5.507470e-01 -1.919282e+00 -1.071813e+00 -9.182056e-01 -1.696465e+00 -1.581979e+00 2.547533e-01 1.066851e+00 -3.594327e-01 -8.657972e-01 1.360375e-01 1.340653e+00
<VARIANCE> 25
 2.474545e+01 1.000915e+01 2.906973e+01 1.367771e+01 1.151263e+01 2.817750e+01 3.085426e+01 2.283407e+01 1.980541e+01 1.510582e+01 1.956868e+01 1.337713e+01 1.644147e+00 9.572042e-01 1.783716e+00 7.858508e-01 1.532967e+00 1.947686e+00 2.040841e+00 1.628608e+00 1.145256e+00 1.172063e+00 1.692392e+00 1.434216e+00 6.856694e-01
<GCONST> 8.494247e+01
<STATE> 3
<MEAN> 25
 1.112990e+01 -5.234407e-01 -1.085747e+01 -6.124238e+00 -4.842647e+00 -8.277607e+00 -7.031798e+00 8.497262e-01 5.028611e+00 -1.036474e+00 -5.460517e+00 -9.032853e-02 1.201105e-01 -2.474582e-01 -3.351918e-01 -3.325479e-01 5.576093e-02 4.497918e-01 1.179794e-01 -1.322110e-01 -1.380965e-01 -2.055275e-02 2.724320e-01 2.947961e-01 1.532765e-01
<VARIANCE> 25
 4.116926e+00 9.375198e+00 9.288478e+00 5.419596e+00 6.728311e+00 1.465419e+01 1.516440e+01 1.229036e+01 1.416550e+01 8.324079e+00 9.855946e+00 1.070332e+01 1.948502e-01 6.115021e-01 9.208194e-01 6.147301e-01 7.892359e-01 9.469650e-01 6.218322e-01 1.555407e+00 1.114008e+00 8.115656e-01 8.264468e-01 1.089056e+00 1.330590e-01
<GCONST> 6.752226e+01
<STATE> 4
<MEAN> 25
 7.615420e+00 2.145125e+00 -7.002069e+00 -5.997015e+00 -4.095916e+00 -3.541265e+00 -3.301233e+00 -1.652988e+00 8.538264e-02 -1.172531e+00 -2.942452e+00 1.509092e+00 -1.184251e+00 3.587642e-01 1.092340e+00 2.309052e-01 5.341575e-02 7.855177e-01 1.022992e+00 -1.118389e-01 -9.136180e-01 1.929120e-01 7.744706e-01 2.233383e-01 -8.144351e-01
<VARIANCE> 25
 1.270766e+01 1.004137e+01 1.172021e+01 8.928605e+00 1.535344e+01 1.475176e+01 2.567147e+01 1.926546e+01 1.893348e+01 8.576599e+00 1.655867e+01 1.218949e+01 3.525127e-01 8.709477e-01 8.780053e-01 9.795291e-01 1.161444e+00 8.036973e-01 1.654599e+00 1.236828e+00 1.206594e+00 8.436867e-01 1.102168e+00 9.693379e-01 3.037691e-01
<GCONST> 7.567833e+01
<TRANSP> 5
 0.000000e+00 1.000000e+00 0.000000e+00 0.000000e+00 0.000000e+00
 0.000000e+00 5.084521e-01 4.915479e-01 0.000000e+00 0.000000e+00
 0.000000e+00 0.000000e+00 6.826420e-01 3.173581e-01 0.000000e+00
 0.000000e+00 0.000000e+00 0.000000e+00 7.890568e-01 2.109433e-01
 0.000000e+00 0.000000e+00 0.000000e+00 0.000000e+00 0.000000e+00
<ENDHMM>
~h "ae"
<BEGINHMM>
<NUMSTATES> 5
<STATE> 2
<MEAN> 25
 -1.132344e+01 -8.087798e+00 1.469141e+01 -5.045693e+00 -5.699792e+00 5.339720e+00 4.839290e+00 -6.902315e-01 8.247681e-01 9.285273e-01 8.152583e+00 -3.828999e+00 5.583879e-02 -6.325226e-01 -5.740064e-01 9.078047e-01 -6.359024e-01 -7.889546e-01 5.366023e-01 5.262835e-01 6.647593e-01 7.267536e-01 2.746072e-02 2.335115e-01 -2.375066e-01
<VARIANCE> 25
 6.865720e+00 6.639525e+00 8.539946e+00 1.635830e+01 9.514189e+00 1.252892e+01 8.461561e+00 1.346040e+01 1.578470e+01 7.931649e+00 1.014376e+01 9.022642e+00 9.639508e-01 4.762350e-01 1.168763e+00 1.752895e+00 8.406997e-01 9.335436e-01 1.004978e+00 8.307140e-01 7.249553e-01 6.709489e-01 1.396742e+00 9.421663e-01 8.744528e-02
<GCONST> 7.020158e+01
<STATE> 3
<MEAN> 25
 -9.031449e+00 -9.336213e+00 1.091433e+01 -3.400859e-01 -5.481565e+00 2.752161e+00 5.257038e+00 -2.470883e-01 4.040451e-01 2.024094e+00 7.163782e+00 -2.237291e+00 1.908722e+00 9.838119e-01 -7.149663e-01 2.544090e+00 1.389258e+00 -7.118841e-01 -1.204546e+00 -7.408548e-01 -7.927465e-01 -7.601278e-01 -2.080230e+00 -5.152048e-01 -2.074903e-01
<VARIANCE> 25
 5.623924e+00 4.603630e+00 1.928964e+01 1.339067e+01 9.690055e+00 9.921246e+00 8.313382e+00 1.207201e+01 1.858639e+01 8.478559e+00 1.481099e+01 1.441884e+01 2.695899e+00 1.036967e+00 1.400768e+00 3.974598e+00 1.564585e+00 9.572209e-01 2.721692e+00 1.261030e+00 1.100692e+00 1.443371e+00 3.349370e+00 1.308920e+00 1.472156e-01
<GCONST> 7.876042e+01
<STATE> 4
<MEAN> 25
 -5.453798e+00 -5.988558e+00 1.073297e+01 3.545943e+00 -2.712677e+00 2.592454e+00 4.059860e+00 -1.536652e+00 -2.076510e+00 -3.544121e-01 2.740937e+00 -4.521833e+00 2.904164e+00 1.461439e+00 -1.019089e+00 3.124461e+00 2.701567e+00 -1.275963e+00 -3.253188e+00 -1.065933e+00 -6.280257e-01 -1.374066e+00 -3.165193e+00 -1.330126e+00 3.038420e-01
<VARIANCE> 25
 7.485825e+00 5.150296e+00 3.002369e+01 2.214673e+01 7.376894e+00 9.849427e+00 9.743560e+00 1.148426e+01 1.288690e+01 9.677007e+00 1.978004e+01 2.148647e+01 3.422453e+00 9.675032e-01 1.041695e+00 6.523915e+00 2.741090e+00 1.635458e+00 5.200858e+00 3.009864e+00 1.229246e+00 2.018167e+00 4.983633e+00 1.057691e+00 1.766582e-01
<GCONST> 8.418201e+01
<TRANSP> 5
 0.000000e+00 1.000000e+00 0.000000e+00 0.000000e+00 0.000000e+00
 0.000000e+00 6.658180e-01 3.341821e-01 0.000000e+00 0.000000e+00
 0.000000e+00 0.000000e+00 3.010925e-01 6.989076e-01 0.000000e+00
 0.000000e+00 0.000000e+00 0.000000e+00 3.870462e-02 9.612954e-01
 0.000000e+00 0.000000e+00 0.000000e+00 0.000000e+00 0.000000e+00
<ENDHMM>
~h "ay"
<BEGINHMM>
<NUMSTATES> 5
<STATE> 2
<MEAN> 25
 7.710567e+00 7.431228e+00 5.441443e-01 -2.252660e+00 -8.381342e+00 -1.157586e+01 -5.867900e+00 3.608104e+00 7.378514e+00 2.798129e+00 -2.125579e+00 -3.384596e+00 -1.196347e-01 1.388895e-01 1.008951e-01 -1.285191e-01 -2.672443e-01 -2.155084e-01 1.999592e-01 2.483986e-01 -3.587586e-01 -1.055899e+00 -9.626552e-01 -7.781973e-01 -1.092586e-01
<VARIANCE> 25
 2.712752e+00 1.629531e+00 2.508540e+00 4.818377e+00 4.747901e+00 1.498186e+01 1.505756e+01 5.123600e+00 7.549150e+00 9.507053e+00 1.095111e+01 4.305033e+00 1.047922e-01 3.632332e-01 4.492994e-01 1.901511e-01 5.472140e-01 7.444929e-01 6.308998e-01 3.116536e-01 5.878308e-01 6.740298e-01 1.183244e+00 6.596209e-01 7.982852e-02
<GCONST> 5.470786e+01
<STATE> 3
<MEAN> 25
 7.917894e+00 6.680734e+00 -2.204042e-01 -1.830535e+00 -7.779994e+00 -1.170760e+01 -5.825828e+00 3.852335e+00 5.532993e+00 -3.351985e+00 -8.526281e+00 -6.107550e+00 7.911335e-02 -1.016712e+00 -6.014676e-01 2.095385e-01 1.068601e+00 1.329370e+00 1.180043e-01 -3.874602e-01 -8.544452e-01 -1.616890e+00 -1.237196e+00 1.333293e-01 3.409021e-01
<VARIANCE> 25
 5.909312e+00 4.220755e+00 1.763682e+00 4.545732e+00 4.781785e+00 1.991096e+01 1.807697e+01 4.934372e+00 5.973468e+00 1.282193e+01 1.040799e+01 1.829285e+01 1.332305e-01 9.923612e-01 3.480818e-01 6.668118e-01 1.206690e+00 9.713384e-01 1.063561e+00 9.255444e-01 1.204524e+00 1.096615e+00 9.274908e-01 1.371724e+00 1.656217e-01
<GCONST> 6.525978e+01
<STATE> 4
<MEAN> 25
 7.873969e+00 1.086146e+00 -2.450757e+00 -8.522328e-01 -2.396313e+00 -3.832273e+00 -5.087848e+00 8.577788e-01 7.866761e-01 -7.561319e+00 -9.085817e+00 -1.350404e+00 -1.379201e+00 -2.006490e+00 9.446369e-01 2.552218e-01 5.845672e-01 3.012594e+00 2.229183e+00 -9.621780e-01 -2.501935e+00 3.274625e-03 2.388928e+00 9.796435e-01 9.038851e-02
<VARIANCE> 25
 6.242827e+00 1.613036e+01 4.314274e+00 5.557745e+00 1.378187e+01 2.157997e+01 1.918024e+01 1.080893e+01 8.750931e+00 2.359366e+01 8.676120e+00 2.203155e+01 7.235810e-01 6.729556e-01 1.795360e+00 3.854648e-01 2.220958e+00 1.085515e+00 1.973033e+00 9.774380e-01 6.615274e-01 1.692036e+00 1.680376e+00 2.499490e+00 1.157946e-01
<GCONST> 7.518967e+01
<TRANSP> 5
 0.000000e+00 1.000000e+00 0.000000e+00 0.000000e+00 0.000000e+00
 0.000000e+00 7.209644e-01 2.790357e-01 0.000000e+00 0.000000e+00
 0.000000e+00 0.000000e+00 6.999744e-01 3.000255e-01 0.000000e+00
 0.000000e+00 0.000000e+00 0.000000e+00 6.198462e-01 3.801539e-01
 0.000000e+00 0.000000e+00 0.000000e+00 0.000000e+00 0.000000e+00
<ENDHMM>
~h "ch"
<BEGINHMM>
<NUMSTATES> 5
<STATE> 2
<MEAN> 25
 -1.482901e+00 -1.126383e+01 4.104305e+00 5.926434e+00 -1.024142e+00 1.965381e+00 -1.962109e+00 -6.543076e+00 4.352696e+00 -2.167909e+00 -5.838343e+00 -1.781525e+00 -2.043511e+00 -2.293690e+00 1.943109e+00 1.040955e+00 -6.581059e-01 -5.912510e-01 5.793826e-01 7.860721e-01 1.822214e+00 4.638540e-01 9.295034e-01 6.722876e-01 1.879690e-01
<VARIANCE> 25
 1.561963e+01 2.951936e+01 1.441363e+01 1.256896e+01 9.122446e+00 9.851533e+00 8.628943e+00 1.040471e+01 3.238646e+01 1.193419e+01 1.023261e+01 7.868872e+00 5.761124e-01 1.894843e+00 1.159238e+00 1.003739e+00 1.353383e+00 1.049340e+00 1.079157e+00 1.719386e+00 1.848574e+00 1.595552e+00 1.051627e+00 6.441449e-01 9.484833e-02
<GCONST> 7.616605e+01
<STATE> 3
<MEAN> 25
 -8.502112e+00 -1.327768e+01 1.056898e+01 3.667189e+00 -1.164062e+00 -1.236864e+00 7.651485e-01 2.723370e+00 5.599386e+00 -3.108509e+00 2.994230e+00 1.935673e+00 -2.640674e-01 2.051475e+00 -3.764381e-01 -1.843814e+00 2.769754e-01 -8.382285e-02 7.454975e-01 1.781974e+00 -1.908621e+00 2.307707e-01 1.951904e+00 4.681606e-01 -1.015430e+00
<VARIANCE> 25
 2.290734e+00 1.327781e+01 7.760001e+00 2.238770e+01 7.653224e+00 8.200765e+00 1.005137e+01 1.887375e+01 3.191896e+01 6.599775e+00 2.171378e+01 9.143184e+00 7.910287e-01 9.719951e-01 2.692815e+00 1.078196e+00 5.553162e-01 5.559786e-01 8.974795e-01 2.098078e+00 1.500508e+00 1.649281e+00 1.711474e+00 9.266691e-01 2.920767e-01
<GCONST> 7.494268e+01
<STATE> 4
<MEAN> 25
 -5.547318e+00 -4.730921e+00 2.297697e+00 1.528178e+00 -1.923140e+00 4.598661e-02 4.343552e+00 3.206805e+00 1.248151e+00 1.799924e+00 3.741036e+00 4.350888e+00 7.123911e-01 1.008122e+00 -8.851666e-01 3.993329e-02 -5.508752e-01 -2.415292e-02 3.672895e-01 -6.530045e-01 -5.677561e-01 4.998541e-01 -2.134550e-01 -2.157733e-01 -4.289510e-01
<VARIANCE> 25
 1.760003e+00 3.407124e+00 6.532282e+00 3.320696e+00 5.238046e+00 9.204120e+00 7.503948e+00 9.895213e+00 9.027601e+00 8.500383e+00 8.051715e+00 6.397744e+00 4.253073e-01 5.876917e-01 1.773045e+00 6.134142e-01 3.318562e-01 8.877285e-01 1.046123e+00 9.123982e-01 1.174656e+00 1.244252e+00 9.472782e-01 2.067527e+00 7.330819e-01
<GCONST> 6.545030e+01
<TRANSP> 5
 0.000000e+00 1.000000e+00 0.000000e+00 0.000000e+00 0.000000e+00
 0.000000e+00 8.377684e-01 1.622316e-01 0.000000e+00 0.000000e+00
 0.000000e+00 0.000000e+00 7.306344e-01 2.693656e-01 0.000000e+00
 0.000000e+00 0.000000e+00 0.000000e+00 8.191794e-01 1.808206e-01
 0.000000e+00 0.000000e+00 0.000000e+00 0.000000e+00 0.000000e+00
<ENDHMM>
~h "ee"
<BEGINHMM>
<NUMSTATES> 5
<STATE> 2
<MEAN> 25
 7.900463e+00 4.950001e+00 -2.302341e+00 2.052527e-01 1.052475e+00 -2.425975e+00 -2.917393e+00 -8.091766e-01 -1.841293e+00 -2.592032e+00 -3.437413e+00 -4.503171e+00 -3.653593e-02 7.949464e-01 1.918708e-01 -8.282748e-01 -1.014254e+00 2.204896e-01 1.135668e+00 9.157826e-01 1.086989e+00 7.036901e-01 -6.002126e-01 -8.544952e-01 -2.600807e-01
<VARIANCE> 25
 4.433383e+00 5.767644e+00 7.730359e+00 3.243955e+01 3.777029e+01 1.107536e+01 8.617391e+00 1.510064e+01 2.021405e+01 1.867959e+01 1.007734e+01 2.135259e+01 2.984948e-01 4.231037e-01 6.295807e-01 1.857612e+00 2.771213e+00 7.217520e-01 1.027561e+00 1.099300e+00 2.262152e+00 2.533496e+00 1.318096e+00 1.361639e+00 9.019754e-02
<GCONST> 7.575050e+01
<STATE> 3
<MEAN> 25
 6.166044e+00 6.034035e+00 8.101616e-01 4.272133e+00 4.978888e+00 9.076384e-01 -1.200154e+00 -6.698043e-01 -1.094860e+00 -2.629113e+00 -6.006239e+00 -6.946730e+00 -1.080779e-01 -9.205957e-02 5.381674e-03 -1.481553e-01 2.867091e-02 1.458949e-01 -5.241168e-02 -1.813740e-01 9.635431e-02 1.235004e-01 -1.621850e-01 5.565386e-02 -2.816199e-02
<VARIANCE> 25
 3.726694e+00 3.318093e+00 5.629937e+00 2.445030e+01 2.456918e+01 8.393074e+00 9.076887e+00 5.050508e+00 1.561806e+01 1.985354e+01 1.133572e+01 1.013278e+01 1.166033e-01 2.570696e-01 5.643849e-01 8.440016e-01 8.457716e-01 5.282308e-01 6.289696e-01 7.665728e-01 7.556604e-01 5.906410e-01 5.573918e-01 5.591515e-01 8.105458e-02
<GCONST> 6.275183e+01
<STATE> 4
<MEAN> 25
 6.123381e+00 5.201770e+00 -3.357093e-01 3.963387e+00 5.411986e+00 7.209263e-01 -1.819920e+00 -1.315636e+00 -1.060997e+00 -2.109625e+00 -5.992045e+00 -5.854874e+00 2.978256e-01 -1.103986e+00 -1.568215e+00 -5.309164e-01 2.217794e-01 -8.318833e-01 -1.155968e+00 6.162461e-02 9.527999e-01 9.218747e-01 9.211619e-01 1.286796e+00 4.385180e-01
<VARIANCE> 25
 3.227064e+00 4.003227e+00 7.836975e+00 9.766912e+00 1.282913e+01 7.123426e+00 8.702724e+00 6.926542e+00 1.717798e+01 1.065729e+01 8.963943e+00 9.867922e+00 4.784259e-01 3.778233e-01 1.072726e+00 1.048816e+00 3.746609e-01 9.532733e-01 1.298310e+00 5.477506e-01 8.086825e-01 5.867143e-01 8.442071e-01 1.373081e+00 2.522748e-01
<GCONST> 6.621165e+01
<TRANSP> 5
 0.000000e+00 1.000000e+00 0.000000e+00 0.000000e+00 0.000000e+00
 0.000000e+00 6.473122e-01 3.526878e-01 0.000000e+00 0.000000e+00
 0.000000e+00 0.000000e+00 5.411912e-01 4.588089e-01 0.000000e+00
 0.000000e+00 0.000000e+00 0.000000e+00 3.699916e-01 6.300084e-01
 0.000000e+00 0.000000e+00 0.000000e+00 0.000000e+00 0.000000e+00
<ENDHMM>
~h "ii"
<BEGINHMM>
<NUMSTATES> 5
<STATE> 2
<MEAN> 25
 5.176825e+00 5.918933e+00 7.288622e-01 1.195554e+00 -4.880598e-01 -3.848404e+00 -3.073970e+00 -6.853396e-01 -9.150931e-01 -2.848888e+00 -6.207750e+00 -4.926557e+00 1.641891e+00 -1.221081e+00 -1.594546e+00 2.007846e-01 7.696682e-01 -1.753933e+00 -2.666729e+00 -8.317287e-01 -9.491217e-01 -1.139848e+00 -4.578022e-01 1.982729e-01 1.451065e+00
<VARIANCE> 25
 1.587737e+01 1.073393e+01 6.895004e+00 4.408564e+00 8.716483e+00 2.577381e+01 1.775174e+01 9.020787e+00 1.109667e+01 9.189581e+00 1.667455e+01 2.340404e+01 7.070633e-01 1.669176e+00 1.528186e+00 1.167078e+00 1.210836e+00 1.600443e+00 2.234338e+00 1.152416e+00 1.227633e+00 9.294119e-01 6.978840e-01 1.657717e+00 6.940391e-01
<GCONST> 7.784574e+01
<STATE> 3
<MEAN> 25
 7.527896e+00 3.730762e+00 -2.205103e+00 1.866191e+00 1.875488e+00 -5.542704e+00 -6.303759e+00 -1.270165e+00 -2.289893e+00 -4.494204e+00 -6.363091e+00 -3.770997e+00 1.135324e+00 -2.045575e+00 -1.416949e+00 8.758167e-01 1.948374e+00 -3.203562e-01 -2.107424e+00 -1.233183e+00 -1.466995e+00 -7.972727e-01 6.389948e-01 5.054976e-01 1.412749e+00
<VARIANCE> 25
 1.856528e+01 6.500453e+00 1.112724e+01 9.989632e+00 9.775572e+00 2.831051e+01 2.462399e+01 1.335154e+01 1.192792e+01 1.316047e+01 1.548155e+01 1.557883e+01 5.270243e-01 2.532512e+00 1.394500e+00 8.870302e-01 1.206688e+00 1.014080e+00 1.775830e+00 1.072354e+00 1.485026e+00 1.189550e+00 1.464235e+00 2.256367e+00 4.616749e-01
<GCONST> 7.974972e+01
<STATE> 4
<MEAN> 25
 7.844620e+00 -1.884962e-01 -3.333938e+00 4.432603e+00 5.851057e+00 -4.491499e+00 -8.085113e+00 -4.375832e+00 -6.634240e+00 -5.661296e+00 -4.174213e+00 -3.449778e+00 -4.172405e-02 -1.719093e+00 -1.297332e-01 4.890892e-01 1.226058e+00 1.296613e+00 -4.898876e-01 -1.385023e+00 -1.357829e+00 7.586100e-02 1.300563e+00 3.563362e-01 6.876027e-01
<VARIANCE> 25
 1.735723e+01 1.229776e+01 1.136378e+01 1.426581e+01 9.612348e+00 2.150816e+01 2.787018e+01 1.664334e+01 1.985781e+01 1.291648e+01 1.250413e+01 1.837847e+01 7.038494e-01 3.240914e+00 1.084246e+00 1.323590e+00 1.732940e+00 1.600803e+00 2.151528e+00 1.311591e+00 1.693040e+00 1.066342e+00 2.447647e+00 2.543375e+00 6.699072e-01
<GCONST> 8.411646e+01
<TRANSP> 5
 0.000000e+00 1.000000e+00 0.000000e+00 0.000000e+00 0.000000e+00
 0.000000e+00 2.781520e-02 9.721848e-01 0.000000e+00 0.000000e+00
 0.000000e+00 0.000000e+00 7.831042e-02 9.216896e-01 0.000000e+00
 0.000000e+00 0.000000e+00 0.000000e+00 1.681236e-01 8.318763e-01
 0.000000e+00 0.000000e+00 0.000000e+00 0.000000e+00 0.000000e+00
<ENDHMM>
~h "ll"
<BEGINHMM>
<NUMSTATES> 5
<STATE> 2
<MEAN> 25
 9.026483e+00 -2.955847e+00 -3.671542e+00 4.008196e+00 7.005782e+00 -2.794846e+00 -1.081830e+01 -5.972759e+00 -7.008524e+00 -5.381772e+00 -2.137738e+00 -3.210133e+00 -2.391965e+00 -1.763152e+00 3.167957e+00 -8.371234e-01 -1.497829e+00 3.206062e+00 2.172165e+00 -2.345716e+00 -1.299149e+00 1.265665e+00 2.510933e+00 -5.465893e-01 1.491136e-01
<VARIANCE> 25
 3.344014e+00 7.683533e+00 6.435706e+00 5.657942e+00 1.108591e+01 9.472468e+00 1.585452e+01 9.292603e+00 1.555652e+01 1.070743e+01 9.041919e+00 1.086603e+01 8.855014e-01 8.236578e-01 1.510425e+00 1.119060e+00 1.836072e+00 6.289820e-01 1.712433e+00 6.504647e-01 1.096807e+00 5.358233e-01 7.032633e-01 9.435587e-01 1.798655e-01
<GCONST> 6.994166e+01
<STATE> 3
<MEAN> 25
 2.759662e-01 -5.306247e+00 8.376809e+00 -8.744582e-01 -1.837906e+00 4.364809e+00 -1.183809e+00 -1.108085e+01 -9.167706e+00 -2.322899e+00 2.808572e+00 -5.457067e+00 -4.304361e+00 -1.259006e+00 4.815940e+00 -2.669408e+00 -2.911574e+00 1.986318e+00 2.957030e+00 -8.572203e-01 3.959484e-03 5.135934e-01 2.370028e+00 -6.124008e-01 1.490757e-01
<VARIANCE> 25
 1.688189e+01 5.054233e+00 2.013105e+01 1.490828e+01 1.280107e+01 5.958470e+00 1.456135e+01 7.583269e+00 1.102313e+01 8.808657e+00 1.377103e+01 1.284209e+01 2.093275e-01 6.736373e-01 9.499479e-01 8.520159e-01 8.853584e-01 1.310769e+00 1.251013e+00 1.510333e+00 1.048248e+00 7.564082e-01 9.668410e-01 1.273473e+00 1.125685e-01
<GCONST> 7.129374e+01
<STATE> 4
<MEAN> 25
 -1.034676e+01 -6.017748e+00 1.685141e+01 -8.869293e+00 -3.560691e+00 8.367930e+00 1.752892e+00 -6.918599e+00 -4.180712e+00 -2.473803e+00 7.528404e+00 -5.369937e+00 -1.254576e+00 -1.864911e-02 6.516562e-01 -7.498432e-01 -8.256449e-02 5.024747e-01 4.502108e-01 1.254180e+00 1.275295e+00 2.657444e-01 4.545435e-01 1.567028e-01 -3.576011e-01
<VARIANCE> 25
 5.129854e+00 4.932974e+00 7.046612e+00 1.009594e+01 1.170982e+01 9.949903e+00 8.647985e+00 1.471659e+01 1.334654e+01 8.751151e+00 1.120037e+01 9.214061e+00 1.114322e+00 3.514407e-01 1.447124e+00 2.000513e+00 7.549549e-01 1.190744e+00 6.651844e-01 7.133538e-01 7.425652e-01 8.934049e-01 9.423822e-01 6.834007e-01 5.923904e-02
<GCONST> 6.804101e+01
<TRANSP> 5
 0.000000e+00 1.000000e+00 0.000000e+00 0.000000e+00 0.000000e+00
 0.000000e+00 3.586187e-01 6.413813e-01 0.000000e+00 0.000000e+00
 0.000000e+00 0.000000e+00 5.548964e-01 4.451036e-01 0.000000e+00
 0.000000e+00 0.000000e+00 0.000000e+00 8.381065e-01 1.618935e-01
 0.000000e+00 0.000000e+00 0.000000e+00 0.000000e+00 0.000000e+00
<ENDHMM>
~h "mm"
<BEGINHMM>
<NUMSTATES> 5
<STATE> 2
<MEAN> 25
 7.643128e+00 -5.221074e-01 -6.212323e+00 3.633466e+00 7.425992e+00 -3.464367e+00 -7.735353e+00 -6.024715e-01 1.611256e+00 -3.610649e-01 -1.261079e+00 1.451133e-01 3.980048e-01 -1.111077e+00 -1.266731e+00 -9.549111e-01 -6.658847e-01 -1.113324e+00 -8.886805e-01 5.213805e-01 5.978752e-01 5.601745e-01 1.513708e+00 1.258794e+00 6.348272e-01
<VARIANCE> 25
 2.928180e+00 9.787705e+00 5.174429e+00 6.291328e+00 4.193451e+00 1.004027e+01 1.357667e+01 5.824358e+00 8.158739e+00 6.617880e+00 9.586658e+00 8.409793e+00 1.294805e-01 7.671869e-01 8.413168e-01 4.643539e-01 5.404294e-01 6.935580e-01 1.499639e+00 5.877340e-01 1.434781e+00 9.065074e-01 7.892696e-01 1.727843e+00 1.683662e-01
<GCONST> 6.370926e+01
<STATE> 3
<MEAN> 25
 7.894911e+00 4.463428e-01 -6.930881e+00 -8.943319e-01 2.983954e+00 -2.843004e+00 -4.967518e+00 -8.676562e-02 9.762594e-01 3.251892e-01 3.381837e-01 1.357443e+00 -5.615834e-01 8.313667e-01 3.113714e-01 -1.202022e+00 -1.393087e+00 7.980576e-01 1.469639e+00 -6.588435e-03 -2.475501e-01 4.433394e-01 2.874733e-01 4.061667e-01 -6.991431e-01
<VARIANCE> 25
 3.197736e+00 5.957053e+00 6.979424e+00 5.219772e+00 7.152680e+00 6.672333e+00 9.028596e+00 8.393073e+00 1.288181e+01 7.863511e+00 5.004457e+00 9.183232e+00 4.550839e-01 6.059093e-01 6.337841e-01 5.703143e-01 3.065321e-01 6.144631e-01 1.007493e+00 6.612631e-01 9.688579e-01 5.428929e-01 5.767410e-01 9.837785e-01 3.340461e-01
<GCONST> 6.244121e+01
<STATE> 4
<MEAN> 25
 2.742220e+00 2.608554e+00 -4.374243e+00 -3.366166e+00 -7.879702e-01 7.827655e-01 1.886695e+00 1.596885e+00 5.963213e-01 1.234825e+00 1.400665e+00 2.774511e+00 -1.134817e+00 5.417640e-02 5.917747e-01 -3.824159e-02 -3.649038e-01 5.679002e-01 9.754466e-01 3.597939e-01 -9.834708e-02 9.830281e-02 3.123501e-01 1.974830e-01 -8.086431e-01
<VARIANCE> 25
 6.897926e+00 4.187476e+00 3.361741e+00 5.368413e+00 6.085619e+00 4.369476e+00 1.331419e+01 1.804718e+01 9.835011e+00 8.312188e+00 9.153484e+00 1.044425e+01 3.229747e-01 3.764152e-01 4.170286e-01 3.866825e-01 4.329010e-01 4.782342e-01 7.100329e-01 9.224146e-01 7.588439e-01 7.113085e-01 7.325993e-01 8.907623e-01 1.424601e-01
<GCONST> 6.100724e+01
<TRANSP> 5
 0.000000e+00 1.000000e+00 0.000000e+00 0.000000e+00 0.000000e+00
 0.000000e+00 6.676832e-01 3.323168e-01 0.000000e+00 0.000000e+00
 0.000000e+00 0.000000e+00 6.896713e-01 3.103287e-01 0.000000e+00
 0.000000e+00 0.000000e+00 0.000000e+00 7.387403e-01 2.612597e-01
 0.000000e+00 0.000000e+00 0.000000e+00 0.000000e+00 0.000000e+00
<ENDHMM>
~h "nn"
<BEGINHMM>
<NUMSTATES> 5
<STATE> 2
<MEAN> 25
 2.895681e+00 1.703193e+00 -2.831914e+00 2.812353e+00 5.630212e+00 6.041310e-01 -1.925500e+00 1.956004e-01 -6.584274e-01 -9.589964e-01 -1.070956e+00 -8.290755e-01 -4.059426e-01 6.419112e-02 -4.199467e-01 -2.883692e-01 -3.166065e-01 1.857534e-01 1.921308e-01 1.423868e-01 1.039732e+00 1.102105e+00 3.766044e-01 9.750937e-01 -5.113075e-01
<VARIANCE> 25
 2.379742e+00 8.479905e+00 2.946327e+00 1.448153e+01 2.112457e+01 1.650965e+01 2.489559e+01 7.281569e+00 1.208195e+01 1.289638e+01 9.392290e+00 1.446041e+01 5.143664e-01 1.080188e+00 5.414414e-01 3.288298e-01 7.536049e-01 1.032728e+00 1.960644e+00 1.141135e+00 1.407706e+00 1.031296e+00 8.660533e-01 2.227167e+00 3.762244e-01
<GCONST> 7.201276e+01
<STATE> 3
<MEAN> 25
 2.912704e+00 1.600062e+00 -4.011016e+00 8.274556e-01 2.750116e+00 -8.485494e-01 -1.861336e+00 4.628426e-01 1.706412e+00 2.774566e+00 8.378052e-01 1.814316e+00 -2.367113e-01 2.758454e-01 1.294401e-01 -2.727916e-01 -3.513207e-01 3.246583e-01 5.144987e-01 1.064559e-02 1.987249e-01 2.875963e-01 -1.185059e-01 2.080446e-01 -2.897471e-01
<VARIANCE> 25
 7.141314e+00 6.052156e+00 5.827683e+00 8.376109e+00 1.116001e+01 2.435032e+01 1.927779e+01 5.059534e+00 7.698731e+00 9.331560e+00 9.971702e+00 1.820709e+01 3.979415e-01 4.314677e-01 3.668634e-01 9.176617e-01 4.692613e-01 7.233683e-01 1.162224e+00 5.431798e-01 1.478251e+00 9.224753e-01 9.318206e-01 9.697998e-01 1.343467e-01
<GCONST> 6.707281e+01
<STATE> 4
<MEAN> 25
 2.683956e+00 2.379722e+00 -9.671429e-01 4.050241e+00 4.413491e+00 -2.137542e-02 -1.577010e+00 7.423595e-01 5.692009e-01 -1.542736e-01 -2.065256e+00 -2.032393e+00 4.742884e-01 -3.367379e-01 -1.445403e-01 5.327362e-01 2.346018e-01 -9.773068e-01 -9.615325e-01 2.018556e-01 3.375098e-01 -1.213473e-01 1.957527e-01 4.551739e-02 4.355676e-01
<VARIANCE> 25
 4.721014e+00 6.966742e+00 8.145784e+00 1.303356e+01 1.584762e+01 1.580138e+01 1.378727e+01 6.394240e+00 6.753259e+00 9.063939e+00 1.170175e+01 1.909686e+01 4.380257e-01 6.043488e-01 1.520550e+00 9.036381e-01 1.252910e+00 1.129327e+00 1.369315e+00 5.725803e-01 7.384638e-01 6.003453e-01 1.582261e+00 3.661979e+00 3.591735e-01
<GCONST> 7.264291e+01
<TRANSP> 5
 0.000000e+00 1.000000e+00 0.000000e+00 0.000000e+00 0.000000e+00
 0.000000e+00 5.510531e-01 4.489469e-01 0.000000e+00 0.000000e+00
 0.000000e+00 0.000000e+00 5.336959e-01 4.663042e-01 0.000000e+00
 0.000000e+00 0.000000e+00 0.000000e+00 7.458985e-01 2.541015e-01
 0.000000e+00 0.000000e+00 0.000000e+00 0.000000e+00 0.000000e+00
<ENDHMM>
~h "oo"
<BEGINHMM>
<NUMSTATES> 5
<STATE> 2
<MEAN> 25
 7.880667e+00 7.138026e+00 2.636852e-01 -1.901136e+00 -8.390255e+00 -1.338055e+01 -8.745370e+00 1.679336e+00 6.174217e+00 -3.174675e-01 -6.803936e+00 -5.093058e+00 7.513435e-01 -6.551076e-01 -1.147855e+00 -7.349003e-01 -4.726012e-01 -4.875679e-01 -9.161218e-02 1.350157e+00 1.688501e+00 -5.773637e-01 -1.993470e+00 -1.267762e+00 6.590173e-01
<VARIANCE> 25
 2.351455e+00 3.351043e+00 3.788376e+00 4.238987e+00 6.201741e+00 1.543251e+01 1.095905e+01 9.565240e+00 1.173342e+01 8.748596e+00 1.138851e+01 9.551847e+00 2.109174e-01 4.248400e-01 4.246119e-01 3.657208e-01 1.010497e+00 2.400357e+00 1.219677e+00 8.184212e-01 1.641104e+00 1.404518e+00 1.544282e+00 1.366894e+00 1.306671e-01
<GCONST> 6.547830e+01
<STATE> 3
<MEAN> 25
 8.924045e+00 5.241106e+00 -2.751014e+00 -3.587018e+00 -7.469108e+00 -1.089020e+01 -6.566667e+00 3.701486e+00 6.985095e+00 -2.744995e+00 -1.086513e+01 -7.042896e+00 1.728174e-01 -1.008036e+00 -1.164999e+00 7.249197e-02 1.614645e+00 1.888784e+00 6.952697e-01 -5.655431e-01 -1.238311e+00 -1.666899e+00 -8.995123e-01 4.637988e-01 3.544055e-01
<VARIANCE> 25
 3.292708e+00 3.735579e+00 4.523699e+00 4.125962e+00 8.730862e+00 1.572518e+01 8.769571e+00 7.552398e+00 1.234983e+01 1.767698e+01 1.798313e+01 1.110193e+01 1.003971e-01 7.093180e-01 7.120718e-01 5.839952e-01 2.161233e+00 2.468773e+00 1.173337e+00 1.068095e+00 1.982263e+00 1.425375e+00 1.284814e+00 1.134251e+00 1.245128e-01
<GCONST> 6.889343e+01
<STATE> 4
<MEAN> 25
 8.498599e+00 2.407800e+00 -4.826707e+00 -1.192392e+00 -4.207888e-01 -4.034174e+00 -5.883940e+00 -1.354354e+00 5.086672e-01 -6.396814e+00 -9.963075e+00 -3.756908e+00 -7.796826e-01 -1.274622e+00 3.976446e-02 9.137372e-01 1.903813e+00 2.759689e+00 8.715256e-01 -1.933126e+00 -2.071273e+00 -3.611486e-02 1.266602e+00 9.355834e-01 -8.722793e-02
<VARIANCE> 25
 3.751725e+00 7.518540e+00 5.448338e+00 7.077096e+00 2.737852e+01 3.067618e+01 8.940413e+00 2.252231e+01 2.470534e+01 2.260400e+01 1.330886e+01 9.006485e+00 5.239491e-01 1.317993e+00 1.253052e+00 6.763043e-01 3.025485e+00 2.530659e+00 1.474144e+00 1.920998e+00 2.436049e+00 2.064056e+00 1.783656e+00 8.706897e-01 1.429361e-01
<GCONST> 7.873912e+01
<TRANSP> 5
 0.000000e+00 1.000000e+00 0.000000e+00 0.000000e+00 0.000000e+00
 0.000000e+00 4.934871e-01 5.065129e-01 0.000000e+00 0.000000e+00
 0.000000e+00 0.000000e+00 3.429248e-01 6.570752e-01 0.000000e+00
 0.000000e+00 0.000000e+00 0.000000e+00 4.904585e-01 5.095415e-01
 0.000000e+00 0.000000e+00 0.000000e+00 0.000000e+00 0.000000e+00
<ENDHMM>
~h "rr"
<BEGINHMM>
<NUMSTATES> 5
<STATE> 2
<MEAN> 25
 4.772773e+00 -9.572824e-01 -6.889858e-01 7.923818e+00 9.180957e+00 -5.705844e-01 -1.000625e+01 -7.200773e+00 -4.316260e+00 -4.452765e+00 -4.576215e+00 -4.982548e+00 3.877859e-01 -7.241257e-01 -2.736523e-01 1.019716e+00 1.139414e+00 -5.706689e-01 -1.745370e+00 -4.650271e-01 2.803245e-01 -3.170155e-01 -3.053358e-01 -3.020418e-01 4.582686e-01
<VARIANCE> 25
 4.934199e+00 9.448369e+00 7.224464e+00 1.392454e+01 1.895357e+01 1.237692e+01 3.846695e+01 1.274494e+01 1.111904e+01 1.112354e+01 8.969687e+00 8.597692e+00 6.614410e-01 7.899860e-01 7.692764e-01 9.764709e-01 1.314109e+00 1.380193e+00 2.799193e+00 2.557854e+00 1.352926e+00 1.346787e+00 9.858935e-01 8.174457e-01 2.514149e-01
<GCONST> 7.584817e+01
<STATE> 3
<MEAN> 25
 6.436868e+00 -2.048097e+00 -7.659752e-01 1.029716e+01 1.025116e+01 -4.841306e+00 -1.469953e+01 -4.878376e+00 4.799376e-01 -3.673350e+00 -4.752595e+00 -4.746179e+00 -3.746895e-03 7.182802e-01 1.188068e-01 -5.152100e-01 -5.024347e-01 5.372514e-01 1.343720e+00 3.510618e-01 9.319137e-02 5.711024e-01 2.291989e-01 2.898254e-01 -2.678974e-01
<VARIANCE> 25
 4.723624e+00 9.686210e+00 7.555689e+00 5.153119e+00 5.411324e+00 9.687108e+00 2.141369e+01 1.445072e+01 1.626301e+01 1.542096e+01 1.028439e+01 7.386648e+00 1.343435e-01 9.902929e-01 6.228753e-01 4.469267e-01 4.887035e-01 1.230512e+00 1.944903e+00 8.734752e-01 1.643439e+00 9.301185e-01 7.639605e-01 6.590439e-01 1.970034e-01
<GCONST> 6.782019e+01
<STATE> 4
<MEAN> 25
 3.785631e+00 8.596003e-02 3.139286e+00 6.114023e+00 5.652111e+00 2.373059e+00 -4.488070e+00 -6.693945e+00 -5.499460e+00 -3.451148e+00 -2.452023e+00 -4.351355e+00 -1.718992e+00 9.926786e-02 2.412148e+00 -1.439526e+00 -1.822012e+00 1.521609e+00 3.247684e+00 2.976104e-01 -1.178510e+00 2.238213e-01 1.476699e+00 -6.650640e-01 -1.879846e-01
<VARIANCE> 25
 1.323756e+01 1.314285e+01 2.291992e+01 1.151201e+01 1.597578e+01 9.911867e+00 2.124530e+01 1.796593e+01 1.843057e+01 9.626979e+00 1.659570e+01 7.532069e+00 2.081011e+00 1.617220e+00 2.619929e+00 1.223992e+00 2.075662e+00 1.053910e+00 1.128347e+00 8.347576e-01 8.088617e-01 1.340561e+00 3.706355e+00 5.583226e-01 1.815663e-01
<GCONST> 7.990139e+01
<TRANSP> 5
 0.000000e+00 1.000000e+00 0.000000e+00 0.000000e+00 0.000000e+00
 0.000000e+00 8.593330e-01 1.406671e-01 0.000000e+00 0.000000e+00
 0.000000e+00 0.000000e+00 7.925698e-01 2.074302e-01 0.000000e+00
 0.000000e+00 0.000000e+00 0.000000e+00 4.637179e-01 5.362821e-01
 0.000000e+00 0.000000e+00 0.000000e+00 0.000000e+00 0.000000e+00
<ENDHMM>
~h "sp"
<BEGINHMM>
<NUMSTATES> 3
<STATE> 2
~s "silst"
<TRANSP> 3
 0.000000e+00 2.988989e-01 7.011011e-01
 0.000000e+00 8.368540e-01 1.631459e-01
 0.000000e+00 0.000000e+00 0.000000e+00
<ENDHMM>
~h "ss"
<BEGINHMM>
<NUMSTATES> 5
<STATE> 2
<MEAN> 25
 2.176636e+00 4.992157e+00 2.308073e+00 3.838966e+00 2.758913e+00 1.554836e+00 2.547198e+00 1.332490e+00 -4.313174e-01 -8.313846e-01 -3.758456e+00 -4.982962e+00 8.882056e-01 5.799094e-01 4.713725e-01 1.311069e-01 -4.111651e-01 -8.917509e-01 -8.379576e-01 -6.064038e-01 -6.382844e-01 -8.567794e-01 -7.387558e-01 -8.402989e-01 5.700490e-01
<VARIANCE> 25
 5.623889e+00 1.136715e+01 4.434958e+00 7.032266e+00 1.253097e+01 9.058612e+00 3.034262e+01 1.297006e+01 1.595354e+01 1.063546e+01 1.020227e+01 2.566976e+01 1.232463e+00 1.029619e+00 6.936622e-01 6.300467e-01 1.052329e+00 1.133421e+00 2.367740e+00 1.129518e+00 1.194457e+00 1.077237e+00 1.979468e+00 2.775568e+00 3.321092e-01
<GCONST> 7.637756e+01
<STATE> 3
<MEAN> 25
 2.834871e+00 5.468514e+00 2.602555e+00 3.652516e+00 2.592427e+00 1.168099e+00 1.078502e+00 -5.678700e-01 -2.215957e+00 -2.143581e+00 -4.032850e+00 -4.327213e+00 1.064583e+00 2.922844e-01 1.176941e-01 -3.915575e-01 -8.017822e-01 -1.541937e+00 -1.670708e+00 -8.641478e-01 -7.143565e-01 -1.076529e+00 -7.175007e-01 -4.858350e-01 8.096085e-01
<VARIANCE> 25
 3.197767e+00 1.120035e+01 4.328472e+00 6.726974e+00 5.913499e+00 5.516461e+00 1.302377e+01 1.880239e+01 1.895499e+01 9.331432e+00 9.038043e+00 1.153967e+01 1.820887e+00 8.694507e-01 1.314979e+00 8.556035e-01 2.307758e+00 2.049761e+00 4.941600e+00 1.716045e+00 9.218490e-01 1.321710e+00 2.749621e+00 2.141850e+00 3.691114e-01
<GCONST> 7.694812e+01
<STATE> 4
<MEAN> 25
 4.128833e+00 5.718845e+00 2.468672e+00 2.364491e+00 5.469154e-01 -1.786049e+00 -1.656689e+00 -1.571347e+00 -2.823011e+00 -3.749665e+00 -5.931930e+00 -4.857588e+00 1.265093e+00 -4.869989e-01 -8.000273e-01 -5.324650e-01 -5.564392e-01 -1.963470e+00 -2.368295e+00 -8.066941e-01 -4.371827e-01 -1.115260e+00 -6.715368e-01 -2.824789e-02 1.137159e+00
<VARIANCE> 25
 5.085608e+00 1.858336e+01 7.551982e+00 6.395330e+00 6.295406e+00 6.370788e+00 7.572432e+00 1.322678e+01 1.496751e+01 7.746893e+00 1.349958e+01 1.020478e+01 2.166474e+00 6.781324e-01 2.153929e+00 9.277945e-01 2.501077e+00 2.585381e+00 5.022086e+00 1.424086e+00 1.209124e+00 9.126588e-01 2.108117e+00 1.732506e+00 3.948897e-01
<GCONST> 7.772572e+01
<TRANSP> 5
 0.000000e+00 1.000000e+00 0.000000e+00 0.000000e+00 0.000000e+00
 0.000000e+00 1.310600e-01 8.689400e-01 0.000000e+00 0.000000e+00
 0.000000e+00 0.000000e+00 5.936287e-04 9.994064e-01 0.000000e+00
 0.000000e+00 0.000000e+00 0.000000e+00 4.979566e-02 9.502043e-01
 0.000000e+00 0.000000e+00 0.000000e+00 0.000000e+00 0.000000e+00
<ENDHMM>
~h "tt"
<BEGINHMM>
<NUMSTATES> 5
<STATE> 2
<MEAN> 25
 -3.743064e+00 -3.280511e+00 5.620067e+00 -2.316878e+00 -2.899946e+00 1.393661e+00 2.956990e+00 -1.581479e+00 -5.208979e+00 1.707852e+00 5.414402e+00 -9.040374e-01 -3.878345e-01 -8.698121e-01 1.393199e+00 1.178854e+00 -3.015764e-02 -3.845241e-02 -1.935874e-01 8.836398e-02 -9.454767e-02 -3.118170e-01 -1.389851e-01 -8.904368e-01 3.450498e-01
<VARIANCE> 25
 1.806243e+01 1.358911e+01 2.829135e+01 3.087258e+01 2.420221e+01 1.039069e+01 2.307288e+01 1.687708e+01 1.551873e+01 1.189121e+01 2.321560e+01 1.968232e+01 5.400934e+00 3.686992e+00 6.048352e+00 3.237910e+00 5.641339e+00 7.780164e-01 6.250388e+00 3.363518e+00 1.529388e+00 2.142676e+00 7.136550e+00 1.124611e+00 3.787387e-01
<GCONST> 9.384634e+01
<STATE> 3
<MEAN> 25
 -3.254426e-01 -2.266467e+00 3.956893e+00 3.290366e+00 2.162957e+00 1.233626e+00 -2.499839e+00 -4.640053e+00 -5.379730e+00 -1.469515e+00 2.095708e-01 -2.583866e+00 -4.326106e-01 -1.615537e-01 -5.033475e-02 -5.341845e-02 -8.570459e-02 5.847837e-02 6.068504e-01 5.923226e-01 5.139311e-01 2.641696e-01 4.517710e-01 4.268965e-01 -2.613142e-01
<VARIANCE> 25
 2.403212e+01 2.097075e+01 2.314350e+01 1.704587e+01 2.917070e+01 1.314563e+01 4.580313e+01 3.170475e+01 9.832287e+00 1.760104e+01 3.959612e+01 1.020138e+01 2.145688e+00 2.658253e+00 3.657143e+00 1.327324e+00 3.062290e+00 1.065514e+00 4.827506e+00 2.471863e+00 1.371525e+00 9.848976e-01 2.787955e+00 1.275130e+00 9.075561e-01
<GCONST> 9.098700e+01
<STATE> 4
<MEAN> 25
 -3.721807e+00 -3.453068e+00 2.417291e+00 9.085652e-01 -8.935384e-01 1.597572e+00 2.974757e+00 -1.365729e-01 -2.121148e+00 1.857108e+00 3.470242e+00 8.493176e-01 -1.370929e-01 2.394033e-01 -6.103266e-01 1.072622e-01 1.823731e-01 1.703963e-01 2.569261e-01 4.784741e-01 7.382742e-01 1.478021e-01 5.269155e-03 5.029769e-01 -4.894937e-01
<VARIANCE> 25
 1.190188e+01 2.132850e+01 2.857148e+01 9.699618e+00 1.404797e+01 8.025667e+00 1.640010e+01 1.342172e+01 9.390450e+00 1.406409e+01 1.682354e+01 1.580724e+01 5.914432e-01 1.416062e+00 1.763529e+00 1.184226e+00 9.800689e-01 8.341793e-01 7.889567e-01 9.237628e-01 1.128539e+00 8.209966e-01 1.079829e+00 9.929315e-01 3.520698e-01
<GCONST> 7.668480e+01
<TRANSP> 5
 0.000000e+00 1.000000e+00 0.000000e+00 0.000000e+00 0.000000e+00
 0.000000e+00 6.812052e-01 3.187949e-01 0.000000e+00 0.000000e+00
 0.000000e+00 0.000000e+00 4.556687e-01 5.443314e-01 0.000000e+00
 0.000000e+00 0.000000e+00 0.000000e+00 6.234757e-01 3.765243e-01
 0.000000e+00 0.000000e+00 0.000000e+00 0.000000e+00 0.000000e+00
<ENDHMM>
~h "ur"
<BEGINHMM>
<NUMSTATES> 5
<STATE> 2
<MEAN> 25
 4.748401e+00 3.442052e+00 2.710829e+00 2.647405e+00 -3.050919e+00 -6.254499e+00 -3.493324e+00 4.803216e+00 1.137282e+00 -9.379427e+00 -9.565228e+00 -3.406706e+00 -4.708369e-01 -6.394609e-01 2.016221e+00 2.054491e-01 -3.661027e-01 5.822626e-01 -3.641315e-01 7.445356e-01 8.635812e-01 -1.497606e+00 -2.037594e-02 -2.595989e-01 4.685442e-01
<VARIANCE> 25
 1.120565e+01 7.231254e+00 1.224860e+01 3.958524e+00 3.705409e+00 2.035138e+01 1.542174e+01 1.096129e+01 1.822658e+01 1.268560e+01 3.068734e+01 1.343218e+01 4.484541e+00 3.409291e+00 1.873972e+00 1.202964e+00 6.780185e-01 2.457505e+00 6.114872e+00 1.338201e+00 2.307752e+00 1.029158e+00 1.614554e+01 2.934428e+00 8.142486e-02
<GCONST> 8.350870e+01
<STATE> 3
<MEAN> 25
 -5.672428e+00 -4.481812e+00 1.305624e+01 -4.146282e-01 -5.456639e+00 -2.130328e+00 3.306058e+00 7.515624e+00 1.124936e-01 -1.247805e+01 5.062438e+00 -1.176978e+00 -2.218777e+00 -1.385433e+00 1.024357e+00 -9.527366e-01 -9.639713e-02 5.028139e-01 1.841044e+00 2.205083e-01 -9.588138e-01 2.995653e-01 3.322942e+00 7.177972e-01 1.395890e-02
<VARIANCE> 25
 7.990438e+00 1.211593e+01 4.793241e+00 1.499268e+01 5.132591e+00 8.137251e+00 1.409302e+01 8.952379e+00 1.705434e+01 1.394674e+01 2.177221e+01 3.963816e+01 1.205195e+00 1.061360e+00 1.847420e+00 8.529024e-01 5.683007e-01 1.043975e+00 1.599415e+00 1.335901e+00 1.218437e+00 2.111913e+00 2.428255e+00 9.602847e-01 1.106827e-01
<GCONST> 7.612498e+01
<STATE> 4
<MEAN> 25
 -7.579025e+00 -6.263550e+00 9.026930e+00 1.400944e-01 -2.832545e+00 3.867397e-02 5.285018e+00 9.096155e+00 1.459882e-01 -8.162480e+00 8.617208e+00 2.991496e+00 1.859857e-01 4.800709e-01 -1.622855e+00 -1.336842e-01 8.733218e-01 6.261344e-01 1.166557e-01 -3.432485e-01 6.578135e-02 1.934273e+00 -1.101059e-01 2.879654e-01 -7.169543e-01
<VARIANCE> 25
 3.678020e+00 7.753094e+00 2.306158e+01 1.680533e+01 8.880525e+00 8.184578e+00 1.630083e+01 1.944262e+01 1.321837e+01 1.412965e+01 1.955143e+01 2.759745e+01 4.785360e-01 6.776500e-01 1.155599e+00 5.012051e-01 1.328277e+00 3.488866e-01 6.393514e-01 1.503012e+00 8.836288e-01 7.389701e-01 1.469636e+00 9.782516e-01 1.517642e-01
<GCONST> 7.239286e+01
<TRANSP> 5
 0.000000e+00 1.000000e+00 0.000000e+00 0.000000e+00 0.000000e+00
 0.000000e+00 7.871445e-01 2.128556e-01 0.000000e+00 0.000000e+00
 0.000000e+00 0.000000e+00 7.298808e-01 2.701193e-01 0.000000e+00
 0.000000e+00 0.000000e+00 0.000000e+00 6.229998e-01 3.770002e-01
 0.000000e+00 0.000000e+00 0.000000e+00 0.000000e+00 0.000000e+00
<ENDHMM>
~h "yy"
<BEGINHMM>
<NUMSTATES> 5
<STATE> 2
<MEAN> 25
 6.560781e+00 -1.647884e-01 -2.616031e+00 8.139955e+00 1.157459e+01 -9.163075e-01 -1.368108e+01 -6.321459e+00 -4.357380e+00 -8.150676e+00 -4.738258e+00 -3.210536e+00 -5.591989e-01 -1.139832e+00 2.434545e-01 1.682116e+00 1.070520e+00 -2.797617e-01 -5.393518e-01 -7.467797e-01 -9.212507e-02 1.330910e+00 1.424006e+00 -4.408611e-01 9.015675e-02
<VARIANCE> 25
 1.241355e+00 2.436657e+00 2.189657e+00 4.701236e+00 7.501524e+00 6.646087e+00 6.457014e+00 8.142315e+00 9.687393e+00 7.869137e+00 9.428720e+00 6.317317e+00 1.818789e-01 2.942547e-01 6.425108e-01 4.262309e-01 1.169360e+00 6.101748e-01 2.520540e+00 1.167815e+00 8.687767e-01 4.873211e-01 9.600407e-01 7.115068e-01 8.880015e-02
<GCONST> 5.853469e+01
<STATE> 3
<MEAN> 25
 4.094588e+00 -4.505549e-01 -2.866083e-01 9.853323e+00 1.052348e+01 -8.387905e-01 -9.031042e+00 -6.748135e+00 -5.468790e+00 -5.300334e+00 -3.471313e+00 -4.940004e+00 -1.537279e+00 4.509909e-01 8.168573e-01 -5.692919e-01 -1.225008e+00 1.106084e+00 3.209430e+00 2.118232e-01 -6.220076e-01 1.740223e+00 8.832315e-01 5.410528e-02 -1.102167e+00
<VARIANCE> 25
 2.851639e+00 3.797994e+00 7.475304e+00 4.682180e+00 7.572859e+00 7.917769e+00 1.861112e+01 8.753679e+00 1.324141e+01 6.395382e+00 8.351758e+00 9.865621e+00 8.464117e-02 3.984068e-01 8.023529e-01 1.088058e+00 6.914734e-01 8.368161e-01 7.498486e-01 9.038138e-01 1.069640e+00 7.019830e-01 1.480869e+00 1.450002e+00 1.658671e-01
<GCONST> 6.414160e+01
<STATE> 4
<MEAN> 25
 -4.117828e-01 1.073832e+00 1.963304e-01 4.498431e+00 5.859791e+00 2.454118e+00 -9.623588e-01 -3.792693e+00 -4.784997e+00 -9.583505e-01 -1.405578e+00 -2.043536e+00 -1.721168e+00 -6.462321e-01 1.016023e+00 -1.829800e+00 -1.868899e+00 3.797961e-01 1.917898e+00 1.359144e+00 3.443850e-01 1.115204e+00 1.307977e+00 5.580347e-01 -4.728587e-01
<VARIANCE> 25
 3.233697e+00 2.662620e+00 8.790447e+00 7.108126e+00 5.530339e+00 5.563828e+00 8.663366e+00 1.096865e+01 9.512650e+00 6.281945e+00 6.612639e+00 1.273275e+01 2.478116e-01 1.378223e+00 2.168137e+00 7.189547e-01 9.458950e-01 9.252004e-01 1.111432e+00 8.373401e-01 1.127604e+00 8.407405e-01 1.827773e+00 1.224488e+00 5.958397e-01
<GCONST> 6.813773e+01
<TRANSP> 5
 0.000000e+00 1.000000e+00 0.000000e+00 0.000000e+00 0.000000e+00
 0.000000e+00 4.396266e-01 5.603734e-01 0.000000e+00 0.000000e+00
 0.000000e+00 0.000000e+00 5.325025e-01 4.674975e-01 0.000000e+00
 0.000000e+00 0.000000e+00 0.000000e+00 6.650494e-01 3.349506e-01
 0.000000e+00 0.000000e+00 0.000000e+00 0.000000e+00 0.000000e+00
<ENDHMM>
~h "sil"
<BEGINHMM>
<NUMSTATES> 5
<STATE> 2
<MEAN> 25
 -3.551980e+00 3.840427e-01 -2.987699e+00 -1.519451e+00 1.797955e-01 1.926609e+00 3.822902e+00 2.129657e+00 1.465786e+00 3.385617e+00 3.536545e+00 4.469676e+00 -9.584708e-02 -6.316190e-02 1.247024e-01 9.614201e-02 1.150972e-01 -3.015059e-02 2.151539e-02 4.318170e-02 -4.189352e-02 -2.409761e-01 -3.966193e-02 -1.638611e-01 4.319031e-02
<VARIANCE> 25
 3.945437e+00 3.458957e+00 5.027195e+00 5.836328e+00 7.434530e+00 8.834975e+00 7.553149e+00 7.389410e+00 8.463601e+00 8.798245e+00 1.173879e+01 9.071143e+00 2.416572e-01 3.235945e-01 5.169644e-01 6.230156e-01 7.745488e-01 8.766788e-01 7.838145e-01 9.053339e-01 9.685932e-01 1.007614e+00 1.185097e+00 9.501888e-01 1.741527e-01
<GCONST> 6.305960e+01
<STATE> 3
~s "silst"
<STATE> 4
<MEAN> 25
 -4.216238e+00 -2.134501e-01 -3.389024e+00 -1.696019e+00 -3.253033e-02 2.123970e+00 4.125700e+00 2.702599e+00 1.930218e+00 4.133667e+00 4.016906e+00 6.017422e+00 -4.458274e-03 8.609068e-04 -4.392889e-03 -5.874455e-03 -2.420723e-03 7.039968e-03 -1.190224e-02 -8.503595e-03 -8.237900e-03 4.818583e-03 -1.969020e-03 2.005093e-02 -7.156652e-03
<VARIANCE> 25
 9.893742e-01 1.375857e+00 2.161403e+00 2.741384e+00 3.632173e+00 4.111742e+00 4.607248e+00 5.509592e+00 6.004795e+00 6.154479e+00 5.754048e+00 6.417496e+00 4.730414e-02 1.009679e-01 1.555789e-01 2.288761e-01 3.032167e-01 3.359064e-01 4.442318e-01 5.360970e-01 5.780845e-01 6.002721e-01 5.463991e-01 4.924273e-01 2.415877e-02
<GCONST> 4.269831e+01
<TRANSP> 5
 0.000000e+00 1.000000e+00 0.000000e+00 0.000000e+00 0.000000e+00
 0.000000e+00 6.369950e-01 2.132563e-01 1.497487e-01 0.000000e+00
 0.000000e+00 0.000000e+00 8.471244e-01 1.528756e-01 0.000000e+00
 0.000000e+00 3.789415e-02 0.000000e+00 9.347712e-01 2.733459e-02
 0.000000e+00 0.000000e+00 0.000000e+00 0.000000e+00 0.000000e+00
<ENDHMM>
