~h "sil"
<BEGINHMM>
<NUMSTATES> 5
<STATE> 2
<MEAN> 25
-3.174429e+00 4.689731e-01 -3.297394e+00 -1.208076e+00 4.830295e-01 2.424025e+00 3.733159e+00 2.288384e+00 1.431270e+00 3.556229e+00 3.186374e+00 4.758710e+00 -1.322698e-01 -3.724503e-02 3.009311e-02 3.643651e-03 3.359226e-02 -1.199689e-02 2.772824e-02 6.786205e-02 3.849782e-02 -9.135409e-02 3.610415e-02 3.924499e-02 -4.383182e-02
<VARIANCE> 25
4.323548e+00 3.647851e+00 4.823610e+00 5.094004e+00 5.727326e+00 5.298685e+00 6.067896e+00 6.251027e+00 7.737246e+00 7.997206e+00 8.731380e+00 8.636374e+00 2.111367e-01 3.106695e-01 4.780706e-01 5.058523e-01 5.866908e-01 4.771196e-01 6.731170e-01 7.690893e-01 9.074416e-01 8.761535e-01 6.260942e-01 7.298636e-01 1.333238e-01
<GCONST> 5.830035e+01
<STATE> 3
<MEAN> 25
-3.534689e+00 -1.042420e-02 -3.442392e+00 -4.616542e-01 7.571606e-01 1.901445e+00 3.810294e+00 2.517491e+00 1.865042e+00 3.800539e+00 3.366165e+00 4.996939e+00 -8.766024e-02 -7.767787e-02 -6.410583e-02 -6.590737e-02 -4.345134e-02 -4.526490e-02 1.915891e-02 2.758065e-02 6.112060e-02 6.557256e-02 9.877706e-02 1.642721e-01 -3.291433e-02
<VARIANCE> 25
2.272800e+00 4.054241e+00 3.510128e+00 4.023714e+00 4.157023e+00 6.437707e+00 5.991343e+00 5.932839e+00 6.321241e+00 7.910364e+00 9.281558e+00 9.123545e+00 9.699564e-02 1.636383e-01 2.332322e-01 3.060108e-01 3.865759e-01 5.619556e-01 5.482886e-01 6.095612e-01 5.665825e-01 6.671821e-01 7.689344e-01 7.346367e-01 5.752596e-02
<GCONST> 5.221909e+01
<STATE> 4
<MEAN> 25
-4.068358e+00 -5.510039e-02 -3.225807e+00 -1.632346e+00 -4.995798e-02 2.103902e+00 4.133496e+00 2.616257e+00 1.744851e+00 3.888888e+00 3.742096e+00 5.714347e+00 -8.565472e-03 -5.057300e-03 -9.254189e-03 -7.601224e-03 -1.069674e-03 6.513203e-03 -7.169358e-03 7.006866e-04 -2.037365e-03 4.933891e-03 1.486089e-02 2.580532e-02 -7.259224e-03
<VARIANCE> 25
1.190728e+00 1.478171e+00 2.205184e+00 2.955488e+00 3.868107e+00 4.568749e+00 4.880715e+00 5.642896e+00 6.205985e+00 6.416709e+00 6.510672e+00 6.769371e+00 5.390751e-02 1.085256e-01 1.676902e-01 2.503736e-01 3.290447e-01 3.975430e-01 4.649674e-01 5.629718e-01 5.935094e-01 6.220814e-01 6.227474e-01 5.257537e-01 3.307340e-02
<GCONST> 4.483677e+01
<TRANSP> 5
0.000000e+00 1.000000e+00 0.000000e+00 0.000000e+00 0.000000e+00
0.000000e+00 8.393580e-01 1.606420e-01 0.000000e+00 0.000000e+00
0.000000e+00 0.000000e+00 8.765435e-01 1.234566e-01 0.000000e+00
0.000000e+00 0.000000e+00 0.000000e+00 9.747096e-01 2.529043e-02
0.000000e+00 0.000000e+00 0.000000e+00 0.000000e+00 0.000000e+00
