~o
<STREAMINFO> 1 25
<VECSIZE> 25<NULLD><MFCC_D_N_Z_0><DIAGC>
~h "a"
<BEGINHMM>
<NUMSTATES> 5
<STATE> 2
<MEAN> 25
 3.470968e+00 2.908218e+00 -2.586169e+00 -8.856401e-01 1.560904e-01 -1.523993e-01 -3.123685e-01 -7.903523e-01 -1.405195e+00 -1.566919e+00 -2.985804e+00 -6.093973e-01 -2.726573e-01 6.362529e-01 4.454684e-01 2.443625e-01 3.827674e-01 6.522610e-01 8.287785e-01 3.994164e-01 1.043682e-01 1.297300e-01 -1.400900e-01 -2.055542e-01 -4.047915e-01
<VARIANCE> 25
 1.563583e+01 8.101741e+00 9.784030e+00 1.093175e+01 1.428794e+01 1.318664e+01 1.806527e+01 1.282874e+01 1.277272e+01 2.057155e+01 2.465157e+01 1.745081e+01 1.146410e+00 8.862859e-01 1.198951e+00 9.665444e-01 9.929382e-01 1.209421e+00 1.719525e+00 9.252739e-01 1.280932e+00 1.169351e+00 2.141892e+00 2.038641e+00 4.749915e-01
<GCONST> 7.972506e+01
<STATE> 3
<MEAN> 25
 2.363609e+00 3.847341e+00 -1.181362e+00 3.873054e-01 1.228995e+00 9.772274e-01 9.884889e-01 -9.137699e-02 -7.650971e-01 -8.843066e-01 -2.996295e+00 -1.082592e+00 -3.204895e-01 2.194830e-01 4.890564e-01 4.387963e-01 2.960109e-01 3.649357e-01 4.442552e-01 2.236886e-01 1.369998e-01 1.254410e-01 2.784913e-02 -1.168891e-01 -2.728908e-01
<VARIANCE> 25
 1.118767e+01 8.737782e+00 1.181281e+01 1.309179e+01 1.397972e+01 1.065314e+01 1.451423e+01 1.127817e+01 1.407021e+01 1.574226e+01 1.880424e+01 1.666830e+01 9.287102e-01 8.186405e-01 8.847225e-01 8.705977e-01 1.029689e+00 9.888638e-01 1.044328e+00 7.160361e-01 1.059266e+00 1.141878e+00 1.793907e+00 1.996600e+00 3.548315e-01
<GCONST> 7.644229e+01
<STATE> 4
<MEAN> 25
 9.668241e-01 3.430039e+00 -1.155834e+00 3.177137e-01 1.345603e+00 1.576156e+00 2.041432e+00 9.520588e-01 2.054981e-01 3.701743e-01 -1.661090e+00 8.590570e-02 -8.110342e-02 7.479528e-02 3.810886e-01 8.158351e-02 -1.155782e-01 1.242660e-02 1.065842e-01 3.672797e-02 -4.885335e-02 -3.245451e-02 -1.274483e-02 -2.661869e-01 1.038138e-02
<VARIANCE> 25
 1.321614e+01 8.273503e+00 1.007902e+01 1.221590e+01 1.098455e+01 9.880517e+00 1.176088e+01 8.400043e+00 1.131015e+01 1.352940e+01 1.943301e+01 1.944598e+01 7.864241e-01 5.812033e-01 9.156182e-01 8.079405e-01 9.486628e-01 1.075929e+00 1.147088e+00 7.674849e-01 9.476001e-01 8.916541e-01 1.374408e+00 1.286748e+00 2.341580e-01
<GCONST> 7.345849e+01
<TRANSP> 5
 0.000000e+00 1.000000e+00 0.000000e+00 0.000000e+00 0.000000e+00
 0.000000e+00 3.546686e-01 6.453314e-01 0.000000e+00 0.000000e+00
 0.000000e+00 0.000000e+00 3.415815e-01 6.584185e-01 0.000000e+00
 0.000000e+00 0.000000e+00 0.000000e+00 5.854751e-01 4.145249e-01
 0.000000e+00 0.000000e+00 0.000000e+00 0.000000e+00 0.000000e+00
<ENDHMM>
~h "b"
<BEGINHMM>
<NUMSTATES> 5
<STATE> 2
<MEAN> 25
 2.386823e+00 6.933230e+00 2.537887e+00 2.914900e+00 2.011173e+00 1.122689e+00 9.933870e-01 -5.433561e-01 -2.847228e+00 -4.764852e+00 -7.347639e+00 -4.054185e+00 1.067221e+00 1.460993e-01 -2.597033e-01 -4.501521e-01 -5.241935e-01 -1.096538e+00 -1.413138e+00 -3.676665e-01 -1.784059e-01 -1.343631e+00 -1.559739e+00 -1.273345e+00 7.475361e-01
<VARIANCE> 25
 2.724205e+00 1.897882e+00 2.699656e+00 6.543240e+00 1.159099e+01 7.703701e+00 5.242911e+00 5.987952e+00 8.690962e+00 6.347067e+00 7.457404e+00 6.334570e+00 3.565766e-01 4.083830e-01 3.480075e-01 9.791982e-01 1.616960e+00 7.603945e-01 1.093919e+00 9.055426e-01 1.210652e+00 1.510263e+00 1.128923e+00 1.165889e+00 1.863893e-01
<GCONST> 6.265761e+01
<STATE> 3
<MEAN> 25
 5.444560e+00 5.769763e+00 5.423139e-01 2.420561e+00 2.815748e+00 -1.073373e+00 -3.678001e+00 -1.852325e+00 -3.854548e+00 -8.945494e+00 -9.981724e+00 -5.566835e+00 8.633932e-01 -1.259567e+00 -9.701681e-01 6.881464e-01 1.751371e+00 -1.354077e-01 -2.604775e+00 -9.995114e-01 -4.930527e-01 -1.158011e+00 3.027824e-01 4.087714e-01 8.527289e-01
<VARIANCE> 25
 2.397507e+00 3.751346e+00 4.339881e+00 6.054973e+00 1.033766e+01 6.151790e+00 1.083784e+01 7.434673e+00 8.316141e+00 6.982061e+00 6.788094e+00 7.415035e+00 2.617652e-01 4.704065e-01 2.836163e-01 1.247457e+00 2.169542e+00 8.200312e-01 1.375980e+00 1.708837e+00 1.107680e+00 1.220073e+00 1.435521e+00 8.745692e-01 1.562402e-01
<GCONST> 6.490406e+01
<STATE> 4
<MEAN> 25
 1.873089e+00 1.789249e-01 2.422383e-01 4.169700e+00 5.142020e+00 4.594482e-01 -3.914216e+00 -2.551733e+00 -4.916301e+00 -4.687632e+00 -1.654336e+00 -1.808797e+00 -1.420463e-01 -8.633045e-01 -1.605995e-01 7.941644e-01 8.314910e-01 -7.681572e-02 -9.012594e-01 -4.387060e-01 6.293014e-03 3.835332e-01 8.192958e-01 2.700064e-01 1.456236e-01
<VARIANCE> 25
 2.649446e+01 1.326574e+01 1.320334e+01 9.645140e+00 2.455675e+01 8.392353e+00 4.986260e+01 2.526933e+01 6.855953e+00 2.823559e+01 3.987458e+01 1.073996e+01 2.083542e+00 1.784878e+00 1.866724e+00 2.236187e+00 4.457492e+00 1.370067e+00 6.649410e+00 3.682034e+00 6.884297e-01 1.144357e+00 4.400019e+00 1.190184e+00 5.731568e-01
<GCONST> 8.905898e+01
<TRANSP> 5
 0.000000e+00 1.000000e+00 0.000000e+00 0.000000e+00 0.000000e+00
 0.000000e+00 6.039207e-01 3.960793e-01 0.000000e+00 0.000000e+00
 0.000000e+00 0.000000e+00 5.694810e-01 4.305190e-01 0.000000e+00
 0.000000e+00 0.000000e+00 0.000000e+00 6.782191e-01 3.217808e-01
 0.000000e+00 0.000000e+00 0.000000e+00 0.000000e+00 0.000000e+00
<ENDHMM>
~h "d"
<BEGINHMM>
<NUMSTATES> 5
<STATE> 2
<MEAN> 25
 5.198664e+00 3.900979e+00 -9.091673e-01 1.049560e+00 4.574773e-01 -2.263775e+00 -3.307665e+00 -1.469641e+00 -8.206154e-01 -3.618061e+00 -6.197341e+00 -3.627517e+00 1.871481e-01 3.724706e-01 2.366643e-01 2.984500e-01 4.476930e-01 4.664302e-01 3.885286e-01 -1.639380e-01 -7.035616e-01 -6.574334e-01 -3.639075e-01 -2.389838e-01 2.842034e-02
<VARIANCE> 25
 1.168054e+01 1.254615e+01 1.969237e+01 2.734908e+01 3.102938e+01 2.925429e+01 1.483699e+01 1.512355e+01 1.794089e+01 9.643830e+00 1.584754e+01 2.282382e+01 1.955563e+00 8.674330e-01 1.119238e+00 1.167081e+00 1.157230e+00 3.499041e+00 3.469403e+00 1.448788e+00 2.348968e+00 1.473764e+00 3.328605e+00 2.585064e+00 8.741378e-01
<GCONST> 8.756015e+01
<STATE> 3
<MEAN> 25
 5.814709e+00 5.488389e+00 -7.733874e-01 -8.247120e-01 -2.087692e+00 -3.533442e+00 -2.555065e+00 -7.233424e-01 -8.574236e-01 -3.952401e+00 -6.715555e+00 -3.574999e+00 -4.973755e-01 1.554560e-01 3.061231e-01 1.398947e-01 3.591778e-01 9.431956e-01 1.012562e+00 1.061851e-01 -5.688795e-01 -7.115705e-02 3.669215e-01 3.035745e-01 -3.817524e-01
<VARIANCE> 25
 7.948343e+00 1.075671e+01 1.443550e+01 1.694427e+01 2.684046e+01 3.248099e+01 2.231453e+01 1.074347e+01 2.183227e+01 1.376399e+01 2.143496e+01 1.767646e+01 5.968838e-01 6.304134e-01 6.957991e-01 9.440880e-01 1.208370e+00 2.393932e+00 2.230320e+00 9.931558e-01 1.955524e+00 1.169035e+00 1.539063e+00 1.366342e+00 4.447652e-01
<GCONST> 8.100764e+01
<STATE> 4
<MEAN> 25
 2.745574e+00 4.466384e+00 3.406653e-01 9.700937e-01 1.186537e+00 1.454157e+00 1.752959e+00 -6.275185e-01 -2.692831e+00 -3.176747e+00 -4.043456e+00 -1.654852e+00 -3.403239e-01 -2.622380e-01 3.760128e-01 5.335803e-01 2.832875e-01 1.939706e-01 6.501785e-02 -2.151160e-01 -1.595759e-01 2.614291e-01 3.610739e-01 1.083488e-01 -9.897770e-02
<VARIANCE> 25
 9.614971e+00 8.165729e+00 9.647875e+00 1.278342e+01 1.764013e+01 1.359555e+01 1.716133e+01 1.089471e+01 1.232542e+01 1.264020e+01 1.886795e+01 1.423881e+01 7.093516e-01 1.129897e+00 9.026114e-01 1.260516e+00 1.186142e+00 1.522489e+00 2.397407e+00 1.493654e+00 1.572841e+00 1.371182e+00 1.668805e+00 1.848543e+00 5.080352e-01
<GCONST> 7.947020e+01
<TRANSP> 5
 0.000000e+00 1.000000e+00 0.000000e+00 0.000000e+00 0.000000e+00
 0.000000e+00 3.879728e-01 6.120272e-01 0.000000e+00 0.000000e+00
 0.000000e+00 0.000000e+00 5.296352e-01 4.703648e-01 0.000000e+00
 0.000000e+00 0.000000e+00 0.000000e+00 7.233225e-01 2.766776e-01
 0.000000e+00 0.000000e+00 0.000000e+00 0.000000e+00 0.000000e+00
<ENDHMM>
~h "f"
<BEGINHMM>
<NUMSTATES> 5
<STATE> 2
<MEAN> 25
 9.033079e+00 -8.100514e-02 -1.093123e+01 -7.473802e+00 -6.051122e+00 -8.777655e+00 -3.753036e+00 5.271204e+00 6.338227e+00 7.570093e-01 -4.023709e+00 -3.950077e-01 -1.427382e+00 1.066168e+00 1.183683e+00 -7.104757e-01 -6.752759e-01 1.093244e+00 1.725070e+00 1.078642e-01 -5.045670e-01 1.057634e+00 1.274163e+00 6.733882e-01 -1.153080e+00
<VARIANCE> 25
 5.129076e+00 1.018002e+01 8.251123e+00 3.823624e+00 4.440676e+00 9.478344e+00 8.685279e+00 7.646869e+00 6.224086e+00 7.967567e+00 8.767308e+00 8.492244e+00 5.626197e-01 5.860754e-01 7.180543e-01 5.811517e-01 5.030440e-01 1.062413e+00 6.293312e-01 9.311264e-01 7.435021e-01 6.730431e-01 1.174631e+00 1.254660e+00 2.636837e-01
<GCONST> 6.472164e+01
<STATE> 3
<MEAN> 25
 3.613455e+00 1.969180e+00 -7.364718e+00 -8.916437e+00 -6.672482e+00 -4.922293e+00 -1.183637e-01 4.541464e+00 4.860868e+00 2.840224e+00 -8.210533e-01 2.523867e+00 -1.505178e+00 4.471773e-02 7.513572e-01 3.524957e-01 3.176298e-01 1.034511e+00 9.735873e-01 -1.396512e-01 -3.988537e-01 3.980177e-01 9.277025e-01 9.880087e-01 -1.030084e+00
<VARIANCE> 25
 6.716095e+00 3.064001e+00 5.829901e+00 5.591500e+00 4.378464e+00 6.575637e+00 5.560048e+00 7.589528e+00 6.942041e+00 5.580788e+00 6.293832e+00 8.357532e+00 2.907040e-01 5.150884e-01 5.858569e-01 1.055993e+00 6.576119e-01 6.855609e-01 6.585321e-01 9.085804e-01 6.968421e-01 5.065007e-01 9.416850e-01 9.772258e-01 1.449720e-01
<GCONST> 6.043240e+01
<STATE> 4
<MEAN> 25
 -1.150732e+00 5.696756e-02 -4.519520e+00 -5.574192e+00 -4.162098e+00 -1.778589e+00 2.166367e+00 3.177710e+00 3.423047e+00 3.370301e+00 1.946928e+00 4.461037e+00 -7.663687e-01 -7.522141e-01 9.871706e-01 7.693244e-01 4.640988e-01 4.764023e-01 1.759177e-01 -5.991542e-01 -3.437590e-01 -5.452572e-02 3.410222e-01 -3.416035e-01 3.033825e-02
<VARIANCE> 25
 4.091865e+00 6.520944e+00 7.336129e+00 7.894100e+00 7.548382e+00 4.418763e+00 7.617665e+00 6.848532e+00 7.249747e+00 4.996926e+00 7.172095e+00 9.934437e+00 5.805734e-01 6.509111e-01 1.052491e+00 1.139135e+00 9.855517e-01 4.654095e-01 7.312705e-01 1.136850e+00 9.894556e-01 8.953366e-01 1.085504e+00 1.637890e+00 5.590769e-01
<GCONST> 6.672460e+01
<TRANSP> 5
 0.000000e+00 1.000000e+00 0.000000e+00 0.000000e+00 0.000000e+00
 0.000000e+00 5.647497e-01 4.352504e-01 0.000000e+00 0.000000e+00
 0.000000e+00 0.000000e+00 7.261141e-01 2.738859e-01 0.000000e+00
 0.000000e+00 0.000000e+00 0.000000e+00 6.913006e-01 3.086994e-01
 0.000000e+00 0.000000e+00 0.000000e+00 0.000000e+00 0.000000e+00
<ENDHMM>
~h "g"
<BEGINHMM>
<NUMSTATES> 5
<STATE> 2
<MEAN> 25
 1.107750e+00 5.804718e-01 1.903894e+00 2.863184e+00 -1.618639e-01 -2.640198e+00 -2.611187e+00 1.674485e-02 -2.788470e-01 -2.648374e+00 -2.474471e+00 -2.358137e+00 1.812032e+00 1.343429e+00 -8.315756e-01 7.159688e-01 1.582044e+00 -5.290930e-01 -2.135009e+00 -1.625171e+00 -8.541059e-01 -1.068357e+00 -2.398319e+00 -1.356015e+00 4.764176e-01
<VARIANCE> 25
 2.427605e+01 3.173893e+01 1.371224e+01 2.441806e+01 2.750133e+01 2.707641e+01 3.130168e+01 1.789126e+01 2.145583e+01 1.392326e+01 3.637329e+01 1.946444e+01 1.894832e+00 2.182238e+00 1.047322e+00 2.058262e+00 4.704980e+00 2.936191e+00 3.574816e+00 3.009472e+00 2.219918e+00 1.199975e+00 3.707011e+00 1.753336e+00 3.033573e-01
<GCONST> 9.245811e+01
<STATE> 3
<MEAN> 25
 3.955586e+00 4.170950e+00 3.530281e-01 2.150234e+00 2.180011e+00 -2.096211e+00 -3.984811e+00 -2.505296e+00 -2.480928e+00 -4.485632e+00 -5.671603e+00 -3.383807e+00 3.200453e-01 6.156258e-01 -2.103958e-01 -8.179457e-01 -6.063029e-01 -6.989180e-02 3.572027e-01 1.522403e-01 -1.163030e-01 -1.759574e-01 -3.207350e-01 7.378756e-02 -3.726318e-03
<VARIANCE> 25
 6.094642e+00 1.281638e+01 5.931439e+00 1.981129e+01 3.051149e+01 1.581024e+01 1.729910e+01 1.626590e+01 2.903700e+01 1.507722e+01 1.263130e+01 1.394275e+01 1.057786e+00 8.629427e-01 9.250782e-01 1.378203e+00 2.729040e+00 3.695679e+00 3.915232e+00 1.281119e+00 1.848220e+00 1.546789e+00 1.501793e+00 1.463870e+00 4.826500e-01
<GCONST> 8.332803e+01
<STATE> 4
<MEAN> 25
 4.203136e+00 6.544561e+00 1.150193e+00 -4.692951e-01 -2.558319e+00 -4.272280e+00 -3.252608e+00 -1.638122e+00 -1.074051e+00 -2.140819e+00 -4.206663e+00 -2.538029e+00 5.153770e-01 3.599423e-01 -5.765403e-02 -5.113964e-01 -1.219917e+00 -1.420340e+00 -8.055019e-01 3.135026e-01 9.604495e-01 4.989972e-01 -1.289653e-02 -4.904966e-02 2.154081e-01
<VARIANCE> 25
 3.502499e+00 4.902031e+00 6.131558e+00 6.324929e+00 1.692510e+01 2.409595e+01 1.518997e+01 7.513522e+00 1.705746e+01 1.170201e+01 1.043511e+01 8.326050e+00 8.484826e-01 5.519171e-01 5.292006e-01 9.419569e-01 1.510847e+00 2.326243e+00 2.481375e+00 1.054570e+00 1.620533e+00 1.164556e+00 1.435099e+00 1.514733e+00 4.047895e-01
<GCONST> 7.422829e+01
<TRANSP> 5
 0.000000e+00 1.000000e+00 0.000000e+00 0.000000e+00 0.000000e+00
 0.000000e+00 5.333034e-01 4.666966e-01 0.000000e+00 0.000000e+00
 0.000000e+00 0.000000e+00 4.331704e-01 5.668296e-01 0.000000e+00
 0.000000e+00 0.000000e+00 0.000000e+00 7.430865e-01 2.569136e-01
 0.000000e+00 0.000000e+00 0.000000e+00 0.000000e+00 0.000000e+00
<ENDHMM>
~h "h"
<BEGINHMM>
<NUMSTATES> 5
<STATE> 2
<MEAN> 25
 8.711948e-01 4.126509e+00 -8.435380e-01 -1.473269e+00 -1.809817e+00 -7.877274e-01 1.418716e+00 2.672560e+00 1.552305e+00 7.856158e-01 -1.213053e+00 -8.502295e-01 1.670019e+00 1.602548e+00 7.523470e-01 -1.220113e-01 -1.539242e+00 -2.263789e+00 -1.819065e+00 -9.380211e-01 3.054440e-04 -1.430987e-01 -1.014654e+00 -1.422966e+00 7.358372e-01
<VARIANCE> 25
 8.384705e+00 1.324550e+01 5.742523e+00 4.433547e+00 1.238703e+01 2.471261e+01 1.692998e+01 9.261146e+00 1.096272e+01 9.858423e+00 6.195392e+00 8.695364e+00 1.204523e+00 8.218237e-01 9.125334e-01 8.557764e-01 8.263333e-01 2.628965e+00 2.608430e+00 1.835290e+00 1.995500e+00 1.590466e+00 1.198507e+00 1.528710e+00 5.242217e-01
<GCONST> 7.654132e+01
<STATE> 3
<MEAN> 25
 8.064866e+00 7.389868e+00 -2.896059e+00 -5.423867e+00 -9.159252e+00 -1.093224e+01 -5.605923e+00 2.367164e+00 6.276665e+00 1.886493e+00 -6.052866e+00 -6.126301e+00 1.071873e+00 -5.241709e-01 -1.422422e+00 -1.000866e+00 -5.571377e-01 -6.308212e-01 -5.406350e-01 2.462358e-01 1.121296e+00 -2.427989e-02 -8.372453e-01 -3.673668e-01 8.549406e-01
<VARIANCE> 25
 5.158529e+00 3.251466e+00 9.590037e+00 6.679359e+00 4.411125e+00 7.083784e+00 7.002833e+00 7.309730e+00 1.195042e+01 5.479537e+00 9.411634e+00 5.818863e+00 4.622267e-01 6.309832e-01 6.548936e-01 4.226593e-01 1.261108e+00 2.862276e+00 1.198440e+00 9.095237e-01 1.145293e+00 4.044271e-01 1.052653e+00 1.022415e+00 1.596269e-01
<GCONST> 6.481083e+01
<STATE> 4
<MEAN> 25
 8.836806e+00 6.591815e-01 -7.388558e+00 -6.117927e+00 -3.542752e+00 -4.240044e+00 -6.356555e+00 -2.611027e+00 2.593036e+00 -7.793640e-01 -3.996263e+00 -1.751322e+00 -3.796667e-01 -6.433513e-01 1.744889e-02 5.182260e-01 1.146796e+00 1.140367e+00 1.343520e-01 -9.388560e-01 -1.546275e+00 -4.027138e-01 8.320614e-01 8.748185e-01 -2.823940e-02
<VARIANCE> 25
 1.683345e+01 1.045769e+01 3.759469e+01 2.288824e+01 2.155328e+01 2.685020e+01 1.579856e+01 2.053403e+01 3.557827e+01 1.716024e+01 2.253698e+01 1.460595e+01 1.309598e+00 1.914365e+00 2.470098e+00 1.797699e+00 2.270264e+00 1.426845e+00 3.197507e+00 1.085697e+00 1.950004e+00 1.888419e+00 2.495057e+00 1.447482e+00 5.768278e-01
<GCONST> 8.909617e+01
<TRANSP> 5
 0.000000e+00 1.000000e+00 0.000000e+00 0.000000e+00 0.000000e+00
 0.000000e+00 7.038205e-01 2.961795e-01 0.000000e+00 0.000000e+00
 0.000000e+00 0.000000e+00 8.174317e-01 1.825683e-01 0.000000e+00
 0.000000e+00 0.000000e+00 0.000000e+00 8.591917e-01 1.408083e-01
 0.000000e+00 0.000000e+00 0.000000e+00 0.000000e+00 0.000000e+00
<ENDHMM>
~h "i"
<BEGINHMM>
<NUMSTATES> 5
<STATE> 2
<MEAN> 25
 4.549913e+00 2.298083e+00 -2.051908e-02 3.075731e+00 2.538360e+00 -3.987219e-01 -4.288170e+00 -5.604179e+00 -4.993049e+00 -4.285258e+00 -4.971996e+00 -2.340784e+00 -2.145858e-01 2.056872e-02 1.562951e-01 -3.717000e-01 -2.376670e-01 4.234484e-01 3.234121e-01 1.448687e-01 -3.333953e-01 -3.278756e-01 5.253386e-01 5.904064e-01 -1.545497e-01
<VARIANCE> 25
 1.084463e+01 9.916046e+00 1.126345e+01 9.653963e+00 1.659900e+01 1.527486e+01 1.742336e+01 9.895952e+00 1.631778e+01 1.420349e+01 1.925125e+01 8.511438e+00 9.252092e-01 8.926098e-01 1.045357e+00 6.880066e-01 1.190271e+00 1.679750e+00 4.183925e+00 1.067275e+00 1.576802e+00 1.638649e+00 2.557251e+00 9.512893e-01 4.318348e-01
<GCONST> 7.921069e+01
<STATE> 3
<MEAN> 25
 1.362010e+00 8.733217e-01 2.747104e+00 1.681338e+00 5.555409e-01 1.397579e+00 -9.833685e-01 -3.668312e+00 -6.151165e+00 -4.400282e+00 6.992906e-03 -4.953640e-01 -1.625574e+00 -1.037289e+00 1.483281e+00 -8.118939e-01 -1.350656e+00 1.132527e-01 1.401746e+00 1.295228e+00 4.138175e-01 1.119368e-01 1.916665e+00 6.539392e-02 -1.983360e-02
<VARIANCE> 25
 1.296655e+01 1.838525e+01 1.977246e+01 1.168398e+01 1.735997e+01 2.212853e+01 1.344326e+01 1.003050e+01 2.585350e+01 1.615119e+01 2.128337e+01 8.835826e+00 2.059207e+00 1.427360e+00 2.728436e+00 6.188655e-01 1.118889e+00 1.461132e+00 1.609985e+00 5.496445e-01 1.571524e+00 9.308517e-01 3.467390e+00 1.085835e+00 2.410276e-01
<GCONST> 8.124429e+01
<STATE> 4
<MEAN> 25
 -7.426970e+00 -8.016110e+00 9.362844e+00 -1.271935e-01 -4.979415e+00 1.836349e+00 6.090782e+00 3.087047e+00 -1.960331e+00 -3.554041e+00 9.735210e+00 1.257235e+00 -2.132129e-01 -2.895595e-01 -2.248029e-01 6.950253e-02 -1.494199e-01 -2.044693e-01 1.415990e-01 6.666658e-01 8.006271e-01 4.505911e-01 1.005874e-01 2.546925e-01 -1.738238e-01
<VARIANCE> 25
 1.806606e+01 3.212228e+01 3.180635e+01 5.943100e+00 1.270435e+01 1.330198e+01 1.973964e+01 1.443101e+01 2.335801e+01 1.616451e+01 3.324720e+01 1.482815e+01 1.383248e+00 1.230697e+00 1.599514e+00 8.337143e-01 1.026972e+00 6.637241e-01 1.636618e+00 1.033531e+00 1.359311e+00 6.069155e-01 2.419494e+00 9.071491e-01 1.385161e-01
<GCONST> 8.004767e+01
<TRANSP> 5
 0.000000e+00 1.000000e+00 0.000000e+00 0.000000e+00 0.000000e+00
 0.000000e+00 4.863625e-01 5.136374e-01 0.000000e+00 0.000000e+00
 0.000000e+00 0.000000e+00 4.568272e-01 5.431728e-01 0.000000e+00
 0.000000e+00 0.000000e+00 0.000000e+00 8.070136e-01 1.929864e-01
 0.000000e+00 0.000000e+00 0.000000e+00 0.000000e+00 0.000000e+00
<ENDHMM>
~h "j"
<BEGINHMM>
<NUMSTATES> 5
<STATE> 2
<MEAN> 25
 2.125348e+00 -2.908001e+00 7.598732e+00 1.210951e+01 4.785981e+00 -2.279958e+00 -6.526414e+00 -3.581496e+00 -1.479548e+00 -3.931492e+00 -5.871980e+00 -7.464558e+00 2.590248e+00 5.643661e-01 -1.498938e+00 2.770875e+00 3.195604e+00 -1.785527e+00 -4.282049e+00 -7.523056e-01 4.790908e-01 -1.340677e+00 -2.515987e+00 -8.637993e-01 7.292830e-01
<VARIANCE> 25
 4.263040e+00 9.579029e+00 2.409475e+01 1.774602e+01 9.441475e+00 8.878484e+00 2.844530e+01 9.937731e+00 1.238226e+01 1.092849e+01 1.530994e+01 1.309319e+01 1.458968e+00 1.478247e+00 1.391284e+00 3.532601e+00 1.428313e+00 1.295248e+00 1.839029e+00 2.727189e+00 2.068763e+00 1.261341e+00 2.816881e+00 1.340218e+00 1.401949e-01
<GCONST> 8.090735e+01
<STATE> 3
<MEAN> 25
 4.653362e+00 -3.478411e+00 3.825784e+00 1.534383e+01 9.455601e+00 -5.626362e+00 -1.168808e+01 -2.744733e+00 9.502311e-01 -5.434463e+00 -7.323869e+00 -6.865716e+00 5.239465e-01 1.092140e-01 -9.815586e-01 1.691945e-02 7.452729e-01 -4.947482e-01 -1.043511e+00 -2.679111e-01 1.258645e-01 -1.458384e-01 2.400938e-02 1.825851e-01 1.576913e-01
<VARIANCE> 25
 2.866620e+00 7.876679e+00 1.182708e+01 1.385842e+01 1.160319e+01 1.127511e+01 2.918009e+01 1.502018e+01 2.064176e+01 1.142071e+01 1.482035e+01 1.488432e+01 5.605949e-01 8.952358e-01 9.613768e-01 1.101609e+00 1.768207e+00 1.244220e+00 4.514429e+00 1.398502e+00 2.305168e+00 1.117858e+00 1.396742e+00 1.219420e+00 3.406564e-01
<GCONST> 7.838036e+01
<STATE> 4
<MEAN> 25
 4.544590e+00 -9.552512e-01 1.996199e+00 1.217848e+01 9.386806e+00 -3.910931e+00 -1.000128e+01 -4.563294e+00 -2.116904e+00 -4.971455e+00 -5.747586e+00 -6.487241e+00 -2.737178e-01 3.672096e-01 9.071965e-03 -8.997571e-01 -5.563664e-01 6.361703e-01 1.017339e+00 -3.699833e-02 -3.638979e-01 3.069908e-01 4.013632e-01 1.406658e-01 -2.311000e-01
<VARIANCE> 25
 6.097237e+00 8.489794e+00 1.413461e+01 2.372158e+01 1.612624e+01 1.794327e+01 3.325135e+01 1.483317e+01 1.813586e+01 1.340531e+01 1.626210e+01 1.536912e+01 9.364690e-01 9.281195e-01 1.343086e+00 1.601300e+00 1.990905e+00 1.571756e+00 4.359994e+00 1.710289e+00 2.090876e+00 1.356338e+00 1.382382e+00 1.281553e+00 4.120719e-01
<GCONST> 8.309515e+01
<TRANSP> 5
 0.000000e+00 1.000000e+00 0.000000e+00 0.000000e+00 0.000000e+00
 0.000000e+00 4.156471e-01 5.843529e-01 0.000000e+00 0.000000e+00
 0.000000e+00 0.000000e+00 7.615985e-01 2.384015e-01 0.000000e+00
 0.000000e+00 0.000000e+00 0.000000e+00 8.934304e-01 1.065696e-01
 0.000000e+00 0.000000e+00 0.000000e+00 0.000000e+00 0.000000e+00
<ENDHMM>
~h "m"
<BEGINHMM>
<NUMSTATES> 5
<STATE> 2
<MEAN> 25
 4.083559e+00 5.567751e+00 1.347715e-01 8.675040e-01 1.712854e+00 5.758380e-01 -1.761051e-01 6.399992e-01 2.219473e+00 2.371726e+00 -3.565361e+00 -6.571056e+00 -1.004494e+00 -1.970327e-01 2.819690e-01 1.973979e-01 3.054703e-01 8.070450e-01 1.073839e+00 3.317504e-02 -6.388341e-01 -3.342267e-01 9.842193e-02 4.360896e-01 -5.833043e-01
<VARIANCE> 25
 5.483520e+00 2.422124e+00 5.946229e+00 3.562102e+00 3.930562e+00 6.109942e+00 9.765978e+00 6.393790e+00 1.225010e+01 5.631618e+00 5.177968e+00 6.144444e+00 1.760238e-01 2.931887e-01 4.687410e-01 2.543628e-01 3.923370e-01 2.686072e-01 7.081105e-01 6.113966e-01 6.632639e-01 6.167061e-01 6.291804e-01 7.318753e-01 5.215787e-02
<GCONST> 5.379226e+01
<STATE> 3
<MEAN> 25
 2.819796e-01 4.506530e+00 5.246518e-01 1.016402e+00 2.805991e+00 4.075264e+00 4.476766e+00 1.033677e+00 3.330359e-01 9.515831e-01 -3.398136e+00 -5.102350e+00 -9.124438e-01 -6.777151e-01 -1.828347e-01 -3.121530e-02 2.093267e-01 7.643485e-01 5.348586e-01 3.988175e-01 -5.095966e-02 -2.693707e-01 3.960867e-01 9.090818e-01 -5.000668e-01
<VARIANCE> 25
 2.049206e+00 1.460347e+00 2.089764e+00 2.564653e+00 3.150542e+00 3.884932e+00 4.059142e+00 7.158841e+00 8.554250e+00 4.576629e+00 5.733208e+00 4.165325e+00 2.059819e-01 2.111614e-01 3.905662e-01 2.016685e-01 3.729703e-01 4.194815e-01 4.786195e-01 3.561845e-01 5.309105e-01 9.178451e-01 4.097270e-01 7.220857e-01 8.127413e-02
<GCONST> 4.768916e+01
<STATE> 4
<MEAN> 25
 -1.583489e+00 2.742519e+00 -5.373390e-01 3.491083e-01 2.142211e+00 4.346205e+00 3.862672e+00 1.736313e+00 9.587575e-01 1.421281e+00 -1.244712e+00 6.501055e-02 -3.389550e-01 -4.572036e-01 -1.470366e-02 -1.450332e-01 -4.924581e-01 -2.722144e-01 3.761375e-02 1.696123e-01 4.078171e-03 1.518007e-01 5.918559e-01 7.219889e-01 -5.304693e-02
<VARIANCE> 25
 2.342986e+00 2.737503e+00 2.056271e+00 3.513966e+00 3.876976e+00 4.445753e+00 4.216356e+00 5.099754e+00 7.123409e+00 4.846485e+00 7.203743e+00 1.210820e+01 2.992833e-01 2.664357e-01 2.811196e-01 2.785349e-01 6.156313e-01 9.067945e-01 4.947962e-01 8.935139e-01 8.457006e-01 6.200287e-01 7.118587e-01 1.215377e+00 1.579510e-01
<GCONST> 5.459714e+01
<TRANSP> 5
 0.000000e+00 1.000000e+00 0.000000e+00 0.000000e+00 0.000000e+00
 0.000000e+00 8.149528e-01 1.850472e-01 0.000000e+00 0.000000e+00
 0.000000e+00 0.000000e+00 2.919152e-01 7.080848e-01 0.000000e+00
 0.000000e+00 0.000000e+00 0.000000e+00 7.640525e-01 2.359476e-01
 0.000000e+00 0.000000e+00 0.000000e+00 0.000000e+00 0.000000e+00
<ENDHMM>
~h "n"
<BEGINHMM>
<NUMSTATES> 5
<STATE> 2
<MEAN> 25
 6.176231e+00 4.892883e+00 -4.546946e-01 3.107454e+00 4.626534e+00 1.938645e+00 -8.860191e-01 -1.346330e+00 -4.142956e-01 -1.985507e+00 -6.737916e+00 -6.761394e+00 2.878704e-01 -1.531718e-01 -1.760352e-01 -4.750077e-01 -9.592674e-01 -8.491494e-01 -1.635258e-02 6.387834e-01 5.682222e-01 1.234563e-01 9.225532e-03 -4.946266e-02 2.812806e-01
<VARIANCE> 25
 4.467273e+00 2.855991e+00 6.809053e+00 1.343109e+01 2.957146e+01 2.544489e+01 9.223186e+00 1.481633e+01 1.172479e+01 9.912980e+00 1.171671e+01 1.248928e+01 3.088004e-01 3.515308e-01 6.110088e-01 1.343208e+00 2.500427e+00 1.991611e+00 8.397720e-01 1.196372e+00 1.337002e+00 9.723977e-01 1.758763e+00 1.400967e+00 1.815802e-01
<GCONST> 7.294130e+01
<STATE> 3
<MEAN> 25
 7.304584e+00 4.282118e+00 -1.636716e+00 -5.048646e-01 -1.555172e+00 -2.620348e+00 -6.847037e-01 1.907838e+00 2.762953e+00 3.119003e-01 -4.722648e+00 -5.237450e+00 -9.334803e-02 -1.275734e-01 2.770969e-01 -8.249238e-01 -1.665540e+00 -8.726970e-01 1.072821e-01 4.557337e-01 3.921850e-01 6.470362e-01 9.631308e-01 5.171914e-01 1.161104e-01
<VARIANCE> 25
 5.236926e+00 3.814360e+00 6.084788e+00 1.109022e+01 3.711267e+01 4.427142e+01 1.170287e+01 1.224926e+01 1.546569e+01 1.254545e+01 1.268163e+01 1.458347e+01 6.946142e-01 4.480281e-01 2.069508e+00 1.656965e+00 1.436502e+00 1.903747e+00 9.980254e-01 1.326388e+00 1.807113e+00 9.269277e-01 1.175384e+00 1.078008e+00 1.460466e-01
<GCONST> 7.619116e+01
<STATE> 4
<MEAN> 25
 5.857735e+00 3.779101e+00 1.047634e+00 -2.096559e+00 -5.206294e+00 -3.405397e+00 -6.073450e-01 1.570743e+00 1.655058e+00 6.792979e-01 -2.189799e+00 -4.207314e+00 -9.213477e-01 -7.298281e-01 1.133256e+00 -8.980950e-01 -1.384121e+00 2.221543e-01 4.757951e-01 2.047296e-01 -2.329937e-01 3.544399e-01 1.294772e+00 3.854635e-01 1.467505e-02
<VARIANCE> 25
 1.268628e+01 8.872499e+00 3.128799e+01 7.502699e+00 2.369954e+01 5.890050e+01 2.139112e+01 8.917284e+00 2.442789e+01 1.503269e+01 1.789201e+01 1.120168e+01 2.057509e+00 1.268708e+00 3.841034e+00 1.582707e+00 1.700938e+00 3.158653e+00 1.392916e+00 1.168382e+00 1.995706e+00 1.074870e+00 1.910558e+00 1.878586e+00 1.067643e-01
<GCONST> 8.456422e+01
<TRANSP> 5
 0.000000e+00 1.000000e+00 0.000000e+00 0.000000e+00 0.000000e+00
 0.000000e+00 7.368685e-01 2.631316e-01 0.000000e+00 0.000000e+00
 0.000000e+00 0.000000e+00 4.148888e-01 5.851112e-01 0.000000e+00
 0.000000e+00 0.000000e+00 0.000000e+00 4.488396e-01 5.511604e-01
 0.000000e+00 0.000000e+00 0.000000e+00 0.000000e+00 0.000000e+00
<ENDHMM>
~h "p"
<BEGINHMM>
<NUMSTATES> 5
<STATE> 2
<MEAN> 25
 -2.505385e+00 4.558617e-01 -1.461241e+00 -1.995556e-01 -6.325412e-02 1.715700e+00 2.735968e+00 6.477542e-01 6.189728e-02 2.413286e+00 1.831024e+00 1.473981e+00 1.699006e+00 1.185369e+00 5.272876e-01 -2.940706e-01 -1.519386e+00 -2.168355e+00 -1.592527e+00 -4.816118e-01 -4.655121e-02 -6.758609e-01 -1.134270e+00 -1.487985e+00 9.378023e-01
<VARIANCE> 25
 5.430041e+00 5.959612e+00 4.226485e+00 7.143362e+00 1.528356e+01 8.842957e+00 1.029196e+01 9.840915e+00 1.233554e+01 1.392930e+01 1.095123e+01 1.509749e+01 1.909431e+00 1.295020e+00 8.869557e-01 7.756261e-01 9.293128e-01 3.006568e+00 2.830487e+00 1.179385e+00 1.367035e+00 1.619930e+00 2.215938e+00 2.619514e+00 6.499813e-01
<GCONST> 7.749732e+01
<STATE> 3
<MEAN> 25
 2.606235e+00 4.278003e+00 1.322624e-02 -4.859267e-01 -3.352431e+00 -4.701942e+00 -2.614286e+00 -1.053274e+00 -5.638708e-01 -1.165388e-01 -1.380845e+00 -1.377893e+00 2.888695e+00 1.649569e+00 -1.013211e-01 -6.261833e-01 -1.837559e+00 -3.480290e+00 -2.735859e+00 -4.211664e-02 8.501641e-01 -1.057311e+00 -2.288248e+00 -1.656487e+00 1.453899e+00
<VARIANCE> 25
 1.722367e+01 1.376860e+01 9.161249e+00 9.139276e+00 1.820299e+01 3.156140e+01 2.685131e+01 1.266755e+01 1.624430e+01 7.605177e+00 1.240503e+01 1.310597e+01 2.072499e+00 9.277085e-01 1.213757e+00 1.061055e+00 1.074746e+00 3.700284e+00 3.092265e+00 1.206586e+00 1.654938e+00 1.532323e+00 2.095102e+00 2.886849e+00 8.645815e-01
<GCONST> 8.412250e+01
<STATE> 4
<MEAN> 25
 7.130231e+00 5.853258e+00 -1.747899e+00 -2.372926e+00 -6.390967e+00 -1.029207e+01 -6.667208e+00 5.058510e-01 2.772466e+00 -9.975631e-01 -5.494914e+00 -4.098133e+00 1.472113e+00 5.595853e-01 -5.297194e-01 -6.366258e-01 -7.632363e-01 -1.217231e+00 -7.560456e-01 4.577386e-01 8.480824e-01 -6.879168e-01 -1.811948e+00 -1.182575e+00 7.887436e-01
<VARIANCE> 25
 1.014441e+01 8.962954e+00 1.276279e+01 9.888870e+00 1.686560e+01 2.801345e+01 1.680857e+01 1.192098e+01 1.763803e+01 1.186184e+01 1.565424e+01 1.750423e+01 3.571566e+00 7.724728e-01 1.672696e+00 9.606055e-01 1.635458e+00 6.288538e+00 4.812057e+00 1.608011e+00 3.839593e+00 1.346565e+00 2.920356e+00 2.051822e+00 1.376133e+00
<GCONST> 8.732810e+01
<TRANSP> 5
 0.000000e+00 1.000000e+00 0.000000e+00 0.000000e+00 0.000000e+00
 0.000000e+00 4.472971e-01 5.527030e-01 0.000000e+00 0.000000e+00
 0.000000e+00 0.000000e+00 2.353154e-01 7.646846e-01 0.000000e+00
 0.000000e+00 0.000000e+00 0.000000e+00 3.651745e-01 6.348255e-01
 0.000000e+00 0.000000e+00 0.000000e+00 0.000000e+00 0.000000e+00
<ENDHMM>
~h "r"
<BEGINHMM>
<NUMSTATES> 5
<STATE> 2
<MEAN> 25
 4.294017e+00 2.331237e+00 -5.462703e+00 -5.179400e+00 -1.898753e+00 -1.835989e+00 -2.392012e+00 -1.548861e+00 1.617500e+00 1.969035e+00 -3.505600e+00 -3.405031e+00 -5.171558e-01 -1.342905e-02 5.193506e-01 4.894633e-01 6.844054e-02 1.505348e-01 8.941079e-01 6.486724e-01 -3.302675e-01 8.663630e-02 5.003991e-01 3.239796e-01 -3.073814e-01
<VARIANCE> 25
 1.568110e+01 5.299866e+00 1.308720e+01 5.028703e+00 6.261372e+00 4.849035e+00 1.721363e+01 8.634553e+00 9.052889e+00 1.085229e+01 1.803955e+01 1.008482e+01 2.247302e+00 6.782227e-01 1.503159e+00 1.314256e+00 1.560760e+00 4.339044e-01 3.394762e+00 1.335611e+00 1.234661e+00 9.590822e-01 2.821687e+00 3.051658e+00 6.941058e-01
<GCONST> 7.694066e+01
<STATE> 3
<MEAN> 25
 2.063934e+00 8.243815e-01 -4.287570e+00 -3.610162e+00 -1.897561e+00 -2.252556e+00 -1.647151e+00 -7.626871e-01 8.339113e-01 2.255496e+00 -1.123081e+00 -8.425068e-01 -2.272626e-01 -4.495073e-01 -1.225739e-01 1.023385e+00 8.051760e-01 1.136996e-01 -2.335576e-01 2.435377e-02 -2.704300e-02 1.016596e-01 1.242301e-01 3.042074e-01 -2.103172e-01
<VARIANCE> 25
 1.388668e+01 8.207129e+00 1.310849e+01 7.372690e+00 8.495889e+00 6.035133e+00 2.004556e+01 9.097368e+00 1.067696e+01 7.826978e+00 2.341522e+01 1.266746e+01 2.582005e+00 7.120578e-01 8.704273e-01 1.327342e+00 1.426957e+00 6.091366e-01 2.294900e+00 9.630396e-01 9.164954e-01 1.216275e+00 3.300445e+00 4.056600e+00 5.366012e-01
<GCONST> 7.800191e+01
<STATE> 4
<MEAN> 25
 1.491273e+00 -5.292797e-01 -4.281707e+00 -1.201440e+00 -4.310915e-01 -2.066921e+00 -2.154244e+00 -1.227934e+00 4.083230e-01 2.880444e+00 -4.472515e-01 -5.384424e-01 4.017238e-02 -1.043170e-01 -2.528843e-01 1.135907e+00 9.746233e-01 2.141660e-01 -2.876205e-01 1.806062e-03 5.274986e-02 -2.559927e-01 -4.914293e-01 1.173655e-01 -2.244550e-01
<VARIANCE> 25
 1.243762e+01 1.057796e+01 8.733533e+00 1.302046e+01 1.461722e+01 1.145372e+01 1.813693e+01 8.034042e+00 1.352165e+01 1.082129e+01 1.544489e+01 1.816540e+01 2.115128e+00 7.692692e-01 8.987399e-01 1.235520e+00 9.373362e-01 4.822918e-01 1.749474e+00 5.382487e-01 7.155298e-01 1.160356e+00 3.020747e+00 3.183812e+00 3.784187e-01
<GCONST> 7.712821e+01
<TRANSP> 5
 0.000000e+00 1.000000e+00 0.000000e+00 0.000000e+00 0.000000e+00
 0.000000e+00 4.886872e-01 5.113127e-01 0.000000e+00 0.000000e+00
 0.000000e+00 0.000000e+00 1.422366e-01 8.577634e-01 0.000000e+00
 0.000000e+00 0.000000e+00 0.000000e+00 2.178034e-01 7.821966e-01
 0.000000e+00 0.000000e+00 0.000000e+00 0.000000e+00 0.000000e+00
<ENDHMM>
~h "s"
<BEGINHMM>
<NUMSTATES> 5
<STATE> 2
<MEAN> 25
 -4.570483e+00 -4.050220e+00 1.087946e+01 -1.867725e+00 -4.155399e+00 3.577680e+00 4.277306e+00 -1.723139e+00 -4.155664e+00 -1.646016e+00 4.061742e+00 -4.878429e+00 -2.293449e+00 -1.100870e+00 2.297936e+00 -1.575905e+00 -1.257256e+00 1.116665e+00 1.629564e+00 4.295253e-01 -9.511818e-02 4.489329e-01 2.086041e+00 4.253140e-02 9.781756e-02
<VARIANCE> 25
 2.549545e+01 1.013742e+01 3.740768e+01 1.703971e+01 1.996920e+01 1.789251e+01 1.472095e+01 2.165261e+01 1.561575e+01 1.324657e+01 2.883209e+01 2.546847e+01 1.532414e+00 1.133733e+00 3.975185e+00 1.833867e+00 1.616303e+00 1.295281e+00 2.591180e+00 1.388205e+00 2.262519e+00 9.951735e-01 2.773541e+00 1.547338e+00 2.019231e-01
<GCONST> 8.675929e+01
<STATE> 3
<MEAN> 25
 -9.685067e+00 -5.303012e+00 1.254153e+01 -5.965138e+00 -4.225396e+00 5.665910e+00 6.330057e+00 5.800414e-01 -2.169629e+00 1.254578e+00 8.151825e+00 -2.588469e+00 -4.898186e-02 1.195723e-01 -7.657565e-01 5.882914e-02 3.375103e-01 7.805064e-03 -6.442781e-02 4.141042e-01 3.915790e-01 4.894048e-01 -2.258117e-02 5.415112e-01 -4.210257e-01
<VARIANCE> 25
 4.211546e+00 8.289692e+00 1.628526e+01 9.293352e+00 1.776087e+01 1.445725e+01 1.071020e+01 1.185249e+01 1.687962e+01 1.227870e+01 1.251908e+01 1.450657e+01 7.734348e-01 7.862170e-01 1.737442e+00 1.350894e+00 1.375640e+00 1.010569e+00 8.687164e-01 9.904607e-01 1.234148e+00 9.882948e-01 1.424591e+00 1.179345e+00 2.473099e-01
<GCONST> 7.530227e+01
<STATE> 4
<MEAN> 25
 -5.245067e+00 -2.035772e+00 2.844383e+00 -1.850531e+00 -1.311716e+00 3.757176e+00 4.390183e+00 1.711148e+00 -2.251167e-01 2.298907e+00 4.343406e+00 2.246499e+00 1.156724e+00 8.058255e-01 -1.464265e+00 6.310827e-01 4.677509e-01 -5.098515e-01 -6.087575e-01 -2.251700e-01 2.023319e-02 -2.179875e-01 -1.095504e+00 3.502276e-01 -3.263991e-01
<VARIANCE> 25
 1.244171e+01 9.001402e+00 2.416928e+01 8.428675e+00 9.368452e+00 8.636422e+00 1.225639e+01 1.144194e+01 1.240192e+01 1.563669e+01 1.954778e+01 1.682596e+01 1.851799e+00 9.458951e-01 1.255280e+00 1.037715e+00 8.005238e-01 1.166703e+00 1.279226e+00 1.171705e+00 1.631851e+00 2.174932e+00 3.112287e+00 1.788454e+00 4.573182e-01
<GCONST> 7.974436e+01
<TRANSP> 5
 0.000000e+00 1.000000e+00 0.000000e+00 0.000000e+00 0.000000e+00
 0.000000e+00 6.744649e-01 3.255350e-01 0.000000e+00 0.000000e+00
 0.000000e+00 0.000000e+00 8.117675e-01 1.882325e-01 0.000000e+00
 0.000000e+00 0.000000e+00 0.000000e+00 8.139110e-01 1.860890e-01
 0.000000e+00 0.000000e+00 0.000000e+00 0.000000e+00 0.000000e+00
<ENDHMM>
~h "t"
<BEGINHMM>
<NUMSTATES> 5
<STATE> 2
<MEAN> 25
 1.970086e-01 5.075517e-01 -8.403681e-01 -1.976974e+00 -2.902413e+00 -1.500435e+00 6.789708e-01 -5.903144e-01 -9.160559e-01 8.143374e-01 3.733657e-01 8.804154e-01 1.105874e+00 3.109195e-01 -2.814716e-01 3.736242e-01 3.105856e-01 -5.423074e-01 -1.057102e+00 -6.497779e-01 -3.427964e-01 -6.037939e-01 -1.250666e+00 -9.053982e-01 5.477821e-01
<VARIANCE> 25
 1.693754e+01 1.382066e+01 1.344326e+01 1.822997e+01 1.561430e+01 1.664450e+01 1.485368e+01 1.323256e+01 1.403161e+01 1.299697e+01 2.285965e+01 2.218679e+01 3.330699e+00 1.608631e+00 2.426617e+00 1.300015e+00 1.125603e+00 1.601361e+00 2.379657e+00 1.706260e+00 1.475199e+00 1.742566e+00 4.047961e+00 2.551977e+00 8.074664e-01
<GCONST> 8.706351e+01
<STATE> 3
<MEAN> 25
 3.387070e+00 1.158119e+00 -3.612531e+00 -2.129682e+00 -2.249487e+00 -3.186292e+00 -1.811583e+00 -1.351431e+00 -1.121554e+00 -5.121104e-01 -2.422616e+00 -3.859074e-01 8.351755e-01 1.619613e-01 -7.576848e-01 -9.832687e-02 2.845680e-01 -3.464239e-01 -7.191286e-01 -1.781677e-01 1.357437e-01 -3.855576e-01 -6.354847e-01 -2.378126e-01 3.571110e-01
<VARIANCE> 25
 2.558263e+01 9.641343e+00 1.403318e+01 1.300670e+01 1.363112e+01 3.217766e+01 2.029513e+01 1.620593e+01 1.444640e+01 1.787475e+01 2.602021e+01 2.133720e+01 2.336224e+00 1.316709e+00 2.080947e+00 1.804974e+00 9.104156e-01 1.231319e+00 1.929485e+00 1.426720e+00 1.111758e+00 1.353610e+00 3.007191e+00 1.404673e+00 5.414043e-01
<GCONST> 8.522417e+01
<STATE> 4
<MEAN> 25
 2.472879e+00 1.369344e+00 -3.738959e+00 -2.447318e+00 -2.282761e+00 -2.336113e+00 -5.257821e-01 -2.366827e-01 -3.685930e-01 -1.171972e-01 -1.254084e+00 1.103732e+00 1.147684e-01 8.766610e-02 1.250115e-01 -7.376149e-02 -1.187413e-01 2.357434e-02 6.126082e-02 -3.937034e-02 -3.654509e-03 -1.628215e-01 -8.229558e-02 -2.349318e-01 1.165478e-01
<VARIANCE> 25
 3.031002e+01 6.469924e+00 1.023126e+01 9.618700e+00 1.096890e+01 1.969398e+01 2.344037e+01 1.725091e+01 1.640573e+01 2.029374e+01 2.692297e+01 2.171630e+01 1.637094e+00 8.566931e-01 1.299556e+00 1.149850e+00 9.224666e-01 1.487368e+00 1.741582e+00 1.450477e+00 1.084936e+00 1.246088e+00 2.408380e+00 1.409441e+00 6.998431e-01
<GCONST> 8.252109e+01
<TRANSP> 5
 0.000000e+00 1.000000e+00 0.000000e+00 0.000000e+00 0.000000e+00
 0.000000e+00 3.904571e-01 6.095429e-01 0.000000e+00 0.000000e+00
 0.000000e+00 0.000000e+00 3.565424e-01 6.434576e-01 0.000000e+00
 0.000000e+00 0.000000e+00 0.000000e+00 6.000600e-01 3.999400e-01
 0.000000e+00 0.000000e+00 0.000000e+00 0.000000e+00 0.000000e+00
<ENDHMM>
~h "v"
<BEGINHMM>
<NUMSTATES> 5
<STATE> 2
<MEAN> 25
 2.280403e-01 1.703209e+00 -2.365906e+00 -1.648214e+00 -7.341169e-01 -3.716752e-01 1.139894e+00 1.293872e+00 4.315330e-01 1.403682e+00 7.049171e-01 1.734512e+00 -2.351586e-01 1.613465e-01 1.670127e-01 1.845118e-01 2.566479e-01 2.701307e-01 2.729779e-01 7.795680e-02 -1.411912e-01 9.325561e-02 -8.787718e-02 3.754864e-02 -2.671952e-01
<VARIANCE> 25
 2.841327e+01 1.013926e+01 1.335100e+01 1.014185e+01 1.402382e+01 2.841393e+01 2.374069e+01 1.352944e+01 2.689705e+01 1.554526e+01 1.848380e+01 2.419476e+01 5.101911e-01 2.559862e-01 3.425576e-01 3.356171e-01 7.356754e-01 5.952290e-01 1.058355e+00 8.308518e-01 1.183478e+00 5.878500e-01 1.119453e+00 6.504095e-01 2.011719e-01
<GCONST> 7.298016e+01
<STATE> 3
<MEAN> 25
 1.815476e-01 2.093811e+00 -2.276224e+00 -1.586025e+00 -6.019103e-01 -1.244923e-01 1.180452e+00 1.653786e+00 1.080328e+00 2.011144e+00 1.008190e+00 1.883682e+00 3.369026e-03 3.367599e-01 3.950119e-01 3.600902e-01 3.614212e-01 3.414113e-01 1.774641e-01 -1.148336e-01 -2.292465e-01 -1.863897e-01 -4.483002e-01 -4.103847e-01 -1.000888e-01
<VARIANCE> 25
 2.508776e+01 1.030924e+01 1.097664e+01 9.380047e+00 1.607536e+01 2.863291e+01 2.519853e+01 1.245860e+01 3.020134e+01 1.878129e+01 2.120909e+01 2.502076e+01 5.855380e-01 3.645107e-01 4.162719e-01 4.301760e-01 5.516652e-01 4.958994e-01 8.259729e-01 8.480313e-01 8.735920e-01 5.481822e-01 1.088198e+00 9.209772e-01 2.040842e-01
<GCONST> 7.339267e+01
<STATE> 4
<MEAN> 25
 1.850622e-01 2.507624e+00 -1.535434e+00 -3.345735e-01 9.026991e-01 8.581162e-01 1.943907e+00 1.994275e+00 4.256228e-01 6.527479e-01 -8.643788e-02 9.761552e-01 4.938848e-01 4.853410e-01 5.743668e-01 5.943326e-01 4.488295e-01 1.229719e-01 -3.179376e-01 -3.753865e-01 -1.907657e-01 -3.892822e-01 -7.894770e-01 -9.363971e-01 2.628893e-01
<VARIANCE> 25
 1.779207e+01 8.454413e+00 1.084156e+01 9.018847e+00 1.483543e+01 2.521511e+01 1.856062e+01 9.965351e+00 1.799516e+01 1.715279e+01 1.585642e+01 2.403812e+01 8.813335e-01 9.461803e-01 9.073872e-01 7.235495e-01 7.072879e-01 6.527232e-01 1.593433e+00 1.175613e+00 9.653527e-01 7.738575e-01 1.670045e+00 1.720175e+00 3.637573e-01
<GCONST> 7.736790e+01
<TRANSP> 5
 0.000000e+00 1.000000e+00 0.000000e+00 0.000000e+00 0.000000e+00
 0.000000e+00 6.204810e-02 9.379519e-01 0.000000e+00 0.000000e+00
 0.000000e+00 0.000000e+00 9.316877e-02 9.068312e-01 0.000000e+00
 0.000000e+00 0.000000e+00 0.000000e+00 2.224511e-01 7.775490e-01
 0.000000e+00 0.000000e+00 0.000000e+00 0.000000e+00 0.000000e+00
<ENDHMM>
~h "z"
<BEGINHMM>
<NUMSTATES> 5
<STATE> 2
<MEAN> 25
 1.172908e+00 6.832418e-01 6.837566e+00 -1.277894e+00 -6.001796e+00 1.471045e+00 1.279184e+00 -1.917778e+00 -3.968409e+00 -1.977200e+00 -2.524302e+00 -4.984535e+00 1.551995e+00 1.457379e-01 -2.117070e+00 -6.188422e-03 1.178329e-01 -1.813439e+00 -1.622523e+00 -2.727274e-01 5.932426e-01 -7.622913e-01 -1.848012e+00 1.339947e-01 5.314202e-01
<VARIANCE> 25
 1.649382e+01 7.710616e+00 3.684548e+01 6.561110e+00 5.387839e+00 2.057151e+01 1.821503e+01 6.858637e+00 1.158371e+01 1.032545e+01 2.603295e+01 6.246820e+00 3.813851e+00 1.084914e+00 1.026624e+01 1.308339e+00 9.026766e-01 3.736580e+00 3.350462e+00 9.079229e-01 2.824505e+00 1.033093e+00 3.071074e+00 1.466744e+00 2.973217e-01
<GCONST> 8.340089e+01
<STATE> 3
<MEAN> 25
 8.601357e+00 2.325644e-01 -5.638116e+00 -3.636453e+00 -4.709053e+00 -6.868225e+00 -6.965113e+00 -1.011154e+00 1.961720e+00 -3.809577e+00 -7.989985e+00 -1.019663e+00 1.446736e+00 -1.097424e+00 -3.294857e+00 -9.481257e-01 6.355300e-01 -1.543025e+00 -1.806152e+00 1.085198e+00 1.839181e+00 -6.568575e-03 -1.922663e-01 1.314010e+00 9.340626e-01
<VARIANCE> 25
 8.004207e+00 7.162407e+00 2.218292e+01 5.690250e+00 8.035856e+00 1.182800e+01 2.304696e+01 7.558564e+00 9.400477e+00 4.792977e+00 1.002868e+01 7.902843e+00 1.979448e+00 4.399140e-01 6.660261e+00 4.734749e-01 5.572414e-01 2.539039e+00 1.802197e+00 6.069091e-01 1.183994e+00 6.207550e-01 8.892027e-01 8.267737e-01 2.064499e-01
<GCONST> 7.198252e+01
<STATE> 4
<MEAN> 25
 5.688787e+00 -2.405326e+00 -2.937361e+00 -5.201351e+00 -5.486850e+00 -4.061224e+00 -4.947464e+00 1.336386e+00 2.921244e+00 -2.748421e+00 -3.906547e+00 2.618226e-01 7.027935e-01 -8.070061e-01 -1.935228e+00 -4.853649e-01 3.599025e-01 -8.147897e-01 -6.770172e-01 8.273804e-01 9.469660e-01 1.363339e-01 2.012292e-01 3.007574e-01 5.148111e-01
<VARIANCE> 25
 5.251984e+01 7.566211e+00 1.212178e+02 5.787500e+00 1.051245e+01 6.757484e+01 3.755597e+01 8.496752e+00 1.258498e+01 5.600444e+00 3.406373e+01 5.803308e+00 3.209536e+00 6.715434e-01 6.605528e+00 1.185043e+00 5.294092e-01 3.961865e+00 1.838471e+00 9.847589e-01 1.248084e+00 7.942910e-01 2.761244e+00 8.533294e-01 2.652779e-01
<GCONST> 8.403975e+01
<TRANSP> 5
 0.000000e+00 1.000000e+00 0.000000e+00 0.000000e+00 0.000000e+00
 0.000000e+00 7.728115e-01 2.271885e-01 0.000000e+00 0.000000e+00
 0.000000e+00 0.000000e+00 2.819939e-01 7.180061e-01 0.000000e+00
 0.000000e+00 0.000000e+00 0.000000e+00 4.865868e-01 5.134133e-01
 0.000000e+00 0.000000e+00 0.000000e+00 0.000000e+00 0.000000e+00
<ENDHMM>
~h "aa"
<BEGINHMM>
<NUMSTATES> 5
<STATE> 2
<MEAN> 25
 5.991130e+00 1.424135e+00 -3.451388e+00 -2.876568e+00 -4.132658e+00 -5.222713e+00 -3.801789e+00 -6.051638e-01 2.351297e+00 -5.381022e-01 -3.864952e+00 -1.004249e+00 2.173305e+00 -3.932978e-01 -1.923001e+00 -1.156251e+00 -9.998703e-01 -1.779283e+00 -1.724163e+00 -3.694985e-04 9.592983e-01 -4.064352e-01 -1.032117e+00 1.216502e-02 1.436207e+00
<VARIANCE> 25
 2.905334e+01 1.065130e+01 4.382894e+01 1.362320e+01 1.303127e+01 3.617683e+01 3.195937e+01 2.137187e+01 1.976650e+01 1.318131e+01 2.210602e+01 1.209897e+01 2.655975e+00 1.216631e+00 2.527974e+00 8.339729e-01 1.482563e+00 2.204269e+00 2.473899e+00 2.244367e+00 1.380387e+00 1.104820e+00 2.489748e+00 1.714480e+00 7.611228e-01
<GCONST> 8.832540e+01
<STATE> 3
<MEAN> 25
 1.035582e+01 -3.374420e-01 -9.421627e+00 -5.754876e+00 -4.882076e+00 -7.908260e+00 -6.687253e+00 1.076559e+00 4.894941e+00 -1.091269e+00 -5.493025e+00 -6.767420e-01 3.377191e-01 -4.688112e-01 -7.867933e-01 -5.144060e-01 3.893568e-02 1.739947e-01 -4.478498e-02 1.606119e-01 1.668072e-01 7.051125e-03 2.169076e-01 3.098979e-01 3.186863e-01
<VARIANCE> 25
 1.490533e+01 9.895003e+00 3.523682e+01 5.740455e+00 6.593503e+00 2.675933e+01 2.494871e+01 1.539396e+01 1.667483e+01 8.584027e+00 1.569166e+01 1.146176e+01 5.624011e-01 6.681044e-01 1.454784e+00 6.766071e-01 8.377060e-01 1.022052e+00 8.803969e-01 1.358838e+00 1.025188e+00 8.909817e-01 9.241472e-01 1.073704e+00 2.474885e-01
<GCONST> 7.506464e+01
<STATE> 4
<MEAN> 25
 8.462453e+00 1.168125e+00 -7.672659e+00 -6.308505e+00 -4.619208e+00 -4.618831e+00 -4.366730e+00 -1.231832e+00 1.311590e+00 -1.032582e+00 -3.355959e+00 9.370773e-01 -8.524607e-01 2.884486e-01 8.150308e-01 8.164619e-02 7.372034e-02 7.427621e-01 7.469631e-01 -2.332939e-01 -7.793390e-01 1.145941e-01 5.655621e-01 1.978862e-01 -5.738726e-01
<VARIANCE> 25
 1.591000e+01 1.058045e+01 2.441474e+01 7.914239e+00 1.240001e+01 1.887187e+01 2.427901e+01 1.758497e+01 2.188439e+01 8.983547e+00 1.719644e+01 1.213984e+01 6.866879e-01 8.955151e-01 1.198366e+00 9.136794e-01 9.634889e-01 8.699514e-01 1.604286e+00 1.312994e+00 1.212864e+00 8.275976e-01 1.206823e+00 1.018505e+00 4.204174e-01
<GCONST> 7.798761e+01
<TRANSP> 5
 0.000000e+00 1.000000e+00 0.000000e+00 0.000000e+00 0.000000e+00
 0.000000e+00 5.320875e-01 4.679125e-01 0.000000e+00 0.000000e+00
 0.000000e+00 0.000000e+00 4.699129e-01 5.300871e-01 0.000000e+00
 0.000000e+00 0.000000e+00 0.000000e+00 8.258895e-01 1.741105e-01
 0.000000e+00 0.000000e+00 0.000000e+00 0.000000e+00 0.000000e+00
<ENDHMM>
~h "ae"
<BEGINHMM>
<NUMSTATES> 5
<STATE> 2
<MEAN> 25
 -1.027547e+01 -8.262678e+00 1.302837e+01 -2.959486e+00 -5.389478e+00 4.260736e+00 5.197878e+00 -9.523821e-02 1.637429e-01 8.077167e-01 8.292832e+00 -3.070312e+00 1.640174e-02 -6.831895e-01 -3.553656e-01 8.872593e-01 -6.172155e-01 -7.130527e-01 5.965675e-01 5.275818e-01 4.648292e-01 5.407364e-01 1.671857e-01 2.786147e-01 -1.955158e-01
<VARIANCE> 25
 1.569542e+01 8.016605e+00 1.261772e+01 2.543598e+01 1.355004e+01 1.087388e+01 1.331033e+01 1.654177e+01 1.967950e+01 9.967291e+00 1.674263e+01 8.820592e+00 1.408885e+00 7.637237e-01 2.371104e+00 2.006245e+00 1.391891e+00 1.077350e+00 1.865248e+00 8.254951e-01 1.060705e+00 8.523473e-01 2.067011e+00 9.024004e-01 1.410515e-01
<GCONST> 7.824780e+01
<STATE> 3
<MEAN> 25
 -8.865208e+00 -9.339018e+00 1.067929e+01 4.498857e-02 -5.322006e+00 2.415866e+00 4.966771e+00 2.283847e-01 8.378271e-01 1.869920e+00 7.616584e+00 -1.722164e+00 1.674478e+00 8.057962e-01 -5.568461e-01 2.257175e+00 1.190695e+00 -7.546351e-01 -1.079755e+00 -6.597164e-01 -7.042091e-01 -5.880232e-01 -1.844392e+00 -5.581823e-01 -1.628077e-01
<VARIANCE> 25
 8.643608e+00 5.086769e+00 1.660772e+01 1.489634e+01 1.105977e+01 1.030320e+01 9.131114e+00 1.863849e+01 1.754402e+01 9.866808e+00 1.878982e+01 1.726844e+01 3.548553e+00 1.372854e+00 2.433996e+00 4.657423e+00 2.306323e+00 1.090003e+00 3.619160e+00 1.338423e+00 1.031849e+00 1.644522e+00 4.135910e+00 1.432294e+00 1.377920e-01
<GCONST> 8.288691e+01
<STATE> 4
<MEAN> 25
 -4.467430e+00 -5.755822e+00 1.095869e+01 5.017166e+00 -1.806943e+00 1.808579e+00 2.256526e+00 -2.408711e+00 -2.412907e+00 -1.254613e+00 1.562767e+00 -5.199906e+00 2.741150e+00 1.387501e+00 -7.022911e-01 2.891740e+00 2.569460e+00 -1.193090e+00 -3.114726e+00 -1.154025e+00 -7.894201e-01 -1.515768e+00 -3.061835e+00 -1.406836e+00 3.897355e-01
<VARIANCE> 25
 1.043874e+01 7.428729e+00 2.577479e+01 2.289765e+01 1.258360e+01 8.356305e+00 1.723934e+01 1.600886e+01 1.422324e+01 1.119914e+01 2.519749e+01 2.076151e+01 5.047947e+00 1.200741e+00 1.902773e+00 8.881467e+00 3.954062e+00 2.085867e+00 6.137334e+00 2.992117e+00 1.217688e+00 1.928372e+00 6.403184e+00 9.724408e-01 1.340731e-01
<GCONST> 8.860715e+01
<TRANSP> 5
 0.000000e+00 1.000000e+00 0.000000e+00 0.000000e+00 0.000000e+00
 0.000000e+00 5.747253e-01 4.252747e-01 0.000000e+00 0.000000e+00
 0.000000e+00 0.000000e+00 3.848334e-01 6.151666e-01 0.000000e+00
 0.000000e+00 0.000000e+00 0.000000e+00 1.766143e-01 8.233857e-01
 0.000000e+00 0.000000e+00 0.000000e+00 0.000000e+00 0.000000e+00
<ENDHMM>
~h "ay"
<BEGINHMM>
<NUMSTATES> 5
<STATE> 2
<MEAN> 25
 7.262699e+00 6.266539e+00 8.343816e-03 -2.105896e+00 -6.810909e+00 -1.100369e+01 -6.608297e+00 3.623413e+00 7.522141e+00 1.997015e+00 -4.052847e+00 -3.725090e+00 1.100199e-01 -2.483764e-01 1.313042e-01 2.341691e-01 -5.315924e-02 -3.814014e-01 -4.154953e-01 -1.072839e-01 -3.439600e-01 -1.507552e+00 -1.231754e+00 -7.770281e-01 2.348674e-01
<VARIANCE> 25
 2.106587e+01 6.894262e+00 4.795616e+00 8.043009e+00 1.017022e+01 2.622993e+01 3.055124e+01 5.698008e+00 1.110867e+01 2.729006e+01 2.041605e+01 6.979262e+00 3.115699e-01 1.219231e+00 1.132835e+00 2.676379e-01 8.636669e-01 1.426332e+00 1.025746e+00 6.153877e-01 1.001992e+00 1.156998e+00 2.463473e+00 9.989706e-01 1.986915e-01
<GCONST> 7.301668e+01
<STATE> 3
<MEAN> 25
 7.434131e+00 6.801147e+00 1.937028e-01 -1.926966e+00 -7.248721e+00 -1.059983e+01 -5.240114e+00 3.477054e+00 5.771887e+00 -1.367001e+00 -7.250080e+00 -6.370595e+00 -6.624781e-02 -5.932972e-01 -1.708186e-01 8.788252e-02 4.662657e-01 9.683143e-01 3.025358e-01 -3.404230e-01 -9.326493e-01 -1.390042e+00 -9.154594e-01 -2.050349e-01 1.527781e-01
<VARIANCE> 25
 1.434392e+01 6.368843e+00 4.842852e+00 7.010450e+00 6.471897e+00 2.581517e+01 2.719487e+01 5.370862e+00 8.527639e+00 1.717126e+01 2.178302e+01 1.023308e+01 1.520208e-01 1.302913e+00 7.308730e-01 5.939522e-01 1.763344e+00 1.886000e+00 9.522629e-01 7.839048e-01 9.806038e-01 1.043050e+00 1.307960e+00 1.585155e+00 1.645756e-01
<GCONST> 7.188536e+01
<STATE> 4
<MEAN> 25
 7.108814e+00 7.864702e-01 -1.910579e+00 -1.076621e+00 -2.463472e+00 -3.623494e+00 -4.621293e+00 1.000458e+00 8.971200e-01 -7.180459e+00 -8.482553e+00 -1.848665e+00 -1.237493e+00 -2.065135e+00 7.900411e-01 3.226560e-01 7.374740e-01 2.869363e+00 1.869622e+00 -9.313500e-01 -2.377626e+00 -3.164860e-01 2.041469e+00 9.555996e-01 1.603971e-01
<VARIANCE> 25
 2.147666e+01 1.768107e+01 1.062787e+01 7.241776e+00 1.288062e+01 2.237769e+01 2.606331e+01 1.012334e+01 1.094151e+01 2.698591e+01 2.360027e+01 2.300171e+01 8.439303e-01 6.416306e-01 1.943965e+00 3.900010e-01 2.368042e+00 1.261952e+00 2.133351e+00 1.070046e+00 9.713578e-01 1.648337e+00 2.048020e+00 2.391753e+00 1.448186e-01
<GCONST> 8.061073e+01
<TRANSP> 5
 0.000000e+00 1.000000e+00 0.000000e+00 0.000000e+00 0.000000e+00
 0.000000e+00 3.115923e-01 6.884077e-01 0.000000e+00 0.000000e+00
 0.000000e+00 0.000000e+00 7.255684e-01 2.744316e-01 0.000000e+00
 0.000000e+00 0.000000e+00 0.000000e+00 6.017584e-01 3.982416e-01
 0.000000e+00 0.000000e+00 0.000000e+00 0.000000e+00 0.000000e+00
<ENDHMM>
~h "ch"
<BEGINHMM>
<NUMSTATES> 5
<STATE> 2
<MEAN> 25
 -1.793859e+00 -1.155408e+01 4.416111e+00 6.002172e+00 -1.085201e+00 1.718097e+00 -2.029802e+00 -6.271128e+00 4.643212e+00 -2.252167e+00 -5.738361e+00 -1.635704e+00 -2.002457e+00 -2.084268e+00 1.926557e+00 8.622885e-01 -6.043842e-01 -5.759218e-01 5.656071e-01 9.208183e-01 1.654948e+00 3.605075e-01 1.041012e+00 6.681882e-01 1.452680e-01
<VARIANCE> 25
 1.676191e+01 3.027423e+01 1.604202e+01 1.221797e+01 8.993754e+00 1.018888e+01 8.877664e+00 1.146070e+01 3.283598e+01 1.149383e+01 1.032298e+01 8.252974e+00 5.769312e-01 2.452839e+00 1.098158e+00 1.468596e+00 1.381147e+00 1.057191e+00 1.062725e+00 1.914820e+00 2.234401e+00 1.684571e+00 1.204952e+00 6.202064e-01 1.195382e-01
<GCONST> 7.779726e+01
<STATE> 3
<MEAN> 25
 -8.283940e+00 -1.200799e+01 9.781156e+00 2.989733e+00 -1.121900e+00 -1.160776e+00 1.251852e+00 3.305212e+00 4.765052e+00 -2.639103e+00 3.689723e+00 2.285752e+00 1.203314e-02 2.087170e+00 -8.693193e-01 -1.543256e+00 1.581005e-01 4.971306e-02 8.299638e-01 1.349936e+00 -1.724462e+00 5.493904e-01 1.531067e+00 5.485906e-01 -1.136241e+00
<VARIANCE> 25
 3.016537e+00 1.590248e+01 1.203900e+01 2.036279e+01 7.595269e+00 8.982555e+00 7.980365e+00 1.663174e+01 2.901810e+01 9.915468e+00 1.582092e+01 8.783719e+00 7.982338e-01 9.321437e-01 2.571405e+00 1.614763e+00 5.644799e-01 6.215234e-01 8.639228e-01 2.352606e+00 1.903242e+00 1.477152e+00 2.253760e+00 1.006080e+00 2.824419e-01
<GCONST> 7.640461e+01
<STATE> 4
<MEAN> 25
 -5.188169e+00 -4.262025e+00 2.106179e+00 1.429857e+00 -2.233517e+00 5.947789e-02 4.551165e+00 2.699099e+00 6.116959e-01 1.819453e+00 3.793257e+00 3.931699e+00 9.865244e-01 1.047662e+00 -6.669888e-01 -7.644281e-03 -4.855091e-01 -2.171665e-01 -8.699650e-02 -8.812873e-01 -7.254311e-01 1.253790e-01 -4.954448e-01 -5.606639e-01 -1.039310e-01
<VARIANCE> 25
 2.126195e+00 3.687119e+00 5.744017e+00 3.530424e+00 5.696530e+00 8.508039e+00 7.181774e+00 1.025827e+01 1.121975e+01 6.540277e+00 7.736217e+00 7.936270e+00 1.049151e+00 6.294378e-01 1.580025e+00 5.516881e-01 3.614619e-01 8.688871e-01 1.873137e+00 1.295471e+00 1.151712e+00 1.582397e+00 1.625757e+00 2.131545e+00 8.689536e-01
<GCONST> 6.848779e+01
<TRANSP> 5
 0.000000e+00 1.000000e+00 0.000000e+00 0.000000e+00 0.000000e+00
 0.000000e+00 8.470332e-01 1.529668e-01 0.000000e+00 0.000000e+00
 0.000000e+00 0.000000e+00 7.424505e-01 2.575495e-01 0.000000e+00
 0.000000e+00 0.000000e+00 0.000000e+00 8.261148e-01 1.738852e-01
 0.000000e+00 0.000000e+00 0.000000e+00 0.000000e+00 0.000000e+00
<ENDHMM>
~h "ee"
<BEGINHMM>
<NUMSTATES> 5
<STATE> 2
<MEAN> 25
 7.339987e+00 4.945389e+00 -1.990287e+00 1.040863e+00 1.990213e+00 -1.921942e+00 -2.837477e+00 -4.923830e-01 -5.391479e-01 -1.652797e+00 -3.502604e+00 -4.435330e+00 -1.262819e-01 6.142585e-01 2.742487e-01 -5.187601e-01 -5.734377e-01 3.051369e-01 8.080342e-01 5.979622e-01 7.307752e-01 5.371269e-01 -4.288555e-01 -6.115712e-01 -2.541905e-01
<VARIANCE> 25
 6.130784e+00 6.781398e+00 9.611846e+00 3.431505e+01 3.902500e+01 1.316277e+01 1.205161e+01 1.070246e+01 1.583624e+01 1.602031e+01 1.128281e+01 1.706627e+01 2.474929e-01 4.783700e-01 5.815824e-01 1.364007e+00 1.846627e+00 8.217468e-01 1.423407e+00 1.190075e+00 2.331713e+00 2.329916e+00 1.197266e+00 1.390599e+00 1.241834e-01
<GCONST> 7.606583e+01
<STATE> 3
<MEAN> 25
 6.375859e+00 5.181306e+00 -7.875913e-01 2.155210e+00 3.763252e+00 -1.865962e-01 -1.986694e+00 -2.170689e-01 5.792191e-01 -7.345629e-01 -4.701801e+00 -5.552802e+00 -5.871828e-02 -2.770951e-01 -3.344796e-01 -2.171747e-01 1.728501e-01 8.976573e-02 -1.666613e-01 -6.841799e-02 3.317751e-01 3.675680e-01 6.756467e-02 2.604031e-01 -1.411840e-03
<VARIANCE> 25
 5.461845e+00 6.639101e+00 1.200964e+01 2.063265e+01 1.889003e+01 1.062418e+01 1.179777e+01 5.309310e+00 1.638867e+01 1.458733e+01 1.326983e+01 1.331466e+01 2.894596e-01 7.161038e-01 1.224599e+00 1.379997e+00 1.149777e+00 1.101084e+00 1.121055e+00 7.001883e-01 1.060125e+00 9.133127e-01 1.100222e+00 1.107231e+00 2.848534e-01
<GCONST> 7.299458e+01
<STATE> 4
<MEAN> 25
 6.333098e+00 4.060228e+00 -2.455840e+00 1.450732e+00 4.130480e+00 -1.388756e-02 -2.428097e+00 -8.246630e-01 7.158974e-01 -2.420926e-02 -3.580611e+00 -3.701796e+00 -1.091618e-01 -5.272169e-01 -7.788267e-01 -4.547985e-01 -9.098536e-02 -9.845208e-02 -1.907541e-01 7.217035e-02 3.219934e-01 5.708385e-01 7.351896e-01 9.138042e-01 1.077855e-02
<VARIANCE> 25
 4.599751e+00 6.130873e+00 1.155949e+01 1.141459e+01 1.250775e+01 1.085998e+01 1.140477e+01 7.303426e+00 1.842397e+01 1.252951e+01 1.007536e+01 1.874943e+01 6.222754e-01 9.258388e-01 1.845408e+00 1.202498e+00 7.751726e-01 1.214602e+00 2.049087e+00 6.297690e-01 1.180526e+00 7.481757e-01 1.081983e+00 1.127497e+00 5.747402e-01
<GCONST> 7.414668e+01
<TRANSP> 5
 0.000000e+00 1.000000e+00 0.000000e+00 0.000000e+00 0.000000e+00
 0.000000e+00 7.102139e-01 2.897862e-01 0.000000e+00 0.000000e+00
 0.000000e+00 0.000000e+00 4.739372e-01 5.260628e-01 0.000000e+00
 0.000000e+00 0.000000e+00 0.000000e+00 2.854471e-01 7.145530e-01
 0.000000e+00 0.000000e+00 0.000000e+00 0.000000e+00 0.000000e+00
<ENDHMM>
~h "ii"
<BEGINHMM>
<NUMSTATES> 5
<STATE> 2
<MEAN> 25
 4.141238e+00 5.792566e+00 1.165462e+00 1.065191e+00 -1.727970e-01 -2.596886e+00 -2.007773e+00 -2.755762e-01 -1.372982e+00 -2.546568e+00 -5.195518e+00 -4.089618e+00 1.507046e+00 -1.197550e+00 -1.352437e+00 1.823716e-01 5.197617e-01 -1.760576e+00 -2.642823e+00 -9.100125e-01 -7.185477e-01 -8.672254e-01 -3.211841e-01 -1.096969e-01 1.395693e+00
<VARIANCE> 25
 1.840884e+01 1.179372e+01 6.155416e+00 6.171431e+00 7.918429e+00 2.026727e+01 1.903837e+01 8.881371e+00 9.500793e+00 9.288287e+00 1.562209e+01 2.209023e+01 9.751492e-01 1.525125e+00 1.467759e+00 1.231223e+00 2.051495e+00 2.539701e+00 2.223069e+00 1.095544e+00 1.400467e+00 1.213730e+00 1.529866e+00 1.857820e+00 5.358460e-01
<GCONST> 7.997774e+01
<STATE> 3
<MEAN> 25
 7.271073e+00 3.576460e+00 -1.965060e+00 1.929410e+00 1.687890e+00 -5.479369e+00 -6.287574e+00 -1.277977e+00 -2.215635e+00 -4.456082e+00 -6.476658e+00 -4.028307e+00 1.279544e+00 -2.030027e+00 -1.354287e+00 6.677523e-01 1.421814e+00 -6.287032e-01 -2.208165e+00 -1.279072e+00 -1.317000e+00 -6.734578e-01 4.685701e-01 3.513816e-01 1.545136e+00
<VARIANCE> 25
 1.869252e+01 8.657626e+00 8.875899e+00 7.308625e+00 1.211247e+01 2.403928e+01 2.043692e+01 1.556816e+01 1.441546e+01 1.193169e+01 1.774850e+01 1.884275e+01 1.003773e+00 2.247595e+00 2.194241e+00 1.045017e+00 1.767778e+00 2.417847e+00 2.293868e+00 8.546809e-01 1.311746e+00 1.471506e+00 1.878087e+00 2.411912e+00 4.225115e-01
<GCONST> 8.267840e+01
<STATE> 4
<MEAN> 25
 7.852633e+00 -4.213885e-01 -3.167382e+00 4.264633e+00 5.309541e+00 -5.097075e+00 -8.597076e+00 -3.720020e+00 -5.299195e+00 -5.285378e+00 -4.017182e+00 -3.837278e+00 -7.687479e-03 -1.959826e+00 -4.231519e-02 4.640633e-01 1.227049e+00 1.137584e+00 -6.527795e-01 -1.606951e+00 -1.490334e+00 -7.449943e-02 1.199885e+00 1.619129e-01 9.409045e-01
<VARIANCE> 25
 1.878000e+01 1.217619e+01 1.151853e+01 1.435969e+01 1.209612e+01 2.366809e+01 2.778121e+01 1.465161e+01 2.120808e+01 1.682389e+01 2.001449e+01 1.519609e+01 2.100051e+00 2.904305e+00 3.014149e+00 1.407028e+00 2.439636e+00 2.325728e+00 3.187684e+00 8.734719e-01 1.484184e+00 1.317857e+00 3.080521e+00 2.296040e+00 5.222109e-01
<GCONST> 8.773850e+01
<TRANSP> 5
 0.000000e+00 1.000000e+00 0.000000e+00 0.000000e+00 0.000000e+00
 0.000000e+00 5.579125e-02 9.442088e-01 0.000000e+00 0.000000e+00
 0.000000e+00 0.000000e+00 1.451469e-01 8.548532e-01 0.000000e+00
 0.000000e+00 0.000000e+00 0.000000e+00 1.734686e-01 8.265314e-01
 0.000000e+00 0.000000e+00 0.000000e+00 0.000000e+00 0.000000e+00
<ENDHMM>
~h "ll"
<BEGINHMM>
<NUMSTATES> 5
<STATE> 2
<MEAN> 25
 8.609472e+00 -2.768589e+00 -2.858360e+00 3.694282e+00 6.021152e+00 -2.328138e+00 -9.541861e+00 -6.405961e+00 -7.357558e+00 -4.750747e+00 -2.183741e+00 -3.233736e+00 -2.383570e+00 -1.749272e+00 3.119250e+00 -9.222173e-01 -1.413191e+00 2.931079e+00 2.013295e+00 -2.144577e+00 -1.347744e+00 1.050836e+00 2.512008e+00 -4.340991e-01 2.107868e-01
<VARIANCE> 25
 7.561586e+00 7.787582e+00 1.770251e+01 6.326173e+00 1.771142e+01 1.618901e+01 2.322387e+01 9.452339e+00 1.051007e+01 1.362809e+01 1.318829e+01 1.194727e+01 1.772633e+00 7.942187e-01 3.015465e+00 1.442669e+00 2.778026e+00 8.645418e-01 2.312106e+00 8.597574e-01 1.037452e+00 5.587833e-01 8.807431e-01 9.479139e-01 1.699499e-01
<GCONST> 7.669280e+01
<STATE> 3
<MEAN> 25
 2.704943e+00 -4.782316e+00 5.581530e+00 5.822971e-01 3.746405e-01 3.414723e+00 -3.352288e+00 -1.045695e+01 -9.390425e+00 -2.808337e+00 1.614994e+00 -5.199289e+00 -4.093781e+00 -1.232147e+00 4.808894e+00 -2.459838e+00 -2.981910e+00 2.512488e+00 3.197577e+00 -1.385961e+00 -2.353816e-01 7.555599e-01 2.416512e+00 -7.513386e-01 6.823973e-02
<VARIANCE> 25
 2.085292e+01 5.420401e+00 3.244571e+01 1.499828e+01 2.056429e+01 1.192780e+01 2.766378e+01 8.979492e+00 1.048491e+01 9.706612e+00 1.381051e+01 1.181843e+01 5.373030e-01 5.752992e-01 1.141870e+00 1.001716e+00 8.494992e-01 1.364992e+00 1.078751e+00 1.471834e+00 1.099791e+00 8.733378e-01 9.079882e-01 1.238723e+00 1.218730e-01
<GCONST> 7.514058e+01
<STATE> 4
<MEAN> 25
 -1.015000e+01 -6.351916e+00 1.642585e+01 -8.137848e+00 -4.054090e+00 7.891415e+00 2.137717e+00 -6.438610e+00 -3.643268e+00 -2.015510e+00 7.345608e+00 -5.399648e+00 -1.303559e+00 -2.099841e-01 7.619933e-01 -6.549356e-01 -4.212261e-01 3.373827e-01 6.218981e-01 1.044478e+00 1.146327e+00 3.565137e-01 5.222797e-01 1.094927e-01 -2.882831e-01
<VARIANCE> 25
 9.347368e+00 5.048401e+00 8.517742e+00 1.160233e+01 1.173826e+01 1.041706e+01 9.643944e+00 1.900717e+01 1.916826e+01 9.209153e+00 1.105523e+01 8.963918e+00 1.809272e+00 4.929461e-01 2.412230e+00 2.443409e+00 1.207166e+00 1.421552e+00 9.036664e-01 9.216942e-01 7.817812e-01 8.705051e-01 1.110691e+00 7.471656e-01 7.882768e-02
<GCONST> 7.308634e+01
<TRANSP> 5
 0.000000e+00 1.000000e+00 0.000000e+00 0.000000e+00 0.000000e+00
 0.000000e+00 3.112072e-01 6.887928e-01 0.000000e+00 0.000000e+00
 0.000000e+00 0.000000e+00 3.742977e-01 6.257023e-01 0.000000e+00
 0.000000e+00 0.000000e+00 0.000000e+00 8.795189e-01 1.204811e-01
 0.000000e+00 0.000000e+00 0.000000e+00 0.000000e+00 0.000000e+00
<ENDHMM>
~h "mm"
<BEGINHMM>
<NUMSTATES> 5
<STATE> 2
<MEAN> 25
 6.618585e+00 5.243036e-01 -5.866951e+00 1.607532e+00 5.536658e+00 -2.146368e+00 -5.178925e+00 -1.788278e-01 9.138723e-01 -2.820972e-01 -7.401698e-01 9.617567e-01 3.577843e-02 -6.318744e-01 -9.368103e-01 -8.991910e-01 -7.544055e-01 -6.768936e-01 -2.561711e-01 4.655044e-01 4.824900e-01 4.743872e-01 9.985942e-01 1.161210e+00 1.811888e-01
<VARIANCE> 25
 6.140162e+00 8.723279e+00 5.539140e+00 1.041327e+01 1.049262e+01 1.463736e+01 2.166158e+01 6.557341e+00 1.003652e+01 7.254943e+00 1.054292e+01 9.327324e+00 5.605814e-01 9.005906e-01 9.177057e-01 5.991554e-01 5.047951e-01 1.115128e+00 2.096027e+00 7.427669e-01 1.195081e+00 8.381183e-01 9.821173e-01 1.093949e+00 5.334342e-01
<GCONST> 7.088078e+01
<STATE> 3
<MEAN> 25
 6.315884e+00 7.290161e-01 -6.518200e+00 -1.106628e+00 2.841541e+00 -2.026039e+00 -3.476487e+00 6.923350e-01 1.632675e+00 5.418093e-01 3.847522e-02 2.354385e+00 -4.901296e-01 2.794904e-01 2.055853e-02 -9.535359e-01 -1.201840e+00 3.693196e-01 1.013123e+00 3.047138e-01 1.254374e-01 4.466571e-01 4.389574e-01 4.763792e-01 -4.696037e-01
<VARIANCE> 25
 8.049305e+00 4.875154e+00 6.001449e+00 6.060342e+00 8.700307e+00 9.915775e+00 1.701609e+01 7.940062e+00 8.520413e+00 8.091758e+00 6.499733e+00 9.336868e+00 4.533226e-01 6.713556e-01 5.288624e-01 5.230601e-01 4.765090e-01 1.087913e+00 1.302220e+00 1.234065e+00 1.075068e+00 5.084887e-01 7.440052e-01 8.932078e-01 3.257531e-01
<GCONST> 6.612152e+01
<STATE> 4
<MEAN> 25
 1.909350e+00 2.374778e+00 -4.140901e+00 -2.622519e+00 -1.455586e-01 1.138448e+00 2.255873e+00 2.129752e+00 9.372531e-01 1.626974e+00 1.164959e+00 2.623620e+00 -8.994215e-01 3.120259e-02 4.453484e-01 1.732497e-02 -2.889634e-01 4.325907e-01 8.812649e-01 5.105667e-01 1.062718e-01 1.936553e-01 1.838207e-01 2.477734e-02 -6.343824e-01
<VARIANCE> 25
 1.162692e+01 3.659607e+00 5.302836e+00 6.503129e+00 6.498124e+00 7.030680e+00 1.601901e+01 1.559979e+01 8.187352e+00 8.238037e+00 6.572533e+00 8.613523e+00 3.097466e-01 4.379237e-01 4.175531e-01 4.358783e-01 6.032042e-01 5.345450e-01 8.369924e-01 9.733670e-01 1.067160e+00 6.652656e-01 5.970196e-01 7.248929e-01 1.663833e-01
<GCONST> 6.281676e+01
<TRANSP> 5
 0.000000e+00 1.000000e+00 0.000000e+00 0.000000e+00 0.000000e+00
 0.000000e+00 4.911484e-01 5.088516e-01 0.000000e+00 0.000000e+00
 0.000000e+00 0.000000e+00 4.665304e-01 5.334696e-01 0.000000e+00
 0.000000e+00 0.000000e+00 0.000000e+00 8.040745e-01 1.959255e-01
 0.000000e+00 0.000000e+00 0.000000e+00 0.000000e+00 0.000000e+00
<ENDHMM>
~h "nn"
<BEGINHMM>
<NUMSTATES> 5
<STATE> 2
<MEAN> 25
 2.447807e+00 2.144578e+00 -3.232740e+00 1.135692e+00 3.667247e+00 1.846754e+00 3.822427e-01 -1.064741e+00 -2.055904e+00 -4.663925e-01 -2.716004e-01 7.489675e-01 -8.122573e-01 5.211828e-02 1.417787e-02 -3.039609e-01 -3.818401e-01 1.822442e-01 4.907814e-01 1.471858e-01 7.531250e-01 1.330824e+00 5.653418e-01 7.120031e-01 -6.914400e-01
<VARIANCE> 25
 3.367898e+00 3.960283e+00 3.070900e+00 9.615194e+00 9.259997e+00 1.380954e+01 1.683404e+01 1.059422e+01 1.512316e+01 1.540054e+01 1.110798e+01 1.517816e+01 4.772434e-01 7.267805e-01 3.919798e-01 3.699177e-01 4.707869e-01 6.874377e-01 1.076268e+00 8.553389e-01 1.079458e+00 5.279757e-01 8.901706e-01 1.297403e+00 3.071185e-01
<GCONST> 6.673626e+01
<STATE> 3
<MEAN> 25
 1.791865e+00 1.531856e+00 -3.624510e+00 8.100419e-01 3.080863e+00 8.609028e-01 -2.870802e-01 3.016795e-01 1.030624e+00 2.161908e+00 4.560012e-01 2.049853e+00 -3.417929e-01 1.601329e-01 2.009959e-01 -1.166550e-01 -2.050061e-01 1.716456e-01 4.082314e-01 2.419962e-01 3.627039e-01 2.817566e-01 -1.164788e-01 -3.679339e-02 -2.901007e-01
<VARIANCE> 25
 7.387015e+00 4.527726e+00 4.485747e+00 7.457636e+00 6.767568e+00 2.131687e+01 1.946852e+01 5.615196e+00 9.476029e+00 1.359942e+01 1.224552e+01 1.464363e+01 4.229544e-01 3.900148e-01 3.121630e-01 9.340093e-01 3.633346e-01 5.842149e-01 8.774168e-01 7.139977e-01 1.323171e+00 8.629646e-01 7.627564e-01 7.451820e-01 1.093002e-01
<GCONST> 6.498281e+01
<STATE> 4
<MEAN> 25
 1.257368e+00 2.863778e+00 -1.802106e+00 1.555110e+00 2.741364e+00 1.842513e+00 1.366522e+00 4.189341e-02 -5.308619e-01 2.017965e-01 -8.157706e-01 6.240569e-01 3.187068e-01 2.724295e-01 5.153301e-01 7.768808e-01 4.194297e-01 -5.549605e-01 -5.433486e-01 -9.716436e-03 4.499592e-03 -2.283916e-01 -2.693864e-01 -8.672321e-01 2.257065e-01
<VARIANCE> 25
 8.034637e+00 5.126095e+00 6.173557e+00 5.972612e+00 9.677369e+00 1.730766e+01 1.503071e+01 5.678530e+00 5.692992e+00 7.376179e+00 1.482158e+01 1.617867e+01 7.348593e-01 5.036182e-01 5.795750e-01 1.108568e+00 1.266010e+00 1.691990e+00 2.234362e+00 6.346993e-01 1.105468e+00 5.969718e-01 1.509010e+00 2.038293e+00 4.419435e-01
<GCONST> 7.162359e+01
<TRANSP> 5
 0.000000e+00 1.000000e+00 0.000000e+00 0.000000e+00 0.000000e+00
 0.000000e+00 5.743659e-01 4.256341e-01 0.000000e+00 0.000000e+00
 0.000000e+00 0.000000e+00 3.646418e-01 6.353582e-01 0.000000e+00
 0.000000e+00 0.000000e+00 0.000000e+00 4.513637e-01 5.486363e-01
 0.000000e+00 0.000000e+00 0.000000e+00 0.000000e+00 0.000000e+00
<ENDHMM>
~h "oo"
<BEGINHMM>
<NUMSTATES> 5
<STATE> 2
<MEAN> 25
 7.708541e+00 6.279990e+00 -3.124359e-01 -2.174280e+00 -7.680820e+00 -1.180877e+01 -7.555019e+00 2.007501e+00 5.350477e+00 -1.075547e+00 -7.102508e+00 -5.268419e+00 6.409402e-01 -6.725047e-01 -1.012294e+00 -5.729540e-01 -1.917471e-01 -3.648791e-01 -2.509417e-02 1.005625e+00 1.104099e+00 -6.852785e-01 -1.554833e+00 -9.257383e-01 6.467302e-01
<VARIANCE> 25
 6.627785e+00 7.833698e+00 7.838390e+00 6.582029e+00 1.633854e+01 3.118826e+01 1.928353e+01 1.031784e+01 2.180829e+01 1.209414e+01 2.025853e+01 1.233312e+01 8.629426e-01 9.111744e-01 9.434111e-01 9.371747e-01 2.177985e+00 3.546629e+00 1.550620e+00 1.608315e+00 3.553088e+00 1.934085e+00 3.641407e+00 2.354877e+00 2.339292e-01
<GCONST> 8.168083e+01
<STATE> 3
<MEAN> 25
 8.262533e+00 5.122303e+00 -2.018958e+00 -2.768107e+00 -6.659480e+00 -1.067728e+01 -6.337611e+00 3.008165e+00 5.714552e+00 -2.548213e+00 -9.186323e+00 -6.062344e+00 2.101390e-01 -8.641319e-01 -1.069522e+00 -5.653040e-02 1.249560e+00 1.194962e+00 3.679525e-01 -1.284043e-01 -4.952172e-01 -1.115234e+00 -7.930421e-01 -1.519065e-02 3.880062e-01
<VARIANCE> 25
 7.090767e+00 6.808105e+00 7.767916e+00 8.353201e+00 2.053314e+01 3.014585e+01 1.606057e+01 1.064987e+01 2.306123e+01 1.761990e+01 2.718166e+01 1.223713e+01 4.144094e-01 1.050511e+00 9.888180e-01 9.098521e-01 3.314219e+00 3.580522e+00 1.025317e+00 1.890181e+00 3.454521e+00 2.167124e+00 2.774121e+00 2.240696e+00 2.246301e-01
<GCONST> 8.192565e+01
<STATE> 4
<MEAN> 25
 7.735534e+00 1.840417e+00 -4.010726e+00 -7.765998e-01 -5.749832e-01 -4.912450e+00 -5.935100e+00 -4.154140e-01 1.155889e+00 -4.826072e+00 -8.221096e+00 -3.889321e+00 -5.474899e-01 -1.153766e+00 -1.951773e-01 6.235862e-01 1.560719e+00 2.216686e+00 5.818188e-01 -1.448685e+00 -1.282340e+00 4.404883e-02 8.045958e-01 6.583567e-01 6.082120e-03
<VARIANCE> 25
 8.511015e+00 1.432844e+01 1.252576e+01 1.089453e+01 3.234776e+01 4.001236e+01 1.457477e+01 2.336419e+01 3.101822e+01 2.773732e+01 3.185726e+01 1.763270e+01 7.486634e-01 1.621109e+00 2.133225e+00 1.165724e+00 3.409049e+00 4.201931e+00 1.717390e+00 2.817194e+00 3.352520e+00 2.520677e+00 2.892232e+00 2.149127e+00 3.178449e-01
<GCONST> 8.990947e+01
<TRANSP> 5
 0.000000e+00 1.000000e+00 0.000000e+00 0.000000e+00 0.000000e+00
 0.000000e+00 1.712273e-01 8.287727e-01 0.000000e+00 0.000000e+00
 0.000000e+00 0.000000e+00 1.444685e-01 8.555315e-01 0.000000e+00
 0.000000e+00 0.000000e+00 0.000000e+00 5.566825e-01 4.433175e-01
 0.000000e+00 0.000000e+00 0.000000e+00 0.000000e+00 0.000000e+00
<ENDHMM>
~h "rr"
<BEGINHMM>
<NUMSTATES> 5
<STATE> 2
<MEAN> 25
 5.423896e+00 -6.721402e-01 -5.111247e-01 8.406999e+00 9.215914e+00 -1.583023e+00 -1.080720e+01 -6.235240e+00 -3.132271e+00 -4.615722e+00 -5.019311e+00 -5.328886e+00 2.716869e-01 -4.048089e-01 -1.617719e-01 5.453673e-01 5.765827e-01 -3.283926e-01 -9.271668e-01 -2.461773e-01 2.265171e-01 -6.177847e-02 -1.119908e-01 -8.115175e-02 2.904615e-01
<VARIANCE> 25
 5.232021e+00 1.350835e+01 7.271727e+00 1.358094e+01 1.740719e+01 1.570538e+01 4.821334e+01 1.406703e+01 1.474306e+01 1.072422e+01 9.037189e+00 8.352135e+00 5.099440e-01 1.182508e+00 7.651634e-01 1.246211e+00 1.615616e+00 1.334786e+00 3.965991e+00 2.208726e+00 1.384222e+00 1.363144e+00 1.058179e+00 9.581181e-01 3.167669e-01
<GCONST> 7.819959e+01
<STATE> 3
<MEAN> 25
 6.581850e+00 -7.914534e-01 -1.950324e+00 7.993666e+00 8.796628e+00 -3.396188e+00 -1.021072e+01 -3.307599e+00 -3.706694e-02 -2.745786e+00 -3.834718e+00 -2.838403e+00 3.252119e-03 3.726077e-01 -1.761255e-01 -6.879668e-01 -3.969299e-01 6.814303e-01 1.338486e+00 1.262424e-01 -2.439803e-01 5.394017e-01 6.255970e-01 3.743567e-01 -1.265143e-01
<VARIANCE> 25
 6.339908e+00 1.175575e+01 1.489447e+01 9.772163e+00 6.050683e+00 1.570677e+01 2.584021e+01 1.717631e+01 2.204979e+01 1.153031e+01 1.432263e+01 1.241644e+01 3.574738e-01 2.452549e+00 1.748719e+00 6.274074e-01 6.879779e-01 2.412965e+00 4.351192e+00 8.651103e-01 1.801029e+00 9.123065e-01 1.382650e+00 1.852239e+00 5.341474e-01
<GCONST> 7.921098e+01
<STATE> 4
<MEAN> 25
 5.338154e+00 4.233667e-01 -4.926585e-01 5.901046e+00 6.625058e+00 -6.738886e-03 -5.661362e+00 -4.496243e+00 -3.507059e+00 -2.657962e+00 -2.061786e+00 -2.747785e+00 -8.610480e-01 4.078103e-01 1.102588e+00 -9.576985e-01 -1.205108e+00 1.148895e+00 2.300571e+00 2.939267e-01 -5.804155e-01 2.375783e-01 7.695793e-01 -1.094426e-01 -3.490041e-01
<VARIANCE> 25
 1.012930e+01 1.147599e+01 1.915501e+01 1.535978e+01 1.047849e+01 1.299060e+01 1.889835e+01 1.645937e+01 2.084230e+01 1.099820e+01 1.452044e+01 1.161173e+01 1.208862e+00 1.642827e+00 2.552395e+00 1.266408e+00 1.972470e+00 1.354871e+00 3.338437e+00 1.093773e+00 1.837522e+00 9.819711e-01 2.213607e+00 8.954540e-01 3.318834e-01
<GCONST> 8.191164e+01
<TRANSP> 5
 0.000000e+00 1.000000e+00 0.000000e+00 0.000000e+00 0.000000e+00
 0.000000e+00 9.129351e-01 8.706485e-02 0.000000e+00 0.000000e+00
 0.000000e+00 0.000000e+00 5.816295e-01 4.183705e-01 0.000000e+00
 0.000000e+00 0.000000e+00 0.000000e+00 2.979229e-01 7.020772e-01
 0.000000e+00 0.000000e+00 0.000000e+00 0.000000e+00 0.000000e+00
<ENDHMM>
~h "ss"
<BEGINHMM>
<NUMSTATES> 5
<STATE> 2
<MEAN> 25
 1.856725e+00 5.622215e+00 2.145660e+00 2.359390e+00 1.663743e+00 2.027414e+00 3.699950e+00 1.808168e+00 1.077782e-01 -6.983505e-01 -3.972064e+00 -4.473669e+00 6.453013e-01 4.219912e-01 4.673387e-01 1.415949e-01 -4.007409e-01 -7.726332e-01 -6.374753e-01 -5.456647e-01 -6.365898e-01 -6.921974e-01 -3.114314e-01 -4.645111e-01 4.752175e-01
<VARIANCE> 25
 9.042132e+00 8.346663e+00 7.687639e+00 6.248796e+00 8.496624e+00 8.560333e+00 1.276012e+01 7.278422e+00 1.166127e+01 7.481937e+00 1.613709e+01 2.618604e+01 6.964350e-01 8.801461e-01 4.995754e-01 6.655169e-01 5.093595e-01 7.446194e-01 8.723330e-01 6.251541e-01 9.050636e-01 1.447512e+00 1.661360e+00 2.304397e+00 1.990093e-01
<GCONST> 7.030754e+01
<STATE> 3
<MEAN> 25
 2.484699e+00 6.186470e+00 2.903629e+00 2.609966e+00 9.955962e-01 7.796058e-01 2.545949e+00 6.332009e-01 -1.340190e+00 -2.091180e+00 -4.118142e+00 -3.831682e+00 1.023038e+00 2.594313e-01 -9.158121e-03 -2.420742e-01 -6.268017e-01 -1.471668e+00 -1.733891e+00 -9.782044e-01 -7.076827e-01 -8.531754e-01 -5.176443e-01 -1.479289e-01 7.267093e-01
<VARIANCE> 25
 7.955842e+00 9.471244e+00 6.315405e+00 6.015286e+00 1.023275e+01 8.267279e+00 1.362795e+01 8.321589e+00 1.201136e+01 8.158449e+00 1.055140e+01 1.635373e+01 5.358660e-01 6.788549e-01 3.983144e-01 6.340083e-01 9.894038e-01 8.325273e-01 9.906638e-01 7.857821e-01 1.112111e+00 9.510280e-01 1.316161e+00 2.103507e+00 2.317078e-01
<GCONST> 6.959116e+01
<STATE> 4
<MEAN> 25
 3.647068e+00 6.521268e+00 2.723549e+00 2.025717e+00 5.218329e-01 -1.162626e+00 -4.113575e-01 -1.076643e+00 -2.255955e+00 -3.156153e+00 -5.221273e+00 -4.614210e+00 1.464576e+00 -2.840499e-01 -8.686218e-01 -3.542721e-01 -3.326118e-01 -2.084353e+00 -2.807567e+00 -1.016990e+00 -5.241503e-01 -1.062336e+00 -8.409752e-01 -2.045724e-02 1.101519e+00
<VARIANCE> 25
 7.933360e+00 1.000354e+01 7.239971e+00 3.907591e+00 7.248956e+00 8.589915e+00 1.057350e+01 1.001638e+01 1.092589e+01 1.040424e+01 1.478575e+01 1.181847e+01 4.705774e-01 8.381763e-01 6.989259e-01 6.778820e-01 1.683150e+00 1.695361e+00 9.180743e-01 1.170391e+00 1.498611e+00 1.028764e+00 1.486526e+00 1.947613e+00 3.102699e-01
<GCONST> 7.212293e+01
<TRANSP> 5
 0.000000e+00 1.000000e+00 0.000000e+00 0.000000e+00 0.000000e+00
 0.000000e+00 9.346792e-02 9.065321e-01 0.000000e+00 0.000000e+00
 0.000000e+00 0.000000e+00 1.351539e-02 9.864846e-01 0.000000e+00
 0.000000e+00 0.000000e+00 0.000000e+00 5.126475e-02 9.487352e-01
 0.000000e+00 0.000000e+00 0.000000e+00 0.000000e+00 0.000000e+00
<ENDHMM>
~h "tt"
<BEGINHMM>
<NUMSTATES> 5
<STATE> 2
<MEAN> 25
 -2.615274e+00 -3.349529e+00 5.006779e+00 -1.068889e+00 -2.543660e+00 1.171334e+00 1.642245e+00 -2.564620e+00 -5.183363e+00 1.045028e+00 4.139410e+00 -8.579667e-01 -3.996440e-01 -6.649936e-01 1.091202e+00 9.814710e-01 1.946076e-01 -1.864740e-02 -6.656928e-02 3.181785e-02 1.722845e-01 -8.264918e-02 -2.029998e-01 -6.426883e-01 2.477711e-01
<VARIANCE> 25
 1.929704e+01 1.457497e+01 3.200336e+01 3.392001e+01 2.848847e+01 1.187636e+01 3.121115e+01 1.720535e+01 1.525463e+01 1.270242e+01 2.849175e+01 2.063083e+01 5.288392e+00 3.583641e+00 6.342344e+00 3.013228e+00 5.941352e+00 8.748582e-01 7.604132e+00 3.464203e+00 1.546459e+00 2.054823e+00 6.399092e+00 1.539649e+00 4.902350e-01
<GCONST> 9.587174e+01
<STATE> 3
<MEAN> 25
 -1.579763e+00 -3.869916e+00 4.526291e+00 2.336770e+00 1.098281e+00 1.588598e+00 -1.048984e+00 -3.855808e+00 -4.226255e+00 -2.841790e-01 1.522860e+00 -2.047427e+00 -2.435430e-01 7.914773e-02 -3.775993e-01 1.608789e-01 1.827952e-01 2.327564e-01 4.697122e-01 4.345052e-01 4.289678e-01 1.973780e-01 1.381038e-01 3.717884e-01 -4.198729e-01
<VARIANCE> 25
 3.001204e+01 2.195089e+01 2.983919e+01 2.021191e+01 3.730099e+01 1.292272e+01 4.839934e+01 3.297451e+01 1.179469e+01 1.721012e+01 4.159558e+01 1.297270e+01 1.732066e+00 2.256085e+00 2.877147e+00 1.544037e+00 2.207223e+00 9.830759e-01 3.586680e+00 1.754087e+00 1.623066e+00 1.084491e+00 2.847313e+00 1.294626e+00 7.745563e-01
<GCONST> 9.107920e+01
<STATE> 4
<MEAN> 25
 -3.358620e+00 -1.181023e+00 2.407000e-01 4.875750e-01 3.473738e-01 2.178690e+00 3.144039e+00 5.726027e-01 -1.259561e+00 2.130694e+00 3.122665e+00 2.597745e+00 -1.195218e-01 2.369574e-01 -2.480231e-01 4.978303e-02 3.886317e-02 1.084634e-01 2.914657e-01 4.239587e-01 4.136445e-01 1.021726e-01 9.398684e-03 1.998217e-01 -3.219045e-01
<VARIANCE> 25
 8.825553e+00 1.532785e+01 1.971271e+01 8.957921e+00 1.161689e+01 6.899599e+00 1.311429e+01 1.501584e+01 1.178047e+01 1.106162e+01 1.458077e+01 1.635616e+01 6.074030e-01 9.942419e-01 1.389240e+00 8.655486e-01 8.533329e-01 6.781439e-01 9.433234e-01 1.102187e+00 8.909250e-01 9.066569e-01 1.181829e+00 1.307464e+00 3.268751e-01
<GCONST> 7.431446e+01
<TRANSP> 5
 0.000000e+00 1.000000e+00 0.000000e+00 0.000000e+00 0.000000e+00
 0.000000e+00 6.176048e-01 3.823952e-01 0.000000e+00 0.000000e+00
 0.000000e+00 0.000000e+00 3.846548e-01 6.153451e-01 0.000000e+00
 0.000000e+00 0.000000e+00 0.000000e+00 7.775900e-01 2.224100e-01
 0.000000e+00 0.000000e+00 0.000000e+00 0.000000e+00 0.000000e+00
<ENDHMM>
~h "ur"
<BEGINHMM>
<NUMSTATES> 5
<STATE> 2
<MEAN> 25
 3.123821e+00 2.354337e+00 2.683996e+00 2.288634e+00 -3.188484e+00 -5.813276e+00 -1.511126e+00 4.855243e+00 4.652498e-01 -8.346505e+00 -6.515665e+00 -2.743101e+00 -2.950799e-01 -3.683589e-01 1.852101e+00 2.446940e-01 -2.195223e-01 3.136790e-01 -3.594865e-01 5.421487e-01 3.895181e-01 -1.575888e+00 -2.520877e-01 -5.031070e-01 4.979826e-01
<VARIANCE> 25
 1.710808e+01 1.253910e+01 1.993945e+01 5.268809e+00 5.125737e+00 1.814586e+01 2.727400e+01 1.315345e+01 1.928706e+01 1.820422e+01 5.660928e+01 1.903352e+01 4.614621e+00 3.390337e+00 1.914960e+00 1.597325e+00 6.948643e-01 2.306195e+00 5.811422e+00 1.467495e+00 2.599399e+00 1.200951e+00 1.551904e+01 2.877752e+00 9.487878e-02
<GCONST> 8.829408e+01
<STATE> 3
<MEAN> 25
 -6.664939e+00 -5.083081e+00 1.247207e+01 -5.545838e-01 -4.791046e+00 -1.517806e+00 4.032506e+00 8.030460e+00 4.221370e-01 -1.179011e+01 6.751081e+00 -4.288375e-02 -1.517615e+00 -9.685480e-01 1.731028e-01 -6.987723e-01 2.216092e-01 4.443478e-01 1.283774e+00 2.982915e-01 -5.867624e-01 8.218101e-01 2.409444e+00 5.956231e-01 -1.521882e-01
<VARIANCE> 25
 6.235072e+00 1.225035e+01 6.599495e+00 1.572581e+01 6.360091e+00 1.095074e+01 1.451434e+01 1.057600e+01 1.923100e+01 1.653239e+01 2.747348e+01 3.824084e+01 1.850384e+00 1.269858e+00 2.697277e+00 9.114801e-01 7.739614e-01 8.381330e-01 2.135920e+00 1.243997e+00 1.495985e+00 1.843624e+00 3.556825e+00 8.797753e-01 1.550233e-01
<GCONST> 7.951051e+01
<STATE> 4
<MEAN> 25
 -5.953941e+00 -3.566103e+00 4.394898e+00 4.788225e-01 -1.019132e+00 9.343272e-01 3.974107e+00 6.695102e+00 5.446188e-01 -3.814356e+00 6.362212e+00 4.452919e+00 1.237160e-01 4.832136e-01 -1.082315e+00 -1.771609e-01 4.130940e-01 3.350936e-01 3.983497e-01 -5.330172e-01 -2.592132e-01 1.493758e+00 -1.390672e-01 1.223466e-01 -5.086180e-01
<VARIANCE> 25
 4.375336e+00 9.916620e+00 3.614676e+01 1.211651e+01 1.004078e+01 6.166817e+00 1.831365e+01 1.948904e+01 1.187538e+01 3.228471e+01 1.522139e+01 2.698959e+01 5.470487e-01 5.414788e-01 1.170081e+00 5.295858e-01 8.995819e-01 4.919178e-01 9.074277e-01 1.054861e+00 8.286780e-01 1.192151e+00 1.344639e+00 8.871304e-01 1.982008e-01
<GCONST> 7.376128e+01
<TRANSP> 5
 0.000000e+00 1.000000e+00 0.000000e+00 0.000000e+00 0.000000e+00
 0.000000e+00 8.548025e-01 1.451975e-01 0.000000e+00 0.000000e+00
 0.000000e+00 0.000000e+00 7.381452e-01 2.618548e-01 0.000000e+00
 0.000000e+00 0.000000e+00 0.000000e+00 7.032970e-01 2.967030e-01
 0.000000e+00 0.000000e+00 0.000000e+00 0.000000e+00 0.000000e+00
<ENDHMM>
~h "yy"
<BEGINHMM>
<NUMSTATES> 5
<STATE> 2
<MEAN> 25
 5.892831e+00 -5.844747e-01 -1.881973e+00 8.308455e+00 1.058873e+01 -1.478569e+00 -1.294236e+01 -6.397708e+00 -4.189590e+00 -7.579873e+00 -4.999923e+00 -3.537950e+00 -1.329965e-01 -1.023125e+00 -1.230312e-01 1.573825e+00 1.413340e+00 -2.173766e-01 -1.130535e+00 -1.019814e+00 -4.782049e-02 7.937723e-01 8.015788e-01 -4.793707e-01 2.788609e-01
<VARIANCE> 25
 3.208007e+00 4.693053e+00 3.668619e+00 6.093336e+00 1.004920e+01 1.078602e+01 1.116256e+01 6.880089e+00 7.851118e+00 1.145364e+01 9.782105e+00 5.909875e+00 8.552184e-01 5.472498e-01 7.784896e-01 6.629660e-01 1.247138e+00 8.047046e-01 3.668913e+00 1.427733e+00 7.575471e-01 1.487485e+00 2.019816e+00 9.988688e-01 2.454732e-01
<GCONST> 6.900435e+01
<STATE> 3
<MEAN> 25
 3.158076e+00 -1.602798e+00 3.568789e-01 8.879584e+00 9.121390e+00 -7.000788e-01 -9.055907e+00 -6.341963e+00 -4.605948e+00 -4.810727e+00 -2.934945e+00 -4.646424e+00 -1.003631e+00 6.913120e-02 7.440029e-01 -2.673236e-01 -8.621002e-01 5.815830e-01 1.759266e+00 1.700081e-01 -3.346650e-01 1.053470e+00 8.171600e-01 -6.683040e-03 -5.713786e-01
<VARIANCE> 25
 1.115368e+01 7.483245e+00 1.276906e+01 1.063414e+01 2.241565e+01 1.093840e+01 4.617138e+01 8.008285e+00 9.489286e+00 8.457244e+00 1.022450e+01 7.938190e+00 1.338893e+00 8.678669e-01 2.028545e+00 1.629162e+00 2.616116e+00 1.093714e+00 5.873103e+00 1.102524e+00 9.699066e-01 1.325260e+00 1.594626e+00 1.397581e+00 5.814304e-01
<GCONST> 8.025392e+01
<STATE> 4
<MEAN> 25
 -1.375775e+00 -1.141833e+00 2.968446e+00 4.892078e+00 4.352011e+00 1.874944e+00 -1.062037e+00 -3.417227e+00 -5.561735e+00 -1.567546e+00 9.127702e-01 -2.765184e+00 -1.950449e+00 -9.285779e-01 1.415953e+00 -1.860408e+00 -2.097138e+00 4.555705e-01 2.375601e+00 1.369047e+00 1.902565e-01 9.950352e-01 1.616917e+00 4.469112e-01 -2.917861e-01
<VARIANCE> 25
 9.114103e+00 1.357105e+01 2.301767e+01 1.009106e+01 1.425921e+01 5.771352e+00 1.642802e+01 1.654163e+01 1.013674e+01 8.524059e+00 2.007446e+01 1.266480e+01 3.764647e-01 1.565006e+00 2.133956e+00 7.867780e-01 1.005661e+00 7.587672e-01 1.501394e+00 9.009883e-01 9.990195e-01 1.138263e+00 1.707659e+00 1.103343e+00 6.366430e-01
<GCONST> 7.655640e+01
<TRANSP> 5
 0.000000e+00 1.000000e+00 0.000000e+00 0.000000e+00 0.000000e+00
 0.000000e+00 3.854127e-01 6.145873e-01 0.000000e+00 0.000000e+00
 0.000000e+00 0.000000e+00 7.084649e-01 2.915351e-01 0.000000e+00
 0.000000e+00 0.000000e+00 0.000000e+00 6.979932e-01 3.020069e-01
 0.000000e+00 0.000000e+00 0.000000e+00 0.000000e+00 0.000000e+00
<ENDHMM>
~h "sil"
<BEGINHMM>
<NUMSTATES> 5
<STATE> 2
<MEAN> 25
 -3.174429e+00 4.689731e-01 -3.297394e+00 -1.208076e+00 4.830295e-01 2.424025e+00 3.733159e+00 2.288384e+00 1.431270e+00 3.556229e+00 3.186374e+00 4.758710e+00 -1.322698e-01 -3.724503e-02 3.009311e-02 3.643651e-03 3.359226e-02 -1.199689e-02 2.772824e-02 6.786205e-02 3.849782e-02 -9.135409e-02 3.610415e-02 3.924499e-02 -4.383182e-02
<VARIANCE> 25
 4.323548e+00 3.647851e+00 4.823610e+00 5.094004e+00 5.727326e+00 5.298685e+00 6.067896e+00 6.251027e+00 7.737246e+00 7.997206e+00 8.731380e+00 8.636374e+00 2.111367e-01 3.106695e-01 4.780706e-01 5.058523e-01 5.866908e-01 4.771196e-01 6.731170e-01 7.690893e-01 9.074416e-01 8.761535e-01 6.260942e-01 7.298636e-01 1.333238e-01
<GCONST> 5.830035e+01
<STATE> 3
<MEAN> 25
 -3.534689e+00 -1.042420e-02 -3.442392e+00 -4.616542e-01 7.571606e-01 1.901445e+00 3.810294e+00 2.517491e+00 1.865042e+00 3.800539e+00 3.366165e+00 4.996939e+00 -8.766024e-02 -7.767787e-02 -6.410583e-02 -6.590737e-02 -4.345134e-02 -4.526490e-02 1.915891e-02 2.758065e-02 6.112060e-02 6.557256e-02 9.877706e-02 1.642721e-01 -3.291433e-02
<VARIANCE> 25
 2.272800e+00 4.054241e+00 3.510128e+00 4.023714e+00 4.157023e+00 6.437707e+00 5.991343e+00 5.932839e+00 6.321241e+00 7.910364e+00 9.281558e+00 9.123545e+00 9.699564e-02 1.636383e-01 2.332322e-01 3.060108e-01 3.865759e-01 5.619556e-01 5.482886e-01 6.095612e-01 5.665825e-01 6.671821e-01 7.689344e-01 7.346367e-01 5.752596e-02
<GCONST> 5.221909e+01
<STATE> 4
<MEAN> 25
 -4.068358e+00 -5.510039e-02 -3.225807e+00 -1.632346e+00 -4.995798e-02 2.103902e+00 4.133496e+00 2.616257e+00 1.744851e+00 3.888888e+00 3.742096e+00 5.714347e+00 -8.565472e-03 -5.057300e-03 -9.254189e-03 -7.601224e-03 -1.069674e-03 6.513203e-03 -7.169358e-03 7.006866e-04 -2.037365e-03 4.933891e-03 1.486089e-02 2.580532e-02 -7.259224e-03
<VARIANCE> 25
 1.190728e+00 1.478171e+00 2.205184e+00 2.955488e+00 3.868107e+00 4.568749e+00 4.880715e+00 5.642896e+00 6.205985e+00 6.416709e+00 6.510672e+00 6.769371e+00 5.390751e-02 1.085256e-01 1.676902e-01 2.503736e-01 3.290447e-01 3.975430e-01 4.649674e-01 5.629718e-01 5.935094e-01 6.220814e-01 6.227474e-01 5.257537e-01 3.307340e-02
<GCONST> 4.483677e+01
<TRANSP> 5
 0.000000e+00 1.000000e+00 0.000000e+00 0.000000e+00 0.000000e+00
 0.000000e+00 8.393580e-01 1.606420e-01 0.000000e+00 0.000000e+00
 0.000000e+00 0.000000e+00 8.765435e-01 1.234566e-01 0.000000e+00
 0.000000e+00 0.000000e+00 0.000000e+00 9.747096e-01 2.529043e-02
 0.000000e+00 0.000000e+00 0.000000e+00 0.000000e+00 0.000000e+00
<ENDHMM>
