~o
<STREAMINFO> 1 25
<VECSIZE> 25<NULLD><MFCC_D_N_Z_0><DIAGC>
~s "silst"
<MEAN> 25
 -2.973393e+00 7.242512e-01 -2.658979e+00 -6.428680e-01 5.331670e-01 2.337307e+00 3.904594e+00 2.384631e+00 1.066067e+00 2.767655e+00 2.211799e+00 4.189887e+00 -1.166879e-01 -6.963160e-02 -1.300805e-01 -1.282631e-01 -9.390624e-02 -2.086565e-02 4.964095e-02 1.126122e-01 1.698466e-01 1.954687e-01 1.473541e-01 2.026505e-01 -8.509145e-02
<VARIANCE> 25
 1.839836e+00 2.447402e+00 2.771407e+00 3.984840e+00 4.783703e+00 5.524894e+00 5.694226e+00 6.052986e+00 6.311392e+00 6.863406e+00 6.825159e+00 6.905204e+00 9.678271e-02 1.518769e-01 2.146634e-01 3.026755e-01 3.870806e-01 4.761725e-01 5.485932e-01 6.438822e-01 6.106164e-01 6.330676e-01 6.052582e-01 5.700526e-01 5.169325e-02
<GCONST> 4.962691e+01
~h "a"
<BEGINHMM>
<NUMSTATES> 5
<STATE> 2
<MEAN> 25
 5.202123e+00 2.450217e+00 -3.603959e+00 -1.314946e+00 -6.174279e-01 -1.943260e+00 -2.244327e+00 -1.234932e+00 -9.560592e-01 -2.248016e+00 -3.933733e+00 -8.029684e-01 -1.179307e-01 7.886528e-01 2.173265e-01 -4.808581e-02 2.412507e-01 8.151245e-01 9.787635e-01 2.125608e-01 -3.064603e-01 -1.411202e-01 -2.255419e-01 -1.326987e-01 -4.022579e-01
<VARIANCE> 25
 1.295676e+01 9.317932e+00 1.099339e+01 1.376459e+01 1.619871e+01 1.573897e+01 2.242801e+01 1.470091e+01 1.762139e+01 2.385188e+01 2.770420e+01 1.872021e+01 1.711905e+00 7.761825e-01 1.473670e+00 9.302907e-01 9.187902e-01 1.794111e+00 1.948008e+00 1.043711e+00 1.347472e+00 1.628244e+00 3.008515e+00 1.768472e+00 4.964949e-01
<GCONST> 8.295760e+01
<STATE> 3
<MEAN> 25
 2.853333e+00 4.474008e+00 -1.253033e+00 -4.361443e-01 4.135423e-01 8.549713e-01 9.919974e-01 -6.189340e-01 -1.855434e+00 -1.740394e+00 -3.454543e+00 -9.260868e-01 -6.819875e-01 2.632549e-01 7.250230e-01 6.121186e-01 5.119818e-01 7.007670e-01 7.639528e-01 1.835963e-01 -1.470513e-01 1.677038e-01 2.619529e-01 2.256359e-02 -5.101058e-01
<VARIANCE> 25
 8.398260e+00 7.083959e+00 9.881767e+00 1.396892e+01 1.312649e+01 1.112274e+01 1.493421e+01 1.066342e+01 1.205814e+01 1.436228e+01 1.776380e+01 1.564394e+01 6.891416e-01 6.207696e-01 5.293404e-01 5.753639e-01 9.144613e-01 6.194308e-01 9.131507e-01 7.798048e-01 1.005003e+00 1.033374e+00 1.618773e+00 1.633391e+00 2.750125e-01
<GCONST> 7.256928e+01
<STATE> 4
<MEAN> 25
 1.501238e+00 3.770620e+00 -6.657230e-01 6.584325e-01 1.236541e+00 1.538055e+00 1.968778e+00 3.512535e-01 -7.744843e-01 -6.013498e-01 -2.361847e+00 -6.828861e-01 -3.671435e-01 -3.811735e-02 7.751654e-01 3.014307e-01 3.522731e-02 2.809100e-01 3.591944e-01 1.795561e-01 -4.188915e-02 4.866257e-02 2.041148e-01 -4.051176e-01 -5.493169e-02
<VARIANCE> 25
 8.805052e+00 7.418632e+00 8.921371e+00 1.430652e+01 1.436142e+01 1.038778e+01 1.716188e+01 1.282699e+01 1.209229e+01 1.355244e+01 1.594572e+01 1.913265e+01 1.291631e+00 8.306161e-01 1.529429e+00 8.528472e-01 1.276967e+00 1.061092e+00 1.672844e+00 9.176436e-01 1.492253e+00 9.672402e-01 2.289521e+00 1.759464e+00 2.810265e-01
<GCONST> 7.775398e+01
<TRANSP> 5
 0.000000e+00 1.000000e+00 0.000000e+00 0.000000e+00 0.000000e+00
 0.000000e+00 4.360742e-01 5.639258e-01 0.000000e+00 0.000000e+00
 0.000000e+00 0.000000e+00 4.537277e-01 5.462723e-01 0.000000e+00
 0.000000e+00 0.000000e+00 0.000000e+00 2.238482e-01 7.761518e-01
 0.000000e+00 0.000000e+00 0.000000e+00 0.000000e+00 0.000000e+00
<ENDHMM>
~h "b"
<BEGINHMM>
<NUMSTATES> 5
<STATE> 2
<MEAN> 25
 1.880867e+00 6.643941e+00 2.557955e+00 3.238964e+00 2.541487e+00 1.685967e+00 1.356763e+00 -5.630651e-01 -2.810024e+00 -3.873214e+00 -6.169960e+00 -3.252737e+00 8.903658e-01 1.730306e-01 -2.237200e-01 -6.629432e-01 -8.363124e-01 -1.073397e+00 -9.285967e-01 3.145970e-03 1.047911e-01 -9.241024e-01 -1.249470e+00 -1.237405e+00 6.415772e-01
<VARIANCE> 25
 2.820990e+00 1.994135e+00 2.919765e+00 6.932122e+00 1.085624e+01 8.616014e+00 6.474460e+00 7.298236e+00 7.932170e+00 7.590401e+00 7.045175e+00 7.178980e+00 3.226660e-01 3.804841e-01 4.135192e-01 8.132547e-01 1.057521e+00 6.016430e-01 1.218068e+00 1.189747e+00 1.154493e+00 1.479134e+00 1.262441e+00 9.490637e-01 1.711005e-01
<GCONST> 6.277910e+01
<STATE> 3
<MEAN> 25
 5.444676e+00 5.932066e+00 6.078856e-01 2.126353e+00 2.387699e+00 -1.475524e+00 -3.588578e+00 -1.348628e+00 -3.431124e+00 -9.000345e+00 -1.052842e+01 -5.938249e+00 9.453509e-01 -1.235361e+00 -9.705789e-01 8.826784e-01 2.110530e+00 1.194706e-02 -2.897149e+00 -1.268934e+00 -7.060152e-01 -1.417045e+00 3.760860e-02 3.853881e-01 8.776186e-01
<VARIANCE> 25
 1.794278e+00 2.541717e+00 2.859886e+00 6.018929e+00 9.049602e+00 3.341134e+00 8.370709e+00 6.609147e+00 8.484233e+00 6.228968e+00 5.467386e+00 7.459507e+00 2.608364e-01 4.011988e-01 2.728693e-01 5.839363e-01 8.509741e-01 6.408995e-01 6.499215e-01 1.073762e+00 6.662610e-01 1.082918e+00 1.243795e+00 9.029638e-01 1.358153e-01
<GCONST> 5.814132e+01
<STATE> 4
<MEAN> 25
 6.681708e+00 2.558968e+00 -1.692429e+00 4.392421e+00 7.955673e+00 1.716175e-01 -9.822465e+00 -4.437989e+00 -5.290786e+00 -1.061727e+01 -7.709814e+00 -3.153431e+00 2.062659e-01 -1.851883e+00 -9.336364e-01 1.774499e+00 2.698787e+00 3.528723e-01 -2.771666e+00 -1.546481e+00 -3.455664e-01 3.241657e-01 1.875906e+00 8.278436e-01 5.481552e-01
<VARIANCE> 25
 1.077527e+00 3.554473e+00 2.343845e+00 3.498059e+00 7.075721e+00 3.666383e+00 9.033820e+00 6.024513e+00 4.831931e+00 6.203685e+00 5.630134e+00 5.190063e+00 1.396078e-01 2.129202e-01 1.753490e-01 3.301731e-01 2.916152e-01 4.697774e-01 6.057394e-01 8.533863e-01 4.050882e-01 6.547202e-01 5.144636e-01 5.211961e-01 8.603884e-02
<GCONST> 4.931281e+01
<TRANSP> 5
 0.000000e+00 1.000000e+00 0.000000e+00 0.000000e+00 0.000000e+00
 0.000000e+00 7.283517e-01 2.716483e-01 0.000000e+00 0.000000e+00
 0.000000e+00 0.000000e+00 5.421240e-01 4.578760e-01 0.000000e+00
 0.000000e+00 0.000000e+00 0.000000e+00 1.712402e-01 8.287598e-01
 0.000000e+00 0.000000e+00 0.000000e+00 0.000000e+00 0.000000e+00
<ENDHMM>
~h "d"
<BEGINHMM>
<NUMSTATES> 5
<STATE> 2
<MEAN> 25
 4.120396e+00 4.426348e+00 -3.675381e-01 9.598929e-01 1.330906e+00 3.972809e-01 -7.118104e-01 -1.765665e+00 -2.404016e+00 -3.922493e+00 -5.784596e+00 -3.104474e+00 -3.688858e-01 5.559462e-01 9.029983e-01 9.618970e-01 9.980656e-01 9.616771e-01 8.710651e-01 -1.491786e-01 -1.125899e+00 -3.818557e-01 3.002660e-01 -1.941697e-01 -3.596849e-01
<VARIANCE> 25
 1.473858e+01 1.161423e+01 1.604597e+01 2.041256e+01 2.042922e+01 1.845870e+01 1.738582e+01 1.316189e+01 1.035546e+01 1.594996e+01 2.557966e+01 2.431054e+01 1.439272e+00 8.721092e-01 5.694852e-01 7.811424e-01 6.701740e-01 1.638607e+00 2.632585e+00 1.348704e+00 1.254051e+00 1.430511e+00 3.664907e+00 2.983444e+00 4.754506e-01
<GCONST> 8.279722e+01
<STATE> 3
<MEAN> 25
 3.703187e+00 5.039939e+00 -6.893146e-01 -5.995297e-02 6.847841e-01 9.316638e-01 1.884697e+00 -4.802706e-01 -4.000876e+00 -4.724307e+00 -4.972141e+00 -2.366847e+00 -1.044864e+00 1.290374e-01 8.157637e-01 6.271666e-01 4.463065e-01 9.206254e-01 1.290949e+00 2.194049e-01 -3.789480e-01 5.788313e-01 8.789460e-01 3.121032e-01 -7.241009e-01
<VARIANCE> 25
 5.699608e+00 8.416868e+00 8.955170e+00 1.366015e+01 1.469345e+01 9.975368e+00 7.986177e+00 1.117730e+01 1.138343e+01 1.047888e+01 1.948216e+01 1.513747e+01 2.698503e-01 7.712359e-01 4.534200e-01 8.002662e-01 7.329583e-01 9.820874e-01 9.800667e-01 1.104760e+00 8.369567e-01 6.200667e-01 9.436217e-01 9.735490e-01 2.264393e-01
<GCONST> 6.951292e+01
<STATE> 4
<MEAN> 25
 1.375740e+00 4.263153e+00 2.131778e+00 2.812900e+00 1.762778e+00 2.152664e+00 2.945703e+00 -1.055202e+00 -3.536294e+00 -2.548452e+00 -3.346588e+00 -1.820910e+00 -1.271678e-02 -5.059207e-01 3.808129e-01 6.667158e-01 2.122672e-01 -3.119756e-01 -6.926302e-01 -4.037166e-01 7.394049e-02 5.562335e-02 -6.228103e-02 -2.348819e-01 2.431665e-01
<VARIANCE> 25
 5.795361e+00 7.134605e+00 6.810369e+00 1.094033e+01 1.389864e+01 8.588944e+00 9.591328e+00 1.023718e+01 1.030780e+01 9.248304e+00 1.124988e+01 1.097066e+01 6.280438e-01 1.356418e+00 7.396924e-01 1.788890e+00 1.395947e+00 1.305291e+00 2.181535e+00 1.458998e+00 1.455235e+00 1.637207e+00 1.780970e+00 1.762317e+00 4.295889e-01
<GCONST> 7.576649e+01
<TRANSP> 5
 0.000000e+00 1.000000e+00 0.000000e+00 0.000000e+00 0.000000e+00
 0.000000e+00 2.762738e-01 7.237262e-01 0.000000e+00 0.000000e+00
 0.000000e+00 0.000000e+00 3.775654e-01 6.224346e-01 0.000000e+00
 0.000000e+00 0.000000e+00 0.000000e+00 6.965998e-01 3.034001e-01
 0.000000e+00 0.000000e+00 0.000000e+00 0.000000e+00 0.000000e+00
<ENDHMM>
~h "f"
<BEGINHMM>
<NUMSTATES> 5
<STATE> 2
<MEAN> 25
 9.162773e+00 7.952494e-01 -1.034064e+01 -7.580615e+00 -5.801569e+00 -8.289324e+00 -3.724914e+00 4.796388e+00 6.116031e+00 3.280654e-01 -4.906632e+00 -1.102493e+00 -1.655926e+00 1.283888e+00 1.315988e+00 -8.155245e-01 -5.741634e-01 1.409764e+00 1.829987e+00 -1.689553e-01 -6.287869e-01 1.117072e+00 1.238099e+00 8.801039e-01 -1.382394e+00
<VARIANCE> 25
 3.101434e+00 6.024069e+00 3.409896e+00 3.056102e+00 4.636129e+00 7.724740e+00 1.207948e+01 5.841176e+00 5.161279e+00 8.412515e+00 7.901034e+00 8.410591e+00 2.212443e-01 4.502434e-01 4.665560e-01 5.578251e-01 7.119551e-01 7.142291e-01 7.423660e-01 6.910983e-01 7.156873e-01 7.441339e-01 1.125250e+00 8.659794e-01 6.640827e-02
<GCONST> 5.865642e+01
<STATE> 3
<MEAN> 25
 2.941573e+00 2.010504e+00 -7.060952e+00 -9.113742e+00 -6.757190e+00 -4.625453e+00 1.078372e-01 4.536843e+00 4.737501e+00 2.887585e+00 -5.856844e-01 2.988911e+00 -1.456318e+00 -1.253889e-01 6.505085e-01 5.759224e-01 3.747030e-01 9.452580e-01 9.133968e-01 -1.554232e-01 -4.729283e-01 3.446115e-01 9.592444e-01 1.043536e+00 -9.926468e-01
<VARIANCE> 25
 2.975957e+00 2.544734e+00 4.872736e+00 5.495432e+00 4.126765e+00 5.542461e+00 5.771001e+00 8.352855e+00 7.609129e+00 5.501386e+00 5.489921e+00 6.806017e+00 2.887919e-01 2.181070e-01 5.263048e-01 1.021209e+00 5.596851e-01 5.491583e-01 7.383325e-01 1.006985e+00 6.880675e-01 3.890347e-01 9.172072e-01 9.139943e-01 8.819855e-02
<GCONST> 5.683522e+01
<STATE> 4
<MEAN> 25
 -1.011127e+00 7.127591e-01 -4.965961e+00 -5.193980e+00 -3.655845e+00 -1.765710e+00 1.705658e+00 3.141959e+00 3.232204e+00 3.337970e+00 2.195355e+00 5.176212e+00 -1.002867e+00 -8.947732e-01 1.136045e+00 6.339642e-01 4.096673e-01 4.705366e-01 1.896218e-01 -5.639421e-01 -2.403173e-01 -4.576090e-02 6.053455e-01 -3.272913e-01 6.462362e-02
<VARIANCE> 25
 2.574193e+00 2.810696e+00 4.692429e+00 6.546930e+00 5.555144e+00 4.746826e+00 9.443687e+00 5.599588e+00 5.823802e+00 4.525482e+00 7.075124e+00 8.243639e+00 2.281408e-01 4.836952e-01 9.694104e-01 9.699602e-01 8.511652e-01 4.050135e-01 6.302428e-01 1.060369e+00 8.860601e-01 7.658765e-01 7.908211e-01 1.139403e+00 4.251175e-01
<GCONST> 6.084785e+01
<TRANSP> 5
 0.000000e+00 1.000000e+00 0.000000e+00 0.000000e+00 0.000000e+00
 0.000000e+00 5.997694e-01 4.002306e-01 0.000000e+00 0.000000e+00
 0.000000e+00 0.000000e+00 7.279375e-01 2.720625e-01 0.000000e+00
 0.000000e+00 0.000000e+00 0.000000e+00 6.798643e-01 3.201357e-01
 0.000000e+00 0.000000e+00 0.000000e+00 0.000000e+00 0.000000e+00
<ENDHMM>
~h "g"
<BEGINHMM>
<NUMSTATES> 5
<STATE> 2
<MEAN> 25
 -1.811320e+00 -2.723696e+00 3.883399e+00 4.379756e+00 2.236782e-01 -3.739410e-01 -4.598707e-01 6.238604e-01 -1.474683e+00 -2.358367e+00 2.202532e+00 -4.987186e-01 2.131277e+00 1.986250e+00 -1.085521e+00 1.345422e+00 2.483842e+00 -1.846839e-01 -2.438390e+00 -2.244406e+00 -1.130471e+00 -9.804806e-01 -2.916049e+00 -1.371312e+00 2.166039e-01
<VARIANCE> 25
 2.153404e+01 3.798109e+01 8.810743e+00 1.575501e+01 2.316189e+01 6.044862e+00 3.169724e+01 2.407133e+01 1.113626e+01 1.302206e+01 5.284379e+01 2.265184e+01 1.871070e+00 1.488407e+00 9.183323e-01 9.961764e-01 1.647782e+00 6.895233e-01 2.760054e+00 1.695953e+00 9.367113e-01 1.479091e+00 3.815848e+00 1.553417e+00 2.521131e-01
<GCONST> 8.456432e+01
<STATE> 3
<MEAN> 25
 3.373576e+00 3.399408e+00 5.037287e-02 3.102349e+00 3.716757e+00 2.539399e-01 -2.772492e+00 -3.432942e+00 -3.991710e+00 -5.134304e+00 -5.106452e+00 -2.635832e+00 6.464649e-02 9.788892e-01 -1.297286e-01 -1.269387e+00 -1.189331e+00 -1.167645e-01 9.564705e-01 6.892958e-01 3.518635e-01 3.590767e-01 -2.070676e-01 9.511954e-02 -3.067134e-01
<VARIANCE> 25
 2.744956e+00 8.708632e+00 4.430146e+00 1.175145e+01 1.433025e+01 6.573997e+00 1.894270e+01 1.132117e+01 1.451971e+01 1.271293e+01 5.730519e+00 5.969217e+00 3.738475e-01 5.476713e-01 7.060404e-01 1.033312e+00 1.416816e+00 9.508848e-01 1.817933e+00 1.233957e+00 1.347391e+00 1.337025e+00 1.167470e+00 9.161890e-01 1.529887e-01
<GCONST> 6.972076e+01
<STATE> 4
<MEAN> 25
 3.658063e+00 7.319583e+00 1.841905e+00 -4.903471e-01 -3.250885e+00 -4.786519e+00 -3.146634e+00 -1.529768e+00 -9.036171e-01 -9.661133e-01 -3.097908e+00 -2.020427e+00 6.390868e-01 3.821660e-01 8.194164e-02 -3.804498e-01 -1.276535e+00 -1.867928e+00 -1.416985e+00 -3.740272e-02 9.222005e-01 5.844220e-01 1.605778e-01 1.052154e-01 3.437204e-01
<VARIANCE> 25
 2.623422e+00 2.272022e+00 3.051549e+00 4.093791e+00 7.003460e+00 1.212897e+01 9.967282e+00 6.230989e+00 8.109858e+00 6.476603e+00 6.157413e+00 6.761555e+00 3.794665e-01 1.785902e-01 3.011205e-01 4.985532e-01 6.278619e-01 8.065212e-01 7.933090e-01 6.169758e-01 9.990657e-01 6.247372e-01 9.174532e-01 1.351765e+00 1.621180e-01
<GCONST> 5.845983e+01
<TRANSP> 5
 0.000000e+00 1.000000e+00 0.000000e+00 0.000000e+00 0.000000e+00
 0.000000e+00 6.162211e-01 3.837790e-01 0.000000e+00 0.000000e+00
 0.000000e+00 0.000000e+00 6.705922e-01 3.294078e-01 0.000000e+00
 0.000000e+00 0.000000e+00 0.000000e+00 7.819848e-01 2.180151e-01
 0.000000e+00 0.000000e+00 0.000000e+00 0.000000e+00 0.000000e+00
<ENDHMM>
~h "h"
<BEGINHMM>
<NUMSTATES> 5
<STATE> 2
<MEAN> 25
 2.712303e-01 4.264946e+00 -1.036484e+00 -1.887845e+00 -2.103046e+00 -1.216826e+00 1.684990e+00 3.033467e+00 2.763219e+00 2.361298e+00 -7.170795e-01 -2.340573e-01 1.996839e+00 1.950421e+00 1.107579e+00 9.601989e-02 -1.361560e+00 -2.604512e+00 -2.351270e+00 -1.385311e+00 -4.742669e-01 -5.015462e-01 -1.124873e+00 -1.591864e+00 9.220121e-01
<VARIANCE> 25
 1.084106e+01 1.240697e+01 8.334258e+00 6.314147e+00 8.064441e+00 2.063435e+01 1.699008e+01 8.875931e+00 6.421905e+00 5.414037e+00 8.084328e+00 1.114085e+01 3.131137e-01 2.633202e-01 5.161998e-01 8.938100e-01 1.051170e+00 1.009989e+00 9.429787e-01 1.187721e+00 1.056127e+00 6.292067e-01 8.772253e-01 9.939211e-01 1.533341e-01
<GCONST> 6.747453e+01
<STATE> 3
<MEAN> 25
 8.135411e+00 7.675128e+00 -2.598455e+00 -5.253943e+00 -9.399303e+00 -1.122163e+01 -5.894219e+00 2.315480e+00 6.204964e+00 2.067182e+00 -5.898888e+00 -6.182382e+00 1.124763e+00 -5.277234e-01 -1.495086e+00 -1.054358e+00 -6.634775e-01 -7.628634e-01 -5.750573e-01 4.171751e-01 1.317759e+00 -4.118652e-02 -9.839386e-01 -4.143041e-01 8.849252e-01
<VARIANCE> 25
 4.292881e+00 2.638873e+00 7.704004e+00 5.410728e+00 3.520211e+00 5.744366e+00 6.523024e+00 7.690456e+00 1.217278e+01 5.224509e+00 8.459867e+00 6.039920e+00 4.681517e-01 4.880899e-01 6.267639e-01 3.839682e-01 9.257738e-01 2.365000e+00 1.182202e+00 6.629640e-01 8.820943e-01 3.866315e-01 1.021306e+00 7.770877e-01 1.753192e-01
<GCONST> 6.170411e+01
<STATE> 4
<MEAN> 25
 1.091371e+01 2.035975e+00 -1.027852e+01 -8.232186e+00 -6.029370e+00 -7.334202e+00 -5.998612e+00 5.580159e-01 6.943768e+00 8.950547e-01 -6.235488e+00 -3.160974e+00 8.524562e-02 -1.415794e+00 -8.461715e-01 3.915865e-01 1.943969e+00 1.689035e+00 -4.323398e-01 -1.236682e+00 -1.648598e+00 -5.931146e-01 1.032946e+00 1.410975e+00 4.457960e-01
<VARIANCE> 25
 3.254139e+00 7.028849e+00 5.115821e+00 7.092375e+00 1.212086e+01 2.253695e+01 1.035682e+01 9.996704e+00 8.903793e+00 8.911189e+00 1.104202e+01 1.034196e+01 1.148844e-01 2.187679e-01 7.256624e-01 1.039629e+00 5.913245e-01 1.027344e+00 1.026176e+00 4.762738e-01 1.097550e+00 1.177612e+00 8.958743e-01 3.744608e-01 5.776476e-02
<GCONST> 6.316318e+01
<TRANSP> 5
 0.000000e+00 1.000000e+00 0.000000e+00 0.000000e+00 0.000000e+00
 0.000000e+00 7.241854e-01 2.758146e-01 0.000000e+00 0.000000e+00
 0.000000e+00 0.000000e+00 7.961681e-01 2.038319e-01 0.000000e+00
 0.000000e+00 0.000000e+00 0.000000e+00 7.699886e-01 2.300114e-01
 0.000000e+00 0.000000e+00 0.000000e+00 0.000000e+00 0.000000e+00
<ENDHMM>
~h "i"
<BEGINHMM>
<NUMSTATES> 5
<STATE> 2
<MEAN> 25
 3.178125e+00 5.173742e-01 1.029494e+00 4.111905e+00 3.477535e+00 1.188941e+00 -3.170498e+00 -5.288491e+00 -5.603544e+00 -3.539207e+00 -2.451258e+00 -2.483015e+00 -9.612851e-01 -5.293169e-02 6.789027e-01 -7.580745e-01 -6.616878e-01 9.156219e-01 1.660089e+00 6.203645e-01 -2.319136e-01 -6.512436e-02 1.120772e+00 5.760234e-01 -3.782817e-01
<VARIANCE> 25
 1.789678e+01 1.543509e+01 2.916269e+01 8.137239e+00 1.624506e+01 1.218267e+01 2.681590e+01 1.180729e+01 1.316727e+01 1.763661e+01 3.276246e+01 9.137798e+00 7.774296e-01 1.367209e+00 1.075258e+00 9.326177e-01 9.031603e-01 7.196204e-01 1.773540e+00 8.696662e-01 1.644372e+00 1.595133e+00 2.359145e+00 5.898344e-01 3.027049e-01
<GCONST> 7.939842e+01
<STATE> 3
<MEAN> 25
 -2.089339e+00 -3.255570e+00 6.936264e+00 1.420221e+00 -7.691664e-01 2.885850e+00 1.887505e+00 -2.991344e+00 -8.090556e+00 -6.226268e+00 3.935347e+00 -1.288569e+00 -2.384324e+00 -1.600813e+00 2.106892e+00 -1.157099e+00 -1.605529e+00 4.449874e-01 2.036741e+00 1.270738e+00 5.424923e-01 1.195446e-01 2.444786e+00 -2.571691e-02 9.349478e-02
<VARIANCE> 25
 2.083223e+01 2.211843e+01 3.381980e+01 1.254275e+01 1.890777e+01 6.887295e+00 1.675131e+01 1.186693e+01 1.599995e+01 1.224465e+01 2.264520e+01 1.229709e+01 1.012672e+00 1.375638e+00 1.959642e+00 7.761378e-01 1.071120e+00 8.402554e-01 8.251485e-01 7.531227e-01 1.196144e+00 1.042795e+00 2.103116e+00 7.222208e-01 1.840884e-01
<GCONST> 7.831495e+01
<STATE> 4
<MEAN> 25
 -9.218122e+00 -9.284014e+00 1.110640e+01 -3.797079e-01 -5.673265e+00 2.650561e+00 7.423594e+00 2.935906e+00 -2.028201e+00 -2.228940e+00 1.179007e+01 5.869148e-01 -1.116752e-01 -2.000184e-01 -5.021068e-01 4.560203e-02 -1.373264e-01 -2.321631e-01 2.456066e-02 6.717005e-01 6.794102e-01 4.556680e-01 2.493639e-01 5.986417e-01 -2.764862e-01
<VARIANCE> 25
 6.671407e+00 1.318002e+01 1.368577e+01 5.665894e+00 1.085621e+01 6.797152e+00 9.575826e+00 1.146839e+01 1.292722e+01 1.533196e+01 1.491469e+01 1.642163e+01 5.080191e-01 4.668880e-01 8.030538e-01 9.733085e-01 6.805968e-01 7.156231e-01 1.177072e+00 7.870978e-01 1.094738e+00 9.389546e-01 1.220253e+00 6.745242e-01 4.720526e-02
<GCONST> 6.886311e+01
<TRANSP> 5
 0.000000e+00 1.000000e+00 0.000000e+00 0.000000e+00 0.000000e+00
 0.000000e+00 5.098090e-01 4.901910e-01 0.000000e+00 0.000000e+00
 0.000000e+00 0.000000e+00 5.006853e-01 4.993148e-01 0.000000e+00
 0.000000e+00 0.000000e+00 0.000000e+00 8.391725e-01 1.608275e-01
 0.000000e+00 0.000000e+00 0.000000e+00 0.000000e+00 0.000000e+00
<ENDHMM>
~h "j"
<BEGINHMM>
<NUMSTATES> 5
<STATE> 2
<MEAN> 25
 1.997421e+00 -3.580805e+00 8.372158e+00 1.264924e+01 4.770840e+00 -2.689795e+00 -7.100052e+00 -3.630469e+00 -1.154174e+00 -4.141955e+00 -6.137180e+00 -8.037521e+00 2.790736e+00 6.335283e-01 -1.661191e+00 2.951977e+00 3.372388e+00 -1.896198e+00 -4.502377e+00 -6.447688e-01 5.366126e-01 -1.422342e+00 -2.611226e+00 -7.945943e-01 7.176692e-01
<VARIANCE> 25
 5.229670e+00 6.342604e+00 2.471405e+01 1.537531e+01 1.016690e+01 7.016327e+00 2.381954e+01 9.226625e+00 1.091699e+01 1.085299e+01 1.383173e+01 1.207140e+01 1.208077e+00 1.018347e+00 9.811001e-01 3.751918e+00 1.268343e+00 1.221402e+00 1.651418e+00 2.565284e+00 1.765794e+00 1.276473e+00 2.843366e+00 1.301980e+00 1.649153e-01
<GCONST> 7.865229e+01
<STATE> 3
<MEAN> 25
 4.750769e+00 -2.631998e+00 3.339019e+00 1.533312e+01 9.869975e+00 -5.913234e+00 -1.142682e+01 -3.127898e+00 -6.657884e-02 -5.587316e+00 -7.168984e+00 -7.144523e+00 2.198419e-01 2.001305e-01 -5.242004e-01 -1.357777e-01 3.771570e-01 -1.018551e-01 -3.690463e-01 -2.729666e-01 -1.629592e-01 -6.294492e-02 8.331635e-02 7.742885e-02 -1.420015e-03
<VARIANCE> 25
 3.497908e+00 8.584950e+00 8.688417e+00 9.850440e+00 1.276095e+01 1.054682e+01 3.167720e+01 1.374733e+01 1.980647e+01 1.181981e+01 1.327644e+01 1.303945e+01 4.669030e-01 1.013459e+00 9.776372e-01 9.506895e-01 1.571747e+00 1.439781e+00 4.959650e+00 1.592140e+00 2.340864e+00 1.169082e+00 1.172618e+00 1.196384e+00 4.261413e-01
<GCONST> 7.794097e+01
<STATE> 4
<MEAN> 25
 4.034760e+00 8.897901e-02 4.411663e-01 8.828695e+00 8.892298e+00 -1.675720e+00 -8.828551e+00 -5.386707e+00 -2.879738e+00 -3.836334e+00 -4.128001e+00 -4.832745e+00 -5.200744e-01 4.476672e-01 1.092264e-01 -1.506111e+00 -1.151266e+00 1.186082e+00 1.837702e+00 1.274850e-01 -3.751815e-01 7.114183e-01 7.622580e-01 4.708914e-01 -3.954126e-01
<VARIANCE> 25
 8.196839e+00 6.279398e+00 1.578463e+01 1.816409e+01 1.711746e+01 1.638369e+01 3.513462e+01 1.523629e+01 1.574334e+01 1.519801e+01 1.723079e+01 1.805420e+01 1.060501e+00 6.071904e-01 1.463297e+00 1.150466e+00 1.517338e+00 1.244401e+00 2.456193e+00 1.699898e+00 1.847831e+00 1.346282e+00 1.408529e+00 1.588143e+00 3.838815e-01
<GCONST> 8.158786e+01
<TRANSP> 5
 0.000000e+00 1.000000e+00 0.000000e+00 0.000000e+00 0.000000e+00
 0.000000e+00 4.630355e-01 5.369645e-01 0.000000e+00 0.000000e+00
 0.000000e+00 0.000000e+00 8.898786e-01 1.101214e-01 0.000000e+00
 0.000000e+00 0.000000e+00 0.000000e+00 7.511623e-01 2.488377e-01
 0.000000e+00 0.000000e+00 0.000000e+00 0.000000e+00 0.000000e+00
<ENDHMM>
~h "m"
<BEGINHMM>
<NUMSTATES> 5
<STATE> 2
<MEAN> 25
 5.361777e+00 5.318678e+00 -8.830244e-01 4.547496e-01 1.592279e+00 -2.151240e-01 -1.302522e+00 9.939470e-01 3.672246e+00 3.267752e+00 -3.461570e+00 -6.607790e+00 -8.311628e-01 -2.699564e-02 4.922680e-01 3.970438e-01 3.790059e-01 7.898214e-01 1.028424e+00 8.587538e-02 -6.202663e-01 -3.971559e-01 -1.374082e-01 1.282900e-01 -5.246982e-01
<VARIANCE> 25
 4.419859e+00 1.975620e+00 7.569297e+00 3.885804e+00 2.851760e+00 5.880553e+00 9.416113e+00 5.162596e+00 9.192942e+00 3.411212e+00 5.391025e+00 6.695921e+00 1.781732e-01 1.896543e-01 4.073725e-01 3.256081e-01 3.902549e-01 2.889335e-01 7.146517e-01 5.947620e-01 6.610660e-01 5.576518e-01 7.734444e-01 9.847339e-01 4.401079e-02
<GCONST> 5.239130e+01
<STATE> 3
<MEAN> 25
 3.979149e-01 4.828726e+00 9.342209e-01 1.211478e+00 2.740249e+00 3.403853e+00 3.845733e+00 9.546769e-01 -1.131727e-02 2.845783e-01 -3.322644e+00 -5.471527e+00 -9.976044e-01 -7.613298e-01 -2.617280e-01 -7.719129e-02 3.706537e-01 8.706239e-01 5.377761e-01 2.030601e-01 -1.122252e-01 -1.799338e-01 6.000305e-01 8.604692e-01 -5.155203e-01
<VARIANCE> 25
 1.639648e+00 1.849781e+00 1.648079e+00 2.089500e+00 3.540264e+00 3.983018e+00 5.607029e+00 8.417068e+00 9.410296e+00 3.907964e+00 4.365158e+00 2.262574e+00 1.344678e-01 1.174067e-01 2.748694e-01 2.123019e-01 3.459082e-01 3.045050e-01 4.251196e-01 4.762827e-01 5.883318e-01 6.738664e-01 3.268377e-01 6.321604e-01 1.036442e-01
<GCONST> 4.508210e+01
<STATE> 4
<MEAN> 25
 -8.923068e-01 2.754356e+00 -2.620411e-01 1.218231e+00 2.873498e+00 4.202254e+00 3.793038e+00 1.561451e+00 -5.603917e-02 2.533725e-01 -1.769823e+00 -5.820737e-01 -1.979329e-01 -3.707007e-01 -9.712885e-02 -2.069548e-01 -2.728577e-01 -2.433768e-01 -1.224005e-01 2.341303e-01 8.785565e-02 -7.464405e-02 4.443307e-01 7.206685e-01 1.822036e-03
<VARIANCE> 25
 2.971056e+00 2.929827e+00 2.885885e+00 4.000545e+00 3.275401e+00 4.880211e+00 5.222026e+00 4.582604e+00 7.959021e+00 4.664800e+00 2.876565e+00 6.757625e+00 3.022956e-01 4.031273e-01 3.029758e-01 4.286174e-01 5.286556e-01 4.977876e-01 4.182702e-01 6.789541e-01 9.806442e-01 4.676087e-01 7.332215e-01 6.890010e-01 1.715582e-01
<GCONST> 5.312014e+01
<TRANSP> 5
 0.000000e+00 1.000000e+00 0.000000e+00 0.000000e+00 0.000000e+00
 0.000000e+00 8.224514e-01 1.775486e-01 0.000000e+00 0.000000e+00
 0.000000e+00 0.000000e+00 5.913038e-01 4.086961e-01 0.000000e+00
 0.000000e+00 0.000000e+00 0.000000e+00 8.212978e-01 1.787022e-01
 0.000000e+00 0.000000e+00 0.000000e+00 0.000000e+00 0.000000e+00
<ENDHMM>
~h "n"
<BEGINHMM>
<NUMSTATES> 5
<STATE> 2
<MEAN> 25
 5.504749e+00 4.848993e+00 -5.712462e-01 4.654029e+00 7.597466e+00 4.286226e+00 -9.389386e-01 -2.278246e+00 -4.788224e-01 -1.717193e+00 -7.618293e+00 -7.790121e+00 2.585322e-01 -1.856596e-01 -3.034273e-01 -3.281622e-01 -4.840246e-01 -4.750339e-01 9.186507e-02 5.057559e-01 5.182292e-01 1.401600e-01 -1.502318e-01 -4.165642e-01 2.582180e-01
<VARIANCE> 25
 2.366711e+00 3.220503e+00 7.992958e+00 9.049663e+00 8.181900e+00 4.535334e+00 8.209563e+00 1.180331e+01 9.356952e+00 7.928845e+00 1.092254e+01 9.630404e+00 2.163884e-01 3.253910e-01 3.201185e-01 1.184773e+00 1.984562e+00 1.406303e+00 5.900576e-01 8.280216e-01 8.242228e-01 7.686192e-01 1.561460e+00 1.052637e+00 1.356882e-01
<GCONST> 6.413937e+01
<STATE> 3
<MEAN> 25
 7.176554e+00 4.194485e+00 -2.164322e+00 -3.640427e-01 9.582120e-01 -8.008460e-01 -3.866251e-01 5.865022e-01 1.413105e+00 3.250599e-01 -4.081023e+00 -6.020810e+00 5.906157e-01 -8.725297e-02 -7.989543e-01 -2.002803e+00 -2.549963e+00 -1.716684e+00 6.406837e-02 1.477233e+00 1.249730e+00 8.185518e-01 1.011272e+00 9.879468e-01 4.489509e-01
<VARIANCE> 25
 3.027282e+00 3.070259e+00 9.362720e+00 1.149673e+01 1.283289e+01 2.013016e+01 7.797781e+00 1.176158e+01 8.888382e+00 1.515807e+01 8.641265e+00 9.084211e+00 1.004111e-01 2.371368e-01 3.539418e-01 9.515026e-01 1.177405e+00 1.375465e+00 9.237752e-01 8.184179e-01 8.953640e-01 7.673145e-01 1.253708e+00 9.996386e-01 1.119756e-01
<GCONST> 6.523182e+01
<STATE> 4
<MEAN> 25
 8.047349e+00 4.472878e+00 -4.752348e+00 -4.146285e+00 -2.147627e+00 -2.011324e+00 5.051894e-01 3.204502e+00 3.699689e+00 1.883211e+00 -2.618583e+00 -3.290915e+00 2.994218e-01 -2.257481e-02 -5.583254e-01 -1.091170e+00 -1.619893e+00 -1.274201e+00 -8.103478e-02 9.349344e-01 9.760343e-01 4.401711e-01 3.661172e-01 9.976133e-01 1.236331e-01
<VARIANCE> 25
 2.416166e+00 2.697708e+00 7.975907e+00 6.718330e+00 9.492394e+00 1.777054e+01 1.009141e+01 6.904596e+00 6.274763e+00 8.470004e+00 7.322962e+00 6.918770e+00 1.103626e-01 3.036835e-01 1.506747e-01 9.063137e-01 9.484932e-01 9.097944e-01 6.952385e-01 7.990666e-01 9.442598e-01 9.130816e-01 8.062240e-01 1.187470e+00 9.448395e-02
<GCONST> 6.039983e+01
<TRANSP> 5
 0.000000e+00 1.000000e+00 0.000000e+00 0.000000e+00 0.000000e+00
 0.000000e+00 7.507939e-01 2.492061e-01 0.000000e+00 0.000000e+00
 0.000000e+00 0.000000e+00 4.479795e-01 5.520205e-01 0.000000e+00
 0.000000e+00 0.000000e+00 0.000000e+00 2.856173e-01 7.143827e-01
 0.000000e+00 0.000000e+00 0.000000e+00 0.000000e+00 0.000000e+00
<ENDHMM>
~h "p"
<BEGINHMM>
<NUMSTATES> 5
<STATE> 2
<MEAN> 25
 -3.724969e+00 -3.592445e-01 -2.234191e+00 -9.414461e-01 -2.518824e-01 2.159617e+00 3.543139e+00 1.842063e+00 1.015291e+00 3.500267e+00 3.212754e+00 3.655384e+00 1.717132e+00 1.007354e+00 5.950192e-01 -1.592022e-01 -1.383960e+00 -2.089932e+00 -1.658395e+00 -7.846504e-01 -3.351333e-01 -8.641666e-01 -1.336662e+00 -1.960277e+00 1.092682e+00
<VARIANCE> 25
 1.467388e+00 1.979020e+00 2.934702e+00 3.260122e+00 6.910155e+00 4.689960e+00 6.263008e+00 6.148059e+00 8.199018e+00 1.000748e+01 7.029230e+00 1.099745e+01 8.878790e-01 9.563103e-01 5.827219e-01 5.446051e-01 6.934028e-01 1.543584e+00 1.304597e+00 8.121929e-01 1.058837e+00 9.048077e-01 1.073596e+00 9.361363e-01 1.930025e-01
<GCONST> 6.228730e+01
<STATE> 3
<MEAN> 25
 1.447973e+00 3.966442e+00 7.196313e-01 -5.907456e-01 -3.476972e+00 -3.461754e+00 -1.296385e+00 -1.374458e+00 -1.464354e+00 -5.850223e-02 -7.288901e-01 -1.320069e+00 3.426059e+00 1.911100e+00 -1.301622e-02 -5.628872e-01 -1.959188e+00 -4.101161e+00 -3.339273e+00 -3.192884e-01 6.639287e-01 -1.412090e+00 -2.717747e+00 -2.065564e+00 1.776798e+00
<VARIANCE> 25
 1.028119e+01 1.203129e+01 4.897203e+00 4.113654e+00 1.029980e+01 1.861389e+01 1.727923e+01 9.703225e+00 9.662303e+00 6.638241e+00 6.214207e+00 1.168380e+01 6.787992e-01 6.873255e-01 1.644072e+00 1.157180e+00 1.062516e+00 1.329005e+00 8.213610e-01 1.181495e+00 1.717187e+00 1.171939e+00 1.230009e+00 2.151293e+00 4.320708e-01
<GCONST> 7.362096e+01
<STATE> 4
<MEAN> 25
 8.393694e+00 5.843281e+00 -3.213392e+00 -3.550646e+00 -7.192804e+00 -1.209883e+01 -7.533858e+00 1.486360e+00 4.113395e+00 -1.176298e+00 -6.809405e+00 -5.147886e+00 2.186349e+00 7.756690e-01 -7.342286e-01 -6.443143e-01 -1.037807e+00 -2.143580e+00 -1.554039e+00 3.378156e-01 9.266131e-01 -9.197785e-01 -2.072463e+00 -1.418877e+00 1.166808e+00
<VARIANCE> 25
 3.434658e+00 5.872199e+00 1.379898e+01 7.698974e+00 4.845664e+00 7.117191e+00 7.567272e+00 9.223223e+00 1.266672e+01 8.713553e+00 9.356685e+00 1.114399e+01 2.524893e+00 5.183555e-01 1.716725e+00 1.050963e+00 1.442107e+00 4.313453e+00 3.551864e+00 1.262174e+00 3.238173e+00 1.240928e+00 1.926133e+00 1.497882e+00 1.005849e+00
<GCONST> 7.739742e+01
<TRANSP> 5
 0.000000e+00 1.000000e+00 0.000000e+00 0.000000e+00 0.000000e+00
 0.000000e+00 4.735295e-01 5.264705e-01 0.000000e+00 0.000000e+00
 0.000000e+00 0.000000e+00 3.167827e-01 6.832173e-01 0.000000e+00
 0.000000e+00 0.000000e+00 0.000000e+00 3.773036e-01 6.226964e-01
 0.000000e+00 0.000000e+00 0.000000e+00 0.000000e+00 0.000000e+00
<ENDHMM>
~h "r"
<BEGINHMM>
<NUMSTATES> 5
<STATE> 2
<MEAN> 25
 6.024873e+00 2.144819e+00 -6.586681e+00 -4.180676e+00 -9.435862e-01 -2.584754e+00 -5.194437e+00 -3.080543e+00 2.026904e+00 2.390543e+00 -4.768735e+00 -4.438335e+00 2.217700e-02 1.946881e-01 -1.156923e-01 3.443425e-01 3.965507e-01 2.530687e-01 3.894127e-01 4.513394e-01 1.771962e-01 1.884684e-01 5.493297e-02 8.018365e-02 -1.911446e-01
<VARIANCE> 25
 7.619464e+00 5.291883e+00 9.219774e+00 9.387147e+00 7.858593e+00 3.832078e+00 1.132656e+01 6.802981e+00 9.741358e+00 8.322355e+00 1.462038e+01 8.226786e+00 1.798435e+00 6.763456e-01 1.691391e+00 1.792856e+00 2.250036e+00 3.948494e-01 3.601714e+00 1.156137e+00 1.021369e+00 1.031278e+00 2.346287e+00 1.303126e+00 3.259796e-01
<GCONST> 7.370119e+01
<STATE> 3
<MEAN> 25
 3.504419e+00 6.565456e-01 -5.181973e+00 -2.146674e+00 -2.425578e-01 -1.650782e+00 -2.619771e+00 -2.099871e+00 -2.708973e-01 1.923572e+00 -2.312483e+00 -2.621036e+00 -3.483653e-01 -7.395333e-02 -2.678550e-01 7.395755e-01 9.554355e-01 1.613493e-01 -3.966382e-02 4.607737e-01 1.925472e-01 -1.917870e-01 3.462300e-03 5.711455e-01 -4.110457e-01
<VARIANCE> 25
 7.523762e+00 9.471290e+00 7.553132e+00 9.640121e+00 9.725737e+00 5.961347e+00 1.817382e+01 6.973942e+00 1.164457e+01 9.640067e+00 1.851346e+01 1.224368e+01 2.574149e+00 1.000412e+00 9.745503e-01 7.803026e-01 1.329802e+00 5.622072e-01 2.910303e+00 1.164053e+00 1.134562e+00 1.106639e+00 4.239427e+00 3.227697e+00 4.877347e-01
<GCONST> 7.727484e+01
<STATE> 4
<MEAN> 25
 2.421592e+00 9.953797e-03 -4.777850e+00 -5.057261e-01 1.170835e+00 -1.965240e+00 -3.456126e+00 -1.511452e+00 1.287287e+00 3.174184e+00 -1.092043e+00 -1.815192e+00 -2.165760e-01 2.011420e-01 -2.180135e-01 1.177545e-01 2.736189e-01 -1.377530e-02 -2.902296e-02 3.125753e-01 3.311159e-01 -2.521905e-01 -5.211614e-01 4.364775e-01 -3.192963e-01
<VARIANCE> 25
 5.715530e+00 8.999187e+00 9.303737e+00 2.321546e+01 1.294893e+01 5.054015e+00 1.958670e+01 6.817478e+00 6.804551e+00 8.734078e+00 1.532144e+01 1.729129e+01 1.958475e+00 8.143498e-01 8.792337e-01 8.761549e-01 8.619668e-01 4.030598e-01 1.449685e+00 4.452969e-01 8.858621e-01 8.395848e-01 3.410506e+00 2.756697e+00 3.870185e-01
<GCONST> 7.370887e+01
<TRANSP> 5
 0.000000e+00 1.000000e+00 0.000000e+00 0.000000e+00 0.000000e+00
 0.000000e+00 5.474055e-01 4.525945e-01 0.000000e+00 0.000000e+00
 0.000000e+00 0.000000e+00 3.418544e-04 9.996582e-01 0.000000e+00
 0.000000e+00 0.000000e+00 0.000000e+00 1.624335e-01 8.375665e-01
 0.000000e+00 0.000000e+00 0.000000e+00 0.000000e+00 0.000000e+00
<ENDHMM>
~h "s"
<BEGINHMM>
<NUMSTATES> 5
<STATE> 2
<MEAN> 25
 -3.960392e+00 -3.929590e+00 1.038868e+01 -9.431983e-01 -3.901063e+00 3.206536e+00 4.052270e+00 -1.690018e+00 -4.420822e+00 -1.589557e+00 3.791258e+00 -4.924007e+00 -2.488966e+00 -1.175615e+00 2.490448e+00 -1.759230e+00 -1.343381e+00 1.213952e+00 1.776820e+00 3.175309e-01 -1.216406e-01 5.232350e-01 2.151742e+00 -8.302879e-02 1.366245e-01
<VARIANCE> 25
 2.006217e+01 9.160808e+00 3.182755e+01 2.064014e+01 2.421606e+01 1.556064e+01 1.584561e+01 2.559941e+01 1.413384e+01 1.295126e+01 2.798190e+01 3.031100e+01 1.758392e+00 1.220910e+00 4.161613e+00 2.148468e+00 1.714280e+00 1.375440e+00 2.902978e+00 1.414064e+00 2.213494e+00 9.736111e-01 2.986448e+00 1.571753e+00 2.244401e-01
<GCONST> 8.758291e+01
<STATE> 3
<MEAN> 25
 -9.928875e+00 -5.389073e+00 1.301416e+01 -6.285393e+00 -4.327808e+00 6.091408e+00 6.094297e+00 5.813867e-01 -1.730064e+00 1.142814e+00 8.114752e+00 -2.779109e+00 -8.786385e-02 1.643036e-01 -7.820722e-01 1.232928e-02 3.931656e-01 1.316996e-02 -9.046728e-03 3.993307e-01 3.989154e-01 4.856797e-01 -5.462915e-04 6.297907e-01 -4.333697e-01
<VARIANCE> 25
 3.678747e+00 8.072680e+00 1.396251e+01 8.553956e+00 1.803125e+01 1.339595e+01 1.198935e+01 1.205593e+01 1.682542e+01 1.253036e+01 1.217001e+01 1.521623e+01 6.972336e-01 6.820205e-01 1.578501e+00 1.440547e+00 1.232282e+00 1.107125e+00 8.749946e-01 9.461113e-01 1.087347e+00 9.692398e-01 1.326509e+00 1.067511e+00 2.009392e-01
<GCONST> 7.414926e+01
<STATE> 4
<MEAN> 25
 -5.357942e+00 -1.865769e+00 2.384936e+00 -1.726769e+00 -1.029476e+00 3.848623e+00 4.634478e+00 2.085618e+00 1.317013e-02 2.600032e+00 4.440662e+00 2.839793e+00 1.032906e+00 7.458125e-01 -1.472359e+00 5.864834e-01 4.033663e-01 -3.846245e-01 -4.948226e-01 -1.830331e-01 1.363536e-01 -4.020664e-02 -9.477770e-01 4.983165e-01 -4.346115e-01
<VARIANCE> 25
 5.461652e+00 7.709981e+00 1.775926e+01 6.904963e+00 8.310450e+00 7.037961e+00 8.783602e+00 1.086556e+01 1.206435e+01 1.149610e+01 1.172228e+01 1.303346e+01 1.669622e+00 8.776376e-01 1.195449e+00 8.451639e-01 7.144520e-01 1.042499e+00 1.095842e+00 1.229690e+00 1.811196e+00 1.887935e+00 2.739608e+00 1.656796e+00 4.118578e-01
<GCONST> 7.533604e+01
<TRANSP> 5
 0.000000e+00 1.000000e+00 0.000000e+00 0.000000e+00 0.000000e+00
 0.000000e+00 6.196983e-01 3.803018e-01 0.000000e+00 0.000000e+00
 0.000000e+00 0.000000e+00 8.112624e-01 1.887376e-01 0.000000e+00
 0.000000e+00 0.000000e+00 0.000000e+00 7.920788e-01 2.079212e-01
 0.000000e+00 0.000000e+00 0.000000e+00 0.000000e+00 0.000000e+00
<ENDHMM>
~h "t"
<BEGINHMM>
<NUMSTATES> 5
<STATE> 2
<MEAN> 25
 -2.601404e+00 -1.148545e+00 -1.941557e-01 -1.702690e+00 -3.124249e+00 -8.434590e-01 2.846355e+00 6.578329e-01 -5.190305e-02 1.875753e+00 2.979821e+00 2.364525e+00 9.962691e-01 1.812261e-01 6.737264e-01 5.352111e-01 -9.458659e-02 -7.402906e-01 -1.055443e+00 -9.094841e-01 -5.441669e-01 -8.148679e-01 -1.161119e+00 -1.414006e+00 8.559194e-01
<VARIANCE> 25
 4.167671e+00 8.954056e+00 9.380171e+00 1.156138e+01 1.214991e+01 1.117682e+01 1.056988e+01 1.128643e+01 1.225811e+01 8.841132e+00 1.025085e+01 1.453854e+01 2.472936e+00 1.780742e+00 1.301565e+00 1.568928e+00 1.353825e+00 1.423624e+00 1.817187e+00 2.004364e+00 1.120089e+00 1.292073e+00 2.970157e+00 1.922934e+00 4.982691e-01
<GCONST> 7.919585e+01
<STATE> 3
<MEAN> 25
 3.388528e+00 1.434899e+00 -5.644871e-01 -3.439343e-01 -2.687681e+00 -3.727349e+00 -1.978816e+00 -2.665628e+00 -2.330492e+00 -1.838340e+00 -3.407003e+00 -1.979554e+00 2.441473e+00 7.884936e-01 -1.316238e+00 -1.597311e-01 2.356148e-01 -9.735661e-01 -1.922199e+00 -8.160263e-01 -1.462951e-02 -1.029281e+00 -2.350463e+00 -1.116648e+00 1.094657e+00
<VARIANCE> 25
 1.678212e+01 1.256938e+01 1.282166e+01 1.234431e+01 1.326516e+01 2.090109e+01 1.625933e+01 1.494577e+01 1.163356e+01 1.433824e+01 2.134494e+01 9.758106e+00 1.938558e+00 1.445873e+00 2.380023e+00 1.817692e+00 1.210777e+00 1.383386e+00 2.055595e+00 1.710288e+00 1.759726e+00 1.609166e+00 3.143975e+00 1.607691e+00 5.209420e-01
<GCONST> 8.421400e+01
<STATE> 4
<MEAN> 25
 6.237902e+00 1.732289e+00 -4.144939e+00 -1.941714e+00 -2.719909e+00 -4.988172e+00 -3.776786e+00 -2.036117e+00 -1.089221e+00 -2.108182e+00 -5.193287e+00 -2.353022e+00 1.179600e+00 4.618069e-01 -9.492590e-01 -4.020468e-01 1.374221e-01 -1.111900e-01 -6.988013e-01 1.724769e-01 4.218596e-01 -4.156155e-01 -1.044310e+00 -4.600143e-01 3.721589e-01
<VARIANCE> 25
 2.054795e+01 9.939399e+00 1.698895e+01 1.493152e+01 1.462850e+01 2.976433e+01 1.553246e+01 1.619150e+01 1.650680e+01 1.858476e+01 2.480332e+01 1.563540e+01 2.025050e+00 8.900869e-01 2.207928e+00 1.394777e+00 9.332576e-01 1.100083e+00 2.354061e+00 1.163028e+00 1.158756e+00 1.326129e+00 3.256660e+00 1.739241e+00 6.109265e-01
<GCONST> 8.451096e+01
<TRANSP> 5
 0.000000e+00 1.000000e+00 0.000000e+00 0.000000e+00 0.000000e+00
 0.000000e+00 5.438388e-01 4.561612e-01 0.000000e+00 0.000000e+00
 0.000000e+00 0.000000e+00 3.316868e-01 6.683131e-01 0.000000e+00
 0.000000e+00 0.000000e+00 0.000000e+00 3.002464e-01 6.997535e-01
 0.000000e+00 0.000000e+00 0.000000e+00 0.000000e+00 0.000000e+00
<ENDHMM>
~h "v"
<BEGINHMM>
<NUMSTATES> 5
<STATE> 2
<MEAN> 25
 9.487611e-01 1.447232e+00 -2.939159e+00 -1.522946e+00 -6.073616e-01 -5.013227e-01 6.175770e-01 1.986595e+00 1.451152e+00 1.001931e+00 1.548116e-01 1.823856e+00 -7.747825e-03 2.114076e-01 3.242143e-01 3.293767e-01 4.881115e-01 2.098543e-01 -1.458168e-01 -4.065359e-01 -4.956585e-01 -2.542657e-01 -1.876725e-01 -9.943052e-02 -6.383266e-02
<VARIANCE> 25
 3.600729e+01 1.048764e+01 1.639388e+01 8.427252e+00 1.613354e+01 3.235367e+01 3.113922e+01 1.333035e+01 2.090115e+01 1.697693e+01 2.260672e+01 2.626578e+01 3.010310e-01 2.888137e-01 3.702197e-01 4.114148e-01 6.185716e-01 7.485179e-01 5.467958e-01 8.651954e-01 1.474295e+00 6.128095e-01 1.222040e+00 9.599704e-01 8.972735e-02
<GCONST> 7.315790e+01
<STATE> 3
<MEAN> 25
 7.190935e-01 1.674471e+00 -2.600994e+00 -1.113052e+00 3.183240e-01 1.119494e-01 7.470106e-02 1.320305e+00 1.063259e+00 1.395495e+00 4.569046e-01 1.915533e+00 1.578287e-01 4.769746e-01 5.612430e-01 5.033305e-01 4.526651e-01 1.979965e-01 -2.394296e-02 -5.830446e-01 -5.610135e-01 -2.014145e-01 -3.336725e-01 -4.473952e-01 2.324595e-02
<VARIANCE> 25
 3.356084e+01 1.143565e+01 1.295304e+01 7.282407e+00 1.594803e+01 3.563381e+01 3.391803e+01 1.106360e+01 2.021687e+01 2.029178e+01 2.410963e+01 2.534839e+01 8.026455e-01 6.499475e-01 5.558537e-01 5.261924e-01 4.776701e-01 6.278973e-01 1.619335e+00 7.608835e-01 1.166687e+00 5.862659e-01 1.737851e+00 1.323522e+00 2.841633e-01
<GCONST> 7.746552e+01
<STATE> 4
<MEAN> 25
 1.008265e+00 2.729458e+00 -1.650509e+00 -5.370844e-01 5.671253e-01 1.940368e-01 7.790418e-01 1.034381e+00 3.597821e-01 7.405643e-01 -2.919617e-02 1.285000e+00 4.617516e-01 5.450276e-01 6.120588e-01 6.517857e-01 4.561881e-01 1.121605e-01 -3.352453e-01 -7.979923e-01 -6.224598e-01 -3.118843e-01 -6.034466e-01 -9.315933e-01 2.144275e-01
<VARIANCE> 25
 2.477844e+01 7.957423e+00 1.131647e+01 9.654162e+00 1.829358e+01 3.371804e+01 2.343738e+01 1.337006e+01 2.048381e+01 1.809249e+01 1.725951e+01 2.728092e+01 1.282305e+00 1.238319e+00 1.083694e+00 7.462264e-01 9.349414e-01 7.746085e-01 3.521303e+00 1.381445e+00 1.125194e+00 8.319913e-01 2.030354e+00 2.066252e+00 6.879637e-01
<GCONST> 8.266959e+01
<TRANSP> 5
 0.000000e+00 1.000000e+00 0.000000e+00 0.000000e+00 0.000000e+00
 0.000000e+00 1.830704e-03 9.981693e-01 0.000000e+00 0.000000e+00
 0.000000e+00 0.000000e+00 9.843988e-04 9.990156e-01 0.000000e+00
 0.000000e+00 0.000000e+00 0.000000e+00 4.467539e-02 9.553246e-01
 0.000000e+00 0.000000e+00 0.000000e+00 0.000000e+00 0.000000e+00
<ENDHMM>
~h "z"
<BEGINHMM>
<NUMSTATES> 5
<STATE> 2
<MEAN> 25
 -1.084686e+00 -1.878424e-01 9.505066e+00 -2.476751e+00 -6.463280e+00 4.282887e+00 3.220448e+00 -6.681771e-01 -3.435007e+00 -3.955242e-01 1.095852e+00 -3.943780e+00 -1.628916e-01 -4.278608e-01 4.107396e-01 2.568693e-01 -1.990216e-01 -2.967668e-01 -4.363340e-01 -3.345555e-01 -2.595869e-01 -4.800823e-01 -4.983630e-01 -3.546591e-01 1.565945e-01
<VARIANCE> 25
 1.188929e+01 7.314943e+00 1.928021e+01 1.012218e+01 6.692395e+00 1.027395e+01 8.052457e+00 6.924078e+00 9.404406e+00 1.028077e+01 1.899284e+01 1.013626e+01 4.866061e+00 1.473348e+00 8.930703e+00 1.024158e+00 1.027254e+00 4.638683e+00 2.521469e+00 6.003909e-01 1.643642e+00 1.062884e+00 4.886313e+00 9.757408e-01 1.703747e-01
<GCONST> 8.027869e+01
<STATE> 3
<MEAN> 25
 7.304358e+00 9.105669e-01 -2.656842e+00 -2.340474e+00 -5.401614e+00 -5.685951e+00 -5.088794e+00 -2.009051e+00 2.495838e-01 -4.306327e+00 -8.466764e+00 -2.801219e+00 2.726331e+00 -5.318072e-01 -5.035662e+00 -9.951108e-01 8.173048e-01 -2.798349e+00 -2.847816e+00 7.430052e-01 2.244394e+00 -2.833261e-01 -1.329067e+00 1.552193e+00 1.200060e+00
<VARIANCE> 25
 4.898020e+00 8.620927e+00 1.786006e+01 5.179951e+00 5.876721e+00 7.730939e+00 2.136687e+01 8.352725e+00 1.512240e+01 3.821838e+00 4.798580e+00 9.143788e+00 5.750002e-01 6.948125e-01 1.156808e+00 5.173159e-01 5.779555e-01 1.283083e+00 1.180838e+00 9.237053e-01 8.096745e-01 8.437141e-01 1.628721e+00 7.399560e-01 7.085212e-02
<GCONST> 6.657161e+01
<STATE> 4
<MEAN> 25
 1.057691e+01 -2.049109e+00 -1.056877e+01 -4.372510e+00 -3.703111e+00 -9.306647e+00 -9.003141e+00 3.960013e-01 4.097604e+00 -3.542416e+00 -7.637499e+00 3.137510e-01 9.686523e-01 -1.115660e+00 -2.882491e+00 -1.056052e+00 3.310775e-01 -1.107736e+00 -7.108951e-01 1.433302e+00 1.394474e+00 6.183890e-01 5.992100e-01 7.620477e-01 6.745486e-01
<VARIANCE> 25
 1.084292e+00 7.492965e+00 3.261234e+00 3.692524e+00 3.938347e+00 6.610158e+00 8.296296e+00 8.035672e+00 8.399108e+00 4.000096e+00 2.686324e+00 4.869308e+00 1.963632e-01 5.028673e-01 6.037584e-01 5.957558e-01 2.293486e-01 6.368555e-01 7.710285e-01 5.699083e-01 6.166900e-01 6.193038e-01 8.086559e-01 2.515240e-01 7.845404e-02
<GCONST> 5.289073e+01
<TRANSP> 5
 0.000000e+00 1.000000e+00 0.000000e+00 0.000000e+00 0.000000e+00
 0.000000e+00 8.614550e-01 1.385450e-01 0.000000e+00 0.000000e+00
 0.000000e+00 0.000000e+00 5.544350e-01 4.455650e-01 0.000000e+00
 0.000000e+00 0.000000e+00 0.000000e+00 3.225763e-01 6.774237e-01
 0.000000e+00 0.000000e+00 0.000000e+00 0.000000e+00 0.000000e+00
<ENDHMM>
~h "aa"
<BEGINHMM>
<NUMSTATES> 5
<STATE> 2
<MEAN> 25
 6.839751e+00 1.472389e+00 -5.338787e+00 -2.848963e+00 -3.505576e+00 -6.005492e+00 -4.397091e+00 9.907962e-02 3.134758e+00 -5.980930e-01 -4.328493e+00 -3.791233e-01 1.816751e+00 -5.853878e-01 -1.887633e+00 -1.052752e+00 -8.348870e-01 -1.597856e+00 -1.440686e+00 3.036955e-01 1.061850e+00 -2.813392e-01 -7.252805e-01 1.926162e-01 1.254472e+00
<VARIANCE> 25
 2.340957e+01 1.034982e+01 2.837507e+01 1.319568e+01 1.068973e+01 2.777582e+01 2.962315e+01 2.353183e+01 2.034684e+01 1.498163e+01 1.892923e+01 1.355153e+01 1.350331e+00 9.640810e-01 1.696583e+00 7.982692e-01 1.488216e+00 2.072925e+00 2.034674e+00 1.614498e+00 1.137105e+00 1.171796e+00 1.486229e+00 1.281842e+00 6.272621e-01
<GCONST> 8.421789e+01
<STATE> 3
<MEAN> 25
 1.112949e+01 -5.376453e-01 -1.091302e+01 -6.240063e+00 -4.833224e+00 -8.084523e+00 -7.067940e+00 6.287147e-01 4.929304e+00 -1.033611e+00 -5.437590e+00 1.002682e-02 5.085766e-02 -1.738310e-01 -1.759870e-01 -2.557918e-01 9.196779e-02 5.193169e-01 1.401878e-01 -2.413208e-01 -2.636049e-01 -6.793083e-02 2.659318e-01 2.882731e-01 1.031532e-01
<VARIANCE> 25
 4.039759e+00 9.082240e+00 8.959226e+00 5.129780e+00 7.116168e+00 1.460298e+01 1.445009e+01 1.286816e+01 1.402820e+01 8.143122e+00 9.839400e+00 1.057204e+01 1.704152e-01 6.447787e-01 9.067119e-01 6.585271e-01 8.478172e-01 9.014997e-01 6.304001e-01 1.546803e+00 1.171258e+00 7.962098e-01 8.448961e-01 1.079527e+00 1.280178e-01
<GCONST> 6.739362e+01
<STATE> 4
<MEAN> 25
 7.344854e+00 2.314453e+00 -6.808999e+00 -5.979477e+00 -4.079916e+00 -3.421412e+00 -3.053728e+00 -1.608899e+00 -1.122761e-01 -1.126432e+00 -2.732775e+00 1.577279e+00 -1.245886e+00 3.593880e-01 1.097944e+00 2.438815e-01 4.900952e-02 7.682995e-01 1.102687e+00 -2.581255e-02 -8.759775e-01 2.333246e-01 8.272882e-01 2.336283e-01 -8.581618e-01
<VARIANCE> 25
 1.285573e+01 9.805006e+00 1.039480e+01 9.119611e+00 1.557733e+01 1.455801e+01 2.520092e+01 1.975661e+01 1.879318e+01 8.691271e+00 1.697924e+01 1.251795e+01 3.080141e-01 8.994963e-01 8.507487e-01 1.023767e+00 1.133627e+00 8.552406e-01 1.650949e+00 1.210294e+00 1.203943e+00 8.286282e-01 1.086812e+00 9.764628e-01 2.872811e-01
<GCONST> 7.547398e+01
<TRANSP> 5
 0.000000e+00 1.000000e+00 0.000000e+00 0.000000e+00 0.000000e+00
 0.000000e+00 5.015247e-01 4.984753e-01 0.000000e+00 0.000000e+00
 0.000000e+00 0.000000e+00 7.004488e-01 2.995512e-01 0.000000e+00
 0.000000e+00 0.000000e+00 0.000000e+00 7.787746e-01 2.212254e-01
 0.000000e+00 0.000000e+00 0.000000e+00 0.000000e+00 0.000000e+00
<ENDHMM>
~h "ae"
<BEGINHMM>
<NUMSTATES> 5
<STATE> 2
<MEAN> 25
 -1.162771e+01 -7.815321e+00 1.506071e+01 -5.745489e+00 -5.533079e+00 5.722546e+00 4.672146e+00 -1.299790e+00 6.541473e-01 8.276807e-01 8.123636e+00 -4.291935e+00 4.688970e-02 -6.645160e-01 -5.687071e-01 9.602089e-01 -6.856223e-01 -8.399751e-01 5.514522e-01 6.150963e-01 7.114912e-01 7.471285e-01 2.618415e-02 2.253009e-01 -2.489783e-01
<VARIANCE> 25
 5.121394e+00 7.533530e+00 8.142871e+00 1.716789e+01 1.026745e+01 1.311506e+01 7.647892e+00 1.265632e+01 1.696626e+01 8.189233e+00 9.753523e+00 8.193069e+00 8.122306e-01 4.295218e-01 7.825121e-01 1.521200e+00 7.673671e-01 8.195748e-01 7.374305e-01 8.501191e-01 7.064936e-01 6.513567e-01 1.302421e+00 8.457205e-01 8.523536e-02
<GCONST> 6.837885e+01
<STATE> 3
<MEAN> 25
 -9.198110e+00 -9.343236e+00 1.122747e+01 -2.917697e-01 -5.418344e+00 2.712837e+00 5.524794e+00 3.775738e-02 3.472694e-01 1.903908e+00 7.071669e+00 -2.604860e+00 1.962710e+00 9.545710e-01 -8.294351e-01 2.593999e+00 1.368202e+00 -7.723286e-01 -1.225135e+00 -6.361954e-01 -7.684457e-01 -7.461826e-01 -2.124954e+00 -4.705250e-01 -2.474662e-01
<VARIANCE> 25
 5.342732e+00 3.936579e+00 1.671724e+01 1.400208e+01 9.866848e+00 9.996535e+00 8.645372e+00 1.164178e+01 1.745559e+01 7.826119e+00 1.308207e+01 1.105642e+01 1.924443e+00 9.415179e-01 1.045488e+00 3.210682e+00 1.268432e+00 9.053208e-01 2.359246e+00 1.304459e+00 1.117368e+00 1.401015e+00 2.650644e+00 1.090673e+00 1.556251e-01
<GCONST> 7.626029e+01
<STATE> 4
<MEAN> 25
 -5.645929e+00 -6.251453e+00 1.048607e+01 3.254756e+00 -3.183685e+00 2.454754e+00 4.448941e+00 -1.014550e+00 -2.015142e+00 1.162333e-01 3.129044e+00 -4.280768e+00 2.983754e+00 1.473252e+00 -1.166572e+00 3.143944e+00 2.663306e+00 -1.233907e+00 -3.210011e+00 -1.019558e+00 -5.996836e-01 -1.296765e+00 -3.208604e+00 -1.260711e+00 2.480362e-01
<VARIANCE> 25
 7.303123e+00 5.220542e+00 2.918222e+01 2.019763e+01 7.625091e+00 9.241934e+00 1.011343e+01 1.147398e+01 1.292708e+01 9.628486e+00 2.029205e+01 2.109995e+01 2.514009e+00 6.888976e-01 1.011563e+00 5.983153e+00 2.391151e+00 1.694406e+00 4.874465e+00 2.839329e+00 1.365453e+00 1.810129e+00 4.046334e+00 1.131740e+00 2.219023e-01
<GCONST> 8.315692e+01
<TRANSP> 5
 0.000000e+00 1.000000e+00 0.000000e+00 0.000000e+00 0.000000e+00
 0.000000e+00 6.809248e-01 3.190752e-01 0.000000e+00 0.000000e+00
 0.000000e+00 0.000000e+00 2.831481e-01 7.168519e-01 0.000000e+00
 0.000000e+00 0.000000e+00 0.000000e+00 3.888678e-02 9.611132e-01
 0.000000e+00 0.000000e+00 0.000000e+00 0.000000e+00 0.000000e+00
<ENDHMM>
~h "ay"
<BEGINHMM>
<NUMSTATES> 5
<STATE> 2
<MEAN> 25
 7.623912e+00 7.543839e+00 5.801109e-01 -2.280342e+00 -8.343850e+00 -1.149070e+01 -5.692065e+00 3.563204e+00 7.013777e+00 2.540095e+00 -2.273108e+00 -3.492113e+00 -1.445359e-01 1.240890e-01 8.639633e-02 -1.075608e-01 -1.971625e-01 -8.647604e-02 2.891963e-01 2.993262e-01 -3.831723e-01 -9.938439e-01 -9.349529e-01 -8.150089e-01 -1.363872e-01
<VARIANCE> 25
 2.947410e+00 1.746205e+00 2.337836e+00 5.541091e+00 4.766677e+00 1.568811e+01 1.743895e+01 5.323086e+00 7.644229e+00 9.633874e+00 1.004636e+01 5.053002e+00 1.108648e-01 2.953786e-01 3.964605e-01 2.790564e-01 6.241360e-01 7.693051e-01 5.753661e-01 3.151106e-01 5.229616e-01 7.621133e-01 1.153218e+00 5.807999e-01 6.923637e-02
<GCONST> 5.516583e+01
<STATE> 3
<MEAN> 25
 8.048564e+00 6.389733e+00 -3.367175e-01 -1.721717e+00 -7.790255e+00 -1.187224e+01 -6.148411e+00 3.928516e+00 5.657632e+00 -3.984500e+00 -9.124444e+00 -6.145214e+00 1.010737e-01 -1.182569e+00 -6.918638e-01 2.109264e-01 1.196837e+00 1.464884e+00 3.474945e-02 -5.127705e-01 -8.771358e-01 -1.703985e+00 -1.237502e+00 3.274004e-01 4.187562e-01
<VARIANCE> 25
 5.724873e+00 3.929430e+00 1.740993e+00 3.242674e+00 5.193545e+00 2.075503e+01 1.547174e+01 4.389346e+00 7.136326e+00 1.070717e+01 8.322597e+00 2.036778e+01 1.489456e-01 9.352280e-01 3.010249e-01 6.227385e-01 1.156329e+00 9.809425e-01 1.179691e+00 8.880160e-01 1.375676e+00 1.104049e+00 1.086635e+00 1.291234e+00 1.527927e-01
<GCONST> 6.456364e+01
<STATE> 4
<MEAN> 25
 7.884409e+00 1.046648e+00 -2.478984e+00 -8.358297e-01 -2.355934e+00 -3.813317e+00 -5.115764e+00 8.318738e-01 7.619563e-01 -7.575143e+00 -9.063804e+00 -1.281793e+00 -1.388820e+00 -2.000252e+00 9.608103e-01 2.510484e-01 5.673780e-01 3.021606e+00 2.255424e+00 -9.603192e-01 -2.511708e+00 2.233041e-02 2.414886e+00 9.764833e-01 8.564246e-02
<VARIANCE> 25
 6.260937e+00 1.616727e+01 4.258728e+00 5.589115e+00 1.380505e+01 2.151615e+01 1.887201e+01 1.088818e+01 8.698800e+00 2.377550e+01 8.625465e+00 2.179581e+01 7.143964e-01 6.702856e-01 1.768134e+00 3.872977e-01 2.200286e+00 1.081232e+00 1.923307e+00 9.745865e-01 6.503009e-01 1.652675e+00 1.627392e+00 2.521961e+00 1.128016e-01
<GCONST> 7.500345e+01
<TRANSP> 5
 0.000000e+00 1.000000e+00 0.000000e+00 0.000000e+00 0.000000e+00
 0.000000e+00 7.522607e-01 2.477392e-01 0.000000e+00 0.000000e+00
 0.000000e+00 0.000000e+00 6.631582e-01 3.368418e-01 0.000000e+00
 0.000000e+00 0.000000e+00 0.000000e+00 6.146799e-01 3.853201e-01
 0.000000e+00 0.000000e+00 0.000000e+00 0.000000e+00 0.000000e+00
<ENDHMM>
~h "ch"
<BEGINHMM>
<NUMSTATES> 5
<STATE> 2
<MEAN> 25
 -1.264430e+00 -1.101116e+01 3.941197e+00 5.830666e+00 -9.745746e-01 2.111533e+00 -1.988688e+00 -6.627367e+00 4.060634e+00 -2.201988e+00 -5.927594e+00 -1.868582e+00 -2.068144e+00 -2.385903e+00 1.961038e+00 1.122435e+00 -6.712239e-01 -6.012784e-01 5.672957e-01 7.324477e-01 1.896565e+00 5.161390e-01 8.964456e-01 6.378140e-01 2.052265e-01
<VARIANCE> 25
 1.510234e+01 2.949425e+01 1.452697e+01 1.269581e+01 9.327916e+00 9.674720e+00 8.300951e+00 9.712351e+00 3.178469e+01 1.207759e+01 1.020906e+01 7.524029e+00 5.751768e-01 1.728047e+00 1.160327e+00 8.462557e-01 1.385325e+00 1.075580e+00 1.077643e+00 1.719934e+00 1.727333e+00 1.510965e+00 1.015083e+00 6.285260e-01 8.885148e-02
<GCONST> 7.552793e+01
<STATE> 3
<MEAN> 25
 -8.388469e+00 -1.369889e+01 1.048158e+01 4.056333e+00 -1.280227e+00 -1.192779e+00 5.381997e-01 2.301529e+00 6.177394e+00 -3.069160e+00 2.537199e+00 1.869055e+00 -3.533610e-01 1.929288e+00 -2.083774e-01 -1.860645e+00 2.363101e-01 -8.799584e-02 7.700303e-01 1.876851e+00 -1.838193e+00 1.624868e-01 2.007798e+00 5.081967e-01 -9.582137e-01
<VARIANCE> 25
 2.470866e+00 1.203486e+01 7.783823e+00 2.217237e+01 7.316906e+00 7.879457e+00 1.014849e+01 2.239654e+01 2.984612e+01 6.714258e+00 2.291077e+01 9.550289e+00 8.005675e-01 1.143153e+00 2.650186e+00 9.449884e-01 5.673206e-01 5.527222e-01 9.017800e-01 1.770135e+00 1.589770e+00 1.773296e+00 1.553646e+00 9.465817e-01 3.005567e-01
<GCONST> 7.501669e+01
<STATE> 4
<MEAN> 25
 -5.632153e+00 -4.740354e+00 2.346014e+00 1.473470e+00 -1.783987e+00 1.795904e-02 4.319826e+00 3.276113e+00 1.233282e+00 1.698120e+00 3.755011e+00 4.422123e+00 6.654294e-01 1.008196e+00 -9.858962e-01 4.084433e-02 -5.353047e-01 -3.331285e-04 4.385710e-01 -6.154288e-01 -5.370008e-01 5.777797e-01 -1.616887e-01 -1.040970e-01 -5.049351e-01
<VARIANCE> 25
 1.990479e+00 3.467589e+00 6.856852e+00 3.462571e+00 5.395650e+00 9.659811e+00 7.728911e+00 9.986537e+00 9.367190e+00 8.418761e+00 8.173132e+00 6.533030e+00 3.608487e-01 6.169031e-01 1.770790e+00 6.205491e-01 3.429064e-01 8.625547e-01 9.365805e-01 8.935292e-01 1.163887e+00 1.128872e+00 8.624640e-01 1.981604e+00 7.032362e-01
<GCONST> 6.534373e+01
<TRANSP> 5
 0.000000e+00 1.000000e+00 0.000000e+00 0.000000e+00 0.000000e+00
 0.000000e+00 8.322703e-01 1.677297e-01 0.000000e+00 0.000000e+00
 0.000000e+00 0.000000e+00 7.395961e-01 2.604039e-01 0.000000e+00
 0.000000e+00 0.000000e+00 0.000000e+00 8.144047e-01 1.855953e-01
 0.000000e+00 0.000000e+00 0.000000e+00 0.000000e+00 0.000000e+00
<ENDHMM>
~h "ee"
<BEGINHMM>
<NUMSTATES> 5
<STATE> 2
<MEAN> 25
 7.970220e+00 4.758513e+00 -2.431949e+00 3.823511e-02 8.528126e-01 -2.733562e+00 -3.207927e+00 -9.069077e-01 -1.975116e+00 -2.675302e+00 -3.208991e+00 -4.298078e+00 -1.284843e-02 8.905994e-01 1.739562e-01 -9.443458e-01 -1.133050e+00 2.516423e-01 1.279969e+00 1.006730e+00 1.118855e+00 7.659284e-01 -6.163776e-01 -8.933052e-01 -2.798858e-01
<VARIANCE> 25
 4.566972e+00 6.228137e+00 7.509027e+00 3.089397e+01 3.495938e+01 9.839043e+00 9.499587e+00 1.609912e+01 2.025433e+01 1.828896e+01 9.675042e+00 2.137630e+01 3.337060e-01 4.383949e-01 6.894493e-01 1.925531e+00 2.988471e+00 8.455797e-01 1.080357e+00 9.878936e-01 2.456240e+00 2.642573e+00 1.347657e+00 1.345364e+00 9.927928e-02
<GCONST> 7.636752e+01
<STATE> 3
<MEAN> 25
 6.257678e+00 6.055448e+00 7.951427e-01 4.462769e+00 5.156259e+00 8.822425e-01 -1.279882e+00 -7.387968e-01 -1.274230e+00 -2.661668e+00 -5.849812e+00 -6.868413e+00 -1.432032e-01 2.056630e-02 1.489723e-01 -1.111635e-01 -1.898537e-02 2.136233e-01 1.130362e-01 -1.220892e-01 1.545320e-02 -1.563133e-02 -2.465646e-01 -3.901447e-02 -7.164398e-02
<VARIANCE> 25
 3.861753e+00 3.311128e+00 5.384960e+00 2.585900e+01 2.718217e+01 8.416447e+00 8.659744e+00 5.538708e+00 1.573378e+01 1.975214e+01 1.129290e+01 9.645522e+00 1.079618e-01 2.626550e-01 4.625845e-01 7.232810e-01 8.057519e-01 4.876198e-01 7.545388e-01 8.538597e-01 7.599024e-01 5.960572e-01 5.945157e-01 5.212786e-01 7.341745e-02
<GCONST> 6.255787e+01
<STATE> 4
<MEAN> 25
 6.119671e+00 5.201546e+00 -2.699062e-01 4.044085e+00 5.483918e+00 9.253241e-01 -1.646654e+00 -1.313072e+00 -1.208894e+00 -2.307791e+00 -6.222878e+00 -6.030297e+00 2.898180e-01 -1.070702e+00 -1.541353e+00 -5.770369e-01 1.727028e-01 -8.229318e-01 -1.135909e+00 2.973654e-02 9.308863e-01 9.156141e-01 9.027140e-01 1.288691e+00 4.309699e-01
<VARIANCE> 25
 3.146009e+00 3.843434e+00 7.505199e+00 1.098813e+01 1.270935e+01 6.980215e+00 8.328150e+00 6.665162e+00 1.635883e+01 1.077416e+01 9.914916e+00 1.126238e+01 4.560923e-01 3.653459e-01 1.000728e+00 1.019726e+00 4.403425e-01 9.583225e-01 1.207091e+00 5.186682e-01 7.850179e-01 5.374682e-01 7.347260e-01 1.259755e+00 2.330625e-01
<GCONST> 6.574172e+01
<TRANSP> 5
 0.000000e+00 1.000000e+00 0.000000e+00 0.000000e+00 0.000000e+00
 0.000000e+00 6.246992e-01 3.753007e-01 0.000000e+00 0.000000e+00
 0.000000e+00 0.000000e+00 5.755936e-01 4.244064e-01 0.000000e+00
 0.000000e+00 0.000000e+00 0.000000e+00 4.190141e-01 5.809859e-01
 0.000000e+00 0.000000e+00 0.000000e+00 0.000000e+00 0.000000e+00
<ENDHMM>
~h "ii"
<BEGINHMM>
<NUMSTATES> 5
<STATE> 2
<MEAN> 25
 5.393973e+00 6.013209e+00 5.597543e-01 1.149766e+00 -5.582478e-01 -4.110024e+00 -3.275634e+00 -6.576131e-01 -8.680767e-01 -2.916860e+00 -6.432179e+00 -5.191607e+00 1.580444e+00 -1.316994e+00 -1.722506e+00 5.063656e-02 6.876087e-01 -1.737374e+00 -2.616643e+00 -7.573829e-01 -8.462272e-01 -1.125487e+00 -3.751347e-01 3.048044e-01 1.413401e+00
<VARIANCE> 25
 1.457561e+01 9.477143e+00 7.064748e+00 4.339268e+00 8.827758e+00 2.562371e+01 1.731046e+01 9.413430e+00 1.251525e+01 8.518878e+00 1.439039e+01 2.007964e+01 8.749058e-01 1.399172e+00 1.170682e+00 9.636226e-01 1.205848e+00 1.746659e+00 2.498819e+00 1.235355e+00 1.375310e+00 1.041909e+00 6.541098e-01 1.416502e+00 8.217810e-01
<GCONST> 7.743034e+01
<STATE> 3
<MEAN> 25
 7.467272e+00 3.561167e+00 -2.308761e+00 1.784210e+00 2.047230e+00 -5.317880e+00 -6.166270e+00 -1.359010e+00 -2.465315e+00 -4.570000e+00 -6.266088e+00 -3.676664e+00 9.826341e-01 -2.141876e+00 -1.432605e+00 7.701343e-01 1.888027e+00 -1.966746e-01 -1.991496e+00 -1.200390e+00 -1.427860e+00 -7.275640e-01 7.953727e-01 7.355621e-01 1.339174e+00
<VARIANCE> 25
 2.021996e+01 6.932749e+00 1.116913e+01 9.328152e+00 9.494775e+00 3.147846e+01 2.880428e+01 1.339491e+01 1.091628e+01 1.343319e+01 1.575158e+01 1.422714e+01 5.642378e-01 2.001063e+00 1.093624e+00 8.758060e-01 1.417101e+00 9.130498e-01 2.043912e+00 1.174122e+00 1.702611e+00 1.214913e+00 9.435573e-01 1.374755e+00 5.762870e-01
<GCONST> 7.923874e+01
<STATE> 4
<MEAN> 25
 7.596478e+00 -3.479285e-01 -3.525680e+00 4.103991e+00 5.619943e+00 -4.429364e+00 -7.912064e+00 -4.373724e+00 -6.714447e+00 -5.643141e+00 -3.937838e+00 -3.036661e+00 -1.538399e-01 -1.748509e+00 -1.114837e-01 4.246982e-01 1.124303e+00 1.272100e+00 -4.316328e-01 -1.313624e+00 -1.287650e+00 1.014465e-01 1.451313e+00 5.240997e-01 6.359305e-01
<VARIANCE> 25
 2.016644e+01 1.113298e+01 9.359871e+00 1.434612e+01 1.004947e+01 2.047921e+01 2.933959e+01 1.698641e+01 1.976556e+01 1.284589e+01 1.341665e+01 1.931164e+01 5.019946e-01 2.977544e+00 1.032175e+00 1.340788e+00 1.841126e+00 1.644323e+00 2.176691e+00 1.460193e+00 1.893936e+00 1.023403e+00 1.696452e+00 1.881091e+00 6.978195e-01
<GCONST> 8.334656e+01
<TRANSP> 5
 0.000000e+00 1.000000e+00 0.000000e+00 0.000000e+00 0.000000e+00
 0.000000e+00 6.267729e-02 9.373227e-01 0.000000e+00 0.000000e+00
 0.000000e+00 0.000000e+00 6.051550e-02 9.394845e-01 0.000000e+00
 0.000000e+00 0.000000e+00 0.000000e+00 1.730196e-01 8.269804e-01
 0.000000e+00 0.000000e+00 0.000000e+00 0.000000e+00 0.000000e+00
<ENDHMM>
~h "ll"
<BEGINHMM>
<NUMSTATES> 5
<STATE> 2
<MEAN> 25
 9.017930e+00 -2.955023e+00 -3.665303e+00 3.994220e+00 7.002138e+00 -2.778037e+00 -1.082154e+01 -5.951997e+00 -6.975439e+00 -5.388422e+00 -2.164087e+00 -3.224666e+00 -2.398694e+00 -1.767107e+00 3.180563e+00 -8.326133e-01 -1.508535e+00 3.209917e+00 2.176411e+00 -2.347051e+00 -1.292797e+00 1.275254e+00 2.511401e+00 -5.508394e-01 1.482585e-01
<VARIANCE> 25
 3.291734e+00 7.702524e+00 6.352530e+00 5.612010e+00 1.107340e+01 9.311878e+00 1.584375e+01 9.169292e+00 1.599323e+01 1.044843e+01 8.907468e+00 1.084369e+01 8.680276e-01 8.278753e-01 1.449591e+00 1.136590e+00 1.853777e+00 6.275840e-01 1.719692e+00 6.468726e-01 1.093059e+00 5.331513e-01 6.921299e-01 9.322761e-01 1.803437e-01
<GCONST> 6.979301e+01
<STATE> 3
<MEAN> 25
 -4.059085e-02 -5.359507e+00 8.648548e+00 -1.021532e+00 -1.828333e+00 4.456637e+00 -1.178946e+00 -1.122467e+01 -9.159298e+00 -2.455221e+00 2.950214e+00 -5.489745e+00 -4.277024e+00 -1.230667e+00 4.720769e+00 -2.647063e+00 -2.821013e+00 1.938329e+00 2.885453e+00 -8.050179e-01 2.944071e-02 4.532491e-01 2.335235e+00 -5.731049e-01 1.472038e-01
<VARIANCE> 25
 1.826928e+01 4.909976e+00 2.119159e+01 1.511197e+01 1.255458e+01 6.162438e+00 1.426565e+01 8.166842e+00 1.100461e+01 9.316788e+00 1.413666e+01 1.267350e+01 2.281259e-01 6.903670e-01 1.103373e+00 8.855662e-01 1.002947e+00 1.307735e+00 1.299059e+00 1.517462e+00 1.043804e+00 8.422095e-01 9.854753e-01 1.307348e+00 1.109877e-01
<GCONST> 7.214198e+01
<STATE> 4
<MEAN> 25
 -1.025993e+01 -6.040576e+00 1.689037e+01 -8.848310e+00 -3.593769e+00 8.304172e+00 1.695789e+00 -7.122365e+00 -4.419225e+00 -2.562476e+00 7.502828e+00 -5.368738e+00 -1.290812e+00 3.385041e-02 7.129588e-01 -8.517383e-01 -5.534448e-03 6.089190e-01 4.292472e-01 1.304030e+00 1.299687e+00 2.346158e-01 4.871576e-01 1.567915e-01 -3.714906e-01
<VARIANCE> 25
 4.897884e+00 5.087523e+00 7.067338e+00 9.597290e+00 1.186292e+01 1.008343e+01 8.735444e+00 1.293770e+01 1.187052e+01 8.510546e+00 1.127240e+01 9.326589e+00 1.007283e+00 3.361697e-01 1.354225e+00 1.861875e+00 7.216308e-01 1.066104e+00 6.620682e-01 7.036509e-01 7.600911e-01 8.707414e-01 8.884419e-01 6.859949e-01 5.687252e-02
<GCONST> 6.720293e+01
<TRANSP> 5
 0.000000e+00 1.000000e+00 0.000000e+00 0.000000e+00 0.000000e+00
 0.000000e+00 3.555498e-01 6.444502e-01 0.000000e+00 0.000000e+00
 0.000000e+00 0.000000e+00 5.759584e-01 4.240415e-01 0.000000e+00
 0.000000e+00 0.000000e+00 0.000000e+00 8.217058e-01 1.782943e-01
 0.000000e+00 0.000000e+00 0.000000e+00 0.000000e+00 0.000000e+00
<ENDHMM>
~h "mm"
<BEGINHMM>
<NUMSTATES> 5
<STATE> 2
<MEAN> 25
 7.636276e+00 -4.913237e-01 -6.212960e+00 3.639886e+00 7.466816e+00 -3.460263e+00 -7.779665e+00 -5.932589e-01 1.688856e+00 -3.746973e-01 -1.338063e+00 1.425146e-01 4.031216e-01 -1.134246e+00 -1.301397e+00 -9.488047e-01 -6.441222e-01 -1.127919e+00 -9.086047e-01 5.357780e-01 6.187031e-01 5.844100e-01 1.543936e+00 1.281038e+00 6.438041e-01
<VARIANCE> 25
 2.805283e+00 9.914069e+00 5.129705e+00 6.310039e+00 4.171258e+00 9.734412e+00 1.256967e+01 5.718781e+00 7.774601e+00 6.830521e+00 9.424188e+00 8.439374e+00 1.242514e-01 7.536123e-01 7.840127e-01 4.583016e-01 5.324388e-01 6.669452e-01 1.481145e+00 5.942845e-01 1.432403e+00 9.280341e-01 7.710824e-01 1.697024e+00 1.656270e-01
<GCONST> 6.327773e+01
<STATE> 3
<MEAN> 25
 7.920052e+00 4.099853e-01 -6.912418e+00 -8.260703e-01 3.022537e+00 -2.935118e+00 -5.048708e+00 -4.689650e-02 1.017219e+00 3.124336e-01 3.775618e-01 1.309243e+00 -5.391849e-01 8.253599e-01 3.363868e-01 -1.186528e+00 -1.398544e+00 7.935476e-01 1.457749e+00 -1.705194e-02 -2.729492e-01 4.340403e-01 2.935955e-01 3.743350e-01 -6.791521e-01
<VARIANCE> 25
 3.211228e+00 5.990594e+00 7.118369e+00 5.440568e+00 7.414589e+00 6.530204e+00 9.166397e+00 8.519011e+00 1.294297e+01 7.753892e+00 4.586102e+00 8.989688e+00 4.400853e-01 5.969985e-01 5.964841e-01 5.696824e-01 3.035027e-01 5.853836e-01 9.794437e-01 6.377216e-01 9.459673e-01 5.426636e-01 5.803465e-01 9.655318e-01 3.263175e-01
<GCONST> 6.214555e+01
<STATE> 4
<MEAN> 25
 2.814954e+00 2.515372e+00 -4.508409e+00 -3.374177e+00 -7.785274e-01 7.187943e-01 1.918641e+00 1.555927e+00 5.548693e-01 1.342994e+00 1.514567e+00 2.947908e+00 -1.175001e+00 6.252418e-02 6.232644e-01 -3.780719e-02 -3.854297e-01 5.662305e-01 9.979935e-01 3.098006e-01 -1.587210e-01 6.865124e-02 3.246790e-01 2.679567e-01 -8.283115e-01
<VARIANCE> 25
 7.095837e+00 4.579968e+00 3.437975e+00 5.409338e+00 5.921340e+00 3.956614e+00 1.350233e+01 1.837512e+01 9.910473e+00 8.175411e+00 9.945903e+00 1.098387e+01 3.106319e-01 3.714522e-01 4.432138e-01 4.078913e-01 4.271917e-01 4.413738e-01 7.258956e-01 8.382816e-01 6.772972e-01 6.698111e-01 7.093598e-01 7.794210e-01 1.427193e-01
<GCONST> 6.074231e+01
<TRANSP> 5
 0.000000e+00 1.000000e+00 0.000000e+00 0.000000e+00 0.000000e+00
 0.000000e+00 6.641910e-01 3.358089e-01 0.000000e+00 0.000000e+00
 0.000000e+00 0.000000e+00 6.942219e-01 3.057782e-01 0.000000e+00
 0.000000e+00 0.000000e+00 0.000000e+00 7.239965e-01 2.760035e-01
 0.000000e+00 0.000000e+00 0.000000e+00 0.000000e+00 0.000000e+00
<ENDHMM>
~h "nn"
<BEGINHMM>
<NUMSTATES> 5
<STATE> 2
<MEAN> 25
 2.929909e+00 1.122475e+00 -2.687408e+00 3.439660e+00 5.980352e+00 -2.954364e-03 -2.446376e+00 6.988162e-01 -7.333757e-01 -1.388838e+00 -1.205276e+00 -1.363001e+00 -3.024516e-01 -1.689249e-01 -6.512818e-01 -1.779880e-01 -4.933763e-02 7.031599e-02 -1.796204e-01 2.058554e-01 1.282054e+00 1.137997e+00 4.181307e-01 1.020134e+00 -3.743190e-01
<VARIANCE> 25
 2.638711e+00 7.232029e+00 2.772247e+00 1.267481e+01 2.038627e+01 1.820594e+01 2.486213e+01 9.365137e+00 1.207507e+01 1.671525e+01 9.976732e+00 2.056281e+01 3.822680e-01 1.309199e+00 5.321139e-01 3.812885e-01 6.422341e-01 1.388344e+00 2.361161e+00 1.243292e+00 1.209709e+00 9.748603e-01 1.013891e+00 2.860002e+00 4.447156e-01
<GCONST> 7.354729e+01
<STATE> 3
<MEAN> 25
 2.715688e+00 1.436421e+00 -3.855855e+00 1.073310e+00 3.381359e+00 -3.535147e-01 -1.671240e+00 4.527552e-01 1.681816e+00 2.662413e+00 6.511716e-01 1.437708e+00 -2.127901e-01 3.224799e-01 2.850711e-01 -7.443604e-02 -4.253833e-01 2.798842e-01 5.187463e-01 -3.703392e-02 2.236471e-01 3.168796e-01 -6.467514e-02 6.064849e-02 -2.800857e-01
<VARIANCE> 25
 6.864697e+00 4.459139e+00 4.774769e+00 7.296558e+00 8.141560e+00 2.096908e+01 1.674716e+01 4.717977e+00 6.311479e+00 7.440462e+00 9.982630e+00 1.830350e+01 2.586219e-01 4.501373e-01 3.625849e-01 1.064979e+00 5.479897e-01 9.348331e-01 1.382717e+00 7.538401e-01 1.664249e+00 8.556699e-01 1.262233e+00 1.084923e+00 1.329935e-01
<GCONST> 6.640681e+01
<STATE> 4
<MEAN> 25
 2.957687e+00 1.353354e+00 -8.545182e-01 4.708585e+00 4.724200e+00 -6.254679e-01 -2.424825e+00 8.370116e-01 8.518898e-01 -2.290852e-02 -2.192646e+00 -2.837886e+00 5.477928e-01 -4.814183e-01 -3.156195e-01 5.468617e-01 2.732506e-01 -1.094823e+00 -1.101681e+00 2.700742e-01 4.079354e-01 -8.474471e-02 3.510022e-01 2.577394e-01 4.896217e-01
<VARIANCE> 25
 4.537917e+00 1.235544e+01 1.224601e+01 9.302610e+00 1.037362e+01 2.088764e+01 1.564611e+01 7.169388e+00 6.660130e+00 9.622577e+00 1.406693e+01 2.056255e+01 3.060269e-01 7.690740e-01 2.508563e+00 1.030176e+00 1.098810e+00 1.686752e+00 1.197689e+00 7.696472e-01 7.142181e-01 6.807858e-01 1.629912e+00 4.639505e+00 3.366273e-01
<GCONST> 7.488669e+01
<TRANSP> 5
 0.000000e+00 1.000000e+00 0.000000e+00 0.000000e+00 0.000000e+00
 0.000000e+00 5.573847e-01 4.426154e-01 0.000000e+00 0.000000e+00
 0.000000e+00 0.000000e+00 5.379658e-01 4.620342e-01 0.000000e+00
 0.000000e+00 0.000000e+00 0.000000e+00 7.858959e-01 2.141041e-01
 0.000000e+00 0.000000e+00 0.000000e+00 0.000000e+00 0.000000e+00
<ENDHMM>
~h "oo"
<BEGINHMM>
<NUMSTATES> 5
<STATE> 2
<MEAN> 25
 7.810135e+00 7.250411e+00 4.084600e-01 -1.839225e+00 -8.429173e+00 -1.336307e+01 -8.722106e+00 1.614238e+00 6.044983e+00 -3.091884e-01 -6.688821e+00 -5.035733e+00 7.776955e-01 -6.517794e-01 -1.135685e+00 -7.137980e-01 -4.916783e-01 -5.599050e-01 -1.542863e-01 1.318113e+00 1.754181e+00 -5.897208e-01 -2.072806e+00 -1.316489e+00 6.837139e-01
<VARIANCE> 25
 2.415985e+00 3.329281e+00 3.491119e+00 4.298683e+00 5.565824e+00 1.351557e+01 1.023925e+01 1.011454e+01 1.184309e+01 8.679934e+00 1.082882e+01 9.406119e+00 2.051857e-01 4.016668e-01 3.955206e-01 3.695527e-01 9.384502e-01 2.305750e+00 1.203996e+00 8.273776e-01 1.469578e+00 1.311528e+00 1.456084e+00 1.251090e+00 1.164796e-01
<GCONST> 6.441228e+01
<STATE> 3
<MEAN> 25
 8.945751e+00 5.275215e+00 -2.780267e+00 -3.646522e+00 -7.480406e+00 -1.088444e+01 -6.582867e+00 3.608812e+00 7.186989e+00 -2.769491e+00 -1.108185e+01 -7.164575e+00 1.790568e-01 -1.045803e+00 -1.212556e+00 4.216966e-02 1.686569e+00 1.990404e+00 7.312272e-01 -5.682718e-01 -1.265280e+00 -1.694788e+00 -9.516461e-01 4.427516e-01 3.652431e-01
<VARIANCE> 25
 2.774392e+00 3.778503e+00 4.328486e+00 3.821645e+00 7.753816e+00 1.350978e+01 7.557157e+00 7.580513e+00 1.102642e+01 1.728439e+01 1.643725e+01 9.943861e+00 9.674551e-02 6.475016e-01 6.701831e-01 5.975558e-01 2.096612e+00 2.131861e+00 1.105397e+00 1.044866e+00 1.886287e+00 1.337351e+00 1.217764e+00 1.173754e+00 1.105485e-01
<GCONST> 6.718509e+01
<STATE> 4
<MEAN> 25
 8.539758e+00 2.420764e+00 -4.939031e+00 -1.246093e+00 -3.377096e-01 -3.915332e+00 -5.864747e+00 -1.420993e+00 3.915291e-01 -6.497038e+00 -1.008218e+01 -3.714489e+00 -7.877152e-01 -1.285166e+00 1.957966e-02 9.236617e-01 1.937062e+00 2.812912e+00 8.943974e-01 -1.944219e+00 -2.109878e+00 -7.364106e-02 1.259531e+00 9.640135e-01 -1.010482e-01
<VARIANCE> 25
 3.436844e+00 6.911866e+00 4.996163e+00 7.131535e+00 2.723294e+01 3.027057e+01 8.268778e+00 2.249580e+01 2.380413e+01 2.196830e+01 1.244883e+01 8.923894e+00 5.067733e-01 1.279491e+00 1.196242e+00 7.013041e-01 2.965439e+00 2.341857e+00 1.492487e+00 1.873703e+00 2.351203e+00 2.082198e+00 1.613801e+00 8.580751e-01 1.377445e-01
<GCONST> 7.788715e+01
<TRANSP> 5
 0.000000e+00 1.000000e+00 0.000000e+00 0.000000e+00 0.000000e+00
 0.000000e+00 5.159959e-01 4.840041e-01 0.000000e+00 0.000000e+00
 0.000000e+00 0.000000e+00 3.656756e-01 6.343244e-01 0.000000e+00
 0.000000e+00 0.000000e+00 0.000000e+00 4.872286e-01 5.127714e-01
 0.000000e+00 0.000000e+00 0.000000e+00 0.000000e+00 0.000000e+00
<ENDHMM>
~h "rr"
<BEGINHMM>
<NUMSTATES> 5
<STATE> 2
<MEAN> 25
 4.652771e+00 -7.418777e-01 -6.827430e-01 7.550919e+00 8.785417e+00 -2.758769e-01 -9.355409e+00 -7.203350e+00 -4.438191e+00 -4.189512e+00 -4.482911e+00 -4.796094e+00 4.212993e-01 -7.469725e-01 -3.380874e-01 1.082806e+00 1.300081e+00 -5.763149e-01 -1.912345e+00 -5.417091e-01 2.692320e-01 -3.644614e-01 -3.427064e-01 -3.340019e-01 4.778320e-01
<VARIANCE> 25
 4.902290e+00 9.246182e+00 7.333848e+00 1.321696e+01 1.907249e+01 1.144286e+01 3.548249e+01 1.326736e+01 1.115902e+01 1.021792e+01 8.669342e+00 8.879935e+00 7.010280e-01 8.398911e-01 7.614512e-01 9.961095e-01 1.096413e+00 1.466824e+00 2.691718e+00 2.614635e+00 1.430939e+00 1.420442e+00 1.003121e+00 8.259183e-01 2.684606e-01
<GCONST> 7.578120e+01
<STATE> 3
<MEAN> 25
 6.388407e+00 -2.286221e+00 -7.358419e-01 1.052803e+01 1.056510e+01 -4.881374e+00 -1.512385e+01 -5.128087e+00 1.119918e-01 -4.100206e+00 -4.793647e+00 -4.922979e+00 3.067427e-03 5.785540e-01 1.422802e-01 -4.226842e-01 -5.232770e-01 3.788571e-01 1.182388e+00 3.713607e-01 1.451035e-01 5.296657e-01 2.153892e-01 2.851695e-01 -2.072460e-01
<VARIANCE> 25
 4.403660e+00 8.811523e+00 7.590488e+00 5.285045e+00 6.284063e+00 9.030207e+00 1.997262e+01 1.402134e+01 1.673693e+01 1.661962e+01 1.028526e+01 7.367812e+00 1.285913e-01 1.020872e+00 5.879559e-01 4.979664e-01 4.636187e-01 1.227822e+00 1.903350e+00 8.538806e-01 1.531597e+00 8.936350e-01 7.609085e-01 6.490445e-01 1.993205e-01
<GCONST> 6.758571e+01
<STATE> 4
<MEAN> 25
 3.025816e+00 -5.745116e-01 4.196449e+00 5.527922e+00 4.853323e+00 2.611804e+00 -3.887931e+00 -6.799891e+00 -5.720114e+00 -3.418135e+00 -1.752300e+00 -4.505590e+00 -1.916475e+00 -4.080119e-02 2.512856e+00 -1.598417e+00 -1.881466e+00 1.455452e+00 3.291834e+00 3.229054e-01 -1.001430e+00 3.341750e-01 1.642757e+00 -7.135914e-01 -1.466517e-01
<VARIANCE> 25
 1.740741e+01 1.252827e+01 3.294142e+01 1.361058e+01 2.128838e+01 9.610805e+00 2.541377e+01 1.736207e+01 1.877167e+01 8.885444e+00 2.046030e+01 7.702933e+00 2.174082e+00 1.647548e+00 2.473085e+00 1.277860e+00 1.973465e+00 1.204599e+00 1.020755e+00 7.953549e-01 1.010809e+00 1.229758e+00 3.510014e+00 5.851032e-01 1.900683e-01
<GCONST> 8.138580e+01
<TRANSP> 5
 0.000000e+00 1.000000e+00 0.000000e+00 0.000000e+00 0.000000e+00
 0.000000e+00 8.471535e-01 1.528466e-01 0.000000e+00 0.000000e+00
 0.000000e+00 0.000000e+00 8.113389e-01 1.886611e-01 0.000000e+00
 0.000000e+00 0.000000e+00 0.000000e+00 5.097128e-01 4.902872e-01
 0.000000e+00 0.000000e+00 0.000000e+00 0.000000e+00 0.000000e+00
<ENDHMM>
~h "sp"
<BEGINHMM>
<NUMSTATES> 3
<STATE> 2
~s "silst"
<TRANSP> 3
 0.000000e+00 3.166997e-01 6.833003e-01
 0.000000e+00 8.526525e-01 1.473475e-01
 0.000000e+00 0.000000e+00 0.000000e+00
<ENDHMM>
~h "ss"
<BEGINHMM>
<NUMSTATES> 5
<STATE> 2
<MEAN> 25
 2.306688e+00 4.902723e+00 2.500667e+00 4.084960e+00 3.011871e+00 1.647277e+00 2.041482e+00 9.354064e-01 -6.514090e-01 -8.923567e-01 -3.770242e+00 -5.151983e+00 7.686880e-01 4.791299e-01 5.928599e-01 3.864390e-02 -5.465413e-01 -7.994351e-01 -6.903056e-01 -4.993354e-01 -6.222214e-01 -8.131887e-01 -5.674745e-01 -7.773702e-01 5.698205e-01
<VARIANCE> 25
 4.815797e+00 1.239012e+01 3.772461e+00 7.712313e+00 1.141459e+01 8.633153e+00 2.953762e+01 1.426986e+01 1.698504e+01 1.082238e+01 1.032316e+01 2.205015e+01 1.543055e+00 1.279380e+00 1.018654e+00 6.592493e-01 1.222229e+00 1.268830e+00 2.968961e+00 1.243108e+00 1.152455e+00 1.138584e+00 2.101460e+00 2.808105e+00 3.475931e-01
<GCONST> 7.769890e+01
<STATE> 3
<MEAN> 25
 2.752374e+00 5.173299e+00 2.860824e+00 3.620979e+00 2.360402e+00 1.327505e+00 1.046288e+00 -7.559772e-01 -2.420277e+00 -2.359274e+00 -3.789978e+00 -4.385380e+00 8.883433e-01 1.136983e-01 2.443630e-01 -4.831607e-01 -9.956068e-01 -1.502992e+00 -1.451013e+00 -6.935121e-01 -6.987374e-01 -1.008223e+00 -5.162498e-01 -4.037329e-01 8.022791e-01
<VARIANCE> 25
 4.171466e+00 1.580109e+01 5.499534e+00 6.087185e+00 5.480035e+00 5.234222e+00 1.196657e+01 1.838130e+01 1.902140e+01 9.858796e+00 1.343819e+01 1.163269e+01 2.369900e+00 1.189355e+00 1.762182e+00 6.886869e-01 2.060372e+00 2.185869e+00 5.493545e+00 1.864371e+00 9.990590e-01 1.413628e+00 2.957768e+00 1.989922e+00 3.787085e-01
<GCONST> 7.888975e+01
<STATE> 4
<MEAN> 25
 3.892587e+00 5.254890e+00 2.856602e+00 2.356910e+00 2.315775e-01 -1.629575e+00 -1.445330e+00 -1.654840e+00 -3.122837e+00 -3.831121e+00 -5.457747e+00 -4.726408e+00 1.083743e+00 -5.936508e-01 -6.797303e-01 -6.017874e-01 -6.782435e-01 -1.853127e+00 -2.007326e+00 -6.329566e-01 -4.521760e-01 -1.077396e+00 -4.965163e-01 7.079832e-02 1.090869e+00
<VARIANCE> 25
 9.253984e+00 2.435253e+01 1.140027e+01 4.976501e+00 6.691087e+00 6.323272e+00 7.961905e+00 1.340046e+01 1.487588e+01 8.955297e+00 2.058698e+01 1.014480e+01 2.675044e+00 6.769933e-01 2.373660e+00 8.658189e-01 2.177761e+00 2.838673e+00 5.821815e+00 1.511019e+00 1.278182e+00 9.630252e-01 2.354528e+00 1.440084e+00 4.303832e-01
<GCONST> 7.994753e+01
<TRANSP> 5
 0.000000e+00 1.000000e+00 0.000000e+00 0.000000e+00 0.000000e+00
 0.000000e+00 1.239540e-01 8.760461e-01 0.000000e+00 0.000000e+00
 0.000000e+00 0.000000e+00 4.655883e-04 9.995344e-01 0.000000e+00
 0.000000e+00 0.000000e+00 0.000000e+00 6.341342e-02 9.365866e-01
 0.000000e+00 0.000000e+00 0.000000e+00 0.000000e+00 0.000000e+00
<ENDHMM>
~h "tt"
<BEGINHMM>
<NUMSTATES> 5
<STATE> 2
<MEAN> 25
 -3.805416e+00 -3.163895e+00 5.611116e+00 -2.576686e+00 -2.912644e+00 1.361563e+00 2.990439e+00 -1.628804e+00 -5.281128e+00 1.742634e+00 5.316447e+00 -9.902400e-01 -4.638979e-01 -9.522735e-01 1.518114e+00 1.219227e+00 -6.549346e-02 -3.745712e-02 -1.067899e-01 1.696022e-01 -1.258021e-01 -2.885576e-01 -1.311759e-01 -9.385397e-01 3.587496e-01
<VARIANCE> 25
 1.774026e+01 1.377236e+01 2.911218e+01 3.117306e+01 2.545540e+01 1.036029e+01 2.160630e+01 1.636991e+01 1.512283e+01 1.163884e+01 2.198880e+01 2.016846e+01 5.361820e+00 3.658889e+00 5.907098e+00 3.422852e+00 5.575631e+00 7.782931e-01 6.094040e+00 3.339123e+00 1.487575e+00 2.243365e+00 7.121488e+00 1.090187e+00 3.768847e-01
<GCONST> 9.370733e+01
<STATE> 3
<MEAN> 25
 -2.708698e-01 -1.898251e+00 3.848886e+00 2.981993e+00 2.247721e+00 1.319249e+00 -2.503484e+00 -4.710724e+00 -5.448904e+00 -1.311857e+00 -2.828523e-01 -2.700789e+00 -3.379587e-01 -1.560463e-01 -1.195612e-01 -1.348737e-02 1.173908e-02 -2.073320e-02 4.145502e-01 5.049914e-01 5.040768e-01 2.496401e-01 3.921180e-01 4.242526e-01 -2.020201e-01
<VARIANCE> 25
 2.297212e+01 1.973396e+01 2.094701e+01 1.826538e+01 2.748957e+01 1.311828e+01 4.654419e+01 3.252502e+01 9.643742e+00 1.881072e+01 3.762803e+01 1.061069e+01 2.467580e+00 2.816423e+00 3.955665e+00 1.243727e+00 3.402471e+00 1.043214e+00 5.244013e+00 2.780402e+00 1.370418e+00 1.109417e+00 2.836034e+00 1.275943e+00 9.744362e-01
<GCONST> 9.156872e+01
<STATE> 4
<MEAN> 25
 -3.926436e+00 -3.982028e+00 2.744521e+00 8.142241e-01 -1.239110e+00 1.405521e+00 3.087314e+00 1.896049e-02 -2.135034e+00 2.100034e+00 3.758068e+00 6.885943e-01 -1.190156e-01 2.132164e-01 -6.534383e-01 1.858757e-01 1.921095e-01 1.571000e-01 2.349457e-01 4.866853e-01 7.378109e-01 1.306163e-01 4.095799e-02 5.152280e-01 -4.976532e-01
<VARIANCE> 25
 1.242160e+01 2.048566e+01 2.864203e+01 1.003935e+01 1.446544e+01 8.922244e+00 1.779760e+01 1.412773e+01 9.032935e+00 1.404954e+01 1.725528e+01 1.635246e+01 6.013852e-01 1.614823e+00 1.878269e+00 1.166084e+00 1.134046e+00 8.443432e-01 7.892080e-01 9.586231e-01 1.188580e+00 8.053513e-01 1.219224e+00 9.823951e-01 3.789210e-01
<GCONST> 7.761958e+01
<TRANSP> 5
 0.000000e+00 1.000000e+00 0.000000e+00 0.000000e+00 0.000000e+00
 0.000000e+00 6.509946e-01 3.490054e-01 0.000000e+00 0.000000e+00
 0.000000e+00 0.000000e+00 4.357711e-01 5.642290e-01 0.000000e+00
 0.000000e+00 0.000000e+00 0.000000e+00 6.029461e-01 3.970539e-01
 0.000000e+00 0.000000e+00 0.000000e+00 0.000000e+00 0.000000e+00
<ENDHMM>
~h "ur"
<BEGINHMM>
<NUMSTATES> 5
<STATE> 2
<MEAN> 25
 5.296011e+00 3.812726e+00 2.758546e+00 2.721071e+00 -3.344354e+00 -6.492627e+00 -4.259925e+00 4.886638e+00 2.036038e+00 -9.927080e+00 -1.090084e+01 -3.652619e+00 -8.868511e-01 -1.039685e+00 2.072800e+00 1.366782e-02 -4.748099e-01 8.609425e-01 1.274747e-01 9.879475e-01 9.943688e-01 -1.334430e+00 7.816366e-01 4.130352e-02 4.319888e-01
<VARIANCE> 25
 9.497683e+00 5.054516e+00 1.181666e+01 4.276020e+00 2.744198e+00 1.893232e+01 1.270320e+01 9.547381e+00 1.474536e+01 1.048838e+01 2.055796e+01 1.181301e+01 3.777489e+00 2.836012e+00 2.026260e+00 9.799468e-01 6.083139e-01 2.038628e+00 4.777148e+00 9.642448e-01 2.299732e+00 1.004443e+00 1.409291e+01 2.624949e+00 8.187938e-02
<GCONST> 7.976842e+01
<STATE> 3
<MEAN> 25
 -5.290560e+00 -4.227553e+00 1.306957e+01 -2.508327e-01 -5.516926e+00 -2.153725e+00 2.883139e+00 7.528058e+00 4.103817e-01 -1.279309e+01 4.294480e+00 -1.289055e+00 -2.356171e+00 -1.469452e+00 1.203143e+00 -1.021106e+00 -1.762253e-01 4.898759e-01 1.969743e+00 2.039409e-01 -1.069451e+00 2.465905e-01 3.542224e+00 7.108639e-01 5.247351e-02
<VARIANCE> 25
 8.475842e+00 1.228657e+01 4.746005e+00 1.482018e+01 5.139260e+00 8.132595e+00 1.382531e+01 8.781070e+00 1.735369e+01 1.304353e+01 1.862967e+01 4.113062e+01 1.148736e+00 1.115571e+00 1.785451e+00 8.318869e-01 5.422215e-01 1.070742e+00 1.616397e+00 1.242146e+00 1.165099e+00 2.130183e+00 2.141347e+00 9.940047e-01 1.104144e-01
<GCONST> 7.569933e+01
<STATE> 4
<MEAN> 25
 -7.783426e+00 -6.501993e+00 9.749240e+00 -2.141457e-01 -3.057081e+00 -1.166179e-01 5.354109e+00 9.254991e+00 2.303562e-01 -8.433422e+00 9.168192e+00 2.365695e+00 1.074682e-01 3.679750e-01 -1.613670e+00 -1.167891e-01 9.499348e-01 6.738648e-01 1.248207e-01 -2.185669e-01 1.091586e-01 1.891562e+00 2.151430e-03 3.005881e-01 -6.856769e-01
<VARIANCE> 25
 3.145540e+00 7.348585e+00 1.755555e+01 1.728191e+01 8.710757e+00 9.046425e+00 1.587017e+01 1.789163e+01 1.463331e+01 1.316331e+01 2.030168e+01 2.682810e+01 5.624143e-01 7.297933e-01 1.161366e+00 5.481858e-01 1.190259e+00 3.934732e-01 6.833799e-01 1.731655e+00 9.147743e-01 9.999999e-01 1.550069e+00 9.454502e-01 1.559749e-01
<GCONST> 7.288186e+01
<TRANSP> 5
 0.000000e+00 1.000000e+00 0.000000e+00 0.000000e+00 0.000000e+00
 0.000000e+00 7.432804e-01 2.567195e-01 0.000000e+00 0.000000e+00
 0.000000e+00 0.000000e+00 7.114591e-01 2.885409e-01 0.000000e+00
 0.000000e+00 0.000000e+00 0.000000e+00 6.372924e-01 3.627076e-01
 0.000000e+00 0.000000e+00 0.000000e+00 0.000000e+00 0.000000e+00
<ENDHMM>
~h "yy"
<BEGINHMM>
<NUMSTATES> 5
<STATE> 2
<MEAN> 25
 6.435238e+00 -7.185049e-02 -2.471146e+00 8.147980e+00 1.157433e+01 -7.189161e-01 -1.354613e+01 -6.637623e+00 -4.452379e+00 -7.966526e+00 -4.723456e+00 -3.389874e+00 -6.280417e-01 -1.162971e+00 2.855195e-01 1.693766e+00 1.076107e+00 -3.106976e-01 -5.010749e-01 -6.828939e-01 -4.861484e-02 1.384463e+00 1.457488e+00 -4.809222e-01 6.514885e-02
<VARIANCE> 25
 1.327202e+00 2.799905e+00 2.103201e+00 4.978533e+00 8.384271e+00 5.686595e+00 8.424886e+00 5.563317e+00 8.804894e+00 8.584765e+00 9.320261e+00 5.829405e+00 1.808944e-01 2.642602e-01 6.077921e-01 4.028622e-01 1.020844e+00 5.839015e-01 2.496704e+00 1.197233e+00 8.336366e-01 4.434375e-01 9.717022e-01 6.671736e-01 9.041473e-02
<GCONST> 5.793837e+01
<STATE> 3
<MEAN> 25
 3.949091e+00 -4.194231e-01 -5.924311e-02 9.864092e+00 1.061514e+01 -6.589270e-01 -8.958576e+00 -6.801541e+00 -5.631637e+00 -5.243981e+00 -3.327931e+00 -5.151957e+00 -1.565687e+00 4.635583e-01 7.572161e-01 -5.931854e-01 -1.193989e+00 1.043004e+00 3.202386e+00 2.472457e-01 -5.472341e-01 1.792532e+00 8.539822e-01 9.592493e-02 -1.130139e+00
<VARIANCE> 25
 2.633875e+00 3.895688e+00 7.275981e+00 4.729970e+00 6.382035e+00 7.861245e+00 1.884450e+01 8.553068e+00 1.245162e+01 6.469416e+00 8.742373e+00 7.738460e+00 7.364518e-02 4.002590e-01 7.707349e-01 1.065911e+00 7.304304e-01 8.211111e-01 8.179100e-01 9.054713e-01 9.267043e-01 6.109958e-01 1.373799e+00 1.475574e+00 1.488358e-01
<GCONST> 6.311570e+01
<STATE> 4
<MEAN> 25
 -4.057052e-01 1.147297e+00 -2.888913e-02 4.523122e+00 5.876891e+00 2.682357e+00 -1.070847e+00 -4.008720e+00 -4.778941e+00 -9.872919e-01 -1.312197e+00 -2.066948e+00 -1.657201e+00 -5.274464e-01 8.386146e-01 -1.784817e+00 -1.754219e+00 3.448184e-01 1.887271e+00 1.451259e+00 4.975055e-01 1.141061e+00 1.165312e+00 6.145232e-01 -5.510436e-01
<VARIANCE> 25
 1.952047e+00 2.521517e+00 8.534806e+00 5.667151e+00 4.760610e+00 5.375008e+00 7.675854e+00 9.940265e+00 9.649687e+00 5.769840e+00 6.794970e+00 1.150271e+01 2.196873e-01 1.239563e+00 1.989573e+00 7.569883e-01 9.184300e-01 7.151564e-01 1.052491e+00 7.518112e-01 6.913827e-01 7.954846e-01 1.550420e+00 1.246981e+00 5.570191e-01
<GCONST> 6.530514e+01
<TRANSP> 5
 0.000000e+00 1.000000e+00 0.000000e+00 0.000000e+00 0.000000e+00
 0.000000e+00 4.293184e-01 5.706816e-01 0.000000e+00 0.000000e+00
 0.000000e+00 0.000000e+00 5.281630e-01 4.718371e-01 0.000000e+00
 0.000000e+00 0.000000e+00 0.000000e+00 6.588343e-01 3.411657e-01
 0.000000e+00 0.000000e+00 0.000000e+00 0.000000e+00 0.000000e+00
<ENDHMM>
~h "sil"
<BEGINHMM>
<NUMSTATES> 5
<STATE> 2
<MEAN> 25
 -3.785277e+00 1.099302e-01 -3.060414e+00 -1.502155e+00 1.423016e-01 1.732863e+00 3.831370e+00 2.145061e+00 1.539814e+00 3.514576e+00 3.886382e+00 4.616303e+00 -5.573056e-02 -2.514727e-02 1.540224e-01 1.301787e-01 1.752804e-01 -5.519306e-03 8.996320e-03 -2.666678e-02 -1.110549e-01 -3.187224e-01 -9.529803e-02 -1.971829e-01 6.352618e-02
<VARIANCE> 25
 3.789118e+00 3.772878e+00 5.174585e+00 6.070063e+00 7.651431e+00 9.371862e+00 7.805376e+00 7.532461e+00 8.501916e+00 8.937394e+00 1.194042e+01 9.090180e+00 2.410102e-01 3.256106e-01 5.268230e-01 6.208314e-01 7.718101e-01 9.456566e-01 8.157945e-01 8.865814e-01 9.909065e-01 1.032648e+00 1.304389e+00 1.024924e+00 1.771455e-01
<GCONST> 6.369947e+01
<STATE> 3
~s "silst"
<STATE> 4
<MEAN> 25
 -4.298428e+00 -2.969564e-01 -3.461726e+00 -1.690215e+00 5.747318e-03 2.159006e+00 4.162154e+00 2.727177e+00 2.002205e+00 4.257998e+00 4.143778e+00 6.138730e+00 -3.631664e-03 1.505756e-03 -2.802444e-03 -3.425662e-03 -3.716701e-03 3.675012e-03 -1.293700e-02 -8.794350e-03 -7.431827e-03 7.285833e-03 2.836280e-03 2.372928e-02 -6.336304e-03
<VARIANCE> 25
 9.242380e-01 1.395799e+00 2.162113e+00 2.770910e+00 3.640140e+00 4.162392e+00 4.678089e+00 5.624093e+00 5.978416e+00 6.162116e+00 5.739418e+00 6.422096e+00 4.803188e-02 1.033944e-01 1.566748e-01 2.324814e-01 3.044541e-01 3.369331e-01 4.468031e-01 5.372096e-01 5.786514e-01 6.072919e-01 5.547521e-01 5.016261e-01 2.497259e-02
<GCONST> 4.285696e+01
<TRANSP> 5
 0.000000e+00 1.000000e+00 0.000000e+00 0.000000e+00 0.000000e+00
 0.000000e+00 6.164768e-01 2.489697e-01 1.345535e-01 0.000000e+00
 0.000000e+00 0.000000e+00 8.483943e-01 1.516057e-01 0.000000e+00
 0.000000e+00 3.725162e-02 0.000000e+00 9.344499e-01 2.829845e-02
 0.000000e+00 0.000000e+00 0.000000e+00 0.000000e+00 0.000000e+00
<ENDHMM>
