~o
<STREAMINFO> 1 25
<VECSIZE> 25<NULLD><MFCC_D_N_Z_0><DIAGC>
~t "T_a"
<TRANSP> 5
 0.000000e+00 1.000000e+00 0.000000e+00 0.000000e+00 0.000000e+00
 0.000000e+00 4.350969e-01 5.649031e-01 0.000000e+00 0.000000e+00
 0.000000e+00 0.000000e+00 5.331270e-01 4.668730e-01 0.000000e+00
 0.000000e+00 0.000000e+00 0.000000e+00 2.638190e-01 7.361810e-01
 0.000000e+00 0.000000e+00 0.000000e+00 0.000000e+00 0.000000e+00
~t "T_b"
<TRANSP> 5
 0.000000e+00 1.000000e+00 0.000000e+00 0.000000e+00 0.000000e+00
 0.000000e+00 7.485432e-01 2.514568e-01 0.000000e+00 0.000000e+00
 0.000000e+00 0.000000e+00 4.434247e-01 5.565754e-01 0.000000e+00
 0.000000e+00 0.000000e+00 0.000000e+00 4.016622e-01 5.983378e-01
 0.000000e+00 0.000000e+00 0.000000e+00 0.000000e+00 0.000000e+00
~t "T_d"
<TRANSP> 5
 0.000000e+00 1.000000e+00 0.000000e+00 0.000000e+00 0.000000e+00
 0.000000e+00 3.031024e-01 6.968976e-01 0.000000e+00 0.000000e+00
 0.000000e+00 0.000000e+00 4.699568e-01 5.300431e-01 0.000000e+00
 0.000000e+00 0.000000e+00 0.000000e+00 6.592668e-01 3.407333e-01
 0.000000e+00 0.000000e+00 0.000000e+00 0.000000e+00 0.000000e+00
~t "T_f"
<TRANSP> 5
 0.000000e+00 1.000000e+00 0.000000e+00 0.000000e+00 0.000000e+00
 0.000000e+00 5.519593e-01 4.480407e-01 0.000000e+00 0.000000e+00
 0.000000e+00 0.000000e+00 7.246903e-01 2.753097e-01 0.000000e+00
 0.000000e+00 0.000000e+00 0.000000e+00 6.176385e-01 3.823616e-01
 0.000000e+00 0.000000e+00 0.000000e+00 0.000000e+00 0.000000e+00
~t "T_g"
<TRANSP> 5
 0.000000e+00 1.000000e+00 0.000000e+00 0.000000e+00 0.000000e+00
 0.000000e+00 6.297072e-01 3.702928e-01 0.000000e+00 0.000000e+00
 0.000000e+00 0.000000e+00 7.104751e-01 2.895248e-01 0.000000e+00
 0.000000e+00 0.000000e+00 0.000000e+00 7.516540e-01 2.483460e-01
 0.000000e+00 0.000000e+00 0.000000e+00 0.000000e+00 0.000000e+00
~t "T_h"
<TRANSP> 5
 0.000000e+00 1.000000e+00 0.000000e+00 0.000000e+00 0.000000e+00
 0.000000e+00 7.237517e-01 2.762483e-01 0.000000e+00 0.000000e+00
 0.000000e+00 0.000000e+00 7.903031e-01 2.096969e-01 0.000000e+00
 0.000000e+00 0.000000e+00 0.000000e+00 7.655737e-01 2.344263e-01
 0.000000e+00 0.000000e+00 0.000000e+00 0.000000e+00 0.000000e+00
~t "T_i"
<TRANSP> 5
 0.000000e+00 1.000000e+00 0.000000e+00 0.000000e+00 0.000000e+00
 0.000000e+00 5.577207e-01 4.422794e-01 0.000000e+00 0.000000e+00
 0.000000e+00 0.000000e+00 5.007870e-01 4.992130e-01 0.000000e+00
 0.000000e+00 0.000000e+00 0.000000e+00 8.246351e-01 1.753649e-01
 0.000000e+00 0.000000e+00 0.000000e+00 0.000000e+00 0.000000e+00
~t "T_j"
<TRANSP> 5
 0.000000e+00 1.000000e+00 0.000000e+00 0.000000e+00 0.000000e+00
 0.000000e+00 5.023730e-01 4.976270e-01 0.000000e+00 0.000000e+00
 0.000000e+00 0.000000e+00 8.972239e-01 1.027761e-01 0.000000e+00
 0.000000e+00 0.000000e+00 0.000000e+00 7.093117e-01 2.906883e-01
 0.000000e+00 0.000000e+00 0.000000e+00 0.000000e+00 0.000000e+00
~t "T_m"
<TRANSP> 5
 0.000000e+00 1.000000e+00 0.000000e+00 0.000000e+00 0.000000e+00
 0.000000e+00 8.110654e-01 1.889346e-01 0.000000e+00 0.000000e+00
 0.000000e+00 0.000000e+00 6.553039e-01 3.446961e-01 0.000000e+00
 0.000000e+00 0.000000e+00 0.000000e+00 8.113878e-01 1.886122e-01
 0.000000e+00 0.000000e+00 0.000000e+00 0.000000e+00 0.000000e+00
~t "T_n"
<TRANSP> 5
 0.000000e+00 1.000000e+00 0.000000e+00 0.000000e+00 0.000000e+00
 0.000000e+00 7.261376e-01 2.738624e-01 0.000000e+00 0.000000e+00
 0.000000e+00 0.000000e+00 5.256576e-01 4.743424e-01 0.000000e+00
 0.000000e+00 0.000000e+00 0.000000e+00 5.057808e-01 4.942192e-01
 0.000000e+00 0.000000e+00 0.000000e+00 0.000000e+00 0.000000e+00
~t "T_p"
<TRANSP> 5
 0.000000e+00 1.000000e+00 0.000000e+00 0.000000e+00 0.000000e+00
 0.000000e+00 4.391877e-01 5.608122e-01 0.000000e+00 0.000000e+00
 0.000000e+00 0.000000e+00 3.234762e-01 6.765238e-01 0.000000e+00
 0.000000e+00 0.000000e+00 0.000000e+00 3.334899e-01 6.665101e-01
 0.000000e+00 0.000000e+00 0.000000e+00 0.000000e+00 0.000000e+00
~t "T_r"
<TRANSP> 5
 0.000000e+00 1.000000e+00 0.000000e+00 0.000000e+00 0.000000e+00
 0.000000e+00 4.697966e-01 5.302034e-01 0.000000e+00 0.000000e+00
 0.000000e+00 0.000000e+00 6.843147e-05 9.999316e-01 0.000000e+00
 0.000000e+00 0.000000e+00 0.000000e+00 2.727582e-01 7.272418e-01
 0.000000e+00 0.000000e+00 0.000000e+00 0.000000e+00 0.000000e+00
~t "T_s"
<TRANSP> 5
 0.000000e+00 1.000000e+00 0.000000e+00 0.000000e+00 0.000000e+00
 0.000000e+00 5.973270e-01 4.026730e-01 0.000000e+00 0.000000e+00
 0.000000e+00 0.000000e+00 8.161419e-01 1.838581e-01 0.000000e+00
 0.000000e+00 0.000000e+00 0.000000e+00 7.699834e-01 2.300166e-01
 0.000000e+00 0.000000e+00 0.000000e+00 0.000000e+00 0.000000e+00
~t "T_t"
<TRANSP> 5
 0.000000e+00 1.000000e+00 0.000000e+00 0.000000e+00 0.000000e+00
 0.000000e+00 5.455274e-01 4.544726e-01 0.000000e+00 0.000000e+00
 0.000000e+00 0.000000e+00 2.598191e-01 7.401809e-01 0.000000e+00
 0.000000e+00 0.000000e+00 0.000000e+00 3.792269e-01 6.207731e-01
 0.000000e+00 0.000000e+00 0.000000e+00 0.000000e+00 0.000000e+00
~t "T_v"
<TRANSP> 5
 0.000000e+00 1.000000e+00 0.000000e+00 0.000000e+00 0.000000e+00
 0.000000e+00 5.704660e-02 9.429533e-01 0.000000e+00 0.000000e+00
 0.000000e+00 0.000000e+00 9.253295e-04 9.990747e-01 0.000000e+00
 0.000000e+00 0.000000e+00 0.000000e+00 2.144014e-02 9.785599e-01
 0.000000e+00 0.000000e+00 0.000000e+00 0.000000e+00 0.000000e+00
~t "T_z"
<TRANSP> 5
 0.000000e+00 1.000000e+00 0.000000e+00 0.000000e+00 0.000000e+00
 0.000000e+00 8.414816e-01 1.585185e-01 0.000000e+00 0.000000e+00
 0.000000e+00 0.000000e+00 6.301683e-01 3.698318e-01 0.000000e+00
 0.000000e+00 0.000000e+00 0.000000e+00 4.236559e-01 5.763442e-01
 0.000000e+00 0.000000e+00 0.000000e+00 0.000000e+00 0.000000e+00
~t "T_aa"
<TRANSP> 5
 0.000000e+00 1.000000e+00 0.000000e+00 0.000000e+00 0.000000e+00
 0.000000e+00 5.304163e-01 4.695838e-01 0.000000e+00 0.000000e+00
 0.000000e+00 0.000000e+00 7.374296e-01 2.625705e-01 0.000000e+00
 0.000000e+00 0.000000e+00 0.000000e+00 7.507587e-01 2.492413e-01
 0.000000e+00 0.000000e+00 0.000000e+00 0.000000e+00 0.000000e+00
~t "T_ae"
<TRANSP> 5
 0.000000e+00 1.000000e+00 0.000000e+00 0.000000e+00 0.000000e+00
 0.000000e+00 7.287213e-01 2.712787e-01 0.000000e+00 0.000000e+00
 0.000000e+00 0.000000e+00 2.899095e-01 7.100906e-01 0.000000e+00
 0.000000e+00 0.000000e+00 0.000000e+00 1.318812e-01 8.681188e-01
 0.000000e+00 0.000000e+00 0.000000e+00 0.000000e+00 0.000000e+00
~t "T_ay"
<TRANSP> 5
 0.000000e+00 1.000000e+00 0.000000e+00 0.000000e+00 0.000000e+00
 0.000000e+00 7.758927e-01 2.241072e-01 0.000000e+00 0.000000e+00
 0.000000e+00 0.000000e+00 6.412644e-01 3.587356e-01 0.000000e+00
 0.000000e+00 0.000000e+00 0.000000e+00 5.823443e-01 4.176557e-01
 0.000000e+00 0.000000e+00 0.000000e+00 0.000000e+00 0.000000e+00
~t "T_ch"
<TRANSP> 5
 0.000000e+00 1.000000e+00 0.000000e+00 0.000000e+00 0.000000e+00
 0.000000e+00 8.196955e-01 1.803045e-01 0.000000e+00 0.000000e+00
 0.000000e+00 0.000000e+00 7.588825e-01 2.411175e-01 0.000000e+00
 0.000000e+00 0.000000e+00 0.000000e+00 7.925603e-01 2.074397e-01
 0.000000e+00 0.000000e+00 0.000000e+00 0.000000e+00 0.000000e+00
~t "T_ee"
<TRANSP> 5
 0.000000e+00 1.000000e+00 0.000000e+00 0.000000e+00 0.000000e+00
 0.000000e+00 5.918215e-01 4.081785e-01 0.000000e+00 0.000000e+00
 0.000000e+00 0.000000e+00 6.308206e-01 3.691795e-01 0.000000e+00
 0.000000e+00 0.000000e+00 0.000000e+00 5.136253e-01 4.863746e-01
 0.000000e+00 0.000000e+00 0.000000e+00 0.000000e+00 0.000000e+00
~t "T_ii"
<TRANSP> 5
 0.000000e+00 1.000000e+00 0.000000e+00 0.000000e+00 0.000000e+00
 0.000000e+00 9.421945e-02 9.057806e-01 0.000000e+00 0.000000e+00
 0.000000e+00 0.000000e+00 7.758331e-02 9.224167e-01 0.000000e+00
 0.000000e+00 0.000000e+00 0.000000e+00 2.088403e-01 7.911597e-01
 0.000000e+00 0.000000e+00 0.000000e+00 0.000000e+00 0.000000e+00
~t "T_ll"
<TRANSP> 5
 0.000000e+00 1.000000e+00 0.000000e+00 0.000000e+00 0.000000e+00
 0.000000e+00 3.383839e-01 6.616161e-01 0.000000e+00 0.000000e+00
 0.000000e+00 0.000000e+00 5.939974e-01 4.060026e-01 0.000000e+00
 0.000000e+00 0.000000e+00 0.000000e+00 7.799089e-01 2.200911e-01
 0.000000e+00 0.000000e+00 0.000000e+00 0.000000e+00 0.000000e+00
~t "T_mm"
<TRANSP> 5
 0.000000e+00 1.000000e+00 0.000000e+00 0.000000e+00 0.000000e+00
 0.000000e+00 6.567112e-01 3.432888e-01 0.000000e+00 0.000000e+00
 0.000000e+00 0.000000e+00 6.955427e-01 3.044573e-01 0.000000e+00
 0.000000e+00 0.000000e+00 0.000000e+00 6.922188e-01 3.077812e-01
 0.000000e+00 0.000000e+00 0.000000e+00 0.000000e+00 0.000000e+00
~t "T_nn"
<TRANSP> 5
 0.000000e+00 1.000000e+00 0.000000e+00 0.000000e+00 0.000000e+00
 0.000000e+00 6.211288e-01 3.788712e-01 0.000000e+00 0.000000e+00
 0.000000e+00 0.000000e+00 4.062996e-01 5.937003e-01 0.000000e+00
 0.000000e+00 0.000000e+00 0.000000e+00 7.554151e-01 2.445849e-01
 0.000000e+00 0.000000e+00 0.000000e+00 0.000000e+00 0.000000e+00
~t "T_oo"
<TRANSP> 5
 0.000000e+00 1.000000e+00 0.000000e+00 0.000000e+00 0.000000e+00
 0.000000e+00 5.146344e-01 4.853657e-01 0.000000e+00 0.000000e+00
 0.000000e+00 0.000000e+00 4.143256e-01 5.856744e-01 0.000000e+00
 0.000000e+00 0.000000e+00 0.000000e+00 5.061563e-01 4.938436e-01
 0.000000e+00 0.000000e+00 0.000000e+00 0.000000e+00 0.000000e+00
~t "T_rr"
<TRANSP> 5
 0.000000e+00 1.000000e+00 0.000000e+00 0.000000e+00 0.000000e+00
 0.000000e+00 8.307590e-01 1.692409e-01 0.000000e+00 0.000000e+00
 0.000000e+00 0.000000e+00 8.104810e-01 1.895190e-01 0.000000e+00
 0.000000e+00 0.000000e+00 0.000000e+00 5.870817e-01 4.129184e-01
 0.000000e+00 0.000000e+00 0.000000e+00 0.000000e+00 0.000000e+00
~t "T_ss"
<TRANSP> 5
 0.000000e+00 1.000000e+00 0.000000e+00 0.000000e+00 0.000000e+00
 0.000000e+00 1.506226e-01 8.493775e-01 0.000000e+00 0.000000e+00
 0.000000e+00 0.000000e+00 3.592309e-06 9.999964e-01 0.000000e+00
 0.000000e+00 0.000000e+00 0.000000e+00 7.384405e-02 9.261560e-01
 0.000000e+00 0.000000e+00 0.000000e+00 0.000000e+00 0.000000e+00
~t "T_tt"
<TRANSP> 5
 0.000000e+00 1.000000e+00 0.000000e+00 0.000000e+00 0.000000e+00
 0.000000e+00 6.304609e-01 3.695391e-01 0.000000e+00 0.000000e+00
 0.000000e+00 0.000000e+00 5.045146e-01 4.954855e-01 0.000000e+00
 0.000000e+00 0.000000e+00 0.000000e+00 5.962905e-01 4.037095e-01
 0.000000e+00 0.000000e+00 0.000000e+00 0.000000e+00 0.000000e+00
~t "T_ur"
<TRANSP> 5
 0.000000e+00 1.000000e+00 0.000000e+00 0.000000e+00 0.000000e+00
 0.000000e+00 6.450611e-01 3.549389e-01 0.000000e+00 0.000000e+00
 0.000000e+00 0.000000e+00 6.620953e-01 3.379047e-01 0.000000e+00
 0.000000e+00 0.000000e+00 0.000000e+00 6.733202e-01 3.266799e-01
 0.000000e+00 0.000000e+00 0.000000e+00 0.000000e+00 0.000000e+00
~t "T_yy"
<TRANSP> 5
 0.000000e+00 1.000000e+00 0.000000e+00 0.000000e+00 0.000000e+00
 0.000000e+00 4.285412e-01 5.714588e-01 0.000000e+00 0.000000e+00
 0.000000e+00 0.000000e+00 4.890600e-01 5.109400e-01 0.000000e+00
 0.000000e+00 0.000000e+00 0.000000e+00 6.034491e-01 3.965509e-01
 0.000000e+00 0.000000e+00 0.000000e+00 0.000000e+00 0.000000e+00
~s "ST_yy_4_1"
<MEAN> 25
 -9.648312e-02 1.488002e+00 -2.517026e-01 4.939178e+00 6.420041e+00 2.743812e+00 -8.937094e-01 -3.951102e+00 -4.977715e+00 -1.202346e+00 -1.358682e+00 -1.700137e+00 -1.536227e+00 -1.775661e-01 3.671572e-01 -1.835056e+00 -1.551033e+00 3.582542e-01 1.970886e+00 1.441297e+00 5.570107e-01 1.162578e+00 8.642089e-01 8.117396e-01 -7.731602e-01
<VARIANCE> 25
 1.352874e+00 2.032209e+00 8.464003e+00 4.274384e+00 4.332745e+00 5.410339e+00 7.391741e+00 8.575636e+00 8.869592e+00 5.244215e+00 7.570076e+00 1.160210e+01 1.444797e-01 7.393660e-01 1.115461e+00 7.267892e-01 7.175053e-01 6.460184e-01 8.974696e-01 7.840775e-01 6.705638e-01 6.449159e-01 1.329378e+00 1.051592e+00 3.584408e-01
<GCONST> 6.106968e+01
~s "ST_f_2_1"
<MEAN> 25
 7.919920e+00 2.009474e+00 -9.259154e+00 -8.156139e+00 -6.001185e+00 -7.056904e+00 -2.222085e+00 4.643941e+00 5.637305e+00 1.233397e+00 -3.823838e+00 -1.665226e-01 -1.864431e+00 1.042041e+00 1.198820e+00 -8.742520e-01 -5.759649e-01 1.404146e+00 1.750081e+00 -4.980664e-02 -5.637418e-01 1.066711e+00 1.473597e+00 1.085596e+00 -1.435343e+00
<VARIANCE> 25
 3.316559e+00 3.004516e+00 3.370350e+00 3.239094e+00 4.258607e+00 5.121438e+00 6.400098e+00 5.297993e+00 3.849807e+00 6.885506e+00 7.443437e+00 8.840072e+00 7.653137e-02 3.875557e-01 3.285785e-01 5.197080e-01 7.858723e-01 7.075660e-01 6.557065e-01 7.859612e-01 7.318939e-01 7.016082e-01 1.057043e+00 6.593426e-01 5.766855e-02
<GCONST> 5.429060e+01
~s "ST_f_3_1"
<MEAN> 25
 2.403969e+00 1.948418e+00 -6.784271e+00 -8.893699e+00 -6.645865e+00 -4.216149e+00 5.391072e-01 4.488205e+00 4.390526e+00 2.908225e+00 -2.555592e-01 3.349840e+00 -1.367499e+00 -2.416557e-01 5.460952e-01 7.632595e-01 5.301818e-01 9.117897e-01 7.753899e-01 -2.411228e-01 -4.487693e-01 2.754141e-01 8.313854e-01 1.033314e+00 -9.299811e-01
<VARIANCE> 25
 2.341315e+00 2.532623e+00 5.338026e+00 5.846460e+00 4.374631e+00 5.778695e+00 5.549755e+00 7.701767e+00 8.314051e+00 5.852818e+00 6.079619e+00 6.849946e+00 3.092367e-01 1.785296e-01 5.316472e-01 8.465693e-01 4.433360e-01 5.173819e-01 7.672204e-01 9.956211e-01 7.165315e-01 3.816725e-01 8.961559e-01 9.762134e-01 7.883803e-02
<GCONST> 5.635949e+01
~s "ST_f_4_1"
<MEAN> 25
 -1.227691e+00 7.200954e-01 -5.287812e+00 -4.425978e+00 -3.063220e+00 -1.751113e+00 1.584242e+00 2.840041e+00 2.912098e+00 3.457278e+00 2.239221e+00 5.494097e+00 -1.076184e+00 -9.786728e-01 1.207828e+00 5.544149e-01 3.940116e-01 3.839729e-01 2.127497e-01 -4.631608e-01 -2.444967e-01 -2.898820e-02 6.814487e-01 -4.618995e-01 1.358157e-01
<VARIANCE> 25
 2.246728e+00 1.473310e+00 3.127838e+00 5.275162e+00 3.796241e+00 4.598088e+00 9.538738e+00 5.687116e+00 4.181449e+00 3.950676e+00 8.074713e+00 8.792346e+00 1.738122e-01 3.855031e-01 8.980782e-01 9.723366e-01 8.535869e-01 4.153009e-01 6.722783e-01 1.060789e+00 8.468353e-01 6.653931e-01 7.876047e-01 1.022823e+00 3.446378e-01
<GCONST> 5.779890e+01
~s "ST_aa_2_1"
<MEAN> 25
 7.524466e+00 1.220634e+00 -6.142455e+00 -3.313328e+00 -3.842148e+00 -6.571315e+00 -4.963333e+00 2.112690e-01 3.522234e+00 -7.060932e-01 -4.635646e+00 -3.886166e-01 1.731830e+00 -6.536202e-01 -1.921915e+00 -9.824908e-01 -6.574276e-01 -1.375693e+00 -1.324794e+00 2.834090e-01 9.519372e-01 -2.658366e-01 -6.388416e-01 2.084298e-01 1.192154e+00
<VARIANCE> 25
 2.282876e+01 1.065773e+01 2.652243e+01 1.233524e+01 9.890262e+00 2.660942e+01 2.972610e+01 2.377352e+01 2.033387e+01 1.400301e+01 1.917521e+01 1.292948e+01 1.413280e+00 8.842786e-01 1.709501e+00 8.012379e-01 1.427052e+00 2.181920e+00 2.020633e+00 1.436108e+00 1.158655e+00 1.064336e+00 1.516091e+00 1.209223e+00 6.189449e-01
<GCONST> 8.360448e+01
~s "ST_aa_3_1"
<MEAN> 25
 1.048373e+01 1.157789e+00 -9.874694e+00 -6.437376e+00 -3.770655e+00 -6.156520e+00 -6.510447e+00 -1.166527e+00 3.229283e+00 -4.492925e-01 -4.396780e+00 1.008544e-01 -1.308712e-01 -6.275743e-01 -1.369609e-02 4.350996e-01 9.489120e-01 1.025893e+00 -2.061849e-01 -1.235993e+00 -1.259060e+00 -3.475865e-01 6.334641e-01 9.659633e-01 1.482252e-01
<VARIANCE> 25
 6.041533e+00 9.562661e+00 9.980257e+00 5.507607e+00 1.035550e+01 1.947695e+01 1.849191e+01 1.372274e+01 1.364224e+01 1.064310e+01 9.069194e+00 1.499647e+01 1.075977e-01 4.981775e-01 9.221952e-01 8.390890e-01 1.002335e+00 5.874500e-01 8.597026e-01 5.985389e-01 9.353413e-01 7.625340e-01 8.049759e-01 1.038801e+00 1.065945e-01
<GCONST> 6.761190e+01
~s "ST_aa_3_2"
<MEAN> 25
 1.134645e+01 -1.315754e+00 -1.128116e+01 -6.411802e+00 -5.397044e+00 -8.615726e+00 -7.130158e+00 1.142438e+00 5.232058e+00 -1.321715e+00 -5.605301e+00 2.130884e-01 -6.850958e-02 3.442025e-01 2.030846e-01 -4.058187e-01 -3.254372e-01 3.539953e-01 4.184221e-01 4.667924e-02 -5.002301e-02 3.339563e-02 1.815823e-02 -1.920698e-01 -1.046753e-01
<VARIANCE> 25
 2.882198e+00 7.824639e+00 7.900148e+00 5.478842e+00 6.530068e+00 1.125433e+01 1.270205e+01 1.355947e+01 1.538558e+01 7.044998e+00 1.076184e+01 8.477881e+00 1.655938e-01 5.131449e-01 8.962741e-01 5.798643e-01 5.009547e-01 8.258004e-01 6.187307e-01 1.423374e+00 9.958059e-01 8.025582e-01 7.581728e-01 5.716708e-01 1.356618e-01
<GCONST> 6.428841e+01
~s "ST_aa_4_1"
<MEAN> 25
 7.482346e+00 1.072315e+00 -6.533163e+00 -4.023546e+00 -1.208718e+00 -2.577941e+00 -4.448125e+00 -3.352229e+00 -1.532223e+00 -7.219687e-01 -1.466672e+00 1.453362e+00 -1.443460e+00 3.049476e-01 1.701743e+00 -6.835421e-02 -5.489590e-01 8.839312e-01 1.310263e+00 -1.466442e-01 -1.035103e+00 4.076533e-01 9.590263e-01 8.791022e-03 -8.278688e-01
<VARIANCE> 25
 1.009734e+01 1.122948e+01 1.617195e+01 8.549395e+00 1.447578e+01 2.217472e+01 3.115538e+01 2.981424e+01 2.836242e+01 7.527487e+00 1.733817e+01 1.550308e+01 3.435934e-01 9.128088e-01 1.161844e+00 1.147578e+00 1.027459e+00 1.001938e+00 1.709915e+00 1.051518e+00 1.198706e+00 8.611792e-01 1.113918e+00 1.261463e+00 2.446839e-01
<GCONST> 7.787785e+01
~s "ST_aa_4_2"
<MEAN> 25
 6.397434e+00 3.590636e+00 -6.188689e+00 -7.109512e+00 -6.050776e+00 -3.394262e+00 -1.255264e+00 -4.142031e-01 1.506514e-01 -1.469615e+00 -3.317480e+00 1.699791e+00 -1.383357e+00 4.022509e-01 7.707345e-01 3.869091e-01 3.946069e-01 7.362483e-01 1.260225e+00 3.518565e-01 -6.988791e-01 3.168149e-01 1.026929e+00 4.800867e-01 -1.057459e+00
<VARIANCE> 25
 1.260060e+01 3.909736e+00 5.265399e+00 5.358613e+00 5.871427e+00 6.064504e+00 1.468226e+01 8.919469e+00 9.925264e+00 9.106940e+00 1.503921e+01 9.768044e+00 1.472278e-01 9.870828e-01 4.749191e-01 7.697405e-01 6.655966e-01 8.442675e-01 1.333901e+00 1.043334e+00 1.150153e+00 7.476768e-01 8.864046e-01 7.569545e-01 2.448154e-01
<GCONST> 6.598722e+01
~s "ST_s_2_1"
<MEAN> 25
 -4.508811e+00 -4.192239e+00 1.089944e+01 -1.263965e+00 -4.063996e+00 3.403155e+00 4.329721e+00 -1.474553e+00 -4.265697e+00 -1.648935e+00 3.993081e+00 -4.956732e+00 -2.378014e+00 -1.083358e+00 2.229742e+00 -1.761329e+00 -1.263401e+00 1.107689e+00 1.684842e+00 3.316596e-01 1.568576e-02 5.882504e-01 2.022678e+00 8.839827e-03 8.758197e-02
<VARIANCE> 25
 1.617613e+01 7.918154e+00 2.609964e+01 2.088472e+01 2.389485e+01 1.462647e+01 1.433607e+01 2.669727e+01 1.533556e+01 1.370437e+01 2.422551e+01 2.921805e+01 2.214883e+00 1.429372e+00 4.743663e+00 2.098624e+00 1.699928e+00 1.302523e+00 2.874631e+00 1.273275e+00 2.042859e+00 1.044019e+00 3.192147e+00 1.725596e+00 3.194897e-01
<GCONST> 8.768006e+01
~s "ST_s_3_1"
<MEAN> 25
 -9.776398e+00 -5.139379e+00 1.257610e+01 -6.036252e+00 -4.067329e+00 5.767350e+00 6.082285e+00 6.624970e-01 -1.820852e+00 1.006297e+00 7.841264e+00 -2.598353e+00 5.262584e-03 1.973056e-01 -8.928491e-01 1.099696e-01 4.090057e-01 1.715303e-02 -3.207241e-02 3.290333e-01 3.835811e-01 4.793881e-01 -5.502650e-02 7.097159e-01 -4.890350e-01
<VARIANCE> 25
 4.033717e+00 8.717587e+00 1.592422e+01 9.641945e+00 1.910348e+01 1.417878e+01 1.225831e+01 1.237695e+01 1.661480e+01 1.283664e+01 1.310071e+01 1.530835e+01 7.746985e-01 7.073210e-01 1.678149e+00 1.439444e+00 1.260047e+00 1.110582e+00 8.978711e-01 8.973798e-01 1.077145e+00 9.542663e-01 1.366013e+00 1.125943e+00 2.384901e-01
<GCONST> 7.525327e+01
~s "ST_s_4_1"
<MEAN> 25
 -5.601999e+00 -3.798745e+00 5.586654e+00 -1.793571e+00 -2.768100e+00 4.289235e+00 4.316022e+00 1.790533e+00 -3.942135e-01 1.898739e+00 5.661214e+00 1.374611e+00 2.218205e+00 1.710173e+00 -1.837624e+00 1.216161e+00 8.576204e-01 -8.317134e-01 -1.103122e+00 -1.031473e+00 -6.366174e-01 -7.782115e-01 -2.536890e+00 -2.023244e-01 -2.062973e-01
<VARIANCE> 25
 1.038136e+01 1.361672e+01 1.379657e+01 1.170567e+01 1.116969e+01 9.208698e+00 1.100065e+01 1.634601e+01 1.394995e+01 1.255162e+01 2.042986e+01 1.398580e+01 2.446664e+00 8.132122e-01 8.225957e-01 1.016722e+00 7.550199e-01 1.591964e+00 1.673205e+00 1.263442e+00 2.513712e+00 3.215509e+00 3.422798e+00 2.040462e+00 4.420086e-01
<GCONST> 8.128712e+01
~s "ST_s_4_2"
<MEAN> 25
 -4.963473e+00 -8.549564e-01 7.131791e-02 -1.660400e+00 -2.677016e-01 3.916712e+00 4.654538e+00 2.442994e+00 8.450123e-01 3.604505e+00 3.996395e+00 4.234827e+00 3.677029e-01 2.384180e-01 -1.047656e+00 2.311116e-01 1.373978e-01 -1.670869e-01 -1.867020e-01 1.439178e-01 3.954335e-01 2.430915e-01 -9.725006e-02 6.053240e-01 -4.055455e-01
<VARIANCE> 25
 1.550671e+00 1.922113e+00 7.994977e+00 3.666853e+00 4.072397e+00 5.368659e+00 5.926647e+00 6.903764e+00 7.352482e+00 6.943086e+00 6.760621e+00 6.886367e+00 2.646884e-01 2.657459e-01 9.337177e-01 4.469323e-01 5.186025e-01 5.868734e-01 4.950234e-01 7.654848e-01 1.166359e+00 9.208176e-01 6.846480e-01 9.913167e-01 2.399677e-01
<GCONST> 5.755523e+01
~s "ST_ur_2_1"
<MEAN> 25
 5.145878e+00 3.644246e+00 3.007798e+00 2.627828e+00 -3.380542e+00 -6.375562e+00 -4.446833e+00 5.496878e+00 3.142899e+00 -1.010202e+01 -1.124540e+01 -3.995191e+00 -1.737173e+00 -1.698215e+00 2.525384e+00 -2.203701e-01 -5.306942e-01 1.392567e+00 9.388999e-01 1.170513e+00 6.983758e-01 -1.136074e+00 2.448389e+00 4.102152e-01 3.674173e-01
<VARIANCE> 25
 9.822352e+00 5.261779e+00 1.073483e+01 4.842752e+00 1.986404e+00 1.708035e+01 1.139739e+01 9.469852e+00 7.068511e+00 1.347845e+01 1.876225e+01 1.164453e+01 1.539247e+00 1.254734e+00 1.476753e+00 9.384567e-01 4.086645e-01 1.332621e+00 3.134166e+00 4.689782e-01 2.367442e+00 1.013356e+00 6.281330e+00 2.539356e+00 7.286658e-02
<GCONST> 7.377964e+01
~s "ST_i_2_1"
<MEAN> 25
 2.687850e+00 3.527548e-01 1.085025e+00 3.611418e+00 3.601576e+00 1.885501e+00 -2.032212e+00 -5.055104e+00 -5.736682e+00 -3.051526e+00 -1.479435e+00 -1.745915e+00 -1.199504e+00 -9.294055e-03 8.313557e-01 -1.018605e+00 -8.924552e-01 1.085446e+00 1.858055e+00 7.144104e-01 -1.539477e-01 7.956042e-02 1.366251e+00 5.793743e-01 -4.692716e-01
<VARIANCE> 25
 1.985044e+01 1.520957e+01 2.839717e+01 8.885303e+00 1.608582e+01 1.053530e+01 2.352674e+01 8.863641e+00 1.787577e+01 2.015483e+01 3.284860e+01 9.298105e+00 6.760682e-01 1.294045e+00 1.182162e+00 8.356611e-01 7.458318e-01 6.325478e-01 1.113171e+00 7.265536e-01 1.618680e+00 1.593929e+00 2.660653e+00 7.162713e-01 2.348983e-01
<GCONST> 7.830387e+01
~s "ST_ur_3_1"
<MEAN> 25
 -4.546569e+00 -3.570637e+00 1.293627e+01 8.416631e-02 -5.698375e+00 -2.329586e+00 2.579563e+00 7.570369e+00 6.460204e-01 -1.286048e+01 3.430486e+00 -1.995080e+00 -2.661520e+00 -1.749746e+00 1.526489e+00 -1.101750e+00 -3.340186e-01 5.646628e-01 2.165294e+00 1.599637e-01 -1.169958e+00 4.386954e-03 3.840138e+00 8.739927e-01 1.281971e-01
<VARIANCE> 25
 9.085903e+00 1.158188e+01 4.598387e+00 1.569165e+01 5.077601e+00 8.643404e+00 1.398101e+01 9.017973e+00 1.880505e+01 1.366614e+01 2.169466e+01 3.968095e+01 8.989263e-01 1.085970e+00 1.768329e+00 8.219492e-01 5.274655e-01 1.029628e+00 1.533162e+00 1.270810e+00 1.106440e+00 2.029767e+00 1.805003e+00 9.971092e-01 1.082966e-01
<GCONST> 7.538771e+01
~s "ST_i_3_1"
<MEAN> 25
 -4.107188e+00 -4.581209e+00 9.050414e+00 3.550282e-01 -2.111622e+00 3.618896e+00 3.368305e+00 -2.126512e+00 -7.314342e+00 -6.082047e+00 6.021871e+00 -1.712926e+00 -2.215957e+00 -1.440023e+00 1.779128e+00 -1.213675e+00 -1.486596e+00 3.790659e-01 1.992075e+00 1.312188e+00 9.408790e-01 3.559619e-01 2.033258e+00 -5.954431e-02 8.217751e-02
<VARIANCE> 25
 1.777232e+01 2.161717e+01 3.310394e+01 8.196394e+00 1.776580e+01 6.422792e+00 1.443922e+01 7.817734e+00 1.722635e+01 1.551762e+01 1.859795e+01 1.579261e+01 1.137633e+00 1.726822e+00 2.301241e+00 1.227504e+00 1.241834e+00 6.905549e-01 7.954451e-01 1.053681e+00 1.290642e+00 1.440300e+00 2.375472e+00 7.004728e-01 1.537142e-01
<GCONST> 7.887585e+01
~s "ST_ur_4_1"
<MEAN> 25
 -8.042872e+00 -6.899259e+00 1.096391e+01 -3.693722e-01 -3.577442e+00 -4.671554e-01 5.178996e+00 9.017734e+00 1.743922e-01 -9.457648e+00 9.214164e+00 2.309290e+00 -1.277103e-01 2.050212e-01 -1.304261e+00 -1.637623e-01 9.131695e-01 6.065192e-01 3.101230e-01 -3.384173e-02 1.880632e-02 1.793277e+00 4.134220e-01 2.018682e-01 -5.936071e-01
<VARIANCE> 25
 2.324213e+00 6.012845e+00 1.516181e+01 1.430835e+01 8.288870e+00 8.076282e+00 1.479819e+01 1.689774e+01 1.676391e+01 1.321107e+01 1.755268e+01 2.734140e+01 6.468974e-01 7.009088e-01 1.278109e+00 6.714901e-01 1.067564e+00 6.276733e-01 8.554005e-01 1.660741e+00 9.840211e-01 1.052274e+00 2.225049e+00 8.801011e-01 1.530965e-01
<GCONST> 7.310037e+01
~s "ST_i_4_1"
<MEAN> 25
 -9.301026e+00 -9.284958e+00 1.099780e+01 -4.915161e-01 -5.759797e+00 2.614671e+00 7.539036e+00 3.238465e+00 -1.804187e+00 -2.086896e+00 1.178280e+01 6.948347e-01 -4.984073e-03 -1.893742e-01 -6.018108e-01 1.774939e-01 -6.579108e-02 -3.328430e-01 -1.345965e-01 6.833622e-01 5.988179e-01 3.741555e-01 1.178795e-01 6.122657e-01 -2.867298e-01
<VARIANCE> 25
 6.828429e+00 1.465157e+01 1.361259e+01 5.807929e+00 1.135189e+01 6.864036e+00 9.521994e+00 1.153551e+01 1.125868e+01 1.387039e+01 1.733224e+01 1.581292e+01 3.262791e-01 3.928031e-01 7.116224e-01 7.389872e-01 5.932721e-01 6.144457e-01 9.363938e-01 6.762975e-01 1.018488e+00 8.544816e-01 1.047057e+00 6.710299e-01 4.491511e-02
<GCONST> 6.688380e+01
~s "ST_v_2_1"
<MEAN> 25
 1.015552e+00 1.620402e+00 -2.811519e+00 -1.401574e+00 -4.610932e-01 -2.996393e-01 5.977031e-01 1.990448e+00 1.464851e+00 9.357400e-01 -2.578113e-01 1.409693e+00 3.781181e-02 2.009385e-01 2.660462e-01 2.972348e-01 5.031490e-01 2.026965e-01 -2.600839e-01 -5.261096e-01 -5.538731e-01 -3.302633e-01 -2.601950e-01 -1.539441e-01 -1.594603e-02
<VARIANCE> 25
 3.562554e+01 1.047321e+01 1.540742e+01 8.985584e+00 1.653452e+01 3.130022e+01 2.965224e+01 1.127844e+01 2.230201e+01 1.699951e+01 2.334854e+01 2.820514e+01 3.024015e-01 3.012013e-01 3.264353e-01 3.811601e-01 7.004580e-01 7.057851e-01 4.859623e-01 8.023279e-01 1.236137e+00 6.048617e-01 1.177079e+00 9.299459e-01 6.708039e-02
<GCONST> 7.226009e+01
~s "ST_v_3_1"
<MEAN> 25
 8.160202e-01 1.730872e+00 -2.618861e+00 -1.126030e+00 2.711886e-01 -6.552282e-02 7.520117e-02 1.401310e+00 1.065983e+00 1.139326e+00 2.482583e-01 1.744805e+00 2.095479e-01 3.895776e-01 5.506666e-01 5.590437e-01 5.017360e-01 1.887259e-01 -1.968744e-01 -7.465805e-01 -6.416620e-01 -2.393958e-01 -2.898487e-01 -4.468561e-01 1.030285e-01
<VARIANCE> 25
 3.376567e+01 1.129538e+01 1.377055e+01 8.053741e+00 1.644487e+01 3.383303e+01 3.290459e+01 1.072816e+01 1.968364e+01 2.259066e+01 2.519366e+01 2.704958e+01 7.628720e-01 6.306536e-01 5.942345e-01 4.945130e-01 4.154733e-01 6.742957e-01 1.938192e+00 9.822449e-01 1.247957e+00 5.730201e-01 1.424455e+00 1.170756e+00 2.687726e-01
<GCONST> 7.768627e+01
~s "ST_v_4_1"
<MEAN> 25
 1.251586e+00 2.606738e+00 -1.894348e+00 -7.319734e-01 4.998921e-01 1.450687e-01 2.766131e-01 5.251118e-01 2.006801e-01 6.339402e-01 -2.608941e-01 1.251818e+00 4.878178e-01 4.736783e-01 5.702381e-01 6.902137e-01 5.235873e-01 1.152373e-01 -4.143732e-01 -8.855253e-01 -6.244338e-01 -2.926427e-01 -5.059930e-01 -8.553963e-01 2.621085e-01
<VARIANCE> 25
 2.687664e+01 7.808297e+00 1.228777e+01 8.792030e+00 1.862855e+01 3.553204e+01 2.632894e+01 1.419916e+01 2.230407e+01 1.798577e+01 1.820418e+01 2.803597e+01 1.296651e+00 1.334621e+00 1.258630e+00 6.945444e-01 9.556349e-01 8.250301e-01 3.985132e+00 1.483621e+00 1.229769e+00 7.509262e-01 1.999546e+00 2.033318e+00 6.885690e-01
<GCONST> 8.352742e+01
~s "ST_b_2_1"
<MEAN> 25
 1.873552e+00 6.543598e+00 2.450543e+00 3.172934e+00 2.515375e+00 1.658733e+00 1.340210e+00 -4.682980e-01 -2.561681e+00 -3.712977e+00 -6.000775e+00 -3.017172e+00 8.680443e-01 1.539766e-01 -2.221816e-01 -6.461542e-01 -7.997917e-01 -1.042783e+00 -9.232154e-01 2.831934e-02 1.154412e-01 -9.185730e-01 -1.200740e+00 -1.201951e+00 6.353002e-01
<VARIANCE> 25
 3.205790e+00 2.065427e+00 2.977912e+00 7.093019e+00 1.080257e+01 8.330150e+00 6.390946e+00 7.159403e+00 8.434161e+00 8.352959e+00 8.152566e+00 8.066001e+00 3.330784e-01 3.934865e-01 4.398629e-01 7.989593e-01 1.008666e+00 5.825323e-01 1.205387e+00 1.165482e+00 1.131257e+00 1.578086e+00 1.254488e+00 9.539355e-01 1.824649e-01
<GCONST> 6.343972e+01
~s "ST_b_3_1"
<MEAN> 25
 5.274058e+00 6.192321e+00 7.086441e-01 2.161408e+00 2.242693e+00 -1.476300e+00 -3.041554e+00 -1.410661e+00 -3.563773e+00 -8.690359e+00 -1.080887e+01 -6.258302e+00 1.026370e+00 -1.132822e+00 -9.521456e-01 8.758189e-01 2.045867e+00 -7.367163e-02 -2.859674e+00 -1.244435e+00 -7.727256e-01 -1.485789e+00 -1.773011e-01 2.613621e-01 8.853486e-01
<VARIANCE> 25
 1.882944e+00 2.375100e+00 3.151001e+00 6.187974e+00 8.725307e+00 3.636590e+00 6.953895e+00 6.250175e+00 7.543538e+00 5.379495e+00 5.180778e+00 6.939525e+00 2.374823e-01 4.105491e-01 2.893872e-01 3.693829e-01 5.275865e-01 5.707080e-01 7.005328e-01 7.001647e-01 5.800630e-01 1.020037e+00 1.050495e+00 8.318504e-01 1.436235e-01
<GCONST> 5.585311e+01
~s "ST_b_4_1"
<MEAN> 25
 6.639161e+00 2.839899e+00 -1.391973e+00 4.385108e+00 7.516690e+00 -1.102599e-01 -9.477873e+00 -4.108224e+00 -5.222940e+00 -1.064895e+01 -7.843765e+00 -3.463083e+00 2.184750e-01 -1.822769e+00 -9.226792e-01 1.728924e+00 2.706641e+00 4.003921e-01 -2.807462e+00 -1.617202e+00 -3.934351e-01 1.512776e-01 1.746680e+00 8.291260e-01 5.635653e-01
<VARIANCE> 25
 1.070749e+00 3.781436e+00 2.677349e+00 4.080370e+00 8.751239e+00 3.753065e+00 1.013109e+01 7.954572e+00 5.431429e+00 5.785897e+00 5.449403e+00 5.806109e+00 1.223434e-01 2.057545e-01 1.866285e-01 3.034962e-01 3.730538e-01 4.665106e-01 5.781321e-01 8.723289e-01 4.505166e-01 8.123740e-01 5.791979e-01 5.665115e-01 7.767104e-02
<GCONST> 5.085871e+01
~s "ST_ll_2_1"
<MEAN> 25
 8.868779e+00 -3.021852e+00 -3.458244e+00 4.048762e+00 6.699314e+00 -2.475543e+00 -1.044187e+01 -6.359501e+00 -7.188000e+00 -5.140169e+00 -1.870804e+00 -3.267857e+00 -2.544877e+00 -1.766141e+00 3.400469e+00 -9.439505e-01 -1.709865e+00 3.205709e+00 2.332959e+00 -2.327246e+00 -1.273411e+00 1.229422e+00 2.545949e+00 -6.369107e-01 1.376396e-01
<VARIANCE> 25
 3.581981e+00 7.411896e+00 6.957204e+00 6.077605e+00 1.047160e+01 1.032771e+01 1.721696e+01 9.877778e+00 1.410123e+01 1.241728e+01 9.745239e+00 1.094476e+01 8.443925e-01 8.320563e-01 1.378147e+00 1.056039e+00 1.930744e+00 6.399538e-01 1.736125e+00 6.774260e-01 1.097608e+00 5.345947e-01 7.178828e-01 7.946569e-01 1.837777e-01
<GCONST> 7.023257e+01
~s "ST_ll_3_1"
<MEAN> 25
 -6.044867e-01 -5.593523e+00 9.163390e+00 -1.516000e+00 -2.091506e+00 4.652391e+00 -9.264098e-01 -1.120277e+01 -9.049595e+00 -2.517956e+00 3.294592e+00 -5.546683e+00 -4.238466e+00 -1.138186e+00 4.574104e+00 -2.663881e+00 -2.693267e+00 1.853188e+00 2.754659e+00 -6.696615e-01 1.582623e-01 3.907726e-01 2.257193e+00 -5.214875e-01 1.302429e-01
<VARIANCE> 25
 1.902007e+01 4.957780e+00 2.068587e+01 1.451683e+01 1.236599e+01 7.331425e+00 1.441435e+01 8.617999e+00 1.103077e+01 8.772409e+00 1.475071e+01 1.185262e+01 2.575406e-01 7.020255e-01 1.263530e+00 8.884265e-01 1.056236e+00 1.376723e+00 1.381933e+00 1.716143e+00 1.101860e+00 9.006532e-01 9.879486e-01 1.308816e+00 9.713116e-02
<GCONST> 7.282438e+01
~s "ST_ll_4_1"
<MEAN> 25
 -1.006067e+01 -6.030415e+00 1.692722e+01 -8.771421e+00 -3.687860e+00 8.106500e+00 1.572501e+00 -7.587523e+00 -4.914672e+00 -2.746631e+00 7.291763e+00 -5.481641e+00 -1.403334e+00 1.122359e-01 8.785928e-01 -1.041634e+00 1.647093e-01 8.185351e-01 3.886666e-01 1.313336e+00 1.288823e+00 1.487643e-01 4.978320e-01 1.164550e-01 -3.978859e-01
<VARIANCE> 25
 4.329582e+00 4.974308e+00 7.070452e+00 9.246258e+00 1.224563e+01 1.018342e+01 9.047499e+00 1.161665e+01 1.079557e+01 8.532597e+00 1.189570e+01 9.493169e+00 8.244799e-01 3.327477e-01 1.098459e+00 1.676888e+00 5.943978e-01 7.859082e-01 6.573111e-01 6.750801e-01 8.034826e-01 8.359406e-01 8.348869e-01 6.818855e-01 5.497406e-02
<GCONST> 6.580904e+01
~s "ST_r_2_1"
<MEAN> 25
 6.154057e+00 1.507788e+00 -7.067230e+00 -4.024445e+00 -9.612780e-01 -2.916175e+00 -6.161003e+00 -4.079514e+00 1.090873e+00 2.187027e+00 -4.537930e+00 -4.784741e+00 6.839367e-01 4.011641e-01 -9.246151e-01 5.631715e-02 6.473531e-01 1.792555e-01 -4.862529e-01 6.559566e-03 5.361075e-01 2.352520e-01 -6.764085e-01 -5.006878e-01 -8.161366e-05
<VARIANCE> 25
 8.204559e+00 6.401363e+00 8.319942e+00 1.058447e+01 5.740450e+00 3.795818e+00 8.035822e+00 4.396422e+00 6.962124e+00 7.079057e+00 9.655420e+00 8.258243e+00 1.414177e+00 1.267920e+00 1.194818e+00 2.552507e+00 2.244504e+00 4.222428e-01 2.631292e+00 1.148218e+00 9.101567e-01 1.510360e+00 2.044948e+00 1.071620e+00 2.568551e-01
<GCONST> 7.180315e+01
~s "ST_r_3_1"
<MEAN> 25
 4.072767e+00 6.408593e-01 -5.049081e+00 -1.008949e+00 1.503424e+00 -1.174860e+00 -4.440845e+00 -2.876057e+00 4.097727e-01 2.054042e+00 -3.319336e+00 -4.121435e+00 -1.507273e-01 2.726323e-01 -1.090209e-01 4.087413e-01 6.438331e-01 9.984974e-02 2.231115e-01 6.551917e-01 5.629433e-01 -9.183232e-02 -4.225126e-01 2.132183e-01 -3.195799e-01
<VARIANCE> 25
 6.541540e+00 9.253570e+00 8.333196e+00 2.174529e+01 1.204713e+01 2.393905e+00 8.489922e+00 5.245300e+00 9.493094e+00 8.528822e+00 1.458195e+01 1.272014e+01 1.996578e+00 9.889054e-01 1.092902e+00 1.053220e+00 1.766850e+00 6.156996e-01 3.160846e+00 1.054724e+00 9.775602e-01 7.384817e-01 3.469069e+00 1.427325e+00 4.466285e-01
<GCONST> 7.460180e+01
~s "ST_r_4_1"
<MEAN> 25
 4.350584e+00 1.112540e+00 -6.056355e+00 -1.547129e+00 8.374798e-01 -2.374863e+00 -4.149082e+00 -1.723446e+00 2.140445e+00 2.403710e+00 -4.129433e+00 -3.516728e+00 -1.442527e-01 4.211578e-01 7.755712e-02 -1.568719e-01 -2.229587e-01 8.705854e-03 5.470242e-01 5.859598e-01 1.571414e-01 -5.168157e-01 -3.674811e-01 5.979569e-01 -2.382810e-01
<VARIANCE> 25
 5.235857e+00 5.783302e+00 7.033140e+00 1.479052e+01 7.155855e+00 5.155289e+00 1.728084e+01 6.161187e+00 4.336241e+00 1.247860e+01 2.978038e+01 1.452807e+01 1.546453e+00 5.878238e-01 8.042727e-01 7.531686e-01 1.038908e+00 4.053777e-01 1.913224e+00 4.240785e-01 8.797255e-01 9.039427e-01 2.329731e+00 1.864287e+00 3.546086e-01
<GCONST> 7.087113e+01
~s "ST_h_2_1"
<MEAN> 25
 2.395770e-01 4.244347e+00 -1.054648e+00 -1.891218e+00 -2.082112e+00 -1.172613e+00 1.708960e+00 3.047148e+00 2.759542e+00 2.373693e+00 -6.985576e-01 -1.982576e-01 1.992579e+00 1.953879e+00 1.115141e+00 1.039484e-01 -1.350257e+00 -2.588548e+00 -2.349995e+00 -1.400293e+00 -4.907823e-01 -5.050313e-01 -1.122879e+00 -1.582418e+00 9.167733e-01
<VARIANCE> 25
 1.088912e+01 1.247613e+01 8.294658e+00 6.310688e+00 8.019610e+00 2.043917e+01 1.702116e+01 8.830857e+00 6.387863e+00 5.410307e+00 8.096562e+00 1.110802e+01 3.205270e-01 2.571110e-01 5.058398e-01 8.997945e-01 1.073414e+00 1.021849e+00 9.430483e-01 1.174464e+00 1.035111e+00 6.272136e-01 8.805336e-01 1.003700e+00 1.554670e-01
<GCONST> 6.746489e+01
~s "ST_h_3_1"
<MEAN> 25
 8.110609e+00 7.715117e+00 -2.469805e+00 -5.062256e+00 -9.308620e+00 -1.122891e+01 -6.016300e+00 2.153976e+00 6.124732e+00 2.100407e+00 -5.802780e+00 -6.141767e+00 1.144703e+00 -5.048608e-01 -1.481287e+00 -1.067244e+00 -7.271188e-01 -8.408138e-01 -6.171034e-01 4.554839e-01 1.377387e+00 -4.050031e-02 -9.940215e-01 -4.651663e-01 8.950247e-01
<VARIANCE> 25
 4.455781e+00 2.618924e+00 7.569672e+00 4.510901e+00 3.248214e+00 5.866118e+00 5.994780e+00 7.040585e+00 1.239381e+01 5.290761e+00 8.480742e+00 6.150504e+00 4.727547e-01 4.909857e-01 6.448967e-01 3.873061e-01 8.386454e-01 2.329728e+00 1.194994e+00 6.380043e-01 8.023003e-01 3.923577e-01 1.042017e+00 7.504300e-01 1.782235e-01
<GCONST> 6.118617e+01
~s "ST_h_4_1"
<MEAN> 25
 1.084925e+01 2.344364e+00 -1.005516e+01 -8.410898e+00 -6.522008e+00 -7.764896e+00 -5.725801e+00 1.011326e+00 7.152741e+00 1.016545e+00 -6.447753e+00 -3.593995e+00 1.331037e-01 -1.457428e+00 -9.335391e-01 3.112513e-01 1.875371e+00 1.691929e+00 -3.770557e-01 -1.210559e+00 -1.584530e+00 -5.645655e-01 1.003784e+00 1.441272e+00 4.727063e-01
<VARIANCE> 25
 3.514497e+00 7.220382e+00 5.778035e+00 7.413497e+00 1.209997e+01 2.146679e+01 1.100737e+01 1.069700e+01 8.014462e+00 8.784492e+00 1.108602e+01 9.137417e+00 1.100291e-01 1.759345e-01 7.137252e-01 1.051763e+00 5.762785e-01 1.054765e+00 1.053117e+00 4.916548e-01 1.145514e+00 1.213449e+00 9.897537e-01 3.178923e-01 5.271190e-02
<GCONST> 6.298121e+01
~s "ST_mm_2_1"
<MEAN> 25
 7.486909e+00 -2.742589e-01 -6.036956e+00 3.658437e+00 7.512557e+00 -3.164259e+00 -7.509109e+00 -5.441920e-01 1.810792e+00 -3.101656e-01 -1.533546e+00 1.110749e-01 4.144685e-01 -1.205435e+00 -1.374503e+00 -9.160838e-01 -5.857818e-01 -1.184851e+00 -1.034008e+00 5.389501e-01 7.116828e-01 6.166907e-01 1.585568e+00 1.363526e+00 6.709356e-01
<VARIANCE> 25
 3.032681e+00 9.194741e+00 5.118137e+00 6.327085e+00 4.261024e+00 9.506867e+00 1.213864e+01 5.867246e+00 7.369370e+00 6.534023e+00 9.179808e+00 8.549417e+00 1.182508e-01 6.416256e-01 6.990376e-01 4.052255e-01 4.842589e-01 5.953366e-01 1.318931e+00 5.993011e-01 1.375570e+00 9.261903e-01 6.889969e-01 1.511088e+00 1.550443e-01
<GCONST> 6.205664e+01
~s "ST_mm_3_1"
<MEAN> 25
 7.997915e+00 1.632057e-01 -6.891856e+00 -5.040038e-01 3.294949e+00 -3.327681e+00 -5.474506e+00 1.150375e-01 1.150346e+00 1.246824e-01 3.774482e-01 1.292649e+00 -4.301467e-01 7.855544e-01 2.574990e-01 -1.235519e+00 -1.409338e+00 7.587588e-01 1.401627e+00 1.321459e-02 -2.482495e-01 4.540761e-01 3.176546e-01 3.076745e-01 -6.010361e-01
<VARIANCE> 25
 3.229843e+00 7.042166e+00 7.756956e+00 6.291113e+00 8.038248e+00 6.777475e+00 1.020864e+01 8.734834e+00 1.357844e+01 7.929928e+00 4.670511e+00 8.854403e+00 4.273052e-01 5.997020e-01 5.707489e-01 5.803218e-01 3.367642e-01 5.896295e-01 9.777138e-01 6.491171e-01 9.281364e-01 5.398768e-01 6.313657e-01 1.061306e+00 3.219032e-01
<GCONST> 6.308594e+01
~s "ST_mm_4_1"
<MEAN> 25
 3.674562e+00 2.649248e+00 -4.816022e+00 -3.064965e+00 -2.644553e-01 6.316975e-01 9.586744e-01 4.603216e-01 2.172869e-01 1.777791e+00 1.899598e+00 2.878811e+00 -1.340974e+00 1.343462e-01 7.514262e-01 -5.053382e-02 -4.341951e-01 6.690903e-01 1.159660e+00 1.954013e-01 -3.751564e-01 -2.351110e-02 4.139291e-01 4.705859e-01 -9.493787e-01
<VARIANCE> 25
 5.326076e+00 5.066351e+00 3.615626e+00 5.224293e+00 5.364612e+00 3.465389e+00 8.662057e+00 9.855413e+00 7.502339e+00 6.879132e+00 1.013465e+01 1.175003e+01 1.733360e-01 4.732790e-01 4.765817e-01 4.596160e-01 4.932253e-01 4.725434e-01 7.084734e-01 7.709950e-01 5.826370e-01 4.221520e-01 5.367208e-01 6.631064e-01 1.091913e-01
<GCONST> 5.754335e+01
~s "ST_a_2_1"
<MEAN> 25
 3.909877e+00 1.533194e+00 -2.834248e+00 7.417113e-02 8.783259e-01 -6.303180e-01 -2.073965e+00 -1.659238e+00 -1.108188e+00 -1.662830e+00 -3.007685e+00 -1.692482e-01 4.783674e-01 9.658648e-01 -1.809616e-02 3.921774e-02 1.444399e-01 2.428284e-01 6.225076e-01 1.811628e-01 -4.048785e-01 -6.395363e-01 -8.478835e-01 -4.218960e-01 -9.087840e-02
<VARIANCE> 25
 1.473348e+01 8.655609e+00 1.374290e+01 1.301507e+01 1.227700e+01 1.202498e+01 2.957066e+01 1.609735e+01 1.452294e+01 2.457518e+01 3.013855e+01 1.754593e+01 2.168757e+00 9.829232e-01 2.031550e+00 1.237623e+00 1.228224e+00 1.845623e+00 2.533584e+00 8.699693e-01 1.047586e+00 1.898783e+00 3.688556e+00 2.221024e+00 5.321166e-01
<GCONST> 8.473779e+01
~s "ST_a_2_2"
<MEAN> 25
 8.408937e+00 3.506996e+00 -5.057818e+00 -3.400369e+00 -4.023898e+00 -6.616336e+00 -4.570271e+00 -9.985887e-01 -1.362510e-01 -3.522143e+00 -6.928351e+00 -3.243439e+00 -5.062190e-01 5.782111e-01 4.462026e-01 -1.859124e-01 1.685941e-01 1.199521e+00 1.238875e+00 1.994883e-01 -5.114651e-01 7.815765e-02 5.030758e-01 6.449905e-02 -5.389995e-01
<VARIANCE> 25
 3.056867e+00 7.151835e+00 8.755871e+00 8.059121e+00 7.960108e+00 1.768031e+01 1.119999e+01 1.292809e+01 2.440672e+01 1.821852e+01 1.416224e+01 1.647156e+01 4.681450e-01 3.505515e-01 8.608146e-01 4.766256e-01 6.154559e-01 1.279042e+00 9.450164e-01 9.635620e-01 1.339333e+00 7.779120e-01 1.202757e+00 9.182308e-01 2.402615e-01
<GCONST> 7.044317e+01
~s "ST_a_3_1"
<MEAN> 25
 2.486227e+00 2.901832e+00 -2.850264e+00 -4.057041e-01 1.625149e+00 1.336074e+00 7.900983e-01 -5.158494e-01 -7.761737e-01 5.178548e-01 -8.827705e-01 7.465193e-01 -5.198900e-01 3.488300e-01 9.619724e-01 3.248568e-01 5.815968e-03 7.158616e-01 9.723251e-01 2.399445e-01 -2.853380e-01 -6.426337e-02 -4.242916e-02 -3.616761e-01 -3.703783e-01
<VARIANCE> 25
 1.085438e+01 6.847171e+00 1.229289e+01 1.688968e+01 1.442029e+01 1.093795e+01 2.025585e+01 1.220760e+01 1.313299e+01 1.329226e+01 1.815519e+01 1.865024e+01 1.196989e+00 9.641098e-01 9.242417e-01 7.444254e-01 1.179726e+00 8.832049e-01 1.255342e+00 1.022540e+00 1.315132e+00 1.096579e+00 2.875988e+00 2.576362e+00 4.358971e-01
<GCONST> 7.874822e+01
~s "ST_a_3_2"
<MEAN> 25
 3.737752e+00 5.289705e+00 -9.245090e-01 -1.449653e+00 -1.292892e+00 -6.853740e-02 9.455009e-01 -6.545879e-01 -2.472376e+00 -3.131994e+00 -4.755491e+00 -1.711841e+00 -1.037725e+00 2.811230e-01 6.894568e-01 6.350152e-01 7.349373e-01 9.561854e-01 9.780852e-01 2.377893e-01 -1.129731e-01 3.963115e-01 6.373172e-01 4.392667e-01 -7.889441e-01
<VARIANCE> 25
 5.044914e+00 4.075784e+00 7.561822e+00 1.078786e+01 1.059330e+01 1.033468e+01 7.226360e+00 8.679252e+00 1.199825e+01 1.220652e+01 1.476122e+01 1.286182e+01 1.638853e-01 4.642804e-01 4.958374e-01 4.846350e-01 5.118154e-01 6.121566e-01 8.627357e-01 7.175571e-01 1.057978e+00 7.561835e-01 8.612457e-01 7.704697e-01 8.549263e-02
<GCONST> 6.370491e+01
~s "ST_a_4_1"
<MEAN> 25
 1.247828e+00 3.714195e+00 -4.965484e-01 5.551488e-01 1.010584e+00 1.747483e+00 2.462669e+00 5.241606e-01 -1.041057e+00 -6.807787e-01 -2.162169e+00 -6.284749e-01 -4.903598e-01 -1.085453e-01 8.195539e-01 2.765741e-01 5.370837e-02 3.265215e-01 3.954926e-01 2.490889e-01 6.649288e-03 1.207413e-01 3.189294e-01 -3.504281e-01 -9.519187e-02
<VARIANCE> 25
 7.745128e+00 7.090378e+00 8.795967e+00 1.455259e+01 1.378803e+01 8.692271e+00 1.519775e+01 1.533730e+01 1.294684e+01 1.239664e+01 1.361805e+01 1.807544e+01 1.492702e+00 9.774519e-01 2.061924e+00 8.670661e-01 1.495144e+00 1.129739e+00 1.876301e+00 1.049326e+00 1.705664e+00 1.082517e+00 2.625281e+00 1.669855e+00 2.925200e-01
<GCONST> 7.864908e+01
~s "ST_rr_2_1"
<MEAN> 25
 4.525865e+00 -7.243896e-01 -6.757128e-01 7.248299e+00 8.348386e+00 7.162310e-03 -8.762296e+00 -7.278308e+00 -4.527094e+00 -3.913385e+00 -4.280826e+00 -4.539311e+00 3.876345e-01 -7.933936e-01 -3.607174e-01 1.180723e+00 1.462738e+00 -5.424300e-01 -1.981838e+00 -5.639041e-01 3.070293e-01 -3.357920e-01 -3.654261e-01 -3.569826e-01 4.638620e-01
<VARIANCE> 25
 4.886182e+00 8.582635e+00 7.147142e+00 1.162647e+01 1.861999e+01 1.047634e+01 3.054713e+01 1.350344e+01 1.135818e+01 9.117743e+00 8.125459e+00 9.293958e+00 7.267137e-01 9.944123e-01 7.379723e-01 1.038054e+00 8.924967e-01 1.522520e+00 2.652892e+00 2.505850e+00 1.439285e+00 1.484905e+00 9.999309e-01 8.562841e-01 2.771190e-01
<GCONST> 7.529372e+01
~s "ST_rr_3_1"
<MEAN> 25
 6.346176e+00 -2.729078e+00 -6.853404e-01 1.089114e+01 1.097691e+01 -5.034180e+00 -1.598576e+01 -5.493648e+00 -2.529787e-01 -4.747164e+00 -5.082848e+00 -5.170433e+00 5.535454e-02 3.150077e-01 1.322205e-01 -2.885447e-01 -5.509740e-01 3.723718e-02 7.789729e-01 3.996264e-01 2.988122e-01 4.771478e-01 2.410854e-01 3.258293e-01 -7.016607e-02
<VARIANCE> 25
 3.948683e+00 7.345415e+00 8.194768e+00 5.038646e+00 7.321925e+00 8.556054e+00 1.660008e+01 1.425795e+01 1.745481e+01 1.651085e+01 1.028561e+01 7.027072e+00 1.416093e-01 9.189293e-01 6.186557e-01 5.653098e-01 4.598609e-01 9.956173e-01 1.731427e+00 9.034027e-01 1.340563e+00 1.005766e+00 6.869224e-01 6.121906e-01 1.877006e-01
<GCONST> 6.691940e+01
~s "ST_rr_4_1"
<MEAN> 25
 1.813233e+00 -1.710697e+00 5.459880e+00 4.784926e+00 3.980500e+00 1.951629e+00 -3.969341e+00 -7.105613e+00 -5.416042e+00 -3.036890e+00 -4.482370e-01 -4.640613e+00 -1.934059e+00 -3.277953e-02 2.275088e+00 -1.760833e+00 -1.791715e+00 1.368540e+00 3.198498e+00 4.156848e-01 -7.603767e-01 5.533102e-01 1.852517e+00 -5.431893e-01 -1.844237e-01
<VARIANCE> 25
 2.803755e+01 9.899830e+00 4.706379e+01 2.107761e+01 2.920806e+01 1.581164e+01 3.620936e+01 1.420689e+01 2.376990e+01 9.616601e+00 2.578290e+01 7.827147e+00 2.176033e+00 1.949767e+00 2.637394e+00 1.060003e+00 1.886591e+00 1.339781e+00 1.092048e+00 8.937429e-01 1.300649e+00 7.536419e-01 2.771544e+00 7.074180e-01 2.229424e-01
<GCONST> 8.411887e+01
~s "ST_n_2_1"
<MEAN> 25
 5.476455e+00 4.987566e+00 -4.482854e-01 4.615825e+00 7.622828e+00 4.428526e+00 -1.000438e+00 -2.458344e+00 -7.194330e-01 -1.887247e+00 -7.368278e+00 -7.393493e+00 2.074648e-01 -1.033943e-01 -2.500323e-01 -4.194464e-02 -5.573878e-02 -1.163528e-01 1.070460e-01 3.490038e-01 3.936189e-01 3.503407e-02 -4.725338e-01 -6.631604e-01 1.586937e-01
<VARIANCE> 25
 2.383953e+00 3.456712e+00 8.788783e+00 1.004932e+01 9.604728e+00 4.310801e+00 9.714726e+00 1.346117e+01 1.008587e+01 9.068017e+00 1.137786e+01 9.728092e+00 2.187375e-01 3.781051e-01 3.267598e-01 8.567188e-01 1.218674e+00 6.876799e-01 5.757086e-01 6.261981e-01 8.643395e-01 6.806520e-01 1.066348e+00 7.739587e-01 1.234268e-01
<GCONST> 6.257924e+01
~s "ST_n_3_1"
<MEAN> 25
 6.555471e+00 4.170403e+00 -1.318493e+00 1.799285e+00 3.268500e+00 5.260008e-01 -5.429119e-01 -2.451257e-01 6.330191e-01 -5.461318e-01 -5.536291e+00 -7.165610e+00 5.880094e-01 -1.411804e-01 -6.019574e-01 -1.990826e+00 -2.653428e+00 -1.982026e+00 3.513180e-02 1.442570e+00 1.127001e+00 7.493082e-01 1.267953e+00 8.948407e-01 5.642222e-01
<VARIANCE> 25
 2.990821e+00 3.490276e+00 7.807121e+00 1.178952e+01 1.576641e+01 1.908839e+01 8.973463e+00 1.132130e+01 9.279188e+00 1.301405e+01 1.228694e+01 1.088885e+01 1.217106e-01 2.453771e-01 3.821701e-01 7.530000e-01 1.033984e+00 1.526056e+00 7.895534e-01 8.678836e-01 8.975362e-01 9.054382e-01 1.157958e+00 1.317752e+00 8.946407e-02
<GCONST> 6.595539e+01
~s "ST_n_4_1"
<MEAN> 25
 8.051376e+00 4.513186e+00 -4.915712e+00 -4.254925e+00 -1.782155e+00 -1.471985e+00 3.784423e-01 2.663416e+00 3.649087e+00 2.103177e+00 -2.596452e+00 -3.386883e+00 3.237793e-01 1.789402e-02 -6.018727e-01 -1.145290e+00 -1.591688e+00 -1.117440e+00 1.188691e-03 1.029759e+00 1.015201e+00 4.543988e-01 2.470438e-01 8.489865e-01 1.152449e-01
<VARIANCE> 25
 2.294029e+00 2.913175e+00 7.443639e+00 6.479587e+00 8.651921e+00 1.563020e+01 9.046830e+00 7.761664e+00 7.256794e+00 9.625512e+00 7.012558e+00 7.762973e+00 9.220666e-02 2.594732e-01 2.396245e-01 9.378046e-01 9.550990e-01 7.595963e-01 7.471824e-01 7.428432e-01 8.837201e-01 8.204871e-01 6.543359e-01 9.473820e-01 8.275472e-02
<GCONST> 5.969764e+01
~s "ST_d_2_1"
<MEAN> 25
 3.951224e+00 4.461370e+00 -3.706052e-01 9.091253e-01 1.497887e+00 8.221645e-01 -3.021723e-01 -1.718102e+00 -2.976095e+00 -4.098102e+00 -5.478592e+00 -2.889975e+00 -4.118683e-01 5.799360e-01 9.413639e-01 9.529569e-01 9.806260e-01 9.416203e-01 8.734754e-01 -1.498042e-01 -1.060866e+00 -2.794427e-01 3.810202e-01 -1.704828e-01 -3.825596e-01
<VARIANCE> 25
 1.385362e+01 1.128155e+01 1.524809e+01 1.993617e+01 1.919587e+01 1.491563e+01 1.575913e+01 1.295429e+01 9.491353e+00 1.724967e+01 2.500069e+01 2.438788e+01 1.447011e+00 8.780941e-01 5.404062e-01 7.755426e-01 6.433004e-01 1.453701e+00 2.585941e+00 1.313786e+00 1.028270e+00 1.444716e+00 3.581862e+00 2.987941e+00 4.768743e-01
<GCONST> 8.175433e+01
~s "ST_d_3_1"
<MEAN> 25
 3.116095e+00 5.081821e+00 -3.204910e-01 2.495401e-01 1.130039e+00 1.328766e+00 2.177176e+00 -4.024951e-01 -3.922068e+00 -4.068306e+00 -4.216170e+00 -2.018113e+00 -9.938771e-01 -8.870051e-02 7.024962e-01 5.557569e-01 2.393908e-01 7.012944e-01 1.027576e+00 1.425213e-01 -6.377543e-02 7.044848e-01 7.694284e-01 3.753994e-01 -6.370397e-01
<VARIANCE> 25
 5.354829e+00 7.343011e+00 8.348522e+00 1.330583e+01 1.278556e+01 8.464410e+00 8.151385e+00 1.095914e+01 1.091228e+01 9.129081e+00 1.719050e+01 1.405414e+01 2.485592e-01 8.805461e-01 5.974489e-01 9.879436e-01 6.555719e-01 7.810149e-01 9.201489e-01 1.169192e+00 7.823471e-01 7.414267e-01 8.629248e-01 1.232050e+00 2.707193e-01
<GCONST> 6.916125e+01
~s "ST_d_4_1"
<MEAN> 25
 9.133875e-01 4.158516e+00 2.295425e+00 3.061787e+00 1.988775e+00 2.473550e+00 3.189919e+00 -9.420032e-01 -3.320355e+00 -2.355377e+00 -3.309982e+00 -1.629451e+00 1.345420e-01 -4.163059e-01 3.741420e-01 6.606444e-01 1.776373e-01 -4.208808e-01 -8.401085e-01 -5.123054e-01 9.653165e-02 9.287335e-03 -2.506355e-01 -3.726506e-01 3.230526e-01
<VARIANCE> 25
 5.019490e+00 7.023028e+00 7.614601e+00 1.032805e+01 1.410644e+01 8.222889e+00 8.562834e+00 8.809556e+00 1.044602e+01 9.481359e+00 1.054383e+01 1.029875e+01 5.982240e-01 1.224110e+00 6.851048e-01 1.941101e+00 1.756949e+00 1.337265e+00 2.038200e+00 1.348589e+00 1.578452e+00 1.528741e+00 1.436540e+00 1.770007e+00 4.523795e-01
<GCONST> 7.509402e+01
~s "ST_ay_2_1"
<MEAN> 25
 7.551675e+00 7.616610e+00 6.989568e-01 -2.115006e+00 -8.384030e+00 -1.165739e+01 -5.636347e+00 3.581207e+00 6.607881e+00 2.149494e+00 -2.369087e+00 -3.421489e+00 -1.674462e-01 7.212889e-02 4.707588e-02 -9.920927e-02 -1.108631e-01 2.421338e-02 2.918597e-01 2.468867e-01 -3.457439e-01 -8.753768e-01 -8.607461e-01 -7.779877e-01 -1.446847e-01
<VARIANCE> 25
 2.997257e+00 1.630680e+00 1.974938e+00 5.358179e+00 4.773792e+00 1.771184e+01 1.702379e+01 5.105987e+00 7.637834e+00 1.030307e+01 9.379754e+00 6.131111e+00 1.161736e-01 2.406831e-01 3.126414e-01 3.184767e-01 6.890951e-01 7.682741e-01 5.600713e-01 3.741519e-01 5.011603e-01 9.430210e-01 1.277754e+00 5.190298e-01 7.551134e-02
<GCONST> 5.538640e+01
~s "ST_ii_2_1"
<MEAN> 25
 5.522328e+00 6.011564e+00 5.818078e-01 1.206876e+00 -4.873980e-01 -4.279674e+00 -3.512828e+00 -7.751545e-01 -1.229855e+00 -3.432366e+00 -6.556035e+00 -5.231037e+00 1.449158e+00 -1.488234e+00 -1.739142e+00 3.066479e-02 7.518978e-01 -1.682616e+00 -2.592448e+00 -7.761511e-01 -8.276272e-01 -1.040581e+00 -2.420342e-01 5.007092e-01 1.414266e+00
<VARIANCE> 25
 1.448935e+01 9.446936e+00 6.307512e+00 4.870554e+00 9.070438e+00 2.206972e+01 1.407049e+01 9.384440e+00 1.185308e+01 6.566924e+00 1.464771e+01 1.637704e+01 1.015035e+00 1.073952e+00 1.067002e+00 9.516355e-01 1.236683e+00 1.642893e+00 2.659649e+00 1.221873e+00 1.532993e+00 1.321695e+00 6.278122e-01 1.206249e+00 8.622300e-01
<GCONST> 7.657705e+01
~s "ST_ay_3_1"
<MEAN> 25
 8.345895e+00 6.040843e+00 -5.352400e-01 -1.637669e+00 -7.662790e+00 -1.183731e+01 -6.451253e+00 3.923142e+00 5.834345e+00 -4.494557e+00 -9.735222e+00 -6.116654e+00 9.738745e-02 -1.369731e+00 -7.953402e-01 2.153189e-01 1.430270e+00 1.685867e+00 2.750474e-02 -5.575382e-01 -1.010262e+00 -1.753930e+00 -1.139216e+00 5.300124e-01 4.666489e-01
<VARIANCE> 25
 5.625195e+00 3.970217e+00 1.781831e+00 2.788213e+00 6.175874e+00 2.107903e+01 1.453756e+01 4.210893e+00 8.243728e+00 1.039587e+01 9.178249e+00 2.168546e+01 1.629341e-01 9.936976e-01 2.517544e-01 5.793474e-01 1.488551e+00 1.202389e+00 1.205838e+00 8.873034e-01 1.464192e+00 1.101145e+00 1.355122e+00 1.298415e+00 1.400564e-01
<GCONST> 6.536454e+01
~s "ST_ii_3_1"
<MEAN> 25
 7.546033e+00 3.060488e+00 -2.634956e+00 1.959323e+00 2.329388e+00 -5.872526e+00 -6.689121e+00 -1.587827e+00 -2.865686e+00 -4.688356e+00 -5.981943e+00 -3.423404e+00 8.491104e-01 -2.227230e+00 -1.506339e+00 6.680792e-01 1.928778e+00 -4.180223e-04 -1.876804e+00 -1.215343e+00 -1.357033e+00 -5.419736e-01 1.004801e+00 9.588785e-01 1.257981e+00
<VARIANCE> 25
 2.152788e+01 7.850930e+00 1.040603e+01 8.068248e+00 9.236090e+00 2.725024e+01 2.819094e+01 1.112838e+01 9.298878e+00 1.496952e+01 1.697478e+01 1.375058e+01 6.832159e-01 1.493226e+00 8.456379e-01 1.052087e+00 1.557895e+00 1.168523e+00 2.170959e+00 1.444150e+00 1.999463e+00 1.202563e+00 6.897706e-01 1.252616e+00 7.271636e-01
<GCONST> 7.923006e+01
~s "ST_ay_4_1"
<MEAN> 25
 7.808210e+00 8.154052e-01 -2.652635e+00 -7.639630e-01 -2.116340e+00 -3.703707e+00 -5.279700e+00 6.396725e-01 5.605968e-01 -7.632322e+00 -8.778065e+00 -9.980888e-01 -1.429307e+00 -1.933475e+00 1.061558e+00 2.239510e-01 3.896804e-01 3.030861e+00 2.367383e+00 -9.901619e-01 -2.534226e+00 9.277947e-02 2.520188e+00 9.577447e-01 6.154287e-02
<VARIANCE> 25
 6.067502e+00 1.661254e+01 4.032710e+00 5.735261e+00 1.382544e+01 2.181840e+01 1.770050e+01 1.117508e+01 7.821357e+00 2.542113e+01 6.879619e+00 2.143598e+01 6.747080e-01 6.246690e-01 1.539562e+00 4.020709e-01 1.563484e+00 1.008884e+00 1.828419e+00 9.577559e-01 6.317930e-01 1.699450e+00 1.573146e+00 2.654060e+00 1.096096e-01
<GCONST> 7.394558e+01
~s "ST_ii_4_1"
<MEAN> 25
 7.175599e+00 -4.591084e-01 -3.516741e+00 4.061706e+00 5.935946e+00 -3.820843e+00 -7.628687e+00 -4.597511e+00 -6.882798e+00 -5.245425e+00 -3.289020e+00 -2.473892e+00 -3.682099e-01 -1.670873e+00 -1.421892e-02 1.601526e-01 8.048918e-01 1.410611e+00 -7.611968e-02 -1.072908e+00 -9.848719e-01 3.751247e-01 1.539492e+00 6.187965e-01 4.693480e-01
<VARIANCE> 25
 2.244072e+01 1.089514e+01 7.883880e+00 1.427365e+01 1.062811e+01 1.945007e+01 3.308002e+01 1.799000e+01 2.241556e+01 1.420365e+01 1.490119e+01 2.260201e+01 5.155759e-01 2.758790e+00 1.026682e+00 1.344943e+00 1.628004e+00 1.472003e+00 2.039611e+00 2.077069e+00 2.374081e+00 1.030875e+00 1.631941e+00 1.474456e+00 7.762047e-01
<GCONST> 8.398463e+01
~s "ST_g_2_1"
<MEAN> 25
 -1.766287e+00 -2.806210e+00 3.768642e+00 4.410524e+00 3.353826e-01 -4.807016e-01 -6.771059e-01 5.639791e-01 -1.402305e+00 -2.314108e+00 2.181836e+00 -4.619920e-01 2.093251e+00 1.955744e+00 -1.117137e+00 1.268700e+00 2.445575e+00 -1.597462e-01 -2.372164e+00 -2.164940e+00 -1.083875e+00 -9.400430e-01 -2.888862e+00 -1.335946e+00 2.070079e-01
<VARIANCE> 25
 2.202145e+01 3.729816e+01 9.307327e+00 1.579091e+01 2.483165e+01 5.999054e+00 3.389783e+01 2.485462e+01 1.152312e+01 1.390163e+01 5.418764e+01 2.314672e+01 1.853582e+00 1.460460e+00 9.365206e-01 1.146060e+00 1.592315e+00 6.811824e-01 2.794094e+00 1.831237e+00 9.973355e-01 1.536283e+00 3.745214e+00 1.617650e+00 2.535336e-01
<GCONST> 8.523518e+01
~s "ST_g_3_1"
<MEAN> 25
 3.132081e+00 3.832467e+00 1.958917e-01 2.842220e+00 3.301411e+00 1.942962e-01 -2.281878e+00 -3.085882e+00 -3.818198e+00 -4.728049e+00 -5.039104e+00 -2.692105e+00 1.564501e-02 8.737497e-01 -3.922425e-02 -1.135886e+00 -1.166994e+00 -2.001919e-01 8.603540e-01 5.982969e-01 3.214007e-01 4.402733e-01 -3.737965e-02 1.553553e-01 -2.823836e-01
<VARIANCE> 25
 2.899234e+00 8.103207e+00 4.255264e+00 1.059718e+01 1.321914e+01 6.467820e+00 1.683826e+01 1.108304e+01 1.329270e+01 1.274008e+01 5.741450e+00 5.577557e+00 2.668229e-01 5.632747e-01 5.802291e-01 1.152953e+00 1.260009e+00 8.942857e-01 1.705596e+00 1.188223e+00 1.276700e+00 1.151363e+00 1.128010e+00 8.594350e-01 1.293382e-01
<GCONST> 6.802583e+01
~s "ST_g_4_1"
<MEAN> 25
 3.667002e+00 7.370239e+00 1.908696e+00 -5.514684e-01 -3.447462e+00 -4.939416e+00 -3.331675e+00 -1.590782e+00 -8.021493e-01 -8.605575e-01 -2.890630e+00 -1.764936e+00 7.164248e-01 4.160427e-01 8.778179e-02 -3.726080e-01 -1.328194e+00 -1.953407e+00 -1.527284e+00 -6.327409e-02 9.213737e-01 5.398253e-01 1.363942e-01 1.015710e-01 3.709365e-01
<VARIANCE> 25
 2.580832e+00 2.261672e+00 3.136593e+00 4.230408e+00 6.170083e+00 9.677712e+00 8.714409e+00 6.237545e+00 8.202377e+00 6.123080e+00 5.950522e+00 6.555281e+00 3.599869e-01 1.717770e-01 2.818002e-01 4.531797e-01 6.197014e-01 8.186545e-01 6.978203e-01 6.215503e-01 9.411793e-01 6.972675e-01 7.723747e-01 1.376743e+00 1.547599e-01
<GCONST> 5.738106e+01
~s "ST_nn_2_1"
<MEAN> 25
 3.453258e+00 1.113280e+00 -2.415259e+00 4.753507e+00 6.038849e+00 -1.342199e+00 -3.469323e+00 8.705662e-01 9.827077e-03 -5.824675e-02 -1.054650e+00 -2.536352e+00 -5.342119e-02 -6.521946e-01 -7.850142e-01 -2.747576e-02 2.385955e-02 -5.949342e-01 -8.442653e-01 3.769984e-01 1.297265e+00 8.709830e-01 7.409500e-01 1.139495e+00 2.581200e-02
<VARIANCE> 25
 2.761331e+00 6.554386e+00 4.683669e+00 1.114692e+01 1.665034e+01 1.584616e+01 1.522463e+01 8.512374e+00 1.017897e+01 1.735622e+01 8.789153e+00 2.672539e+01 2.519253e-01 1.070433e+00 4.702387e-01 5.725684e-01 7.092432e-01 1.205821e+00 1.012768e+00 1.203295e+00 8.242776e-01 9.940301e-01 1.594402e+00 2.617811e+00 2.515133e-01
<GCONST> 7.113922e+01
~s "ST_nn_3_1"
<MEAN> 25
 1.593260e+00 1.253405e+00 -2.985066e+00 2.062483e+00 5.122021e+00 2.164216e+00 -2.813869e-01 6.918897e-01 9.009250e-01 6.161004e-01 -9.631240e-01 3.529907e-01 -4.128869e-02 3.772925e-01 5.901613e-01 3.289066e-01 -3.905596e-01 1.660386e-02 3.293978e-01 -2.363412e-01 3.197552e-01 7.205344e-01 -4.691215e-03 -5.262058e-01 -1.434882e-01
<VARIANCE> 25
 6.606192e+00 4.389377e+00 4.716995e+00 9.659545e+00 9.799932e+00 1.588716e+01 1.791021e+01 4.625507e+00 3.956886e+00 7.805232e+00 9.193662e+00 1.793497e+01 2.954974e-01 4.942880e-01 8.287086e-01 1.500605e+00 9.803226e-01 1.131329e+00 2.048657e+00 1.003764e+00 1.248016e+00 8.068024e-01 1.174500e+00 1.904006e+00 2.219021e-01
<GCONST> 6.955847e+01
~s "ST_t_2_1"
<MEAN> 25
 -2.883682e+00 -1.355730e+00 -1.074381e+00 -1.845526e+00 -3.072577e+00 -8.765991e-01 3.507795e+00 1.544920e+00 6.010476e-01 2.274979e+00 3.541122e+00 3.553528e+00 5.157328e-01 -4.353252e-02 1.005472e+00 6.592570e-01 -1.107551e-01 -4.956084e-01 -7.064290e-01 -8.262333e-01 -6.026887e-01 -6.517044e-01 -7.038773e-01 -1.296989e+00 6.759257e-01
<VARIANCE> 25
 4.080283e+00 8.330792e+00 7.635248e+00 1.137258e+01 1.197960e+01 1.615560e+01 1.121709e+01 1.324934e+01 1.195166e+01 1.004260e+01 9.721057e+00 1.065979e+01 1.498909e+00 1.461629e+00 9.152324e-01 1.436125e+00 1.199897e+00 1.365499e+00 1.467239e+00 2.029492e+00 1.188436e+00 1.329987e+00 2.207072e+00 1.839897e+00 3.588444e-01
<GCONST> 7.710928e+01
~s "ST_nn_4_1"
<MEAN> 25
 3.823369e+00 6.451387e-01 -1.115153e+00 4.877464e+00 4.700255e+00 -2.038349e+00 -3.898611e+00 1.321223e+00 1.753548e+00 3.650680e-02 -1.875055e+00 -2.499947e+00 5.633458e-01 -5.372424e-01 -5.625223e-01 1.658672e-01 4.110052e-02 -1.081948e+00 -1.025454e+00 2.949874e-01 4.200689e-01 -6.077253e-02 4.648746e-01 6.317080e-01 4.873944e-01
<VARIANCE> 25
 3.045733e+00 1.519227e+01 1.653042e+01 6.454176e+00 7.247734e+00 2.170545e+01 1.598549e+01 8.951139e+00 8.667507e+00 1.310270e+01 1.713098e+01 2.322683e+01 2.239922e-01 7.331939e-01 2.243801e+00 1.295220e+00 8.609779e-01 2.091230e+00 1.486094e+00 8.736040e-01 5.518966e-01 7.979841e-01 1.545319e+00 3.975386e+00 3.221180e-01
<GCONST> 7.516360e+01
~s "ST_t_3_1"
<MEAN> 25
 -1.748077e-01 7.382964e-01 2.274212e+00 -8.513561e-02 -2.602464e+00 -1.168136e+00 5.649336e-01 -1.736278e+00 -2.437817e+00 -7.425984e-01 -5.262645e-01 -1.221736e+00 2.758770e+00 1.243539e+00 -6.370422e-01 4.901725e-02 1.391018e-01 -1.030765e+00 -2.335526e+00 -1.131510e+00 -2.025540e-01 -1.451461e+00 -3.116408e+00 -1.811798e+00 1.275655e+00
<VARIANCE> 25
 1.029256e+01 1.374619e+01 4.298627e+00 1.304049e+01 1.372780e+01 7.199246e+00 1.111423e+01 1.157250e+01 1.066461e+01 1.281339e+01 1.410292e+01 8.770594e+00 1.395076e+00 1.083850e+00 1.783049e+00 1.487515e+00 1.227095e+00 1.263484e+00 1.731526e+00 2.070161e+00 1.793432e+00 1.243245e+00 2.453580e+00 1.329077e+00 4.922642e-01
<GCONST> 7.849012e+01
~s "ST_t_4_1"
<MEAN> 25
 6.141365e+00 1.956166e+00 -2.890058e+00 -8.992922e-01 -2.688182e+00 -5.222032e+00 -4.275218e+00 -2.150912e+00 -1.024509e+00 -2.812706e+00 -6.401633e+00 -2.715393e+00 1.955686e+00 3.912702e-01 -1.552206e+00 -2.647736e-01 2.217479e-01 -7.274869e-01 -1.425593e+00 -1.016636e-01 4.353484e-01 -7.469270e-01 -1.741599e+00 -6.001118e-01 8.019605e-01
<VARIANCE> 25
 1.283814e+01 1.174708e+01 1.060212e+01 1.140313e+01 1.241664e+01 2.802360e+01 8.443147e+00 1.483982e+01 1.249985e+01 1.815264e+01 2.334093e+01 1.271500e+01 1.712661e+00 1.218508e+00 1.918478e+00 1.737612e+00 1.280010e+00 1.429838e+00 1.643097e+00 1.197963e+00 1.485241e+00 1.314846e+00 2.634430e+00 1.234813e+00 4.826736e-01
<GCONST> 8.189999e+01
~s "ST_sil_2_1"
<MEAN> 25
 -4.041708e+00 -3.990326e-01 -2.967520e+00 -1.078504e+00 2.688773e-01 1.804538e+00 4.123182e+00 2.293135e+00 1.510141e+00 3.814575e+00 4.254097e+00 4.624087e+00 5.735222e-03 5.486800e-02 1.344287e-01 1.073849e-01 1.377308e-01 -3.269296e-02 -5.564491e-02 -9.933363e-02 -1.507466e-01 -3.696536e-01 -1.265682e-01 -1.817196e-01 5.445478e-02
<VARIANCE> 25
 3.482933e+00 4.722687e+00 5.106676e+00 6.837424e+00 7.604383e+00 9.368102e+00 7.973131e+00 7.749088e+00 8.303349e+00 9.057497e+00 1.100987e+01 9.126241e+00 2.140180e-01 3.233538e-01 5.177439e-01 6.044330e-01 7.240337e-01 8.930075e-01 8.462353e-01 8.684319e-01 9.816814e-01 1.024994e+00 1.265657e+00 1.026553e+00 1.654509e-01
<GCONST> 6.351241e+01
~s "silst"
<MEAN> 25
 -2.907449e+00 8.710860e-01 -2.657982e+00 -1.094362e+00 1.955855e-01 2.190029e+00 3.709697e+00 2.280874e+00 1.087268e+00 2.676871e+00 2.133725e+00 4.227539e+00 -1.071887e-01 -6.792475e-02 -9.450804e-02 -8.669204e-02 -4.621392e-02 6.057485e-03 4.542854e-02 8.529261e-02 1.178883e-01 1.489627e-01 1.089837e-01 1.431608e-01 -6.600107e-02
<VARIANCE> 25
 1.397855e+00 1.498567e+00 2.488350e+00 3.751219e+00 4.749692e+00 5.121223e+00 5.107158e+00 5.407183e+00 6.070086e+00 6.029488e+00 5.909725e+00 6.035439e+00 8.613320e-02 1.307953e-01 1.968950e-01 2.775348e-01 3.729323e-01 4.436686e-01 4.946338e-01 6.050991e-01 6.127979e-01 6.005945e-01 5.968445e-01 5.405353e-01 4.412755e-02
<GCONST> 4.695448e+01
~s "ST_ss_2_1"
<MEAN> 25
 2.269179e+00 5.001894e+00 2.873983e+00 3.921988e+00 2.895110e+00 1.887743e+00 1.921383e+00 7.055539e-01 -1.142323e+00 -9.934934e-01 -3.642246e+00 -5.178466e+00 6.842571e-01 3.406052e-01 6.061302e-01 -5.156536e-02 -6.121545e-01 -8.989688e-01 -7.651378e-01 -5.028920e-01 -6.337014e-01 -8.701822e-01 -4.773560e-01 -7.365772e-01 5.995257e-01
<VARIANCE> 25
 5.188540e+00 1.375849e+01 4.930879e+00 6.659813e+00 9.237133e+00 7.873236e+00 2.252612e+01 1.474455e+01 2.123869e+01 1.175230e+01 1.641325e+01 2.154230e+01 2.027323e+00 1.481005e+00 1.296840e+00 6.336340e-01 1.321736e+00 1.105579e+00 3.519742e+00 1.497826e+00 1.074772e+00 1.014528e+00 2.442846e+00 2.820871e+00 2.802815e-01
<GCONST> 7.887647e+01
~s "ST_sil_3_1"
<MEAN> 25
 -2.934812e+00 8.408356e-01 -2.658103e+00 -1.156494e+00 1.494268e-01 2.182293e+00 3.722039e+00 2.297185e+00 1.091500e+00 2.685249e+00 2.180500e+00 4.228089e+00 -1.029680e-01 -6.227377e-02 -9.477049e-02 -7.849637e-02 -3.650532e-02 8.267190e-03 4.433951e-02 7.427483e-02 1.114884e-01 1.429436e-01 9.745904e-02 1.396708e-01 -6.685404e-02
<VARIANCE> 25
 1.384498e+00 1.513278e+00 2.493689e+00 3.790944e+00 4.717063e+00 5.119349e+00 5.125404e+00 5.605862e+00 6.086437e+00 6.151033e+00 6.035470e+00 6.062243e+00 8.686142e-02 1.315283e-01 1.976850e-01 2.746852e-01 3.701896e-01 4.394487e-01 4.943804e-01 6.114503e-01 6.270151e-01 6.128166e-01 5.945379e-01 5.374724e-01 4.360488e-02
<GCONST> 4.707013e+01
~s "ST_ss_3_1"
<MEAN> 25
 2.424767e+00 4.749300e+00 3.405255e+00 3.309061e+00 1.788077e+00 9.945422e-01 1.376841e+00 -3.578081e-01 -2.576989e+00 -2.386804e+00 -3.404136e+00 -4.129430e+00 8.324492e-01 6.358247e-03 1.181988e-01 -5.774328e-01 -9.227576e-01 -1.532476e+00 -1.459347e+00 -6.169392e-01 -4.627429e-01 -9.184573e-01 -4.113179e-01 -2.974744e-01 8.354266e-01
<VARIANCE> 25
 8.115925e+00 2.492674e+01 1.020599e+01 4.784127e+00 8.095213e+00 5.606772e+00 1.055940e+01 1.623352e+01 2.064900e+01 9.563753e+00 2.027618e+01 1.043145e+01 2.573116e+00 1.203952e+00 1.653459e+00 7.689773e-01 1.903267e+00 2.124420e+00 5.580038e+00 1.919366e+00 1.125947e+00 1.380219e+00 2.921688e+00 1.907375e+00 2.898736e-01
<GCONST> 8.080383e+01
~s "ST_sil_4_1"
<MEAN> 25
 -4.494146e+00 -4.519794e-01 -3.626992e+00 -1.604748e+00 1.426182e-01 2.222099e+00 4.288599e+00 2.842869e+00 2.168316e+00 4.513350e+00 4.409454e+00 6.445440e+00 -7.073032e-03 -7.623878e-03 -4.939219e-03 -1.041991e-02 -1.587500e-02 -6.618471e-03 -7.070648e-03 1.169872e-02 1.471767e-02 2.925277e-02 2.586749e-02 4.257089e-02 -5.936006e-03
<VARIANCE> 25
 7.646818e-01 1.317670e+00 2.099611e+00 2.769716e+00 3.411391e+00 4.241253e+00 4.705459e+00 5.664058e+00 5.895601e+00 5.974557e+00 5.506376e+00 6.193624e+00 4.987437e-02 1.090149e-01 1.619676e-01 2.454795e-01 3.138291e-01 3.446132e-01 4.552984e-01 5.444185e-01 5.688917e-01 6.149745e-01 5.531128e-01 5.145254e-01 2.685003e-02
<GCONST> 4.277805e+01
~s "ST_ss_4_1"
<MEAN> 25
 3.647816e+00 4.760212e+00 3.022240e+00 2.254504e+00 1.213947e-02 -1.874148e+00 -1.541840e+00 -1.494919e+00 -2.999980e+00 -4.088380e+00 -5.025234e+00 -4.932202e+00 1.038030e+00 -5.820528e-01 -7.736537e-01 -6.262093e-01 -5.701240e-01 -1.687664e+00 -1.904350e+00 -6.365511e-01 -2.810161e-01 -1.018524e+00 -4.836342e-01 1.299225e-01 1.053011e+00
<VARIANCE> 25
 1.626440e+01 3.173553e+01 1.702393e+01 5.113811e+00 6.614554e+00 6.930243e+00 9.981134e+00 1.470107e+01 1.485188e+01 8.776180e+00 3.080551e+01 1.208901e+01 2.478103e+00 5.043235e-01 1.694430e+00 1.071875e+00 1.827109e+00 3.174946e+00 5.137481e+00 1.093207e+00 1.500582e+00 1.119661e+00 2.071064e+00 1.401482e+00 4.682232e-01
<GCONST> 8.139294e+01
~s "ST_j_2_1"
<MEAN> 25
 1.938054e+00 -3.551523e+00 8.247739e+00 1.267661e+01 4.831857e+00 -2.738703e+00 -7.031564e+00 -3.611741e+00 -1.224019e+00 -4.180677e+00 -6.145653e+00 -7.925790e+00 2.779062e+00 6.144258e-01 -1.628711e+00 2.930098e+00 3.365204e+00 -1.862739e+00 -4.526614e+00 -7.302594e-01 4.831545e-01 -1.435142e+00 -2.594744e+00 -8.256028e-01 7.295214e-01
<VARIANCE> 25
 5.386016e+00 6.148706e+00 2.488670e+01 1.417298e+01 1.052728e+01 7.625181e+00 2.472858e+01 8.942505e+00 1.078391e+01 9.537301e+00 1.221091e+01 1.185957e+01 1.236003e+00 1.083051e+00 1.020707e+00 3.607942e+00 1.194784e+00 1.223325e+00 1.462253e+00 2.765956e+00 1.811943e+00 1.263408e+00 2.905845e+00 1.360478e+00 1.545336e-01
<GCONST> 7.841321e+01
~s "ST_j_3_1"
<MEAN> 25
 4.742826e+00 -2.485088e+00 3.267255e+00 1.516780e+01 9.847953e+00 -5.874048e+00 -1.136207e+01 -3.196151e+00 -2.792320e-01 -5.650635e+00 -7.085797e+00 -7.083280e+00 1.891409e-01 2.166772e-01 -4.769644e-01 -2.048746e-01 3.106407e-01 -1.590446e-02 -2.743907e-01 -2.922689e-01 -1.987062e-01 -2.179108e-02 1.180368e-01 6.227338e-02 -1.674001e-02
<VARIANCE> 25
 3.424144e+00 8.616976e+00 8.792238e+00 9.863403e+00 1.355135e+01 1.050319e+01 3.152868e+01 1.351464e+01 2.048165e+01 1.168947e+01 1.314128e+01 1.279047e+01 4.643033e-01 9.652888e-01 9.701788e-01 9.661342e-01 1.514347e+00 1.491331e+00 4.792520e+00 1.658922e+00 2.301016e+00 1.196311e+00 1.122292e+00 1.183223e+00 4.157767e-01
<GCONST> 7.784892e+01
~s "ST_j_4_1"
<MEAN> 25
 3.833562e+00 1.796234e-01 -8.613718e-02 7.892911e+00 8.735724e+00 -8.222105e-01 -8.386497e+00 -5.678501e+00 -2.832978e+00 -3.181845e+00 -3.634498e+00 -4.481398e+00 -6.259308e-01 4.064088e-01 1.516903e-01 -1.653847e+00 -1.334453e+00 1.239023e+00 2.068486e+00 2.711399e-01 -3.067023e-01 7.908030e-01 9.178498e-01 6.245403e-01 -4.144520e-01
<VARIANCE> 25
 9.544693e+00 6.232101e+00 1.620709e+01 1.609652e+01 1.449532e+01 1.529613e+01 3.592791e+01 1.627277e+01 1.435271e+01 1.475988e+01 1.696031e+01 1.959762e+01 1.185449e+00 6.752428e-01 1.653760e+00 1.027808e+00 1.441467e+00 1.189672e+00 1.966012e+00 1.340093e+00 1.837287e+00 1.188468e+00 1.301160e+00 1.480847e+00 3.878153e-01
<GCONST> 8.083685e+01
~s "ST_ae_2_1"
<MEAN> 25
 -1.173136e+01 -7.530370e+00 1.544222e+01 -6.382294e+00 -5.288613e+00 6.417115e+00 4.606017e+00 -1.748255e+00 5.764857e-02 4.055387e-01 8.254255e+00 -4.407871e+00 -1.326978e-02 -6.249487e-01 -6.101508e-01 8.879634e-01 -6.399467e-01 -7.689051e-01 5.464901e-01 7.964298e-01 8.845816e-01 7.383286e-01 1.242427e-02 2.468264e-01 -2.495831e-01
<VARIANCE> 25
 3.817866e+00 7.154323e+00 7.692141e+00 1.575980e+01 1.023384e+01 1.278402e+01 8.244831e+00 1.187913e+01 1.679216e+01 8.923313e+00 9.652444e+00 7.688825e+00 4.241252e-01 3.959449e-01 4.451435e-01 1.164354e+00 6.500160e-01 9.224458e-01 6.463104e-01 9.222453e-01 7.528852e-01 6.437204e-01 9.827295e-01 7.573023e-01 7.733677e-02
<GCONST> 6.577718e+01
~s "ST_ae_3_1"
<MEAN> 25
 -9.553874e+00 -9.467775e+00 1.144944e+01 -5.267522e-01 -5.415020e+00 2.836449e+00 5.642317e+00 5.541157e-01 7.338860e-01 2.008610e+00 7.421315e+00 -2.915850e+00 1.849484e+00 8.294466e-01 -1.090935e+00 2.524930e+00 1.269367e+00 -7.579048e-01 -9.437284e-01 -3.451428e-01 -5.418510e-01 -6.027009e-01 -2.089810e+00 -2.022163e-01 -3.801741e-01
<VARIANCE> 25
 4.841691e+00 3.949400e+00 1.243498e+01 1.302111e+01 9.413421e+00 1.146135e+01 7.928200e+00 9.597500e+00 1.858587e+01 8.717342e+00 1.415835e+01 1.133521e+01 9.831661e-01 6.374046e-01 1.034281e+00 2.444170e+00 7.448111e-01 8.561679e-01 1.422613e+00 1.413633e+00 1.202242e+00 1.224573e+00 1.366275e+00 1.531562e+00 1.970563e-01
<GCONST> 7.337354e+01
~s "ST_ae_4_1"
<MEAN> 25
 -6.079845e+00 -6.734404e+00 9.630718e+00 2.986108e+00 -3.387651e+00 2.208622e+00 4.827491e+00 1.072205e-01 -1.114650e+00 6.368883e-01 3.449760e+00 -3.479336e+00 3.149946e+00 1.661526e+00 -1.359047e+00 3.189347e+00 2.772141e+00 -1.270450e+00 -3.342231e+00 -1.122143e+00 -6.951714e-01 -1.315766e+00 -3.424202e+00 -1.019178e+00 1.101450e-01
<VARIANCE> 25
 6.337869e+00 7.053644e+00 2.824381e+01 1.697327e+01 7.987746e+00 9.488292e+00 8.076366e+00 9.714634e+00 1.185005e+01 9.320662e+00 1.639161e+01 2.297655e+01 1.352199e+00 4.657207e-01 1.178157e+00 5.224504e+00 1.391376e+00 1.325130e+00 2.959352e+00 2.174563e+00 1.431616e+00 1.829129e+00 2.715657e+00 1.765332e+00 3.678667e-01
<GCONST> 8.060432e+01
~s "ST_ee_2_1"
<MEAN> 25
 8.026431e+00 4.171935e+00 -2.485492e+00 1.391172e+00 2.389762e+00 -2.214558e+00 -3.790899e+00 -1.809251e+00 -2.954815e+00 -3.422350e+00 -3.429238e+00 -4.004765e+00 1.476449e-02 1.190226e+00 1.761763e-01 -1.218849e+00 -1.383179e+00 5.209965e-01 1.824727e+00 1.111550e+00 7.696370e-01 6.154115e-01 -5.564067e-01 -9.359876e-01 -3.521498e-01
<VARIANCE> 25
 4.550946e+00 5.753500e+00 6.522344e+00 3.183540e+01 3.532067e+01 9.749934e+00 9.569464e+00 1.599707e+01 1.437255e+01 1.163192e+01 1.106217e+01 1.979398e+01 3.313075e-01 3.216431e-01 6.889923e-01 1.432105e+00 2.377215e+00 1.379568e+00 1.025949e+00 7.660300e-01 3.363616e+00 2.807463e+00 1.198593e+00 1.112578e+00 1.202089e-01
<GCONST> 7.503756e+01
~s "ST_ee_3_1"
<MEAN> 25
 6.447031e+00 6.172934e+00 3.652723e-01 3.577466e+00 4.229090e+00 1.930230e-01 -1.649812e+00 -4.507775e-01 -7.035900e-01 -1.863141e+00 -5.276726e+00 -6.850254e+00 -2.548429e-01 1.829024e-01 4.300190e-01 8.940582e-02 7.475542e-02 3.411676e-01 3.616255e-01 7.465264e-02 9.573300e-02 -1.301027e-01 -5.568849e-01 -3.181940e-01 -1.845062e-01
<VARIANCE> 25
 4.111120e+00 2.989815e+00 6.384521e+00 3.311509e+01 3.729672e+01 1.166000e+01 8.761971e+00 6.774873e+00 1.652714e+01 2.221143e+01 1.160500e+01 1.025207e+01 9.319752e-02 3.080917e-01 3.558626e-01 6.864024e-01 9.634050e-01 4.697864e-01 8.654390e-01 9.231853e-01 1.004714e+00 9.563158e-01 8.329228e-01 7.444885e-01 6.883693e-02
<GCONST> 6.548198e+01
~s "ST_ee_4_1"
<MEAN> 25
 6.054629e+00 5.309602e+00 9.549573e-03 4.302266e+00 5.503013e+00 9.492921e-01 -1.379640e+00 -1.223569e+00 -1.213577e+00 -2.428749e+00 -6.283297e+00 -6.128694e+00 2.474035e-01 -9.491783e-01 -1.388027e+00 -6.111088e-01 1.080842e-01 -6.582601e-01 -9.803075e-01 -8.174311e-02 7.989232e-01 9.003581e-01 8.188856e-01 1.196383e+00 3.731224e-01
<VARIANCE> 25
 3.071702e+00 3.502164e+00 7.124448e+00 1.286544e+01 1.275552e+01 6.956928e+00 7.951539e+00 6.843546e+00 1.751514e+01 1.219804e+01 8.600464e+00 9.930573e+00 4.179861e-01 3.662515e-01 9.099779e-01 8.993940e-01 4.417174e-01 1.003828e+00 1.173460e+00 5.584314e-01 8.270339e-01 4.719822e-01 6.620336e-01 9.704019e-01 2.155183e-01
<GCONST> 6.490380e+01
~s "ST_m_2_1"
<MEAN> 25
 5.547014e+00 5.105801e+00 -1.197748e+00 2.658057e-01 1.500068e+00 -5.752143e-01 -1.797333e+00 7.926539e-01 3.789633e+00 3.299912e+00 -3.241588e+00 -6.456841e+00 -7.798381e-01 -7.813424e-05 5.665435e-01 4.666244e-01 4.671041e-01 8.716455e-01 1.021668e+00 6.493432e-02 -6.066652e-01 -3.959710e-01 -2.273066e-01 -3.454464e-02 -4.949656e-01
<VARIANCE> 25
 4.685744e+00 1.643443e+00 7.474226e+00 4.494305e+00 3.064513e+00 5.286385e+00 7.918578e+00 5.131754e+00 9.255334e+00 3.243945e+00 5.936011e+00 7.264403e+00 1.758994e-01 2.064596e-01 4.271172e-01 3.427897e-01 4.031405e-01 2.916215e-01 7.470908e-01 6.076295e-01 7.084705e-01 5.913342e-01 7.357787e-01 1.038142e+00 3.846168e-02
<GCONST> 5.259334e+01
~s "ST_m_3_1"
<MEAN> 25
 1.032791e+00 5.268842e+00 1.065733e+00 1.227249e+00 2.620200e+00 3.339741e+00 3.779961e+00 1.409081e+00 3.973112e-01 5.885868e-01 -3.614797e+00 -5.808134e+00 -1.042475e+00 -6.555033e-01 -2.218150e-01 -7.074655e-02 2.576574e-01 7.778146e-01 5.847579e-01 1.853629e-01 -2.203842e-01 -2.565096e-01 6.435989e-01 9.084440e-01 -5.567910e-01
<VARIANCE> 25
 3.400149e+00 2.484990e+00 1.662985e+00 1.907022e+00 3.688765e+00 3.798570e+00 4.969763e+00 7.379527e+00 8.510886e+00 4.292455e+00 3.708250e+00 2.395983e+00 1.239279e-01 1.810170e-01 2.410198e-01 1.958167e-01 3.505701e-01 3.056862e-01 4.354139e-01 5.088105e-01 5.172904e-01 5.759076e-01 3.426054e-01 5.775377e-01 1.073211e-01
<GCONST> 4.560548e+01
~s "ST_m_4_1"
<MEAN> 25
 -8.037575e-01 2.828985e+00 -2.216417e-01 1.331693e+00 2.888232e+00 4.189903e+00 3.780231e+00 1.442871e+00 -8.030109e-02 2.702276e-01 -1.827074e+00 -8.084133e-01 -2.011791e-01 -4.110363e-01 -1.050364e-01 -1.643483e-01 -2.553285e-01 -2.317199e-01 -1.160129e-01 2.111944e-01 4.964025e-02 -7.534824e-02 4.316003e-01 7.365461e-01 7.565856e-03
<VARIANCE> 25
 2.816012e+00 2.933709e+00 2.938743e+00 3.978841e+00 3.309389e+00 4.776729e+00 5.042099e+00 4.931577e+00 8.261034e+00 4.988100e+00 2.921158e+00 6.160821e+00 3.163877e-01 3.902253e-01 3.139966e-01 4.196062e-01 5.606872e-01 4.874930e-01 4.223516e-01 6.917079e-01 9.720974e-01 4.913299e-01 7.405553e-01 7.170513e-01 1.804134e-01
<GCONST> 5.336966e+01
~s "ST_z_2_1"
<MEAN> 25
 -1.615058e+00 -5.128164e-01 9.963222e+00 -2.662511e+00 -6.444625e+00 4.737896e+00 3.529109e+00 -3.952475e-01 -3.340298e+00 -1.211271e-01 1.879391e+00 -3.734428e+00 -5.366013e-01 -5.299433e-01 9.800606e-01 3.170489e-01 -2.250109e-01 6.125794e-02 -1.864192e-01 -3.349603e-01 -4.364086e-01 -4.605765e-01 -2.418907e-01 -4.436710e-01 6.600359e-02
<VARIANCE> 25
 1.081904e+01 6.772219e+00 1.797322e+01 1.053636e+01 6.911342e+00 9.565164e+00 6.801001e+00 6.545474e+00 9.602741e+00 9.791949e+00 1.582871e+01 1.030145e+01 3.781136e+00 1.472617e+00 6.056036e+00 9.761803e-01 1.026496e+00 3.661026e+00 1.749676e+00 5.658640e-01 1.110813e+00 1.071576e+00 4.400832e+00 9.040676e-01 9.064054e-02
<GCONST> 7.707188e+01
~s "ST_z_3_1"
<MEAN> 25
 5.500125e+00 1.337596e+00 7.541511e-01 -1.880096e+00 -6.059849e+00 -3.506192e+00 -2.922893e+00 -2.467442e+00 -1.464141e+00 -3.768275e+00 -7.457858e+00 -4.017505e+00 2.987761e+00 -1.456932e-01 -5.117338e+00 -8.240089e-01 6.741195e-01 -3.045211e+00 -2.951869e+00 3.982416e-01 2.121855e+00 -4.820627e-01 -1.994765e+00 1.234846e+00 1.150967e+00
<VARIANCE> 25
 8.131476e+00 7.284620e+00 3.210512e+01 5.624112e+00 5.055917e+00 1.396024e+01 2.247110e+01 6.793625e+00 1.643689e+01 5.366981e+00 7.969234e+00 7.619299e+00 6.389967e-01 8.180860e-01 9.941583e-01 8.560289e-01 5.917616e-01 1.603646e+00 1.470203e+00 1.031307e+00 1.007123e+00 8.277768e-01 1.800953e+00 8.833476e-01 8.983678e-02
<GCONST> 7.052208e+01
~s "ST_z_4_1"
<MEAN> 25
 1.053274e+01 -1.903369e+00 -1.007256e+01 -4.136217e+00 -3.710328e+00 -9.138375e+00 -9.104458e+00 1.690338e-01 3.937466e+00 -3.809344e+00 -7.840212e+00 2.329077e-01 1.134630e+00 -1.153413e+00 -3.107629e+00 -9.787621e-01 4.219322e-01 -1.324986e+00 -9.313793e-01 1.423784e+00 1.497530e+00 5.210302e-01 5.319040e-01 9.550920e-01 7.557608e-01
<VARIANCE> 25
 1.127751e+00 7.290751e+00 3.926542e+00 3.974936e+00 4.924475e+00 6.419877e+00 8.445730e+00 8.927311e+00 8.063056e+00 4.627464e+00 3.094116e+00 5.905627e+00 2.870615e-01 4.675832e-01 8.726905e-01 5.655492e-01 3.003379e-01 8.002343e-01 9.807218e-01 5.403674e-01 6.250738e-01 7.016255e-01 8.000784e-01 4.884330e-01 8.956461e-02
<GCONST> 5.615095e+01
~s "ST_ch_2_1"
<MEAN> 25
 -8.780622e-01 -1.050798e+01 3.561646e+00 5.512209e+00 -9.245752e-01 2.294055e+00 -2.095942e+00 -6.800487e+00 3.652760e+00 -2.341425e+00 -6.024724e+00 -2.059346e+00 -2.119875e+00 -2.561040e+00 2.001510e+00 1.254118e+00 -7.208691e-01 -6.210120e-01 5.662397e-01 6.052189e-01 2.029136e+00 6.453481e-01 8.270069e-01 5.722899e-01 2.339177e-01
<VARIANCE> 25
 1.459302e+01 2.945311e+01 1.402460e+01 1.214949e+01 9.756928e+00 9.743197e+00 8.273459e+00 9.076990e+00 3.218199e+01 1.229690e+01 1.022633e+01 6.627182e+00 5.760631e-01 1.432946e+00 1.176983e+00 6.675744e-01 1.413615e+00 1.144262e+00 1.075164e+00 1.477552e+00 1.542924e+00 1.326419e+00 9.499813e-01 5.601106e-01 8.198722e-02
<GCONST> 7.431347e+01
~s "ST_ch_3_1"
<MEAN> 25
 -8.099935e+00 -1.424087e+01 1.032055e+01 4.797993e+00 -1.371721e+00 -9.443210e-01 3.877006e-01 1.482497e+00 6.613570e+00 -2.868181e+00 1.627117e+00 1.663853e+00 -5.192633e-01 1.684538e+00 6.810530e-02 -1.778666e+00 1.927492e-01 -1.216717e-01 7.444627e-01 1.972222e+00 -1.632961e+00 -1.811689e-02 2.065430e+00 6.037561e-01 -8.502200e-01
<VARIANCE> 25
 2.999450e+00 1.029314e+01 7.829538e+00 2.278288e+01 7.038645e+00 7.430143e+00 9.998277e+00 2.622028e+01 2.716289e+01 7.272360e+00 2.584629e+01 9.711060e+00 7.420688e-01 1.491657e+00 2.411210e+00 9.449044e-01 5.852652e-01 5.289823e-01 9.410129e-01 1.783652e+00 1.908704e+00 1.795412e+00 1.334124e+00 1.036307e+00 3.186989e-01
<GCONST> 7.558051e+01
~s "ST_ch_4_1"
<MEAN> 25
 -5.782467e+00 -4.847059e+00 2.616989e+00 1.457215e+00 -1.481606e+00 -8.853791e-02 3.938800e+00 3.362700e+00 1.354793e+00 1.463589e+00 3.663634e+00 4.608693e+00 5.974396e-01 1.042348e+00 -1.270025e+00 4.757161e-02 -4.859003e-01 9.230445e-02 6.190414e-01 -4.457380e-01 -4.199393e-01 7.821561e-01 -1.267529e-01 1.780866e-01 -7.052908e-01
<VARIANCE> 25
 2.172667e+00 3.708309e+00 7.635134e+00 3.807530e+00 5.317756e+00 1.080048e+01 7.452009e+00 9.965177e+00 9.692752e+00 8.270116e+00 8.335306e+00 7.063653e+00 2.891494e-01 7.070951e-01 1.672067e+00 6.429122e-01 3.775648e-01 8.132631e-01 7.637172e-01 7.874109e-01 1.092373e+00 9.465629e-01 7.653224e-01 1.564125e+00 5.757213e-01
<GCONST> 6.467772e+01
~s "ST_oo_2_1"
<MEAN> 25
 7.706032e+00 7.424962e+00 6.186633e-01 -1.710893e+00 -8.347221e+00 -1.322022e+01 -8.726023e+00 1.300928e+00 5.674844e+00 -1.544313e-01 -6.304237e+00 -4.860463e+00 8.238257e-01 -6.015840e-01 -1.085348e+00 -7.097603e-01 -6.059206e-01 -7.564679e-01 -2.655239e-01 1.346870e+00 1.887226e+00 -4.947727e-01 -2.082186e+00 -1.374665e+00 7.098745e-01
<VARIANCE> 25
 2.511068e+00 3.439507e+00 3.351119e+00 4.248768e+00 5.435132e+00 1.324943e+01 1.017401e+01 1.003829e+01 1.360093e+01 8.535980e+00 1.051310e+01 9.388838e+00 2.280921e-01 4.005077e-01 3.912704e-01 3.812634e-01 7.400023e-01 2.227678e+00 1.327838e+00 8.209078e-01 1.362291e+00 1.271225e+00 1.493014e+00 1.185252e+00 1.158222e-01
<GCONST> 6.426315e+01
~s "ST_oo_3_1"
<MEAN> 25
 8.883455e+00 5.402056e+00 -2.616063e+00 -3.645152e+00 -7.542206e+00 -1.098362e+01 -6.543460e+00 3.565678e+00 7.134667e+00 -2.738991e+00 -1.110178e+01 -7.228308e+00 1.916467e-01 -1.053061e+00 -1.242050e+00 1.202417e-02 1.635461e+00 1.943010e+00 7.568790e-01 -4.701496e-01 -1.171620e+00 -1.712104e+00 -1.047507e+00 3.406613e-01 3.806729e-01
<VARIANCE> 25
 2.731810e+00 3.516194e+00 4.372088e+00 3.840913e+00 7.015237e+00 1.268509e+01 7.848454e+00 7.350728e+00 1.068914e+01 1.605507e+01 1.466874e+01 8.934739e+00 1.006788e-01 6.005465e-01 6.108496e-01 6.165646e-01 2.085866e+00 2.042409e+00 1.039618e+00 1.099629e+00 1.878791e+00 1.391049e+00 1.465010e+00 1.257037e+00 1.096142e-01
<GCONST> 6.675620e+01
~s "ST_oo_4_1"
<MEAN> 25
 8.513210e+00 2.320728e+00 -4.937230e+00 -1.194890e+00 -3.756868e-01 -4.063375e+00 -5.793378e+00 -1.312563e+00 3.713613e-01 -6.562331e+00 -1.004426e+01 -3.702799e+00 -7.978040e-01 -1.207013e+00 4.079172e-02 8.926040e-01 1.934699e+00 2.844987e+00 9.570826e-01 -1.876250e+00 -2.146330e+00 -7.925482e-02 1.296049e+00 9.769830e-01 -1.375319e-01
<VARIANCE> 25
 3.290932e+00 7.054358e+00 4.778507e+00 6.815369e+00 2.690874e+01 3.015637e+01 9.655314e+00 2.217520e+01 2.192184e+01 2.142294e+01 1.253288e+01 9.210729e+00 4.843397e-01 1.354988e+00 1.177997e+00 7.187244e-01 2.887561e+00 2.221772e+00 1.602357e+00 1.915347e+00 2.335488e+00 2.024806e+00 1.549163e+00 8.559875e-01 1.516331e-01
<GCONST> 7.788313e+01
~s "ST_p_2_1"
<MEAN> 25
 -3.931928e+00 -3.057041e-01 -2.407153e+00 -9.443479e-01 4.922936e-02 2.484947e+00 3.870521e+00 2.090627e+00 1.118259e+00 3.688121e+00 3.431055e+00 4.186718e+00 1.476003e+00 8.071690e-01 5.674186e-01 -1.671877e-01 -1.302996e+00 -1.832070e+00 -1.419215e+00 -7.263278e-01 -3.002615e-01 -6.958696e-01 -1.157999e+00 -1.901281e+00 9.989135e-01
<VARIANCE> 25
 1.313271e+00 1.707996e+00 2.860583e+00 3.116774e+00 5.688812e+00 4.313182e+00 5.770934e+00 5.445318e+00 8.666174e+00 1.006164e+01 7.333930e+00 9.636686e+00 7.963825e-01 8.751725e-01 4.814207e-01 5.191219e-01 7.696407e-01 1.413591e+00 1.050542e+00 7.680894e-01 1.003526e+00 9.707780e-01 9.764151e-01 9.540420e-01 1.824249e-01
<GCONST> 6.064026e+01
~s "ST_p_3_1"
<MEAN> 25
 1.700013e-01 2.759826e+00 2.990095e-01 -4.437682e-01 -2.754902e+00 -1.942936e+00 -8.800593e-02 -9.951458e-01 -1.216969e+00 4.022421e-01 -6.067941e-02 -7.835655e-01 3.322220e+00 1.964872e+00 1.741023e-01 -4.452872e-01 -1.889402e+00 -3.954252e+00 -3.274105e+00 -4.960745e-01 4.185696e-01 -1.495481e+00 -2.642238e+00 -2.128960e+00 1.722827e+00
<VARIANCE> 25
 8.230844e+00 1.198428e+01 4.491609e+00 3.522132e+00 9.202817e+00 1.266013e+01 1.407850e+01 1.013453e+01 9.310589e+00 6.672263e+00 5.786125e+00 1.153848e+01 6.025007e-01 6.588463e-01 1.610373e+00 1.142302e+00 1.008707e+00 1.310643e+00 8.541610e-01 1.190523e+00 1.698361e+00 1.057825e+00 1.245299e+00 2.013700e+00 3.823686e-01
<GCONST> 7.187388e+01
~s "ST_p_4_1"
<MEAN> 25
 7.840700e+00 6.136180e+00 -2.340378e+00 -3.214405e+00 -7.158818e+00 -1.152977e+01 -7.267227e+00 7.641909e-01 3.150362e+00 -8.356932e-01 -5.666656e+00 -4.360396e+00 2.969940e+00 9.050631e-01 -1.122398e+00 -9.565547e-01 -1.514510e+00 -3.099958e+00 -2.453215e+00 3.827983e-01 1.435629e+00 -9.517472e-01 -2.580609e+00 -1.643808e+00 1.621517e+00
<VARIANCE> 25
 4.084985e+00 6.258489e+00 1.567060e+01 8.672049e+00 4.747483e+00 8.389641e+00 8.364285e+00 1.149708e+01 1.702905e+01 9.127815e+00 9.138500e+00 1.061559e+01 1.003554e+00 6.979845e-01 1.197114e+00 8.485765e-01 1.059915e+00 2.382400e+00 1.848168e+00 1.254332e+00 2.104675e+00 1.279597e+00 9.219169e-01 1.378084e+00 4.118466e-01
<GCONST> 7.374162e+01
~s "ST_tt_2_1"
<MEAN> 25
 -4.229481e+00 -3.074250e+00 5.172358e+00 -3.552770e+00 -3.134209e+00 1.377811e+00 3.372365e+00 -1.562700e+00 -4.708535e+00 2.229658e+00 5.467700e+00 -5.246996e-01 -8.783485e-01 -1.274946e+00 1.922641e+00 1.001730e+00 -5.709224e-01 2.427962e-02 4.209720e-01 4.924159e-01 -1.011127e-01 -6.649740e-02 3.818477e-01 -8.775963e-01 3.459004e-01
<VARIANCE> 25
 1.606875e+01 1.395994e+01 2.991161e+01 2.292844e+01 2.529916e+01 9.697116e+00 2.073493e+01 1.467057e+01 1.511446e+01 9.126958e+00 1.892377e+01 1.734464e+01 4.064123e+00 2.795763e+00 4.478816e+00 3.601336e+00 4.064619e+00 7.508687e-01 4.022679e+00 2.571095e+00 1.333792e+00 1.922473e+00 6.062896e+00 1.068328e+00 2.743855e-01
<GCONST> 9.001121e+01
~s "ST_tt_3_1"
<MEAN> 25
 -8.238605e-02 -1.680566e+00 4.309194e+00 3.674210e+00 2.159786e+00 1.315989e+00 -2.671649e+00 -4.757629e+00 -5.766735e+00 -1.661545e+00 -5.661986e-01 -3.270557e+00 2.134956e-01 1.624593e-01 -4.196218e-01 3.688721e-01 6.290263e-01 -1.148314e-01 -4.381807e-01 -5.881444e-03 3.193250e-01 -1.138147e-01 -2.726263e-01 8.263022e-02 -9.031168e-02
<VARIANCE> 25
 1.905374e+01 1.639303e+01 1.739758e+01 1.826546e+01 2.373730e+01 1.253081e+01 4.191233e+01 3.003721e+01 9.879343e+00 1.801081e+01 3.758323e+01 1.182387e+01 3.683387e+00 3.085561e+00 4.345222e+00 1.910423e+00 4.922846e+00 9.414423e-01 7.494084e+00 3.567169e+00 1.466909e+00 1.711334e+00 4.833427e+00 1.525506e+00 9.667661e-01
<GCONST> 9.381464e+01
~s "ST_tt_4_1"
<MEAN> 25
 -3.715019e+00 -3.740946e+00 2.797460e+00 1.168987e+00 -9.235302e-01 1.348183e+00 3.010451e+00 7.211657e-02 -2.533391e+00 1.861897e+00 3.759371e+00 5.843970e-01 -2.163035e-01 1.401273e-01 -5.253426e-01 6.259762e-02 6.671728e-02 1.467709e-01 3.474814e-01 5.500707e-01 6.775754e-01 1.482954e-01 2.075908e-01 5.374242e-01 -4.583652e-01
<VARIANCE> 25
 1.316044e+01 2.030607e+01 2.809092e+01 1.077655e+01 1.587960e+01 9.997548e+00 2.032271e+01 1.679844e+01 8.714581e+00 1.390204e+01 1.952990e+01 1.583394e+01 5.913227e-01 1.835058e+00 2.274698e+00 8.759012e-01 1.209779e+00 8.442098e-01 8.281463e-01 9.182267e-01 1.151880e+00 7.356640e-01 9.992768e-01 1.047508e+00 5.072903e-01
<GCONST> 7.839909e+01
~s "ST_yy_2_1"
<MEAN> 25
 6.275813e+00 -3.103211e-01 -2.398078e+00 8.294288e+00 1.177424e+01 -8.778757e-01 -1.377264e+01 -6.498273e+00 -3.894579e+00 -7.827168e+00 -4.591785e+00 -3.501431e+00 -7.175987e-01 -1.045475e+00 4.562209e-01 1.641290e+00 8.899779e-01 -2.662332e-01 -8.509456e-02 -5.888501e-01 -1.983435e-01 1.546407e+00 1.468696e+00 -6.398278e-01 -1.664946e-02
<VARIANCE> 25
 1.293651e+00 2.713383e+00 2.165595e+00 4.884912e+00 8.469822e+00 5.488558e+00 8.424767e+00 5.356328e+00 9.110683e+00 8.324633e+00 9.050881e+00 6.564996e+00 1.569240e-01 3.033957e-01 5.334570e-01 3.970741e-01 1.072942e+00 6.074674e-01 3.149177e+00 1.219790e+00 1.096598e+00 5.350838e-01 9.482354e-01 7.800835e-01 1.081651e-01
<GCONST> 5.888567e+01
~s "ST_yy_3_1"
<MEAN> 25
 3.897427e+00 -4.093073e-01 2.071136e-01 1.004146e+01 1.041181e+01 -5.712634e-01 -8.714424e+00 -7.051710e+00 -6.006232e+00 -4.922520e+00 -3.235504e+00 -5.334784e+00 -1.630428e+00 4.806877e-01 8.532286e-01 -7.640344e-01 -1.368348e+00 1.141110e+00 3.243631e+00 2.245530e-01 -4.961929e-01 1.817778e+00 9.067967e-01 2.107680e-01 -1.149119e+00
<VARIANCE> 25
 2.423324e+00 3.855781e+00 8.203621e+00 4.584630e+00 5.931411e+00 8.436746e+00 1.570610e+01 8.682631e+00 1.094478e+01 6.512017e+00 8.935345e+00 7.913608e+00 6.650221e-02 3.992276e-01 1.026420e+00 1.011296e+00 1.002805e+00 8.761091e-01 7.796538e-01 9.025689e-01 7.762093e-01 5.844412e-01 1.419441e+00 1.294224e+00 1.369212e-01
<GCONST> 6.291934e+01
~h "a"
<BEGINHMM>
<NUMSTATES> 5
<STATE> 2
~s "ST_a_2_1"
<STATE> 3
~s "ST_a_3_1"
<STATE> 4
~s "ST_a_4_1"
~t "T_a"
<ENDHMM>
~h "b"
<BEGINHMM>
<NUMSTATES> 5
<STATE> 2
~s "ST_b_2_1"
<STATE> 3
~s "ST_b_3_1"
<STATE> 4
~s "ST_b_4_1"
~t "T_b"
<ENDHMM>
~h "d"
<BEGINHMM>
<NUMSTATES> 5
<STATE> 2
~s "ST_d_2_1"
<STATE> 3
~s "ST_d_3_1"
<STATE> 4
~s "ST_d_4_1"
~t "T_d"
<ENDHMM>
~h "f"
<BEGINHMM>
<NUMSTATES> 5
<STATE> 2
~s "ST_f_2_1"
<STATE> 3
~s "ST_f_3_1"
<STATE> 4
~s "ST_f_4_1"
~t "T_f"
<ENDHMM>
~h "g"
<BEGINHMM>
<NUMSTATES> 5
<STATE> 2
~s "ST_g_2_1"
<STATE> 3
~s "ST_g_3_1"
<STATE> 4
~s "ST_g_4_1"
~t "T_g"
<ENDHMM>
~h "h"
<BEGINHMM>
<NUMSTATES> 5
<STATE> 2
~s "ST_h_2_1"
<STATE> 3
~s "ST_h_3_1"
<STATE> 4
~s "ST_h_4_1"
~t "T_h"
<ENDHMM>
~h "i"
<BEGINHMM>
<NUMSTATES> 5
<STATE> 2
~s "ST_i_2_1"
<STATE> 3
~s "ST_i_3_1"
<STATE> 4
~s "ST_i_4_1"
~t "T_i"
<ENDHMM>
~h "j"
<BEGINHMM>
<NUMSTATES> 5
<STATE> 2
~s "ST_j_2_1"
<STATE> 3
~s "ST_j_3_1"
<STATE> 4
~s "ST_j_4_1"
~t "T_j"
<ENDHMM>
~h "m"
<BEGINHMM>
<NUMSTATES> 5
<STATE> 2
~s "ST_m_2_1"
<STATE> 3
~s "ST_m_3_1"
<STATE> 4
~s "ST_m_4_1"
~t "T_m"
<ENDHMM>
~h "n"
<BEGINHMM>
<NUMSTATES> 5
<STATE> 2
~s "ST_n_2_1"
<STATE> 3
~s "ST_n_3_1"
<STATE> 4
~s "ST_n_4_1"
~t "T_n"
<ENDHMM>
~h "p"
<BEGINHMM>
<NUMSTATES> 5
<STATE> 2
~s "ST_p_2_1"
<STATE> 3
~s "ST_p_3_1"
<STATE> 4
~s "ST_p_4_1"
~t "T_p"
<ENDHMM>
~h "r"
<BEGINHMM>
<NUMSTATES> 5
<STATE> 2
~s "ST_r_2_1"
<STATE> 3
~s "ST_r_3_1"
<STATE> 4
~s "ST_r_4_1"
~t "T_r"
<ENDHMM>
~h "s"
<BEGINHMM>
<NUMSTATES> 5
<STATE> 2
~s "ST_s_2_1"
<STATE> 3
~s "ST_s_3_1"
<STATE> 4
~s "ST_s_4_1"
~t "T_s"
<ENDHMM>
~h "t"
<BEGINHMM>
<NUMSTATES> 5
<STATE> 2
~s "ST_t_2_1"
<STATE> 3
~s "ST_t_3_1"
<STATE> 4
~s "ST_t_4_1"
~t "T_t"
<ENDHMM>
~h "v"
<BEGINHMM>
<NUMSTATES> 5
<STATE> 2
~s "ST_v_2_1"
<STATE> 3
~s "ST_v_3_1"
<STATE> 4
~s "ST_v_4_1"
~t "T_v"
<ENDHMM>
~h "z"
<BEGINHMM>
<NUMSTATES> 5
<STATE> 2
~s "ST_z_2_1"
<STATE> 3
~s "ST_z_3_1"
<STATE> 4
~s "ST_z_4_1"
~t "T_z"
<ENDHMM>
~h "aa"
<BEGINHMM>
<NUMSTATES> 5
<STATE> 2
~s "ST_aa_2_1"
<STATE> 3
~s "ST_aa_3_1"
<STATE> 4
~s "ST_aa_4_1"
~t "T_aa"
<ENDHMM>
~h "ae"
<BEGINHMM>
<NUMSTATES> 5
<STATE> 2
~s "ST_ae_2_1"
<STATE> 3
~s "ST_ae_3_1"
<STATE> 4
~s "ST_ae_4_1"
~t "T_ae"
<ENDHMM>
~h "ay"
<BEGINHMM>
<NUMSTATES> 5
<STATE> 2
~s "ST_ay_2_1"
<STATE> 3
~s "ST_ay_3_1"
<STATE> 4
~s "ST_ay_4_1"
~t "T_ay"
<ENDHMM>
~h "ch"
<BEGINHMM>
<NUMSTATES> 5
<STATE> 2
~s "ST_ch_2_1"
<STATE> 3
~s "ST_ch_3_1"
<STATE> 4
~s "ST_ch_4_1"
~t "T_ch"
<ENDHMM>
~h "ee"
<BEGINHMM>
<NUMSTATES> 5
<STATE> 2
~s "ST_ee_2_1"
<STATE> 3
~s "ST_ee_3_1"
<STATE> 4
~s "ST_ee_4_1"
~t "T_ee"
<ENDHMM>
~h "ii"
<BEGINHMM>
<NUMSTATES> 5
<STATE> 2
~s "ST_ii_2_1"
<STATE> 3
~s "ST_ii_3_1"
<STATE> 4
~s "ST_ii_4_1"
~t "T_ii"
<ENDHMM>
~h "ll"
<BEGINHMM>
<NUMSTATES> 5
<STATE> 2
~s "ST_ll_2_1"
<STATE> 3
~s "ST_ll_3_1"
<STATE> 4
~s "ST_ll_4_1"
~t "T_ll"
<ENDHMM>
~h "mm"
<BEGINHMM>
<NUMSTATES> 5
<STATE> 2
~s "ST_mm_2_1"
<STATE> 3
~s "ST_mm_3_1"
<STATE> 4
~s "ST_mm_4_1"
~t "T_mm"
<ENDHMM>
~h "nn"
<BEGINHMM>
<NUMSTATES> 5
<STATE> 2
~s "ST_nn_2_1"
<STATE> 3
~s "ST_nn_3_1"
<STATE> 4
~s "ST_nn_4_1"
~t "T_nn"
<ENDHMM>
~h "oo"
<BEGINHMM>
<NUMSTATES> 5
<STATE> 2
~s "ST_oo_2_1"
<STATE> 3
~s "ST_oo_3_1"
<STATE> 4
~s "ST_oo_4_1"
~t "T_oo"
<ENDHMM>
~h "rr"
<BEGINHMM>
<NUMSTATES> 5
<STATE> 2
~s "ST_rr_2_1"
<STATE> 3
~s "ST_rr_3_1"
<STATE> 4
~s "ST_rr_4_1"
~t "T_rr"
<ENDHMM>
~h "sp"
<BEGINHMM>
<NUMSTATES> 3
<STATE> 2
~s "ST_sil_3_1"
<TRANSP> 3
 0.000000e+00 3.061165e-01 6.938835e-01
 0.000000e+00 8.647029e-01 1.352971e-01
 0.000000e+00 0.000000e+00 0.000000e+00
<ENDHMM>
~h "ss"
<BEGINHMM>
<NUMSTATES> 5
<STATE> 2
~s "ST_ss_2_1"
<STATE> 3
~s "ST_ss_3_1"
<STATE> 4
~s "ST_ss_4_1"
~t "T_ss"
<ENDHMM>
~h "tt"
<BEGINHMM>
<NUMSTATES> 5
<STATE> 2
~s "ST_tt_2_1"
<STATE> 3
~s "ST_tt_3_1"
<STATE> 4
~s "ST_tt_4_1"
~t "T_tt"
<ENDHMM>
~h "ur"
<BEGINHMM>
<NUMSTATES> 5
<STATE> 2
~s "ST_ur_2_1"
<STATE> 3
~s "ST_ur_3_1"
<STATE> 4
~s "ST_ur_4_1"
~t "T_ur"
<ENDHMM>
~h "yy"
<BEGINHMM>
<NUMSTATES> 5
<STATE> 2
~s "ST_yy_2_1"
<STATE> 3
~s "ST_yy_3_1"
<STATE> 4
~s "ST_yy_4_1"
~t "T_yy"
<ENDHMM>
~h "s+p"
<BEGINHMM>
<NUMSTATES> 5
<STATE> 2
~s "ST_s_2_1"
<STATE> 3
~s "ST_s_3_1"
<STATE> 4
~s "ST_s_4_2"
~t "T_s"
<ENDHMM>
~h "t-a"
<BEGINHMM>
<NUMSTATES> 5
<STATE> 2
~s "ST_a_2_2"
<STATE> 3
~s "ST_a_3_2"
<STATE> 4
~s "ST_a_4_1"
~t "T_a"
<ENDHMM>
~h "sil"
<BEGINHMM>
<NUMSTATES> 5
<STATE> 2
~s "ST_sil_2_1"
<STATE> 3
~s "ST_sil_3_1"
<STATE> 4
~s "ST_sil_4_1"
<TRANSP> 5
 0.000000e+00 1.000000e+00 0.000000e+00 0.000000e+00 0.000000e+00
 0.000000e+00 6.190695e-01 2.617142e-01 1.192163e-01 0.000000e+00
 0.000000e+00 0.000000e+00 8.848515e-01 1.151484e-01 0.000000e+00
 0.000000e+00 4.575204e-02 0.000000e+00 9.210805e-01 3.316751e-02
 0.000000e+00 0.000000e+00 0.000000e+00 0.000000e+00 0.000000e+00
<ENDHMM>
~h "d-aa+t"
<BEGINHMM>
<NUMSTATES> 5
<STATE> 2
~s "ST_aa_2_1"
<STATE> 3
~s "ST_aa_3_2"
<STATE> 4
~s "ST_aa_4_2"
~t "T_aa"
<ENDHMM>
~h "s-a+b"
<BEGINHMM>
<NUMSTATES> 5
<STATE> 2
~s "ST_a_2_1"
<STATE> 3
~s "ST_a_3_2"
<STATE> 4
~s "ST_a_4_1"
~t "T_a"
<ENDHMM>
~h "z-aa+f"
<BEGINHMM>
<NUMSTATES> 5
<STATE> 2
~s "ST_aa_2_1"
<STATE> 3
~s "ST_aa_3_2"
<STATE> 4
~s "ST_aa_4_1"
~t "T_aa"
<ENDHMM>
